0.051038607954978942871 0.035673331469297409058 0.010713174939155578613 0.030165009200572967529 -0.021480917930603027344 0.017427023500204086304 0.0086817843839526176453 0.010176466777920722961 0.046834625303745269775 0.042224831879138946533 0.0069848406128585338593 0.058377232402563095093 0.012203331105411052704 -0.013402895070612430573 0.014047704637050628662 0.020956369116902351379 0.016552245244383811951 0.053856775164604187012 0.0087758470326662063599 -0.0080989049747586250305 -0.036655683070421218872 0.015091301873326301575 0.0010459162294864654541 0.006855378858745098114 0.022130396217107772827 -0.016459571197628974915 -0.044415198266506195068 -0.086420319974422454834 -0.067069664597511291504 -0.11347378045320510864 -0.026109721511602401733 -0.01658496074378490448 -0.057209841907024383545 -0.088573329150676727295 -0.023623477667570114136 -0.04433372989296913147 0.044089011847972869873 0.031470760703086853027 0.0079861897975206375122 0.0036182131152600049973 0.008411625400185585022 0.023929659277200698853 0.02292094007134437561 0.0034522388596087694168 0.0012385329464450478554 0.010191107168793678284 0.030353326350450515747 -0.025547446683049201965 -0.0048568532802164554596 -0.015111308544874191284 0.054084278643131256104 -0.019369749352335929871 0.020654698833823204041 0.0097997207194566726685 -0.063111640512943267822 0.003369054524227976799 -0.066304482519626617432 0.0059268837794661521912 -0.051664117723703384399 -0.021325543522834777832 -0.031295958906412124634 -0.01457574404776096344 -0.039719112217426300049 0.035052847117185592651 -0.0067384135909378528595 0.050336211919784545898 -0.037785731256008148193 0.012819900177419185638 0.0085876751691102981567 -0.026840412989258766174 0.012177055701613426208 0.010990368202328681946 -0.047112792730331420898 0.0092509901151061058044 0.02416254580020904541 0.02237639203667640686 -0.017040470615029335022 -0.050437286496162414551 -0.02267031744122505188 0.0094575174152851104736 0.03609579429030418396 -0.01628241315484046936 -0.036722332239151000977 0.066803179681301116943 0.0054493132047355175018 0.051165893673896789551 -0.049763292074203491211 0.0085438424721360206604 -0.0044274996034801006317 -0.0082383127883076667786 -0.011363082565367221832 0.004230618942528963089 -0.031483422964811325073 -0.021190026775002479553 -0.0041197976097464561462 -0.020015668123960494995 -0.027762582525610923767 -0.019399501383304595947 -0.026472257450222969055 0.05448193475604057312 -0.0074816723354160785675 0.065138481557369232178 0.013038984499871730804 -0.065981939435005187988 -0.0046835537068545818329 0.056320954114198684692 0.0055206790566444396973 0.025145770981907844543 0.032224450260400772095 0.014646039344370365143 -0.0032115604262799024582 0.0093197906389832496643 -0.0020862068049609661102 -0.0014032564358785748482 -0.0096641285344958305359 0.021859327331185340881 0.016927527263760566711 0.063916675746440887451 -0.019955063238739967346 0.096024252474308013916 -0.060376979410648345947 -0.010565404780209064484 0.037803184241056442261 -0.045101035386323928833 0.0050587626174092292786 0.035163521766662597656 0.03015773184597492218 0.006031307857483625412 0.0011663523036986589432 -0.030082412064075469971 0.0065200510434806346893 -0.023857001215219497681 0.029062317684292793274 -0.016788901761174201965 -0.014380041509866714478 0.01296764519065618515 0.023331006988883018494 0.018932873383164405823 0.020805954933166503906 -0.027685673907399177551 0.01220941450446844101 -0.0023858565837144851685 0.0085098296403884887695 0.00043717678636312484741 -0.0061532403342425823212 0.014927683398127555847 -0.045512698590755462646 -0.013761946931481361389 -0.0043293097987771034241 0.036783799529075622559 -0.0088313901796936988831 -0.014506259933114051819 -0.038321375846862792969 0.0021485439501702785492 -0.017440831288695335388 -0.029858250170946121216 -0.017453648149967193604 0.063567817211151123047 -0.026983894407749176025 0.019627781584858894348 -0.081055156886577606201 0.08027518540620803833 0.00016456907906103879213 -0.0021974474657326936722 -0.0020421007648110389709 -0.012734077870845794678 0.0044213454239070415497 0.0062939017079770565033 0.0070125674828886985779 -0.00074540940113365650177 0.0029117509257048368454 -0.030279686674475669861 -0.017912441864609718323 0.069529920816421508789 0.020661024376749992371 -0.0041220448911190032959 -0.012535663321614265442 -0.0079231411218643188477 0.013574699871242046356 -0.0021649841219186782837 -0.22970460355281829834 -0.055353492498397827148 -0.079269185662269592285 -0.17624896764755249023 -0.09941221773624420166 -0.063570953905582427979 -0.05731658637523651123 -0.012147946283221244812 0.013387119397521018982 0.087333142757415771484 0.00019365936168469488621 -0.010243713855743408203 0.019244438037276268005 0.00072420656215399503708 -0.019834222272038459778 0.057079926133155822754 0.022134516388177871704 -0.022097401320934295654 0.0064230589196085929871 -0.025216830894351005554 -0.0063468483276665210724 0.00074505951488390564919 -0.0036744221579283475876 -0.013068495318293571472 -0.0035305661149322986603 0.038967162370681762695 -0.003829934634268283844 0.007041520439088344574 -0.00086136913159862160683 0.0078897569328546524048 0.01957216113805770874 0.01155897136777639389 0.017161970958113670349 -0.025834310799837112427 0.023946154862642288208 0.0043196622282266616821 0.030731722712516784668 -0.0469988211989402771 0.0022329478524625301361 -0.016323218122124671936 0.033467423170804977417 0.014517293311655521393 0.041813138872385025024 -0.031260520219802856445 -0.017961040139198303223 -0.0083317868411540985107 0.0082291811704635620117 -0.0020065573044121265411 0.0035192375071346759796 -0.01366552058607339859 0.028443913906812667847 -0.00010090513387694954872 0.0075518381781876087189 0.0010822656331583857536 0.05975149199366569519 -0.024910103529691696167 0.0072192796505987644196 -0.044909279793500900269 0.038512270897626876831 0.017924297600984573364 0.019544551149010658264 0.067054979503154754639 -0.071352660655975341797 0.0074002868495881557465 -0.0053482996299862861633 0.00093531742459163069725 -0.014191597700119018555 0.024260789155960083008 0.029511796310544013977 0.020278409123420715332 0.0036621589679270982742 -0.017487276345491409302 0.053610965609550476074 0.013344393111765384674 -0.022852065041661262512 -0.007160695735365152359 -0.020279502496123313904 -0.024994531646370887756 0.035611543804407119751 0.025620706379413604736 -0.015247029252350330353 0.04029429703950881958 -0.027548486366868019104 0.045687273144721984863 -0.02488652057945728302 -0.018975736573338508606 -0.012424332089722156525 -0.013373172841966152191 0.035999692976474761963 0.0012358038220554590225 0.0059364978224039077759 -0.0070293867029249668121 0.028743753209710121155 0.0017038452206179499626 -0.013003123924136161804 -0.010633964091539382935 0.0056689977645874023438 -0.0015771017642691731453 0.017509672790765762329 -0.046764235943555831909 -0.011857394129037857056 0.027895346283912658691 0.0095871658995747566223 0.039891682565212249756 -0.017916828393936157227 -0.022456288337707519531 -0.01396317407488822937 0.021911030635237693787 -0.059184383600950241089 0.038386456668376922607 -0.079806648194789886475 0.035054411739110946655 0.0010131517192348837852 0.026100084185600280762 -0.0020288138184696435928 -0.025027602910995483398 -0.073265127837657928467 -0.017394224181771278381 -0.011219307780265808105 0.016274614259600639343 0.015742434188723564148 0.014006149955093860626 -0.022370390594005584717 -0.0039055482484400272369 -0.009833898395299911499 -0.00095728790620341897011 -0.029052069410681724548 -0.0029071103781461715698 -0.017302582040429115295 0.011957718059420585632 -0.0020162551663815975189 -0.012596338987350463867 0.047451280057430267334 -0.0022336954716593027115 0.047846131026744842529 0.012895909138023853302 0.031946264207363128662 -0.015535457059741020203 -0.0060050212778151035309 0.050665471702814102173 0.0051526646129786968231 -0.028972791507840156555 -0.0052548269741237163544 -0.029425948858261108398 -0.11825225502252578735 -0.04465217888355255127 -0.14183974266052246094 -0.059897117316722869873 -0.02324446849524974823 -0.091477304697036743164 -0.083962105214595794678 -0.03991932794451713562 -0.077222950756549835205 -0.030730821192264556885 0.0024281560909003019333 0.0080287056043744087219 0.0036952781956642866135 0.0024575421120971441269 -0.032713815569877624512 -0.029315533116459846497 0.041617192327976226807 -0.0032422000076621770859 -0.0010312841041013598442 0.00064140191534534096718 -0.0062233800999820232391 -0.024827538058161735535 -0.012967542745172977448 -0.015095578506588935852 0.010120191611349582672 0.01958208717405796051 0.026708327233791351318 0.063369423151016235352 -0.049855243414640426636 -0.00035454268800094723701 -0.0059052561409771442413 -0.1032869294285774231 -0.031906466931104660034 0.066860422492027282715 -0.055512122809886932373 0.028035560622811317444 0.016854448243975639343 -0.037829216569662094116 0.030602268874645233154 -0.0083147687837481498718 -0.0049387793987989425659 -0.0014451006427407264709 -0.031981401145458221436 -0.050416253507137298584 0.013385654427111148834 -0.081077240407466888428 0.022528927773237228394 0.11648413538932800293 -0.0079297190532088279724 -0.19904024899005889893 0.060670610517263412476 0.012937249615788459778 -0.095579527318477630615 -0.083632640540599822998 -0.0015849063638597726822 0.021591888740658760071 0.0033067113254219293594 -0.0026927727740257978439 0.018160408362746238708 0.025608839467167854309 0.019726557657122612 0.016725271940231323242 -0.01511704176664352417 0.15840008854866027832 0.094073243439197540283 0.14107303321361541748 0.081068001687526702881 -0.013667902909219264984 0.064407341182231903076 0.11436491459608078003 0.053796701133251190186 0.14385718107223510742 -0.12657901644706726074 -0.0033396598882973194122 -0.058725748211145401001 0.0088767250999808311462 -0.013256529346108436584 0.023124119266867637634 -0.041087932884693145752 0.010531786829233169556 -0.013333426788449287415 0.021558852866291999817 -0.037704318761825561523 -0.037730287760496139526 0.053457789123058319092 0.054771672934293746948 0.081751845777034759521 0.0060130241326987743378 -0.074965268373489379883 0.20727829635143280029 -0.045632436871528625488 0.01663159392774105072 -0.049610462039709091187 0.014406822621822357178 0.0042871343903243541718 0.020376501604914665222 0.0012752022594213485718 -0.061825785785913467407 -0.011840932071208953857 0.22840279340744018555 -0.14043840765953063965 -0.062582105398178100586 -0.081961460411548614502 0.088271513581275939941 0.10312919318675994873 0.055227067321538925171 0.034712489694356918335 -0.07499513775110244751 0.0086070960387587547302 0.021290441974997520447 0.035426817834377288818 9.3461268988903611898e-05 0.039934184402227401733 0.010385755449533462524 0.053040292114019393921 -0.052117936313152313232 0.050608213990926742554 0.02283067069947719574 0.033612772822380065918 -0.0077515160664916038513 0.00018825594452209770679 0.029279019683599472046 0.033082216978073120117 -0.014141736552119255066 0.0039673787541687488556 0.0075901034288108348846 -0.016923973336815834045 0.033623177558183670044 -0.032009702175855636597 0.046586126089096069336 0.031626593321561813354 0.011139607988297939301 -0.01944240182638168335 0.032477486878633499146 -0.015886979177594184875 0.021622221916913986206 0.0035578394308686256409 0.096240207552909851074 -0.018995018675923347473 -0.056088823825120925903 -0.013688975013792514801 0.081082321703433990479 0.012418315745890140533 0.093116864562034606934 -0.11045161634683609009 -0.079920507967472076416 0.040525209158658981323 -0.0093185594305396080017 -0.14378891885280609131 -0.056889276951551437378 -0.037081163376569747925 -0.1442890465259552002 -0.034380502998828887939 0.10709466785192489624 -0.036722283810377120972 0.032394941896200180054 -0.041772544384002685547 -0.22298194468021392822 -0.022231791168451309204 0.054540097713470458984 0.011221726424992084503 0.06570529937744140625 0.0076101729646325111389 -0.016695423051714897156 0.012564849108457565308 -0.020850799977779388428 -0.034728974103927612305 0.025912949815392494202 -0.021604429930448532104 -0.031182769685983657837 -0.002745865844190120697 0.044555660337209701538 0.0035037766210734844208 0.010100631043314933777 0.019655922427773475647 0.0051770163699984550476 -0.012704501859843730927 0.029775982722640037537 0.010850934311747550964 0.0099354097619652748108 0.039341714233160018921 -0.050084047019481658936 0.020674590021371841431 -0.0078954799100756645203 0.030237760394811630249 -0.034009844064712524414 0.05197639763355255127 -0.032759740948677062988 -0.0088627738878130912781 -0.059077892452478408813 -0.015481609851121902466 -0.031912431120872497559 -0.02679402567446231842 -0.0062643266282975673676 -0.069292150437831878662 -0.059180166572332382202 -0.11755623668432235718 -0.12045603245496749878 0.023046268150210380554 0.013822295702993869781 -0.0022739733103662729263 0.028197837993502616882 -0.0012153733987361192703 -0.015013073571026325226 -0.025688977912068367004 0.024703701958060264587 -0.059011973440647125244 0.016483588144183158875 0.015734875574707984924 0.040917996317148208618 0.019833002239465713501 0.0014293644344434142113 0.034459501504898071289 0.051284894347190856934 0.01551420893520116806 0.052065189927816390991 0.016645580530166625977 0.02446875348687171936 -0.0484218597412109375 0.014838171191513538361 0.033017843961715698242 0.026025474071502685547 0.057758498936891555786 -0.045107573270797729492 -0.0093442061915993690491 0.071857787668704986572 0.004670577123761177063 0.036132343113422393799 0.035523310303688049316 0.013849504292011260986 0.02023558691143989563 0.081691406667232513428 0.029907274991273880005 0.018465686589479446411 -0.063946984708309173584 0.00067688984563574194908 -0.013955229893326759338 -0.015093614347279071808 -0.0033929229248315095901 0.027793206274509429932 -0.044907595962285995483 0.0014153968077152967453 0.0089392596855759620667 -0.0084817511960864067078 -0.015269227325916290283 0.029100092127919197083 -0.0053600124083459377289 -0.073309637606143951416 -0.022615298628807067871 0.019192483276128768921 -0.017318675294518470764 0.023296946659684181213 0.024969870224595069885 0.010496394708752632141 0.03856242448091506958 -0.0011192675447091460228 -0.042809575796127319336 0.0043538492172956466675 0.059899140149354934692 -0.013400931842625141144 0.0036766009870916604996 -0.032545704394578933716 0.040923763066530227661 -0.044334143400192260742 0.03089357912540435791 -0.076380953192710876465 0.042790409177541732788 -0.05623359978199005127 0.062713488936424255371 -0.035159833729267120361 -0.027641968801617622375 0.049198109656572341919 -0.054309077560901641846 0.057912912219762802124 -0.094977743923664093018 0.061456035822629928589 -0.041318960487842559814 0.031379789113998413086 -0.032274354249238967896 0.19813311100006103516 -0.20848983526229858398 0.13409118354320526123 -0.24612610042095184326 -2.183330535888671875 -0.25695875287055969238 0.21830284595489501953 -0.25341188907623291016 0.17728032171726226807 -0.0073754410259425640106 0.029281541705131530762 -0.0074748015031218528748 0.086585350334644317627 -0.17847701907157897949 0.089434221386909484863 0.013174632564187049866 0.018557634204626083374 0.0059079290367662906647 -0.043977063149213790894 0.045393582433462142944 0.035106271505355834961 0.07816756516695022583 -0.12773723900318145752 0.029561560600996017456 -0.0011098753893747925758 0.021899390965700149536 0.030770614743232727051 0.0047670835629105567932 -0.004293104168027639389 -0.010249373503029346466 -0.022446095943450927734 0.058543194085359573364 -0.0062695797532796859741 0.0021898052655160427094 -0.016685551032423973083 -0.0027705219108611345291 -0.0069318143650889396667 -0.0015558474697172641754 -0.0037007734645158052444 -0.0075589651241898536682 0.05933084338903427124 -0.015783634036779403687 -0.0067168381065130233765 -0.013798339292407035828 0.00035630556521937251091 -0.0014697358710691332817 -0.013426524586975574493 0.0029504699632525444031 -0.015551113523542881012 0.06091767922043800354 -0.011764462105929851532 0.0018527233041822910309 -0.019989952445030212402 -0.00025725059094838798046 

0.033421795815229415894 0.054371032863855361938 -0.0068644825369119644165 0.057767476886510848999 0.00039899320108816027641 0.028161650523543357849 0.051712222397327423096 0.023067964240908622742 0.033639151602983474731 0.0021845351438969373703 0.0060703814961016178131 0.00086136424215510487556 -0.0021865344606339931488 0.010713829658925533295 -0.00091132824309170246124 -0.00089554558508098125458 -0.0015716183697804808617 0.0035304035991430282593 -0.01006428152322769165 -0.0039901477284729480743 0.0058836471289396286011 0.0089490860700607299805 -0.0027555555570870637894 0.0021907910704612731934 0.0038800090551376342773 0.0055344030261039733887 0.0068224864080548286438 0.011185373179614543915 -0.073970146477222442627 -0.066955380141735076904 -0.064993627369403839111 -0.10247255861759185791 -0.075833410024642944336 -0.04118711128830909729 -0.062379814684391021729 -0.039541188627481460571 -0.028428288176655769348 -0.0061107990331947803497 -0.022030258551239967346 0.029936172068119049072 0.042740002274513244629 0.029389075934886932373 0.033607993274927139282 0.03748502582311630249 0.022787434980273246765 0.015436166897416114807 -0.012629834003746509552 -0.015495231375098228455 -0.013204910792410373688 0.03418140113353729248 0.022988641634583473206 0.011029574088752269745 -0.0047432607971131801605 -0.0027606538496911525726 -0.013575599528849124908 0.012590011581778526306 -0.017212374135851860046 -0.0050815176218748092651 0.0081335604190826416016 -0.0088939014822244644165 -0.013023280538618564606 -0.00099167937878519296646 -0.018004754558205604553 0.012849449180066585541 0.028617756441235542297 0.015171471051871776581 -0.047657974064350128174 -0.010554605163633823395 0.011180219240486621857 0.010340479202568531036 -0.017434038221836090088 -0.007417223416268825531 -0.019179403781890869141 -0.0083449129015207290649 -0.013505396433174610138 0.037708580493927001953 0.0060007614083588123322 -0.012381372042000293732 -0.017814099788665771484 -0.0021605093497782945633 -0.004895308520644903183 -0.0032181772403419017792 0.023576254025101661682 0.023794118314981460571 -0.016178032383322715759 0.009750885888934135437 -0.00062026787782087922096 -0.0017289846437051892281 -0.003353704698383808136 -0.0049737766385078430176 0.01118099503219127655 -0.00032563082640990614891 0.050485748797655105591 0.0026195405516773462296 0.011866547167301177979 0.0065470426343381404877 0.0040781348943710327148 0.011359227821230888367 0.013596319593489170074 -0.0067959963344037532806 -0.0046061030589044094086 -0.0040363562293350696564 0.013410745188593864441 -0.014071465469896793365 0.00034802034497261047363 -0.00095396267715841531754 -0.00026438813074491918087 -0.0098508410155773162842 0.021174035966396331787 0.029367709532380104065 -0.0224706307053565979 -0.0014178771525621414185 0.0065122428350150585175 -0.0084388535469770431519 0.0098671782761812210083 0.0042586014606058597565 0.0053268535993993282318 0.0088305156677961349487 -0.13316400349140167236 -0.16951744258403778076 -0.11780204623937606812 -0.28010824322700500488 -0.060176987200975418091 -0.063876785337924957275 -0.12541399896144866943 -0.10004905611276626587 -0.0047211050987243652344 -0.007086416240781545639 -0.026248767971992492676 -0.033085353672504425049 -0.01682092621922492981 -0.018294941633939743042 0.0022160876542329788208 0.011099226772785186768 6.1563470808323472738e-05 -0.00027539924485608935356 0.016781877726316452026 -0.0018274374306201934814 -0.011243687011301517487 -0.0014719787286594510078 0.0076683186925947666168 0.0065475292503833770752 -0.0052132140845060348511 0.017043948173522949219 -0.020956801250576972961 -0.0032158407848328351974 -0.032827526330947875977 0.0058949007652699947357 -0.0082220640033483505249 -0.0037640838418155908585 -0.00080397404963150620461 0.0040216543711721897125 -0.0085569210350513458252 -0.0012366983573883771896 -0.04275903850793838501 0.014153151772916316986 0.022947324439883232117 -0.02707133069634437561 -0.0090230032801628112793 0.015035691671073436737 0.010914064943790435791 -0.010785261169075965881 -0.0020440474618226289749 0.0088282870128750801086 -0.0085053434595465660095 0.0059227952733635902405 -0.025656605139374732971 -0.0013477933825924992561 -0.014577677473425865173 -0.0077342889271676540375 -0.0015495885163545608521 0.017855918034911155701 -0.0010622204281389713287 0.003267034655436873436 -0.013897270895540714264 -0.0043586548417806625366 0.0042966566979885101318 0.0049986364319920539856 -0.0057606119662523269653 0.0010375553974881768227 -0.14873258769512176514 -0.3112755119800567627 -0.25138780474662780762 -0.16403998434543609619 -0.17392361164093017578 -0.055195596069097518921 -0.0087385792285203933716 -0.041798576712608337402 0.021296417340636253357 -0.022664882242679595947 0.014144313521683216095 0.010505842044949531555 -0.0021310129668563604355 -0.0038933060131967067719 -0.00087448174599558115005 -0.003396739717572927475 0.0057789352722465991974 0.0034533697180449962616 0.0083287730813026428223 -0.010913169942796230316 0.017493577674031257629 -0.0086668999865651130676 0.018727118149399757385 -0.00825147237628698349 0.0064569916576147079468 0.0081933289766311645508 -0.0017377054318785667419 0.011993665248155593872 0.032818928360939025879 0.014375350438058376312 -0.019928064197301864624 0.022770401090383529663 0.027232829481363296509 0.0056671043857932090759 -0.019501933827996253967 0.015720417723059654236 0.0039336853660643100739 -0.015679564327001571655 0.020969346165657043457 -0.022509142756462097168 0.022859435528516769409 0.007332628592848777771 -0.0073005142621695995331 -0.0051478007808327674866 0.0090407999232411384583 0.0022284346632659435272 -0.015114756301045417786 0.0086699714884161949158 -0.00058562896447256207466 0.016499605029821395874 -0.015300697647035121918 -0.0080742361024022102356 -0.0065398309379816055298 0.0028868722729384899139 0.027288118377327919006 0.0082835042849183082581 -0.016289668157696723938 0.041446570307016372681 0.043095223605632781982 0.011448750272393226624 0.049962770193815231323 0.034272778779268264771 0.062992297112941741943 -0.028088493272662162781 0.017251513898372650146 0.01641968265175819397 0.017683479934930801392 0.021379839628934860229 -0.0024642220232635736465 -0.010296741500496864319 0.0038786735385656356812 -0.0022214027121663093567 0.022534955292940139771 -0.019826686009764671326 -0.0066544576548039913177 0.0012054409598931670189 -0.0038166451267898082733 0.020158104598522186279 0.0046658674255013465881 -0.014395714737474918365 -0.00031688582384958863258 0.0029696899000555276871 0.0035592415370047092438 0.03964700549840927124 -0.017526682466268539429 0.0072244037874042987823 0.0065262662246823310852 0.0025422710459679365158 0.0020754397846758365631 -0.0023789827246218919754 0.0013769577490165829659 0.0014510621549561619759 -0.0076511502265930175781 -0.005120929330587387085 -0.0019732599612325429916 -0.002357973949983716011 0.0036306092515587806702 -0.0004118956858292222023 -0.0015892207156866788864 -0.017328752204775810242 -0.0056983721442520618439 0.0035398153122514486313 0.0071509974077343940735 -0.0069438200443983078003 0.0045527685433626174927 -0.0059457416646182537079 -0.0041188634932041168213 -0.012405889108777046204 -0.23581412434577941895 -0.30179420113563537598 -0.27887365221977233887 -0.11620099097490310669 -0.15218773484230041504 -0.14435760676860809326 -0.16419863700866699219 -0.14894221723079681396 -0.16739991307258605957 0.0047378144226968288422 -0.025562735274434089661 0.0019868805538862943649 0.040583483874797821045 0.0042030564509332180023 -0.003418972482904791832 -0.012117988429963588715 0.0040975031442940235138 0.0081371869891881942749 -0.0046794647350907325745 0.00086150673450902104378 0.010721898637712001801 -0.0037166676484048366547 -0.015604284591972827911 0.012679630890488624573 -0.00019994194735772907734 -0.0054034213535487651825 0.0048534702509641647339 0.0019401947502046823502 0.018475465476512908936 -0.0057415291666984558105 -0.00045675560249947011471 -0.00086085387738421559334 0.0030504253227263689041 -0.012362311594188213348 -0.0022528197150677442551 0.0016420362517237663269 0.022851489484310150146 0.0018013917142525315285 0.03607673943042755127 -0.026129692792892456055 0.0062173060141503810883 0.0005181042943149805069 0.02241373993456363678 0.0045534279197454452515 0.023086126893758773804 0.0288286600261926651 -0.017280770465731620789 -0.034815780818462371826 -0.021337643265724182129 0.035622913390398025513 -0.019548041746020317078 0.0086582154035568237305 -0.020025566220283508301 -0.00018376667867414653301 0.0018590788822621107101 -0.01871437951922416687 0.0060853608883917331696 -0.0054757674224674701691 0.017049862071871757507 -0.011972387321293354034 0.016297779977321624756 0.012653825804591178894 0.012996013276278972626 0.01120012626051902771 0.033199973404407501221 0.013233230449259281158 -0.0022699802648276090622 -0.009683932177722454071 0.0038649931084364652634 0.037692915648221969604 -0.003189286915585398674 0.06351470947265625 0.0011446780990809202194 -0.01583720184862613678 0.011435358785092830658 -0.016873050481081008911 -0.012129227630794048309 0.0054320953786373138428 -0.0045560821890830993652 -0.017478559166193008423 -0.0043545342050492763519 -0.018277898430824279785 -0.025647949427366256714 -0.070928916335105895996 -0.024566629901528358459 -0.012857509776949882507 -0.012845790013670921326 -0.023776026442646980286 -0.026147153228521347046 -0.035939473658800125122 0.014051604084670543671 0.017644966021180152893 0.012659186497330665588 0.01313977409154176712 0.010575597174465656281 -0.006988341454416513443 -0.016813062131404876709 0.02132610417902469635 0.006365301087498664856 -0.033316843211650848389 0.0049589308910071849823 -0.023970924317836761475 -0.0040691047906875610352 -0.011907803826034069061 -0.020137762650847434998 -0.0024388232268393039703 0.0039394912309944629669 -0.0079376306384801864624 -0.052800565958023071289 -0.017902182415127754211 -0.033965814858675003052 0.021801128983497619629 0.0087189516052603721619 -0.0093783782795071601868 -0.015908351168036460876 0.022954469546675682068 -0.022423887625336647034 -0.054747592657804489136 -0.036412186920642852783 0.011273811571300029755 -0.0019545645918697118759 0.076271831989288330078 -0.011298893019556999207 0.068908803164958953857 0.00090725120389834046364 0.13062050938606262207 0.00030944644822739064693 -0.0079729082062840461731 -0.036395221948623657227 0.019728960469365119934 -0.01979228481650352478 0.022863384336233139038 0.015181263908743858337 0.01011684909462928772 0.0038907267153263092041 0.030275475233793258667 -0.1503960341215133667 -0.026264177635312080383 -0.046888995915651321411 0.17312511801719665527 -0.019670579582452774048 -0.099437378346920013428 0.051779840141534805298 0.049345195293426513672 -0.033286105841398239136 -0.031163573265075683594 0.0044058938510715961456 0.013028967194259166718 0.010804125107824802399 -0.01956892944872379303 -0.040421482175588607788 -0.021765904501080513 -0.036320984363555908203 -0.047740552574396133423 0.038956105709075927734 -0.015494809485971927643 0.021209297701716423035 0.036049555987119674683 0.023640600964426994324 -0.0076880897395312786102 0.0093192150816321372986 0.030802704393863677979 3.0286317269201390445e-05 -0.035405673086643218994 0.011956858448684215546 0.012429828755557537079 -0.026340296491980552673 -0.048759646713733673096 -0.043942227959632873535 -0.047802474349737167358 -0.017886865884065628052 -0.088799118995666503906 -0.15391340851783752441 -0.12126953154802322388 -0.05119707062840461731 -0.10762957483530044556 -0.093526698648929595947 -0.11801189184188842773 -0.043495573103427886963 -0.060638073831796646118 -0.0046435161493718624115 -0.055859629064798355103 -0.031072698533535003662 -0.040860213339328765869 -0.089039824903011322021 -0.041422996670007705688 -0.041616968810558319092 -0.019382907077670097351 -0.010773090645670890808 -0.011058579199016094208 0.014273427426815032959 -0.0093721356242895126343 0.034458998590707778931 0.023378640413284301758 0.03969988599419593811 0.031936939805746078491 0.03342906758189201355 0.043714623898267745972 -0.017176309600472450256 0.017296621575951576233 0.00040858233114704489708 -0.0067178583703935146332 -0.018948771059513092041 0.0042483122088015079498 -0.015615412965416908264 -0.0018920315196737647057 -0.0096134999766945838928 0.019042022526264190674 -0.014932136982679367065 0.051820799708366394043 0.01049458235502243042 -0.026383444666862487793 -0.0013656809460371732712 0.02875732816755771637 -0.0076847667805850505829 -0.0081327734515070915222 0.00040557628381066024303 0.0066647939383983612061 0.014051021076738834381 0.0041464068926870822906 0.00060039956588298082352 0.021343801170587539673 0.0067746164277195930481 0.010643115267157554626 0.0012883599847555160522 0.024217100813984870911 0.05654352530837059021 0.073679268360137939453 -0.0225878152996301651 0.041518144309520721436 -0.015625344589352607727 0.051468469202518463135 0.01112108863890171051 0.04136727750301361084 -0.021035648882389068604 -0.011490278877317905426 -0.032849568873643875122 0.019381247460842132568 -0.0038423577789217233658 -0.0090060457587242126465 0.0069907223805785179138 0.015119150280952453613 0.0066825384274125099182 -0.026075659319758415222 0.0024886040482670068741 -0.03740084916353225708 0.0018160168547183275223 0.0040073171257972717285 -0.01041925232857465744 -0.0060590319335460662842 -0.013550437986850738525 -0.00811498984694480896 -0.0090225171297788619995 -0.0070587522350251674652 0.03135099261999130249 -0.020663307979702949524 0.022379551082849502563 -0.013458947651088237762 -0.0053208642639219760895 -0.0033776862546801567078 -0.00071618508081883192062 0.023648703470826148987 0.00085836835205554962158 0.001521664089523255825 0.012318106368184089661 0.02001651376485824585 0.020126786082983016968 -0.0069051389582455158234 0.013683381490409374237 0.0058602136559784412384 0.014136186800897121429 -0.0032154296059161424637 0.009784850291907787323 0.0055597191676497459412 0.013373661786317825317 -0.0010641560656949877739 0.010634123347699642181 -0.0020969915203750133514 -0.012727657333016395569 -0.044893302023410797119 -0.055653847754001617432 -0.021171856671571731567 0.015680612996220588684 -0.03972148895263671875 -0.014316148124635219574 -0.092818029224872589111 -0.027548136189579963684 -0.086092539131641387939 0.0039280168712139129639 0.0016214300412684679031 0.0032618015538901090622 0.0039242934435606002808 -0.0035517495125532150269 0.0011639783624559640884 -2.5394509066245518625e-05 -3.2695028494345024228e-05 0.0041921674273908138275 -0.0071346373297274112701 -0.012384596280753612518 -0.010555702261626720428 -0.014910189434885978699 -0.0069906972348690032959 0.00010219537944067269564 -0.010061266832053661346 -0.0073778810910880565643 -0.01084133051335811615 -0.0014774849405512213707 0.01390314009040594101 -0.0029511188622564077377 0.015464476309716701508 0.0054394621402025222778 -0.00053106137784197926521 0.0075297295115888118744 0.0041501391679048538208 0.0068715550005435943604 0.0016591323073953390121 0.2047783583402633667 -0.037043280899524688721 -0.030641589313745498657 0.048520442098379135132 -0.11237565428018569946 -0.022326847538352012634 -0.059444196522235870361 0.0056601259857416152954 -0.27604827284812927246 -1.653075098991394043 0.10530563443899154663 0.29416459798812866211 0.050227966159582138062 0.36045512557029724121 0.11490090936422348022 0.30808281898498535156 0.039655931293964385986 0.15204988420009613037 0.086364351212978363037 0.064022891223430633545 -0.10591165721416473389 -0.015037961304187774658 -0.046690948307514190674 -0.042400579899549484253 -0.066064164042472839355 -0.032560363411903381348 -0.0034660086967051029205 -0.046184971928596496582 0.0039995447732508182526 0.012885387055575847626 -0.0045618601143360137939 0.015852494165301322937 0.00015103616169653832912 0.017847562208771705627 0.0047296187840402126312 -0.0024098660796880722046 -0.047012746334075927734 0.0069588585756719112396 0.0070577878504991531372 -0.0026538232341408729553 0.015547673217952251434 0.00086693221237510442734 0.017950074747204780579 0.0053150765597820281982 -0.0052612735889852046967 -0.044014427810907363892 0.0062193349003791809082 0.011570142582058906555 -0.0060493377968668937683 0.014737484976649284363 -1.3513318890545633622e-06 0.018570946529507637024 0.0058425343595445156097 

0.024365849792957305908 0.049133226275444030762 0.020070809870958328247 0.021529788151383399963 -0.03407999873161315918 -0.024884598329663276672 0.035376362502574920654 0.025384180247783660889 0.037931643426418304443 0.069539755582809448242 0.034704472869634628296 0.073539644479751586914 0.0036341722588986158371 -0.006318235304206609726 0.011966932564973831177 0.0375939980149269104 0.005804887041449546814 0.032328777015209197998 0.030950052663683891296 -0.026026653125882148743 0.016170276328921318054 0.0026319441385567188263 -0.0066133518703281879425 0.0093148276209831237793 0.0044341445900499820709 0.015010754577815532684 -0.042184460908174514771 -0.14125460386276245117 -0.10100187361240386963 -0.17462153732776641846 -0.11944403499364852905 -0.0082322554662823677063 -0.1203036084771156311 -0.13819675147533416748 -0.058822751045227050781 -0.20026946067810058594 0.03534318879246711731 0.041485410183668136597 0.067066043615341186523 0.011291578412055969238 0.063259951770305633545 0.028200929984450340271 0.037366103380918502808 0.0061034695245325565338 0.060965970158576965332 -0.020882695913314819336 0.023064091801643371582 0.0026190830394625663757 0.031010922044515609741 0.001430027419701218605 0.0094670727849006652832 -0.0033513051457703113556 -0.0056098727509379386902 0.00057663948973640799522 0.037126179784536361694 0.0038365242071449756622 0.016532052308320999146 0.02415160834789276123 -0.073846958577632904053 -0.016028610989451408386 0.042974874377250671387 -0.0083233304321765899658 0.034192319959402084351 0.026494903489947319031 0.0050639933906495571136 0.05804904550313949585 -0.022344751283526420593 0.041636683046817779541 -0.0077507342211902141571 -0.00084643921582028269768 -0.02387317270040512085 0.020557127892971038818 -0.014035557396709918976 -3.4712957130977883935e-05 0.0017849842552095651627 0.029241219162940979004 -0.0060744620859622955322 -0.020454876124858856201 -0.017862297594547271729 -0.021787589415907859802 0.024424497038125991821 0.013823905028402805328 0.035668756812810897827 -0.052427649497985839844 -0.01250017993152141571 -0.0028062686324119567871 0.045472428202629089355 0.016259908676147460938 -0.0026833650190383195877 -0.009113140404224395752 -0.049628999084234237671 -0.0096975211054086685181 -0.048557590693235397339 0.00277216336689889431 0.01274816412478685379 -0.0025634770281612873077 -0.043634012341499328613 -0.017495198175311088562 -0.045608360320329666138 -0.01439452730119228363 0.00065894552972167730331 -0.0064041321165859699249 3.5421515349298715591e-05 -0.008587751537561416626 0.015339746139943599701 -0.010964583605527877808 -0.0019948736298829317093 -0.01798201538622379303 0.014854079112410545349 -0.030626317486166954041 0.0014350522542372345924 0.019458461552858352661 0.00089106627274304628372 -0.013950209133327007294 -0.032918430864810943604 0.013646824285387992859 0.005551804322749376297 -0.0050856973975896835327 -0.09315948188304901123 0.068043909966945648193 -0.023490890860557556152 -0.031458478420972824097 -0.049134634435176849365 -0.0025665420107543468475 -0.026391880586743354797 0.060193385928869247437 0.0028613898903131484985 -0.0035090388264507055283 -0.028130849823355674744 -0.048965897411108016968 0.015200621448457241058 -0.013686358928680419922 0.0090368101373314857483 -0.017242215573787689209 -0.019375944510102272034 -0.017521999776363372803 0.0017318330937996506691 0.0035623493604362010956 0.0017973418580368161201 -0.026767842471599578857 -0.0026968354359269142151 -0.023681756108999252319 -0.0076895691454410552979 0.017730340361595153809 -0.013202461414039134979 0.022170914337038993835 -0.034453846514225006104 0.012410761788487434387 -0.026028104126453399658 -0.0089433537796139717102 -0.0060263485647737979889 -0.015128097496926784515 0.017373230308294296265 -0.016192255541682243347 0.019857106730341911316 -0.031134808436036109924 0.0058052525855600833893 -0.0099155995994806289673 0.016199270263314247131 0.020198162645101547241 -0.024307301267981529236 -0.021964646875858306885 -0.00055393535876646637917 -0.034874670207500457764 0.0087858363986015319824 -0.0040031839162111282349 0.036498777568340301514 0.0030824800487607717514 -0.0021879563573747873306 -0.023268189281225204468 -0.018840359523892402649 0.0022448364179581403732 0.00049014633987098932266 -0.021515529602766036987 0.0087876496836543083191 0.0078999539837241172791 0.0066666426137089729309 0.033420104533433914185 0.0093970987945795059204 0.027759866788983345032 0.0006248818826861679554 0.045183148235082626343 -0.10108540952205657959 -0.020773736760020256042 -0.27200481295585632324 -0.10314057022333145142 -0.060522284358739852905 0.049299467355012893677 -0.060881171375513076782 0.073653705418109893799 -0.023681197315454483032 -0.027613811194896697998 -0.031083939597010612488 0.0031111817806959152222 0.016917681321501731873 0.040119815617799758911 0.019525423645973205566 -0.062813103199005126953 -0.011556308716535568237 0.0040564299561083316803 0.029140036553144454956 0.018227124586701393127 -0.018878836184740066528 -0.013037007302045822144 -0.018770737573504447937 0.015134437941014766693 0.020074432715773582458 -0.014378052204847335815 0.057548031210899353027 0.020206816494464874268 -0.029091954231262207031 -0.041775815188884735107 0.051815301179885864258 -0.012780081480741500854 -0.0076804761774837970734 0.002333392854779958725 -0.011615355499088764191 -0.0010648913448676466942 0.011904737912118434906 0.0043623410165309906006 0.021663522347807884216 0.0012460664147511124611 0.021214533597230911255 0.002473497297614812851 0.006102281622588634491 0.0066846609115600585938 -0.0068945311941206455231 -0.0077259805984795093536 0.01686481572687625885 0.023600216954946517944 0.012780649587512016296 -0.012817917391657829285 0.018530160188674926758 -0.033772878348827362061 -0.019768329337239265442 -0.010399919934570789337 -0.024345373734831809998 -0.045141477137804031372 -0.00029668197385035455227 -0.057791139930486679077 -0.02808965928852558136 -0.024362852796912193298 -0.038624573498964309692 0.0086865974590182304382 -0.023729925975203514099 0.0054028141312301158905 -0.032639779150485992432 0.025842441245913505554 -0.021135473623871803284 0.0016844990896061062813 0.014087446965277194977 -0.0062009417451918125153 -0.039600174874067306519 -0.030628986656665802002 0.035502869635820388794 0.0061223860830068588257 -0.0078848376870155334473 -0.025047870352864265442 -0.011384095996618270874 -0.0056860041804611682892 0.038314782083034515381 -0.0047210990451276302338 -0.010786457918584346771 0.0085425619035959243774 -0.022372853010892868042 0.013906198553740978241 0.0013973169261589646339 -0.020072931423783302307 0.0095321657136082649231 -0.0081266704946756362915 0.008436269126832485199 -0.020710060372948646545 -0.0038217406254261732101 -0.01579522155225276947 0.048678487539291381836 -0.020115207880735397339 0.012739984318614006042 -0.018257778137922286987 0.0040005715563893318176 0.031417913734912872314 -0.0095829619094729423523 0.0021208729594945907593 -0.010964154265820980072 0.016349624842405319214 -0.0073153949342668056488 0.0012632427969947457314 0.0068782451562583446503 -0.016864020377397537231 0.0037653306499123573303 0.033746790140867233276 0.054421130567789077759 -0.009215376339852809906 0.016937589272856712341 -0.009601787663996219635 0.032328698784112930298 -0.028873134404420852661 0.015766618773341178894 -0.031449075788259506226 0.011806251481175422668 -1.2626459238163079135e-06 -0.027351431548595428467 0.038119211792945861816 -0.011420189402997493744 -0.039540957659482955933 -0.036606736481189727783 -0.022476628422737121582 -0.046198721975088119507 -0.0052215037867426872253 0.045738086104393005371 0.011246886104345321655 0.054681476205587387085 -0.032457847148180007935 -0.030878907069563865662 0.0028804843313992023468 0.0040401420556008815765 0.0025650998577475547791 0.034585662186145782471 -0.010278631001710891724 -0.019254153594374656677 0.00306735956110060215 0.010494529269635677338 0.014727988280355930328 0.017896985635161399841 -0.011681254953145980835 0.055024333298206329346 -0.048630654811859130859 0.036157932132482528687 -0.0030978042632341384888 -0.0014811217552050948143 -0.0052332421764731407166 0.026034226641058921814 -0.013300674967467784882 0.036525171250104904175 -0.01495161745697259903 -0.015151722356677055359 0.063745953142642974854 0.025140767917037010193 0.022564332932233810425 -0.0067044170573353767395 -0.043469719588756561279 0.022077251225709915161 0.021652827039361000061 -0.002790295751765370369 -0.039000973105430603027 0.0049831098876893520355 -0.022287124767899513245 -0.00059344747569411993027 0.0035779918543994426727 -0.012742619030177593231 -0.0088965566828846931458 -0.02201491035521030426 0.053376242518424987793 0.0089280549436807632446 0.023485207930207252502 -0.013508226722478866577 -0.035301100462675094604 -1.5460859685845207423e-06 0.052718285471200942993 0.019174905493855476379 0.038827616721391677856 -0.024644944816827774048 -0.015160796232521533966 -0.022606333717703819275 -0.043519277125597000122 0.024838574230670928955 -0.0028717538807541131973 -0.039199590682983398438 -0.042256936430931091309 0.00082092877710238099098 -0.016503861173987388611 0.0086307404562830924988 0.056638643145561218262 -0.0046351719647645950317 -0.032491106539964675903 -0.007856435142457485199 -0.04144522547721862793 0.013459642417728900909 -0.041609302163124084473 -0.01680253446102142334 0.015790456905961036682 0.0012866744073107838631 0.01599819771945476532 0.018706899136304855347 -0.014459284022450447083 0.0011696169385686516762 -0.007088605780154466629 -0.025312744081020355225 0.15390403568744659424 0.057223733514547348022 0.10655802488327026367 0.049454029649496078491 -0.031841713935136795044 0.02813181653618812561 0.11555596441030502319 0.062095612287521362305 0.11497969925403594971 -0.011287451721727848053 0.045835316181182861328 -0.0015627796528860926628 0.043371528387069702148 0.015847949311137199402 0.022785652428865432739 -0.013672856613993644714 0.018165675923228263855 -0.021953003481030464172 -0.029896454885601997375 0.027430472895503044128 0.012033030390739440918 0.083206444978713989258 -0.02752835489809513092 -0.075372107326984405518 0.069113105535507202148 -0.097684681415557861328 0.31866383552551269531 0.031894557178020477295 0.010711274109780788422 -0.0070884930901229381561 -0.0218621864914894104 -0.034835550934076309204 -0.04765960201621055603 0.0097958249971270561218 -0.02737547457218170166 0.03012556023895740509 0.10018349438905715942 -0.027411952614784240723 -0.014819125644862651825 -0.050042770802974700928 -0.00062783964676782488823 0.021684365347027778625 0.053676556795835494995 -0.0067064170725643634796 0.035872742533683776855 -0.039827983826398849487 0.03584005311131477356 -0.036618184298276901245 -0.009413806721568107605 0.059137634932994842529 -0.038000240921974182129 -0.038771286606788635254 -0.026981566101312637329 -0.02564850635826587677 0.14108097553253173828 0.027893440797924995422 0.044579807668924331665 0.0010567004792392253876 -0.011464910581707954407 0.059864357113838195801 0.023208212107419967651 0.014823601581156253815 0.051240891218185424805 0.015558133833110332489 -0.00081684015458449721336 -0.001260928809642791748 -0.026494126766920089722 0.064443089067935943604 -0.0066141113638877868652 0.024390755221247673035 -0.0065517700277268886566 0.020915608853101730347 -0.14962218701839447021 -0.064316578209400177002 -0.11150141805410385132 -0.0081479651853442192078 0.025301381945610046387 -0.013849815353751182556 -0.10248083621263504028 -0.048946063965559005737 -0.11774332821369171143 -0.059258345514535903931 -0.068028010427951812744 -0.0055605322122573852539 -0.046156156808137893677 0.0038697631098330020905 -0.0051140263676643371582 -0.090312376618385314941 -0.072757601737976074219 -0.10709978640079498291 0.073650941252708435059 -0.021620120853185653687 0.063124664127826690674 -0.01355928368866443634 -0.10577747225761413574 0.011612473055720329285 0.038434587419033050537 -0.033138472586870193481 0.063448287546634674072 -0.0076964711770415306091 -0.013639142736792564392 -0.0201882924884557724 -0.019438367336988449097 -0.0018410634947940707207 -0.0057200347073376178741 -0.01239619031548500061 -0.014094192534685134888 -0.024637797847390174866 -0.023883163928985595703 -0.016690019518136978149 -0.021732596680521965027 0.013164160773158073425 0.0096145607531070709229 0.0051260790787637233734 0.00070573354605585336685 -0.0019801412709057331085 0.0040087657980620861053 -0.015736328437924385071 -0.018689256161451339722 0.012563561089336872101 -0.0190364103764295578 0.019930237904191017151 -0.012850204482674598694 0.0027070047799497842789 -0.025132589042186737061 0.011298313736915588379 0.087795428931713104248 0.030502820387482643127 0.039809219539165496826 -0.005738985259085893631 0.0079798223450779914856 -0.029335493221879005432 0.051375161856412887573 0.052327249199151992798 0.064446948468685150146 0.046311471611261367798 -0.017984321340918540955 -0.017915781587362289429 0.017097061499953269958 -0.0019466058583930134773 0.03130140155553817749 -0.023354353383183479309 0.0091177010908722877502 -0.012878113426268100739 0.030263287946581840515 0.035000462085008621216 0.025930352509021759033 0.052790321409702301025 -0.016668891534209251404 0.054423537105321884155 0.051109679043292999268 0.040330745279788970947 0.05901655927300453186 0.010872988961637020111 0.059375125914812088013 -0.06287584453821182251 -0.019472079351544380188 0.028999045491218566895 -0.019300645217299461365 0.037521272897720336914 -0.0075776507146656513214 -0.052180487662553787231 0.049344886094331741333 0.04099847748875617981 0.036967571824789047241 -0.014492443762719631195 -0.011967286467552185059 0.039390210062265396118 0.0559596233069896698 0.0027967807836830615997 0.036817293614149093628 -0.0073089399375021457672 0.0066253896802663803101 0.013092837296426296234 0.0035781436599791049957 0.013626793399453163147 -0.0090453680604696273804 0.00066308071836829185486 -0.0079307481646537780762 0.020013811066746711731 -0.20873227715492248535 -0.029770031571388244629 -0.13502238690853118896 0.012465472333133220673 -0.050853472203016281128 -0.045769214630126953125 -0.15687426924705505371 -0.049473632127046585083 -0.12382674962282180786 0.0064126388169825077057 0.029068639501929283142 0.019417935982346534729 0.015284525230526924133 -0.052685551345348358154 0.02688180096447467804 0.017476284876465797424 0.03283969685435295105 0.0032990381587296724319 -0.070304036140441894531 -0.027565535157918930054 -0.069516092538833618164 0.0055734962224960327148 -0.048931490629911422729 -0.025400141254067420959 -0.08054437488317489624 -0.033680379390716552734 -0.044930197298526763916 0.012686814181506633759 0.034059055149555206299 0.0129237370565533638 0.025005927309393882751 -0.035292364656925201416 0.027585526928305625916 0.0094272261485457420349 0.034809060394763946533 -0.0068201045505702495575 -0.090162158012390136719 0.071370810270309448242 -0.092024601995944976807 0.075370304286479949951 -0.099575258791446685791 0.082940727472305297852 -0.09327039867639541626 0.019898613914847373962 -0.065505154430866241455 0.08995011448860168457 -0.42507454752922058105 0.12212877720594406128 -0.31515786051750183105 -4.4215908050537109375 -0.43295991420745849609 0.11025999486446380615 -0.38661026954650878906 0.18710239231586456299 -0.086291007697582244873 0.03324064984917640686 -0.065665274858474731445 0.10756138712167739868 -0.19063745439052581787 0.092183358967304229736 -0.069827571511268615723 0.013921560719609260559 -0.040695331990718841553 -0.0038116404321044683456 -0.0074237985536456108093 -0.011157259345054626465 -0.020527331158518791199 0.084859579801559448242 -0.015821641311049461365 -0.00085109716746956110001 -0.017951691523194313049 -0.0016278260154649615288 0.00085593777475878596306 -0.015633260831236839294 -0.012771153822541236877 -0.031049972400069236755 0.10718406736850738525 -0.018565947189927101135 0.0043025743216276168823 -0.029086573049426078796 0.00073072448140010237694 -0.0053332899697124958038 -0.009763412177562713623 -0.010662625543773174286 -0.017504159361124038696 0.090954944491386413574 -0.017554095014929771423 -0.0062468121759593486786 -0.014945546165108680725 -0.0023361421190202236176 

0.089084587991237640381 -0.024252071976661682129 -0.074130207300186157227 -0.13086742162704467773 0.07619129866361618042 -0.033656701445579528809 0.096109084784984588623 -0.019154051318764686584 0.040532164275646209717 0.13735374808311462402 -0.082472078502178192139 0.042516015470027923584 0.023093363270163536072 -0.025198426097631454468 -0.0031060008332133293152 0.036842901259660720825 -0.0087807141244411468506 -0.010119889862835407257 0.071564860641956329346 -0.0061159087345004081726 -0.14646947383880615234 -0.094981521368026733398 0.030640063807368278503 0.053670663386583328247 -0.20358821749687194824 -0.1185383722186088562 -0.037071686238050460815 -0.04944851994514465332 -0.081514433026313781738 -0.0055651515722274780273 -0.041883308440446853638 0.015372686088085174561 0.09360609203577041626 -0.038281157612800598145 -0.035753373056650161743 0.10004485398530960083 -0.0099692177027463912964 0.024310601875185966492 0.058266784995794296265 -0.072510831058025360107 0.014672816731035709381 0.068980284035205841064 -0.034254901111125946045 -0.001293146633543074131 0.058355711400508880615 0.12910287082195281982 0.068478353321552276611 -0.09940227121114730835 0.001054929918609559536 0.018934670835733413696 -0.069505035877227783203 -0.091712720692157745361 0.13591895997524261475 0.074623912572860717773 -0.14382699131965637207 -0.2318477630615234375 0.1532154381275177002 0.042838163673877716064 -0.20326174795627593994 0.047494065016508102417 -0.071782298386096954346 -0.25467967987060546875 0.17114813625812530518 0.19083616137504577637 -0.24560813605785369873 -0.097308538854122161865 0.067969374358654022217 0.24927444756031036377 -0.21796888113021850586 -0.044621068984270095825 0.066992431879043579102 0.025903690606355667114 0.097427502274513244629 0.24362114071846008301 0.01456287037581205368 -0.086920008063316345215 -0.072626993060111999512 -0.015042731538414955139 0.29880878329277038574 -0.19492059946060180664 -0.11290882527828216553 0.077362902462482452393 -0.13845500349998474121 0.069584786891937255859 -0.1552356034517288208 0.26505732536315917969 0.0044049103744328022003 0.131784781813621521 -0.068260334432125091553 -0.10841523855924606323 -0.016203884035348892212 -0.1767877042293548584 0.15053755044937133789 -0.10484589636325836182 -0.10024010390043258667 0.081509381532669067383 -0.059033777564764022827 -0.032376021146774291992 0.022987334057688713074 -0.2751026451587677002 0.05352660641074180603 0.086765937507152557373 -0.21753543615341186523 0.1154055371880531311 0.13896396756172180176 -0.21230295300483703613 0.11154721677303314209 0.08081842958927154541 0.064996145665645599365 -0.013434418477118015289 -0.033263199031352996826 -0.048477482050657272339 0.1480703204870223999 0.23807244002819061279 0.051539916545152664185 0.021898197010159492493 -0.0695284232497215271 0.050083562731742858887 0.025186423212289810181 -0.026428619399666786194 -0.12450930476188659668 -0.13211564719676971436 0.071472801268100738525 -0.084114998579025268555 -0.16234984993934631348 0.038878817111253738403 0.028429027646780014038 0.031894415616989135742 -0.13580206036567687988 -0.033556960523128509521 -0.13121329247951507568 0.12249770760536193848 -0.054631061851978302002 -0.082573279738426208496 0.095904849469661712646 0.01565783284604549408 0.004171835724264383316 -0.090760730206966400146 0.0097577534615993499756 -0.0047374316491186618805 -0.019533349201083183289 0.069790244102478027344 0.031695052981376647949 -0.0021168168168514966965 -0.080149240791797637939 -0.093206822872161865234 0.032204311341047286987 -0.0743943825364112854 -0.39202895760536193848 -0.0089327841997146606445 -0.09675823897123336792 -0.084348283708095550537 -0.044634889811277389526 -0.064840249717235565186 0.20416870713233947754 -0.15008971095085144043 -0.17701905965805053711 0.008552335202693939209 0.14705291390419006348 0.10848871618509292603 -0.3301328122615814209 0.15492908656597137451 0.018746679648756980896 0.02320188470184803009 -0.065464854240417480469 0.051891017705202102661 -0.0030428380705416202545 -0.091427251696586608887 0.025749064981937408447 -0.004148177802562713623 0.057193882763385772705 0.033333547413349151611 0.18262916803359985352 -0.059066105633974075317 -0.067607015371322631836 0.070926181972026824951 -0.088703341782093048096 0.056227106600999832153 0.054938189685344696045 0.066530309617519378662 -0.05967029184103012085 0.12685520946979522705 -0.0214778166264295578 0.14904499053955078125 0.090147547423839569092 0.013827336952090263367 0.0049626212567090988159 0.0081520993262529373169 -0.045363135635852813721 -0.067107781767845153809 -0.030424177646636962891 0.11579040437936782837 0.0098355570808053016663 -0.15031382441520690918 -0.05348291248083114624 -0.14777828752994537354 -0.12563365697860717773 -0.065685503184795379639 -0.19853860139846801758 0.020420102402567863464 0.13507027924060821533 0.070642992854118347168 0.0050046467222273349762 0.0035798787139356136322 0.042516570538282394409 0.051332350820302963257 -0.13439808785915374756 0.11660205572843551636 -0.001515127718448638916 -0.038760721683502197266 -0.074799709022045135498 0.051108226180076599121 -0.099602743983268737793 -0.076881811022758483887 0.059317052364349365234 0.090467691421508789062 -0.17619124054908752441 -0.063859507441520690918 0.35271352529525756836 -0.11933594197034835815 0.30489274859428405762 -0.1089256778359413147 0.18457767367362976074 0.08559684455394744873 -0.29652673006057739258 0.11009358614683151245 -0.053956251591444015503 -0.034904431551694869995 0.12432014942169189453 -0.10194487124681472778 -0.0072460630908608436584 0.046712376177310943604 -0.048249203711748123169 -0.079770699143409729004 -0.021700423210859298706 -0.013796966522932052612 -0.073298595845699310303 0.088567942380905151367 0.09367049485445022583 -0.10051389783620834351 0.032557792961597442627 0.042595557868480682373 0.0081026526167988777161 -0.17382100224494934082 0.1374842226505279541 0.16439093649387359619 0.14725461602210998535 0.17866766452789306641 -0.19730256497859954834 0.086919836699962615967 -0.11698698997497558594 -0.013083615340292453766 -0.25773862004280090332 -0.14902997016906738281 -0.0093483915552496910095 -0.11697048693895339966 0.053576305508613586426 -0.083808027207851409912 -0.091474600136280059814 -0.015938367694616317749 -0.24167650938034057617 -0.086136892437934875488 -0.1213755682110786438 0.12683409452438354492 -0.10376214981079101562 0.20650221407413482666 0.12397370487451553345 0.11573445051908493042 0.074234284460544586182 -0.17744082212448120117 -0.029640007764101028442 0.037155963480472564697 -0.056013274937868118286 0.039965599775314331055 -0.072632402181625366211 -0.027619520202279090881 -0.021267902106046676636 0.012719305232167243958 -0.0694769248366355896 0.23018701374530792236 0.0065170875750482082367 -0.0029482149984687566757 0.053120531141757965088 0.04634884372353553772 0.18442721664905548096 0.034449465572834014893 -0.047468524426221847534 -0.011421562172472476959 0.040809560567140579224 -0.011552843265235424042 -0.086975671350955963135 -0.047758568078279495239 0.034615758806467056274 0.026857452467083930969 -0.043650683015584945679 0.041695136576890945435 -0.055436752736568450928 0.016562437638640403748 -0.03368334844708442688 -0.0050631472840905189514 0.18857964873313903809 0.03383661806583404541 0.010692632757127285004 -0.024629116058349609375 -0.077084742486476898193 0.034025479108095169067 0.10532307624816894531 0.079158551990985870361 -0.12525014579296112061 0.010996237397193908691 -0.14053896069526672363 -0.034077618271112442017 0.066936962306499481201 -0.2691402137279510498 0.21666355431079864502 0.16643851995468139648 0.0058307857252657413483 -0.16996800899505615234 0.028003763407468795776 -0.12019278109073638916 0.059763263911008834839 0.14230230450630187988 0.089805193245410919189 -0.14141404628753662109 0.032454025000333786011 -0.099830850958824157715 -0.034778907895088195801 -0.018681146204471588135 -0.029010940343141555786 -0.06204647943377494812 -0.017258146777749061584 -0.031645316630601882935 0.049087122082710266113 0.014866848476231098175 -0.055438280105590820312 0.065460518002510070801 -8.7962107500061392784e-05 0.032769087702035903931 -0.01721064932644367218 0.065576583147048950195 -0.007120641414076089859 0.021840004250407218933 0.055038172751665115356 -0.19134558737277984619 -0.064117111265659332275 -0.23029600083827972412 0.00061896385159343481064 0.2028992772102355957 0.097673885524272918701 -0.077398337423801422119 -0.19369859993457794189 0.024291247129440307617 -0.0094180591404438018799 0.047967121005058288574 -0.04463509097695350647 -0.0033402743283659219742 0.013248163275420665741 -0.0024351202882826328278 0.0059395893476903438568 0.026798767969012260437 0.0098074274137616157532 0.073604375123977661133 0.074525125324726104736 -0.16509392857551574707 0.25680199265480041504 -0.0019975041504949331284 -0.050432272255420684814 0.15262201428413391113 0.073157414793968200684 0.01537942793220281601 0.01043292507529258728 -0.081198722124099731445 -0.063107691705226898193 0.12175377458333969116 0.020119497552514076233 -0.010994747281074523926 0.044102977961301803589 -0.10916662216186523438 0.057899605482816696167 -0.07462044060230255127 -0.13359214365482330322 0.056546654552221298218 -0.033436335623264312744 -0.07581977546215057373 0.0986231192946434021 -0.030834965407848358154 0.014696367084980010986 0.017205879092216491699 0.04366971924901008606 -0.040866617113351821899 0.0099946400150656700134 -0.043992791324853897095 -0.047847133129835128784 0.0090941675007343292236 -0.0077230008319020271301 0.043057262897491455078 -0.057017784565687179565 0.058964006602764129639 0.0050425305962562561035 0.0099470159038901329041 0.16454431414604187012 0.17980657517910003662 -0.13338455557823181152 -0.059528294950723648071 -0.030436603352427482605 0.073809802532196044922 -0.18383966386318206787 0.15434382855892181396 -0.10089075565338134766 -0.13098838925361633301 0.13209982216358184814 -0.028824437409639358521 -0.17788366973400115967 0.19650027155876159668 0.124391898512840271 -0.066274382174015045166 0.27980530261993408203 -0.081085294485092163086 0.045569937676191329956 0.19695931673049926758 0.13891957700252532959 0.1491231769323348999 0.22014753520488739014 0.30354985594749450684 -0.043398279696702957153 -0.063467673957347869873 -0.37914121150970458984 0.063856005668640136719 0.15327480435371398926 -0.028936052694916725159 0.12669162452220916748 0.020597137510776519775 -0.0081736678257584571838 0.040502779185771942139 -0.017942231148481369019 0.10889963060617446899 -0.21627344191074371338 -0.10900157690048217773 -0.03106428682804107666 -0.037411082535982131958 0.034719005227088928223 0.061075963079929351807 0.00068171741440892219543 -0.0091328117996454238892 -0.016373407095670700073 -0.0079823853448033332825 -0.038823496550321578979 0.021592259407043457031 -0.032400604337453842163 -0.0057791955769062042236 -0.061710346490144729614 0.077641218900680541992 -0.03194011002779006958 -0.025123450905084609985 0.018519770354032516479 -0.010424628853797912598 -0.001182643696665763855 0.085443884134292602539 0.021109374240040779114 -0.055757295340299606323 0.02357257157564163208 -0.024123707786202430725 -0.0022241799160838127136 0.034429263323545455933 -0.07216930389404296875 0.014723311178386211395 0.072898060083389282227 -0.038922086358070373535 -0.056224938482046127319 0.13549724221229553223 0.020941743627190589905 -0.040300518274307250977 -0.071966111660003662109 0.079239971935749053955 0.0015736111672595143318 -0.029270309954881668091 0.14924006164073944092 0.03978460654616355896 -0.018568582832813262939 -0.023079466074705123901 0.096374452114105224609 0.19364501535892486572 -0.093025192618370056152 -0.007661081850528717041 -0.0027821869589388370514 -0.08583882451057434082 0.075732454657554626465 0.17301051318645477295 -0.11322806030511856079 -0.0080444198101758956909 0.073709614574909210205 -0.048929359763860702515 -0.14319205284118652344 -0.0061922962777316570282 0.043995343148708343506 -0.12150451540946960449 0.016518283635377883911 0.16022630035877227783 -0.14818558096885681152 0.0057524656876921653748 0.1351070404052734375 -0.10705593973398208618 -0.021956659853458404541 0.12053164839744567871 -0.13989147543907165527 0.0001977905340027064085 0.013394096866250038147 -0.0016365007031708955765 0.093766376376152038574 -0.019796513020992279053 -0.03352566063404083252 -0.019640970975160598755 -0.032208513468503952026 0.071893319487571716309 0.078275196254253387451 0.061418700963258743286 -0.050173144787549972534 -0.094358198344707489014 0.031738363206386566162 -0.031102214008569717407 -0.052457544952630996704 -0.041584391146898269653 -0.070495046675205230713 -0.060542672872543334961 0.025966830551624298096 -0.11821258813142776489 0.069449290633201599121 -0.020034609362483024597 0.0028684271965175867081 0.059235829859972000122 -0.0017363227671012282372 -0.034400217235088348389 0.085240975022315979004 -0.0036968637723475694656 0.038991004228591918945 -0.0014432711759582161903 0.0071920440532267093658 -0.14133270084857940674 -0.16705541312694549561 0.093092009425163269043 -0.11625158041715621948 0.073579758405685424805 -0.078643433749675750732 -0.040201161056756973267 0.0053046219982206821442 -0.022034427151083946228 0.093690291047096252441 0.066934660077095031738 -0.062904879450798034668 -0.05022319406270980835 0.025492936372756958008 0.017704209312796592712 -0.0089739961549639701843 0.024387132376432418823 -0.020457088947296142578 0.01346494629979133606 0.060199420899152755737 -0.058298464864492416382 0.0043258960358798503876 0.11734916269779205322 0.028205772861838340759 -0.12401594966650009155 -0.063742592930793762207 -0.011410593055188655853 0.060694843530654907227 0.1295668184757232666 -0.0095071531832218170166 0.0042543890886008739471 -0.013639886863529682159 0.0055304961279034614563 0.0045338952913880348206 -0.048848368227481842041 -0.01591836102306842804 -0.0064966068603098392487 -0.0011628690408542752266 0.026043150573968887329 -0.24287855625152587891 0.020569173619151115417 0.08926919102668762207 -0.32657635211944580078 0.086403258144855499268 0.22418929636478424072 -0.18962328135967254639 0.01840558275580406189 0.14738512039184570312 -0.019943578168749809265 -0.026727128773927688599 -0.040680442005395889282 0.044138018041849136353 -0.031960673630237579346 -0.019252857193350791931 -0.006581979803740978241 0.031783930957317352295 -0.035568483173847198486 0.13644437491893768311 -0.047131620347499847412 -0.10559781640768051147 0.11890812963247299194 -0.03490934520959854126 -0.00063877413049340248108 0.12578473985195159912 -0.061531707644462585449 -0.089906796813011169434 -0.062670439481735229492 -0.03974315151572227478 0.033672165125608444214 -0.071924917399883270264 -0.026181366294622421265 0.10548503696918487549 -0.03709933161735534668 0.04422888532280921936 0.041907500475645065308 0.018046485260128974915 0.022946115583181381226 0.0083476351574063301086 0.10900390148162841797 -0.047627422958612442017 -0.060086060315370559692 -0.045611403882503509521 0.039788261055946350098 -0.034549228847026824951 -0.027773516252636909485 0.035553772002458572388 -0.026663705706596374512 0.047272652387619018555 -0.026215430349111557007 0.0048539224080741405487 0.013657776638865470886 0.011065164580941200256 -0.034072488546371459961 0.022941727191209793091 -0.0070268292911350727081 -0.02123511582612991333 -0.061422049999237060547 0.011594788171350955963 0.056480608880519866943 0.0091953221708536148071 0.0039602625183761119843 -0.011648724786937236786 0.020489599555730819702 -0.010048541240394115448 -0.022624595090746879578 -0.066444680094718933105 0.010126967914402484894 0.064703986048698425293 0.0077724605798721313477 0.019888764247298240662 -0.021378889679908752441 0.02558390982449054718 -0.013697709888219833374 -0.017642525956034660339 -0.048406232148408889771 -0.0026148539036512374878 0.058481972664594650269 -0.0083798952400684356689 0.015945844352245330811 -0.0071240407414734363556 

-0.017012884840369224548 -0.066215343773365020752 -0.0044344742782413959503 0.017976630479097366333 0.057210210710763931274 0.035106830298900604248 -0.016332911327481269836 -0.012488449923694133759 -0.0014974734513089060783 -0.0088856723159551620483 -0.071888484060764312744 -0.072769775986671447754 -0.016873931512236595154 -0.013634447939693927765 0.0074048503302037715912 -0.0041833380237221717834 0.00011717652523657307029 -0.003343430347740650177 0.051942538470029830933 0.042238030582666397095 -0.0013229408068582415581 0.051927804946899414062 -0.047430511564016342163 -0.043810192495584487915 0.011182082816958427429 -0.035912428051233291626 0.011315177194774150848 0.045106779783964157104 -0.040743064135313034058 0.022478112950921058655 0.0029589682817459106445 -0.011400424875319004059 -0.012689949013292789459 0.0017318787286058068275 0.016154875978827476501 0.017781661823391914368 -0.050052493810653686523 -0.096210263669490814209 -0.026869338005781173706 -0.07984603196382522583 -0.078356221318244934082 -0.057025048881769180298 -0.055093716830015182495 -0.031348317861557006836 -0.039900913834571838379 -0.01186196599155664444 -0.060143727809190750122 0.048993755131959915161 0.035654254257678985596 0.0099529214203357696533 -0.036480307579040527344 -0.0020810987334698438644 0.021507736295461654663 -0.030616572126746177673 0.052384514361619949341 0.072579018771648406982 0.034244727343320846558 0.035741176456212997437 -0.14314466714859008789 0.069324418902397155762 0.035502221435308456421 0.038735639303922653198 0.02340752817690372467 0.027052234858274459839 0.050464954227209091187 -0.00014311734412331134081 -0.017070677131414413452 0.027072759345173835754 0.027370996773242950439 0.022550158202648162842 -0.0089097851887345314026 -0.00076881039422005414963 -0.036222364753484725952 0.028138935565948486328 0.016984494403004646301 -0.0069621712900698184967 -0.033785331994295120239 0.012121634557843208313 0.011550795286893844604 0.077446818351745605469 -0.032817877829074859619 0.046101924031972885132 0.029380789026618003845 -0.031000761315226554871 0.00094857456861063838005 -0.041886143386363983154 -0.023465750738978385925 0.0058544757775962352753 -0.0027394306380301713943 0.07390613853931427002 -0.074241183698177337646 -0.045680467039346694946 -0.03406444936990737915 -0.0086905471980571746826 -0.0017318462487310171127 -0.007712766062468290329 -0.033107306808233261108 -0.0008901080000214278698 0.00080542924115434288979 -0.027808591723442077637 0.022811768576502799988 -0.036700844764709472656 0.033001232892274856567 -0.16893371939659118652 0.05905593186616897583 -0.0083184018731117248535 0.050080217421054840088 -0.012347968295216560364 0.02256547100841999054 0.072961017489433288574 -0.03204406052827835083 -0.01353639550507068634 0.021117843687534332275 -0.033187836408615112305 0.053388856351375579834 0.0023103719577193260193 -0.018008025363087654114 -0.0048667332157492637634 0.04249979555606842041 -0.018464522436261177063 -0.048259984701871871948 -0.022754501551389694214 0.015194685198366641998 0.054038025438785552979 0.0085259955376386642456 -0.014015550725162029266 0.01035554986447095871 0.018413299694657325745 -0.0092692347243428230286 -0.0244367942214012146 -0.035505291074514389038 -0.045785415917634963989 -0.012886547483503818512 -0.015561039559543132782 0.002311099320650100708 -0.027890307828783988953 0.031170830130577087402 -0.026715004816651344299 0.061878908425569534302 0.018261842429637908936 0.024940522387623786926 -0.069567702710628509521 0.025976926088333129883 -0.0045088217593729496002 -0.069103658199310302734 -0.019984766840934753418 -0.020931066945195198059 -0.0014382941881194710732 0.041177000850439071655 -0.023426128551363945007 -0.055498495697975158691 0.028098246082663536072 -0.053265865892171859741 -0.037615664303302764893 -0.020146135240793228149 0.042348925024271011353 -0.077687270939350128174 -0.038763482123613357544 -0.031542088836431503296 0.04067508503794670105 -0.071017213165760040283 -0.029896637424826622009 0.040842145681381225586 0.05882187187671661377 0.01633208058774471283 0.071629531681537628174 -0.013650433160364627838 -0.02861951291561126709 -0.0091726472601294517517 -0.057757075875997543335 -0.0083602014929056167603 -0.020197363570332527161 -0.0010101862717419862747 0.016464531421661376953 0.02499776892364025116 -0.0011045576538890600204 -0.011630446650087833405 0.031652834266424179077 -0.017247224226593971252 -0.03701780363917350769 0.054584488272666931152 0.059525504708290100098 0.041506469249725341797 0.081696249544620513916 0.099865883588790893555 0.030395381152629852295 -0.013618581928312778473 0.036023929715156555176 -0.049990072846412658691 -0.11513593047857284546 0.031733680516481399536 -0.029274612665176391602 -0.0038421640638262033463 0.014803320169448852539 0.057100351899862289429 -0.0046559404581785202026 0.010203436948359012604 0.027176465839147567749 -0.031447477638721466064 -0.061870526522397994995 -0.067082256078720092773 0.0094415172934532165527 -0.0061753327026963233948 0.022684521973133087158 0.10861853510141372681 -0.0027669579721987247467 -0.02258623950183391571 -0.00069946330040693283081 -0.044534578919410705566 0.044046651571989059448 0.046127662062644958496 0.031833659857511520386 -0.040249854326248168945 -0.020173335447907447815 0.012845247983932495117 0.011407821439206600189 -0.032454829663038253784 -0.005258538760244846344 0.0063804285600781440735 0.020692195743322372437 -0.017666652798652648926 0.012029529549181461334 -0.0047678155824542045593 0.013293026946485042572 0.058058258146047592163 0.0064576487056910991669 -0.0161286182701587677 0.0099949436262249946594 0.021402044221758842468 0.035579752177000045776 -0.024186544120311737061 0.0085520436987280845642 0.013328690081834793091 0.010494092479348182678 0.00062971870647743344307 -0.0050110928714275360107 0.016262557357549667358 -0.022846745327115058899 0.074258320033550262451 0.079336598515510559082 -0.043090697377920150757 0.0062921750359237194061 0.0037267867010086774826 -0.024077098816633224487 -0.079013615846633911133 -0.042531989514827728271 -0.061972990632057189941 0.044895257800817489624 0.028964811936020851135 0.054121810942888259888 0.042314331978559494019 -0.0091799926012754440308 -0.027798602357506752014 0.036355752497911453247 -0.039712782949209213257 -0.041403919458389282227 0.051127299666404724121 -0.058195944875478744507 0.0037218180950731039047 -0.0065510128624737262726 0.009409924037754535675 0.0023852689191699028015 -0.00065080105559900403023 -0.057645235210657119751 -0.040206428617238998413 -0.049482382833957672119 -0.010761195793747901917 0.031066093593835830688 0.043371286243200302124 0.068372294306755065918 -0.040722008794546127319 0.023649394512176513672 -0.054415065795183181763 0.029516534879803657532 -0.98409128189086914062 0.050299532711505889893 -0.042435206472873687744 0.024418255314230918884 -0.075298227369785308838 0.043438993394374847412 -0.067062675952911376953 -0.0074193584732711315155 0.017760256305336952209 0.0049984431825578212738 -0.010876365005970001221 0.010692177340388298035 -0.018240671604871749878 0.015917912125587463379 0.0063490830361843109131 0.025823533535003662109 -0.0089511685073375701904 -0.0099680498242378234863 -0.065020218491554260254 0.031474467366933822632 0.0068186828866600990295 -0.039360471069812774658 0.0087647940963506698608 -0.014441112987697124481 -0.080599054694175720215 0.0037016810383647680283 0.048162493854761123657 -0.05212229117751121521 -0.0089153042063117027283 0.07737681269645690918 -0.027051096782088279724 0.0021464622113853693008 0.066895306110382080078 -0.014976871199905872345 0.028373602777719497681 -0.035790830850601196289 0.022024892270565032959 -0.010348421521484851837 -0.077294006943702697754 -0.080492705106735229492 -0.018584202975034713745 -0.060382731258869171143 0.085733704268932342529 0.010793137364089488983 0.071740679442882537842 -0.14156422019004821777 0.016935769468545913696 -0.063500426709651947021 0.094652771949768066406 -0.0018819007091224193573 0.0011816507903859019279 0.027716334909200668335 0.019081264734268188477 -0.021116415038704872131 0.057837106287479400635 -0.021037831902503967285 0.0064369584433734416962 -0.011424106545746326447 0.0067818933166563510895 0.0034644107799977064133 0.011641303077340126038 -0.0023362236097455024719 0.024619741365313529968 0.011010226793587207794 0.011684679426252841949 0.017516979947686195374 -0.043453767895698547363 0.041910927742719650269 -0.0075317933224141597748 0.043997880071401596069 0.0078602507710456848145 -0.047180242836475372314 -0.038016468286514282227 -0.040824674069881439209 0.031448852270841598511 0.049868531525135040283 0.011597448959946632385 0.029470685869455337524 0.0035548387095332145691 -0.019536945968866348267 -0.056308634579181671143 0.074467614293098449707 -0.0047017545439302921295 0.017667694017291069031 0.00099538615904748439789 -0.0027837157249450683594 -0.031731594353914260864 -0.019266078248620033264 0.028742371127009391785 0.0079083619639277458191 0.0027149694506078958511 -0.01487588789314031601 -0.055541772395372390747 -0.0017769165569916367531 0.0017881041858345270157 -0.0026618971023708581924 0.018384248018264770508 0.028630150482058525085 0.0070333317853510379791 -0.057113207876682281494 0.0021203828509896993637 0.020691242069005966187 -0.027547806501388549805 0.041655886918306350708 0.028025928884744644165 0.0059550679288804531097 -0.01983722299337387085 0.019330941140651702881 -0.063087046146392822266 0.0040736435912549495697 0.044076673686504364014 0.026494504883885383606 0.0093156062066555023193 0.011143087409436702728 0.0006184683297760784626 0.047063902020454406738 0.0094615807756781578064 -0.061720661818981170654 -0.039450880140066146851 0.0012256503105163574219 0.0018989825621247291565 0.010599420405924320221 0.050924502313137054443 0.021372525021433830261 0.043833076953887939453 -0.044128540903329849243 0.027196468785405158997 0.024981968104839324951 0.017098534852266311646 0.014074438251554965973 0.016776589676737785339 0.07894039154052734375 -0.056718684732913970947 0.085307404398918151855 -0.074638091027736663818 0.0095935007557272911072 -0.1559391319751739502 -0.0006177580798976123333 -0.090050257742404937744 -0.20873296260833740234 0.018883181735873222351 -0.0086366022005677223206 -0.025689667090773582458 0.018804350867867469788 -0.03099363669753074646 0.062673501670360565186 0.00058661785442382097244 0.00055404694285243749619 -0.038737047463655471802 -0.15501807630062103271 -0.11048183590173721313 -0.010715194977819919586 -0.094357311725616455078 0.038169357925653457642 -0.064872361719608306885 -0.045105990022420883179 0.06912317126989364624 0.051807213574647903442 -0.017766606062650680542 -0.0010374153498560190201 -0.015518064610660076141 0.040756739675998687744 0.023277767002582550049 -0.0054563544690608978271 -0.0034703598357737064362 0.0079502006992697715759 -0.010957738384604454041 -6.6473066908656619489e-06 0.003554999595507979393 0.0029844322707504034042 -0.030153447762131690979 -0.063620783388614654541 0.029775908216834068298 -0.005797287914901971817 -0.0079214787110686302185 0.042260047048330307007 -0.068296246230602264404 0.051105882972478866577 -0.028060805052518844604 -0.0042407778091728687286 0.11671265214681625366 0.0069141150452196598053 -0.075093477964401245117 0.02752989158034324646 -0.039132013916969299316 -0.005590113811194896698 -0.0045309122651815414429 0.026859952136874198914 -0.0078779878094792366028 -0.010907224379479885101 0.00063551438506692647934 0.0017576639074832201004 0.0092674428597092628479 -0.0087759308516979217529 0.0088035566732287406921 0.021589871495962142944 -0.020752752199769020081 0.053303129971027374268 0.078570097684860229492 0.026859344914555549622 0.015524509362876415253 0.023475300520658493042 -0.011039677076041698456 -0.084983699023723602295 0.013837619684636592865 -0.055161517113447189331 0.052545312792062759399 0.086565516889095306396 0.026338988915085792542 -0.063532114028930664062 0.079442672431468963623 -0.088347010314464569092 -0.07414773106575012207 0.034600153565406799316 -0.12742578983306884766 -0.00059946626424789428711 -0.055454455316066741943 0.024802234023809432983 -0.085780225694179534912 -0.009228534996509552002 -0.088327184319496154785 0.002969232853502035141 -0.024823820218443870544 0.01842543482780456543 0.0048904130235314369202 -0.030951170250773429871 -0.02968977019190788269 0.021105153486132621765 -0.011139314621686935425 -0.010994750075042247772 0.019735839217901229858 0.025328719988465309143 0.033621419221162796021 0.047662705183029174805 -0.015718761831521987915 0.016870865598320960999 0.014465999789535999298 0.044256623834371566772 0.058628458529710769653 -0.0094236871227622032166 0.022868858650326728821 -0.013206801377236843109 -0.0067657325416803359985 -0.01676929183304309845 -0.0048257000744342803955 0.016135048121213912964 -0.015840811654925346375 -0.044766701757907867432 -0.021075107157230377197 0.03266620635986328125 -0.0053345151245594024658 0.0090097617357969284058 -0.057367455214262008667 -0.011115692555904388428 -0.031301897019147872925 0.029452297836542129517 -0.027583671733736991882 -0.064982458949089050293 0.05045828595757484436 -0.024098044261336326599 -0.006152326241135597229 -0.016141785308718681335 0.0011484040878713130951 0.0034627262502908706665 0.012576654553413391113 -0.062186516821384429932 -0.058436486870050430298 0.02465687878429889679 -0.015091537497937679291 0.022822583094239234924 0.046476081013679504395 -0.0010436841985210776329 -0.058788180351257324219 0.037261739373207092285 -0.095123372972011566162 0.047798007726669311523 0.037363681942224502563 0.036532316356897354126 -0.019961943849921226501 -0.021300461143255233765 0.045469291508197784424 0.044034555554389953613 0.029953641816973686218 0.0084976609796285629272 0.051883988082408905029 -0.028376223519444465637 0.032555360347032546997 -0.08327248692512512207 -0.022041628137230873108 -0.0078545249998569488525 -0.007298999931663274765 0.03072351403534412384 0.0050861560739576816559 -0.024589497596025466919 -0.010875202715396881104 0.031372960656881332397 0.052210137248039245605 0.044777017086744308472 -0.012749442830681800842 -0.025577299296855926514 0.0038047623820602893829 0.016478143632411956787 -0.0099644167348742485046 -0.0061575882136821746826 -0.019388297572731971741 -0.020967097952961921692 0.57275730371475219727 -0.010096766985952854156 -0.00047032081056386232376 -0.034511364996433258057 0.02323711104691028595 0.022397460415959358215 0.019831961020827293396 0.033692270517349243164 0.017452403903007507324 0.45077919960021972656 0.020249709486961364746 -0.009636184200644493103 0.0055078887380659580231 -0.01531414128839969635 -0.010906898416578769684 -0.017456959933042526245 -0.028909325599670410156 0.017481856048107147217 0.48348486423492431641 -0.023067545145750045776 0.0084668854251503944397 0.028293697163462638855 -0.0095634572207927703857 0.0023301087785512208939 0.00094772240845486521721 0.014556745998561382294 -0.021467657759785652161 -0.070936426520347595215 0.024285860359668731689 0.026360129937529563904 -0.01986123993992805481 -0.010859516449272632599 0.022562965750694274902 -0.017269443720579147339 0.00036534247919917106628 -0.022156935185194015503 -0.088981106877326965332 -0.017313659191131591797 0.013846367597579956055 0.03371396288275718689 0.017906142398715019226 0.022814448922872543335 -0.0051040812395513057709 0.023498492315411567688 0.032546628266572952271 -0.12592713534832000732 0.012128478847444057465 -0.012137678451836109161 -0.0076370285823941230774 0.036626216024160385132 -0.0088958488777279853821 -0.0105998944491147995 0.00076684443047270178795 -0.016630027443170547485 0.051630198955535888672 -0.010588522069156169891 0.0099057713523507118225 -0.013027903623878955841 -0.0020886098500341176987 -0.00068394216941669583321 -0.012914502061903476715 0.00033197630546055734158 -0.01632307097315788269 0.04659280925989151001 -0.0084430025890469551086 0.0043863868340849876404 -0.0046303132548928260803 -0.00787448883056640625 -0.0052102780900895595551 -0.010407949797809123993 0.005653047468513250351 -0.0033829158637672662735 0.037308309227228164673 -0.015049118548631668091 -0.0023924363777041435242 0.0003626428660936653614 -0.0062259095720946788788 

0.071155525743961334229 0.015338554047048091888 -0.053176481276750564575 0.054502930492162704468 0.010414524935185909271 -0.04401312023401260376 -0.0035307544749230146408 -0.01624551042914390564 0.00314617878757417202 -0.067038930952548980713 -0.094636954367160797119 -0.054109483957290649414 -0.031753309071063995361 -0.003900365438312292099 0.034091457724571228027 -0.044021904468536376953 0.077477954328060150146 -0.0054459180682897567749 0.06147160753607749939 0.028430799022316932678 0.069427542388439178467 0.033791422843933105469 0.027868906036019325256 0.12597760558128356934 0.012219970114529132843 -0.030950283631682395935 0.047290623188018798828 -0.072975754737854003906 -0.028198041021823883057 0.02770272083580493927 0.036763805896043777466 0.00035386352101340889931 0.0087960548698902130127 0.042266312986612319946 -0.0088911568745970726013 -0.0028902422636747360229 -0.015475220046937465668 -0.031784631311893463135 -0.018963627517223358154 -0.047015991061925888062 -0.039509732276201248169 -0.026560267433524131775 0.0091909216716885566711 -0.0072636147961020469666 0.019457343965768814087 -0.019500827416777610779 -0.054506506770849227905 0.054063457995653152466 -0.044873934239149093628 -0.011995566077530384064 -0.015757370740175247192 0.029064565896987915039 -0.013935194350779056549 -0.0058812228962779045105 -0.74224513769149780273 -0.32182410359382629395 -0.11354450881481170654 -0.20024013519287109375 0.046806968748569488525 0.13581170141696929932 -0.031615670770406723022 0.12990768253803253174 -0.21839575469493865967 0.010852301493287086487 -0.028137564659118652344 -0.075640149414539337158 0.0046734102070331573486 0.029241632670164108276 -0.075444296002388000488 5.5191801948240026832e-05 0.077218398451805114746 -0.017918407917022705078 -0.21893526613712310791 -0.24601736664772033691 0.27263274788856506348 -0.35355725884437561035 -0.068673528730869293213 0.045870065689086914062 0.023069379851222038269 0.2038875967264175415 0.064656034111976623535 -0.0083018699660897254944 -0.013917705975472927094 0.077360622584819793701 0.01207756437361240387 0.092345610260963439941 -0.13358005881309509277 -0.014037529937922954559 -0.030628509819507598877 -0.010857852175831794739 -0.047329399734735488892 -0.10649112612009048462 -0.0067327818833291530609 -0.10177713632583618164 0.037431411445140838623 -0.0354480743408203125 -0.061195220798254013062 -0.0054321982897818088531 0.049393501132726669312 -0.27648058533668518066 -0.11675213277339935303 0.13458913564682006836 0.1981153637170791626 0.04178496822714805603 0.062536738812923431396 0.085122376680374145508 0.091108083724975585938 -0.056774072349071502686 0.033079106360673904419 0.005780688021332025528 0.0047852098941802978516 0.059266392141580581665 -0.0065030870027840137482 -0.004599139094352722168 -0.051270492374897003174 0.0095871323719620704651 -0.0047298693098127841949 -0.045599244534969329834 -0.022784890606999397278 -0.057662893086671829224 -0.15850624442100524902 -0.044130068272352218628 -0.0040744044817984104156 0.011853679083287715912 -0.064853213727474212646 0.024382356554269790649 0.077191241085529327393 0.14063702523708343506 -0.016075110062956809998 -0.053666181862354278564 -0.020019754767417907715 0.12355562299489974976 0.0038763934280723333359 -0.047726869583129882812 -0.010374405421316623688 0.041216678917407989502 0.0047196629457175731659 0.054407093673944473267 -0.060417905449867248535 -0.019710626453161239624 0.097364000976085662842 0.13770309090614318848 0.064002923667430877686 -0.060784529894590377808 0.011816089972853660583 -0.19087797403335571289 -0.10909376293420791626 -0.30812323093414306641 -0.083704613149166107178 -0.11436693370342254639 0.0148768620565533638 0.051645390689373016357 -0.11341654509305953979 0.069066897034645080566 0.003280166303738951683 0.02745830826461315155 -0.14287114143371582031 0.070302031934261322021 -0.16963523626327514648 -0.0337599925696849823 -0.029309418052434921265 -0.0040544727817177772522 0.060000631958246231079 0.11560482531785964966 -0.0039463466964662075043 0.17585125565528869629 0.16668027639389038086 0.074579603970050811768 0.066432036459445953369 0.13293945789337158203 0.034704416990280151367 -0.10941754281520843506 -0.20991459488868713379 -0.27246570587158203125 0.046463306993246078491 0.032458074390888214111 0.11983527988195419312 0.22618281841278076172 0.01897313632071018219 -0.011026089079678058624 0.062863834202289581299 0.0086632166057825088501 0.057124972343444824219 -0.016469471156597137451 0.028395803645253181458 0.068883486092090606689 0.010706586763262748718 0.042845677584409713745 -0.03704528510570526123 -0.06710077822208404541 0.0097437473013997077942 0.17412061989307403564 0.049308456480503082275 -0.079121835529804229736 -0.20214156806468963623 0.043662697076797485352 0.020847842097282409668 -0.073835089802742004395 -0.080935649573802947998 -0.051917593926191329956 0.36470425128936767578 0.21949237585067749023 -0.030421381816267967224 -0.11392645537853240967 -0.36165156960487365723 0.024953208863735198975 -0.046917188912630081177 0.040518738329410552979 -0.10785411298274993896 0.089331388473510742188 0.017688166350126266479 -0.014456955716013908386 -0.041859854012727737427 0.019924251362681388855 -0.028599306941032409668 -0.015173662453889846802 0.037079267203807830811 0.10094906389713287354 0.11069963127374649048 0.020346332341432571411 0.030662368983030319214 0.0085826003924012184143 -0.05974925309419631958 0.056925952434539794922 0.0036584353074431419373 -0.077322050929069519043 0.017938708886504173279 -0.0072481045499444007874 0.14850059151649475098 0.090181782841682434082 0.054961629211902618408 -0.10399891436100006104 -0.0051084030419588088989 -0.013799158856272697449 -0.14728124439716339111 -0.050719369202852249146 0.0088942386209964752197 0.0060849883593618869781 -0.05681324005126953125 0.0046511366963386535645 0.052819501608610153198 0.021709108725190162659 0.017911430448293685913 0.05787746235728263855 0.12988886237144470215 0.10843159258365631104 0.079301916062831878662 0.067950144410133361816 -0.02757115289568901062 -0.017313739284873008728 -0.0095511637628078460693 0.059259988367557525635 -0.26370564103126525879 0.02198009192943572998 -0.24583023786544799805 0.54002940654754638672 0.091757200658321380615 0.048014275729656219482 -0.20172326266765594482 -0.15715107321739196777 0.1234514191746711731 0.010011502541601657867 0.041334167122840881348 0.10799075663089752197 0.14926870167255401611 0.11049226671457290649 0.090713962912559509277 0.0084964726120233535767 -0.077784292399883270264 -0.037028279155492782593 0.095921039581298828125 -0.07316379249095916748 0.021921103820204734802 -0.080211699008941650391 -0.21823197603225708008 -0.086235962808132171631 -0.083843305706977844238 -0.01323703862726688385 0.046405717730522155762 0.24238468706607818604 0.05908271297812461853 0.10626380890607833862 -0.22571425139904022217 0.011959140188992023468 0.16997317969799041748 -0.045384053140878677368 -0.041786056011915206909 -0.13065280020236968994 -0.24253660440444946289 0.0034914067946374416351 0.065290518105030059814 0.0097850197926163673401 0.023834375664591789246 -0.0063424804247915744781 0.01807767525315284729 0.064325809478759765625 -0.11858528107404708862 -0.049572221934795379639 -0.022333597764372825623 -0.072112739086151123047 -0.047716416418552398682 -0.050600793212652206421 -0.023369753733277320862 -0.052188064903020858765 -0.027990246191620826721 -0.020326960831880569458 0.032779607921838760376 -0.069988124072551727295 -0.032380349934101104736 -0.028977561742067337036 -0.11949948221445083618 -0.11041352152824401855 -0.14229600131511688232 0.032658092677593231201 0.05493432655930519104 0.10331650823354721069 0.10754369944334030151 -0.052956305444240570068 -0.16864055395126342773 -0.23673452436923980713 -0.17530456185340881348 0.03339037671685218811 -0.13470938801765441895 0.18383763730525970459 0.05291582643985748291 -0.063097469508647918701 -0.091099828481674194336 -0.13892644643783569336 0.011853625066578388214 0.0063522779382765293121 0.066369377076625823975 -0.0087761906906962394714 0.034209847450256347656 0.088760107755661010742 0.0033367522992193698883 0.060681719332933425903 0.03265719488263130188 0.016007337719202041626 -0.039622455835342407227 0.0028784549795091152191 -0.011455506086349487305 0.046862322837114334106 0.0052553107962012290955 0.0047611766494810581207 -0.037701837718486785889 0.084138929843902587891 0.16270713508129119873 0.081445902585983276367 0.02635294012725353241 0.068875223398208618164 -0.018172882497310638428 0.11269975453615188599 0.0094196014106273651123 -0.012250831350684165955 -0.017951417714357376099 -0.01643461175262928009 -0.044678106904029846191 -0.0012142134364694356918 -0.094020865857601165771 0.037791404873132705688 -0.090934172272682189941 -0.050233725458383560181 -0.088303677737712860107 -0.0799101218581199646 -0.025340344756841659546 -0.053090266883373260498 -0.018956685438752174377 -0.075317233800888061523 -0.035627823323011398315 0.17735786736011505127 -0.04415486752986907959 -0.045597866177558898926 0.017780914902687072754 0.024209607392549514771 -0.048149019479751586914 -0.083578467369079589844 -0.055513042956590652466 -0.0175370778888463974 -0.11780475080013275146 -0.049682982265949249268 0.019037408754229545593 0.016021149232983589172 -0.04807777702808380127 0.01189839094877243042 0.081140317022800445557 0.049003090709447860718 -0.019997008144855499268 0.044641207903623580933 -0.11214204877614974976 0.039305638521909713745 0.00043501736945472657681 -0.069685995578765869141 0.044169683009386062622 0.13756990432739257812 0.069389380514621734619 -0.035860471427440643311 -0.12642472982406616211 0.074632413685321807861 0.066030859947204589844 -0.0094776097685098648071 0.089215517044067382812 0.15827360749244689941 -0.094459928572177886963 -0.00077364192111417651176 -0.039219930768013000488 0.044511947780847549438 -0.17660474777221679688 -0.11542654037475585938 -0.0034033798146992921829 0.058983352035284042358 -0.27837038040161132812 0.15928041934967041016 0.10601279884576797485 0.33249202370643615723 0.097681865096092224121 -0.1114193350076675415 0.096768014132976531982 -0.038675028830766677856 0.052357602864503860474 0.05500116199254989624 -0.034841742366552352905 0.12121149897575378418 -0.015408069826662540436 0.22658373415470123291 -0.0047260015271604061127 0.14193333685398101807 -0.24607144296169281006 0.23444291949272155762 -0.25573951005935668945 -0.016702890396118164062 -0.17551608383655548096 0.17807444930076599121 -0.030053751543164253235 -0.033997897058725357056 -0.029702741652727127075 -0.0088561205193400382996 -0.045782055705785751343 -0.010039226152002811432 -0.027847714722156524658 0.049118351191282272339 0.055187817662954330444 0.00050985900452360510826 -0.077550344169139862061 -0.012487933039665222168 0.055462602525949478149 -0.081355616450309753418 0.0011918037198483943939 0.016144957393407821655 -0.0095225004479289054871 0.075532041490077972412 0.041073836386203765869 -0.12831296026706695557 0.058107826858758926392 -0.053408794105052947998 0.12037795037031173706 -0.043473318219184875488 -0.067536279559135437012 -0.10826494544744491577 0.059556674212217330933 -0.051547154784202575684 -0.03745201602578163147 -0.032633543014526367188 0.0091677084565162658691 -0.013512653298676013947 0.011024599894881248474 0.029298905283212661743 0.035424888134002685547 0.050182487815618515015 0.072746776044368743896 -0.027342380955815315247 -0.083133362233638763428 -0.013711186125874519348 0.055287025868892669678 -0.031628791242837905884 0.06753956526517868042 0.035580046474933624268 -0.012001302093267440796 0.26355367898941040039 0.089854270219802856445 0.087197668850421905518 0.16964803636074066162 -0.0105915851891040802 -0.14933463931083679199 0.085703790187835693359 -0.26443526148796081543 -0.17638731002807617188 -0.33252871036529541016 -0.1081740260124206543 -0.35710549354553222656 -0.23918701708316802979 -0.21608498692512512207 -0.10702347755432128906 -0.067139931023120880127 0.08338451385498046875 0.099136993288993835449 0.12411003559827804565 0.047979097813367843628 -0.0024606527294963598251 0.051270499825477600098 -0.0056180749088525772095 -0.06994323432445526123 0.0047398824244737625122 -0.06042254716157913208 -0.086690500378608703613 -0.090188324451446533203 -0.026305016130208969116 -0.026508616283535957336 0.12658686935901641846 -0.046156186610460281372 0.0063641266897320747375 0.14604811370372772217 -0.025501038879156112671 -0.01905713789165019989 0.074279598891735076904 -0.015996253117918968201 0.041665360331535339355 0.008683376014232635498 0.012501575052738189697 -0.068576537072658538818 -0.069384112954139709473 -0.013075617142021656036 0.039392739534378051758 -0.13805219531059265137 0.31737256050109863281 0.037296008318662643433 0.038944620639085769653 0.3018321990966796875 -0.15815138816833496094 0.13907226920127868652 0.16800303757190704346 -0.16835895180702209473 -0.30935296416282653809 0.029436852782964706421 -0.17866335809230804443 -0.021354744210839271545 0.074507832527160644531 0.054094038903713226318 -0.24029263854026794434 -0.054894596338272094727 0.042647227644920349121 0.016687797382473945618 -0.09218060225248336792 -0.082107625901699066162 0.13520430028438568115 -0.019025882706046104431 -0.15947844088077545166 -0.40547263622283935547 0.19325314462184906006 0.19047105312347412109 -0.08500591665506362915 -0.095420256257057189941 -0.03817731514573097229 -0.025420045480132102966 0.050661936402320861816 -0.035827323794364929199 0.045996058732271194458 0.068520471453666687012 -0.098144896328449249268 -0.1640634685754776001 0.025654016062617301941 -0.043050024658441543579 0.0166530609130859375 0.048218961805105209351 -0.14328210055828094482 0.26621174812316894531 -0.03707262873649597168 -0.018891565501689910889 0.13174742460250854492 -0.012321884743869304657 -0.029428064823150634766 -0.1072918325662612915 0.010655308142304420471 -0.0020313514396548271179 -0.081502445042133331299 0.063430756330490112305 0.020815650001168251038 -0.13783387839794158936 -0.13559232652187347412 -0.0003466683847364038229 -0.016694020479917526245 0.17751093208789825439 0.050182718783617019653 0.048396918922662734985 0.12657839059829711914 -0.033551871776580810547 -0.2039283066987991333 -0.085154384374618530273 -0.046030074357986450195 0.029090829193592071533 0.1971667855978012085 0.091098450124263763428 0.091883264482021331787 0.1077055707573890686 -0.018359512090682983398 -0.26814541220664978027 -0.092383429408073425293 0.036123562604188919067 -0.02840398252010345459 0.40945729613304138184 0.11839978396892547607 0.089998967945575714111 0.097987316548824310303 -0.12788432836532592773 0.084540046751499176025 -0.0053399363532662391663 -0.008516483008861541748 0.0087465280666947364807 -0.1180826723575592041 0.0052323513664305210114 -0.019705357030034065247 0.019135827198624610901 0.034206811338663101196 0.066326051950454711914 0.058011546730995178223 -0.0066427565179765224457 0.025261193513870239258 -0.086842499673366546631 -0.030916256830096244812 -0.016369596123695373535 -0.026890020817518234253 0.012514021247625350952 0.075902424752712249756 -0.01427025720477104187 0.040312074124813079834 -0.013581117615103721619 -0.0623110942542552948 -0.0598488636314868927 0.016362162306904792786 -0.046433314681053161621 0.02716253325343132019 0.056787338107824325562 -0.022704502567648887634 -0.0078639695420861244202 -0.024809630587697029114 0.023491797968745231628 -0.020921969786286354065 -0.014566546306014060974 -0.001215429394505918026 0.012597943656146526337 0.028031578287482261658 -0.025168810039758682251 0.0047095734626054763794 -0.028424134477972984314 0.020090954378247261047 -0.010402843356132507324 -0.0029018945060670375824 0.014052517712116241455 0.0019289761548861861229 0.05725755542516708374 -0.028628528118133544922 -0.0070719216018915176392 -0.039173867553472518921 0.01349471602588891983 -0.0094377184286713600159 -0.0058961827307939529419 0.00061427260516211390495 0.019539691507816314697 

