-0.072846442461013793945 0.015359688550233840942 0.066039487719535827637 0.019608274102210998535 0.053946260362863540649 -0.043178617954254150391 -0.028422283008694648743 0.014588543213903903961 -0.025918446481227874756 -0.0079500628635287284851 0.033078160136938095093 -0.027031324803829193115 -0.061406243592500686646 0.042543046176433563232 -0.064100958406925201416 -0.078721880912780761719 0.040422845631837844849 -0.056715246289968490601 -0.091354608535766601562 0.063800871372222900391 0.034437265247106552124 -0.015532907098531723022 -0.052035301923751831055 -0.01031439565122127533 -0.12097463756799697876 -0.13584055006504058838 -0.10268985480070114136 0.040112379938364028931 0.068407148122787475586 0.045457012951374053955 0.00986374635249376297 -0.051754407584667205811 -0.019642522558569908142 0.076192118227481842041 0.022534161806106567383 0.10438214987516403198 -0.050904821604490280151 -0.056591946631669998169 -0.080029383301734924316 -0.27908056974411010742 0.053173150867223739624 -0.028690539300441741943 -0.36023691296577453613 0.02763454243540763855 -0.16954658925533294678 -0.020163562148809432983 -0.0047770310193300247192 0.0018954939441755414009 -0.0068032993003726005554 -0.014755822718143463135 0.010548252612352371216 0.0111994156613945961 -0.00020273978589102625847 -0.015958411619067192078 0.032274261116981506348 0.054645080119371414185 -0.016448430716991424561 0.045052457600831985474 0.033143363893032073975 -0.031397029757499694824 0.0074090645648539066315 0.056850168853998184204 0.0322895050048828125 -0.023379541933536529541 0.01550603378564119339 -0.041140604764223098755 -0.0025040053296834230423 0.0029979040846228599548 0.030996374785900115967 -0.030179124325513839722 -0.00051699473988264799118 -0.040718846023082733154 -0.08508586883544921875 -0.086825311183929443359 -0.02978139929473400116 -0.019195199012756347656 -0.028541859239339828491 -0.083620533347129821777 0.058207254856824874878 0.11658523231744766235 0.14468090236186981201 -0.002685959450900554657 0.042037941515445709229 0.022096214815974235535 -0.05193926393985748291 -0.014236289076507091522 -0.097175456583499908447 -0.10156657546758651733 -0.031531479209661483765 -0.11560207605361938477 -0.08724358677864074707 0.038393296301364898682 -0.084082543849945068359 -0.0045445095747709274292 0.058487530797719955444 -0.039850562810897827148 -0.15165466070175170898 -0.0050756679847836494446 -0.048218097537755966187 0.17865127325057983398 -0.014706986024975776672 -0.067818596959114074707 0.15299767255783081055 0.020827034488320350647 -0.025071457028388977051 0.066454641520977020264 0.0095791723579168319702 -0.086166463792324066162 0.017294459044933319092 0.030364891514182090759 0.012150449678301811218 0.028540773317217826843 0.039601571857929229736 -0.020899843424558639526 0.046545326709747314453 0.051970299333333969116 -0.090631015598773956299 -8.3011793321929872036e-05 0.033830422908067703247 0.01575547829270362854 0.014966746792197227478 0.046398859471082687378 0.0088145267218351364136 -0.075353123247623443604 -0.039858538657426834106 -0.12011061608791351318 -0.14869928359985351562 -0.052237212657928466797 -0.11317971348762512207 -0.062753729522228240967 0.0019621329847723245621 -0.028572870418429374695 -0.017174286767840385437 0.0099699096754193305969 0.016612518578767776489 -0.045424997806549072266 -0.025656286627054214478 -0.098390430212020874023 0.015609802678227424622 0.060234718024730682373 0.017077863216400146484 -0.15223020315170288086 -0.077720940113067626953 -0.16344459354877471924 -0.17115755379199981689 -0.079946026206016540527 -0.0036351974122226238251 -0.13886663317680358887 0.023474043235182762146 -0.022738084197044372559 -0.072834312915802001953 -0.0011418272042647004128 -0.0054247668012976646423 0.023611968383193016052 0.034635502845048904419 0.024802470579743385315 -0.0048632631078362464905 -0.024895749986171722412 -0.020211692899465560913 0.018573865294456481934 0.023167796432971954346 0.038362994790077209473 -0.049446020275354385376 -0.021709881722927093506 0.020916476845741271973 -0.074100106954574584961 -0.028741702437400817871 0.022926013916730880737 -0.028519107028841972351 0.0085002584382891654968 0.026663856580853462219 0.020017182454466819763 -0.021484019234776496887 -0.035161204636096954346 -0.011720609851181507111 -0.031141523271799087524 0.0031048927921801805496 -0.0096069192513823509216 -0.022468453273177146912 0.031846690922975540161 -0.082044914364814758301 0.028384570032358169556 -0.074458800256252288818 -0.027024323120713233948 0.091513022780418395996 0.0028034634888172149658 -0.18098826706409454346 -0.047727126628160476685 -0.19058124721050262451 0.15233002603054046631 0.032701391726732254028 0.12012734264135360718 0.035849366337060928345 -0.077174477279186248779 -0.0041357236914336681366 0.011778858490288257599 -0.12838253378868103027 -0.070744469761848449707 -0.10648731142282485962 -0.017703343182802200317 -0.033390082418918609619 -0.065769560635089874268 0.0575941428542137146 0.14075110852718353271 -0.17741565406322479248 -0.065681666135787963867 0.15389367938041687012 0.034485965967178344727 0.0020216295961290597916 0.051086969673633575439 0.017198486253619194031 0.0056064622476696968079 -0.0064193257130682468414 0.054681591689586639404 -0.005562350153923034668 -0.0015840422129258513451 -0.057036839425563812256 0.079255566000938415527 -0.069604597985744476318 -0.025609135627746582031 0.13518469035625457764 -0.076869837939739227295 -0.11840930581092834473 0.021455274894833564758 -0.19695527851581573486 -0.030671190470457077026 -0.087447024881839752197 -0.016888564452528953552 0.0036377261858433485031 0.096832759678363800049 -0.0091328741982579231262 -0.053175572305917739868 0.093893073499202728271 -0.13468381762504577637 -0.014401437714695930481 -0.012688335031270980835 -0.031220894306898117065 -0.034930001944303512573 0.0048281401395797729492 0.049815520644187927246 -0.13129973411560058594 -0.0035331801045686006546 -0.024168599396944046021 -0.0065150647424161434174 -0.014673637226223945618 -0.076849788427352905273 -0.046568088233470916748 -0.013868795707821846008 -0.020510215312242507935 -0.018297636881470680237 -0.0024717715568840503693 -0.037394937127828598022 0.12771530449390411377 0.0074481894262135028839 -0.033126976341009140015 0.039592113345861434937 -0.06722570955753326416 -0.021444875746965408325 0.075925782322883605957 -0.034674584865570068359 0.066346354782581329346 0.19133958220481872559 0.1963952481746673584 0.012222357094287872314 0.10942512750625610352 0.012601577676832675934 -0.16794730722904205322 -0.019406989216804504395 -0.061761297285556793213 -0.23616190254688262939 -0.10129388421773910522 0.01875908486545085907 -0.075803987681865692139 -0.041243605315685272217 0.10431405901908874512 -0.041314873844385147095 -0.12225825339555740356 -0.0048466110602021217346 0.012503913603723049164 -0.16983202099800109863 -0.017458686605095863342 -0.11335845291614532471 0.065428838133811950684 -0.0024754574988037347794 -0.012742970138788223267 -0.025609843432903289795 0.0096044745296239852905 0.17907969653606414795 -0.031132731586694717407 -0.0075115412473678588867 -0.030199775472283363342 -0.014852146618068218231 -0.023299140855669975281 -0.025188142433762550354 -0.012066443450748920441 -0.012234110385179519653 -0.033010181039571762085 0.040627665817737579346 0.02592886798083782196 0.083156503736972808838 0.078663349151611328125 0.049549948424100875854 0.032677873969078063965 0.093535624444484710693 0.0087421601638197898865 3.0743787647224962711e-05 0.20644052326679229736 0.082127630710601806641 0.16087098419666290283 0.032358121126890182495 0.013111794367432594299 0.041996452957391738892 0.12152793258428573608 0.02989183180034160614 0.074659429490566253662 0.038352955132722854614 0.011994116008281707764 0.086896650493144989014 0.045307371765375137329 0.052132617682218551636 0.055117126554250717163 -0.31003871560096740723 -0.16136853396892547607 -0.25692769885063171387 0.049224484711885452271 -0.039070717990398406982 0.053928323090076446533 0.0024758544750511646271 -0.032261006534099578857 0.014363374561071395874 -0.040472529828548431396 -0.021277727559208869934 0.057571504265069961548 -0.177720680832862854 -0.047143548727035522461 -0.23150223493576049805 0.023997098207473754883 0.08169434964656829834 -0.010275925509631633759 0.014677104540169239044 -0.060525164008140563965 -0.11797305196523666382 0.11272147297859191895 -0.040510289371013641357 0.12276509404182434082 0.022630378603935241699 -0.0062355156987905502319 0.0036623652558773756027 0.1134626045823097229 -0.028576910495758056641 0.09405498206615447998 -0.096160322427749633789 -0.0088506909087300300598 -0.074454680085182189941 0.037996847182512283325 0.052324578166007995605 -0.024467147886753082275 -0.080799132585525512695 0.052083894610404968262 -0.072076126933097839355 0.051846228539943695068 0.034344844520092010498 -0.072225704789161682129 0.019672792404890060425 0.0039860252290964126587 -0.10090459883213043213 0.003581731114536523819 -0.037836380302906036377 -0.1163393855094909668 0.097880996763706207275 -0.0068704630248248577118 0.033580474555492401123 -0.068018555641174316406 -0.15036661922931671143 -0.047816924750804901123 0.079686485230922698975 0.0060505461879074573517 0.12423774600028991699 0.050380833446979522705 0.0075454260222613811493 0.052998777478933334351 0.017185812816023826599 -0.038872338831424713135 -0.0077891913242638111115 0.051227517426013946533 0.0012827195459976792336 0.069024458527565002441 0.063878536224365234375 0.017524462193250656128 0.16607429087162017822 0.037918142974376678467 -0.072847887873649597168 -0.033050492405891418457 0.083286494016647338867 -0.0048889163881540298462 0.053185351192951202393 0.03157216683030128479 0.013431581668555736542 0.0089399535208940505981 0.012442097999155521393 0.014581026509404182434 -0.0075142243877053260803 0.04599872976541519165 0.029705654829740524292 0.023005764931440353394 0.13589404523372650146 0.10310924798250198364 0.11152303963899612427 0.04116109013557434082 -0.0033614200074225664139 0.079424090683460235596 0.0029525069985538721085 -0.017674084752798080444 -0.01217113155871629715 -0.03286258503794670105 -0.034749664366245269775 0.061046272516250610352 0.087934270501136779785 0.028860352933406829834 0.034606151282787322998 0.044630944728851318359 -0.0017641904996708035469 -0.10089448094367980957 -0.13733407855033874512 -0.11348898708820343018 -0.064731746912002563477 -0.026075376197695732117 -0.035132337361574172974 -0.0071289567276835441589 0.02775180526077747345 -0.012920899316668510437 -0.0093662198632955551147 -0.013428811915218830109 -0.0026643176097422838211 -0.0059930472634732723236 0.00020133618090767413378 0.011957930400967597961 0.00012827353202737867832 -0.0046342420391738414764 -0.014199061319231987 0.085786789655685424805 -0.082931593060493469238 -0.072500161826610565186 -0.068272463977336883545 -0.056412126868963241577 -0.071904748678207397461 -0.053397435694932937622 -0.024204427376389503479 -0.089300192892551422119 -0.10478547960519790649 -0.15830083191394805908 -0.02404131181538105011 -0.21445949375629425049 0.019412364810705184937 0.19432120025157928467 -0.12195319682359695435 -0.14765621721744537354 -0.017523091286420822144 -0.1938292384147644043 0.034967053681612014771 -0.010715934447944164276 0.0093073090538382530212 0.041437938809394836426 0.00038895328179933130741 -0.034151244908571243286 0.076790817081928253174 0.01290272735059261322 0.018968746066093444824 0.11636257171630859375 -0.021890662610530853271 -0.0080907400697469711304 0.12674821913242340088 -0.0088239200413227081299 -0.032915677875280380249 0.13519646227359771729 -0.00026963869458995759487 -0.067563869059085845947 -0.084774859249591827393 0.0046988404355943202972 -0.0461673736572265625 -0.13302257657051086426 -0.024942716583609580994 -0.082978315651416778564 -0.1434253007173538208 -0.023612482473254203796 -0.082848206162452697754 -0.14970490336418151855 0.032700426876544952393 -0.14286196231842041016 0.029982928186655044556 0.040696542710065841675 -0.072290897369384765625 -0.055303409695625305176 -0.05698176845908164978 -0.032168682664632797241 0.009339159354567527771 0.041580524295568466187 0.0083118462935090065002 -0.019205138087272644043 0.026138061657547950745 0.0083288522437214851379 -0.0080461390316486358643 -0.0066846357658505439758 0.057077962905168533325 -0.20254935324192047119 -0.021777551621198654175 -0.047059327363967895508 -0.0024067156482487916946 0.15250758826732635498 0.12453919649124145508 0.052459545433521270752 0.15184696018695831299 -0.028172578662633895874 0.055119458585977554321 0.0045916503295302391052 0.095108561217784881592 -0.0065109930001199245453 -0.065076336264610290527 0.10206250101327896118 0.14115869998931884766 0.033713031560182571411 0.18214648962020874023 -0.12831179797649383545 -0.069609887897968292236 -0.031059209257364273071 -0.047856342047452926636 0.017248697578907012939 -0.0043971771374344825745 0.076816581189632415771 0.13099423050880432129 0.10942959785461425781 0.0016346169868484139442 0.027526577934622764587 0.19041131436824798584 -0.060284815728664398193 -0.035177141427993774414 0.052660550922155380249 0.0019518331391736865044 0.035434748977422714233 -0.040379341691732406616 -0.044384155422449111938 0.018488867208361625671 -0.09898808598518371582 -0.011000974103808403015 0.048862844705581665039 -0.015815220773220062256 0.026639943942427635193 0.053008884191513061523 -0.041072022169828414917 0.017649797722697257996 0.0036760231014341115952 0.019827360287308692932 0.042576335370540618896 0.036776684224605560303 0.050620213150978088379 -0.0063623259775340557098 0.060037855058908462524 0.030210193246603012085 -0.093104586005210876465 0.017036957666277885437 -0.12787964940071105957 -0.049690995365381240845 0.042417716234922409058 0.0049985954537987709045 -0.13275706768035888672 -0.021983120590448379517 -0.13291373848915100098 -0.010249616578221321106 -0.0068380436860024929047 -0.01013807300478219986 -0.053262133151292800903 -0.08623228222131729126 -0.007782121654599905014 -0.046544935554265975952 -0.052136637270450592041 0.042814638465642929077 0.13553199172019958496 0.0060755219310522079468 0.041009519249200820923 0.015024043619632720947 -0.027010556310415267944 0.033289495855569839478 0.064069084823131561279 0.016250053420662879944 0.079381264746189117432 0.057846199721097946167 0.052116565406322479248 0.023467935621738433838 -0.0069642802700400352478 0.021864892914891242981 0.04421399533748626709 -0.090097025036811828613 0.011547278612852096558 0.036502905189990997314 0.0086596319451928138733 -0.0096693029627203941345 0.0061017270199954509735 0.015233920887112617493 0.0024363650009036064148 0.015861438587307929993 -0.023194357752799987793 0.0028008148074150085449 -0.010140163823962211609 -0.024362839758396148682 -0.0025553621817380189896 0.057211089879274368286 0.095845870673656463623 0.07962341606616973877 0.097850278019905090332 -0.018533039838075637817 0.033262055367231369019 0.046942606568336486816 -0.12273487448692321777 -0.030313517898321151733 -0.20208992063999176025 0.0038787897210568189621 0.10289875417947769165 -0.052238781005144119263 -0.084784448146820068359 0.0090215047821402549744 -0.075161255896091461182 0.089041195809841156006 -0.0036884683649986982346 0.094807714223861694336 0.047866750508546829224 -0.07354851067066192627 0.027573477476835250854 0.099923573434352874756 -0.023330952972173690796 0.068680241703987121582 0.015052842907607555389 0.024782981723546981812 -0.025459365919232368469 -0.0042250142432749271393 0.057004455476999282837 -0.048631381243467330933 -0.45301520824432373047 -0.23734241724014282227 -0.33931824564933776855 -0.043892491608858108521 -0.048164140433073043823 0.03032620064914226532 0.026736022904515266418 -0.024979446083307266235 -0.027498869225382804871 0.067186981439590454102 -0.033859882503747940063 -0.066065579652786254883 -0.016565095633268356323 0.024444624781608581543 -0.092701368033885955811 -0.0013380071613937616348 0.0035920147784054279327 -0.024972196668386459351 0.074129082262516021729 0.031871594488620758057 -0.067714422941207885742 0.054031807929277420044 0.016589013859629631042 -0.1093581467866897583 -0.039194021373987197876 0.026183567941188812256 0.095976315438747406006 0.088141180574893951416 -0.01587926037609577179 0.070721007883548736572 -0.135402679443359375 -0.080145299434661865234 0.022979922592639923096 -0.086687408387660980225 0.018183089792728424072 0.065600112080574035645 -0.170923575758934021 -0.063036285340785980225 0.012033318169414997101 -0.0094304885715246200562 -0.032791245728731155396 0.020383741706609725952 -0.030729087069630622864 0.02701519988477230072 0.011250015348196029663 0.043679967522621154785 0.025487583130598068237 0.028573479503393173218 0.0055041494779288768768 -0.045060656964778900146 -0.2376264035701751709 0.022321742027997970581 0.035093493759632110596 0.015585723333060741425 -0.01308209635317325592 -0.046927820891141891479 0.034572258591651916504 -0.037026703357696533203 0.024302544072270393372 0.0096180597320199012756 0.00071857473812997341156 -0.0001436825550626963377 -0.072033539414405822754 -0.053684882819652557373 -0.057497717440128326416 -0.030624961480498313904 -0.047002591192722320557 -0.047891348600387573242 -0.089424401521682739258 -0.027115982025861740112 -0.014266155660152435303 -0.068238645792007446289 -1.4933360944269225001e-05 -0.0041020875796675682068 -0.043865937739610671997 0.013140407390892505646 -0.011868446134030818939 -0.050281722098588943481 0.0050533446483314037323 0.0012263024691492319107 -0.0067805610597133636475 -0.04385194927453994751 -0.0099504925310611724854 0.0052219061180949211121 0.0049709226004779338837 -0.047168966382741928101 -0.17310912907123565674 0.057989437133073806763 0.010675568133592605591 -0.0034339288249611854553 0.0067652282305061817169 0.00042832706822082400322 -0.00056778272846713662148 0.026499010622501373291 0.030510913580656051636 0.08638884127140045166 -0.0047034062445163726807 0.045251522213220596313 0.060026608407497406006 -0.14692206680774688721 -0.12923426926136016846 -0.29664987325668334961 -0.031183533370494842529 0.023785408586263656616 -0.031593337655067443848 0.0084947971627116203308 -0.017473822459578514099 -0.0027573716361075639725 -8.5841144027654081583e-05 0.02849948592483997345 0.065437249839305877686 0.039262481033802032471 0.035223275423049926758 -0.029652290046215057373 0.036006443202495574951 -0.0066521037369966506958 0.011498875916004180908 0.12707479298114776611 0.012611180543899536133 0.075267054140567779541 0.014831123873591423035 -0.025270802900195121765 0.013111322186887264252 0.021380977705121040344 -0.029757935553789138794 0.045064650475978851318 0.012888034805655479431 -0.041211437433958053589 -0.052936181426048278809 0.071013189852237701416 0.031283363699913024902 0.031047310680150985718 0.030771847814321517944 0.043358780443668365479 0.0012821037089452147484 -0.011503262445330619812 0.048017650842666625977 0.046828102320432662964 -0.028707008808851242065 0.047803014516830444336 0.00022299071133602410555 -0.019152242690324783325 -0.0022419989109039306641 -0.012536332011222839355 0.041976395994424819946 0.036899443715810775757 -0.0031128295231610536575 -0.12719751894474029541 0.11605057120323181152 0.062997572124004364014 -0.056113004684448242188 0.15083928406238555908 -0.017250182107090950012 -0.11347463726997375488 0.02650986798107624054 -0.14787684381008148193 0.12644033133983612061 -0.016306601464748382568 -0.11655743420124053955 -0.011521474458277225494 -0.054132960736751556396 -0.074051007628440856934 -0.027242938056588172913 0.021025002002716064453 0.0050687165930867195129 -0.26862317323684692383 -0.17370186746120452881 -0.17009648680686950684 -0.081328406929969787598 -0.0148767055943608284 -0.046289887279272079468 -0.051416333764791488647 -0.018577741459012031555 -0.11791449785232543945 0.025559429079294204712 -0.0017666284693405032158 -0.027935104444622993469 -0.024786252528429031372 0.035576809197664260864 0.0068716416135430335999 -0.043757505714893341064 -0.010964046232402324677 -0.0080729676410555839539 -0.051027890294790267944 0.044705085456371307373 0.07296396791934967041 -0.094630643725395202637 -0.03585858270525932312 0.0014307851670309901237 -0.0791093483567237854 -0.0013379178708419203758 0.081211671233177185059 -0.0022314218804240226746 -0.031771067529916763306 0.032145109027624130249 0.041031327098608016968 -0.021828915923833847046 0.0027207385282963514328 -0.051021095365285873413 -0.026016820222139358521 0.01556096784770488739 0.28657877445220947266 0.21794752776622772217 0.28589591383934020996 0.027934836223721504211 -0.024930983781814575195 0.086137875914573669434 0.1360187232494354248 0.035885225981473922729 0.14107301831245422363 -0.089626610279083251953 0.05884900316596031189 0.045062631368637084961 -0.015075881034135818481 0.11639634519815444946 0.022343140095472335815 -0.079646758735179901123 0.077332712709903717041 -0.051447752863168716431 -0.15397933125495910645 0.038711104542016983032 -0.12513789534568786621 -0.017343262210488319397 0.10598146170377731323 -0.018882298842072486877 -0.088079221546649932861 0.054039884358644485474 -0.03825308382511138916 -0.0011461494723334908485 -0.093768306076526641846 -0.061438743025064468384 0.051677551120519638062 -0.017160793766379356384 0.090098567306995391846 0.038182299584150314331 0.04976255074143409729 -0.040071241557598114014 0.11985745280981063843 0.13222864270210266113 -0.0083214361220598220825 0.05827876552939414978 0.036677468568086624146 0.01385050453245639801 -0.080039076507091522217 -0.0096949562430381774902 -0.096902504563331604004 -0.16277174651622772217 0.0049214093014597892761 -0.019928427413105964661 -0.0027660271152853965759 0.0048471000045537948608 0.0074451738037168979645 -0.057795304805040359497 -0.0058080060407519340515 -0.067177034914493560791 0.064244814217090606689 0.10669592022895812988 0.023982666432857513428 0.16540388762950897217 -0.30395323038101196289 0.086882285773754119873 0.025407679378986358643 0.025935372337698936462 0.09808505326509475708 -0.054796539247035980225 0.17748920619487762451 0.031427007168531417847 0.19534264504909515381 0.18248917162418365479 -0.13677977025508880615 -0.014481198973953723907 -0.10477751493453979492 -0.10026083886623382568 0.019059447571635246277 -0.07258761674165725708 -0.0836141929030418396 0.0012550298124551773071 0.081860907375812530518 0.10436844825744628906 -0.054022971540689468384 0.1336873471736907959 -0.038381263613700866699 -0.047802358865737915039 -0.021668272092938423157 -0.051172144711017608643 -0.02612032182514667511 0.049905400723218917847 -0.0005220316816121339798 -0.0112589225172996521 0.030190693214535713196 -0.044551327824592590332 -0.002619991544634103775 0.0072620180435478687286 -0.013565172441303730011 -0.033900868147611618042 -0.48319292068481445312 -0.0085031008347868919373 0.030693380162119865417 0.066949516534805297852 0.063346125185489654541 -0.051709905266761779785 -0.10959830880165100098 0.012211509048938751221 -0.044064179062843322754 0.12036685645580291748 0.027063600718975067139 -0.07408914715051651001 -0.0076322611421346664429 -0.034873325377702713013 0.053368728607892990112 0.0036610229872167110443 0.020969076082110404968 -0.065601907670497894287 0.11332102119922637939 -0.14296858012676239014 0.022042378783226013184 -0.16266863048076629639 0.0011810932774096727371 -0.027427799999713897705 0.005616057664155960083 0.0068386099301278591156 0.012700361199676990509 0.028859879821538925171 0.001668151351623237133 -0.015769731253385543823 -0.091012239456176757812 0.018625741824507713318 0.0048435898497700691223 0.22487525641918182373 -0.099710442125797271729 -0.011999777518212795258 0.056307017803192138672 -0.12266070395708084106 -0.0066711888648569583893 0.1052980571985244751 0.0046125133521854877472 0.083114124834537506104 -0.0042377058416604995728 0.059862967580556869507 -0.11908957362174987793 -0.24882629513740539551 -0.03077386319637298584 0.031570494174957275391 0.040777646005153656006 0.20017252862453460693 -0.0084543665871024131775 0.16456499695777893066 0.031843140721321105957 0.07015117257833480835 0.25605225563049316406 0.0035025714896619319916 -0.040095824748277664185 -0.14050765335559844971 -0.0065494258888065814972 -0.056933272629976272583 -0.027428090572357177734 0.023145982995629310608 0.064905300736427307129 -0.027384363114833831787 -0.00033790658926591277122 0.0037028661463409662247 0.076400764286518096924 0.061513520777225494385 -0.080123968422412872314 0.049334302544593811035 -0.025620011612772941589 0.035594195127487182617 0.15708799660205841064 0.008568026125431060791 -0.03407149389386177063 -0.00065111898584291338921 -0.17169532179832458496 0.035957522690296173096 -0.0049420502036809921265 0.019041240215301513672 -0.082991778850555419922 0.31690704822540283203 0.03950152173638343811 -0.038857407867908477783 -0.080369584262371063232 -0.083166494965553283691 -0.075302153825759887695 0.017393609508872032166 -0.0078646941110491752625 0.024448076263070106506 0.14732633531093597412 0.087341226637363433838 -0.11331396549940109253 -0.01649533398449420929 -0.13370773196220397949 -0.028475156053900718689 0.055065564811229705811 -0.030693395063281059265 0.038501203060150146484 -0.74784761667251586914 0.12240890413522720337 0.088239446282386779785 0.11914072185754776001 0.10666631907224655151 -0.0042828815057873725891 -0.026828370988368988037 -0.0037305012810975313187 0.020682161673903465271 -0.22489748895168304443 0.034086231142282485962 0.012134219519793987274 0.042329188436269760132 0.034133058041334152222 0.011793627403676509857 -0.057060953229665756226 -0.0095209376886487007141 -0.087191522121429443359 0.012522479519248008728 -0.13195312023162841797 0.075825557112693786621 -0.038161743432283401489 0.11792282015085220337 -0.19042234122753143311 0.018751977011561393738 -0.074920564889907836914 0.011315530166029930115 0.3230991065502166748 0.096150614321231842041 -0.10289929062128067017 0.026580765843391418457 -0.23310291767120361328 0.00068010558607056736946 -0.11893747001886367798 -0.043529547750949859619 -0.052912298589944839478 0.22022579610347747803 0.066035844385623931885 -0.04043224826455116272 0.051646597683429718018 -0.070706456899642944336 -0.020333878695964813232 0.028590476140379905701 0.039567649364471435547 -0.014273174107074737549 0.0084361424669623374939 0.14084616303443908691 -0.092328198254108428955 0.070446833968162536621 -0.039336819201707839966 0.023264808580279350281 -0.068752355873584747314 0.019723683595657348633 0.096795894205570220947 0.011174906976521015167 -0.0025188275612890720367 0.027558879926800727844 -0.019867563620209693909 0.046348925679922103882 0.029390210285782814026 0.0069500333629548549652 0.027724271640181541443 -0.023577518761157989502 0.089215040206909179688 -0.030081192031502723694 0.069933868944644927979 -0.18131868541240692139 0.060342907905578613281 0.089186355471611022949 0.0091296033933758735657 0.11812348663806915283 0.083596691489219665527 -0.63676232099533081055 -0.032358471304178237915 0.14302536845207214355 0.026536488905549049377 0.15249420702457427979 -0.010509128682315349579 0.0076290718279778957367 0.010491029359400272369 0.024698002263903617859 0.048083949834108352661 -0.13219140470027923584 0.019894653931260108948 -0.070676110684871673584 -0.012880138121545314789 0.01733168773353099823 0.062486741691827774048 0.025395987555384635925 0.02807741798460483551 -0.0927926674485206604 -0.071085661649703979492 -0.001394252176396548748 0.01882066577672958374 0.0042406781576573848724 0.16270969808101654053 0.036310963332653045654 0.051065653562545776367 0.045512873679399490356 -0.4094301760196685791 -0.010361275635659694672 0.091738261282444000244 0.037223365157842636108 0.1745770871639251709 0.061796367168426513672 0.09415928274393081665 0.076568603515625 0.068511724472045898438 0.080888174474239349365 -0.0097430888563394546509 0.028126768767833709717 -0.019233025610446929932 -0.01004144083708524704 0.15407353639602661133 -0.21452437341213226318 -0.1023310050368309021 -0.18734423816204071045 -0.65340429544448852539 0.076967313885688781738 0.11837378144264221191 0.11651650071144104004 0.17477867007255554199 -9.5776122179813683033e-05 -0.011106604710221290588 -0.01505445968359708786 -0.065352581441402435303 0.099501691758632659912 0.016543295234441757202 0.004214134998619556427 0.010687662288546562195 0.013380749151110649109 -0.009195913560688495636 -0.041258975863456726074 0.047503910958766937256 0.066389136016368865967 -0.021910771727561950684 -0.16340535879135131836 0.0023065940476953983307 -0.0098264981061220169067 -0.019665082916617393494 -0.02582154981791973114 0.097087994217872619629 0.022895202040672302246 -0.008537572808563709259 -0.18951694667339324951 0.0067640161141753196716 0.011954276822507381439 0.013300233520567417145 0.06740932166576385498 -0.025180302560329437256 0.076892271637916564941 0.060448363423347473145 0.10475163906812667847 -0.11090723425149917603 0.041538555175065994263 -0.034396722912788391113 -0.03671523556113243103 -0.013758755289018154144 0.031895108520984649658 -0.030993830412626266479 0.029129855334758758545 -0.018940426409244537354 -0.0087246820330619812012 0.19483040273189544678 0.0066878967918455600739 0.050936024636030197144 0.010119803249835968018 -0.12006871402263641357 0.017749451100826263428 -0.027240049093961715698 -0.075726009905338287354 0.16988401114940643311 -0.15248468518257141113 -0.046183176338672637939 0.042584627866744995117 -0.28226873278617858887 -0.096428453922271728516 -0.034604635089635848999 -0.055206697434186935425 0.11859058588743209839 0.18565548956394195557 -0.12260728329420089722 0.011044252663850784302 -0.14594106376171112061 -0.15008522570133209229 0.021687861531972885132 -0.002191668609157204628 -0.0021813295315951108932 -0.010338289663195610046 -0.12296908348798751831 0.03215096890926361084 0.0050774551928043365479 0.034554474055767059326 0.014727387577295303345 0.016946818679571151733 0.052126090973615646362 -0.071393154561519622803 0.17975987493991851807 0.19865916669368743896 0.12918573617935180664 -0.073212519288063049316 0.068987257778644561768 -0.19418096542358398438 -0.0050626518204808235168 0.058468937873840332031 -0.072109162807464599609 0.18119658529758453369 -0.27161467075347900391 0.059510350227355957031 0.0010110459988936781883 -0.018397057428956031799 -0.048998825252056121826 0.025077659636735916138 -0.022945262491703033447 0.00802880898118019104 0.020629243925213813782 0.038618206977844238281 -0.029638161882758140564 -0.014479787088930606842 -0.049846716225147247314 0.033778477460145950317 -0.010092439129948616028 -0.02318726666271686554 -0.075610034167766571045 -0.059130370616912841797 0.21141435205936431885 -0.05706491321325302124 -0.03557715192437171936 0.072022907435894012451 -0.088321596384048461914 -0.016211871057748794556 -0.020421367138624191284 -0.010707288049161434174 -0.010094569064676761627 -0.11693373322486877441 0.066968180239200592041 0.0077774589881300926208 0.049558032304048538208 -0.090315423905849456787 -0.038312714546918869019 0.058035910129547119141 -0.058134883642196655273 0.035833589732646942139 0.19594693183898925781 0.03908939659595489502 0.038277689367532730103 -0.0079223634675145149231 -0.0069436877965927124023 -0.022123461589217185974 -0.057025849819183349609 0.076854914426803588867 -0.14590096473693847656 0.16559614241123199463 -0.027447270229458808899 -0.024270026013255119324 -0.079316638410091400146 -0.099915444850921630859 0.11687957495450973511 0.11536689102649688721 0.0071546877734363079071 0.14852191507816314697 0.094932883977890014648 -0.10485748946666717529 -0.019037690013647079468 -0.069299764931201934814 -0.13576953113079071045 0.027327142655849456787 -0.017129007726907730103 0.02883383631706237793 0.032224215567111968994 -0.30695188045501708984 0.0020039228256791830063 -0.014217217452824115753 0.089198984205722808838 0.076543949544429779053 0.033827040344476699829 -0.019700858741998672485 -0.046542428433895111084 -0.03048277832567691803 0.1982844918966293335 -0.016795057803392410278 0.013399673625826835632 0.082497917115688323975 -0.069806657731533050537 0.26945024728775024414 0.099990777671337127686 0.073789909482002258301 0.28990295529365539551 -1.2045259475708007812 -0.049368452280759811401 0.13407476246356964111 -0.030234716832637786865 0.33446907997131347656 -0.11150769889354705811 0.00459272041916847229 0.022367713972926139832 0.031263120472431182861 0.17280496656894683838 -0.028545318171381950378 -0.046756379306316375732 -0.043315850198268890381 -0.12156909704208374023 0.056735172867774963379 -0.099278680980205535889 -0.078870758414268493652 -0.098583050072193145752 -0.13022823631763458252 -0.04064229130744934082 0.014924373477697372437 -0.019072175025939941406 0.034679356962442398071 0.090445540845394134521 -0.016158640384674072266 0.017267175018787384033 0.08781598508358001709 0.28680437803268432617 -0.033241983503103256226 0.04924523085355758667 -0.068410865962505340576 0.020750870928168296814 0.026484299451112747192 -0.090540960431098937988 -0.070368535816669464111 0.074546873569488525391 0.058373183012008666992 -0.00014740497863385826349 -0.10718864202499389648 -0.16438929736614227295 0.08116295933723449707 -0.018894197419285774231 -0.0017563903238624334335 -0.019854657351970672607 0.011479669250547885895 0.21415662765502929688 -0.011570978909730911255 0.028189560398459434509 -0.098750069737434387207 -0.048088148236274719238 -0.040829066187143325806 0.08208580315113067627 -0.034432549029588699341 -0.097330458462238311768 -0.15526512265205383301 0.11947820335626602173 -0.013931398279964923859 0.10406798869371414185 0.0030037413816899061203 -0.045874219387769699097 0.019091175869107246399 -0.069046914577484130859 -0.065637752413749694824 0.0077018104493618011475 0.030698532238602638245 0.023853657767176628113 0.11986245214939117432 -0.05705372244119644165 0.028960751369595527649 -0.087542839348316192627 -0.025932971388101577759 -0.082726858556270599365 -0.2309382706880569458 -0.092929199337959289551 0.048281755298376083374 0.09883479773998260498 0.050402123481035232544 0.055902957916259765625 -0.0001214731018990278244 -0.012781237252056598663 0.033810328692197799683 -0.051125880330801010132 0.014862897805869579315 -0.063721172511577606201 -0.0070714061148464679718 -0.030012654140591621399 -0.10979613661766052246 -0.047049403190612792969 -0.097226090729236602783 0.10187283903360366821 0.2812429964542388916 -0.011527396738529205322 -0.032031476497650146484 -0.11928512901067733765 -0.10098793357610702515 0.03489348292350769043 -0.059545345604419708252 0.00026180653367191553116 -0.024804428219795227051 -0.2126350700855255127 -0.029156643897294998169 -0.021114921197295188904 -0.039411921054124832153 0.0042024129070341587067 0.059494599699974060059 0.036508284509181976318 -0.014928277581930160522 0.015583719126880168915 0.022443925961852073669 0.062309134751558303833 -0.021961510181427001953 0.085655204951763153076 -0.054571036249399185181 0.046509779989719390869 0.094784505665302276611 0.073182232677936553955 0.055711489170789718628 0.33550509810447692871 0.016581356525421142578 -0.037955988198518753052 -0.12323664873838424683 -0.019745951518416404724 

0.04753624647855758667 0.034275319427251815796 0.11726139485836029053 -0.019240304827690124512 -0.10691544413566589355 -0.039512619376182556152 0.10689660161733627319 0.011022921651601791382 0.0872041359543800354 0.061477705836296081543 -0.0024799623060971498489 0.057838145643472671509 0.010189726948738098145 -0.069497294723987579346 -0.021229779347777366638 0.087784491479396820068 -0.002531230216845870018 0.056659772992134094238 0.030050026252865791321 0.081799335777759552002 -0.045450441539287567139 0.034940365701913833618 0.04227354004979133606 -0.069181881844997406006 -0.023839768022298812866 0.040752064436674118042 -0.0042610769160091876984 -0.01399060618132352829 0.0028426342178136110306 -0.047150187194347381592 0.010000489652156829834 0.04756806790828704834 -0.031958162784576416016 -0.052379693835973739624 -0.00036388673470355570316 -0.036932062357664108276 0.056579466909170150757 0.027215056121349334717 0.053149290382862091064 0.028930803760886192322 -0.015400137752294540405 -0.043766953051090240479 -0.012696262449026107788 0.027328087016940116882 0.068813212215900421143 0.016473744064569473267 0.016525587067008018494 0.0036957999691367149353 0.022276720032095909119 -0.017877565696835517883 0.023246327415108680725 -0.00083898066077381372452 -0.017906557768583297729 0.018504874780774116516 0.0051366318948566913605 0.042040273547172546387 0.019041655585169792175 0.006001474335789680481 -0.0025722845457494258881 -0.0002317327162018045783 -0.01758211478590965271 0.050111111253499984741 0.059348396956920623779 0.023548889905214309692 -0.0091517828404903411865 0.060948550701141357422 0.0059017604216933250427 -0.043879307806491851807 -0.0082282582297921180725 0.053620550781488418579 0.0043175881728529930115 0.021807614713907241821 0.051247775554656982422 0.060288149863481521606 -0.025057001039385795593 0.018925035372376441956 0.033604510128498077393 0.0402448996901512146 -0.094805769622325897217 -0.012608461081981658936 -0.0019610233139246702194 0.037838272750377655029 0.036320917308330535889 0.081358321011066436768 -0.016531743109226226807 -0.10759047418832778931 -0.054957497864961624146 0.10945390164852142334 -0.024994529783725738525 0.00017190272046718746424 0.030250050127506256104 -0.0072488733567297458649 0.055241290479898452759 0.0035491548478603363037 -0.040804978460073471069 -0.0063334382139146327972 0.040545843541622161865 -0.028740581125020980835 0.023732997477054595947 0.028690895065665245056 0.015819594264030456543 0.021100496873259544373 -0.038781862705945968628 0.025822272524237632751 0.013627087697386741638 -0.032393503934144973755 -0.0013462939532473683357 -0.039871472865343093872 0.033870581537485122681 0.045271132141351699829 0.45489838719367980957 -0.001395145081914961338 0.053060304373502731323 0.44456449151039123535 -0.0092105595394968986511 0.12077486515045166016 0.54842972755432128906 0.037704300135374069214 0.017285941168665885925 -0.032228540629148483276 0.0044032959267497062683 0.031185634434223175049 -0.026849932968616485596 -0.11369508504867553711 0.0053620557300746440887 -0.016327396035194396973 -0.052246291190385818481 0.022753259167075157166 0.02301046811044216156 -0.019210712984204292297 0.016339100897312164307 -0.032476864755153656006 0.0053518228232860565186 0.042434085160493850708 -0.026722302660346031189 0.054617185145616531372 -0.0042951004579663276672 -0.036854501813650131226 -0.061129912734031677246 -0.05323108285665512085 -0.028573431074619293213 -0.076283857226371765137 -0.072243206202983856201 0.13028906285762786865 -0.21966877579689025879 -0.0073829488828778266907 0.048332680016756057739 -0.052384234964847564697 0.029874321073293685913 0.078209742903709411621 -0.01402358710765838623 -0.085054546594619750977 0.017363026738166809082 -0.12626612186431884766 -0.028419313952326774597 -0.21253135800361633301 -0.0013204516144469380379 0.11012382805347442627 0.0059279371052980422974 -0.15661363303661346436 -0.042704649269580841064 -0.19609300792217254639 -0.22145670652389526367 -0.10928051918745040894 0.047114852815866470337 -0.044740963727235794067 -0.016900733113288879395 0.029096575453877449036 -0.12791611254215240479 -0.06669531017541885376 0.001551845925860106945 -0.0077851265668869018555 -0.019772019237279891968 0.0079620629549026489258 -0.010561831295490264893 -0.048597194254398345947 -0.0001975260820472612977 0.023587128147482872009 0.016859231516718864441 0.033365640789270401001 0.091652005910873413086 0.040081202983856201172 0.034907061606645584106 -0.017279013991355895996 -0.012455486692488193512 -0.040785387158393859863 0.11866343766450881958 0.026429653167724609375 0.061449684202671051025 0.020145390182733535767 0.029306115582585334778 0.074332989752292633057 0.027442410588264465332 -0.018769508227705955505 0.021620707586407661438 -0.056744273751974105835 -0.020645093172788619995 -0.029315095394849777222 0.016642879694700241089 -0.015922715887427330017 -0.040282867848873138428 0.015057241544127464294 0.010917455889284610748 0.033649019896984100342 -0.041964974254369735718 -0.020173482596874237061 -0.031516578048467636108 0.039156123995780944824 -0.0013658578973263502121 0.027452709153294563293 0.0044670663774013519287 -0.0067401980049908161163 -0.031185606494545936584 0.024223718792200088501 0.031505897641181945801 0.046263229101896286011 -0.014974352903664112091 -0.021786207333207130432 0.046614505350589752197 0.0033040631096810102463 0.0029878390487283468246 0.018107619136571884155 0.0094221848994493484497 0.026630535721778869629 0.063664935529232025146 0.11436453461647033691 -0.038386173546314239502 0.025131320580840110779 0.02900586836040019989 0.014783156104385852814 0.032249346375465393066 -0.21214856207370758057 -0.053737506270408630371 -0.16069978475570678711 -0.11445359885692596436 0.069086432456970214844 -0.21573688089847564697 -0.1050904691219329834 0.13396032154560089111 -0.16995520889759063721 -0.14743725955486297607 0.027360992506146430969 -0.062562167644500732422 -0.011015615426003932953 0.0046094199642539024353 -0.044321417808532714844 -0.041226126253604888916 0.087436050176620483398 -0.0026706198696047067642 -0.012233331799507141113 0.047898452728986740112 -0.041313003748655319214 -0.082774095237255096436 0.023609545081853866577 -0.030254384502768516541 -0.0064224628731608390808 0.057693853974342346191 0.03227157890796661377 -0.0630434378981590271 0.032934095710515975952 0.023258242756128311157 0.10072042793035507202 -0.071736730635166168213 -0.017162524163722991943 0.12730062007904052734 -0.035288974642753601074 0.0032335859723389148712 0.10754097998142242432 -0.055489584803581237793 0.070012867450714111328 -0.094616293907165527344 -0.014771867543458938599 0.056862451136112213135 -0.048299495130777359009 -0.0482367686927318573 -0.01490652281790971756 0.03386063501238822937 -0.049870975315570831299 -0.091935746371746063232 0.012088368646800518036 -0.016047812998294830322 -0.015767399221658706665 0.017934653908014297485 0.020526822656393051147 -0.013113525696098804474 0.048783116042613983154 0.0090705770999193191528 0.082944512367248535156 -0.021868085488677024841 -0.009089189581573009491 0.023963527753949165344 0.025011206045746803284 -0.012483272701501846313 -0.01528113149106502533 -0.0045085204765200614929 0.0055255107581615447998 -0.0068067391403019428253 0.031616207212209701538 -0.044786933809518814087 0.064344450831413269043 0.010374600067734718323 -0.039523061364889144897 0.071457199752330780029 0.0674535408616065979 0.019805861636996269226 0.014785181730985641479 -0.18276375532150268555 -0.10928523540496826172 0.024288332089781761169 0.055061310529708862305 0.052411817014217376709 -0.016174392774701118469 -0.0058692870661616325378 0.0057686218060553073883 -0.035513646900653839111 0.045851040631532669067 -0.026790395379066467285 0.046951055526733398438 0.061625506728887557983 -0.038682390004396438599 0.024072246626019477844 0.22874489426612854004 0.15545405447483062744 0.25563198328018188477 0.023419156670570373535 0.0022865382488816976547 -0.031297434121370315552 0.013827475719153881073 0.012108715251088142395 0.025499707087874412537 0.041283294558525085449 0.043576579540967941284 -0.039374750107526779175 0.021537018939852714539 0.028288722038269042969 0.045179374516010284424 0.018284454941749572754 0.0048872851766645908356 -0.0041222511790692806244 0.00080714031355455517769 0.025531861931085586548 -0.041254077106714248657 0.036399513483047485352 0.040211133658885955811 0.048087824136018753052 0.022168729454278945923 -0.065652474761009216309 -0.023524360731244087219 -0.026772955432534217834 -0.012144082225859165192 0.099062360823154449463 0.032094731926918029785 0.049538139253854751587 0.0027377055957913398743 -0.04307988286018371582 -0.082975022494792938232 0.016712808981537818909 -0.0042733713053166866302 -0.024173907935619354248 0.03338068351149559021 -0.0027337442152202129364 -0.067630000412464141846 -0.008939394727349281311 0.063503034412860870361 0.0047023221850395202637 0.0064463610760867595673 -0.025256158784031867981 0.0082290470600128173828 -0.015716698020696640015 0.0020925777498632669449 0.034397032111883163452 -0.072647824883460998535 0.081479214131832122803 0.036370843648910522461 0.031697325408458709717 0.047494217753410339355 0.021117247641086578369 -0.020789034664630889893 -0.025257347151637077332 -0.0026791631244122982025 -0.064352884888648986816 0.0022414366248995065689 0.0010293604573234915733 -0.025695133954286575317 0.017098078504204750061 -0.024025587365031242371 -0.027888266369700431824 -0.0041934996843338012695 -0.0031483711209148168564 0.017510483041405677795 0.025621572509407997131 -0.019838545471429824829 -0.036104973405599594116 0.021073626354336738586 -0.047894973307847976685 0.067744538187980651855 -0.019406737759709358215 -0.024556025862693786621 -0.054452680051326751709 0.016600158065557479858 0.011111095547676086426 0.035224590450525283813 0.00014751877461094409227 -0.015909340232610702515 -0.0048352410085499286652 0.056496400386095046997 -0.049867857247591018677 -0.074460603296756744385 0.031119138002395629883 -0.024323439225554466248 0.011517235077917575836 0.13750252127647399902 0.036600548774003982544 0.13110128045082092285 -0.0055024335160851478577 -0.10276660323143005371 -0.080250613391399383545 -0.010464370250701904297 0.010351013392210006714 0.030501827597618103027 -0.039528477936983108521 -0.070322409272193908691 -0.039887882769107818604 0.022636158391833305359 0.096544019877910614014 0.25003674626350402832 -0.019405834376811981201 0.035393480211496353149 0.11040855199098587036 0.023090632632374763489 -0.061940476298332214355 0.036313440650701522827 0.013778481632471084595 -0.0096799312159419059753 -0.019763426855206489563 -0.030501447618007659912 -0.0071487557142972946167 -0.013174510560929775238 -0.025975765660405158997 0.036098297685384750366 -0.026425002142786979675 -0.11691163480281829834 0.015514607541263103485 0.00076524779433384537697 -0.083680465817451477051 -0.032741002738475799561 -0.011720837093889713287 -0.14864240586757659912 -0.034048598259687423706 -0.063300885260105133057 0.065416231751441955566 0.10377142578363418579 0.0018457010155543684959 -0.029897686094045639038 0.001761298859491944313 0.045340947806835174561 -0.075104147195816040039 0.0017629133071750402451 0.10454918444156646729 -0.022730395197868347168 -0.0072560273110866546631 -0.046976871788501739502 -0.0061893435195088386536 0.045586545020341873169 -0.017072467133402824402 -0.095322974026203155518 0.0094087375327944755554 -0.072397634387016296387 -0.10375374555587768555 0.039813928306102752686 0.012042646296322345734 -0.064997263252735137939 0.033310580998659133911 -0.0059706829488277435303 -0.10273549705743789673 0.017104199156165122986 -0.04902623593807220459 -0.016639586538076400757 -0.066457644104957580566 0.22164879739284515381 -0.011699429713189601898 -0.056894559413194656372 0.033333085477352142334 0.14541333913803100586 0.051252231001853942871 -0.0028509385883808135986 -0.031173910945653915405 -0.041727866977453231812 0.04301036149263381958 0.015987884253263473511 -0.016361517831683158875 0.035685144364833831787 0.045210525393486022949 0.019577292725443840027 -0.0029768208041787147522 0.023754000663757324219 0.0049520097672939300537 -0.021275084465742111206 0.062469452619552612305 -0.0061734369955956935883 -0.088314130902290344238 -0.011850208975374698639 -0.07733319699764251709 -0.048930656164884567261 0.0067182183265686035156 -0.018073955550789833069 0.081356696784496307373 0.041708920150995254517 -0.014449948444962501526 0.076126478612422943115 -0.060092289000749588013 -0.11358356475830078125 -0.025089932605624198914 -0.11391015350818634033 0.025893498212099075317 -0.19210317730903625488 -0.019577188417315483093 0.073857247829437255859 0.0035108360461890697479 -0.14873902499675750732 0.0073192715644836425781 -0.14462363719940185547 0.063691064715385437012 0.0053477264009416103363 0.13343331217765808105 -0.0072292764671146869659 -0.052414078265428543091 -0.010901591740548610687 0.032503582537174224854 0.017254775390028953552 0.065288886427879333496 -0.17293880879878997803 -0.068056002259254455566 -0.13531252741813659668 0.034522071480751037598 0.044114835560321807861 -0.0094230519607663154602 0.080834597349166870117 0.004732089117169380188 0.052132926881313323975 0.03024311363697052002 0.013092475011944770813 0.086858868598937988281 -0.0059838667511940002441 -0.023225972428917884827 0.024406196549534797668 0.0049588638357818126678 0.056225925683975219727 -0.0022260209079831838608 -0.0063749509863555431366 -0.0098165944218635559082 0.028589000925421714783 0.00099653960205614566803 0.023361738771200180054 -0.0018445679452270269394 -0.050783906131982803345 -0.011684421449899673462 -0.051584076136350631714 0.12301784753799438477 0.055420454591512680054 -0.019599566236138343811 0.0073834219947457313538 -0.066256754100322723389 -0.016716446727514266968 0.079529583454132080078 -0.013167452067136764526 0.033339381217956542969 -0.01705157943069934845 0.034009657800197601318 -0.022336015477776527405 -0.0099687678739428520203 0.036417588591575622559 -0.010651447810232639313 0.0034355297684669494629 0.005234295036643743515 0.0046273907646536827087 0.0095413699746131896973 0.06117342039942741394 -0.061116818338632583618 -0.042222939431667327881 0.014869205653667449951 -0.020298548042774200439 -0.023307535797357559204 0.028545659035444259644 -0.0092659126967191696167 0.068818032741546630859 -0.0012264950200915336609 0.050008121877908706665 0.00032873556483536958694 -0.05302162468433380127 -0.0015384069411084055901 0.051043245941400527954 -0.03090918809175491333 0.012415628880262374878 -0.01942772790789604187 0.011693689040839672089 -0.017643222585320472717 0.017321199178695678711 -0.013407312333583831787 -0.0089881708845496177673 0.019200067967176437378 0.0016915776068344712257 0.016468014568090438843 -0.048795394599437713623 0.052639573812484741211 -0.084058448672294616699 -0.002041300525888800621 0.042450234293937683105 -0.0022182278335094451904 0.029696935787796974182 0.0086036985740065574646 -0.04684282839298248291 0.063973367214202880859 0.030288746580481529236 0.0050392416305840015411 -0.0036668048705905675888 0.011040671728551387787 -0.035953208804130554199 0.018835805356502532959 0.015403082594275474548 0.011467560194432735443 0.022708868607878684998 0.013064098544418811798 0.067139185965061187744 0.0026913678739219903946 -0.026058843359351158142 -0.022697815671563148499 -0.0050106579437851905823 0.0050999815575778484344 0.019181491807103157043 -0.04221838340163230896 0.044444210827350616455 0.0092886490747332572937 -0.057621292769908905029 0.012713710777461528778 -0.025401609018445014954 0.079857133328914642334 0.04162441939115524292 0.064570382237434387207 0.019159080460667610168 -0.038062024861574172974 -0.051566172391176223755 0.010179985314607620239 -0.0072020594961941242218 0.0039807762950658798218 0.041475273668766021729 -0.013718446716666221619 0.036725390702486038208 0.070631541311740875244 -0.027423100546002388 0.031799521297216415405 0.050261214375495910645 -0.072706177830696105957 0.043492522090673446655 0.011799873784184455872 -0.033259622752666473389 0.015450191684067249298 -0.17039425671100616455 -0.0032365040387958288193 -0.020637627691030502319 0.029294665902853012085 0.0099077355116605758667 -0.10202988982200622559 -0.032865580171346664429 0.018890870735049247742 -0.041073482483625411987 0.098789744079113006592 -0.0095925070345401763916 0.074327953159809112549 0.021912699565291404724 -0.054091211408376693726 0.06108554452657699585 0.10768868029117584229 0.050605006515979766846 0.093518048524856567383 0.038796864449977874756 0.057322382926940917969 0.038546692579984664917 -0.043850500136613845825 -0.060136515647172927856 0.04906924813985824585 -0.00020412979938555508852 -0.028169168159365653992 -0.0016087437979876995087 -0.16101814806461334229 -0.02510024048388004303 -0.11510900408029556274 -0.027447937056422233582 -0.01870307140052318573 0.0066914767958223819733 0.10146874934434890747 -0.00089074351126328110695 0.047792632132768630981 0.055794231593608856201 -0.012016283348202705383 0.037331063300371170044 -0.0085794199258089065552 -0.037930745631456375122 -0.0087988208979368209839 0.046549372375011444092 0.022812120616436004639 0.0096136769279837608337 -0.049088165163993835449 0.047022715210914611816 -0.027275925502181053162 -0.025594033300876617432 0.070989094674587249756 0.004272384103387594223 -0.033983342349529266357 0.056496139615774154663 -0.0015548942610621452332 -0.077103585004806518555 0.0089284423738718032837 -0.074129723012447357178 -0.06726566702127456665 -0.010809418745338916779 -0.059901375323534011841 -0.0028840156737715005875 0.017926676198840141296 -0.01647318713366985321 0.028127828612923622131 0.0066924835555255413055 0.084195829927921295166 -0.01669291965663433075 -0.088743567466735839844 -0.092583723366260528564 0.037951983511447906494 0.029313726350665092468 -0.029355578124523162842 0.072883985936641693115 0.068743236362934112549 0.076419003307819366455 0.061422411352396011353 0.039883840829133987427 0.03195130079984664917 0.041474293917417526245 0.068863280117511749268 0.087367951869964599609 0.015984825789928436279 -0.011438664980232715607 -0.011395874433219432831 -0.011299087665975093842 -0.00045577710261568427086 0.013437356799840927124 -0.00073203362990170717239 -0.011700642295181751251 0.013318906538188457489 0.039308708161115646362 -0.030623411759734153748 -0.25079527497291564941 0.035612750798463821411 -0.041776452213525772095 0.038392439484596252441 -0.098863422870635986328 -0.0042428243905305862427 -0.055829685181379318237 0.056399933993816375732 -0.0049385409802198410034 0.088085748255252838135 0.013669469393789768219 0.021608052775263786316 0.029752144590020179749 0.064777068793773651123 -0.0040161130018532276154 0.033860392868518829346 -0.11954741179943084717 0.012714018113911151886 -0.020969461649656295776 -0.13884304463863372803 -0.019934898242354393005 -0.08974361419677734375 0.0040377597324550151825 -0.040325798094272613525 -0.12621617317199707031 -0.085635259747505187988 0.029637761414051055908 0.095261432230472564697 -0.037867985665798187256 0.044308003038167953491 0.089663617312908172607 -0.14177794754505157471 0.075850665569305419922 0.1734409034252166748 0.022456200793385505676 -0.031216548755764961243 0.036786239594221115112 -0.022507948800921440125 0.001915590604767203331 -0.029873263090848922729 -0.0099712070077657699585 0.0083658304065465927124 -0.020197685807943344116 0.043242346495389938354 -0.0083052851259708404541 0.025515431538224220276 0.02716987021267414093 -0.017185101285576820374 0.071990214288234710693 0.021118992939591407776 -0.062668666243553161621 0.072247721254825592041 0.063060902059078216553 0.09382257610559463501 0.060086794197559356689 0.029440946877002716064 0.046302147209644317627 0.029697779566049575806 0.17713904380798339844 0.18782773613929748535 0.18587593734264373779 0.037269927561283111572 -0.032956272363662719727 -0.0057065272703766822815 -0.071592740714550018311 -0.10634443908929824829 -0.078969657421112060547 0.072645373642444610596 -0.026261143386363983154 0.055740214884281158447 0.0627593994140625 -0.0056169191375374794006 0.0093003986403346061707 0.076550908386707305908 0.02222222648561000824 -0.0077573754824697971344 0.0082521159201860427856 -0.052311472594738006592 -0.046450834721326828003 -0.076329708099365234375 0.056578103452920913696 -0.032894283533096313477 -0.041146524250507354736 0.026274748146533966064 -0.020849019289016723633 -0.1737820357084274292 0.020152341574430465698 -0.0075725992210209369659 0.022298939526081085205 -0.029088769108057022095 0.021167801693081855774 0.013910600915551185608 -0.0077696503140032291412 -0.01297044660896062851 0.001979470718652009964 -0.028127247467637062073 -0.0034201624803245067596 0.024471113458275794983 0.0022602495737373828888 -0.036490797996520996094 -0.022092139348387718201 -0.0098518617451190948486 -0.054682172834873199463 -0.21489536762237548828 -0.0053238794207572937012 -0.03406402096152305603 -0.096718311309814453125 0.037839446216821670532 0.030856121331453323364 -0.02910837903618812561 0.005937619134783744812 -0.073656074702739715576 0.013484062626957893372 0.052126970142126083374 -0.059274170547723770142 0.038801107555627822876 0.011354535818099975586 0.013884401880204677582 -0.12024823576211929321 -0.11760858446359634399 0.035708121955394744873 -0.029386505484580993652 0.057543627917766571045 -0.056764546781778335571 -0.11781835556030273438 -0.012156433425843715668 0.053901206701993942261 0.050015345215797424316 0.074132479727268218994 0.10113452374935150146 -0.067164294421672821045 0.019976114854216575623 -0.0063731828704476356506 0.037572979927062988281 0.035116024315357208252 -0.023460689932107925415 -0.0036442370619624853134 -0.17436477541923522949 0.067760556936264038086 0.00030714209424331784248 0.0085363630205392837524 0.0071084499359130859375 -0.061849799007177352905 0.12416255474090576172 -0.0026705018244683742523 -0.021717919036746025085 0.051061853766441345215 0.048281427472829818726 -0.012044558301568031311 0.14790886640548706055 -0.052573058754205703735 -0.10862594097852706909 -0.01774710044264793396 0.019125035032629966736 0.075181789696216583252 0.070848844945430755615 0.045728500932455062866 -0.015817807987332344055 0.0033659026958048343658 0.032059721648693084717 0.029240325093269348145 -0.013505390845239162445 -0.044766794890165328979 -0.03294830024242401123 0.081425249576568603516 0.041326899081468582153 -0.032585609704256057739 0.090849928557872772217 -0.031266573816537857056 0.00080824643373489379883 -0.018859127536416053772 0.018659710884094238281 0.0078344708308577537537 -0.043077360838651657104 -0.052746120840311050415 -0.016180656850337982178 -0.024127336218953132629 0.011380342766642570496 0.056512273848056793213 -0.0095045529305934906006 -0.051041178405284881592 -0.078271321952342987061 -0.028044102713465690613 0.05404124036431312561 -0.036231704056262969971 0.13015270233154296875 -0.0086969137191772460938 -0.07346801459789276123 -0.0042661358602344989777 0.069125689566135406494 -0.13505195081233978271 0.0026171207427978515625 -0.015479167923331260681 -0.05149512365460395813 0.090359188616275787354 0.074714392423629760742 0.059561152011156082153 -0.0093490676954388618469 0.044366009533405303955 -0.029229698702692985535 -0.019395532086491584778 -0.048232913017272949219 -0.0023785445373505353928 0.025315308943390846252 0.029760684818029403687 -0.026629783213138580322 -0.034813679754734039307 -0.059564851224422454834 0.013033391907811164856 -0.38017094135284423828 -0.23292565345764160156 0.024295244365930557251 -0.072354033589363098145 0.052069578319787979126 0.042033795267343521118 0.048840459436178207397 0.030643537640571594238 0.14291474223136901855 0.16897477209568023682 0.055081743746995925903 -0.022218994796276092529 0.015138386748731136322 0.021077338606119155884 0.0058554224669933319092 0.070225007832050323486 -0.023067127913236618042 -0.16644713282585144043 0.00020449598378036171198 -0.0008652213728055357933 -0.021248163655400276184 0.0078110457397997379303 0.014376370236277580261 0.093539595603942871094 0.014056791551411151886 -0.079509846866130828857 -0.089312292635440826416 -0.020489763468503952026 -0.1566496044397354126 0.068819597363471984863 -0.042841207236051559448 0.088195525109767913818 -0.045608118176460266113 -0.032874546945095062256 -0.010552451945841312408 -0.045767638832330703735 0.031726844608783721924 0.21364058554172515869 -0.0057463888078927993774 0.018192648887634277344 -0.035388443619012832642 0.058314796537160873413 0.029673391953110694885 -0.057173304259777069092 0.12619440257549285889 0.061494357883930206299 -0.095236673951148986816 0.12761797010898590088 0.038838811218738555908 -0.06000363081693649292 0.040985677391290664673 -0.035123288631439208984 0.065989643335342407227 0.016128402203321456909 0.02774493582546710968 -0.10442682355642318726 0.0087970970198512077332 -0.019535291939973831177 -0.014950133860111236572 0.0083783632144331932068 0.027882378548383712769 -0.017116622999310493469 -0.083310440182685852051 0.044297527521848678589 0.035765293985605239868 -0.014380070380866527557 -0.010809794999659061432 0.030708538368344306946 0.029628049582242965698 -0.025633513927459716797 -0.064852483570575714111 0.1645717322826385498 -0.026193711906671524048 0.13940268754959106445 0.074423231184482574463 -0.17806586623191833496 -0.13672937452793121338 0.050473276525735855103 0.020360920578241348267 -0.029380248859524726868 0.088936306536197662354 0.070264652371406555176 0.00908145122230052948 0.010681436397135257721 0.019802693277597427368 0.054103862494230270386 0.016295002773404121399 0.019222829490900039673 0.11207363009452819824 0.042224775999784469604 0.058704100549221038818 0.034771222621202468872 0.019524810835719108582 -0.025676080957055091858 -0.0051976582035422325134 0.066669441759586334229 0.037590205669403076172 0.028606524690985679626 0.032770376652479171753 0.012395328842103481293 -0.083113379776477813721 0.023336717858910560608 0.051110558211803436279 -0.006869617849588394165 0.016067301854491233826 0.032801952213048934937 0.10909243673086166382 -0.10479456931352615356 -0.064407318830490112305 -0.18376831710338592529 0.044177751988172531128 0.024100583046674728394 0.12061350792646408081 0.0090288585051894187927 0.10260964184999465942 -0.06802152097225189209 -0.10090093314647674561 0.27285730838775634766 -0.045790668576955795288 -0.031398624181747436523 -0.056298077106475830078 -0.0092269480228424072266 -0.057142112404108047485 -0.093290589749813079834 -0.13212187588214874268 -0.16645956039428710938 0.046071540564298629761 -0.010885652154684066772 0.0041004018858075141907 0.020034797489643096924 -0.036858413368463516235 -0.043000109493732452393 0.0079086869955062866211 -0.046247620135545730591 0.046293858438730239868 0.086457289755344390869 0.02184936031699180603 -0.038997329771518707275 -0.023865552619099617004 -0.063613422214984893799 0.025226593017578125 -0.1274980008602142334 0.088369689881801605225 -0.29104584455490112305 -0.19470369815826416016 -0.2596352994441986084 0.059806320816278457642 -0.23626787960529327393 0.013597325421869754791 0.018457923084497451782 -0.068628698587417602539 0.048919789493083953857 0.20551623404026031494 -0.10371774435043334961 0.099615722894668579102 0.024249296635389328003 0.0019304687157273292542 -0.012808062136173248291 -0.068462729454040527344 -0.057160139083862304688 0.060738351196050643921 -0.066572859883308410645 -0.20358504354953765869 0.044671926647424697876 -0.074306517839431762695 -0.074774876236915588379 0.027231611311435699463 -0.02628454938530921936 -0.059309829026460647583 -0.045674979686737060547 -0.072019562125205993652 0.01668805442750453949 -0.042230695486068725586 -0.010966279543936252594 -0.023929290473461151123 0.036529842764139175415 0.019170243293046951294 0.017991373315453529358 0.012075109407305717468 -0.0077429176308214664459 -0.0081106498837471008301 -0.03771044313907623291 0.016315758228302001953 -0.016547953709959983826 -0.035576932132244110107 0.024467797949910163879 -0.0042506856843829154968 -0.050253968685865402222 -0.18100692331790924072 -0.059744000434875488281 -0.029876777902245521545 -0.0023362201172858476639 0.059164457023143768311 0.10840617120265960693 0.05950807034969329834 0.0009518066071905195713 -0.027688046917319297791 -0.021872961893677711487 0.08451547473669052124 -0.22715820372104644775 0.014368127100169658661 -0.011932464316487312317 0.0081221871078014373779 -0.065466664731502532959 -0.16372598707675933838 0.01008835621178150177 -0.13466650247573852539 -0.67155355215072631836 -0.66224306821823120117 0.072640597820281982422 -0.098808333277702331543 0.03743284568190574646 -0.040869232267141342163 0.11269439756870269775 0.048939835280179977417 0.051028486341238021851 0.047735102474689483643 0.11349111795425415039 0.020164966583251953125 0.0017895274795591831207 -0.065159440040588378906 -0.083012849092483520508 -0.20851810276508331299 0.056623175740242004395 -0.37157085537910461426 -0.65477365255355834961 -0.064660765230655670166 0.01753931678831577301 -0.096739038825035095215 -0.07288255542516708374 0.14889092743396759033 -0.043127849698066711426 -0.19231717288494110107 -0.13867548108100891113 -0.17994251847267150879 -0.025303266942501068115 -0.068717174232006072998 -0.060733493417501449585 0.12167017161846160889 0.13911360502243041992 0.076819308102130889893 0.087964475154876708984 0.077359370887279510498 0.10117782652378082275 0.16871042549610137939 0.11034895479679107666 0.14704599976539611816 0.087794698774814605713 0.071374230086803436279 -0.028318129479885101318 0.087094508111476898193 0.05531725659966468811 0.0066575906239449977875 0.049330640584230422974 0.039219334721565246582 0.017144236713647842407 0.0048461272381246089935 -0.0052948100492358207703 0.02510864846408367157 -0.0022292828653007745743 -0.066959246993064880371 0.075294561684131622314 0.11686862260103225708 -0.026279242709279060364 0.021839680150151252747 0.010539419017732143402 0.006413091905415058136 0.041783288121223449707 -0.023305460810661315918 -0.084282808005809783936 0.01270190998911857605 -0.070863738656044006348 0.068025037646293640137 0.023247145116329193115 -0.042689301073551177979 0.086033515632152557373 0.0082441065460443496704 -0.08982734382152557373 -0.005908251740038394928 -0.0094225294888019561768 -0.038358949124813079834 0.05707618221640586853 -0.043493703007698059082 -0.0036734961904585361481 0.057290937751531600952 -0.022418376058340072632 -0.063024893403053283691 -0.20182287693023681641 0.06299791485071182251 -0.1157781556248664856 -0.072486259043216705322 -0.0094128791242837905884 0.041344683617353439331 -0.042954735457897186279 0.040984593331813812256 0.046432752162218093872 -0.082822144031524658203 -0.018885146826505661011 -0.037950318306684494019 -0.010982392355799674988 0.11182822287082672119 0.11840021610260009766 -0.048312995582818984985 -0.057944066822528839111 -0.028894154354929924011 -0.078103333711624145508 0.00062177464133128523827 -0.11818736046552658081 -0.029635217040777206421 -0.10886812955141067505 -0.084815777838230133057 0.12763006985187530518 -0.068502962589263916016 -0.12866923213005065918 0.039986845105886459351 -0.070648498833179473877 0.11319932341575622559 0.088773004710674285889 0.02773679979145526886 0.11475517600774765015 0.087047412991523742676 0.087507650256156921387 0.0018616199959069490433 0.12052922695875167847 0.11425060778856277466 0.080263175070285797119 0.013742998242378234863 0.122269459068775177 -0.031962696462869644165 -0.10334250330924987793 -0.018128676339983940125 0.0069954479113221168518 0.092319890856742858887 0.064466461539268493652 0.084876045584678649902 -0.046993590891361236572 -0.018077572807669639587 0.0029664596077054738998 0.017421498894691467285 0.060425944626331329346 0.0049569280818104743958 -0.13731649518013000488 0.11669371277093887329 -0.091664008796215057373 -0.064757585525512695312 0.10398466885089874268 0.071426153182983398438 -0.018803481012582778931 -0.020264057442545890808 -0.095036111772060394287 -0.090046606957912445068 0.077952064573764801025 -0.046353384852409362793 -0.059046521782875061035 0.017888316884636878967 -0.037154521793127059937 0.17017172276973724365 0.048646204173564910889 0.048742864280939102173 -0.028043093159794807434 -0.23986290395259857178 -0.043630499392747879028 0.028679883107542991638 -0.025373190641403198242 0.057523436844348907471 -0.026474189013242721558 -0.03178909793496131897 0.055294498801231384277 0.040529705584049224854 0.018356073647737503052 -0.076287694275379180908 -0.011622607707977294922 -0.011725384742021560669 0.014131724834442138672 0.11290144920349121094 -0.0884304046630859375 -0.023411715403199195862 -0.26293322443962097168 -0.0080435452982783317566 -0.047566130757331848145 0.049180038273334503174 -0.045705672353506088257 0.067736491560935974121 0.072798699140548706055 0.062935546040534973145 0.056790925562381744385 -0.01528397388756275177 -0.098684713244438171387 -0.18692462146282196045 -0.035793315619230270386 0.16111691296100616455 0.058859195560216903687 0.055720064789056777954 -0.015983670949935913086 -0.34730026125907897949 -0.11305730044841766357 -0.15883798897266387939 -0.15432395040988922119 -0.063459992408752441406 -0.15900892019271850586 0.0085957786068320274353 -0.041678205132484436035 0.040054131299257278442 -0.08299490809440612793 -0.056116964668035507202 0.0085256416350603103638 -0.19560292363166809082 -0.058267042040824890137 0.018818294629454612732 0.065672419965267181396 0.033827077597379684448 0.037874307483434677124 -0.052751082926988601685 -0.31337875127792358398 -1.7638363838195800781 -0.053205609321594238281 0.083757027983665466309 -0.16569752991199493408 0.031106775626540184021 0.035217780619859695435 0.092510856688022613525 0.10097939521074295044 0.062918305397033691406 0.043950133025646209717 0.12022688239812850952 0.072289764881134033203 0.05913450196385383606 -0.028215939179062843323 0.031642165035009384155 0.070017486810684204102 0.081458665430545806885 -0.15873123705387115479 -0.13247257471084594727 -0.062342345714569091797 -0.051438003778457641602 -0.0091242836788296699524 -0.065472282469272613525 0.070339515805244445801 -0.0071281585842370986938 -0.12040765583515167236 0.069593459367752075195 -0.012690101750195026398 -0.048013333231210708618 0.049335412681102752686 -0.078267157077789306641 -0.06792183220386505127 0.0824240073561668396 0.014042909257113933563 -0.11638030409812927246 -0.051208883523941040039 0.10471249371767044067 0.0063485503196716308594 0.0071881464682519435883 -0.044478431344032287598 -0.056234799325466156006 0.029046770185232162476 0.037387356162071228027 0.057368576526641845703 -0.077260509133338928223 -0.0089794648811221122742 -0.091617040336132049561 0.03386446833610534668 0.00080858159344643354416 -0.011196854524314403534 -0.0047181998379528522491 0.074191071093082427979 -0.00094320130301639437675 -0.070351280272006988525 -0.087668746709823608398 0.026106011122465133667 -0.039088282734155654907 0.042732786387205123901 -0.012831582687795162201 -0.025980908423662185669 0.061167646199464797974 0.042681705206632614136 0.059105746448040008545 0.11442422866821289062 -0.12502111494541168213 -0.0016572339227423071861 -0.057577431201934814453 -0.018493318930268287659 

-0.06947984546422958374 -0.013009039685130119324 0.0034549783449620008469 -0.024900933727622032166 0.055712327361106872559 0.019378397613763809204 -0.11850481480360031128 -0.071731977164745330811 -0.054904609918594360352 -0.18937733769416809082 -0.04315576702356338501 -0.13982377946376800537 0.022642385214567184448 0.12507939338684082031 0.014576623216271400452 -0.098688349127769470215 -0.041944820433855056763 -0.15459915995597839355 -0.054987221956253051758 -0.031908880919218063354 0.005735268816351890564 0.076050810515880584717 -0.057498387992382049561 0.01024908851832151413 -0.013093309476971626282 -0.011975227855145931244 0.018124340102076530457 0.055971983820199966431 0.0060175373218953609467 0.071914754807949066162 -0.0053858580067753791809 -0.046525053679943084717 0.020571468397974967957 0.070576801896095275879 -0.0083913030102849006653 0.061283521354198455811 -0.043903660029172897339 -0.043973878026008605957 -0.093564376235008239746 0.022099560126662254333 0.0052674175240099430084 0.057906966656446456909 -0.082355812191963195801 -0.067815072834491729736 -0.096992105245590209961 -0.002803829265758395195 -0.020583637058734893799 0.014892833307385444641 -0.0024055410176515579224 0.027309030294418334961 -0.0013026527594774961472 -0.013864085078239440918 0.028579274192452430725 0.0024025361053645610809 0.0016067055985331535339 -0.0018378379754722118378 0.059699643403291702271 0.075242720544338226318 -0.044720888137817382812 0.016618439927697181702 0.0089375507086515426636 -0.0041915467008948326111 0.035815361887216567993 0.023735919967293739319 0.0027794102206826210022 0.044098012149333953857 0.017684431746602058411 0.004861876368522644043 -0.0065407129004597663879 -0.0059887571260333061218 0.043817002326250076294 0.016948629170656204224 -0.056190364062786102295 0.013330388814210891724 -0.023957163095474243164 -0.01689788326621055603 0.03892585262656211853 -0.028177926316857337952 -0.0028426968492567539215 0.041949249804019927979 0.016299204900860786438 -0.16611354053020477295 -0.030766129493713378906 -0.014639938250184059143 -0.044120483100414276123 -0.022917006164789199829 0.037322763353586196899 0.083354920148849487305 0.032669659703969955444 0.048969071358442306519 0.00051377509953454136848 0.045203529298305511475 -0.0095308339223265647888 0.0075111826881766319275 0.01512659899890422821 0.033739406615495681763 -0.014518237672746181488 0.0080759078264236450195 -0.019655147567391395569 -0.025451840832829475403 0.04695240408182144165 0.15114037692546844482 0.021739631891250610352 -0.029079979285597801208 -0.0086108222603797912598 -0.050485648214817047119 -0.076604977250099182129 -0.065560899674892425537 0.021794999018311500549 -0.0525722503662109375 0.48708495497703552246 0.0087877539917826652527 -0.07419280707836151123 0.520267486572265625 0.038209430873394012451 -0.056467100977897644043 0.66457635164260864258 0.055158376693725585938 -0.010408942587673664093 -0.066701874136924743652 -0.033585496246814727783 -0.026791870594024658203 0.0027803294360637664795 -0.015561342239379882812 -0.043321263045072555542 -0.020049298182129859924 0.041192360222339630127 -0.020596414804458618164 0.034101549535989761353 -0.020834134891629219055 -0.034590207040309906006 0.023979054763913154602 0.024730287492275238037 0.00098228082060813903809 0.0040178596973419189453 0.026096535846590995789 0.029785815626382827759 -0.014403797686100006104 0.012009886093437671661 -0.059893455356359481812 -0.020974563434720039368 0.063241049647331237793 -0.033019784837961196899 0.019434330984950065613 0.040372889488935470581 0.030584167689085006714 0.033002536743879318237 -0.14355929195880889893 -0.028567306697368621826 -0.022764669731259346008 0.037059165537357330322 0.043978396803140640259 0.035411000251770019531 0.14858937263488769531 0.027632350102066993713 0.0082448469474911689758 -0.063312850892543792725 -0.035545650869607925415 -0.0055858101695775985718 0.044297769665718078613 0.020012833178043365479 -0.012439869344234466553 -0.054284013807773590088 -0.060898795723915100098 0.12960197031497955322 0.019810736179351806641 -0.07740557938814163208 0.077945135533809661865 -0.056080572307109832764 -0.033000681549310684204 0.057152602821588516235 0.076278403401374816895 -0.080698132514953613281 0.024846166372299194336 -0.040059581398963928223 -0.0111913289874792099 0.14591158926486968994 0.013774956576526165009 0.0015072770183905959129 -0.055276840925216674805 -0.081905625760555267334 -0.039864737540483474731 -0.077080324292182922363 -0.0098509285598993301392 0.054557949304580688477 0.0039836089126765727997 -0.11102187633514404297 -0.018738189712166786194 -0.065687283873558044434 -0.023103827610611915588 -0.046228546649217605591 -0.012508158572018146515 0.005287561565637588501 0.0062991892918944358826 0.0069816936738789081573 0.033483736217021942139 0.036427989602088928223 0.012417488731443881989 -0.15477839112281799316 0.014076976105570793152 -0.0034582482185214757919 -0.030869485810399055481 0.081329964101314544678 -0.02847990766167640686 0.016952173784375190735 0.094156481325626373291 -0.12402808666229248047 -0.0060624429024755954742 -0.034850399941205978394 -0.073971338570117950439 -0.013816858641803264618 0.036284048110246658325 0.040274355560541152954 -0.05855871737003326416 -0.029803477227687835693 -0.036296196281909942627 -0.021415369585156440735 -0.024713408201932907104 0.022451493889093399048 -0.06756667792797088623 -0.092866517603397369385 0.01295571494847536087 0.028317522257566452026 -0.011660423129796981812 0.061406776309013366699 0.05505750700831413269 0.010663907043635845184 0.061783831566572189331 -0.0091183735057711601257 -0.013446482829749584198 -0.05046739429235458374 -0.0028708232566714286804 -0.028597971424460411072 -0.056799702346324920654 0.032848179340362548828 0.012950782664120197296 0.075306273996829986572 0.0095254182815551757812 -0.014299284666776657104 0.032650087028741836548 0.069438710808753967285 0.0094929793849587440491 -0.0025711259804666042328 -0.044041089713573455811 -0.014743579551577568054 -0.096175730228424072266 0.014254760928452014923 -0.0037367274053394794464 -0.028468983247876167297 -0.030870957300066947937 -0.040507931262254714966 -0.10607032477855682373 0.057618267834186553955 0.030122108757495880127 -0.041822176426649093628 -0.041847243905067443848 0.0055588954128324985504 0.042658459395170211792 0.03584332391619682312 -0.028961997479200363159 -0.060791075229644775391 0.053562112152576446533 0.10344735532999038696 0.096126697957515716553 0.04486541450023651123 0.048724364489316940308 -0.054039400070905685425 0.15202412009239196777 0.12902650237083435059 -0.015031680464744567871 0.053971048444509506226 -0.086359597742557525635 0.02809306606650352478 0.036337208002805709839 0.021979257464408874512 0.026093553751707077026 -0.010928655043244361877 0.040518958121538162231 -0.098167531192302703857 -0.098684340715408325195 -0.053299274295568466187 -0.044744368642568588257 0.041536476463079452515 0.012900129891932010651 0.044181425124406814575 -0.038349512964487075806 -0.035929810255765914917 -0.07326246798038482666 0.017369193956255912781 0.02855752408504486084 -0.016482565551996231079 0.007109424099326133728 -0.012385521084070205688 0.024362195283174514771 -0.0096984216943383216858 0.0021862261928617954254 -0.0019961514044553041458 0.018044311553239822388 0.061719711869955062866 0.015299277380108833313 -0.014419832266867160797 0.0081306584179401397705 0.026300344616174697876 0.070386826992034912109 0.038527831435203552246 0.051678489893674850464 -0.15473689138889312744 0.023719774559140205383 -0.035927109420299530029 -0.010912940837442874908 0.026055254042148590088 0.017605662345886230469 -0.0045649302192032337189 0.010137399658560752869 0.0073386742733418941498 0.012300434522330760956 0.0096494704484939575195 0.0064062927849590778351 0.060896452516317367554 0.04043024405837059021 0.031555250287055969238 0.12878617644309997559 0.058802250772714614868 0.11485538631677627563 0.043476615101099014282 0.042757917195558547974 0.043441448360681533813 -0.009761549532413482666 -0.0055722384713590145111 -0.0029476936906576156616 -0.024996614083647727966 0.0075681819580495357513 -0.022824484854936599731 0.03730678558349609375 0.039431367069482803345 0.024315560236573219299 0.041328277438879013062 -0.01223927084356546402 0.0086904847994446754456 -0.029823757708072662354 -0.026880176737904548645 -0.0035102763213217258453 -0.028194468468427658081 0.007965782657265663147 -0.042374469339847564697 -0.036099057644605636597 0.025216907262802124023 -0.054710052907466888428 -0.053024120628833770752 -0.053632076829671859741 0.0044399430043995380402 -0.015631008893251419067 -0.020356172695755958557 0.025000955909490585327 -0.0025915862061083316803 -0.02494607679545879364 -0.037744078785181045532 -0.027653854340314865112 0.016190316528081893921 0.025899056345224380493 0.0098243793472647666931 -0.010054950602352619171 -0.043953128159046173096 0.0012812985805794596672 0.026931785047054290771 -0.030318615958094596863 -0.069408580660820007324 -0.04052761569619178772 -0.057863779366016387939 -0.0042634089477360248566 0.0095648895949125289917 0.084931008517742156982 -0.024603845551609992981 -0.023857297375798225403 0.022621771320700645447 0.074777215719223022461 0.026146702468395233154 0.05500410124659538269 -0.0096606686711311340332 0.007755583152174949646 -0.0060134320519864559174 0.0063488916493952274323 0.00066049606539309024811 0.026086889207363128662 -0.030094362795352935791 -0.017803529277443885803 -0.026816353201866149902 -0.0098087694495916366577 0.071674831211566925049 0.011292672716081142426 -0.025181412696838378906 -0.013362867757678031921 -0.094581753015518188477 -0.038071677088737487793 0.04648615419864654541 -0.062936231493949890137 -0.078991852700710296631 -0.021468773484230041504 -0.088426321744918823242 -0.038492161780595779419 0.01719122566282749176 -0.021260773763060569763 -0.07702837139368057251 -0.0015503430040553212166 -0.10441920161247253418 0.12932591140270233154 0.096306301653385162354 0.073445104062557220459 0.055928558111190795898 0.0045144846662878990173 -0.041693262755870819092 0.034837953746318817139 -0.051535796374082565308 -0.050644263625144958496 -0.0074551012367010116577 0.060738697648048400879 0.031508326530456542969 -0.025044836103916168213 -0.0093399444594979286194 -0.0083917826414108276367 0.0058141984045505523682 -0.038140293210744857788 0.059561520814895629883 0.32479703426361083984 0.22899256646633148193 0.27387732267379760742 0.025698879733681678772 0.0071191205643117427826 0.016798999160528182983 0.010119084268808364868 0.014573560096323490143 0.010697553865611553192 0.032641492784023284912 -0.0157573651522397995 0.026707287877798080444 0.0030980915762484073639 -0.023255512118339538574 -0.011089989915490150452 0.021421797573566436768 -0.0092916460707783699036 0.020775018259882926941 0.011895697563886642456 0.034833241254091262817 -0.024600828066468238831 0.0042035435326397418976 0.0077224965207278728485 0.026913382112979888916 0.039221171289682388306 -0.047851428389549255371 -0.045069310814142227173 -0.051789961755275726318 -0.011196492239832878113 -0.0041366657242178916931 -0.0027337979990988969803 0.015932863578200340271 0.063729815185070037842 -0.10579918324947357178 -0.045485332608222961426 0.006521776784211397171 -0.0066625853069126605988 0.028371255844831466675 0.019477626308798789978 -0.0067421752028167247772 0.014577091671526432037 0.010533988475799560547 -0.0046566254459321498871 -0.0091211618855595588684 0.0055991020053625106812 0.019674832001328468323 0.018511896952986717224 -0.079332850873470306396 0.078369811177253723145 0.0067006726749241352081 -0.041843265295028686523 0.0084929503500461578369 0.027460109442472457886 0.077680893242359161377 0.051960464566946029663 0.03597294539213180542 0.11462467163801193237 -0.012419179081916809082 -0.10519687086343765259 -0.068948201835155487061 0.016095766797661781311 -0.14019590616226196289 -0.10318713635206222534 -0.024735765531659126282 -0.00077148777199909090996 -0.019456880167126655579 0.047121051698923110962 -0.033138249069452285767 -6.8726643803529441357e-05 -0.034805465489625930786 0.015002319589257240295 -0.039677798748016357422 0.024650562554597854614 -0.0014532750938087701797 -0.017652885988354682922 -0.013781273737549781799 0.0057863062247633934021 -0.027521103620529174805 0.011863116174936294556 0.003113784128800034523 0.021795786917209625244 0.015654882416129112244 -0.019594227895140647888 -0.066516757011413574219 -0.06159780547022819519 -0.055794961750507354736 -0.076469078660011291504 -0.089145414531230926514 -0.048745363950729370117 0.024727307260036468506 0.019882148131728172302 -0.0081780757755041122437 0.04779835045337677002 -0.037933286279439926147 -0.065334774553775787354 -0.038857236504554748535 -0.048634145408868789673 -0.023857634514570236206 0.035319708287715911865 -0.051064442843198776245 -0.034840211272239685059 -0.013380302116274833679 0.12613636255264282227 0.10380142182111740112 0.042708579450845718384 0.051706880331039428711 0.014005238190293312073 0.040402207523584365845 0.04062113538384437561 0.023964952677488327026 -0.022438852116465568542 0.034830536693334579468 -0.024390729144215583801 -0.04173245653510093689 -0.087223939597606658936 -0.019378669559955596924 0.010605617426335811615 0.065812580287456512451 0.016807032749056816101 0.02717150561511516571 -0.020566638559103012085 -0.0037385507021099328995 0.042892381548881530762 -0.033383850008249282837 -0.010093534365296363831 0.03909562528133392334 0.0061715901829302310944 0.011537315323948860168 0.0036857218947261571884 -0.00071617600042372941971 0.036749016493558883667 -0.015332633629441261292 0.030096422880887985229 0.0018236049218103289604 0.031907025724649429321 0.042444787919521331787 0.019544161856174468994 -0.032581858336925506592 0.064770556986331939697 0.039569918066263198853 -0.037047963589429855347 -0.021542048081755638123 -0.018931381404399871826 -2.3640484869247302413e-05 0.013433083891868591309 -0.022172668948769569397 0.0010725543834269046783 0.025872973725199699402 -0.013179316185414791107 0.072934448719024658203 0.031187348067760467529 0.033545568585395812988 0.0077711292542517185211 0.094170309603214263916 0.0056670010089874267578 0.028366645798087120056 0.014859583228826522827 -0.046423543244600296021 0.011022486723959445953 0.010827738791704177856 -0.024409214034676551819 0.067711591720581054688 -0.12212295830249786377 -0.085858434438705444336 -0.10703793913125991821 0.029289742931723594666 0.039607755839824676514 0.014409955590963363647 -0.16726125776767730713 -0.087407447397708892822 -0.095470994710922241211 0.0091043300926685333252 -0.017676219344139099121 0.0084988558664917945862 -0.02146236225962638855 -0.0059874248690903186798 0.028178647160530090332 0.010726185515522956848 -0.0024911323562264442444 0.02747288532555103302 0.039641346782445907593 0.027586532756686210632 0.019760377705097198486 -0.0546418018639087677 0.046240624040365219116 -0.005134930834174156189 0.078641518950462341309 -0.0081720650196075439453 -0.12681253254413604736 -0.014319306239485740662 0.026919495314359664917 0.018408387899398803711 0.059121280908584594727 0.0025835614651441574097 -0.0030491424258798360825 0.046930175274610519409 -0.02532838284969329834 0.0096700210124254226685 -0.013787556439638137817 0.0071870889514684677124 -0.010519412346184253693 0.016925277188420295715 -0.038678165525197982788 -0.036498390138149261475 0.033485192805528640747 -0.011786048300564289093 0.022298246622085571289 0.10948655009269714355 0.046051539480686187744 0.11673834174871444702 0.023232135921716690063 0.030196843668818473816 0.0072223236784338951111 0.048959199339151382446 0.046732176095247268677 0.019905008375644683838 0.041562661528587341309 -0.052285507321357727051 0.020957292988896369934 -0.031390782445669174194 -0.015814419835805892944 -0.027260186150670051575 -0.007490083109587430954 0.024095432832837104797 0.010317917913198471069 -0.21132190525531768799 -0.022402094677090644836 0.099443376064300537109 0.014584876596927642822 0.065525673329830169678 -0.062056280672550201416 0.019094284623861312866 0.076749570667743682861 -0.070454068481922149658 -0.033537279814481735229 -0.07163238525390625 -0.083726041018962860107 0.013666750863194465637 0.05826428532600402832 -0.026031352579593658447 -0.096245892345905303955 0.035148903727531433105 0.0086095454171299934387 0.070128522813320159912 0.0068658194504678249359 0.066942416131496429443 0.069262824952602386475 -0.065385676920413970947 -0.039414733648300170898 -0.070884905755519866943 -0.010820019058883190155 -0.0050420640036463737488 -0.050357062369585037231 -0.0074874651618301868439 -0.012541144154965877533 0.02227666415274143219 -0.0007195292273536324501 0.023147104308009147644 0.0045155445113778114319 -0.012346660718321800232 0.050323527306318283081 -0.095678381621837615967 -0.14513038098812103271 -0.045384299010038375854 0.053602069616317749023 -0.024264357984066009521 0.028225610032677650452 0.035522017627954483032 0.049988117069005966187 -0.035949625074863433838 -0.0024172102566808462143 0.023134948685765266418 -0.05179553106427192688 -0.0019530408317223191261 0.04172584041953086853 0.016620328649878501892 -0.020031129941344261169 0.046850930899381637573 -0.072159603238105773926 0.035369690507650375366 0.025919517502188682556 -0.0032664136961102485657 0.030014831572771072388 -0.044838588684797286987 -0.016538899391889572144 0.059323158115148544312 0.012390936724841594696 0.096797205507755279541 -0.023578077554702758789 -0.0054696961306035518646 -0.04759379848837852478 -0.032315716147422790527 0.0017536360537633299828 -0.029692098498344421387 -0.0070024277083575725555 0.011680780909955501556 -0.026922876015305519104 -0.057861816138029098511 -0.0070564677007496356964 0.08183714747428894043 0.00024780275998637080193 -0.03498996049165725708 -0.039406791329383850098 0.024250518530607223511 -0.022003557533025741577 0.063811168074607849121 -0.095199920237064361572 -0.12044741958379745483 -0.089335501194000244141 -0.026719294488430023193 -0.039618041366338729858 0.0078880907967686653137 0.04615322500467300415 0.026906825602054595947 0.12341676652431488037 0.0098861586302518844604 -0.0016299572307616472244 0.0012621043715626001358 0.0032615701202303171158 0.012751183472573757172 0.017436197027564048767 -0.0058828173205256462097 0.0059319408610463142395 0.010627469047904014587 0.030607022345066070557 -0.044780947268009185791 -0.0066905640996992588043 0.025893034413456916809 -0.044667124748229980469 0.017798153683543205261 -0.0074901701882481575012 -0.038422789424657821655 0.096133023500442504883 0.011850167997181415558 0.025221886113286018372 -0.095575228333473205566 -0.0071680480614304542542 0.012201209552586078644 -0.00039121130248531699181 -0.035710733383893966675 -0.046170543879270553589 0.04141315072774887085 -0.067591227591037750244 -0.04638843238353729248 0.017645528540015220642 0.066591486334800720215 0.0043597943149507045746 -0.00056447606766596436501 0.00057106860913336277008 0.017650051042437553406 -0.01008080504834651947 0.10252331197261810303 -0.025311231613159179688 -0.062088262289762496948 0.056146509945392608643 -0.056412808597087860107 -0.055670812726020812988 0.044311918318271636963 -0.041694026440382003784 -0.006431481335312128067 0.0068875090219080448151 0.034510675817728042603 -0.11887148767709732056 0.0086628058925271034241 0.037506073713302612305 -0.058836337178945541382 0.033268973231315612793 0.021568516269326210022 -0.091260574758052825928 -0.027608163654804229736 0.068827338516712188721 0.061610765755176544189 0.001679334789514541626 -0.0084263281896710395813 0.0050570140592753887177 -0.006398895755410194397 0.016498072072863578796 -0.0089257713407278060913 0.022705527022480964661 -0.026059504598379135132 -0.085894070565700531006 0.12314495444297790527 0.0982494354248046875 -0.0062743746675550937653 -0.05414583161473274231 -0.14095947146415710449 -0.29540625214576721191 0.017854411154985427856 -0.021707635372877120972 0.0076074101962149143219 0.028335776180028915405 -0.01403818279504776001 0.0064191003330051898956 0.011525283567607402802 0.014281845651566982269 0.054487887769937515259 -0.047182910144329071045 0.019381752237677574158 0.027548650279641151428 -0.031720630824565887451 -0.019292667508125305176 0.0095600932836532592773 0.061728838831186294556 -0.017394231632351875305 -0.021951965987682342529 -0.020008027553558349609 -0.035048302263021469116 -0.015702389180660247803 0.038565445691347122192 0.0073632844723761081696 0.026822080835700035095 -0.069772459566593170166 -0.01277084648609161377 0.0061647701077163219452 -0.066982895135879516602 -0.035507801920175552368 0.028333064168691635132 -0.0065138568170368671417 -0.00093797151930630207062 0.024370871484279632568 -0.055740077048540115356 -0.049243185669183731079 0.0040000816807150840759 -0.033460386097431182861 0.017834771424531936646 -0.042486310005187988281 0.023062793537974357605 0.064730025827884674072 0.014283264987170696259 0.0070742671377956867218 -0.0013952833833172917366 -0.015059812925755977631 -0.031164428219199180603 -0.028589336201548576355 -0.070640712976455688477 0.060515508055686950684 0.025050057098269462585 -0.0070596877485513687134 -0.060758151113986968994 -0.0066349576227366924286 -0.0049307481385767459869 0.014685261063277721405 -0.020618531852960586548 -0.010967259295284748077 0.02713724970817565918 0.028207361698150634766 0.073557429015636444092 -0.03107329830527305603 -0.040369518101215362549 0.0093530528247356414795 -0.028405351564288139343 0.075010783970355987549 0.0099943215027451515198 0.13413894176483154297 0.14712387323379516602 0.080738529562950134277 -0.091533809900283813477 -0.066784784197807312012 -0.15584795176982879639 0.037190299481153488159 -0.029227633029222488403 0.0065655340440571308136 0.10580409318208694458 -0.053499519824981689453 0.0028155557811260223389 -0.031049609184265136719 0.006549035198986530304 -0.012380234897136688232 0.031771831214427947998 -0.057744119316339492798 -0.083145521581172943115 0.14922781288623809814 0.027242273092269897461 0.03222673758864402771 -0.093778319656848907471 -0.12483941763639450073 -0.052267283201217651367 -0.027271643280982971191 0.048175562173128128052 0.028555260971188545227 0.14915229380130767822 0.15232779085636138916 0.0099919345229864120483 -0.061270456761121749878 -0.12668967247009277344 -0.090633094310760498047 0.056442026048898696899 0.00029652036027982831001 0.072066716849803924561 0.020829115062952041626 0.015817439183592796326 0.091325946152210235596 -0.030561896041035652161 0.0025335063692182302475 -0.03376180306077003479 0.034128129482269287109 0.036109644919633865356 0.065176181495189666748 0.036705266684293746948 0.027668090537190437317 0.042781859636306762695 0.053568519651889801025 0.011885881423950195312 0.035374928265810012817 -0.023697162047028541565 0.054297249764204025269 0.069460056722164154053 -0.0053285392932593822479 -0.17168772220611572266 -0.029580086469650268555 0.035923138260841369629 0.11305133253335952759 0.00034349467023275792599 -0.035615377128124237061 0.035691093653440475464 -0.020050780847668647766 -0.14698536694049835205 0.077124834060668945312 0.064787238836288452148 -0.081613861024379730225 0.029858037829399108887 -0.069035671651363372803 0.014851993881165981293 -0.036273647099733352661 -0.0089104492217302322388 -0.043431356549263000488 -0.025068219751119613647 -0.048390775918960571289 0.0078934906050562858582 0.059040170162916183472 0.013003265485167503357 -0.02435154840350151062 0.006868244614452123642 0.059535291045904159546 0.007022023666650056839 -0.79452240467071533203 -0.030054451897740364075 0.067959800362586975098 -0.075672127306461334229 0.038883008062839508057 -0.017920292913913726807 0.14144361019134521484 -0.0628870353102684021 0.0030715791508555412292 0.46288752555847167969 0.12382496148347854614 0.018080743029713630676 0.071359977126121520996 0.0083015132695436477661 -0.036507017910480499268 -0.0080225756391882896423 -0.092635020613670349121 -0.012393424287438392639 0.065212480723857879639 -0.020441122353076934814 0.01830336451530456543 0.053635902702808380127 -0.02407321147620677948 -0.027876237407326698303 -0.046545714139938354492 0.029986565932631492615 0.022371064871549606323 0.0051422640681266784668 -0.095760285854339599609 -0.029311656951904296875 -0.0051938565447926521301 0.083892747759819030762 0.049317251890897750854 0.048646643757820129395 -0.045849472284317016602 0.08081792294979095459 0.021124966442584991455 0.0859716758131980896 -0.017162268981337547302 -0.011021315120160579681 -0.12056883424520492554 -0.02414234355092048645 0.097386971116065979004 -0.0054021747782826423645 -0.036536246538162231445 0.21255645155906677246 -0.021369786933064460754 -0.00016727359616197645664 0.0094279907643795013428 -0.064654566347599029541 0.020658496767282485962 0.0033569510560482740402 -0.038460899144411087036 -0.16094085574150085449 0.018476668745279312134 -0.12388771772384643555 0.062776744365692138672 0.053541973233222961426 0.023736871778964996338 -0.027803819626569747925 -0.051649458706378936768 -0.040502920746803283691 -0.10973038524389266968 -0.056346502155065536499 -0.087718680500984191895 0.045717049390077590942 0.099015496671199798584 0.074515901505947113037 0.034027013927698135376 0.12077512592077255249 0.05859445035457611084 0.086549445986747741699 -0.10301553457975387573 -0.18744409084320068359 0.055210042744874954224 -0.0019713407382369041443 0.015057892538607120514 0.014931925572454929352 0.048230431973934173584 0.0068600717931985855103 -0.079737193882465362549 -0.21184435486793518066 -0.10878848284482955933 0.014755032025277614594 0.0026064945850521326065 0.022843634709715843201 0.031173393130302429199 0.064296059310436248779 0.08997707068920135498 -0.055584706366062164307 0.053302314132452011108 0.039576780050992965698 0.025040538981556892395 0.021261557936668395996 0.057801987975835800171 0.14393083751201629639 -0.028369858860969543457 0.056344501674175262451 0.042760040611028671265 -0.22515226900577545166 -0.0059162932448089122772 0.11005399376153945923 0.007339815143495798111 0.063386894762516021729 -0.026275331154465675354 0.013365770690143108368 -0.079937800765037536621 0.033393822610378265381 0.10630083084106445312 0.093169279396533966064 0.013046266511082649231 0.048072505742311477661 -0.027780737727880477905 0.02209931984543800354 -0.20809306204319000244 -0.027747217565774917603 -0.093646109104156494141 0.020696243271231651306 -0.0040331152267754077911 0.038919188082218170166 -0.14449401199817657471 -0.023491863161325454712 -0.006552037317305803299 -0.10409991443157196045 0.019745543599128723145 0.076544225215911865234 -0.071316234767436981201 0.087428472936153411865 -0.0064399908296763896942 -0.0076316781342029571533 -0.017460830509662628174 -0.003522547893226146698 0.040897216647863388062 0.057274967432022094727 -0.039135970175266265869 0.0029367604292929172516 0.029676083475351333618 -0.081952124834060668945 -0.038743231445550918579 -0.0029261172749102115631 -0.037170626223087310791 -0.013576958328485488892 -0.026213020086288452148 -0.0043165967799723148346 -0.44201117753982543945 0.032592371106147766113 0.031450491398572921753 0.042684752494096755981 0.035140108317136764526 -0.011087069287896156311 -0.04858849942684173584 -0.037508841603994369507 0.040699385106563568115 -0.016792215406894683838 -0.033164896070957183838 -0.023966228589415550232 0.035403080284595489502 -0.010163488797843456268 -0.0033175724092870950699 -0.022975329309701919556 -0.038692854344844818115 -0.064130045473575592041 -0.10237102210521697998 0.060302443802356719971 0.023364951834082603455 0.028007173910737037659 -0.025770513340830802917 0.010836694389581680298 0.045321848243474960327 -0.054382294416427612305 0.045903492718935012817 -0.018751392140984535217 -0.032218299806118011475 -0.046846095472574234009 0.0049693388864398002625 -0.094676926732063293457 0.065582349896430969238 0.036224413663148880005 -0.028247879818081855774 0.14649529755115509033 0.021900920197367668152 0.0050385920330882072449 0.062897957861423492432 0.053493142127990722656 0.029021821916103363037 0.14657990634441375732 -0.041468624025583267212 0.060373596847057342529 -0.10644067078828811646 -0.31021380424499511719 -0.12809668481349945068 0.18657943606376647949 -0.12897147238254547119 0.064539350569248199463 0.043283428996801376343 0.014087771996855735779 0.025018345564603805542 -0.0066917268559336662292 -0.019224891439080238342 -0.0025221358519047498703 0.010055689141154289246 0.021439807489514350891 0.039377950131893157959 0.083136193454265594482 -0.11761321127414703369 0.078517645597457885742 0.10196337848901748657 -0.93290287256240844727 -0.1387659907341003418 -0.079122938215732574463 0.15840096771717071533 0.11880936473608016968 -0.060580074787139892578 0.0021829947363585233688 0.069519497454166412354 0.11368180066347122192 0.022513426840305328369 -0.0056890537962317466736 -0.0060718995518982410431 0.043184597045183181763 0.01700529828667640686 -0.068772785365581512451 -0.0052532367408275604248 0.027488769963383674622 -0.02002270333468914032 -0.63014304637908935547 -0.076643280684947967529 0.0034306752495467662811 -0.063221164047718048096 0.07170972973108291626 0.06618725508451461792 0.011893169954419136047 0.056388773024082183838 0.14203365147113800049 -0.63462126255035400391 -0.047172930091619491577 0.022045040503144264221 0.15879225730895996094 0.032892785966396331787 0.06334164738655090332 0.078236043453216552734 0.095576114952564239502 0.14712579548358917236 0.084562435746192932129 0.029177447780966758728 0.045940350741147994995 0.078907065093517303467 0.012873556464910507202 0.12111664563417434692 0.098419278860092163086 0.00419712066650390625 -0.050187863409519195557 0.038942575454711914062 -0.10136450827121734619 