0.20258332788944244385 -0.045948822051286697388 -0.0083259195089340209961 0.038001485168933868408 0.035680886358022689819 -0.025625100359320640564 -0.039348185062408447266 0.0091410912573337554932 -0.0040170885622501373291 -0.01415521278977394104 0.065136536955833435059 0.02124591730535030365 -0.017605388537049293518 -0.18804635107517242432 0.0034470728132873773575 0.070050373673439025879 -0.065088644623756408691 -0.0092595005407929420471 -0.0028799585998058319092 0.025650832802057266235 -0.10350665450096130371 0.00022993935272097587585 0.0095523092895746231079 -0.031616885215044021606 -0.021549286320805549622 0.027654130011796951294 -0.062027871608734130859 -0.0056673563085496425629 0.013420398347079753876 0.020438309758901596069 0.011423416435718536377 0.021416880190372467041 -0.13740594685077667236 -0.0050708251073956489563 0.0016868014354258775711 0.04937006533145904541 -0.67082762718200683594 -0.023706672713160514832 -0.012571540661156177521 -0.69801384210586547852 -0.0014049769379198551178 -0.025456489995121955872 0.016112787649035453796 -0.0064761633984744548798 -0.046149566769599914551 -0.0033043036237359046936 -0.037129223346710205078 -0.0069413748569786548615 -0.0069947075098752975464 -0.0013593585463240742683 0.049548346549272537231 0.17942869663238525391 -0.031829390674829483032 -0.17402841150760650635 0.038296356797218322754 -0.022642005234956741333 0.034747682511806488037 0.20054168999195098877 0.018436653539538383484 0.045040119439363479614 0.013017548248171806335 0.053198497742414474487 0.0054912744089961051941 -0.69514501094818115234 