-0.0196009073406457901 0.030259856954216957092 0.015500110574066638947 -0.02796587720513343811 -0.031126912683248519897 0.07384128868579864502 -0.065661296248435974121 0.067813083529472351074 -0.027006097137928009033 0.064057260751724243164 -0.05542114749550819397 -0.095567971467971801758 0.065022520720958709717 -0.11379165202379226685 -0.043468400835990905762 -0.043821271508932113647 -0.12642911076545715332 0.036565992981195449829 0.042946048080921173096 -0.00077984703239053487778 -0.051598016172647476196 0.042962707579135894775 0.040859051048755645752 0.068695306777954101562 -0.010811157524585723877 0.033138215541839599609 -0.03044519573450088501 -0.039178684353828430176 -0.029292549937963485718 0.1188772544264793396 -0.080460853874683380127 0.048679560422897338867 0.05364894866943359375 -0.13153770565986633301 0.052869696170091629028 0.10533547401428222656 -0.055913370102643966675 0.0017613455420359969139 0.0041854884475469589233 -0.0079601574689149856567 0.069177508354187011719 -0.013352974317967891693 -0.041767239570617675781 0.052573081105947494507 -0.078129425644874572754 -0.040376953780651092529 -0.0061044977046549320221 -0.046120412647724151611 0.0267755165696144104 0.015825789421796798706 -0.066375464200973510742 -0.025960274040699005127 -0.0089213522151112556458 -0.020178066566586494446 -0.13230526447296142578 -0.1102568507194519043 0.0067389658652245998383 0.0095555335283279418945 0.053332917392253875732 -0.031361732631921768188 0.11159945279359817505 0.19120621681213378906 -0.061036590486764907837 -0.018691558390855789185 -0.02624636329710483551 0.058478832244873046875 -0.038613736629486083984 0.0224191322922706604 0.094208434224128723145 0.0019004063215106725693 -0.038904961198568344116 -0.0024893516674637794495 0.057613417506217956543 -0.073604181408882141113 0.075591132044792175293 0.034198388457298278809 -0.092803217470645904541 0.039057429879903793335 -0.019427752122282981873 -0.13407781720161437988 0.041835267096757888794 0.0081011131405830383301 -0.1130682826042175293 0.0052219890058040618896 0.057561859488487243652 0.015285280533134937286 0.087368384003639221191 -0.013861796818673610687 -0.0486069507896900177 -0.022682517766952514648 0.091976374387741088867 -0.2194315493106842041 0.18028318881988525391 0.073959164321422576904 -0.32586026191711425781 0.068909168243408203125 0.049913253635168075562 -0.012394729070365428925 -0.01038814987987279892 0.079244561493396759033 -0.11340057849884033203 0.11948048323392868042 0.036158341914415359497 -0.11567620933055877686 -0.035074025392532348633 0.081271514296531677246 -0.047569945454597473145 4.2762076191138476133e-05 -0.090910613536834716797 0.054746169596910476685 -0.0039597293362021446228 -0.029472425580024719238 0.017485262826085090637 0.026517977938055992126 -0.036296539008617401123 0.02042458951473236084 -0.10648684203624725342 0.0363157615065574646 -0.1382446587085723877 0.099672541022300720215 0.10771346092224121094 -0.18851931393146514893 0.12246984988451004028 -0.027590243145823478699 -0.16246950626373291016 0.10288704931735992432 -0.03375070914626121521 -0.017644621431827545166 0.022967608645558357239 0.0034577418118715286255 0.0029043157119303941727 0.019636694341897964478 0.011580906808376312256 0.020563894882798194885 0.026013769209384918213 -0.001767306821420788765 0.046133812516927719116 -0.038904901593923568726 -0.0018947925418615341187 -0.068357922136783599854 0.0086871655657887458801 0.079737342894077301025 -0.034006714820861816406 -0.01955972425639629364 -0.030265977606177330017 -0.056280456483364105225 0.03156253322958946228 -0.069286085665225982666 0.037218801677227020264 0.003326349891722202301 -0.066952407360076904297 -0.076548807322978973389 -0.0028566613327711820602 -0.017522210255265235901 0.020910482853651046753 -0.0084896469488739967346 -0.024502204731106758118 0.032772798091173171997 -0.080664835870265960693 0.063228756189346313477 -0.070081733167171478271 -0.02305056154727935791 -0.10134372860193252563 0.081645965576171875 0.049842759966850280762 -0.074816666543483734131 0.1022937968373298645 0.087921835482120513916 -0.048318982124328613281 0.099829889833927154541 0.10421089082956314087 0.0032843695953488349915 -0.0047023044899106025696 0.013699155300855636597 0.0085581634193658828735 -0.039038509130477905273 -0.070795737206935882568 0.031898286193609237671 -0.012202413752675056458 -0.01389535609632730484 0.043269556015729904175 0.20390601456165313721 -0.16004763543605804443 -0.0077925408259034156799 0.030846998095512390137 -0.032537873834371566772 -0.075732097029685974121 -0.16717927157878875732 0.1306635737419128418 0.023275395855307579041 -0.026397073641419410706 -0.035087399184703826904 -0.088196180760860443115 -0.17734888195991516113 0.030822524800896644592 -0.10318098217248916626 -0.12625794112682342529 -0.043101668357849121094 0.12641651928424835205 -0.13248324394226074219 -0.00076086085755378007889 0.12472062557935714722 -0.32045474648475646973 0.0059776389971375465393 -0.03986845165491104126 -0.031206917017698287964 -0.042626880109310150146 -0.087407670915126800537 0.16125357151031494141 -0.030019851401448249817 -0.08578777313232421875 -0.012783395126461982727 0.0096224248409271240234 0.0096106724813580513 0.1614240109920501709 -0.10067454725503921509 -0.058687247335910797119 0.1489280015230178833 -0.0055113988928496837616 -0.05081081390380859375 0.11698416620492935181 -0.044087830930948257446 0.0048212339170277118683 0.042116116732358932495 -0.010254842229187488556 -0.0051235845312476158142 0.073079675436019897461 -0.085209503769874572754 0.031988129019737243652 0.07412347942590713501 -0.13535657525062561035 0.040985200554132461548 -0.010108631104230880737 0.013236719183623790741 -0.030772788450121879578 -0.077297963201999664307 -0.053089797496795654297 0.017401060089468955994 -0.15521658957004547119 -0.1206269189715385437 0.0031501669436693191528 -0.13768388330936431885 0.019101601094007492065 -0.051293425261974334717 0.047537360340356826782 0.028630383312702178955 0.0471192188560962677 0.0066603282466530799866 -0.014534674584865570068 -0.031989742070436477661 -0.012392897158861160278 -0.047332555055618286133 -0.063217043876647949219 0.15794663131237030029 -0.10610454529523849487 -0.057370677590370178223 0.049996450543403625488 -0.00020519814279396086931 0.13439257442951202393 -0.14961268007755279541 0.064868278801441192627 -0.027446074411273002625 0.010628585703670978546 0.011800654232501983643 -0.023073578253388404846 -0.033103812485933303833 -0.013144778087735176086 0.028144633397459983826 -0.057223547250032424927 0.072855375707149505615 -0.077716879546642303467 0.14282883703708648682 -0.011233310215175151825 -0.051001869142055511475 0.11315963417291641235 -0.072369836270809173584 -0.011498540639877319336 0.19815014302730560303 -0.009917560964822769165 -0.017130207270383834839 -0.00012214886373840272427 -0.013428098522126674652 -0.002144075930118560791 -0.18263363838195800781 0.058782260864973068237 -0.061291895806789398193 -0.044088672846555709839 0.0045976848341524600983 0.010971202515065670013 0.045530755072832107544 -0.061765447258949279785 -0.0071257632225751876831 0.11896056681871414185 -0.030404759570956230164 -0.057909555733203887939 0.031062372028827667236 -0.063118197023868560791 0.042043518275022506714 0.14915001392364501953 -0.19267567992210388184 -0.13221558928489685059 0.16275987029075622559 0.088890396058559417725 0.14514799416065216064 0.068875074386596679688 0.068045243620872497559 -0.095800831913948059082 0.00091137120034545660019 0.051265198737382888794 0.04491253197193145752 0.08882351219654083252 0.10156426578760147095 -0.062760122120380401611 0.053542368113994598389 -0.036689423024654388428 0.036540914326906204224 -0.16210216283798217773 0.0048840106464922428131 0.0023221445735543966293 -0.13919863104820251465 0.041113860905170440674 -0.00097573292441666126251 -0.17465770244598388672 0.037830259650945663452 -0.022043073549866676331 -0.30051353573799133301 -0.15148818492889404297 -0.028216702863574028015 -0.29377686977386474609 -0.095859348773956298828 -0.1087193414568901062 -0.23306925594806671143 -0.12910044193267822266 0.037952139973640441895 0.026521192863583564758 0.0040598805062472820282 0.034101653844118118286 0.13263413310050964355 0.026733033359050750732 0.039919953793287277222 0.005255622323602437973 0.031612623482942581177 -0.0022361946757882833481 -0.044581323862075805664 0.045202564448118209839 -0.0031701554544270038605 -0.036117229610681533813 0.082009546458721160889 0.027023188769817352295 -0.035357035696506500244 0.01183256879448890686 -0.025880685076117515564 0.017806448042392730713 0.024591131135821342468 -0.071305543184280395508 0.036983523517847061157 -0.017622176557779312134 0.022866018116474151611 0.047170519828796386719 0.0065114013850688934326 0.063257098197937011719 -0.11533182114362716675 0.022101428359746932983 0.011163649149239063263 0.032970141619443893433 0.052319828420877456665 -0.062731198966503143311 0.13282856345176696777 -0.12760747969150543213 0.021481567993760108948 0.026407908648252487183 0.012998775579035282135 -0.025793259963393211365 0.022915286943316459656 -0.018121039494872093201 0.0017649270594120025635 0.033452432602643966675 0.029004966840147972107 0.11218412220478057861 0.0085072582587599754333 0.02666362375020980835 0.03574085235595703125 -0.030432574450969696045 -0.15154857933521270752 0.0057944431900978088379 0.14009664952754974365 -0.047070350497961044312 -0.049432419240474700928 0.10737135261297225952 -0.052049450576305389404 -0.0040891701355576515198 0.1028540879487991333 -0.07011750340461730957 -0.039520993828773498535 0.080674208700656890869 -0.042716547846794128418 0.038805644959211349487 -0.10591249912977218628 0.07035274803638458252 0.035787247121334075928 0.021873788908123970032 -0.0238267555832862854 0.0020990576595067977905 -0.078248411417007446289 0.027772868052124977112 -0.009384131990373134613 -0.045900300145149230957 0.017722139135003089905 -0.029164072126150131226 0.059601482003927230835 -0.047788105905055999756 -0.005288275890052318573 -0.063505299389362335205 0.021655807271599769592 0.06178762391209602356 -0.054660361260175704956 0.024254562333226203918 0.068405456840991973877 -0.094132833182811737061 0.10994095355272293091 -0.053680200129747390747 0.012156045995652675629 -0.10306208580732345581 -0.032421614974737167358 0.0055332109332084655762 0.065446972846984863281 -0.034221928566694259644 0.1210010722279548645 0.047947250306606292725 0.037301138043403625488 0.20234119892120361328 0.086436673998832702637 0.044567048549652099609 -0.0034507720265537500381 -0.029711721464991569519 -0.031957633793354034424 -0.097299247980117797852 0.02099751494824886322 0.042097683995962142944 -0.052946329116821289062 0.0056495550088584423065 0.03417301177978515625 -0.030135355889797210693 0.020432364195585250854 -0.02776922471821308136 -0.076578609645366668701 0.027709424495697021484 4.0866183553589507937e-05 0.043801881372928619385 0.073009401559829711914 -0.035813707858324050903 0.036400660872459411621 -0.012279031798243522644 -0.19538138806819915771 -0.28579738736152648926 -0.065801054239273071289 0.001921384129673242569 -0.13591772317886352539 -0.030704539269208908081 0.0030600233003497123718 0.021469717845320701599 -0.0017882563406601548195 0.0089461356401443481445 -0.03969182819128036499 0.015378277748823165894 -0.0059045050293207168579 0.037482000887393951416 0.0060002948157489299774 -0.0059911226853728294373 0.0085225580260157585144 0.0091250017285346984863 -0.013283606618642807007 -0.019435118883848190308 0.019465090706944465637 0.0022147798445075750351 -0.026499601081013679504 0.015851700678467750549 0.10958199948072433472 -0.18679481744766235352 -0.13450236618518829346 0.16745528578758239746 -0.14160668849945068359 -0.09708449244499206543 0.17162205278873443604 -0.15077614784240722656 -0.098242416977882385254 0.045092433691024780273 -0.092284262180328369141 0.056333344429731369019 0.049966394901275634766 -0.12667693197727203369 0.16778509318828582764 -0.014804127626121044159 -0.16688804328441619873 0.10160822421312332153 -0.013738416135311126709 -0.10544417053461074829 0.039001930505037307739 0.035368770360946655273 0.043342210352420806885 0.019493520259857177734 -0.033115662634372711182 0.22620765864849090576 -0.15912303328514099121 -0.096374183893203735352 0.22725129127502441406 -0.14554782211780548096 0.15462440252304077148 0.095410838723182678223 -0.10397291183471679688 0.095066905021667480469 0.19567066431045532227 -0.17036941647529602051 -0.041798714548349380493 -0.1176109611988067627 -0.14128017425537109375 -0.017462091520428657532 -0.1470778733491897583 -0.088264346122741699219 -0.012139257974922657013 -0.16284872591495513916 -0.01499188598245382309 -0.047342512756586074829 -0.0044063776731491088867 0.033814765512943267822 0.029365388676524162292 0.015364096499979496002 0.035583171993494033813 -0.041879262775182723999 -0.0014894197229295969009 -0.014982776716351509094 -0.0057939430698752403259 -0.031143670901656150818 0.13536049425601959229 0.082368925213813781738 -0.09423627704381942749 0.042863059788942337036 -0.072327233850955963135 0.11084885150194168091 -0.0017926085274666547775 0.049554657191038131714 -0.10187584161758422852 -0.061085850000381469727 -0.15852159261703491211 0.22666341066360473633 -0.32246488332748413086 -0.065098054707050323486 -0.0013880651677027344704 -0.050226207822561264038 -0.12105546146631240845 0.13570655882358551025 -0.038311116397380828857 0.0030734445899724960327 0.043884955346584320068 -0.073792800307273864746 0.033702638000249862671 0.092394433915615081787 -0.084817722439765930176 0.03309283033013343811 -0.01750418543815612793 0.024675637483596801758 0.0021397431846708059311 0.0092539675533771514893 0.17447602748870849609 -0.09100869297981262207 0.054053448140621185303 0.076915420591831207275 -0.0079032797366380691528 0.088977806270122528076 -0.10738938301801681519 -0.071825258433818817139 0.14697964489459991455 -0.086806260049343109131 -0.021777428686618804932 0.04011613503098487854 -0.093365699052810668945 -0.047733679413795471191 0.0083965230733156204224 0.046074096113443374634 0.016153892502188682556 0.026178037747740745544 0.087039403617382049561 -0.010553965345025062561 0.033803366124629974365 0.057290572673082351685 0.010717600584030151367 0.0015584130305796861649 0.019005239009857177734 0.06946337968111038208 -0.035828612744808197021 -0.0016333920648321509361 0.015567652881145477295 -0.01585748232901096344 -0.023937640711665153503 -0.018746936693787574768 -0.067836813628673553467 0.16729681193828582764 0.039708204567432403564 -0.056418791413307189941 0.046423107385635375977 -0.013395404443144798279 -0.21396070718765258789 0.13730691373348236084 0.042585428804159164429 0.10208933055400848389 -0.011291740462183952332 -0.073400877416133880615 -0.12191962450742721558 -0.037649959325790405273 0.076146759092807769775 -0.042255599051713943481 -0.016733689233660697937 0.04109886661171913147 -0.057203304022550582886 0.028683049604296684265 0.084578812122344970703 -0.15761484205722808838 0.055726055055856704712 0.015239465050399303436 -0.054282430559396743774 0.025400195270776748657 0.0077180536463856697083 -0.034791897982358932495 -0.027838798239827156067 0.034005213528871536255 0.067504666745662689209 0.0069608213379979133606 -0.02914788760244846344 -0.082221686840057373047 0.066872224211692810059 -0.014291061088442802429 0.036065172404050827026 -0.038960173726081848145 0.061002686619758605957 0.016230475157499313354 -0.047098375856876373291 0.038307532668113708496 -0.032838806509971618652 -0.014396279118955135345 0.1516812443733215332 -0.15144088864326477051 0.090880766510963439941 0.00078493234468623995781 -0.01731921173632144928 -0.053218420594930648804 0.10734747350215911865 -0.0069235903210937976837 -0.0058667249977588653564 0.034995630383491516113 0.041983183473348617554 -0.10487698018550872803 0.1221766546368598938 0.029456812888383865356 -0.051914103329181671143 0.081090360879898071289 0.024203537032008171082 -0.067634947597980499268 0.033776231110095977783 0.028309836983680725098 0.010234288871288299561 -0.00078838993795216083527 0.015491120517253875732 -0.041019242256879806519 0.021102590486407279968 -0.0035103368572890758514 0.029482593759894371033 0.035750120878219604492 -0.1112618669867515564 0.18119043111801147461 -0.04906576499342918396 -0.09376646578311920166 0.054268509149551391602 -0.078954219818115234375 -0.091426625847816467285 0.11237213015556335449 -0.062578991055488586426 0.23352438211441040039 0.15424720942974090576 0.085460387170314788818 0.2889525294303894043 0.17603994905948638916 -0.079719416797161102295 0.36204311251640319824 0.20121422410011291504 0.0029630926437675952911 -0.0019145398400723934174 -0.080408170819282531738 -0.085300683975219726562 -0.1526896059513092041 0.10263619571924209595 -0.11527989059686660767 -0.087595328688621520996 0.058337375521659851074 0.0084410309791564941406 0.079062737524509429932 0.070143073797225952148 -0.0035509222652763128281 0.076394930481910705566 0.023720519617199897766 0.0057669910602271556854 0.099786080420017242432 0.043921608477830886841 0.015348827466368675232 -0.010817262344062328339 0.0060341204516589641571 0.046857923269271850586 -0.076333701610565185547 0.0047900630161166191101 0.023340972140431404114 -0.10942502319812774658 0.024145444855093955994 -0.014603133313357830048 0.014418525621294975281 0.010423538275063037872 0.0085134645923972129822 0.0099271908402442932129 0.011480785906314849854 -0.037048883736133575439 -0.019301930442452430725 -0.032565228641033172607 0.021847171708941459656 0.075090400874614715576 -0.06724011152982711792 0.039750952273607254028 -0.10977089405059814453 0.011476024985313415527 0.082002565264701843262 0.037629179656505584717 -0.0057668602094054222107 0.085251934826374053955 -0.014534995891153812408 -0.04316804930567741394 -0.0004840026667807251215 0.014376119710505008698 -0.0009023275342769920826 -0.069068737328052520752 0.013530461117625236511 0.034027609974145889282 0.039813440293073654175 -0.0086481310427188873291 0.0053315125405788421631 0.017276175320148468018 0.0054978798143565654755 0.039631102234125137329 0.009594874456524848938 -0.076830208301544189453 -0.082596182823181152344 0.0044318488799035549164 -0.057269599288702011108 -0.046589106321334838867 0.024685299023985862732 -0.04466099664568901062 0.057423058897256851196 0.082151867449283599854 -0.090718828141689300537 0.15808893740177154541 0.047275129705667495728 0.017105158418416976929 -0.049765259027481079102 -0.012613215483725070953 0.053710944950580596924 -0.032324243336915969849 -0.012136613950133323669 -0.036113414913415908813 0.026237938553094863892 0.16759152710437774658 -0.32053402066230773926 0.050967324525117874146 -0.050825837999582290649 -0.3224029242992401123 -0.072348475456237792969 0.1176588013768196106 -0.36201339960098266602 0.11166981607675552368 0.0048099448904395103455 -0.1218865513801574707 0.012454757466912269592 -0.032534465193748474121 -0.15146914124488830566 -0.052668422460556030273 -0.076019860804080963135 -0.090106368064880371094 -0.11368587613105773926 -0.06605173647403717041 0.030061690136790275574 0.021090216934680938721 0.006451735273003578186 0.093041054904460906982 0.0067421072162687778473 0.0064105293713510036469 0.048278201371431350708 0.0041540306992828845978 0.031618256121873855591 0.0092244660481810569763 0.01288023684173822403 0.0048804613761603832245 -0.0069357533939182758331 0.013904078863561153412 -0.0093719661235809326172 0.031982775777578353882 0.016965257003903388977 0.026352072134613990784 -0.042163979262113571167 -0.12522387504577636719 0.030493732541799545288 0.027242422103881835938 0.012250738218426704407 -0.020238209515810012817 -0.17941339313983917236 -0.072557568550109863281 -0.014239840209484100342 -0.082116052508354187012 0.016807181760668754578 -0.13565035164356231689 -0.048721142113208770752 -0.077295660972595214844 -0.0070795337669551372528 -0.045053999871015548706 0.018240133300423622131 -0.012585327960550785065 -0.022683063521981239319 -0.020839089527726173401 0.0044142138212919235229 0.024284128099679946899 -0.024285081773996353149 -0.019306257367134094238 -0.042166460305452346802 0.019247196614742279053 -0.00811375398188829422 -0.067084833979606628418 0.024849919602274894714 0.10377606749534606934 0.025754898786544799805 0.14432151615619659424 0.04928943142294883728 0.022543121129274368286 0.095807731151580810547 -0.13203494250774383545 0.28061032295227050781 -0.074656784534454345703 -0.040188170969486236572 0.090420305728912353516 -0.14033766090869903564 0.048753540962934494019 -0.063041575253009796143 -0.050035100430250167847 0.024287117645144462585 -0.038908835500478744507 -0.034364126622676849365 0.03924636542797088623 -0.046132385730743408203 -0.00093026773538440465927 -0.068000413477420806885 -0.040919288992881774902 0.02759141288697719574 -0.014610565267503261566 0.15254937112331390381 -0.032195173203945159912 -0.037744183093309402466 -0.11089032143354415894 0.078625977039337158203 0.051193173974752426147 -0.020988799631595611572 0.010768757201731204987 

-0.025264747440814971924 -0.04372880980372428894 0.037702709436416625977 0.015106926672160625458 0.016638733446598052979 0.01960941217839717865 -0.027989631518721580505 0.050444249063730239868 -0.028861409053206443787 -0.036570563912391662598 0.069228224456310272217 -0.0094290832057595252991 -0.17707671225070953369 -0.002344656502828001976 -0.096623338758945465088 -0.018190400674939155579 0.20166914165019989014 -0.031048679724335670471 -0.12604121863842010498 -0.06815318763256072998 -0.024838868528604507446 -0.13425211608409881592 -0.048482391983270645142 -0.13884314894676208496 -0.08569446951150894165 -0.15490995347499847412 -0.052423328161239624023 0.046849772334098815918 0.098868615925312042236 0.042466934770345687866 0.073341384530067443848 0.074897304177284240723 0.12984564900398254395 -0.035304214805364608765 -0.0033196618314832448959 0.043796934187412261963 -0.041717994958162307739 0.0092373890802264213562 0.014641459099948406219 0.0095796342939138412476 0.025188637897372245789 0.021046036854386329651 0.015277252532541751862 0.021588701754808425903 -0.046253390610218048096 -0.024101134389638900757 -0.0059107458218932151794 0.016340795904397964478 -0.034859642386436462402 -0.053051304072141647339 -0.014133816584944725037 0.031300343573093414307 0.04354478791356086731 -0.040095429867506027222 0.00015714070468675345182 -0.1929051131010055542 -0.07783457636833190918 0.072527781128883361816 -0.034533400088548660278 0.16874974966049194336 0.065530441701412200928 -0.22809630632400512695 0.023177046328783035278 0.060648418962955474854 0.060259684920310974121 0.00051974097732454538345 0.0049321455880999565125 -0.02570066601037979126 -0.026110192760825157166 -0.042518191039562225342 -0.0011387927224859595299 -0.083869941532611846924 -0.035705335438251495361 0.041521660983562469482 -0.02065339311957359314 0.043818183243274688721 0.041332524269819259644 0.028504187241196632385 -0.024997137486934661865 -0.016420496627688407898 0.11337395757436752319 -0.031277187168598175049 -0.080398857593536376953 0.027333173900842666626 -0.035784691572189331055 -0.028124123811721801758 0.017256515100598335266 -0.00078887125710025429726 0.04577656090259552002 0.11038141697645187378 -0.048904981464147567749 -0.21154998242855072021 -0.075048819184303283691 -0.03124667145311832428 -0.10268876701593399048 -0.021920150145888328552 0.016660550609230995178 -0.10768943279981613159 -0.10517340153455734253 0.067014142870903015137 -0.17765294015407562256 0.070197045803070068359 -0.18864932656288146973 0.35406988859176635742 0.051012165844440460205 0.05563841015100479126 0.24476549029350280762 -0.23210805654525756836 -0.070495143532752990723 -0.15775910019874572754 -0.043725077062845230103 -6.8931461782995029353e-07 -0.065844297409057617188 -0.073800750076770782471 0.0078659811988472938538 -0.1762297898530960083 -0.17431351542472839355 -0.076494738459587097168 -0.1717945784330368042 -0.083480060100555419922 -0.12662181258201599121 -0.12351607531309127808 0.11216633021831512451 -0.021539961919188499451 0.08473240584135055542 0.15610255300998687744 -0.015046180225908756256 -0.00059772061649709939957 -0.042247988283634185791 0.0095942616462707519531 -0.028385683894157409668 0.020359678193926811218 -0.041870821267366409302 -0.035413477569818496704 0.0077507877722382545471 -0.040859822183847427368 0.047016724944114685059 0.0092434724792838096619 0.071106478571891784668 -0.016054885461926460266 0.062925994396209716797 -0.046908393502235412598 -0.03320927545428276062 0.0014293813146650791168 0.020280322059988975525 0.031286608427762985229 0.057979729026556015015 0.066269963979721069336 0.026881989091634750366 -0.0096941720694303512573 -0.020173219963908195496 0.025403045117855072021 0.023193988949060440063 0.023073932155966758728 -0.010460545308887958527 0.059136912226676940918 -0.0059244767762720584869 -0.073542483150959014893 -0.12320116162300109863 -0.0086274277418851852417 -0.001807636115700006485 0.0028033575508743524551 -0.0053097237832844257355 0.12744133174419403076 0.067541100084781646729 0.085952527821063995361 0.17688952386379241943 0.051305934786796569824 -0.024703972041606903076 0.1679035574197769165 0.24447907507419586182 -0.017232552170753479004 0.043084383010864257812 -0.005537638440728187561 0.049327734857797622681 -0.17328813672065734863 -0.014728251844644546509 0.014798855409026145935 0.0086009893566370010376 -0.024055173620581626892 0.040092561393976211548 0.16445757448673248291 0.023105194792151451111 0.017697740346193313599 0.085542403161525726318 -0.029122114181518554688 -0.010135301388800144196 0.10909431427717208862 0.10221780091524124146 0.0081398058682680130005 -0.046684667468070983887 0.0058518247678875923157 0.046855859458446502686 -0.071549721062183380127 0.033503409475088119507 0.008143685758113861084 -0.20186904072761535645 0.049719337373971939087 -0.052088029682636260986 -0.27113875746726989746 -0.12190758436918258667 -0.041437778621912002563 -0.32817304134368896484 -0.073326192796230316162 -0.053566936403512954712 -0.18891860544681549072 -0.059386800974607467651 -0.006014097016304731369 0.1239298209547996521 0.010793449357151985168 0.083569861948490142822 0.021063266322016716003 -0.11180528998374938965 0.019269879907369613647 -0.14034418761730194092 -0.17937289178371429443 -0.081080168485641479492 -0.039487168192863464355 0.087225526571273803711 -0.014228720217943191528 0.095638379454612731934 -0.31892248988151550293 -0.0010837792651727795601 -0.061684139072895050049 0.026211399585008621216 0.033028800040483474731 0.24167607724666595459 0.013500389643013477325 0.16269212961196899414 0.063889421522617340088 -0.18843375146389007568 0.022542512044310569763 -0.1258449852466583252 -0.12049699574708938599 0.07219962775707244873 0.019728640094399452209 0.008176003582775592804 0.00067100976593792438507 0.048246465623378753662 -0.017510056495666503906 -0.090525649487972259521 0.034861810505390167236 -0.015091957524418830872 0.029904270544648170471 0.057481180876493453979 0.050610654056072235107 -0.0088603738695383071899 0.23804120719432830811 0.14269368350505828857 -0.020743694156408309937 -0.030743563547730445862 -0.027933327481150627136 -0.077492594718933105469 -0.049254510551691055298 0.01462540309876203537 0.013129615224897861481 -0.0109674111008644104 -0.10438792407512664795 -0.077323831617832183838 -0.13056707382202148438 0.014416949823498725891 -0.0030466422904282808304 0.00064258376369252800941 -0.033342033624649047852 -0.044235140085220336914 -0.020825706422328948975 0.022040449082851409912 0.012183269485831260681 0.024296591058373451233 -0.084192350506782531738 0.1444133371114730835 0.057117506861686706543 0.10083452612161636353 0.029487546533346176147 -0.0080010630190372467041 -0.12130964547395706177 0.014389304444193840027 0.0021118305157870054245 -0.13755084574222564697 0.04708118736743927002 0.01894481852650642395 0.042686689645051956177 -0.02671773172914981842 -0.10178072750568389893 0.062051031738519668579 0.026074381545186042786 0.014541809447109699249 -0.09861870110034942627 0.053771361708641052246 0.039869960397481918335 0.069734871387481689453 -0.0079081291332840919495 0.041051905602216720581 -0.039523083716630935669 0.0070521347224712371826 0.022701319307088851929 -0.23066559433937072754 0.012271731160581111908 0.16160500049591064453 -0.073684319853782653809 0.019532730802893638611 0.01342443469911813736 -0.14460639655590057373 -0.039617333561182022095 -0.11203589290380477905 0.018732899799942970276 0.14005646109580993652 -0.048972785472869873047 0.0047328607179224491119 0.16143228113651275635 0.12937340140342712402 0.13793741166591644287 0.025488102808594703674 -0.0365790538489818573 0.14665356278419494629 -0.027109736576676368713 -0.039911948144435882568 -0.0018717262428253889084 -0.0019275002414360642433 0.056595362722873687744 0.02525197155773639679 0.0066027664579451084137 -0.015393788926303386688 -0.056161649525165557861 0.14947277307510375977 0.0061259721405804157257 0.012489933520555496216 0.14220917224884033203 0.08726250380277633667 0.16593791544437408447 0.0054263658821582794189 -0.019318057224154472351 0.069547109305858612061 0.062936484813690185547 0.11060467362403869629 0.051876135170459747314 0.060729585587978363037 0.087992675602436065674 -0.0061303437687456607819 0.014880415983498096466 -0.032241515815258026123 0.013778286054730415344 -0.04569876939058303833 0.075014241039752960205 0.036427795886993408203 0.026688864454627037048 -0.039721492677927017212 0.02161347121000289917 -0.013965637423098087311 -0.018984051421284675598 0.020302774384617805481 0.010388959199190139771 0.045954056084156036377 -0.0036751972511410713196 0.063862591981887817383 -0.028880542144179344177 -0.028035974130034446716 -0.019444419071078300476 -0.010021540336310863495 -0.022793909534811973572 0.075828969478607177734 -0.059395786374807357788 -0.12639704346656799316 -0.014540480449795722961 -0.11331427842378616333 -0.21824951469898223877 0.0032974672503769397736 -0.18389837443828582764 -0.16450157761573791504 0.001685460330918431282 -0.037004940211772918701 -0.03429134562611579895 0.027264978736639022827 0.018961418420076370239 0.0044907103292644023895 -0.021835628896951675415 -0.02295118384063243866 0.031231962144374847412 0.10964786261320114136 -0.11290607601404190063 0.062347009778022766113 0.033035859465599060059 -0.061455886811017990112 -0.14949350059032440186 -0.082805499434471130371 0.16979981958866119385 -0.20269089937210083008 -0.00065235549118369817734 0.16915647685527801514 0.02248217165470123291 0.042818509042263031006 0.11296060681343078613 0.059941742569208145142 -0.040766704827547073364 0.15114183723926544189 -0.030601186677813529968 0.022500356659293174744 0.05966379120945930481 0.016403311863541603088 0.0074946470558643341064 -0.035235699266195297241 -0.0031452293042093515396 0.027751684188842773438 0.039888884872198104858 0.03704929351806640625 -0.069879956543445587158 0.0076334802433848381042 -0.069610252976417541504 -0.055409368127584457397 -0.020644724369049072266 0.028508298099040985107 0.037116162478923797607 -0.053499717265367507935 0.014057112857699394226 0.021155612543225288391 -0.055864971131086349487 -0.075882829725742340088 -0.0072146048769354820251 -0.11789069324731826782 -0.0202751941978931427 0.025078482925891876221 0.098594725131988525391 -0.086110249161720275879 -0.0087047973647713661194 0.025273246690630912781 -0.061177913099527359009 -0.06324361264705657959 -0.024454124271869659424 0.034069538116455078125 -0.0029600055422633886337 -0.0028687226586043834686 0.11405742168426513672 -0.067564882338047027588 -0.058416441082954406738 -0.057462532073259353638 0.015998125076293945312 -0.084035098552703857422 0.0042243050411343574524 -0.037648420780897140503 -0.067598424851894378662 -0.021676432341337203979 0.094918772578239440918 0.21237677335739135742 -0.075914487242698669434 -0.10971467196941375732 0.24132522940635681152 -0.015661805868148803711 0.02085152454674243927 0.13120011985301971436 0.13514214754104614258 0.045883297920227050781 -0.03150003775954246521 -0.035172604024410247803 -0.089374370872974395752 -0.18030668795108795166 0.053815655410289764404 -0.084622099995613098145 -0.014214992523193359375 0.026274949312210083008 -0.070965223014354705811 0.03908608853816986084 0.0829828605055809021 0.073596276342868804932 0.00016158173093572258949 -0.036744143813848495483 0.069791875779628753662 -0.08440669625997543335 -0.055518291890621185303 -2.2092557628639042377e-05 -0.020564153790473937988 -0.017805941402912139893 -0.0073960814625024795532 0.025152832269668579102 -0.018395584076642990112 -0.031178135424852371216 0.023272171616554260254 0.014970208518207073212 0.045939598232507705688 0.020151849836111068726 0.0054094991646707057953 -0.15285997092723846436 -0.064015917479991912842 -0.061934690922498703003 0.04730882495641708374 0.029537321999669075012 0.12192765623331069946 -0.02139169350266456604 -0.1096364632248878479 -0.063235051929950714111 -0.024404566735029220581 -0.18165180087089538574 0.16913400590419769287 0.071684576570987701416 0.10266167670488357544 0.20110674202442169189 0.01720494590699672699 -0.12960666418075561523 0.057964749634265899658 0.024814303964376449585 0.083614245057106018066 0.10251412540674209595 0.026007961481809616089 -0.072463564574718475342 -0.089132271707057952881 -0.038274690508842468262 0.065358035266399383545 0.099313706159591674805 -0.14445680379867553711 -0.0015469413483515381813 -0.21132089197635650635 -0.02991625666618347168 0.13911005854606628418 -0.14775367081165313721 -0.03765411674976348877 -0.032691344618797302246 0.086729064583778381348 0.00016034873260650783777 -0.023338809609413146973 -0.10181841254234313965 -0.0010515557369217276573 0.039804045110940933228 0.090689234435558319092 0.082732938230037689209 -0.032606821507215499878 -0.0085488073527812957764 -0.065098851919174194336 -0.096223473548889160156 -0.0065282736904919147491 0.05611135438084602356 0.018957514315843582153 0.043491709977388381958 0.01283151283860206604 -0.092873908579349517822 0.061401207000017166138 0.01832310110330581665 -0.058888345956802368164 0.033143576234579086304 -0.067025795578956604004 0.17508903145790100098 0.10863974690437316895 -0.061498865485191345215 -0.15529742836952209473 0.047051202505826950073 -0.0080432370305061340332 -0.062359515577554702759 0.023104477673768997192 0.055347390472888946533 -0.074911668896675109863 -0.021856123581528663635 -0.058227606117725372314 0.096379831433296203613 0.068326734006404876709 0.0094123473390936851501 0.16315348446369171143 -0.051859103143215179443 0.068046011030673980713 -0.074646614491939544678 -0.016834808513522148132 0.0032862089574337005615 -0.05761241912841796875 -0.058778874576091766357 0.059971563518047332764 0.013274408876895904541 0.096160478889942169189 0.033660676330327987671 -0.05727098509669303894 0.09529224783182144165 0.0077003212645649909973 0.16138789057731628418 0.078255228698253631592 0.084012314677238464355 0.14705854654312133789 -0.037301309406757354736 0.019964337348937988281 -0.069464191794395446777 -0.12986882030963897705 0.029794795438647270203 0.081251546740531921387 -0.070313781499862670898 0.080382473766803741455 0.040551450103521347046 -0.014126488938927650452 -0.016636129468679428101 0.013903545215725898743 0.16163396835327148438 -0.043801214545965194702 0.060158215463161468506 -0.083855703473091125488 -0.037787351757287979126 -0.16548772156238555908 -0.13929444551467895508 0.054309375584125518799 0.03785392269492149353 0.073423340916633605957 0.046618379652500152588 -0.016250986605882644653 -0.03447647392749786377 -0.017530696466565132141 -0.087729319930076599121 0.044827375560998916626 -0.054678160697221755981 -0.0034075956791639328003 0.082176946103572845459 -0.039323017001152038574 0.071796379983425140381 -0.0077142659574747085571 -0.033101558685302734375 0.088500246405601501465 -0.019209787249565124512 0.022282049059867858887 -0.061993889510631561279 0.038897931575775146484 0.015767645090818405151 -0.079484298825263977051 -0.088538855314254760742 0.0044839112088084220886 -0.2052828371524810791 -0.081176936626434326172 -0.044747989624738693237 -0.037818215787410736084 -0.025858540087938308716 -0.017121657729148864746 0.019219350069761276245 -0.025974065065383911133 -0.032137960195541381836 -0.064245171844959259033 -0.014021540060639381409 -0.024895207956433296204 0.029632475227117538452 0.037310801446437835693 0.099723905324935913086 0.14215274155139923096 0.043488208204507827759 0.073023721575736999512 0.0029876893386244773865 -0.11843200773000717163 0.043808650225400924683 -0.09820833057165145874 -0.18008069694042205811 0.027111405506730079651 -0.19336491823196411133 -0.060737460851669311523 -0.057857397943735122681 0.1109903678297996521 0.072293862700462341309 -0.030479453504085540771 0.015299481339752674103 -0.090734750032424926758 -0.016329130157828330994 0.13775955140590667725 -0.06243974342942237854 0.23762074112892150879 0.023110644891858100891 0.053425706923007965088 -0.057526309043169021606 -0.052168134599924087524 -0.084526337683200836182 -0.023491580039262771606 -0.0094901360571384429932 -0.017593024298548698425 -0.036402288824319839478 0.054891966283321380615 0.059686306864023208618 0.022737426683306694031 0.053065136075019836426 -0.044826611876487731934 0.0059919320046901702881 -0.073482207953929901123 -0.02094763144850730896 -0.13785935938358306885 0.075636990368366241455 0.12812338769435882568 0.047384645789861679077 0.016104847192764282227 -0.091529645025730133057 0.0018562903860583901405 -0.075563915073871612549 -0.047819189727306365967 0.023337114602327346802 0.17294208705425262451 0.18140746653079986572 -0.055946528911590576172 0.14009837806224822998 -0.074120461940765380859 -0.019092358648777008057 0.045533660799264907837 -0.018960963934659957886 -0.074565269052982330322 0.068572521209716796875 0.031819097697734832764 0.090180426836013793945 -0.035005655139684677124 -0.096620872616767883301 -0.02115391753613948822 0.034057360142469406128 -0.08153041452169418335 0.022841461002826690674 0.038927432149648666382 0.027647983282804489136 0.011050396598875522614 -0.063108712434768676758 0.020260145887732505798 -0.047061599791049957275 -0.0244673117995262146 -0.06202401965856552124 -0.018406063318252563477 -0.13338162004947662354 0.085718572139739990234 -0.045173909515142440796 0.090055920183658599854 0.073807783424854278564 0.027582000941038131714 0.0086002815514802932739 0.012359449639916419983 -0.0086873956024646759033 -0.021424191072583198547 -0.022305494174361228943 -0.0011024646228179335594 0.0035014054737985134125 0.02671068534255027771 -0.018032116815447807312 -0.10174120962619781494 -0.051497384905815124512 0.070574380457401275635 -0.039809234440326690674 0.072420224547386169434 0.038282129913568496704 0.069291658699512481689 0.03065204620361328125 0.047008518129587173462 -0.077211581170558929443 -0.071911841630935668945 0.012368020601570606232 0.033459354192018508911 0.045059558004140853882 -0.022604711353778839111 0.00028283041319809854031 0.088241249322891235352 -0.024413624778389930725 0.018756752833724021912 -0.049684472382068634033 0.010347947478294372559 0.0065684048458933830261 -0.040735483169555664062 0.019105227664113044739 0.046489030122756958008 -0.019902702420949935913 -0.065724067389965057373 0.10196245461702346802 0.017487147822976112366 0.14344860613346099854 -0.088762737810611724854 -0.14753828942775726318 0.013938776217401027679 -0.087230660021305084229 0.13359458744525909424 -0.045848127454519271851 0.11025927960872650146 -0.041646920144557952881 0.076136514544486999512 0.10721979290246963501 -0.10484266281127929688 -0.069034375250339508057 -0.027552189305424690247 -0.020469734445214271545 0.15535078942775726318 -0.074600011110305786133 -0.00082082167500630021095 -0.065113022923469543457 -0.23320578038692474365 -0.15859346091747283936 -0.059633422642946243286 -0.15445448458194732666 0.033240482211112976074 -0.090156070888042449951 0.0049645667895674705505 -0.14172290265560150146 -0.20832857489585876465 -0.11663830280303955078 -0.33231404423713684082 -0.021299004554748535156 -0.075451940298080444336 -0.16970799863338470459 -0.032470051199197769165 -0.046302516013383865356 0.0084830131381750106812 -0.020344940945506095886 0.046492472290992736816 0.017934909090399742126 -0.011732896789908409119 -0.0017094801878556609154 0.013261429034173488617 0.012122970074415206909 0.029963469132781028748 -0.0097440909594297409058 -0.023281561210751533508 -0.021029930561780929565 0.023518487811088562012 0.0099447974935173988342 0.025945501402020454407 -0.01237886771559715271 -0.0054435762576758861542 0.1110118180513381958 -0.071535140275955200195 0.017282139509916305542 0.039368614554405212402 -0.070467971265316009521 -0.089892871677875518799 -0.060488540679216384888 0.022041492164134979248 0.00071379041764885187149 -0.019671360030770301819 -0.019435763359069824219 -0.076956875622272491455 -0.04461862519383430481 -0.0192345399409532547 -0.045721121132373809814 0.028855675831437110901 0.067402087152004241943 -0.0085405400022864341736 -0.00057785934768617153168 0.021850619465112686157 -0.029616363346576690674 0.029230566695332527161 0.049619477242231369019 0.064832545816898345947 -0.011151944287121295929 -0.0049916934221982955933 -0.04106042906641960144 -0.077240310609340667725 0.10470680147409439087 -0.093395404517650604248 0.049765907227993011475 0.048416651785373687744 -0.080876030027866363525 0.17023959755897521973 -0.09714648127555847168 -0.05905149504542350769 -0.043738175183534622192 -0.059602174907922744751 -0.022581243887543678284 0.058518581092357635498 -0.11471075564622879028 0.054422598332166671753 -0.079987406730651855469 0.070269972085952758789 -0.041563887149095535278 -0.01090972311794757843 0.00084963050903752446175 -0.063890174031257629395 0.071799464523792266846 0.070617154240608215332 0.0068726958706974983215 0.028475176542997360229 -0.0053239837288856506348 0.058412842452526092529 0.02619428001344203949 -0.062538616359233856201 -0.042023476213216781616 -0.037328064441680908203 0.13457618653774261475 -0.037623263895511627197 0.22640027105808258057 0.065510757267475128174 

-0.05520777776837348938 0.022141626104712486267 0.057818487286567687988 0.028470095247030258179 0.035492181777954101562 0.026313623413443565369 0.049067180603742599487 -0.042451716959476470947 -0.040294293314218521118 -0.00018969996017403900623 -0.013123368844389915466 -0.041738670319318771362 0.068986460566520690918 0.01400723680853843689 -0.060451127588748931885 0.098639726638793945312 0.0071324924938380718231 0.030519703403115272522 -0.18565931916236877441 0.018390018492937088013 -0.035547267645597457886 0.051615212112665176392 0.024841452017426490784 0.020014259964227676392 0.072330795228481292725 0.0048767877742648124695 0.017916500568389892578 0.055573634803295135498 0.00099139020312577486038 0.066397249698638916016 -0.047405730932950973511 -0.033684216439723968506 -0.039149582386016845703 -0.0098328720778226852417 0.0019814362749457359314 -0.0018218704499304294586 0.03351176530122756958 -0.0058172517456114292145 -0.046201635152101516724 -0.0047516883350908756256 0.022767927497625350952 -0.0082015627995133399963 -0.019672891125082969666 -0.03545334935188293457 0.025981055572628974915 0.029801936820149421692 -0.028225192800164222717 -0.0080653261393308639526 0.019071789458394050598 -0.038980294018983840942 -0.018117306753993034363 -0.0034685039427131414413 0.014810334891080856323 0.015380942262709140778 -0.14889898896217346191 0.077498950064182281494 0.026419134810566902161 0.0050500994548201560974 0.10509753227233886719 -0.16422039270401000977 -0.12664796411991119385 0.099846012890338897705 -0.015918558463454246521 -0.034349367022514343262 -0.030742829665541648865 -0.02203953079879283905 0.0042515466921031475067 0.020098682492971420288 0.020337564870715141296 0.0043288841843605041504 -0.010471795685589313507 0.038401145488023757935 0.013906519860029220581 -0.012824512086808681488 0.025106163695454597473 0.027536856010556221008 0.0011275445576757192612 0.015355945564806461334 0.02122320421040058136 -0.021436199545860290527 0.0169545002281665802 -0.01873277127742767334 0.0060252412222325801849 0.058270569890737533569 0.012896819040179252625 -0.0016276453388854861259 -0.037880744785070419312 0.015020905062556266785 -0.021793602034449577332 0.0006440446595661342144 -0.073387511074542999268 0.0012667154660448431969 0.099935226142406463623 0.009784527122974395752 -0.032526165246963500977 -0.013538300059735774994 -0.049942821264266967773 0.024024764075875282288 0.039617259055376052856 0.026257488876581192017 -0.0612412281334400177 0.048242427408695220947 0.043019667267799377441 -0.022019317373633384705 -0.021839188411831855774 0.016856206580996513367 -0.019862195476889610291 -0.016665376722812652588 -0.038904864341020584106 0.049193669110536575317 -0.011092600412666797638 -0.074184708297252655029 -0.046333461999893188477 0.02231845073401927948 -0.027821388095617294312 -0.060748133808374404907 0.037117060273885726929 -0.067792087793350219727 -0.079298235476016998291 0.11077497154474258423 0.030018586665391921997 -0.026635702699422836304 -0.0040699290111660957336 0.072074852883815765381 -0.00080419809091836214066 -0.082859255373477935791 -7.3754388722591102123e-05 -0.029940418899059295654 -0.020867852494120597839 0.0054515907540917396545 0.011659864336252212524 -0.017871407791972160339 -0.012069229967892169952 -0.024571811780333518982 0.018085040152072906494 -0.0074234898202121257782 0.0014648840297013521194 0.031364157795906066895 -0.0092782918363809585571 -0.036852743476629257202 0.050514187663793563843 0.028144264593720436096 0.018107252195477485657 -0.045539360493421554565 -0.0086916983127593994141 0.031253255903720855713 -0.021870309486985206604 0.020513555034995079041 0.00029135835939086973667 -0.0073665883392095565796 0.015018769539892673492 -0.0064151426777243614197 0.017997110262513160706 0.032984875142574310303 -0.0093300128355622291565 -0.050456665456295013428 -0.033205177634954452515 -0.029114039614796638489 0.010782041586935520172 -0.00027081710868515074253 -0.025074923411011695862 0.031139275059103965759 0.038349393755197525024 0.034693218767642974854 -0.02634982578456401825 -0.044219836592674255371 0.085075341165065765381 0.01467270776629447937 0.056142035871744155884 -0.094400092959403991699 -0.082702256739139556885 0.0046962653286755084991 0.019388034939765930176 -0.019160944968461990356 0.025177787989377975464 0.0030143684707581996918 -0.021792946383357048035 -0.0036087441258132457733 -0.041059002280235290527 -0.013022803701460361481 0.094248443841934204102 0.058037146925926208496 -0.092290841042995452881 -0.067363910377025604248 0.021147157996892929077 0.082653343677520751953 0.10714311897754669189 -0.055129036307334899902 -0.044064104557037353516 -0.21653670072555541992 -0.03548655286431312561 0.026893571019172668457 -0.038551863282918930054 -0.15769244730472564697 -0.10800766199827194214 -0.14608991146087646484 0.0047375466674566268921 -0.092639848589897155762 -0.083728305995464324951 -0.057303518056869506836 0.049133025109767913818 -0.020671134814620018005 0.045569896697998046875 0.033136636018753051758 -0.0061504375189542770386 -0.021724654361605644226 0.040703974664211273193 0.10992571711540222168 0.042689997702836990356 -0.16388140618801116943 -0.051122579723596572876 -0.012653649784624576569 0.011124941520392894745 -0.09374497830867767334 -0.025177463889122009277 0.12418287992477416992 -0.015903489664196968079 0.080537594854831695557 0.0084179881960153579712 -0.034555464982986450195 -0.017739290371537208557 0.083307668566703796387 -0.010126504115760326385 -0.0048900195397436618805 0.025409335270524024963 0.15647991001605987549 0.051648791879415512085 -0.14526793360710144043 0.0085617518052458763123 -0.0042493874207139015198 -0.032954201102256774902 -0.14104986190795898438 -0.018964946269989013672 0.15359491109848022461 -0.011137811467051506042 0.02149700559675693512 -0.068128325045108795166 -0.072111897170543670654 -0.014557274989783763885 -0.019097728654742240906 -0.0093554351478815078735 -0.011744415387511253357 -0.018828049302101135254 0.01514036860316991806 0.039455696940422058105 0.0058233714662492275238 -0.013492514379322528839 -0.062077645212411880493 -0.088758751749992370605 -0.023494968190789222717 0.037078890949487686157 -0.018187373876571655273 -0.054292418062686920166 0.12709641456604003906 -0.075834155082702636719 0.014024356380105018616 -0.011364231817424297333 -0.040908347815275192261 -0.071541227400302886963 0.061282727867364883423 0.0083483997732400894165 -0.014587346464395523071 0.010737166740000247955 -0.0054041408002376556396 0.0060261921025812625885 -0.026756547391414642334 -0.0031846005003899335861 -0.0078794835135340690613 -0.023527026176452636719 -0.0083068693056702613831 0.10033209621906280518 0.069269597530364990234 -0.082448527216911315918 -0.084394969046115875244 0.007231051567941904068 0.065953299403190612793 -0.041544698178768157959 0.00043200940126553177834 0.072671242058277130127 0.027475705370306968689 -0.038715347647666931152 -0.043703258037567138672 0.018159404397010803223 -0.0006373426876962184906 -0.024031501263380050659 0.032749153673648834229 -0.0089375954121351242065 0.018457133322954177856 0.066486097872257232666 0.087534308433532714844 -0.15374167263507843018 0.028717018663883209229 -0.038179814815521240234 -0.032037679105997085571 -0.10933165997266769409 0.0094564724713563919067 0.064268879592418670654 0.038726616650819778442 0.027174495160579681396 -0.08222910761833190918 0.067074008285999298096 -0.058312639594078063965 0.088559068739414215088 -0.06001931801438331604 0.084132499992847442627 -0.022993139922618865967 0.06012681126594543457 -0.072587251663208007812 0.043382670730352401733 -0.018450399860739707947 -0.032658461481332778931 0.013124999590218067169 -0.084797009825706481934 -0.0014792379224672913551 -0.075716786086559295654 0.012357441708445549011 -0.0043846648186445236206 0.017165182158350944519 -0.013424538075923919678 0.022411460056900978088 0.021331060677766799927 0.0064438944682478904724 0.0016003025230020284653 -0.003945532720535993576 0.14524236321449279785 0.061737317591905593872 0.14412266016006469727 -0.12301058322191238403 -0.061240762472152709961 -0.17845857143402099609 0.024966519325971603394 0.028919095173478126526 0.021130360662937164307 0.042417787015438079834 -0.0024328608997166156769 -0.020694622769951820374 -0.0042161419987678527832 0.056226558983325958252 -0.021594487130641937256 -0.045101188123226165771 -0.001968874828889966011 0.027845893055200576782 0.015672050416469573975 0.0095343301072716712952 -0.00090781092876568436623 0.013297551311552524567 -0.014462849125266075134 0.0078003946691751480103 -0.020618116483092308044 -0.0053636333905160427094 0.014732642099261283875 0.038698431104421615601 -0.0082999253645539283752 -0.011159018613398075104 -0.042484160512685775757 0.03505323454737663269 0.013104462064802646637 -0.017440883442759513855 -0.017726181074976921082 0.03516559302806854248 0.051128219813108444214 -0.15677562355995178223 0.10081781446933746338 -0.00028116712928749620914 -0.14897860586643218994 0.089258424937725067139 0.045947264879941940308 -0.04881115257740020752 0.06950072944164276123 0.027257421985268592834 -0.027338268235325813293 0.030599094927310943604 0.017518309876322746277 0.024395665153861045837 0.038287453353404998779 -0.023882895708084106445 0.0053938990458846092224 -0.025405284017324447632 0.034246481955051422119 0.13905327022075653076 -0.079411096870899200439 0.0067559964954853057861 -0.026056634262204170227 -0.013180413283407688141 0.048182524740695953369 -0.089551210403442382812 0.089158475399017333984 0.03000944480299949646 0.041104432195425033569 -0.054153162986040115356 0.025524616241455078125 0.069290250539779663086 -0.10912620276212692261 0.039534419775009155273 -0.020800448954105377197 -0.006052485201507806778 0.026288390159606933594 -0.00090522743994370102882 -0.015003715641796588898 -0.017668318003416061401 0.00018871760403271764517 0.038372192531824111938 -0.022935632616281509399 0.027352154254913330078 -0.019204895943403244019 -0.039301376789808273315 -0.033228322863578796387 0.0076338229700922966003 -0.012599251233041286469 -0.081830225884914398193 -0.038297191262245178223 0.0064072031527757644653 0.015433149412274360657 -0.053237602114677429199 -0.024062357842922210693 -0.02147653140127658844 0.029803013429045677185 -0.041069675236940383911 0.023020263761281967163 0.031862813979387283325 0.054462373256683349609 0.030861755833029747009 -0.04791452363133430481 -0.040247183293104171753 0.0055950176902115345001 0.038334656506776809692 -0.0037496017757803201675 0.032826412469148635864 0.0068523506633937358856 0.023745801299810409546 0.012573939748108386993 -0.026084905490279197693 0.0024882650468498468399 -0.0083974748849868774414 -0.029763577505946159363 -0.0072599221020936965942 0.010967025533318519592 0.022704426199197769165 0.032767716795206069946 0.012897271662950515747 0.0076553602702915668488 0.066308252513408660889 0.0319708213210105896 -0.068063125014305114746 0.0023658049758523702621 0.0062201302498579025269 -0.0084232175722718238831 0.047593396157026290894 0.014326373115181922913 -0.04686997830867767334 -0.062135327607393264771 -0.0050771618261933326721 0.021735446527600288391 -0.030892258509993553162 -0.060649130493402481079 -0.024302976205945014954 -0.0053334846161305904388 -0.019150657579302787781 0.0011434898478910326958 0.012064463458955287933 0.011527832597494125366 -0.021476810798048973083 -0.019024254754185676575 0.0035301088355481624603 -0.0085586477071046829224 -0.04378188401460647583 -0.010431846603751182556 0.0018613957799971103668 0.035358667373657226562 0.020273493602871894836 -0.023249173536896705627 0.025326237082481384277 -0.01504671294242143631 -0.0030421451665461063385 -0.022630995139479637146 -0.038228400051593780518 -0.014463644474744796753 -0.089920885860919952393 -0.04462304338812828064 -0.06429255753755569458 -0.12546651065349578857 0.01585131324827671051 0.047035776078701019287 0.10231612622737884521 0.13085377216339111328 0.059014745056629180908 -0.068509891629219055176 -0.13445623219013214111 0.14595808088779449463 0.027345532551407814026 0.018470671027898788452 0.02915896289050579071 0.082997664809226989746 0.061434697359800338745 -0.15571294724941253662 0.030053902417421340942 0.0390911102294921875 0.065935365855693817139 0.064202032983303070068 0.098068654537200927734 0.0213642120361328125 0.0042365295812487602234 -0.011958464980125427246 0.11370567977428436279 -0.081006690859794616699 0.089014433324337005615 -0.068661451339721679688 0.07904860377311706543 0.0038220204878598451614 -0.060499344021081924438 0.011666070669889450073 -0.020346373319625854492 0.10054180026054382324 -0.11217107623815536499 -0.007146717514842748642 -0.11326950043439865112 0.05806140601634979248 -0.1171635165810585022 0.023291990160942077637 0.016164621338248252869 -0.026315379887819290161 -0.095846600830554962158 0.019154829904437065125 0.0057014711201190948486 -0.059520628303289413452 0.009730142541229724884 0.011774963699281215668 0.066702961921691894531 -0.055733844637870788574 -0.0065282923169434070587 0.00012276254710741341114 0.03702804073691368103 -0.077702909708023071289 0.066381223499774932861 -0.0082754027098417282104 0.072581902146339416504 -0.030400270596146583557 0.095136970281600952148 -0.052115526050329208374 -0.017917783930897712708 -0.16442036628723144531 -0.097662687301635742188 -0.059099610894918441772 -0.03849056735634803772 -0.19796860218048095703 -0.14282245934009552002 -0.13696487247943878174 -0.029448872432112693787 0.032983310520648956299 0.029096391052007675171 0.021238876506686210632 -0.022778306156396865845 -0.0078060999512672424316 -0.026009945198893547058 -0.042012099176645278931 -0.076742105185985565186 -0.034981172531843185425 0.0053617507219314575195 0.0058633922599256038666 -0.028930133208632469177 0.076544627547264099121 -0.0021350635215640068054 0.0071899383328855037689 0.072548031806945800781 -0.060348674654960632324 -0.028327219188213348389 -0.022746659815311431885 0.024134755134582519531 0.045615706592798233032 -0.078419394791126251221 -0.012884293682873249054 0.022898895666003227234 -0.011391293257474899292 -0.036359231919050216675 0.01442510262131690979 0.058278802782297134399 -0.032527666538953781128 -0.016308574005961418152 0.02597943134605884552 0.02292405255138874054 0.0084181306883692741394 0.0026995607186108827591 -0.0071538859046995639801 0.026197923347353935242 -0.020167112350463867188 -0.02179278247058391571 -0.024105006828904151917 0.031625121831893920898 0.020844941958785057068 -0.054560605436563491821 -0.020764576271176338196 0.0031727699097245931625 -0.0078891376033425331116 -0.033329937607049942017 0.012213852256536483765 0.10740874707698822021 0.012174537405371665955 -0.0095146289095282554626 0.063586339354515075684 0.01591925695538520813 0.031765650957822799683 0.082991421222686767578 -0.074383303523063659668 0.025217261165380477905 0.0073202941566705703735 0.033700935542583465576 0.036501623690128326416 0.022610655054450035095 0.080368109047412872314 0.019885893911123275757 0.030823430046439170837 0.030408328399062156677 -0.041102752089500427246 -0.0037817463744431734085 0.066068813204765319824 -0.071743026375770568848 -0.023542573675513267517 0.089909441769123077393 -0.021723752841353416443 0.0036292250733822584152 0.030350895598530769348 0.0040183658711612224579 -0.047802962362766265869 -0.036506142467260360718 0.0071494174189865589142 0.0060659055598080158234 -0.01009271666407585144 -0.015078229829668998718 -0.019534911960363388062 -0.0073403734713792800903 0.071054093539714813232 0.018740493804216384888 -0.10408899933099746704 -0.049690056592226028442 -0.034688398241996765137 0.087860755622386932373 -0.030325472354888916016 -7.8720680903643369675e-05 0.063151992857456207275 0.047485169023275375366 -0.058021288365125656128 -0.010619220323860645294 0.035929743200540542603 -0.16103631258010864258 0.10312163084745407104 -0.023736415430903434753 -0.046513453125953674316 0.11213073879480361938 0.049120683223009109497 -0.022897716611623764038 -0.033082757145166397095 0.05465785786509513855 -0.034951519221067428589 -0.035629123449325561523 -0.058505088090896606445 0.035030659288167953491 0.047811545431613922119 -0.018914682790637016296 -0.0063931681215763092041 0.008164339698851108551 0.016704604029655456543 0.0016522429650649428368 0.0095787979662418365479 0.0057796221226453781128 0.0027710867580026388168 -0.017754985019564628601 -0.10242711752653121948 -0.062395092099905014038 0.14700828492641448975 0.19360002875328063965 0.067373506724834442139 -0.13766533136367797852 -0.044894307851791381836 0.059807326644659042358 0.021119097247719764709 0.027312112972140312195 -0.019696524366736412048 -0.059324387460947036743 0.038692787289619445801 0.073499046266078948975 0.15894056856632232666 -0.054410871118307113647 -0.060488864779472351074 -0.1463832855224609375 0.062766417860984802246 0.01721138879656791687 -0.044212829321622848511 -0.0054968982003629207611 0.0020584859885275363922 -0.0061764623969793319702 -0.046892464160919189453 0.054028563201427459717 0.04113353043794631958 0.011171412654221057892 -0.0078080534003674983978 0.025256492197513580322 -0.0095381662249565124512 0.0097916061058640480042 -0.018492596223950386047 -0.015902135521173477173 0.042207010090351104736 -0.027652066200971603394 -0.027023922652006149292 -0.062762752175331115723 0.075889110565185546875 -0.014496038667857646942 -0.0071398895233869552612 0.030601687729358673096 0.066875927150249481201 -0.010053332895040512085 -0.069914668798446655273 0.013995654881000518799 0.0013477363390848040581 0.0023721193429082632065 0.0069602020084857940674 0.0033951068762689828873 0.013967202045023441315 -0.010771179571747779846 -0.0040724654681980609894 -0.010645943693816661835 0.016099413856863975525 -0.064307205379009246826 0.048016037791967391968 0.03224267810583114624 0.043800737708806991577 -0.044909186661243438721 0.0058530732057988643646 0.031645391136407852173 -0.011441442184150218964 -0.041014842689037322998 -0.022811308503150939941 0.0407102927565574646 -0.005578158888965845108 0.0020490207243710756302 -0.050533153116703033447 0.049680333584547042847 -0.015052672475576400757 -0.040240578353404998779 -0.0075631602667272090912 -0.0090838428586721420288 0.0050574555061757564545 0.013158141635358333588 0.023320073261857032776 -0.0059155956842005252838 -0.011718949303030967712 -0.025909522548317909241 -0.0010037753963842988014 0.007104277145117521286 -0.033150743693113327026 -0.018659347668290138245 -0.054092593491077423096 -0.011967985890805721283 0.0006889380747452378273 -0.014745082706212997437 -0.0099976966157555580139 -0.0001156841972260735929 -0.037318985909223556519 -0.024515928700566291809 0.05861239507794380188 0.0092123392969369888306 0.021433575078845024109 -0.015839952975511550903 0.030965199694037437439 -0.013375944457948207855 -0.029205912724137306213 -0.057565901428461074829 -0.022379638627171516418 0.021396039053797721863 -0.00053522549569606781006 0.048942755907773971558 -0.062502361834049224854 0.019132619723677635193 0.020148165524005889893 -0.028511162847280502319 -0.07877877354621887207 -0.069994919002056121826 -0.036137603223323822021 0.038979284465312957764 -0.033219445496797561646 0.044747743755578994751 -0.031004851683974266052 -0.00066772982245311141014 0.053239993751049041748 0.0040618451312184333801 -0.0085251098498702049255 -0.01556424703449010849 0.023245241492986679077 -0.0084954565390944480896 0.024508299306035041809 -0.00011865293345181271434 0.014689040370285511017 0.0059519950300455093384 -0.011120337992906570435 -0.016025092452764511108 0.011145655065774917603 0.023741558194160461426 -0.023403258994221687317 -0.033056456595659255981 -0.026907538995146751404 -0.020496070384979248047 0.029093930497765541077 0.029021922498941421509 -0.064891487360000610352 -0.050881173461675643921 -0.027684494853019714355 -0.077668674290180206299 0.0080689201131463050842 0.018463701009750366211 -0.012099401094019412994 -0.025077598169445991516 0.024305565282702445984 0.004277834668755531311 0.0063507407903671264648 -0.035784795880317687988 0.060466796159744262695 0.035456597805023193359 0.067776218056678771973 -0.029165994375944137573 0.020231341943144798279 0.0096791004762053489685 -0.0081379860639572143555 0.021231129765510559082 0.023971106857061386108 0.010795745998620986938 -0.032470211386680603027 -0.03027678467333316803 0.0042620361782610416412 0.011256669647991657257 0.024963635951280593872 0.043801654130220413208 0.043867677450180053711 -0.065524488687515258789 0.063011385500431060791 0.023590287193655967712 0.067875050008296966553 -0.04258885607123374939 0.019989505410194396973 0.0087193343788385391235 -0.0096128061413764953613 0.017708947882056236267 -0.061207547783851623535 0.016295397654175758362 0.025185458362102508545 0.024167692288756370544 0.021083964034914970398 0.028364595025777816772 -0.020743751898407936096 0.0095260087400674819946 0.021867105737328529358 0.019286073744297027588 -0.031179040670394897461 -0.008101811632513999939 0.043996434658765792847 0.016695864498615264893 -0.040309570729732513428 0.019513541832566261292 -0.12983924150466918945 -0.083675682544708251953 -0.15193872153759002686 -0.076641656458377838135 -0.087980128824710845947 0.032256979495286941528 -0.08241748809814453125 -0.078116744756698608398 

-0.017111565917730331421 0.014378913678228855133 -0.021429926156997680664 0.0022098389454185962677 0.033739387989044189453 -0.023145280778408050537 0.00065399683080613613129 -0.022331619635224342346 0.013003055006265640259 -0.011062357574701309204 0.079224959015846252441 -0.017623931169509887695 -0.081435330212116241455 0.028364671394228935242 0.010211636312305927277 0.030823174864053726196 -0.020952703431248664856 -0.016527427360415458679 -0.049111135303974151611 -0.01397629082202911377 -0.017201591283082962036 0.0055617853067815303802 0.068800643086433410645 -0.018253318965435028076 -0.027128171175718307495 0.011345092207193374634 -0.030454222112894058228 0.023169331252574920654 0.0014434017939493060112 -0.046740382909774780273 0.020680531859397888184 0.041153863072395324707 -0.016376705840229988098 -0.019450526684522628784 -0.0083364471793174743652 -0.0085111809894442558289 0.0093808714300394058228 -0.010427506640553474426 0.020269289612770080566 0.023214330896735191345 -0.068177372217178344727 0.027234898880124092102 -0.021958379074931144714 0.0041116764768958091736 -0.039601352065801620483 -0.00058542331680655479431 0.0021221095230430364609 -0.012523684650659561157 -0.021841377019882202148 -0.073516041040420532227 -0.00022695714142173528671 0.02198622189462184906 -0.00089841522276401519775 -0.0091089932247996330261 -0.024501247331500053406 -0.06096287071704864502 -0.047319311648607254028 0.037368785589933395386 -0.034563437104225158691 0.014365671202540397644 0.054887317121028900146 0.08687445521354675293 0.021518837660551071167 0.009577601216733455658 -0.0052923313342034816742 -0.05451323091983795166 -0.026559785008430480957 0.07698224484920501709 -0.026122450828552246094 0.0030186341609805822372 -0.02126781269907951355 0.015882197767496109009 0.013037333264946937561 -0.016269640997052192688 0.020482145249843597412 -0.00042941074934788048267 0.060140747576951980591 0.031588185578584671021 -0.015999279916286468506 0.0062775760889053344727 -0.017993047833442687988 -0.011478378437459468842 0.012769126333296298981 -0.0066770794801414012909 0.017069090157747268677 -0.061489440500736236572 -0.010982585139572620392 0.0073188119567930698395 0.0013842986663803458214 0.013925557956099510193 -0.041168786585330963135 0.0077153416350483894348 -0.018143987283110618591 0.0028962788637727499008 0.055247914046049118042 -0.020911779254674911499 -0.027661895379424095154 -0.0055412822403013706207 -0.02482385002076625824 -0.017870895564556121826 0.040568657219409942627 -0.0089646466076374053955 0.075781479477882385254 -0.098014257848262786865 0.036051250994205474854 -0.031023327261209487915 0.0023551371414214372635 0.017667155712842941284 -0.016869533807039260864 -0.026809234172105789185 -0.021767409518361091614 -0.033225350081920623779 0.060480203479528427124 -0.0090320622548460960388 0.0066303657367825508118 0.039063818752765655518 -0.017832769080996513367 0.035888869315385818481 -0.027501428499817848206 0.052626468241214752197 -0.00079812179319560527802 -0.00084393826546147465706 0.041993550956249237061 0.042226895689964294434 0.033942271023988723755 0.046747807413339614868 -0.025789415463805198669 0.0088330553844571113586 -0.0244425944983959198 0.029595561325550079346 0.017077155411243438721 0.019164426252245903015 -0.01961904577910900116 -0.0089961225166916847229 -0.0072037824429571628571 0.032504480332136154175 0.014030071906745433807 0.013281598687171936035 0.067795097827911376953 0.17053493857383728027 0.20846712589263916016 -0.01124783046543598175 0.087311692535877227783 0.025521703064441680908 -0.021620882675051689148 0.03131753578782081604 -0.0035866273101419210434 0.00090123986592516303062 0.012655421160161495209 0.0255402345210313797 0.016715573146939277649 -0.0026349786203354597092 0.0073081636801362037659 0.04706964641809463501 0.028709163889288902283 0.089008726179599761963 0.11717256903648376465 0.037988290190696716309 0.095049075782299041748 0.025759972631931304932 0.059622574597597122192 0.032148908823728561401 0.027378086000680923462 0.00098389375489205121994 -0.00010009815014200285077 0.12661525607109069824 -0.074525967240333557129 -0.058631107211112976074 -0.057811178267002105713 -0.057181678712368011475 -0.0058450335636734962463 -0.017876051366329193115 0.0052727209404110908508 -0.0043128086254000663757 0.017133042216300964355 0.028957029804587364197 0.017531631514430046082 -0.018534012138843536377 -0.012047040276229381561 0.0071751005016267299652 0.034039936959743499756 0.10460010915994644165 0.0180236082524061203 -0.026755297556519508362 -0.060034502297639846802 0.021604679524898529053 -0.048369575291872024536 -0.067230895161628723145 -0.056273579597473144531 -0.01391221117228269577 -0.020998608320951461792 0.018974894657731056213 0.028430411592125892639 0.00022931111743673682213 -0.04092572629451751709 0.023654870688915252686 -0.0014695015270262956619 0.012656326405704021454 -0.018227817490696907043 -0.062240645289421081543 0.046630714088678359985 -0.00048671252443455159664 0.16949550807476043701 0.015672681853175163269 0.021479146555066108704 -0.026379726827144622803 -5.6888795370468869805e-05 -0.16463880240917205811 -0.0144496159628033638 -0.34164825081825256348 0.010146580636501312256 0.061149507761001586914 0.090289242565631866455 -0.20163330435752868652 0.10281899571418762207 -0.27734592556953430176 0.017342522740364074707 -0.057733368128538131714 0.044346179813146591187 0.052756924182176589966 -0.024304483085870742798 0.04983839765191078186 0.040140360593795776367 -0.030953994020819664001 0.028843978419899940491 0.05267974361777305603 0.026420516893267631531 0.095017790794372558594 -0.051728866994380950928 -0.12870730459690093994 0.099017880856990814209 0.040772031992673873901 0.064131572842597961426 0.022917769849300384521 0.065591819584369659424 0.012202971614897251129 -0.023833023384213447571 -0.034651052206754684448 -0.024388944730162620544 0.01401311531662940979 -0.015886658802628517151 0.021895868703722953796 -0.022428283467888832092 -0.045388285070657730103 -0.055708207190036773682 -0.011023707687854766846 -0.050005588680505752563 0.017149690538644790649 0.026419524103403091431 -0.0054314825683832168579 -0.022392887622117996216 0.011576645076274871826 0.014346787706017494202 0.041832018643617630005 0.01870916411280632019 -0.0018641365459188818932 -0.0060291108675301074982 0.022281786426901817322 0.018022617325186729431 -0.089468896389007568359 -0.021080058068037033081 0.021784212440252304077 0.055865261703729629517 -0.022241070866584777832 -0.081417046487331390381 -0.058526184409856796265 0.017344798892736434937 -0.01245030667632818222 0.051322821527719497681 -0.018273299559950828552 0.0022297725081443786621 0.0092834103852510452271 0.011124315671622753143 0.022597555071115493774 0.041923657059669494629 0.027985258027911186218 -0.050537973642349243164 -0.055486783385276794434 -0.062999077141284942627 -0.054211873561143875122 -0.00096622150158509612083 0.013896905817091464996 0.0081054568290710449219 0.014558168128132820129 -0.0012840462150052189827 -0.017148260027170181274 0.001370813930407166481 -0.014585633762180805206 0.043680533766746520996 0.0085635492578148841858 -0.037291143089532852173 0.011081764474511146545 0.035396795719861984253 0.0037654202897101640701 0.0012657557381317019463 0.020472887903451919556 -0.030006343498826026917 0.0051299878396093845367 0.011676223017275333405 -0.0050303647294640541077 0.015233329497277736664 -0.071893453598022460938 0.019099764525890350342 0.017098983749747276306 -0.012906098738312721252 0.010289063677191734314 0.0093735838308930397034 -0.021833332255482673645 -0.0098352283239364624023 0.02223807014524936676 0.042474236339330673218 -0.037322159856557846069 -0.00077511882409453392029 -0.0098258880898356437683 -0.0033492480870336294174 -0.036894340068101882935 -0.022236483171582221985 -0.02091857418417930603 -0.010775548405945301056 0.020743640139698982239 -0.039985049515962600708 -0.0088852783665060997009 -0.039766944944858551025 -0.023175761103630065918 0.068599283695220947266 -0.015976265072822570801 -0.0088763674721121788025 0.055517636239528656006 -0.053581409156322479248 -0.052425995469093322754 0.031578399240970611572 -0.0024594878777861595154 0.0015659071505069732666 -0.013148409314453601837 0.032340969890356063843 -0.014443066902458667755 0.0091164484620094299316 -0.078350782394409179688 -0.018230155110359191895 -0.0049716630019247531891 0.02593217603862285614 0.017179520800709724426 -0.10286188125610351562 0.034409448504447937012 -0.051640693098306655884 0.0022911969572305679321 -0.018030473962426185608 -0.069133065640926361084 -0.058480199426412582397 -0.007555906195193529129 -0.056073408573865890503 -0.017955709248781204224 -0.004164274316281080246 0.033547692000865936279 0.022864136844873428345 -0.0063502597622573375702 0.0071956617757678031921 -0.0026611820794641971588 -0.0081003280356526374817 -0.0085860937833786010742 -0.0026084140408784151077 -0.11343403160572052002 -0.028411809355020523071 -0.036709044128656387329 -0.058580059558153152466 -0.02695554681122303009 -0.030662413686513900757 0.16344951093196868896 -0.042145509272813796997 -0.013515377417206764221 -0.024921152740716934204 0.011314932256937026978 -0.029689531773328781128 -0.0095842201262712478638 -0.016218889504671096802 -0.0041960738599300384521 -0.022597368806600570679 -0.017150247469544410706 0.014585628174245357513 0.016481744125485420227 0.023966880515217781067 -0.079157166182994842529 -6.5053965954575687647e-05 -0.0051532429642975330353 0.010795910842716693878 -0.017703881487250328064 -0.021120119839906692505 0.0067025292664766311646 0.057023100554943084717 -0.026920659467577934265 0.048649694770574569702 -0.14292275905609130859 0.020837552845478057861 0.010399279184639453888 -0.032894421368837356567 0.036200188100337982178 0.0024322269018739461899 0.0069829807616770267487 -0.022481864318251609802 -0.022125005722045898438 0.012206542305648326874 -0.02076625823974609375 0.018704660236835479736 0.0072958911769092082977 0.012605251744389533997 -0.037041813135147094727 0.003917629830539226532 -0.075939036905765533447 -0.049516681581735610962 0.045272395014762878418 -0.024305075407028198242 -0.039926540106534957886 -0.022646507248282432556 -0.072397321462631225586 0.014191740192472934723 -0.027585469186305999756 0.011600365862250328064 0.051786679774522781372 0.0646610260009765625 0.033950973302125930786 0.011331190355122089386 -0.025299185886979103088 0.040265440940856933594 0.023036865517497062683 -0.0041075358167290687561 -0.016373753547668457031 -0.0050470232963562011719 -0.017049813643097877502 -0.036235693842172622681 0.0098698828369379043579 -0.0022416878491640090942 0.032238122075796127319 -0.010871354490518569946 -0.0090422136709094047546 0.0091722514480352401733 0.0085023799911141395569 0.052964851260185241699 -0.016573851928114891052 0.0085674859583377838135 -0.0041532074101269245148 0.00600366201251745224 0.024655370041728019714 0.019786400720477104187 -0.027147492393851280212 -0.081124283373355865479 0.012243460863828659058 -0.06199595332145690918 -0.00077914301073178648949 0.050695881247520446777 -0.0032346262596547603607 0.01024944894015789032 -0.019331725314259529114 -0.031282555311918258667 -0.022559981793165206909 0.064668990671634674072 -0.019446717575192451477 -0.053896270692348480225 -0.037882793694734573364 -0.019039899110794067383 -0.029166648164391517639 -0.0087666790932416915894 0.037139941006898880005 0.052552785724401473999 -0.058846313506364822388 -0.034800190478563308716 0.0011846412671729922295 -0.019895667210221290588 0.037167456001043319702 -0.0032806955277919769287 -0.0058206617832183837891 0.025107629597187042236 0.043348573148250579834 0.040621928870677947998 0.034430466592311859131 0.015532664023339748383 0.017469549551606178284 0.030005061998963356018 -0.15756878256797790527 -0.032037012279033660889 -0.13472412526607513428 -0.11887721717357635498 0.0080190813168883323669 0.0049276812933385372162 -0.077834174036979675293 -0.024481836706399917603 -0.026612218469381332397 -0.026274351403117179871 0.033227115869522094727 -0.014779040589928627014 -0.025362163782119750977 0.075775928795337677002 -0.025494540110230445862 -0.011462398804724216461 -0.04388920217752456665 0.022144855931401252747 0.029389491304755210876 0.0028453583363443613052 0.02358670160174369812 0.0070716636255383491516 0.037098649889230728149 0.001327018137089908123 -0.016781000420451164246 -0.012519998475909233093 0.0056258635595440864563 -0.044358208775520324707 -0.025417212396860122681 0.033139891922473907471 -0.15033893287181854248 0.016795424744486808777 0.10692203789949417114 -0.015684716403484344482 0.0095804557204246520996 0.0085717029869556427002 -0.065035894513130187988 0.036062661558389663696 -0.02288302592933177948 0.016934849321842193604 -0.0063426648266613483429 0.041583579033613204956 0.01444008946418762207 -0.013344772160053253174 -0.016043700277805328369 -0.0098678292706608772278 -0.0099986800923943519592 0.0051351250149309635162 0.0017628001514822244644 0.0044913301244378089905 0.053208459168672561646 0.011463672854006290436 -0.016181355342268943787 -0.012211289256811141968 0.016671519726514816284 -0.017989894375205039978 0.0078089679591357707977 0.02277057059109210968 0.011418597772717475891 0.03449675440788269043 -0.047530930489301681519 -0.019325021654367446899 0.00027837586821988224983 0.0040783602744340896606 -0.046964779496192932129 0.022110853344202041626 -0.018437393009662628174 0.043908849358558654785 -0.036627355962991714478 -0.0092357201501727104187 0.0083455443382263183594 0.0023439044598489999771 0.14164172112941741943 0.0098055461421608924866 0.050004929304122924805 0.077541820704936981201 -0.19391100108623504639 0.023670243099331855774 0.073743514716625213623 0.089717380702495574951 0.02867430076003074646 -0.02102610468864440918 -0.039767388254404067993 0.014375411905348300934 0.067162811756134033203 0.011065094731748104095 -0.040284939110279083252 0.0061424332670867443085 -0.0025365061592310667038 -0.015416773036122322083 0.015182796865701675415 -0.016916899010539054871 0.0023699274752289056778 -0.00052299158414825797081 -0.1540825963020324707 -0.0032405115198343992233 0.048761833459138870239 -0.029742881655693054199 0.033552668988704681396 0.013505295850336551666 -0.016636852174997329712 0.014376468025147914886 -0.0080035990104079246521 0.058533243834972381592 -0.037499867379665374756 -0.028560493141412734985 -0.0207482948899269104 0.012571615166962146759 -0.025994371622800827026 0.045505654066801071167 0.00717431679368019104 -0.01976694352924823761 -0.075332671403884887695 -0.03686609119176864624 0.012041758745908737183 0.0076627144590020179749 -0.0074743274599313735962 -0.033852458000183105469 -0.031347706913948059082 0.017117142677307128906 0.020367411896586418152 -0.050648815929889678955 0.0239877309650182724 0.038505814969539642334 0.064323820173740386963 0.03850234299898147583 -0.0084488475695252418518 0.017029443755745887756 0.022269222885370254517 -0.0060514593496918678284 -0.028369329869747161865 -0.040691927075386047363 0.0098166335374116897583 0.065059080719947814941 -0.01114585530012845993 0.02235249057412147522 -0.083087205886840820312 0.029636545106768608093 -0.015420170500874519348 0.10012893378734588623 -0.011209486052393913269 -0.0056618652306497097015 -0.0070976954884827136993 -0.0030233773868530988693 -0.046638339757919311523 0.020301591604948043823 -0.049836285412311553955 -0.0019913131836801767349 0.14472809433937072754 0.024194663390517234802 -0.027103681117296218872 0.045537941157817840576 -0.049295987933874130249 -0.015828896313905715942 0.010315358638763427734 -0.030932022258639335632 0.017060091719031333923 0.074756294488906860352 0.018839051946997642517 -0.041527763009071350098 0.027069794014096260071 -0.045266486704349517822 -0.11750103533267974854 0.072033345699310302734 -0.18663465976715087891 0.04898645356297492981 0.15535122156143188477 0.02811577916145324707 -0.042389448732137680054 0.13956910371780395508 -0.022725971415638923645 -0.018482804298400878906 -0.031118711456656455994 0.012013224884867668152 0.025206334888935089111 0.023090792819857597351 0.050630599260330200195 -0.59555906057357788086 -0.52781355381011962891 -0.27465733885765075684 0.040950592607259750366 -0.0057297861203551292419 0.024838548153638839722 0.015727277845144271851 -0.05165732651948928833 0.010102983564138412476 0.035107523202896118164 0.01801327243447303772 0.015732187777757644653 -0.030993264168500900269 -0.036488998681306838989 0.0094037847593426704407 -0.016621533781290054321 0.046676214784383773804 -0.060800928622484207153 0.0021880238782614469528 0.0091609628871083259583 0.017342807725071907043 0.049214262515306472778 -0.022130114957690238953 -0.044587969779968261719 0.094816274940967559814 0.019232094287872314453 -0.088893480598926544189 -0.049891259521245956421 0.045921698212623596191 -0.013598556630313396454 0.0081013981252908706665 0.048471108078956604004 0.039184466004371643066 0.03233814239501953125 -0.0087437164038419723511 -0.010271400213241577148 0.086675442755222320557 0.0033889927435666322708 0.054834935814142227173 -0.060868795961141586304 -0.017443573102355003357 -0.013623797334730625153 -0.065503358840942382812 -0.014689436182379722595 0.15238635241985321045 -0.046993728727102279663 0.048097956925630569458 0.048587851226329803467 -0.044390112161636352539 -0.0061477082781493663788 -0.01825143769383430481 0.025172516703605651855 -0.0015387934399768710136 0.0087545169517397880554 -0.033339288085699081421 -0.029000647366046905518 -0.066505707800388336182 -0.036058969795703887939 0.0029852529987692832947 -0.067251987755298614502 -0.041802775114774703979 0.14099279046058654785 -0.039541222155094146729 -0.051944155246019363403 -0.0037789333146065473557 -0.088754333555698394775 0.010067913681268692017 -0.013630998320877552032 0.046833772212266921997 -0.01819988153874874115 -0.025185979902744293213 0.026088586077094078064 -0.099897220730781555176 -0.038420166820287704468 -0.012067750096321105957 -0.089813344180583953857 0.038564704358577728271 -0.036766689270734786987 0.0083539886400103569031 -0.025617355480790138245 -0.083449780941009521484 -0.061323378235101699829 -0.0084447273984551429749 -0.042522832751274108887 0.0373192615807056427 -0.00050782732432708144188 0.017893131822347640991 0.0088272616267204284668 0.0021278818603605031967 0.0088064651936292648315 0.015335716307163238525 0.0060404837131500244141 -0.037914697080850601196 0.031098013743758201599 -0.024231489747762680054 0.07860705256462097168 0.030061908066272735596 -0.063261464238166809082 0.020530717447400093079 0.031923338770866394043 0.025871912017464637756 0.021942483261227607727 -0.015302032232284545898 -0.0090127643197774887085 -0.015537044033408164978 0.041310511529445648193 0.05889250338077545166 0.01456730719655752182 -0.064851745963096618652 0.01792600192129611969 -0.0042040171101689338684 -0.04242517426609992981 -0.023794420063495635986 -0.04396872594952583313 0.031833894550800323486 0.054161563515663146973 -0.037328299134969711304 -0.070910751819610595703 -0.046720042824745178223 -0.051352635025978088379 -0.050697010010480880737 0.014352843165397644043 -0.053052868694067001343 -0.0079025570303201675415 0.024118026718497276306 0.0075930817984044551849 -0.0077963084913790225983 -0.00019038650498259812593 -0.016246065497398376465 -0.0020509685855358839035 0.0066855307668447494507 0.012817664071917533875 -0.0010865604272112250328 -0.0022017995361238718033 0.0017596359830349683762 -0.00071149127325043082237 0.016488811001181602478 -0.021997021511197090149 0.020468359813094139099 0.0047435732558369636536 -0.021740190684795379639 -0.007638422306627035141 0.01857409253716468811 0.020783983170986175537 0.008476407267153263092 0.029846521094441413879 0.012141978368163108826 -0.010527956299483776093 -0.01895418018102645874 0.0097344480454921722412 -0.014525711536407470703 0.023397045210003852844 -0.057392425835132598877 -0.082578770816326141357 -0.0032537213992327451706 -0.041069429367780685425 0.0034658708609640598297 0.0025419858284294605255 -0.01731119304895401001 -0.0053695696406066417694 -0.0014924142742529511452 -0.0070239100605249404907 -0.009429931640625 -0.020106986165046691895 -0.00061398977413773536682 0.014080632477998733521 0.013569975271821022034 -0.012060292065143585205 -0.020070159807801246643 -0.02289468422532081604 -0.0033368151634931564331 -0.012940932996571063995 -0.013662402518093585968 0.0049073225818574428558 -0.051893237978219985962 -0.024947764351963996887 0.073291614651679992676 -0.077441863715648651123 0.015838772058486938477 0.16174881160259246826 0.0094802360981702804565 -0.0054068192839622497559 -0.062359701842069625854 0.031530007719993591309 -0.012025984935462474823 0.032911863178014755249 0.023257987573742866516 -0.02181393839418888092 -0.029845092445611953735 -0.020074067637324333191 0.056595195084810256958 -0.045241426676511764526 -0.0072475811466574668884 -0.014985495246946811676 -0.028045795857906341553 -0.021089740097522735596 0.022232605144381523132 0.0038113999180495738983 -0.0071173612959682941437 0.0068772756494581699371 0.0086722197011113166809 -2.7879550543730147183e-05 0.031827028840780258179 -0.02946775779128074646 0.0025028709787875413895 -0.072034336626529693604 -0.010690483264625072479 -0.046981565654277801514 -0.014702017419040203094 -0.0074425470083951950073 

