0.098317421972751617432 0.0094911577180027961731 0.14326606690883636475 -0.027576200664043426514 -0.0058720135129988193512 0.076641231775283813477 0.027344537898898124695 0.056244608014822006226 -0.040491603314876556396 0.052764758467674255371 -0.071502648293972015381 -0.080510780215263366699 -0.063154652714729309082 0.0077695786021649837494 0.02172590792179107666 -0.050225708633661270142 -0.31991064548492431641 -0.067897267639636993408 -0.011137434281408786774 0.0063468720763921737671 -0.079731479287147521973 0.031661588698625564575 0.0040187630802392959595 0.024500723928213119507 0.064261488616466522217 -0.0050693098455667495728 0.029933337122201919556 -0.15303964912891387939 -0.013364879414439201355 0.0184449758380651474 0.037096749991178512573 -0.083007514476776123047 0.015706522390246391296 0.032146234065294265747 0.012838357128202915192 -0.11832897365093231201 -0.31330621242523193359 -0.035461749881505966187 -0.64872455596923828125 -0.092984758317470550537 -0.09411144256591796875 0.1061849743127822876 0.036952983587980270386 -0.0078827952966094017029 -0.040637314319610595703 0.00016246236918959766626 0.00028767209732905030251 -0.068122677505016326904 -0.021352231502532958984 -0.06275603175163269043 -0.035386301577091217041 -0.033363424241542816162 0.054638192057609558105 0.16107107698917388916 -0.23778054118156433105 0.094672195613384246826 -0.14643928408622741699 -0.079895131289958953857 -0.034956820309162139893 -0.091652065515518188477 0.034343257546424865723 0.058960042893886566162 -0.031232489272952079773 0.02435639500617980957 