-0.043991170823574066162 -0.011276306584477424622 -0.0046017891727387905121 0.032401267439126968384 -0.020103113725781440735 0.010386275127530097961 -0.013835182413458824158 0.025000782683491706848 -0.089101165533065795898 0.051312275230884552002 0.0048655271530151367188 0.032595407217741012573 0.015708681195974349976 -0.020094756036996841431 -0.013990652747452259064 0.019243672490119934082 -0.13510689139366149902 -0.028141291812062263489 0.02636891975998878479 -0.037104070186614990234 0.042618189007043838501 -0.054603200405836105347 0.03795520588755607605 0.015223922207951545715 -0.058769438415765762329 0.038714054971933364868 -0.0543613433837890625 0.005671988707035779953 -0.020154239609837532043 -0.0095807146281003952026 -0.011922947131097316742 -0.057104397565126419067 0.01137492060661315918 -0.023168994113802909851 -0.0023450599983334541321 -0.049567703157663345337 -0.084475830197334289551 0.01127128303050994873 0.037136394530534744263 -0.051154479384422302246 -0.039873968809843063354 -0.028724821284413337708 0.018385628238320350647 0.046101700514554977417 -0.022935511544346809387 -0.053775470703840255737 -0.042190633714199066162 -0.013987668789923191071 -0.17507150769233703613 -0.012881419621407985687 0.030678620561957359314 0.067848883569240570068 0.090604901313781738281 0.010211620479822158813 -0.16449174284934997559 -0.068094126880168914795 -0.002697424963116645813 0.01122508663684129715 -0.020132452249526977539 -0.32090619206428527832 -0.0025456005241721868515 -0.021622858941555023193 -0.028469696640968322754 -0.029985586181282997131 0.00091032404452562332153 -0.0025114021264016628265 -0.00029191421344876289368 0.005254140123724937439 0.0044541400857269763947 -0.037017598748207092285 -0.050465140491724014282 -0.050673149526119232178 -0.00088328623678535223007 -0.08823665231466293335 -0.15705797076225280762 -0.054386686533689498901 0.057268362492322921753 0.0017905194545164704323 0.0042963139712810516357 0.03896824270486831665 0.094248823821544647217 -0.018243448808789253235 0.037844225764274597168 -0.0088281370699405670166 0.11306994408369064331 -0.18109841644763946533 0.16792501509189605713 -0.028858089819550514221 -0.24061045050621032715 -0.012441252358257770538 -0.16003444790840148926 0.034641180187463760376 -0.0037383735179901123047 0.047758389264345169067 0.063253179192543029785 0.19293044507503509521 