0.02319859527051448822 0.017471285536885261536 0.017828192561864852905 0.010158416815102100372 -0.00099786557257175445557 -0.028095278888940811157 -0.0015603028004989027977 -0.030763084068894386292 -0.01572756841778755188 0.0019986510742455720901 -0.021546943113207817078 -0.010571110993623733521 0.013096563518047332764 0.0098433168604969978333 0.0029559975955635309219 0.0023637432605028152466 -0.0066737174056470394135 0.0022923497017472982407 -0.0086973020806908607483 -0.00097072636708617210388 -0.028558515012264251709 0.0055807875469326972961 0.030493449419736862183 -0.0071500265039503574371 -0.0052509363740682601929 0.013225296512246131897 -0.0020270675886422395706 0.002158498857170343399 0.0080799590796232223511 -0.0021555630955845117569 -0.0025189442094415426254 -0.0003963066847063601017 -0.012150063179433345795 0.0028364344034343957901 0.0053678536787629127502 -0.0036120670847594738007 -0.0032471115700900554657 0.01442015916109085083 -0.0017925247084349393845 0.013880285434424877167 0.044974438846111297607 0.010563272051513195038 -0.0032112058252096176147 0.0094932829961180686951 -0.0041384920477867126465 0.00027237698668614029884 -0.016883896663784980774 -0.0079492870718240737915 0.013021206483244895935 0.013579443097114562988 -0.0048721870407462120056 0.0023702315520495176315 0.0060006552375853061676 -0.0037418138235807418823 0.0087677240371704101562 -0.0086444756016135215759 0.0042194589041173458099 -0.0092564243823289871216 -0.031002696603536605835 -0.007058152463287115097 0.0081606516614556312561 -0.0087653500959277153015 0.00607075495645403862 0.004206961020827293396 0.0061160968616604804993 0.0041258563287556171417 0.016081118956208229065 -0.051703080534934997559 0.0087350150570273399353 0.0033439346589148044586 0.011304802261292934418 0.001879768911749124527 0.00098895095288753509521 -0.0014725009677931666374 0.0025427311193197965622 0.0044213100336492061615 -0.0013214312493801116943 -0.0019347902853041887283 -0.0012132456758990883827 -0.00197729538194835186 0.00017783982912078499794 -0.0076150242239236831665 -0.00013665453298017382622 -0.0055802748538553714752 -0.010377769358456134796 0.037184860557317733765 0.0063754403963685035706 -0.0076026706956326961517 0.00020182518346700817347 -0.00060592062072828412056 -0.00089072971604764461517 0.014399015344679355621 -0.0022812427487224340439 0.003584377700462937355 0.01712604425847530365 -0.020921060815453529358 -0.00092584121739491820335 -0.001247718464583158493 -0.01031660567969083786 0.0024105687625706195831 0.0037518534809350967407 -0.0013133764732629060745 0.0012635160237550735474 -0.0034342748112976551056 -0.0051867789588868618011 0.0021702009253203868866 -0.0033562642056494951248 -0.0016784286126494407654 -0.023152425885200500488 -0.034324973821640014648 -0.016532465815544128418 -0.010520553216338157654 0.041214480996131896973 0.0017811893485486507416 0.0027956999838352203369 0.042308952659368515015 0.010098694823682308197 0.000928056368138641119 0.024055942893028259277 -0.0039003298152238130569 -0.014464342035353183746 0.085307136178016662598 0.016466703265905380249 -0.038711588829755783081 -0.060584805905818939209 -0.0087664788588881492615 0.027473716065287590027 0.058571279048919677734 0.02425904199481010437 0.033258881419897079468 0.076483525335788726807 0.037673935294151306152 0.0073477118276059627533 0.064260497689247131348 0.040247131139039993286 0.0035165671724826097488 -0.0042751342989504337311 0.00085079629207029938698 -0.0024465911556035280228 -0.0064774230122566223145 -0.0032654581591486930847 0.004601566120982170105 0.00026447282289154827595 0.0043361131101846694946 -0.014577147550880908966 -0.0088843936100602149963 0.013906650245189666748 -0.042146086692810058594 -0.0077970474958419799805 0.032533586025238037109 -0.014087865129113197327 0.0066686840727925300598 0.025128602981567382812 -0.010329939424991607666 -0.014470078051090240479 0.00031272316118702292442 -0.0014805262908339500427 -0.0061268941499292850494 0.0026365390513092279434 0.0034785200841724872589 0.012101736851036548615 0.015579943545162677765 -0.0019612805917859077454 -0.0025620840024203062057 -0.014683524146676063538 0.015684068202972412109 0.0030094003304839134216 -0.020194804295897483826 0.011471593752503395081 0.0088468845933675765991 0.0006255917833186686039 0.004501124843955039978 0.0052857692353427410126 -0.02025302499532699585 -0.016649106517434120178 0.032211329787969589233 0.0046029146760702133179 -0.0086593125015497207642 0.0063432352617383003235 -0.0075677237473428249359 0.0021642958745360374451 0.0027096718549728393555 0.0022257477976381778717 0.00092231691814959049225 -0.0054832533933222293854 0.00024360678798984736204 0.0005480927065946161747 -0.0058765136636793613434 -0.00099072221200913190842 -0.0030228060204535722733 0.00030731523293070495129 -0.00047556197387166321278 -0.0078647211194038391113 -0.012906433083117008209 -0.0017645335756242275238 0.00047526153502985835075 0.012264928780496120453 0.0025106950197368860245 0.0015930074732750654221 0.0015668250853195786476 -0.0042672115378081798553 -0.0013625619467347860336 0.025352606549859046936 0.011262880638241767883 -0.010021770372986793518 -0.020899612456560134888 -0.0029253521934151649475 -0.016999894753098487854 -0.023680834099650382996 -0.0086696119979023933411 0.033989161252975463867 0.044797621667385101318 -0.0080126589164137840271 0.046075675636529922485 -0.04679549485445022583 -0.020960014313459396362 0.013242307119071483612 0.011878138408064842224 0.0035492300521582365036 -0.0029499314259737730026 -0.052226722240447998047 -0.0068681258708238601685 0.0061299018561840057373 0.017827643081545829773 0.0069247460924088954926 0.00012338148371782153845 -0.017589425668120384216 -0.0067222202196717262268 -0.0076942769810557365417 0.056184597313404083252 -0.0060341595672070980072 -0.013132264837622642517 0.0016852446133270859718 -0.0070345699787139892578 -0.0055315983481705188751 0.00029600114794448018074 0.01348631642758846283 -0.0094688339158892631531 -0.00045696616871282458305 0.024583172053098678589 -0.0096552344039082527161 -0.0099266506731510162354 0.0061880629509687423706 -0.0045061348937451839447 -0.0026398389600217342377 -0.015184463001787662506 -0.013756541535258293152 0.034347109496593475342 -0.027958700433373451233 -0.016326081007719039917 0.046084415167570114136 -0.0040034782141447067261 0.00030175855499692261219 0.012129947543144226074 0.011928574182093143463 -0.00073750590672716498375 -0.0016630635363981127739 0.0044710566289722919464 -0.0063060424290597438812 -0.017783202230930328369 -0.0016944268718361854553 -0.027955910190939903259 -0.0014769255649298429489 -0.0031812242232263088226 -0.02269665151834487915 0.053607616573572158813 0.0034588596317917108536 -0.003428041236475110054 0.0078321276232600212097 -0.0082517499104142189026 0.01218954380601644516 0.012065991759300231934 -0.0032771157566457986832 0.010854617692530155182 0.0012168982066214084625 -0.01734350249171257019 0.0049795755185186862946 -0.015022874809801578522 -0.006634656805545091629 0.00046527298400178551674 -0.00380847160704433918 0.0031941169872879981995 -2.2620881736656883731e-06 0.0019984634127467870712 -0.00060831388691440224648 -0.0017326249508187174797 0.02835676632821559906 -0.0064559974707663059235 

-0.019701687619090080261 -0.026658440008759498596 0.014289515092968940735 -0.0044770445674657821655 0.040086943656206130981 0.02731212228536605835 -0.010800674557685852051 -0.04036626964807510376 0.010193857364356517792 0.01482678484171628952 0.084959812462329864502 0.0072467294521629810333 -0.077205270528793334961 -0.013432566076517105103 -0.0082523068413138389587 -0.01541932765394449234 -0.0063929995521903038025 -0.00093693134840577840805 -0.010238584131002426147 -0.030489969998598098755 -0.0092883575707674026489 0.0076704956591129302979 0.026437630876898765564 -0.0055881687439978122711 0.0018374434439465403557 0.022102501243352890015 -0.0052785449661314487457 -0.018993128091096878052 0.0010019621113315224648 0.017374970018863677979 -0.032127279788255691528 -0.00010627230949467048049 0.023396162316203117371 -0.017466548830270767212 0.0001218814140884205699 0.018882522359490394592 0.00028000390739180147648 -5.3858846513321623206e-05 -0.0008566249161958694458 0.0027119398582726716995 0.0021935396362096071243 -0.00011921735858777537942 0.0031833795364946126938 -0.001426380593329668045 0.00063565484015271067619 -0.00073598400922492146492 -0.018108421936631202698 -0.009146170690655708313 0.014622638002038002014 0.014736317098140716553 -0.0042560352012515068054 0.0024070874787867069244 0.0069992505013942718506 -0.0028981657233089208603 0.0069743874482810497284 -0.0051378780044615268707 0.0022339655552059412003 -0.0094221336767077445984 -0.026590310037136077881 -0.0076617184095084667206 0.0070140394382178783417 -0.0066378014162182807922 0.0057072313502430915833 0.0031655938364565372467 0.0065586641430854797363 0.0045861457474529743195 0.017268968746066093445 -0.054214209318161010742 0.0099927373230457305908 0.0034817529376596212387 0.010639312677085399628 0.0018451986834406852722 0.0018416561651974916458 -0.0041120527312159538269 -0.0020029600709676742554 0.0086767328903079032898 0.0017807747935876250267 -0.0017827474512159824371 0.0027635484002530574799 -0.0027388015296310186386 -0.0041197682730853557587 -0.0066728577949106693268 0.010967074893414974213 -0.0045643127523362636566 -0.014605995267629623413 0.039505291730165481567 -0.0027305549010634422302 -0.0085792317986488342285 0.0011265660868957638741 -0.0070698847994208335876 -0.0010485888924449682236 0.014877894893288612366 -0.0028907586820423603058 0.0039376439526677131653 0.017983185127377510071 -0.018861550837755203247 -0.0011613386450335383415 -0.0014647694770246744156 -0.010861190035939216614 0.0033821016550064086914 0.0037353215739130973816 -0.0026323699858039617538 0.0045890971086919307709 -0.0075530633330345153809 -0.002295261947438120842 0.0033776231575757265091 -0.0041046631522476673126 -0.0050578126683831214905 0.0025313131045550107956 0.0065657417289912700653 -0.00060208910144865512848 0.0028975042514503002167 -0.006853593047708272934 -0.0062107779085636138916 0.00036559381987899541855 -0.0022048531100153923035 -0.00060283415950834751129 0.006516272667795419693 -0.014680119231343269348 -0.0041084517724812030792 0.007009258028119802475 -0.017642615363001823425 -0.014175299555063247681 0.02745548635721206665 -0.0065720374695956707001 0.0098411887884140014648 -0.015339460223913192749 0.023849850520491600037 -0.022335954010486602783 0.027156434953212738037 0.017917985096573829651 -0.014574149623513221741 -0.017497431486845016479 -0.027207851409912109375 0.027937611564993858337 -8.9131726781488396227e-06 0.0089257946237921714783 -0.00017478631343692541122 0.0071220993995666503906 0.029822960495948791504 0.0064887483604252338409 -0.0018633732106536626816 0.0077532390132546424866 -0.00079738523345440626144 0.004507847130298614502 0.0033712813165038824081 -0.0034178430214524269104 -0.011109178885817527771 -0.0023397188633680343628 -0.002028840361163020134 0.0018674890743568539619 0.0021656046155840158463 0.0042293458245694637299 -0.01117754913866519928 -0.01464086584746837616 -0.0013256337260827422142 -0.0017363936640322208405 -0.0038683521561324596405 0.0027280352078378200531 0.0037528926040977239609 0.012920479290187358856 0.013694321736693382263 -0.002219842979684472084 -0.0027924105525016784668 -0.012096696533262729645 0.013297045603394508362 0.001043610740453004837 -0.018582364544272422791 0.010874082334339618683 0.0085663935169577598572 0.0026545044966042041779 0.035661902278661727905 0.071958899497985839844 -0.0054620155133306980133 0.031692203134298324585 0.1337810903787612915 0.029856653884053230286 0.019451286643743515015 0.036895878612995147705 0.017050441354513168335 -0.018793659284710884094 -0.037513934075832366943 -0.011295241303741931915 -0.019538905471563339233 0.039680261164903640747 0.0091856010258197784424 -0.00055043265456333756447 0.038774881511926651001 0.012642727233469486237 -0.011261539533734321594 0.014267652295529842377 0.00086612434824928641319 -0.04326960444450378418 -0.041431453078985214233 -0.011393173597753047943 -0.01435576658695936203 0.0282334107905626297 0.0085047343745827674866 0.0013287352630868554115 0.0021817369852215051651 -0.0042366869747638702393 -0.0012790007749572396278 0.025974486023187637329 0.01123254094272851944 -0.01046715863049030304 -0.022058904170989990234 -0.0027140681631863117218 -0.013815798796713352203 -0.022477976977825164795 -0.0066323550418019294739 -0.0002182522148359566927 0.056185111403465270996 0.01351236831396818161 4.8224079364445060492e-05 -0.012735224328935146332 -0.014751644805073738098 0.011154497973620891571 0.0070627480745315551758 0.0037447072099894285202 -0.002983143320307135582 -0.048608154058456420898 -0.00052277278155088424683 0.011525886133313179016 0.012524417601525783539 0.005842860788106918335 0.0072543378919363021851 -0.012431812472641468048 -0.011894016526639461517 -0.0055405818857252597809 0.021439835429191589355 0.010716571472585201263 -0.010131815448403358459 0.01832508482038974762 -0.017810832709074020386 -0.0038389205001294612885 -0.0018241966608911752701 0.013352218084037303925 -0.0062721916474401950836 -0.0038695689290761947632 0.018765784800052642822 -0.0063702468760311603546 -0.0064344150014221668243 0.004997849930077791214 0.020325928926467895508 0.010666470043361186981 0.024865973740816116333 0.013825156725943088531 0.0013801048044115304947 -0.0062223495915532112122 -0.013767249882221221924 -0.040161706507205963135 -0.010081783868372440338 0.0010176199721172451973 0.012595200911164283752 0.011713162995874881744 0.00092509452952072024345 -0.0012344476999714970589 0.0034963574726134538651 -0.0076647591777145862579 -0.018998611718416213989 -0.0013299356214702129364 -0.028566958382725715637 -0.00039633800042793154716 -0.0033574448898434638977 -0.02161448262631893158 0.048495892435312271118 0.0046929395757615566254 -0.0049347025342285633087 0.0097162481397390365601 -0.0063229394145309925079 0.015439599752426147461 0.016853265464305877686 -0.0057225199416279792786 0.017789443954825401306 -0.0037927762605249881744 -0.023828875273466110229 0.0010912758298218250275 -0.0071494262665510177612 -0.012187482789158821106 -0.0057390131987631320953 0.015510153956711292267 -0.010788895189762115479 -0.0034818751737475395203 0.00050827889936044812202 -0.0042602769099175930023 0.0017045042477548122406 0.069354049861431121826 0.0086352229118347167969 

-0.009139212779700756073 0.00024347902217414230108 -0.040767952799797058105 0.0088489986956119537354 0.09073222428560256958 -0.022709462791681289673 -0.0081894099712371826172 -0.015381188131868839264 -0.0040951035916805267334 -0.0086980350315570831299 -0.0084719313308596611023 -0.012192133814096450806 0.035766553133726119995 -0.021554958075284957886 0.0073071164079010486603 0.012598350644111633301 -0.0069562448188662528992 -0.00054519512923434376717 0.013202974572777748108 0.050169344991445541382 0.061264295130968093872 -0.015145118348300457001 -0.095024064183235168457 0.014183601364493370056 -0.0077210473828017711639 -0.021118817850947380066 -0.0097127612680196762085 -0.0027739757206290960312 0.0020409093704074621201 0.0027789229061454534531 -0.0098306797444820404053 0.0017830671276897192001 0.0039106453768908977509 -0.0041627422906458377838 0.0026490695308893918991 0.0021091294474899768829 0.00265065743587911129 0.0018129977397620677948 1.126547522289911285e-05 0.0017433929024264216423 -0.0023015700280666351318 -0.00055099162273108959198 0.0024148738011717796326 -0.0020089708268642425537 0.0010655455989763140678 -0.00072652043309062719345 -0.017932411283254623413 -0.0090371444821357727051 0.01430492941290140152 0.014559989795088768005 -0.0039494782686233520508 0.0021020623389631509781 0.006611800752580165863 -0.002255086088553071022 0.007199255283921957016 -0.0054958877153694629669 0.0036739343777298927307 -0.010088535025715827942 -0.026989033445715904236 -0.0074089085683226585388 0.0059136510826647281647 -0.0048970072530210018158 0.0047680474817752838135 0.0017627411289140582085 0.0050728553906083106995 0.0045310128480195999146 0.016310432925820350647 -0.049217216670513153076 0.0108946971595287323 0.002376468852162361145 0.010974828153848648071 0.00038718929863534867764 0.018832687288522720337 -0.00025973003357648849487 -0.015694191679358482361 0.02784082852303981781 -0.00020114793733227998018 -0.031841047108173370361 0.017852338030934333801 0.00012095091369701549411 -0.013499217107892036438 0.00044697322300635278225 0.0048395469784736633301 0.0033491032663732767105 -0.013863713480532169342 0.032988004386425018311 0.0019001547480002045631 -0.011823780834674835205 -0.0071536256000399589539 -0.0085409870371222496033 -0.00078212853986769914627 0.015781307592988014221 -0.003054295666515827179 0.0039533558301627635956 0.019452746957540512085 -0.02080333419144153595 -0.0011639283038675785065 -0.0010027593234553933144 -0.010794611647725105286 -0.020725330337882041931 -0.026140430942177772522 -0.0088741080835461616516 -0.024492431432008743286 0.027307653799653053284 0.029728541150689125061 -0.0087919393554329872131 0.028440160676836967468 0.013652238063514232635 0.00071720289997756481171 -0.0052683348767459392548 0.001024690922349691391 -0.00095076888101175427437 0.0059725767932832241058 -0.0073872748762369155884 -0.0013491476420313119888 0.0034986967220902442932 -0.00035960451350547373295 0.00049607863184064626694 -0.008910288102924823761 -0.0040851202793419361115 -0.0026474536862224340439 -0.0076544671319425106049 -0.012521147727966308594 0.017103092744946479797 0.0084242066368460655212 0.0018236786127090454102 -0.0021495514083653688431 0.013486852869391441345 -0.016284685581922531128 0.020682904869318008423 0.0016324083553627133369 -0.0057133552618324756622 -0.018973490223288536072 -0.0013155380729585886002 0.0083710234612226486206 -0.0023247709032148122787 0.0090450765565037727356 -0.00020106963347643613815 0.0071019958704710006714 0.035854894667863845825 0.0067346175201237201691 -0.0023299292661249637604 0.010584220290184020996 9.0705892944242805243e-05 0.001436756807379424572 0.0070908819325268268585 0.00066631386289373040199 -0.010822498239576816559 -0.0031718735117465257645 -0.0033176760189235210419 0.00090734491823241114616 0.00073740357765927910805 0.0021231810096651315689 -0.011030798777937889099 -0.014537339098751544952 -0.0016731928335502743721 -0.0012128960806876420975 -0.0053079770877957344055 0.0011462726397439837456 0.0041200513951480388641 0.013705892488360404968 0.01593348383903503418 -0.0025346309412270784378 -0.00098233856260776519775 -0.012033793143928050995 0.011868005618453025818 0.0026886553969234228134 -0.018138583749532699585 0.0094552738592028617859 0.0068665575236082077026 0.0028107755351811647415 0.0017585238674655556679 0.0064939511939883232117 -0.016235629096627235413 -0.02299563772976398468 0.063037857413291931152 -0.016154566779732704163 -0.0045719947665929794312 -0.021349139511585235596 0.009685991331934928894 0.0011958404211327433586 -0.0009829265763983130455 -0.0019627809524536132812 0.0011875267373397946358 0.00039909969200380146503 -0.0039432034827768802643 -0.00032335257856175303459 0.0019092157017439603806 -0.00085838692029938101768 0.0020449571311473846436 -0.0087187308818101882935 -0.0012242103694006800652 0.051888100802898406982 0.017379024997353553772 0.015285305678844451904 0.0081535633653402328491 -0.012204223312437534332 -0.013170638121664524078 0.00063760794000700116158 0.0032667748164385557175 -0.0047593065537512302399 -0.002017689170315861702 0.028609417378902435303 0.011169451288878917694 -0.011178498156368732452 -0.022529726848006248474 -0.0025511994026601314545 -0.0069974004290997982025 -0.026694841682910919189 0.014869541861116886139 -0.00041400222107768058777 -0.039838097989559173584 0.017375141382217407227 0.028729265555739402771 0.0097898496314883232117 0.00013010276597924530506 0.013961992226541042328 0.012740755453705787659 0.0015118698356673121452 -0.011556490324437618256 -0.054530616849660873413 -0.0053972206078469753265 0.0098443385213613510132 0.020681722089648246765 0.0131420893594622612 0.019050288945436477661 0.061386227607727050781 0.0088996859267354011536 0.047001779079437255859 0.099360547959804534912 0.048355095088481903076 0.00067765929270535707474 0.070018455386161804199 0.0057868110015988349915 -0.0051208161748945713043 -0.0017446877900511026382 0.011571639217436313629 -0.0093788821250200271606 -0.0012713036267086863518 0.01854668743908405304 -0.0055094878189265727997 -0.004844815470278263092 0.0054309712722897529602 0.0026031732559204101562 -0.0245810728520154953 -0.00064595293952152132988 0.0060698501765727996826 -0.0051690996624529361725 -0.00019297433027531951666 0.012514371424913406372 -0.0043000043369829654694 0.011140236631035804749 0.0013027071254327893257 0.012873857282102108002 0.013432221487164497375 -0.00056909810518845915794 -0.00015836556849535554647 0.0022815547417849302292 -0.0074794292449951171875 -0.019662741571664810181 -0.0020676914136856794357 -0.030106581747531890869 -0.0013116727350279688835 -0.00015670315769966691732 -0.028223870322108268738 0.056198108941316604614 0.004856381099671125412 -0.003933320753276348114 0.010619793087244033813 -0.010257598012685775757 0.012599457986652851105 0.016999863088130950928 -0.0050983694382011890411 0.014095202088356018066 -0.00014528771862387657166 -0.0210600290447473526 0.0034414457622915506363 -0.010395308956503868103 -0.012131370604038238525 0.0089720776304602622986 -0.02399689890444278717 0.012989458627998828888 0.0148380231112241745 -0.035383939743041992188 0.015694888308644294739 -0.02193460613489151001 -0.057108946144580841064 -0.018964413553476333618 

