0.058317214250564575195 0.045456726104021072388 -0.11354086548089981079 0.038777716457843780518 -0.030758712440729141235 -0.07631823420524597168 0.058396968990564346313 -0.068661913275718688965 0.019196916371583938599 0.023969842121005058289 -0.068745084106922149658 0.032500728964805603027 0.048418857157230377197 -0.090101994574069976807 -0.030563537031412124634 -0.036464266479015350342 0.01672608591616153717 -0.031844992190599441528 0.050358023494482040405 0.10461539775133132935 0.05404211580753326416 0.010323772206902503967 0.053281653672456741333 0.13026246428489685059 -0.091005049645900726318 0.14751434326171875 0.027908746153116226196 0.042742252349853515625 0.086183458566665649414 0.10806350409984588623 -0.064844354987144470215 0.15727505087852478027 -0.032000441104173660278 -0.030945574864745140076 -0.073657095432281494141 -0.03850909695029258728 0.026228148490190505981 0.03042725101113319397 -0.0053629227913916110992 -0.093397371470928192139 0.049171052873134613037 -0.031900603324174880981 -0.079655125737190246582 0.025241386145353317261 0.06999667733907699585 -0.15970300137996673584 0.040428135544061660767 -0.04141225665807723999 -0.0099066924303770065308 -0.096120342612266540527 -0.0088237356394529342651 0.12093126773834228516 -0.042990185320377349854 0.032145157456398010254 0.01624126732349395752 -0.084384880959987640381 0.020449515432119369507 -0.033897176384925842285 0.00096150237368419766426 0.080979570746421813965 -0.086847260594367980957 -0.074470318853855133057 0.038815099745988845825 -0.18816314637660980225 0.025735385715961456299 0.13033042848110198975 0.0043818573467433452606 0.077335171401500701904 0.058598510921001434326 -0.89964473247528076172 0.034891076385974884033 0.018006352707743644714 0.1703898012638092041 0.13033844530582427979 -0.055740252137184143066 0.015069585293531417847 -0.103808574378490448 -0.023179611191153526306 0.22385291755199432373 0.10408332943916320801 -0.050590403378009796143 0.027501158416271209717 -0.10321515053510665894 0.12844367325305938721 0.012229559943079948425 -0.047587431967258453369 0.053845297545194625854 -0.17503677308559417725 -0.042313825339078903198 0.1111467704176902771 0.020726000890135765076 0.099620856344699859619 0.044054232537746429443 0.11357684433460235596 0.10951208323240280151 -0.012925216928124427795 