0.0074431411921977996826 0.045256350189447402954 -0.0082027614116668701172 0.13007964193820953369 -0.23552997410297393799 -0.47445890307426452637 -0.044752825051546096802 0.052281245589256286621 -0.016250362619757652283 -0.0070645208470523357391 0.0404814109206199646 -0.00053636240772902965546 -0.038249928504228591919 -0.043841857463121414185 0.014935419894754886627 0.047940913587808609009 -0.0015373824862763285637 0.050519492477178573608 0.043789569288492202759 0.014715789817273616791 -0.0756587982177734375 -0.014207678847014904022 0.066267579793930053711 -0.061998862773180007935 0.0038692892994731664658 0.016419660300016403198 0.00252146134153008461 0.0043421746231615543365 0.017519662156701087952 -0.052145589143037796021 0.05543632805347442627 0.069402679800987243652 0.00339872017502784729 -0.0027066520415246486664 -0.21119411289691925049 0.010866134427487850189 0.034338098019361495972 0.054187417030334472656 0.070763014256954193115 0.040996611118316650391 0.014629304409027099609 -0.59387451410293579102 -0.032009787857532501221 -0.010468614287674427032 0.11271394789218902588 -0.0035333731211721897125 -0.00083753693616017699242 0.078787438571453094482 -0.0096470434218645095825 0.0075614531524479389191 0.15100203454494476318 0.0015195015585049986839 0.024210279807448387146 -0.44826909899711608887 -0.056990243494510650635 -0.43623274564743041992 0.046167474240064620972 0.0032720472663640975952 -0.042036071419715881348 -0.066170141100883483887 -0.11162059754133224487 -0.014690733514726161957 -0.089942887425422668457 -0.11687134206295013428 -0.10575281828641891479 -0.048835713416337966919 0.03707120940089225769 0.029287997633218765259 -0.027253068983554840088 -0.18545240163803100586 0.035194899886846542358 0.014829427003860473633 -0.006977209821343421936 0.028547449037432670593 -0.055651601403951644897 -0.015485557727515697479 -0.0028868583030998706818 -0.061320774257183074951 0.025941938161849975586 0.026635793969035148621 0.015513705089688301086 0.20576234161853790283 -0.034614615142345428467 0.037132684141397476196 0.0079566454514861106873 -0.050143804401159286499 -0.30909228324890136719 0.032234918326139450073 -0.030062556266784667969 -0.15003946423530578613 -0.00019373602117411792278 0.045613810420036315918 -0.046626884490251541138 0.27034834027290344238 0.037679698318243026733 0.027383899316191673279 0.096635639667510986328 0.070492461323738098145 0.020776931196451187134 -0.32130646705627441406 -0.35636219382286071777 0.037433486431837081909 -0.18245904147624969482 -0.012943993322551250458 -0.069175943732261657715 0.053471609950065612793 -0.038799945265054702759 -0.16315455734729766846 -0.0038150018081068992615 0.014119047671556472778 0.091128781437873840332 0.045265093445777893066 