-0.026371253654360771179 -0.0099424375221133232117 -0.0059846690855920314789 0.012082537636160850525 0.007507454603910446167 -0.013500746339559555054 -0.072191096842288970947 0.014217073097825050354 -0.035784360021352767944 0.010952362790703773499 -0.032834243029356002808 0.040578983724117279053 -0.029077321290969848633 -0.0048315925523638725281 0.039758086204528808594 0.034273210912942886353 0.045389130711555480957 0.0022007983643561601639 -0.055888950824737548828 0.001462813233956694603 0.013111207634210586548 -0.020595449954271316528 0.024810912087559700012 0.0061566857621073722839 0.02671823650598526001 -0.019795304164290428162 -0.030075840651988983154 -0.0020772751886397600174 0.018144164234399795532 -0.012866883538663387299 -0.032028876245021820068 -0.011285728774964809418 0.00076763355173170566559 -0.016259532421827316284 -0.011621139943599700928 -0.033794116228818893433 0.082293733954429626465 -0.013262739405035972595 0.043282266706228256226 -0.071177892386913299561 -0.028629377484321594238 0.0070863384753465652466 0.053234539926052093506 -0.010889317840337753296 -0.052018731832504272461 -0.024334743618965148926 -0.023333648219704627991 0.044986989349126815796 0.0068619465455412864685 0.012900425121188163757 -0.040326178073883056641 0.031674109399318695068 0.025856954976916313171 -0.0077549843117594718933 0.028713140636682510376 0.023955523967742919922 0.026548087596893310547 0.080544717609882354736 -0.047338832169771194458 -0.026674002408981323242 -0.019299505278468132019 -0.059076860547065734863 -0.07223911583423614502 -0.013592377305030822754 -0.0037856982089579105377 0.0292941313236951828 0.0046559050679206848145 -0.00059654138749465346336 -0.021063504740595817566 0.047320377081632614136 -0.0044611156918108463287 0.031365234404802322388 0.018521973863244056702 -0.016586884856224060059 0.036208823323249816895 0.011923082172870635986 0.0015289246803149580956 0.035035941749811172485 0.021401042118668556213 0.0087992418557405471802 0.016150470823049545288 0.0059715383686125278473 -0.055734805762767791748 -0.063558205962181091309 -0.052753131836652755737 -0.029603194445371627808 -0.033244781196117401123 -0.051940262317657470703 -0.030373444780707359314 0.021346602588891983032 -0.035801757127046585083 0.019863694906234741211 -0.052224799990653991699 -0.043672189116477966309 0.00082384468987584114075 -0.031695380806922912598 0.010869105346500873566 0.077973723411560058594 0.019012087956070899963 -0.013705335557460784912 -0.0062214666977524757385 -0.056507412344217300415 -0.010787141509354114532 -0.031290337443351745605 0.010164823383092880249 -0.011998180299997329712 -0.00031785166356712579727 -0.0047052656300365924835 0.14443573355674743652 0.023723842576146125793 0.10213341563940048218 -0.0091569144278764724731 -0.15687835216522216797 0.012318989261984825134 0.058934707194566726685 0.037494976073503494263 0.13434393703937530518 -0.029500912874937057495 0.062585413455963134766 -0.01655206829309463501 -0.019710272550582885742 -0.047007486224174499512 -0.017732329666614532471 0.026361439377069473267 0.0066071338951587677002 -0.00072267203358933329582 -0.0023650897201150655746 -0.049431774765253067017 -0.012672826647758483887 0.0025613047182559967041 -0.0011675424175336956978 -0.014472048729658126831 0.029575936496257781982 0.0024044830352067947388 0.019968874752521514893 -0.020643768832087516785 0.020446354523301124573 -0.012168399989604949951 -0.037210609763860702515 -0.010570337064564228058 -0.001427711104042828083 -0.0029259021393954753876 -0.0074389516375958919525 -0.0031487282831221818924 0.036233719438314437866 0.03847225382924079895 0.05680699273943901062 0.0079545509070158004761 -0.0097840214148163795471 0.04134394228458404541 0.0045828656293451786041 0.030971996486186981201 0.013056527823209762573 -0.0039204736240208148956 0.010122408159077167511 -0.045764338225126266479 -0.012833112850785255432 -0.0036805660929530858994 0.01412294432520866394 -0.010379577986896038055 0.0074101854115724563599 -0.017941366881132125854 0.047985639423131942749 -0.030644007027149200439 -0.0062089292332530021667 0.014294327236711978912 -0.002650514477863907814 -0.000214081359445117414 0.11065332591533660889 0.028571633622050285339 0.051233954727649688721 0.053221855312585830688 0.019209092482924461365 0.020781870931386947632 -0.038039669394493103027 -0.047970496118068695068 -0.011505870148539543152 -0.0029587184544652700424 -0.036725562065839767456 0.053581833839416503906 -0.012760967016220092773 0.0086624165996909141541 0.046557892113924026489 -0.013367077335715293884 -0.030167484655976295471 -0.032945271581411361694 -0.028973819687962532043 -0.00044311213423497974873 -0.014797125943005084991 0.029097702354192733765 -0.062935076653957366943 -0.0018400652334094047546 -0.021066719666123390198 -0.029337022453546524048 0.11549349874258041382 0.013039243407547473907 0.088146284222602844238 0.032158307731151580811 0.0089283138513565063477 0.0022238886449486017227 -0.013899522833526134491 -0.016125693917274475098 0.015154672786593437195 -0.0015058860881254076958 0.0021385620348155498505 0.01904787309467792511 0.0099944965913891792297 0.059626240283250808716 0.04390983283519744873 0.036511722952127456665 0.031541071832180023193 -0.042143989354372024536 0.017185959964990615845 0.083244308829307556152 -0.015207680873572826385 0.11973720043897628784 -0.00700030522421002388 0.0202607717365026474 -0.00083722459385171532631 0.0013765119947493076324 0.0078483773395419120789 -0.012742112390697002411 -0.025637982413172721863 -0.0089677534997463226318 -0.0056455885060131549835 0.039263810962438583374 -0.0083606950938701629639 0.015768613666296005249 0.02290743216872215271 0.044813469052314758301 -0.051947198808193206787 0.04737402498722076416 -0.0012686834670603275299 0.0099615212529897689819 -0.076536789536476135254 0.035995446145534515381 0.061856202781200408936 0.0311479177325963974 0.057109668850898742676 -0.0092189777642488479614 0.058835867792367935181 0.046362172812223434448 -0.031985007226467132568 0.0024118926376104354858 -0.0035409575793892145157 0.02896258234977722168 -0.00072468398138880729675 -0.073436982929706573486 -0.011493872851133346558 0.027450053021311759949 -0.014161155559122562408 0.00046105642104521393776 0.0022159365471452474594 0.011024110950529575348 0.024220071732997894287 -0.0018942450406029820442 -0.024474702775478363037 -0.0015426786849275231361 0.029106143862009048462 0.014638344757258892059 0.0053745866753160953522 0.075588494539260864258 0.02970339357852935791 -0.0022176962811499834061 -0.052339520305395126343 -0.03877223283052444458 -0.0018153891433030366898 -0.0028334595263004302979 -0.02082820795476436615 -0.090688347816467285156 -0.00052911747479811310768 0.0026017238851636648178 0.00055649230489507317543 -0.034879699349403381348 -0.0084811076521873474121 0.020810700953006744385 0.012868341058492660522 0.028634993359446525574 -0.017865905538201332092 -0.023815613240003585815 0.013964501209557056427 -0.040633343160152435303 -0.0093924747779965400696 0.036146886646747589111 -0.014079482294619083405 -0.050444323569536209106 -0.013371434994041919708 -0.039263926446437835693 -0.086672835052013397217 -0.068624295294284820557 -0.078514263033866882324 0.038053948432207107544 0.19336335361003875732 -0.10392071306705474854 -0.085824064910411834717 -0.01922955736517906189 -0.083892896771430969238 0.012473182752728462219 -0.02088328823447227478 0.0044050589203834533691 -0.00074252282502129673958 0.0033764261752367019653 -0.0017025339184328913689 0.061076462268829345703 0.0090121012181043624878 0.011898178607225418091 -0.0021319251973181962967 0.04694296419620513916 0.029697254300117492676 -0.018687685951590538025 -0.023187994956970214844 -0.061426088213920593262 -0.028116822242736816406 0.066231250762939453125 0.036723002791404724121 0.020417435094714164734 0.0055533833801746368408 0.010065109468996524811 0.0045799626968801021576 -0.01168666500598192215 -0.0048345727846026420593 -0.032531272619962692261 0.015496381558477878571 -0.020691700279712677002 0.01367460004985332489 0.0081399697810411453247 -0.0084854345768690109253 -0.030345344915986061096 0.0025431045796722173691 0.016304459422826766968 0.0099426582455635070801 -0.0026117530651390552521 0.0046811643987894058228 0.002022152068093419075 -0.0086428998038172721863 -0.0150202140212059021 0.0032164051663130521774 0.024181090295314788818 -0.011978576891124248505 0.00052823923761025071144 -0.0034679889213293790817 -0.041116502135992050171 -0.012350798584520816803 -0.013920021243393421173 0.03167300298810005188 0.00046257735812105238438 -0.026272021234035491943 0.011213470250368118286 -0.0037072068080306053162 0.0065878112800419330597 0.045743431895971298218 0.063028983771800994873 0.011946548707783222198 0.040637996047735214233 -0.0066398326307535171509 0.029655901715159416199 0.012436114251613616943 0.057671122252941131592 0.026573799550533294678 0.020206462591886520386 0.010024687275290489197 -0.020600767806172370911 -0.033496197313070297241 0.0080291749909520149231 0.034766551107168197632 -0.0013168753357604146004 -0.02749478071928024292 -0.018959898501634597778 -0.027184756472706794739 -0.0067591355182230472565 -0.0041773212142288684845 -0.034595590084791183472 0.020515587180852890015 0.0010601212270557880402 -0.0038902915548533201218 -0.092653676867485046387 0.040239620953798294067 0.01815665513277053833 0.0078104683198034763336 0.1098453029990196228 0.0094483150169253349304 0.046998795121908187866 0.02330752834677696228 0.02855267748236656189 -0.034626271575689315796 0.036446705460548400879 0.0038692257367074489594 0.010792120359838008881 -0.0047056660987436771393 -0.043097376823425292969 0.023756626993417739868 0.057065572589635848999 0.010032234713435173035 -0.01376334112137556076 0.042796928435564041138 -0.014892795123159885406 -0.008962350897490978241 -0.0034880561288446187973 0.0058088954538106918335 0.069180548191070556641 -0.021332060918211936951 -0.029438024386763572693 0.0062908525578677654266 -0.025593148544430732727 0.011864053085446357727 0.0089092571288347244263 0.0029255216941237449646 -0.0019966920372098684311 -0.008711513131856918335 -0.012758879922330379486 0.030687768012285232544 0.031169485300779342651 -0.02910345420241355896 0.012482561171054840088 -0.0073553086258471012115 -0.024812512099742889404 0.0029718521982431411743 -0.0087776035070419311523 0.019951468333601951599 0.00979031343013048172 0.02635488659143447876 -0.012546540237963199615 0.029239004477858543396 0.036425530910491943359 -0.025667259469628334045 -0.030899375677108764648 0.012852673418819904327 0.093211248517036437988 0.013210867531597614288 -0.070197470486164093018 -0.021727666258811950684 -0.018648168072104454041 -0.029234988614916801453 0.055175621062517166138 -0.019166409969329833984 0.0040308041498064994812 -0.12552665174007415771 0.00047605988220311701298 -0.017864719033241271973 -0.074062705039978027344 -0.047242369502782821655 -0.055681075900793075562 0.00231311749666929245 -0.045254204422235488892 0.022939462214708328247 0.057637326419353485107 0.021399106830358505249 -0.076644532382488250732 0.0052608521655201911926 -0.036393955349922180176 -0.016033789142966270447 0.2167568206787109375 0.00095795153174549341202 0.18859262764453887939 -0.081219956278800964355 -0.049358665943145751953 -0.026060197502374649048 -0.098451323807239532471 -0.053455628454685211182 0.0019596014171838760376 0.011170720681548118591 0.054457601159811019897 -0.044814217835664749146 -0.066253371536731719971 0.026046331971883773804 0.027958037331700325012 -0.025831924751400947571 0.044857293367385864258 0.020129665732383728027 0.006232977844774723053 0.027245556935667991638 -0.01187684573233127594 -0.0085434326902031898499 -0.034698370844125747681 0.013220483437180519104 0.020363656803965568542 0.035256732255220413208 -0.016773091629147529602 0.00082601397298276424408 0.034402802586555480957 0.00027086588670499622822 -0.020625021308660507202 0.053768798708915710449 0.072301454842090606689 -0.058268286287784576416 0.012389400042593479156 0.018659872934222221375 -0.011031035333871841431 0.0381410941481590271 0.015183751471340656281 -0.067749671638011932373 0.0070026437751948833466 0.014894671738147735596 0.018603755161166191101 -0.0023788830731064081192 -0.0011106664314866065979 -0.014126011170446872711 0.023380022495985031128 0.024634338915348052979 -0.018610190600156784058 0.0060264663770794868469 -0.024878636002540588379 -0.0039360458031296730042 0.018658261746168136597 0.017425760626792907715 -0.046232692897319793701 0.014642328955233097076 -0.02565905451774597168 -0.0017394478200003504753 0.094068124890327453613 -0.082266956567764282227 0.0047997795045375823975 0.0041839773766696453094 -0.0052289683371782302856 -0.0132556939497590065 0.0049945614300668239594 -0.030338205397129058838 -0.028809612616896629333 -0.014272110536694526672 0.0010394563432782888412 -0.018874272704124450684 -0.0012352594640105962753 0.012191056273877620697 0.023712258785963058472 -0.022002894431352615356 0.032344516366720199585 -0.029798762872815132141 0.0029731735121458768845 0.0036240420304238796234 -0.0082337372004985809326 -0.0066718989983201026917 0.033072520047426223755 -0.066604681313037872314 -0.011040993034839630127 -0.088394813239574432373 -0.15412726998329162598 -0.037108473479747772217 -0.020991249009966850281 -0.18727384507656097412 -0.072580032050609588623 -0.0064086797647178173065 -0.025723153725266456604 0.00035647276672534644604 -0.0078396731987595558167 -0.044265370815992355347 -0.011451299302279949188 0.013729606755077838898 0.013694391585886478424 -0.0027917977422475814819 0.0033213526476174592972 -0.023470561951398849487 0.00084893207531422376633 0.049369901418685913086 0.028389323502779006958 -0.061264861375093460083 -0.01623646169900894165 -0.0092753833159804344177 -0.014778267592191696167 -0.0063866628333926200867 -0.035666402429342269897 -0.0050343978218734264374 0.019024690613150596619 -0.036171425133943557739 0.034916657954454421997 0.017616264522075653076 0.049849461764097213745 -0.028862159699201583862 -0.0095521854236721992493 -0.020484650507569313049 0.02856435626745223999 -0.040935598313808441162 -0.036573387682437896729 -0.023283552378416061401 0.013629985973238945007 -0.013713831081986427307 0.027349201962351799011 -0.038985323160886764526 -0.031671456992626190186 0.025686141103506088257 -0.034346271306276321411 -0.016595445573329925537 0.043677650392055511475 0.013627415522933006287 -0.01130344439297914505 0.028250193223357200623 -0.10206523537635803223 0.0055707893334329128265 -0.02310151420533657074 0.013903031125664710999 -0.0048986901529133319855 0.020690694451332092285 0.011971643194556236267 -0.02607045881450176239 -0.0034289497416466474533 -0.0016572183230891823769 0.0054404786787927150726 0.0045035947114229202271 -0.0043753730133175849915 -0.042583674192428588867 -0.002590770600363612175 -0.0035926245618611574173 -0.0084756668657064437866 -0.0012221845099702477455 0.020819129422307014465 0.065639831125736236572 0.027881046757102012634 0.081270068883895874023 -0.0078848265111446380615 -0.088458538055419921875 0.034952126443386077881 -0.076501786708831787109 0.053715206682682037354 0.029130106791853904724 0.055057670921087265015 0.029358629137277603149 -0.061979569494724273682 -0.030111977830529212952 0.033337764441967010498 -0.011906595900654792786 0.0013729204656556248665 -0.022043541073799133301 0.018551141023635864258 0.014185929670929908752 -0.016269277781248092651 0.05998915061354637146 0.00086558441398665308952 -0.0051366137340664863586 -0.0052882684394717216492 0.010361585766077041626 0.025286186486482620239 -0.0068048494867980480194 0.0021162438206374645233 0.01838041841983795166 0.016738293692469596863 0.010131238959729671478 -0.016867561265826225281 -0.032665189355611801147 -0.00082752277376130223274 -0.0075749740935862064362 -0.031873367726802825928 0.011684771627187728882 -0.03785065189003944397 0.023894978687167167664 0.056484799832105636597 0.015647446736693382263 -0.037460263818502426147 -0.0051424754783511161804 -0.0613804645836353302 0.0011977826943621039391 -0.056157186627388000488 -0.0012704972177743911743 0.015959003940224647522 -0.014530728571116924286 -0.0077164196409285068512 0.0034880121238529682159 0.038739543408155441284 -0.0074920523911714553833 -0.0084887538105249404907 -0.076562397181987762451 -0.030299788340926170349 -0.032682884484529495239 -0.044709559530019760132 -0.048307590186595916748 -0.024915406480431556702 -0.023103184998035430908 -0.054279401898384094238 0.01796169579029083252 0.062375351786613464355 -0.010361256077885627747 0.0058474652469158172607 0.010884110815823078156 -0.048095181584358215332 0.11329343914985656738 0.10045950114727020264 0.060133889317512512207 -0.01723460666835308075 -0.0246334858238697052 -0.004591336473822593689 0.05238322913646697998 0.010081935673952102661 -0.020652724429965019226 0.037443067878484725952 0.01019071042537689209 0.0090171899646520614624 -0.034101571887731552124 -0.0002308680268470197916 -0.031905092298984527588 0.0098944613710045814514 -0.0066141048446297645569 0.028346933424472808838 -0.052293747663497924805 -0.024846352636814117432 -0.041820380836725234985 0.038205720484256744385 -0.03128711506724357605 0.043780252337455749512 -0.02395571582019329071 -0.036530278623104095459 0.015121563337743282318 0.0065308026969432830811 0.031069524586200714111 0.11582890897989273071 0.10634180158376693726 0.017193173989653587341 -0.056515447795391082764 -0.0043944218195974826813 -0.094759911298751831055 0.02514514140784740448 -0.044957574456930160522 0.069620393216609954834 0.024198908358812332153 -0.018958622589707374573 -0.0002817999629769474268 -0.019202129915356636047 0.0093321530148386955261 0.036094326525926589966 -0.027351271361112594604 0.022075664252042770386 0.025791173800826072693 -0.023896168917417526245 -0.15217237174510955811 -0.19020704925060272217 0.019520046189427375793 -0.0056632487103343009949 -0.073166862130165100098 -0.068731248378753662109 0.63676506280899047852 0.05875525251030921936 0.086447767913341522217 0.016782561317086219788 0.011750691570341587067 -0.0026008065324276685715 0.056836836040019989014 0.034348148852586746216 -0.029781991615891456604 -0.004139566328376531601 0.036277834326028823853 0.0013305265456438064575 0.011375046335160732269 0.072826683521270751953 -0.027815489098429679871 0.026853743940591812134 0.0056420397013425827026 -0.0050923908129334449768 0.020512379705905914307 -0.0054509472101926803589 -0.0013199938694015145302 -0.041412558406591415405 -0.0098039535805583000183 -0.026255805045366287231 0.0004860464541707187891 -0.018632834777235984802 -0.016470337286591529846 -0.018544306978583335876 -0.015971487388014793396 -0.0076472451910376548767 0.058689977973699569702 0.052243471145629882812 0.24947595596313476562 0.010057561099529266357 -0.093282848596572875977 -0.040794011205434799194 0.027507591992616653442 0.0099328653886914253235 0.10573811084032058716 -0.011587330140173435211 0.0080785416066646575928 -0.022974777966737747192 0.00633863033726811409 0.042208444327116012573 0.0045538907870650291443 -0.038804743438959121704 0.028984585776925086975 -0.02120387740433216095 -0.012900241650640964508 -0.028778105974197387695 0.0015782651025801897049 0.020011095330119132996 -0.015874691307544708252 0.036606967449188232422 -0.078524775803089141846 0.022760735824704170227 -0.050478804856538772583 0.038394704461097717285 0.02512046322226524353 -0.016014181077480316162 0.00096734479302540421486 -0.018340090289711952209 0.027048660442233085632 0.0060282754711806774139 -0.02669330500066280365 0.0090544112026691436768 0.029145892709493637085 -0.012419155798852443695 -0.00010681655112421140075 -0.02000065147876739502 -0.07453937828540802002 0.012139443308115005493 -0.0003111312398687005043 -0.002467321464791893959 0.011431346647441387177 -0.029882997274398803711 -0.026606544852256774902 -0.013616785407066345215 0.026359193027019500732 0.020351305603981018066 -0.01535205356776714325 -0.034192763268947601318 -0.027480594813823699951 0.018145518377423286438 -0.048328213393688201904 -0.041198089718818664551 0.017772942781448364258 -0.078111283481121063232 0.028427451848983764648 -0.0080155292525887489319 0.0077257580123841762543 -0.013520866632461547852 0.018646175041794776917 -0.028224136680364608765 -0.024398537352681159973 0.018837912008166313171 -0.021876033395528793335 0.0030947180930525064468 0.010444762185215950012 -0.034088551998138427734 -0.027609243988990783691 0.29491475224494934082 -0.014296127483248710632 -0.040544103831052780151 0.046174537390470504761 0.010815907269716262817 -0.064184136688709259033 -0.0076653650030493736267 0.037565935403108596802 0.0018748037982732057571 0.0063913986086845397949 0.060903858393430709839 0.022374467924237251282 -0.013015729375183582306 -0.0062694381922483444214 -0.024835089221596717834 0.02716656215488910675 0.040600609034299850464 -0.019680066034197807312 0.03479383513331413269 0.0024570063687860965729 0.008571603335440158844 0.026951473206281661987 0.013275533914566040039 0.016786150634288787842 -0.014947416260838508606 0.0082060722634196281433 -0.0046562412753701210022 -0.013602591119706630707 -0.0043972125276923179626 -0.022921260446310043335 -0.022206015884876251221 -0.031109413132071495056 -0.025154689326882362366 0.0092534106224775314331 -0.022019648924469947815 0.010566708631813526154 -0.04070291668176651001 -0.087296321988105773926 -0.17057755589485168457 -0.0056633870117366313934 -0.13177381455898284912 -0.63281130790710449219 -0.13803583383560180664 7.3143455665558576584e-05 -0.13059407472610473633 -0.019901992753148078918 -0.010385026223957538605 -0.010290134698152542114 -0.050200041383504867554 0.028890483081340789795 -0.02594262734055519104 0.018226217478513717651 -0.015318061225116252899 0.028734177350997924805 0.013885700143873691559 0.14509221911430358887 0.032468728721141815186 0.11273472756147384644 0.14840710163116455078 -1.3522725105285644531 0.053582169115543365479 0.14690129458904266357 0.18671646714210510254 0.14238171279430389404 -0.0056304428726434707642 0.0062598916701972484589 0.024878166615962982178 0.040040455758571624756 0.14147552847862243652 0.014192299917340278625 0.085890851914882659912 0.036960672587156295776 0.032380409538745880127 -0.010455153882503509521 0.052778724581003189087 0.018447104841470718384 -0.0070363418199121952057 -0.09772456437349319458 0.08687686920166015625 -0.010473391972482204437 0.020946821197867393494 0.062849655747413635254 -0.040034700185060501099 0.035677529871463775635 -0.13528136909008026123 -0.28554782271385192871 0.34213316440582275391 -0.1232571825385093689 -0.3341248631477355957 0.21042037010192871094 -0.21587131917476654053 -0.028662666678428649902 0.0044772545807063579559 0.0069706100039184093475 -0.00070219498593360185623 0.032159015536308288574 0.011274744756519794464 -0.0048556025139987468719 0.0055434792302548885345 -0.0067997449077665805817 0.0089170541614294052124 0.0074626649729907512665 0.021494487300515174866 0.050262272357940673828 -0.25923186540603637695 0.052193727344274520874 0.015079079195857048035 0.032961789518594741821 0.0088688451796770095825 0.094748698174953460693 0.020605368539690971375 0.10663647204637527466 -0.14439828693866729736 -0.27518448233604431152 0.064205661416053771973 0.05813692137598991394 -0.06903187185525894165 0.09743569791316986084 -0.08263126760721206665 0.11319407820701599121 0.032588832080364227295 0.097549028694629669189 -0.92428135871887207031 0.13387537002563476562 0.0074780290015041828156 0.24918566644191741943 0.066918559372425079346 -0.066367618739604949951 -0.056175004690885543823 -0.041155721992254257202 -0.028677081689238548279 0.12848192453384399414 0.051950950175523757935 -0.044229712337255477905 0.032202463597059249878 -0.053866978734731674194 0.013172719627618789673 -0.023785682395100593567 -0.0090342275798320770264 0.010654473677277565002 0.011517666280269622803 0.0040615331381559371948 0.022152416408061981201 0.017452606931328773499 0.040713541209697723389 0.024435164406895637512 0.10534197837114334106 -0.028182473033666610718 0.051805704832077026367 0.21036060154438018799 -0.020955497398972511292 -0.029239555820822715759 -0.020991148427128791809 -0.084443882107734680176 0.057167869061231613159 0.053146462887525558472 0.035289537161588668823 0.0024793527554720640182 0.00068399426527321338654 0.046917866915464401245 0.029896127060055732727 -0.0015307763824239373207 0.024874096736311912537 0.034195531159639358521 0.026205943897366523743 0.02355001494288444519 0.048221204429864883423 -0.0095987692475318908691 0.0070227351970970630646 -0.0098094334825873374939 0.032209217548370361328 -0.028523722663521766663 0.0057868291623890399933 0.025238092988729476929 0.024760926142334938049 -0.012249092571437358856 0.06218641623854637146 0.01837008260190486908 0.024022476747632026672 0.026405343785881996155 -0.0095427222549915313721 0.027606355026364326477 0.12530761957168579102 0.083775386214256286621 -0.0056392149999737739563 0.053444970399141311646 0.060680788010358810425 0.022556489333510398865 0.012615760788321495056 0.030531417578458786011 -0.065287806093692779541 0.19348415732383728027 -0.067003712058067321777 -0.016754856333136558533 -0.084264688193798065186 -0.086389109492301940918 -0.063158437609672546387 -0.045878250151872634888 -0.068765044212341308594 0.080108530819416046143 -0.015059564262628555298 0.072638206183910369873 0.043091319501399993896 -0.26988464593887329102 -0.055225308984518051147 0.10915398597717285156 -0.083274401724338531494 -0.0034165885299444198608 0.012844212353229522705 0.040045928210020065308 -0.022668143734335899353 0.039011482149362564087 -0.026516547426581382751 -0.049354337155818939209 0.042239386588335037231 -0.070205599069595336914 -0.066349342465400695801 0.06620632857084274292 0.05701031908392906189 0.05843292921781539917 -0.11394467204809188843 -0.23233619332313537598 -0.032894492149353027344 0.013658088631927967072 -0.059032473713159561157 0.090748310089111328125 -0.0084527106955647468567 -0.016471628099679946899 0.0069786426611244678497 -0.023451911285519599915 -0.00051415490452200174332 -0.020979465916752815247 -0.0044310223311185836792 0.012623493559658527374 -0.019242651760578155518 0.055081199854612350464 0.030933776870369911194 0.063818238675594329834 0.048589728772640228271 -0.098102882504463195801 0.035705007612705230713 0.050026580691337585449 0.032604895532131195068 0.039069674909114837646 0.13266359269618988037 0.038100190460681915283 0.085725560784339904785 0.0061474633403122425079 -0.24371604621410369873 -0.082646422088146209717 0.15365003049373626709 0.083406694233417510986 0.10296389460563659668 -0.024895805865526199341 -0.20854447782039642334 -0.24001304805278778076 0.039749953895807266235 0.14918246865272521973 0.22012965381145477295 -0.13999253511428833008 -0.22546216845512390137 -0.17201018333435058594 0.070523597300052642822 -0.031883399933576583862 0.031379871070384979248 0.047118954360485076904 -0.11916659027338027954 -0.012725058011710643768 0.056450158357620239258 -0.01357186492532491684 0.075487874448299407959 -0.0082842381671071052551 -0.08963324129581451416 -0.02898350544273853302 0.11003301292657852173 0.020066231489181518555 -0.10743667185306549072 -0.024933058768510818481 -0.040083765983581542969 -0.047745622694492340088 -0.10778910666704177856 -0.10219246894121170044 0.13802570104598999023 -0.081805758178234100342 -0.40297922492027282715 -0.23560337722301483154 -0.19626007974147796631 0.013606199994683265686 -0.13638390600681304932 0.11418630927801132202 -0.036048997193574905396 0.061958458274602890015 -0.030326528474688529968 -0.24018214643001556396 -0.0028909253887832164764 -0.0033215805888175964355 -0.027056211605668067932 0.081637933850288391113 0.0014798050979152321815 0.0030985358171164989471 0.001105297822505235672 0.0070201535709202289581 0.0058944262564182281494 -0.00089381705038249492645 0.0054848948493599891663 -0.0047514950856566429138 0.0022316405083984136581 -0.13063964247703552246 -0.12289382517337799072 -0.099941611289978027344 0.012510447762906551361 -0.045766353607177734375 -0.16158571839332580566 0.088518790900707244873 0.059590060263872146606 -0.17059674859046936035 -0.053410246968269348145 -0.16121813654899597168 0.070269733667373657227 -0.104079417884349823 -0.34164634346961975098 0.030396932736039161682 0.11313033103942871094 0.13482961058616638184 0.21794976294040679932 

0.15061226487159729004 -0.08346442878246307373 0.052513249218463897705 0.061245836317539215088 -0.055502194911241531372 0.063450165092945098877 -0.027345823124051094055 0.22256001830101013184 -0.062668733298778533936 0.1980756223201751709 -0.091120041906833648682 -0.047800440341234207153 -0.20489767193794250488 -0.086331553757190704346 -0.049747601151466369629 -0.022857423871755599976 0.11681786179542541504 0.071919366717338562012 0.2752380073070526123 -0.078556641936302185059 -0.20104002952575683594 -0.185568198561668396 0.025067098438739776611 0.16907115280628204346 0.16155879199504852295 -0.018071938306093215942 -0.18489687144756317139 -0.037387661635875701904 0.0084395576268434524536 -0.0053202649578452110291 0.017113788053393363953 0.0064802467823028564453 0.025389039888978004456 -0.020211432129144668579 -0.021721253171563148499 -0.028458589687943458557 0.14926472306251525879 0.15782676637172698975 -0.094359256327152252197 -0.07376781851053237915 0.10082214325666427612 -0.08148784935474395752 -0.067932464182376861572 0.027971990406513214111 0.074789114296436309814 -0.097696058452129364014 -0.023378374055027961731 0.18210016191005706787 0.026465702801942825317 -0.025799468159675598145 -0.044208247214555740356 0.037948936223983764648 0.041822936385869979858 -0.045087698847055435181 -0.019981980323791503906 0.13834986090660095215 -0.051380794495344161987 0.020514631643891334534 -0.11214686185121536255 -0.23629395663738250732 -0.013911192305386066437 0.0065866122022271156311 -0.030360206961631774902 -0.01622929796576499939 0.013327506370842456818 -0.015817800536751747131 -0.056877061724662780762 -0.00010373062832513824105 -0.00081171112833544611931 0.039592672139406204224 0.027514038607478141785 0.0180004853755235672 -0.013590358197689056396 0.034597769379615783691 -0.045309782028198242188 -0.0017955601215362548828 0.014844669029116630554 0.029091071337461471558 -0.012046275660395622253 0.0070852739736437797546 -0.027399182319641113281 0.026941638439893722534 0.0073971441015601158142 -0.033568248152732849121 -0.0096952440217137336731 0.047221820801496505737 -0.055225115269422531128 -0.094162344932556152344 0.011450965888798236847 -0.0061285053379833698273 -0.0073030418716371059418 0.03609051927924156189 -0.013812803663313388824 -0.10499295592308044434 -0.049890141934156417847 -0.039925724267959594727 0.030303370207548141479 0.09917373955249786377 0.031742185354232788086 -0.015605958178639411926 0.015026435256004333496 0.0032257917337119579315 -0.016686882823705673218 -0.044301509857177734375 0.015726858749985694885 -0.055510938167572021484 0.043600853532552719116 0.024163743481040000916 -0.006805864628404378891 0.057882435619831085205 0.044907756149768829346 0.0709226951003074646 0.034673720598220825195 -0.0081507125869393348694 0.064962796866893768311 -0.010388161987066268921 -0.0049654548056423664093 -0.10969438403844833374 -0.15639546513557434082 -0.067011341452598571777 0.17838397622108459473 0.081820458173751831055 0.18063858151435852051 -0.054743092507123947144 -0.07850395888090133667 -0.073042094707489013672 0.072993054986000061035 0.0054799602366983890533 -0.051186572760343551636 0.099350966513156890869 -0.030486503615975379944 -0.11429840326309204102 -0.059861831367015838623 0.0078780371695756912231 0.095842748880386352539 0.038724534213542938232 -0.016186492517590522766 -0.035372920334339141846 0.011138222180306911469 0.02964603714644908905 0.0049173315055668354034 0.022159110754728317261 -0.0063545699231326580048 0.033062376081943511963 -0.0010531389852985739708 0.034196656197309494019 0.08840319514274597168 -0.034892614930868148804 -0.022501824423670768738 0.0062138582579791545868 -0.0016200741520151495934 0.026608398184180259705 0.020747119560837745667 -0.072118200361728668213 -0.1520124971866607666 -0.27340301871299743652 -0.087817616760730743408 -0.077379994094371795654 0.05864838138222694397 0.016120156273245811462 -0.062569037079811096191 -0.032023616135120391846 -0.042366091161966323853 0.045851439237594604492 0.019193401560187339783 -0.094589382410049438477 -0.14053162932395935059 -0.10177555680274963379 0.097359336912631988525 0.064616762101650238037 0.027746520936489105225 0.0057550207711756229401 0.02552892640233039856 -0.1403690725564956665 0.14779236912727355957 0.052771113812923431396 0.015906909480690956116 -0.021356089040637016296 -0.29114708304405212402 0.1327873915433883667 0.039076041430234909058 0.05977457389235496521 0.052027486264705657959 -0.040707003325223922729 0.064449332654476165771 0.04056521877646446228 -0.0073342164978384971619 -0.044957794249057769775 -0.048390172421932220459 0.033857125788927078247 -0.04881033673882484436 -0.0058144084177911281586 -0.13974294066429138184 0.0072409519925713539124 -0.050661478191614151001 0.052166637033224105835 -0.016167474910616874695 0.16513484716415405273 -0.043972693383693695068 -0.005074620712548494339 -0.033248413354158401489 0.022099442780017852783 0.032050810754299163818 0.011920041404664516449 -0.0020257500000298023224 -0.02481810934841632843 -0.0048656044527888298035 0.0091966688632965087891 -0.0059481235221028327942 0.020631372928619384766 0.054159365594387054443 0.071871578693389892578 0.015292939729988574982 0.0085240220651030540466 -0.017953088507056236267 0.067866906523704528809 -0.029003417119383811951 -0.011760694906115531921 -0.1010203436017036438 -0.076780438423156738281 -0.07523822784423828125 -0.097005411982536315918 -0.031105116009712219238 -0.1241144910454750061 -0.20367291569709777832 0.038359619677066802979 -0.038984093815088272095 0.088130980730056762695 -0.027975006029009819031 0.020809516310691833496 -0.0052600852213799953461 0.045667674392461776733 0.0082032950595021247864 0.022143935784697532654 0.012286459095776081085 -0.022637996822595596313 0.024729607626795768738 -0.00065124896354973316193 -0.010922713205218315125 0.030282339081168174744 0.095961131155490875244 0.083521693944931030273 -0.024412328377366065979 0.054946292191743850708 -0.0082862786948680877686 0.041879650205373764038 0.030150858685374259949 0.036906603723764419556 0.031164798885583877563 -0.062511146068572998047 -0.0079444022849202156067 -0.12774729728698730469 -0.023686146363615989685 -0.02313907817006111145 0.041230756789445877075 -0.11066267639398574829 -0.13568897545337677002 -0.10571694374084472656 0.0079131741076707839966 0.0062258141115307807922 -0.031957563012838363647 0.018602160736918449402 -0.026303339749574661255 -0.0061125494539737701416 0.010791971348226070404 0.026721026748418807983 0.046804055571556091309 -0.024137429893016815186 -0.041460033506155014038 -0.016651943325996398926 0.086412660777568817139 -0.020831393077969551086 -0.009570468217134475708 0.0057313074357807636261 -0.020006708800792694092 0.051671776920557022095 0.0080437632277607917786 0.0061747566796839237213 0.01959643140435218811 0.029362566769123077393 0.03752066195011138916 0.021717239171266555786 -0.020528817549347877502 -0.034917261451482772827 0.012298354879021644592 -0.0023787468671798706055 -0.013096932321786880493 -0.018971327692270278931 -0.03196186944842338562 -0.053277853876352310181 0.051436614245176315308 -0.0075370967388153076172 0.076404206454753875732 -0.025063345208764076233 -0.025387132540345191956 0.067396402359008789062 -0.041061352938413619995 -0.038283389061689376831 -0.028139002621173858643 -0.025332005694508552551 0.025413919240236282349 0.029731519520282745361 0.01900550350546836853 0.0048030144535005092621 0.047114808112382888794 -0.00075261102756485342979 -0.0018793928902596235275 -0.069503515958786010742 0.046281553804874420166 -0.016642922535538673401 -0.01528651360422372818 -0.09947099536657333374 0.027136979624629020691 0.061481852084398269653 -0.0062692095525562763214 -0.0078782020136713981628 -0.018278526142239570618 -2.9047674615867435932e-05 -0.0088890772312879562378 0.019688623026013374329 0.032352361828088760376 -0.020115418359637260437 0.016758644953370094299 -0.022560825571417808533 -0.0031747447792440652847 -0.018880944699048995972 -0.004144311416894197464 0.021255513653159141541 -0.023500109091401100159 -0.013526882044970989227 0.0015091527020558714867 -0.0021520168520510196686 0.018289348110556602478 -0.11845313012599945068 -0.084253326058387756348 -0.071947433054447174072 -0.016546977683901786804 -0.010151640512049198151 -0.010959814302623271942 0.076183751225471496582 0.10841142386198043823 0.13263900578022003174 -0.1013696715235710144 0.07436110079288482666 0.0019518503686413168907 -0.045817576348781585693 0.032898668199777603149 -0.047697745263576507568 0.014363041147589683533 0.01315680425614118576 0.054605260491371154785 -0.032753936946392059326 -0.031518403440713882446 0.00030204208451323211193 0.012550394982099533081 0.0095516070723533630371 0.0010823153425008058548 -0.0075365840457379817963 0.041460566222667694092 0.018339462578296661377 -0.0038975642528384923935 -0.0099516324698925018311 0.011489139869809150696 -0.0037772732321172952652 -0.011547490954399108887 0.014450813643634319305 -0.017814327031373977661 0.016936996951699256897 -0.0042471489869058132172 -0.058833476155996322632 0.29422760009765625 -0.014579914510250091553 -0.057037744671106338501 0.01827586442232131958 -0.087773315608501434326 0.23919376730918884277 0.007837772369384765625 -0.0031651381868869066238 0.033457897603511810303 -0.044406760483980178833 0.0089037492871284484863 0.052655532956123352051 -0.024252561852335929871 0.03253892064094543457 0.031077643856406211853 -0.012385076843202114105 0.0048107299953699111938 -0.029300415888428688049 0.0045504192821681499481 0.00051061186240985989571 0.037124224007129669189 0.0038681579753756523132 -0.0077508827671408653259 0.031480997800827026367 0.0093975979834794998169 0.051998764276504516602 -0.16702769696712493896 0.042793244123458862305 0.13510987162590026855 -0.0064578563906252384186 -0.043124008923768997192 -0.0094936201348900794983 0.11834297329187393188 0.010767417959868907928 -0.13931973278522491455 0.044030830264091491699 -0.13052023947238922119 0.0073989373631775379181 0.074460349977016448975 0.020604416728019714355 0.044643774628639221191 -0.0499228648841381073 -0.028087353333830833435 -0.0011818356579169631004 -0.016786228865385055542 -0.062981866300106048584 0.01536619383841753006 0.017543612048029899597 0.055116500705480575562 0.026013370603322982788 0.012679204344749450684 -0.024678979068994522095 0.0022863456979393959045 -0.009000062011182308197 -0.11207237094640731812 0.06138309091329574585 0.084630154073238372803 0.051808204501867294312 -0.064549811184406280518 -0.042807236313819885254 0.063411198556423187256 0.05459949001669883728 -0.020671283826231956482 0.0045807389542460441589 0.02710994333028793335 0.076290994882583618164 0.059180669486522674561 0.12847217917442321777 -0.02137503400444984436 -0.019202979281544685364 -0.053146913647651672363 -0.01239319145679473877 0.032166387885808944702 -0.00723250536248087883 -0.042397126555442810059 0.0089044896885752677917 0.021300069987773895264 0.011654160916805267334 0.015054644085466861725 -0.014066240750253200531 -0.49213504791259765625 0.029571607708930969238 -0.10037598758935928345 0.26959636807441711426 0.032127823680639266968 0.030975520610809326172 0.19620171189308166504 0.044871188700199127197 0.028656894341111183167 -0.018327159807085990906 0.0019359522266313433647 -0.030363040044903755188 -0.0081858104094862937927 -0.010132715106010437012 0.0036378994118422269821 0.018297674134373664856 -0.029198527336120605469 -0.011762075126171112061 0.0019477467285469174385 0.033030092716217041016 0.00043071707477793097496 -0.025453496724367141724 0.0083823790773749351501 -0.027602434158325195312 0.01802534051239490509 -0.010517628863453865051 0.020876109600067138672 0.012052455917000770569 0.044452276080846786499 0.011412715539336204529 0.031382441520690917969 -0.082238033413887023926 0.0765153542160987854 0.0098163774237036705017 0.0085394456982612609863 -0.040577664971351623535 -0.041665259748697280884 -0.021523056551814079285 -0.062002930790185928345 -0.023305991664528846741 0.053517952561378479004 0.015311598777770996094 0.027420591562986373901 -0.049528483301401138306 -0.0058049042709171772003 -0.050163254141807556152 0.01662094704806804657 0.0084269782528281211853 -0.0067826616577804088593 0.026728274300694465637 0.00113871751818805933 -0.018262945115566253662 0.045589171350002288818 0.013916686177253723145 -0.0087117198854684829712 0.034998517483472824097 -0.016971025615930557251 0.14854109287261962891 0.020016135647892951965 -0.098191305994987487793 -0.20605054497718811035 -0.010150221176445484161 0.10604222118854522705 0.052489258348941802979 0.022881051525473594666 0.013334833085536956787 -0.015006884001195430756 0.024334141984581947327 -0.027889275923371315002 -0.01120286155492067337 -0.033784721046686172485 -0.060796823352575302124 -0.080959752202033996582 -0.025012005120515823364 0.054488226771354675293 0.096781551837921142578 -0.087604135274887084961 0.062005851417779922485 0.0012801410630345344543 0.08575992286205291748 -0.069666855037212371826 0.10344009846448898315 0.051104906946420669556 0.10156626254320144653 0.033901244401931762695 -0.043518871068954467773 0.023694865405559539795 0.011809177696704864502 -0.043347656726837158203 -0.028395064175128936768 0.084301084280014038086 0.001966946059837937355 -0.03760191798210144043 -0.074853003025054931641 -0.066951662302017211914 0.058713085949420928955 0.021300440654158592224 0.0058906120248138904572 0.013391575776040554047 -0.14484475553035736084 -0.1318785250186920166 0.088196113705635070801 0.22140321135520935059 -0.055421002209186553955 -0.05144742131233215332 0.074645325541496276855 0.059204321354627609253 -0.18310496211051940918 0.039844453334808349609 0.17529770731925964355 0.060257896780967712402 -0.11072763055562973022 -0.051009871065616607666 -0.10371116548776626587 0.11489206552505493164 0.13161666691303253174 0.092745169997215270996 0.020594377070665359497 0.046879425644874572754 0.06652867048978805542 0.051410056650638580322 0.01027401164174079895 0.046807426959276199341 -0.010490923188626766205 -0.057605504989624023438 -0.0056379586458206176758 0.11488126963376998901 0.055836725980043411255 -0.045497566461563110352 -0.053032144904136657715 -0.043785184621810913086 -0.021542387083172798157 0.0044968700967729091644 -0.031988888978958129883 0.070771984755992889404 0.095527194440364837646 -0.012673581019043922424 0.034069869667291641235 -0.022800412029027938843 0.024534491822123527527 -0.095579959452152252197 0.025811757892370223999 -0.0091801723465323448181 0.023765290156006813049 0.024475527927279472351 0.043722301721572875977 0.0082308771088719367981 -0.0147747015580534935 0.030514374375343322754 0.00028110702987760305405 0.0064433189108967781067 -0.0044360412284731864929 0.021983081474900245667 -0.021857772022485733032 -0.11088220030069351196 -0.08360843360424041748 0.018632415682077407837 0.095426745712757110596 0.081296890974044799805 -0.011545111425220966339 -0.11046408861875534058 -0.049551211297512054443 0.12493790686130523682 0.16833734512329101562 -0.13877663016319274902 -0.052595779299736022949 0.036178484559059143066 0.011904484592378139496 -0.11539763212203979492 0.061441134661436080933 0.036291465163230895996 0.014600126072764396667 -0.035432618111371994019 0.024035450071096420288 -0.023500002920627593994 -0.031301837414503097534 -0.044957999140024185181 0.031894687563180923462 0.01012952066957950592 0.014775788411498069763 0.015401775948703289032 0.0051549556665122509003 -0.0029341860208660364151 -0.016200600191950798035 -0.010068484582006931305 0.0029910420998930931091 -0.011838914826512336731 0.029836276546120643616 -0.033100981265306472778 -0.014936431311070919037 -0.0063572442159056663513 -0.073513939976692199707 0.007150791119784116745 0.081106416881084442139 0.093604430556297302246 -0.025207132101058959961 -0.028312025591731071472 0.071503452956676483154 -0.056167997419834136963 0.017514724284410476685 -0.048778694123029708862 -0.114389762282371521 -0.024342345073819160461 -0.098658569157123565674 -0.099528953433036804199 0.063271708786487579346 -0.010018724016845226288 0.021216757595539093018 -0.043014235794544219971 0.053199589252471923828 -0.025117792189121246338 -0.010518637485802173615 0.0011372179724276065826 -0.019495647400617599487 -0.018834384158253669739 -0.022712413221597671509 0.012289674021303653717 0.010361911728978157043 0.069547235965728759766 0.030528580769896507263 -0.01650971733033657074 0.036003008484840393066 0.012465134263038635254 0.044658955186605453491 0.063601806759834289551 0.051613118499517440796 -0.036125700920820236206 0.029829429462552070618 -0.062421750277280807495 0.041230671107769012451 0.0015184952644631266594 0.06929416954517364502 0.0021095506381243467331 0.0023841424845159053802 -0.013811547309160232544 0.0098904604092240333557 -0.019584354013204574585 0.02503899112343788147 -0.0099422093480825424194 0.012012256309390068054 0.0075865155085921287537 0.0067352796904742717743 0.0011456449283286929131 0.0055258246138691902161 0.13717812299728393555 -0.035429015755653381348 0.061829108744859695435 -0.10648112744092941284 0.04324903339147567749 -0.095070347189903259277 0.01044870913028717041 0.15243953466415405273 -0.0034321029670536518097 0.02712654508650302887 -0.091738060116767883301 0.028486432507634162903 -0.19880726933479309082 0.00017882332031149417162 -0.037102196365594863892 -0.027991108596324920654 0.01822401583194732666 0.0064643342047929763794 -0.025180269032716751099 0.077272146940231323242 -0.026995565742254257202 0.015140425413846969604 0.017371285706758499146 0.011752278544008731842 0.0084115304052829742432 -0.073031537234783172607 0.02058239281177520752 0.014796388335525989532 0.022080834954977035522 0.36270210146903991699 -0.12093603610992431641 -0.044068250805139541626 -0.00034102762583643198013 -0.11405251920223236084 0.022673135623335838318 -0.12823224067687988281 -0.069342069327831268311 0.055087145417928695679 0.05879627913236618042 -0.016578210517764091492 0.014523789286613464355 0.061754468828439712524 0.13391643762588500977 0.0039156400598585605621 0.098305583000183105469 0.016799807548522949219 0.13006836175918579102 -0.0068475683219730854034 0.00040556339081376791 0.026499310508370399475 0.0035073359031230211258 0.030742224305868148804 0.017947258427739143372 0.0016314869280904531479 -0.24845391511917114258 0.083533041179180145264 0.042059067636728286743 -0.00093292869860306382179 0.031534995883703231812 -0.044926658272743225098 -0.10399281978607177734 -0.019718222320079803467 0.1345742642879486084 0.086944028735160827637 -0.29084217548370361328 -0.0028336511459201574326 -0.13589482009410858154 -0.013572732917964458466 -0.0092055387794971466064 -0.05440963059663772583 0.092176720499992370605 0.022475818172097206116 -0.011238603852689266205 0.03627031669020652771 -0.0033866807352751493454 0.048396319150924682617 0.013668757863342761993 -0.024047028273344039917 0.021880218759179115295 -0.029501853510737419128 -0.0528201274573802948 -0.031828206032514572144 -0.0065320632420480251312 0.040882881730794906616 0.022453196346759796143 0.01001506950706243515 -0.020392131060361862183 0.027078295126557350159 0.0027319453656673431396 -0.031167499721050262451 -0.056630026549100875854 0.010243518278002738953 -0.04470035061240196228 -0.1037343144416809082 -0.0059528839774429798126 -0.066297233104705810547 -0.10060811787843704224 -0.063401237130165100098 -0.042935669422149658203 -0.0023210952058434486389 -0.0028143967501819133759 -0.0076706414110958576202 -0.020760908722877502441 -0.025641992688179016113 0.049914810806512832642 -0.092455893754959106445 0.057988312095403671265 -0.18908107280731201172 -0.0032258972059935331345 0.052689537405967712402 0.085744418203830718994 0.046570334583520889282 0.0080503253266215324402 0.052312448620796203613 -0.12199787795543670654 0.11962644755840301514 0.13074915111064910889 -0.0059931906871497631073 0.043598085641860961914 -0.0042826062999665737152 0.056130953133106231689 -0.00059886329108849167824 -0.014960499480366706848 0.0009840166894719004631 -0.031036226078867912292 -0.012213144451379776001 -0.032808091491460800171 -0.016668625175952911377 -0.012594628147780895233 0.02878699079155921936 0.0044288793578743934631 -0.050691939890384674072 0.0056055421009659767151 0.0096118114888668060303 -0.049738403409719467163 0.15229864418506622314 -0.0034066278021782636642 0.027188111096620559692 0.010271611623466014862 0.086324073374271392822 0.14593556523323059082 -0.052765894681215286255 -0.049711722880601882935 0.052810013294219970703 -0.011304652318358421326 0.04776035994291305542 0.03383177146315574646 -0.043979693204164505005 -0.026293067261576652527 0.0033153174445033073425 -0.036821234971284866333 0.033090997487306594849 -0.0033493731170892715454 -0.00012677808990702033043 -0.0022913434077054262161 0.0034996438771486282349 0.012119834311306476593 -0.028019290417432785034 -0.023681093007326126099 0.045447494834661483765 0.012816132977604866028 -0.01875359751284122467 -0.046689838171005249023 0.0045021967962384223938 -0.012345835566520690918 0.010907595977187156677 -0.0018308182479813694954 0.02999801933765411377 -0.0021593144629150629044 0.051511522382497787476 0.029426893219351768494 0.09320469200611114502 0.12724949419498443604 0.13629713654518127441 0.088067106902599334717 0.13413025438785552979 0.05786843225359916687 -0.0045495931990444660187 0.055136974900960922241 -0.032972916960716247559 0.015422756783664226532 0.020579868927597999573 0.029827127233147621155 0.028561707586050033569 0.034759409725666046143 -0.026924302801489830017 -0.062388170510530471802 -0.010589857585728168488 0.094506137073040008545 -0.0066283987835049629211 -0.013784118928015232086 -0.049029186367988586426 -0.55704712867736816406 -0.17356947064399719238 0.10324479639530181885 0.0084472913295030593872 0.10467111319303512573 -0.048625707626342773438 -0.048271164298057556152 -0.051232237368822097778 0.016474999487400054932 -0.027438502758741378784 -0.0026378012262284755707 -0.00060274003772065043449 0.022472558543086051941 -0.0052929087541997432709 -0.012404122389853000641 -0.033822413533926010132 -0.072061225771903991699 5.6823133490979671478e-05 -0.013559862971305847168 0.13303074240684509277 0.028093673288822174072 0.026343833655118942261 0.025639597326517105103 0.0064955903217196464539 -0.19381265342235565186 0.0078857894986867904663 -0.049250259995460510254 -0.47419378161430358887 -0.080069527029991149902 -0.026454580947756767273 0.067521266639232635498 -0.10539934039115905762 0.0028051841072738170624 -0.020162951201200485229 0.0052084731869399547577 0.053729161620140075684 -0.046363078057765960693 0.014387250877916812897 0.015893554314970970154 -0.01485530659556388855 -0.038903001695871353149 0.012758132070302963257 0.0064936140552163124084 0.026759363710880279541 0.013539072126150131226 -0.014929733239114284515 0.037574429064989089966 0.0044578053057193756104 -0.028948804363608360291 -0.018830511718988418579 -0.092175044119358062744 -0.18207691609859466553 -0.041780728846788406372 -0.024057447910308837891 0.018114157021045684814 0.05733359605073928833 0.095212541520595550537 0.15469035506248474121 0.085388138890266418457 0.022776838392019271851 -0.0030891539063304662704 0.074545502662658691406 0.0012744027189910411835 0.17623424530029296875 0.044200535863637924194 -0.015127710066735744476 0.05635876581072807312 0.052851818501949310303 -0.030143091455101966858 -0.037308663129806518555 -0.037407554686069488525 0.0035736807622015476227 -0.022279340773820877075 0.067125856876373291016 -0.0041164574213325977325 0.042153619229793548584 -0.00042399566154927015305 0.0059192730113863945007 0.0225619487464427948 0.051528811454772949219 -0.025825427845120429993 -0.038316842168569564819 -0.0058936229906976222992 -0.0015570645919069647789 0.040310520678758621216 -0.0075343898497521877289 -0.14276807010173797607 -0.076774448156356811523 -0.0462053641676902771 0.14038531482219696045 0.38134106993675231934 0.058520670980215072632 -0.05432615429162979126 -0.031890083104372024536 -0.15313494205474853516 -0.32781395316123962402 -0.33963051438331604004 -0.17991793155670166016 -0.081677287817001342773 -0.034043166786432266235 0.054507769644260406494 0.21537667512893676758 0.28685098886489868164 0.2943114936351776123 0.022321518510580062866 -0.014055205509066581726 -0.016699448227882385254 -0.036380879580974578857 0.050427388399839401245 -0.053599726408720016479 0.035246614366769790649 0.01445345953106880188 0.068266585469245910645 0.044473342597484588623 -0.0040604011155664920807 -0.079654127359390258789 0.078879669308662414551 0.0042093172669410705566 0.019044885411858558655 -0.046087969094514846802 -0.010930360294878482819 -0.021344315260648727417 -0.011334110051393508911 -0.038777999579906463623 -0.0044519132934510707855 0.019197022542357444763 0.1050230860710144043 0.091928631067276000977 -0.029600419104099273682 0.0082104243338108062744 -0.042094890028238296509 0.083463095128536224365 -0.015631677582859992981 0.1657645106315612793 -0.10327648371458053589 -0.051584526896476745605 -0.031677085906267166138 0.020418025553226470947 -0.13699014484882354736 0.0034371507354080677032 0.018337476998567581177 0.1058674156665802002 -0.0383053608238697052 -0.0038317302241921424866 -0.00056652229977771639824 0.012509412132203578949 0.019514603540301322937 -0.14979524910449981689 0.015505388379096984863 0.045047551393508911133 0.090145707130432128906 -0.023288592696189880371 -0.023123454302549362183 -0.11046697944402694702 -0.00013110417057760059834 0.038859061896800994873 -0.14631339907646179199 0.055590815842151641846 0.05569191277027130127 0.05522613227367401123 0.07034120708703994751 -0.0037538777105510234833 -0.025932392105460166931 -0.064991019666194915771 -0.024548476561903953552 0.017087921500205993652 -0.043081086128950119019 -0.016759604215621948242 -0.058047965168952941895 -0.01808851584792137146 0.010421774350106716156 -0.02257572859525680542 0.030814355239272117615 0.02809148840606212616 0.022994320839643478394 0.037743013352155685425 0.013507712632417678833 0.007461288943886756897 -7.9936296970117837191e-05 0.017416777089238166809 -0.011100063100457191467 -0.0067446734756231307983 0.0016270884079858660698 -0.0062658018432557582855 0.015300761908292770386 0.28130948543548583984 0.32700139284133911133 0.20075251162052154541 0.050699818879365921021 -0.024921882897615432739 -0.13139770925045013428 -0.21639548242092132568 -0.3161455690860748291 -0.31491315364837646484 -0.049144990742206573486 0.11287811398506164551 0.17208750545978546143 -0.08680509030818939209 0.35619360208511352539 0.31365492939949035645 -0.060454536229372024536 0.14306816458702087402 0.015858264639973640442 0.050588339567184448242 0.043892741203308105469 -0.058814760297536849976 -0.027046827599406242371 -0.034938640892505645752 0.011202868074178695679 0.044641979038715362549 -0.056243520230054855347 0.0058422423899173736572 -0.0648802146315574646 -0.11854553967714309692 0.068134434521198272705 0.079866871237754821777 0.056971441954374313354 -0.019566290080547332764 0.021817760542035102844 -0.0048658242449164390564 -0.018876560032367706299 0.057508543133735656738 0.07018982619047164917 0.045643929392099380493 0.1047935783863067627 0.11281654238700866699 -0.025934118777513504028 0.010405024513602256775 0.11524020135402679443 0.045493949204683303833 0.023798618465662002563 -0.12539443373680114746 -0.025912567973136901855 -0.049701564013957977295 -0.081239558756351470947 0.10690438747406005859 0.061012610793113708496 0.11200890690088272095 0.032492514699697494507 -0.0078516388311982154846 0.0069832922890782356262 0.0042896964587271213531 -0.0028897982556372880936 0.0046402411535382270813 -0.0094351712614297866821 -0.0069285039789974689484 -0.0029396754689514636993 -0.0095479888841509819031 0.056823410093784332275 -0.091297477483749389648 0.067828148603439331055 -0.14118993282318115234 -0.16655269265174865723 0.073328882455825805664 0.059408914297819137573 0.010970370844006538391 -0.058188054710626602173 -0.12369944155216217041 0.21445801854133605957 -0.12385714054107666016 0.031396400183439254761 -0.27244916558265686035 -0.055463414639234542847 0.037514898926019668579 -0.043247807770967483521 0.12867935001850128174 

0.025305209681391716003 0.014516360126435756683 -0.022504715248942375183 0.017546389251947402954 -0.052275665104389190674 0.0023327318485826253891 0.040873996913433074951 -0.025692973285913467407 0.058380581438541412354 0.0038814253639429807663 -0.0048097167164087295532 -0.01371135469526052475 0.051564924418926239014 -0.013563985005021095276 0.0030398122034966945648 -0.013994554989039897919 -0.017073540017008781433 -0.016489563509821891785 0.058368105441331863403 -0.0015298095531761646271 0.0032260820735245943069 0.017956586554646492004 -0.0013765769544988870621 -0.061909679323434829712 -0.060993649065494537354 0.075931504368782043457 0.022363511845469474792 -0.047861963510513305664 -0.039216522127389907837 -0.040433306246995925903 -0.0060921553522348403931 0.0073570003733038902283 -0.027617491781711578369 0.01379650551825761795 -0.0046217162162065505981 0.057585280388593673706 -0.076303534209728240967 -0.016207084059715270996 -0.04702204093337059021 0.068663746118545532227 0.038666784763336181641 -0.068635307252407073975 -0.058721188455820083618 0.0507965870201587677 -0.022845607250928878784 0.016846152022480964661 0.044500567018985748291 -0.032297398895025253296 -0.066009752452373504639 0.079732470214366912842 0.0059216506779193878174 0.003273260314017534256 0.017037935554981231689 -0.026097014546394348145 0.012454684823751449585 -0.035103764384984970093 0.019153468310832977295 -0.058301508426666259766 0.074097163975238800049 -0.014428913593292236328 0.0031129834242165088654 -0.038988817483186721802 -0.072877913713455200195 0.043686795979738235474 0.0078085926361382007599 0.054160140454769134521 0.029700625687837600708 -0.010181839577853679657 -0.040092300623655319214 -0.032876290380954742432 -0.010594785213470458984 0.030112134292721748352 0.0091971931979060173035 0.0088088894262909889221 0.020054513588547706604 -0.017386095598340034485 -0.0093274032697081565857 -0.044088579714298248291 0.015437468886375427246 -0.0090619493275880813599 0.019499024376273155212 0.01241466868668794632 0.015379337593913078308 0.051151894032955169678 0.0371321849524974823 -0.0038963411934673786163 0.047525182366371154785 0.14168086647987365723 0.013405547477304935455 0.043185062706470489502 -0.013594594784080982208 -0.038155626505613327026 -0.012619170360267162323 0.047252964228391647339 0.0078243063762784004211 0.0042253141291439533234 0.030874649062752723694 -0.037047270685434341431 -0.011029625311493873596 0.021114636212587356567 0.017816849052906036377 0.042448565363883972168 0.042333830147981643677 0.051896527409553527832 -0.023364387452602386475 0.055164210498332977295 -0.051601182669401168823 0.08492711186408996582 -0.19308793544769287109 -0.16002747416496276855 -0.16310843825340270996 0.040758516639471054077 0.18589247763156890869 0.048263270407915115356 -0.11600788682699203491 0.074030101299285888672 0.022966913878917694092 0.03071928955614566803 -0.054497681558132171631 -0.010507619939744472504 0.0098001761361956596375 -0.019417447969317436218 0.0018641569186002016068 0.011667384766042232513 0.047362167388200759888 0.0061190705746412277222 0.046778053045272827148 -0.03462295234203338623 -0.044777620583772659302 -0.0088085774332284927368 0.019920606166124343872 0.062258571386337280273 -0.060605406761169433594 -0.041644625365734100342 0.00037905847420915961266 0.049258146435022354126 0.00033852568594738841057 0.059500720351934432983 0.097267039120197296143 0.063214726746082305908 0.022935250774025917053 0.058590143918991088867 0.051303911954164505005 0.076335541903972625732 -0.0035800563637167215347 -0.092886500060558319092 -0.089819282293319702148 -0.012026553042232990265 -0.08373416215181350708 -0.026112709194421768188 0.047519426792860031128 -0.057535067200660705566 -0.019467128440737724304 -0.029569296166300773621 -0.0077590020373463630676 0.033597435802221298218 -0.022820523008704185486 0.0056315609253942966461 -0.078120693564414978027 -0.010168808512389659882 -0.019543631002306938171 0.02214844338595867157 -0.039603371173143386841 -0.016329320147633552551 -0.079304203391075134277 -0.019022462889552116394 -0.011710312217473983765 0.030453732237219810486 -0.11999380588531494141 -0.055250283330678939819 -0.087268553674221038818 -0.026439795270562171936 -0.022740308195352554321 -0.059594478458166122437 -0.11073230206966400146 0.051984205842018127441 0.0013451994163915514946 0.060042366385459899902 0.094735346734523773193 -0.073725916445255279541 0.045632079243659973145 0.054390393197536468506 0.053297612816095352173 0.064049340784549713135 -0.052841540426015853882 0.019706880673766136169 0.079298995435237884521 0.055373433977365493774 0.041160393506288528442 0.024792583659291267395 -0.0057057300582528114319 0.028883790597319602966 -0.061370186507701873779 0.098310388624668121338 -0.023102011531591415405 -0.041460283100605010986 0.004790372215211391449 -0.051136754453182220459 -0.021464258432388305664 -0.0079740732908248901367 -0.019773686304688453674 0.019879797473549842834 0.0025412761606276035309 0.029909608885645866394 -0.031743600964546203613 0.018462827429175376892 -0.033162247389554977417 -0.03580517694354057312 -0.0066186594776809215546 -0.0092522520571947097778 -0.023327350616455078125 -0.030901063233613967896 -0.0029140927363187074661 -0.045313838869333267212 -0.0046655773185193538666 -0.096402153372764587402 0.00707682780921459198 -0.00064179312903434038162 -0.024818608537316322327 0.0063862972892820835114 -0.032420244067907333374 -0.052640978246927261353 -0.0060749468393623828888 0.017354920506477355957 0.025538111105561256409 -0.051709517836570739746 0.02632645145058631897 -0.0081386901438236236572 0.054539833217859268188 -0.027984498068690299988 0.036763627082109451294 0.044687733054161071777 -0.0007435121806338429451 0.021567316725850105286 0.079590581357479095459 0.031660668551921844482 -0.0073824347928166389465 0.10357418656349182129 -0.00046333618229255080223 0.019056230783462524414 0.0022220667451620101929 -0.044703766703605651855 0.012045484967529773712 -0.017574509605765342712 0.019738506525754928589 -0.032666046172380447388 0.014149147085845470428 0.030245874077081680298 0.03114747069776058197 -0.009046901017427444458 0.028502913191914558411 0.026841178536415100098 -0.0180330667644739151 -0.0054981084540486335754 -0.013574197888374328613 -0.0031935884617269039154 0.025034388527274131775 -0.005482923705130815506 -0.043291281908750534058 -0.05091311037540435791 0.036816127598285675049 -0.046289723366498947144 -0.019326537847518920898 0.040119115263223648071 -0.0036647573579102754593 -0.074592776596546173096 -0.096457093954086303711 -0.02179182879626750946 0.039361376315355300903 0.020158329978585243225 -0.038160715252161026001 0.012617523781955242157 0.01035632006824016571 0.030170768499374389648 -0.042840629816055297852 -0.014865364879369735718 -0.072517938911914825439 0.0081584639847278594971 -0.0070904125459492206573 0.0056393519043922424316 -0.056896999478340148926 -0.0017812611768022179604 -0.11245451867580413818 -0.068629883229732513428 -0.07351242750883102417 -0.035579785704612731934 -0.10379587113857269287 -0.046137567609548568726 0.083082593977451324463 0.074371792376041412354 0.04524240642786026001 -0.089425116777420043945 -0.12104739993810653687 0.048831231892108917236 0.014335997402667999268 -0.13843712210655212402 0.14013326168060302734 0.070788674056529998779 0.028547553345561027527 0.031235726550221443176 -0.011192806996405124664 -0.0079519907012581825256 0.028801683336496353149 0.0027052678633481264114 -0.024189805611968040466 0.06708316504955291748 -0.043571941554546356201 -0.13094699382781982422 -0.02289791405200958252 -0.007213451433926820755 0.051622152328491210938 -0.038273319602012634277 0.0051504443399608135223 -0.060735717415809631348 0.052888222038745880127 -0.011623934842646121979 0.023274024948477745056 -0.02918161638081073761 -0.013302666135132312775 0.021266791969537734985 -0.010506099089980125427 0.0043770219199359416962 -0.0097180604934692382812 -0.017736179754137992859 0.023660769686102867126 0.040468961000442504883 0.017818894237279891968 0.023559257388114929199 0.0043591903522610664368 0.020049883052706718445 -0.019335253164172172546 -0.025461485609412193298 0.026523530483245849609 0.03489278256893157959 0.0098867593333125114441 0.027209216728806495667 -0.0021765574347227811813 -0.0020591835491359233856 -0.0022808543872088193893 -0.0080616110935807228088 -0.041967842727899551392 0.021080916747450828552 -0.010689250193536281586 -0.030142016708850860596 -0.043015144765377044678 -0.024176351726055145264 0.016016956418752670288 0.063012778759002685547 0.012544168159365653992 0.069882638752460479736 0.0023592559155076742172 -0.011736123822629451752 0.020620396360754966736 0.004849953576922416687 0.00323963887058198452 -0.016964739188551902771 -0.010494102723896503448 0.011290127411484718323 -0.013899699784815311432 0.010932420380413532257 -0.039243608713150024414 -0.019521543756127357483 -0.04858848080039024353 -0.014477016404271125793 -0.025511067360639572144 0.017113430425524711609 -0.082059308886528015137 -0.062876470386981964111 0.012406579218804836273 -0.040883067995309829712 0.031275659799575805664 -0.06314487755298614502 -0.049520980566740036011 0.041654005646705627441 0.043377298861742019653 0.0038144425489008426666 -0.024027153849601745605 -0.034103527665138244629 -0.026268288493156433105 -0.0057754279114305973053 -3.1521918572252616286e-05 0.0026509943418204784393 -0.0066366908140480518341 -0.0354234352707862854 -0.02105280756950378418 -0.036753144115209579468 -0.054550163447856903076 -0.010338967666029930115 -0.015314412303268909454 -0.0020406702533364295959 -0.010231841355562210083 -0.0068741668947041034698 0.0079795354977250099182 -0.00010189459135290235281 -0.030430896207690238953 -0.028760205954313278198 0.066193781793117523193 -0.026614168658852577209 -0.021091572940349578857 -0.049721140414476394653 0.00020785452215932309628 0.05270412936806678772 -0.054047971963882446289 0.01084678061306476593 0.066956542432308197021 -0.044388417154550552368 -0.023253951221704483032 0.015574068762362003326 0.019876940175890922546 -0.044726926833391189575 -0.016531778499484062195 0.015423043631017208099 -0.026136666536331176758 -0.043674837797880172729 0.035048298537731170654 0.012853542342782020569 0.0392054729163646698 -0.0023691873066127300262 -0.0071717109531164169312 -0.0133228302001953125 0.018088907003402709961 0.015314769931137561798 0.025855775922536849976 -0.00091005617287009954453 -0.00094493286451324820518 0.039539087563753128052 -0.033870272338390350342 -0.093157552182674407959 0.064646519720554351807 0.10275945812463760376 -0.011663102544844150543 -0.046115472912788391113 0.063101731240749359131 0.037641625851392745972 -0.030590608716011047363 0.0095402020961046218872 -0.088606335222721099854 0.0038498097565025091171 -0.021130880340933799744 -0.010057211853563785553 0.061496902257204055786 -0.057716727256774902344 -0.0060973055660724639893 0.0024695592001080513 -0.048275731503963470459 -0.025615032762289047241 0.059410434216260910034 -0.048789426684379577637 -0.037004854530096054077 0.019095607101917266846 0.28978127241134643555 0.026972424238920211792 0.00059603294357657432556 -0.16412679851055145264 -0.073947504162788391113 0.011640030890703201294 0.019352499395608901978 -0.0071727405302226543427 0.0286386832594871521 -0.027761500328779220581 -0.014873161911964416504 -0.010734104551374912262 0.038080696016550064087 0.072583712637424468994 -0.017457913607358932495 -0.0038947220891714096069 0.043155394494533538818 -0.00041671030339784920216 0.019295111298561096191 -0.0054835188202559947968 -0.034064639359712600708 0.00067722488893195986748 0.0078259687870740890503 0.012451603077352046967 0.021527765318751335144 0.037750035524368286133 -0.012139656580984592438 0.010667478665709495544 -0.046953748911619186401 0.0076256487518548965454 0.040587007999420166016 0.036274846643209457397 -0.033256225287914276123 -0.037352260202169418335 0.06672528386116027832 -0.024044906720519065857 -0.012315441854298114777 0.028901971876621246338 -0.028543552383780479431 0.05097613111138343811 0.017673382535576820374 0.060322083532810211182 -0.026087570935487747192 0.0678331032395362854 -0.033929929137229919434 0.017374131828546524048 -0.0055541172623634338379 0.0054239728488028049469 -0.0030972557142376899719 -0.0020252214744687080383 0.018615676090121269226 -0.0083521092310547828674 -0.036603294312953948975 -0.013826330192387104034 0.0058790976181626319885 0.043247185647487640381 0.012857615016400814056 -0.074859090149402618408 0.020597968250513076782 -0.0024421932175755500793 0.064187064766883850098 0.011744613759219646454 -0.058984082192182540894 0.025873791426420211792 0.01254934258759021759 0.021621311083436012268 0.031838003545999526978 0.017327526584267616272 0.027330677956342697144 0.046572204679250717163 0.031126359477639198303 0.056153167039155960083 -0.028179481625556945801 -0.024933768436312675476 -0.028493903577327728271 0.0042540514841675758362 -0.0088039599359035491943 0.0043790908530354499817 -0.02084356360137462616 -0.063276559114456176758 0.015924373641610145569 -0.16341182589530944824 -0.076819002628326416016 -0.077862665057182312012 0.0027047195471823215485 0.083713911473751068115 -0.08203325420618057251 -0.10030991584062576294 -0.11101986467838287354 -0.1405741274356842041 -0.060511704534292221069 0.0042247278615832328796 -0.037316042929887771606 0.06524397432804107666 0.047645829617977142334 0.036632116883993148804 -0.040869604796171188354 -0.084032021462917327881 0.021970732137560844421 0.047818411141633987427 -0.017081787809729576111 -0.072835862636566162109 -0.040617801249027252197 0.0079565849155187606812 0.056822273880243301392 -0.0069148153997957706451 0.01635746099054813385 -0.003143580164760351181 -0.0054619638249278068542 0.019768416881561279297 0.015043878927826881409 -0.0094942394644021987915 0.032406087964773178101 0.010394806042313575745 -0.065092720091342926025 -0.048589739948511123657 0.0098534245043992996216 0.025735853239893913269 0.044456321746110916138 0.011573972180485725403 0.028744479641318321228 0.02857792191207408905 -0.023605773225426673889 -0.0038520833477377891541 0.061550214886665344238 0.084192611277103424072 0.032887946814298629761 0.0063626496121287345886 0.023566989228129386902 0.060514409095048904419 0.051266323775053024292 -0.0024608960375189781189 0.029614912346005439758 0.024959636852145195007 -0.069027058780193328857 -0.055326275527477264404 0.0026431160513311624527 -0.0037169293500483036041 -0.013104629702866077423 0.029250275343656539917 -0.027844890952110290527 -0.11652352660894393921 0.024461841210722923279 0.0054951636120676994324 -0.013840273953974246979 -0.012222405523061752319 0.011557250283658504486 0.0051389350555837154388 0.02280507795512676239 -0.0064144567586481571198 0.0020766726229339838028 0.012153939343988895416 0.00042286288226023316383 0.044369883835315704346 -0.065963447093963623047 0.0040181642398238182068 -0.056374557316303253174 -0.090401344001293182373 0.053872957825660705566 -0.053727138787508010864 0.085391230881214141846 0.082174323499202728271 -0.027710430324077606201 -0.015901466831564903259 -0.077942200005054473877 0.088196411728858947754 -0.039767671376466751099 -0.066203840076923370361 0.04257295653223991394 0.063696600496768951416 -0.007539129350334405899 0.0088191507384181022644 -0.0043373955413699150085 0.035735279321670532227 -0.032849244773387908936 -0.0012605196097865700722 -0.004213204607367515564 -0.020565727725625038147 -0.018404679372906684875 0.01223467756062746048 -0.0061743650585412979126 0.018761910498142242432 -0.018653403967618942261 -0.0020585758611559867859 -0.016930881887674331665 0.0063350945711135864258 -0.026196267455816268921 -0.0038446621038019657135 -0.021385487169027328491 0.05560199543833732605 0.0076195294968783855438 0.027844382449984550476 -0.01274940837174654007 -0.061379853636026382446 -0.043108895421028137207 0.10630647838115692139 -0.011323221959173679352 0.064505584537982940674 -0.026756515726447105408 0.040549077093601226807 -0.0070869941264390945435 -0.012445801869034767151 0.038789965212345123291 0.042204800993204116821 0.0016102998051792383194 -0.02886519208550453186 0.00224314909428358078 0.0022304037120193243027 0.0010129193542525172234 0.0063485153950750827789 -0.0063724927604198455811 -0.040603764355182647705 -0.034751765429973602295 0.043988708406686782837 -0.014972273260354995728 0.033070534467697143555 0.075931854546070098877 0.034367870539426803589 0.050212372094392776489 0.029227269813418388367 -0.02227901853621006012 0.010126546025276184082 0.033639874309301376343 -0.0050959750078618526459 0.051423542201519012451 0.0089150611311197280884 0.0090482318773865699768 0.020857002586126327515 -0.050411000847816467285 0.0056358589790761470795 -0.10371350497007369995 -0.048776034265756607056 -0.011817215010523796082 0.045234344899654388428 -0.0025381864979863166809 0.028740666806697845459 -0.010191587731242179871 0.0073074689134955406189 -0.021577632054686546326 -0.017214480787515640259 0.0065684472210705280304 -0.022935628890991210938 -0.0037876111455261707306 -0.0077223698608577251434 0.046541005373001098633 -0.048629753291606903076 0.026439251378178596497 0.058716583997011184692 -0.033516597002744674683 0.032901369035243988037 -0.056781094521284103394 -0.049607954919338226318 -0.03981372341513633728 0.0061000464484095573425 0.0029325142968446016312 0.026071250438690185547 0.019128305837512016296 0.032349016517400741577 0.017393324524164199829 -0.0092211673036217689514 -0.017084468156099319458 -0.0030559375882148742676 0.021595422178506851196 0.017382469028234481812 -0.0068929321132600307465 0.018098782747983932495 0.015996402129530906677 -0.013345458544790744781 -0.016277883201837539673 0.0035780966281890869141 -0.051543891429901123047 -0.023641059175133705139 -0.080925412476062774658 0.0030524863395839929581 0.076325021684169769287 0.076009899377822875977 0.17689278721809387207 -0.020797666162252426147 0.062494345009326934814 -0.0035339577589184045792 0.046127479523420333862 0.018622502684593200684 0.019225403666496276855 -0.033098716288805007935 0.047346878796815872192 0.027764037251472473145 -0.097184665501117706299 0.082636803388595581055 -0.013483240269124507904 -0.023986047133803367615 0.027768045663833618164 -0.0083295106887817382812 -0.050404310226440429688 -0.035320080816745758057 -0.010128790512681007385 0.0084981443360447883606 0.030456198379397392273 0.040587116032838821411 0.02825548127293586731 0.021748341619968414307 0.013093800283968448639 -0.029594082385301589966 0.026750229299068450928 0.015545018017292022705 -0.033168107271194458008 0.043212108314037322998 -0.0032690458465367555618 0.1285947263240814209 -0.49469664692878723145 -0.0066417716443538665771 0.11375423520803451538 0.10074777156114578247 0.03926137089729309082 0.0015516746789216995239 0.040072865784168243408 -0.0053306799381971359253 0.010901054367423057556 0.0034158329945057630539 -0.00038913171738386154175 -0.0011255465215072035789 -0.0092995697632431983948 0.0057012205943465232849 0.018283849582076072693 0.014385499060153961182 -0.11425120383501052856 0.03674092516303062439 -0.062974371016025543213 -0.028316473588347434998 -0.018642773851752281189 -0.027763897553086280823 -0.054466497153043746948 -0.037215381860733032227 -0.074669457972049713135 -0.029830683022737503052 0.0076659335754811763763 -0.0030815617647022008896 -0.017133863642811775208 -0.024784410372376441956 -0.01166765112429857254 -0.011263477616012096405 0.0078824814409017562866 -0.050397399812936782837 0.0085218204185366630554 0.0199575033038854599 0.043416257947683334351 0.010821154341101646423 0.022968746721744537354 -0.026038030162453651428 0.015301057137548923492 0.046557296067476272583 0.011359990574419498444 0.031824998557567596436 -0.018487056717276573181 0.040534552186727523804 -0.035951022058725357056 0.016511693596839904785 -0.038247622549533843994 0.01355309411883354187 0.07262535393238067627 -0.011820221319794654846 0.010577371343970298767 0.056350495666265487671 -0.03604038432240486145 0.024723729118704795837 -0.0059263682924211025238 0.010246688500046730042 0.057688422501087188721 0.0090229343622922897339 -0.040791455656290054321 -0.0023630601353943347931 0.10530155152082443237 -0.011622397229075431824 0.029975691810250282288 0.024285871535539627075 -0.011799038387835025787 0.14180764555931091309 -0.18903121352195739746 0.28621175885200500488 -0.036617379635572433472 0.016596997156739234924 -0.0082018803805112838745 -0.024901239201426506042 0.053774252533912658691 -0.015614492818713188171 -0.093906804919242858887 0.0036034577060490846634 0.017400749027729034424 -0.051044654101133346558 0.0064596831798553466797 -0.0032787329982966184616 -0.01424822583794593811 0.078089468181133270264 0.026705116033554077148 0.0050496114417910575867 0.016541689634323120117 -0.015560871921479701996 0.004501030314713716507 -0.010064729489386081696 -0.017889702692627906799 0.0027593113481998443604 -0.001027848455123603344 0.0075998045504093170166 0.011010039597749710083 0.043109022080898284912 0.014064569026231765747 -0.013766629621386528015 0.01561650354415178299 0.0057961451821029186249 0.021311718970537185669 0.028553638607263565063 -0.016378268599510192871 0.025231234729290008545 -0.021430240944027900696 0.043160077184438705444 -0.049966569989919662476 -0.11915293335914611816 0.006829242222011089325 -0.16080963611602783203 -0.47237429022789001465 -0.21650958061218261719 -0.097088351845741271973 -0.44979512691497802734 -0.044359870254993438721 -0.026884388178586959839 0.012718539685010910034 -0.015317917801439762115 0.0068076960742473602295 -0.066499620676040649414 0.04630764201283454895 0.0077485381625592708588 -0.11087827384471893311 0.054138362407684326172 0.01369286607950925827 0.32266515493392944336 0.097490556538105010986 0.28102356195449829102 -1.1270945072174072266 -0.0072956010699272155762 0.17068192362785339355 -0.70591074228286743164 0.14218240976333618164 0.048034206032752990723 0.03169026598334312439 0.029415795579552650452 0.014835191890597343445 0.035259857773780822754 -1.9039462131331674755e-05 -0.081742405891418457031 -0.041592132300138473511 -0.029062356799840927124 0.0075991237536072731018 -0.059387147426605224609 -0.03795571252703666687 0.00049584754742681980133 0.027561588212847709656 -0.080243781208992004395 0.028523197397589683533 -0.034011464565992355347 0.0087296161800622940063 -0.13531440496444702148 0.041074447333812713623 -0.0088574197143316268921 -0.15363028645515441895 -0.3624210357666015625 0.11825944483280181885 -0.38313007354736328125 1.2200299501419067383 -0.30872833728790283203 -0.019418705254793167114 0.0040009925141930580139 -0.014786375686526298523 0.021959220990538597107 0.060153223574161529541 0.011178107000887393951 0.006590269971638917923 0.00042003719136118888855 0.014476145617663860321 0.027523664757609367371 0.006961801089346408844 0.028107743710279464722 0.025374565273523330688 -0.085339516401290893555 -0.015259559266269207001 0.022444097325205802917 -0.060126684606075286865 -0.0033943702001124620438 -0.10720423609018325806 -0.0080103902146220207214 -0.071059711277484893799 0.15333895385265350342 0.025908885523676872253 0.16070719063282012939 0.0031584838870912790298 -0.28621664643287658691 0.099871456623077392578 -0.014841270633041858673 0.31151017546653747559 -0.0056611811742186546326 -0.10875742882490158081 -0.62441104650497436523 0.11784172803163528442 0.17748720943927764893 -0.21706964075565338135 0.044215995818376541138 -0.0021207386162132024765 0.10240788757801055908 0.1626847386360168457 0.02203873172402381897 -0.13977445662021636963 -0.0410650596022605896 -0.015134181827306747437 -0.11738268285989761353 -0.12901996076107025146 0.015934053808450698853 0.027315270155668258667 -0.0051975627429783344269 0.0068172803148627281189 0.010980750434100627899 0.037526231259107589722 -0.029448561370372772217 0.0085148802027106285095 -0.011881709098815917969 0.041436068713665008545 -0.078974083065986633301 -0.0030511189252138137817 -0.026460889726877212524 -0.028319058939814567566 -0.1067285686731338501 -0.058436401188373565674 0.20355142652988433838 -0.093611106276512145996 0.039144936949014663696 0.017359917983412742615 0.050361223518848419189 0.010917276144027709961 -0.0022756499238312244415 -0.013336323201656341553 0.0092405369505286216736 -0.063463956117630004883 -0.0095813078805804252625 0.00086343369912356138229 -0.016209144145250320435 -0.003957868088036775589 0.026267724111676216125 0.084789156913757324219 -0.029001759365200996399 0.022987468168139457703 0.015748636797070503235 -0.0018688653362914919853 0.052029073238372802734 0.03601732105016708374 0.0131124863401055336 0.021519526839256286621 -0.043030921369791030884 -0.01572854258120059967 0.041074190288782119751 -0.0094821164384484291077 -0.12851129472255706787 0.00052305712597444653511 0.029692854732275009155 0.017133384943008422852 0.0023586135357618331909 0.047809317708015441895 -0.047621905803680419922 0.0026739267632365226746 -0.00095276616048067808151 0.026745527982711791992 -0.013383551500737667084 -0.23063337802886962891 0.058945026248693466187 -0.16296623647212982178 -0.075224749743938446045 -0.14412258565425872803 0.0082608759403228759766 -0.059016395360231399536 0.25956109166145324707 0.18040724098682403564 -0.036055706441402435303 0.08175242692232131958 -0.079077899456024169922 -0.26751187443733215332 0.003307180013507604599 0.101554088294506073 -0.12489902228116989136 0.030403787270188331604 0.26378256082534790039 0.12104298174381256104 -0.011473495513200759888 0.010726015083491802216 -0.2234961092472076416 0.054137539118528366089 -0.033683821558952331543 -0.21957327425479888916 -0.057465530931949615479 -0.069837056100368499756 0.077497914433479309082 -0.051670469343662261963 0.11955728381872177124 -0.13879792392253875732 0.093115098774433135986 0.057470053434371948242 -0.32925701141357421875 0.18743260204792022705 -0.048930432647466659546 -0.017745813354849815369 -0.039689499884843826294 0.0030033341608941555023 -0.017593571916222572327 0.030353277921676635742 -0.055430278182029724121 0.0026626237668097019196 -0.0037306665908545255661 0.075283668935298919678 0.0030876663513481616974 0.04884606972336769104 -0.032787118107080459595 -0.18279767036437988281 -0.035010606050491333008 0.015872705727815628052 -0.11832325905561447144 0.039512708783149719238 0.15921226143836975098 0.12964066863059997559 0.20150716602802276611 0.070814557373523712158 -0.2521260380744934082 0.0378073863685131073 0.048796281218528747559 -0.20909592509269714355 0.043947972357273101807 -0.12457303702831268311 -0.16232645511627197266 -0.16192518174648284912 0.015858246013522148132 0.1534799039363861084 0.27041459083557128906 -0.089931450784206390381 -0.11518134176731109619 -0.23128655552864074707 -0.017234427854418754578 -0.034424949437379837036 0.082039296627044677734 0.0056578111834824085236 -0.072027437388896942139 0.083568699657917022705 0.012158459052443504333 -0.06851663440465927124 0.03603849560022354126 -0.024406172335147857666 0.025344913825392723083 -0.044071868062019348145 -0.076228797435760498047 -0.061660859733819961548 0.035056810826063156128 -0.089913949370384216309 -0.075543709099292755127 0.0013064919039607048035 0.1388180851936340332 -0.029495626688003540039 -0.16328071057796478271 -0.15473416447639465332 -0.90164983272552490234 -0.052061267197132110596 0.031994789838790893555 0.30297872424125671387 -0.14483721554279327393 -0.094344340264797210693 0.078684702515602111816 -0.021450575441122055054 0.13605049252510070801 -0.098246484994888305664 0.052757307887077331543 -0.015492270700633525848 -0.10258361697196960449 0.013697182759642601013 0.0054540145210921764374 -0.0031245604623109102249 0.0063465880230069160461 -0.0023333418648689985275 0.021911216899752616882 0.0021089517977088689804 0.0089991912245750427246 -0.00041591891204006969929 0.011536427773535251617 -0.028249211609363555908 0.055136568844318389893 -0.015183164738118648529 -0.13836975395679473877 -0.42602059245109558105 0.028290636837482452393 -0.21795487403869628906 0.1533997952938079834 -0.10827808082103729248 -0.079721830785274505615 0.050340842455625534058 -0.1134006306529045105 -0.049019861966371536255 0.50332617759704589844 -0.020635893568396568298 -0.17305105924606323242 -0.15373487770557403564 -0.066574379801750183105 

