-0.076388344168663024902 -0.0073159891180694103241 -0.01818818412721157074 -0.010154376737773418427 0.025412783026695251465 0.019013512879610061646 -0.021793309599161148071 0.010808724910020828247 -0.0098628588020801544189 0.0091712959110736846924 0.0019861636683344841003 0.020307594910264015198 0.028383985161781311035 -0.032361336052417755127 0.013182732276618480682 0.040686789900064468384 -0.0077165290713310241699 0.099810868501663208008 -0.016149723902344703674 -0.014142385683953762054 -0.019897695630788803101 0.015615874901413917542 0.056394338607788085938 0.0038907227572053670883 -0.12851175665855407715 0.017067993059754371643 -0.030680133029818534851 -0.039724197238683700562 -0.015937594696879386902 0.03985545039176940918 0.019993524998426437378 -0.0047898716293275356293 -0.014417692087590694427 0.022087043151259422302 -0.0013950888533145189285 0.0041756555438041687012 -0.017893072217702865601 0.045088347047567367554 -0.0031597919296473264694 0.010896734893321990967 0.019194133579730987549 0.017274925485253334045 -0.074531272053718566895 -0.027564141899347305298 -0.054764460772275924683 -0.03915699198842048645 -0.008013507351279258728 0.026278698816895484924 0.027051391080021858215 0.0073446617461740970612 -0.014127728529274463654 -0.043030880391597747803 -0.016030509024858474731 -0.010386507026851177216 0.0028431236278265714645 -0.027969695627689361572 -0.0018980179447680711746 0.0059978403151035308838 0.047419536858797073364 0.023880500346422195435 0.00077957153553143143654 -0.03702630847692489624 -0.017624333500862121582 -0.0011783161899074912071 -0.019708890467882156372 -0.016149887815117835999 0.0066870381124317646027 0.0062031731940805912018 0.022842155769467353821 -0.011094988323748111725 0.030346663668751716614 -0.013944128528237342834 -0.010783776640892028809 -0.038625851273536682129 0.029352573677897453308 -0.024229452013969421387 -0.016690485179424285889 0.0020545281004160642624 0.0065058115869760513306 -0.034373495727777481079 0.040854603052139282227 -0.024955583736300468445 0.0088235167786478996277 -0.01332425139844417572 -0.062834456562995910645 -0.050692379474639892578 -0.0037178469356149435043 0.066230148077011108398 -0.032784860581159591675 0.0092684617266058921814 -0.00050232425564900040627 -0.014691236428916454315 -0.04271116107702255249 -0.025720512494444847107 0.013911860063672065735 0.017120745033025741577 -0.072411388158798217773 -0.0044304635375738143921 -0.04986903071403503418 -0.010639523155987262726 -0.0061301584355533123016 -0.015788050368428230286 -0.0080969305709004402161 0.039446875452995300293 0.033771269023418426514 -0.013317537494003772736 -0.005797418300062417984 -0.039540667086839675903 -0.062804929912090301514 0.010961215943098068237 -0.010715804994106292725 0.014256570488214492798 0.00092503399355337023735 -0.035663638263940811157 0.059983413666486740112 0.020092874765396118164 -0.033363644033670425415 -0.0019123855745419859886 0.0021962986793369054794 -0.11854034662246704102 0.04667204245924949646 0.066526144742965698242 0.00080697325756773352623 -0.066209308803081512451 -0.028353622183203697205 -0.13162004947662353516 -0.059518624097108840942 -0.015502269379794597626 -0.028993997722864151001 0.0050511723384261131287 0.046311333775520324707 0.024641901254653930664 -0.017905110493302345276 -0.01346723455935716629 -0.016318311914801597595 0.038343004882335662842 0.038093101233243942261 0.051673389971256256104 -0.04723790287971496582 -0.032225225120782852173 0.014604933559894561768 0.017880924046039581299 -0.018474787473678588867 0.065019093453884124756 -0.065556541085243225098 0.016663905233144760132 -0.087123908102512359619 0.015752881765365600586 0.11026619374752044678 0.023503798991441726685 -0.073349326848983764648 0.017469147220253944397 -0.16430139541625976562 0.011406424455344676971 0.0078012463636696338654 0.028270101174712181091 -0.0046898918226361274719 0.0055053820833563804626 0.022201899439096450806 0.061727978289127349854 0.016193764284253120422 0.035614561289548873901 0.032952174544334411621 -0.035309486091136932373 -0.014613806270062923431 0.016221510246396064758 -0.017955122515559196472 0.044706780463457107544 0.014000058174133300781 -0.0029157106764614582062 0.016871061176061630249 0.038155529648065567017 0.013420139439404010773 0.017059076577425003052 0.032696515321731567383 -0.050050724297761917114 0.035475671291351318359 0.10929800570011138916 0.010828464291989803314 0.058812838047742843628 0.037431702017784118652 -0.028023507446050643921 0.022542562335729598999 -0.01120957639068365097 -0.012855605222284793854 0.0026421251241117715836 -0.011334395036101341248 0.039391126483678817749 -0.014176052995026111603 -0.0033886374440044164658 -0.012593540363013744354 0.024101790040731430054 0.0090570943430066108704 0.020247217267751693726 -0.018469130620360374451 -0.054452963173389434814 0.010093337856233119965 0.037895321846008300781 0.040796212852001190186 0.032340280711650848389 0.041075132787227630615 -0.0079210931435227394104 0.034867696464061737061 0.048256479203701019287 -0.072160989046096801758 -0.019071763381361961365 0.020862588658928871155 0.0013102196389809250832 -0.051595676690340042114 0.014062631875276565552 0.022352786734700202942 -0.0068815499544143676758 0.009607445448637008667 0.014533995650708675385 0.019525883719325065613 0.0040614227764308452606 -0.032597769051790237427 -0.0089995460584759712219 -0.020050715655088424683 -0.033180695027112960815 0.012263054028153419495 -0.0055694989860057830811 -0.036820977926254272461 0.0065345703624188899994 -0.037595197558403015137 0.098656028509140014648 0.031473435461521148682 0.058455795049667358398 0.0073700924403965473175 0.0015672256704419851303 0.0069649461656808853149 -0.0035013388842344284058 -0.013371665962040424347 0.0027110066730529069901 0.035164497792720794678 0.020258560776710510254 0.027378594502806663513 0.0087977610528469085693 -0.038198009133338928223 0.017942402511835098267 0.10668244212865829468 -0.023972446098923683167 0.048530280590057373047 0.020092148333787918091 -0.042786221951246261597 -0.022911163046956062317 -0.02643230929970741272 -0.0033757311757653951645 0.026052542030811309814 -0.001611109473742544651 0.017656920477747917175 0.012114504352211952209 0.022275151684880256653 -0.012876855209469795227 0.029251940548419952393 0.00067313335603103041649 -0.037689875811338424683 -0.029282638803124427795 -0.013187178410589694977 -0.0055569568648934364319 -0.0074559748172760009766 0.0080286106094717979431 -0.012199360877275466919 -0.024426015093922615051 -0.02872648090124130249 0.010129973292350769043 0.0061207916587591171265 0.00085234036669135093689 -0.02887147851288318634 -0.0098084537312388420105 -0.003957228735089302063 0.035334195941686630249 0.045612242072820663452 0.033155877143144607544 -0.008861280977725982666 -0.012393295764923095703 0.010211157612502574921 -0.010586580261588096619 0.036583270877599716187 0.045739337801933288574 -0.017964173108339309692 0.048671249300241470337 -0.011259452439844608307 -0.035172596573829650879 -0.016082614660263061523 0.020332502201199531555 0.002120369812473654747 0.040373951196670532227 0.014446567744016647339 -0.033050708472728729248 0.01821231842041015625 0.014781992882490158081 -0.029157856479287147522 -0.010975188575685024261 -0.0091703692451119422913 0.0094438577070832252502 0.035114441066980361938 -0.035973928868770599365 -0.010313492268323898315 0.0071494430303573608398 0.0087844040244817733765 0.049248605966567993164 -0.015784002840518951416 -0.042565595358610153198 0.016503009945154190063 -0.048254225403070449829 -0.0064240870997309684753 0.010047974996268749237 0.0014095274964347481728 0.032104790210723876953 -0.0080545498058199882507 0.018235243856906890869 0.0076488456688821315765 0.013738767243921756744 -0.0043545877560973167419 -0.011027139611542224884 0.019491346552968025208 -0.025658864527940750122 0.026861267164349555969 -0.0044351988472044467926 0.026582440361380577087 -0.047627616673707962036 0.029842821881175041199 -0.017761392518877983093 -0.26893582940101623535 -0.021822232753038406372 -0.26530438661575317383 0.036051891744136810303 0.26950550079345703125 0.07415746152400970459 -0.2873795926570892334 0.0093712816014885902405 -0.22714714705944061279 -0.0028262150008231401443 0.025354627519845962524 -0.0075070192106068134308 0.032520316541194915771 0.047993499785661697388 0.022808015346527099609 -0.013849976472556591034 -0.00069701444590464234352 0.0051613869145512580872 0.024643875658512115479 0.023159096017479896545 -0.0214654579758644104 0.017364844679832458496 0.007435518316924571991 0.017989883199334144592 0.00078900594962760806084 0.023965036496520042419 -0.0026413213927298784256 -0.034853886812925338745 -0.00045447362936101853848 -0.076377309858798980713 0.044810194522142410278 0.036349575966596603394 0.020623249933123588562 0.00079539773287251591682 0.036683395504951477051 -0.027613565325736999512 0.020308004692196846008 -0.013676202856004238129 0.068167477846145629883 -0.0080282734706997871399 -0.030149739235639572144 0.033194594085216522217 0.065858609974384307861 0.030409252271056175232 0.03730610385537147522 0.020871806889772415161 -0.026483371853828430176 0.014156133867800235748 -0.0056926137767732143402 -0.03238841518759727478 0.0073627103120088577271 0.060404945164918899536 0.015406145714223384857 0.067089945077896118164 0.015177669934928417206 -0.026590287685394287109 -0.0230571795254945755 0.024233169853687286377 0.023860180750489234924 0.017875030636787414551 -0.0021270266734063625336 -0.003940819762647151947 -0.022177264094352722168 -0.049947131425142288208 -0.038595020771026611328 -0.030443621799349784851 -0.023583758622407913208 0.031399670988321304321 0.0084081850945949554443 -0.04799833148717880249 -0.0080946488305926322937 -0.053637716919183731079 -0.066919893026351928711 -0.06485436856746673584 -0.12313336879014968872 0.022099541500210762024 0.0030591099057346582413 -0.014116092585027217865 -0.066246837377548217773 -0.011466761119663715363 -0.0032897719647735357285 0.0095093930140137672424 -0.0084353657439351081848 0.013731983490288257599 0.015130076557397842407 0.0015025056200101971626 0.006388653535395860672 -0.016230985522270202637 -0.018739011138677597046 -0.0070184115320444107056 -0.022433949634432792664 -0.0020777673926204442978 -0.0021232820581644773483 0.018143821507692337036 -0.061776019632816314697 -0.012796901166439056396 0.048552747815847396851 0.036196634173393249512 0.047362186014652252197 -0.016904843971133232117 0.0042010587640106678009 0.010358116589486598969 -0.017925497144460678101 0.039261732250452041626 -0.0063154343515634536743 -0.013744010590016841888 0.005345190875232219696 -0.027803067117929458618 0.046185225248336791992 0.038333378732204437256 -0.031740944832563400269 0.019036583602428436279 -0.012462586164474487305 -0.0041419463232159614563 -0.026128018274903297424 -0.039558943361043930054 0.046025931835174560547 -0.010634953156113624573 -0.0023639767896384000778 -0.012415946461260318756 0.015244176611304283142 0.0051075485534965991974 0.019552122801542282104 0.029357744380831718445 0.00089834636310115456581 -0.059080328792333602905 0.033174578100442886353 -0.015294296666979789734 -0.089004747569561004639 0.027854362502694129944 0.007937910035252571106 0.023708852007985115051 -0.023654425516724586487 -0.045015875250101089478 -0.018564466387033462524 0.014050394296646118164 -0.010190840810537338257 0.067448310554027557373 0.019104884937405586243 -0.055664639919996261597 0.010141639970242977142 0.081339068710803985596 -0.0056882374919950962067 0.084905810654163360596 -0.013581749051809310913 0.028943974524736404419 -0.025020431727170944214 -0.0051784608513116836548 -0.013824217021465301514 0.024590980261564254761 0.0096264779567718505859 0.0070043196901679039001 -0.01972490362823009491 0.028672562912106513977 -0.036416206508874893188 0.046777442097663879395 -0.024175336584448814392 -0.033033665269613265991 0.00977533683180809021 0.018683379516005516052 -0.0049762381240725517273 0.01084600202739238739 0.039078295230865478516 -0.011098959483206272125 0.0057222326286137104034 0.015424009412527084351 0.010225954465568065643 0.021923992782831192017 -0.010033999569714069366 0.030343042686581611633 -0.011138145811855792999 0.071750536561012268066 0.027992762625217437744 0.036209054291248321533 -0.00066217355197295546532 0.023443985730409622192 -0.00030262430664151906967 0.016851350665092468262 0.029023373499512672424 0.011341291479766368866 -0.24180535972118377686 0.002198369242250919342 -0.13686437904834747314 -0.11115652322769165039 0.14205512404441833496 0.0059326118789613246918 -0.27826073765754699707 -0.083656735718250274658 -0.27247419953346252441 0.016352189704775810242 -0.013587308116257190704 -0.022737946361303329468 0.0062431907281279563904 0.0072618662379682064056 -0.001400638604536652565 -0.021847181022167205811 0.030016887933015823364 -0.0057933419011533260345 -0.058188971132040023804 0.036071337759494781494 -0.016934830695390701294 -0.014601713046431541443 0.041414063423871994019 -0.0030925073660910129547 -0.032336689531803131104 0.029587911441922187805 -0.023664655163884162903 -0.011530022136867046356 0.021311003714799880981 0.029197618365287780762 0.021883683279156684875 0.003090120851993560791 -0.0079217497259378433228 -0.015714904293417930603 0.010683180764317512512 0.0052200141362845897675 -0.11269814521074295044 -0.13070693612098693848 0.031991466879844665527 0.067154131829738616943 0.026602758094668388367 0.039319571107625961304 -0.079207114875316619873 -0.0046068066731095314026 -0.1201809421181678772 0.013732338324189186096 -0.024257129058241844177 0.021026361733675003052 -0.025527793914079666138 0.078436583280563354492 -0.042830683290958404541 -0.0022449709940701723099 0.025460539385676383972 -0.043335095047950744629 -0.086507253348827362061 -0.12593327462673187256 -0.14373387396335601807 -0.010693104937672615051 -0.049742117524147033691 -0.024601129814982414246 -0.050295639783143997192 0.018810674548149108887 0.046789292246103286743 0.034301124513149261475 -0.024435028433799743652 0.017961660400032997131 0.029596298933029174805 -0.019523978233337402344 -0.01020613592118024826 0.018442904576659202576 -0.0080407913774251937866 0.043269582092761993408 -0.049144618213176727295 0.012308082543313503265 -0.02433354593813419342 -0.044702544808387756348 -0.0059996163472533226013 -0.026895875111222267151 -0.024239866062998771667 0.0074028116650879383087 -0.022823639214038848877 -0.011023110710084438324 -0.0099275428801774978638 -0.031738843768835067749 -0.029291922226548194885 0.051923014223575592041 -0.0006849897908978164196 0.034672327339649200439 0.018009101971983909607 0.026109527796506881714 0.013068888336420059204 0.036699850112199783325 -0.022599283605813980103 0.064612008631229400635 0.065700441598892211914 -0.0059790466912090778351 0.050712756812572479248 0.031170187518000602722 -0.0089980252087116241455 -0.0064375828951597213745 0.004507518373429775238 -0.019865863025188446045 -0.026576241478323936462 0.029982896521687507629 -0.014426265843212604523 -0.0052087693475186824799 0.0024556710850447416306 0.0063008805736899375916 -0.049026787281036376953 0.017765296623110771179 -0.070277102291584014893 0.0042734928429126739502 0.033513098955154418945 0.03527257964015007019 0.0050195660442113876343 0.0003031743108294904232 -0.023645048961043357849 0.027795568108558654785 0.055080536752939224243 0.053133625537157058716 0.05629358440637588501 0.04094390571117401123 0.025474218651652336121 -0.048533640801906585693 0.073721975088119506836 -0.013924916274845600128 0.011883391998708248138 -0.0062680630944669246674 -0.024553140625357627869 -0.0085444059222936630249 0.046992421150207519531 0.030288415029644966125 0.0058425208553671836853 -0.0729200020432472229 0.040196053683757781982 0.015669023618102073669 0.039952643215656280518 -0.0099992016330361366272 0.015514418482780456543 -0.027132367715239524841 0.023765120655298233032 0.040394503623247146606 -0.0031500780023634433746 0.02273450605571269989 0.0039476272650063037872 0.0032229761127382516861 0.01727596670389175415 0.013274887576699256897 -0.0027718285564333200455 0.015345772728323936462 -0.013557573780417442322 -0.015862416476011276245 0.018039988353848457336 -0.014154524542391300201 0.0032456300687044858932 -0.033972222357988357544 0.024737862870097160339 0.04477892071008682251 -0.0098711010068655014038 0.0071378378197550773621 0.014778037555515766144 -0.0029706046916544437408 -0.015419550240039825439 -0.011634707450866699219 0.021745713427662849426 0.018754897639155387878 0.029431685805320739746 -0.016643706709146499634 -0.025104906409978866577 0.014322316274046897888 0.038575746119022369385 -0.0032432707957923412323 0.023977994918823242188 -0.025021566078066825867 -0.050215329974889755249 0.016498493030667304993 0.0020659405272454023361 -0.06569591909646987915 -0.001644534524530172348 -0.045677658170461654663 0.0087479930371046066284 0.053461566567420959473 -0.01376867387443780899 -0.0036910916678607463837 0.0048997425474226474762 0.003115573665127158165 0.0016567861894145607948 -0.021588964387774467468 -0.041604600846767425537 -0.018592419102787971497 0.03854152187705039978 -0.023627743124961853027 -0.003282177262008190155 0.047123499214649200439 -0.05105547979474067688 -0.075700484216213226318 0.040847539901733398438 -0.088739857077598571777 -0.020367931574583053589 -0.019692709669470787048 -0.025028182193636894226 -0.0061139753088355064392 0.0042682173661887645721 0.021382348611950874329 -0.028008503839373588562 -0.0011844697874039411545 0.00211121351458132267 -0.037895057350397109985 -0.04191908612847328186 -0.05131289362907409668 -0.0025099220219999551773 0.039801348000764846802 0.0046723238192498683929 -0.019725287333130836487 -0.08427654951810836792 -0.019390713423490524292 0.011588251218199729919 -0.032212190330028533936 0.045176960527896881104 0.024445781484246253967 -0.029274063184857368469 0.05600263550877571106 0.029092792421579360962 -0.0020627342164516448975 0.045021139085292816162 0.03066493012011051178 -0.051226094365119934082 0.016800479963421821594 0.011718794703483581543 -0.015647182241082191467 0.021519599482417106628 -0.015683040022850036621 -0.0020340527407824993134 -0.031019467860460281372 -0.1650285571813583374 -0.09013582766056060791 -0.01132070738822221756 -0.081517226994037628174 0.0017138296971097588539 0.051263470202684402466 -0.12439850717782974243 -0.031475629657506942749 0.043635677546262741089 0.0049616964533925056458 0.013387668877840042114 0.024822350591421127319 -0.0039436640217900276184 0.009990649297833442688 -0.014765200205147266388 -0.052964795380830764771 0.019936539232730865479 -0.030982077121734619141 0.0054342662915587425232 -0.0053664678707718849182 0.0076467380858957767487 -0.046200059354305267334 -0.02715930156409740448 -0.0086614741012454032898 -0.037566572427749633789 0.0059004481881856918335 -0.025014089420437812805 -0.014951121993362903595 -0.00852955598384141922 -0.029073016718029975891 -0.013422424905002117157 -0.0098393559455871582031 0.075065135955810546875 0.0043562427163124084473 0.00034099773620255291462 -0.044274389743804931641 0.010296271182596683502 0.023732015863060951233 -0.0011204105103388428688 0.019617520272731781006 0.023588100448250770569 -0.006101118866354227066 -0.030734069645404815674 -0.014225192368030548096 -0.011005434207618236542 0.018088135868310928345 0.0039538200944662094116 -0.010100742802023887634 -0.026943273842334747314 -0.0013471768470481038094 -0.018951293081045150757 0.041412930935621261597 0.017049742862582206726 0.028764402493834495544 0.01277947891503572464 0.002801836235448718071 -0.0055906968191266059875 -0.00069855886977165937424 -0.0098508894443511962891 -0.011220333166420459747 -0.010325350798666477203 0.013320625759661197662 -0.015284469351172447205 -0.05169124901294708252 -0.0030043320730328559875 -0.064378917217254638672 -0.038795754313468933105 0.064122319221496582031 0.01532382424920797348 -0.081697203218936920166 -0.078158557415008544922 -0.079603657126426696777 0.015575063414871692657 0.04253724217414855957 0.023926233872771263123 -0.029620258137583732605 -0.0015283985994756221771 -0.036046374589204788208 -0.023994429036974906921 -0.010132611729204654694 -0.065257601439952850342 -0.037567909806966781616 0.0073841409757733345032 -0.018982311710715293884 -0.037132326513528823853 -0.013348703272640705109 -0.019668541848659515381 0.0089228907600045204163 0.025127718225121498108 0.021938549354672431946 -0.26140877604484558105 -0.15218326449394226074 -0.097832180559635162354 -0.018584351986646652222 0.090399242937564849854 0.049857322126626968384 -0.0044458955526351928711 -0.0090542221441864967346 -0.047367248684167861938 -0.0062403283081948757172 0.012104564346373081207 0.0090664112940430641174 -0.028767669573426246643 -0.018333582207560539246 -0.031440235674381256104 0.045159459114074707031 0.0062198415398597717285 0.022380571812391281128 0.018898012116551399231 -0.026153285056352615356 0.0045555294491350650787 -0.002413931768387556076 0.029177982360124588013 0.014852622523903846741 0.0049814614467322826385 -0.024762241169810295105 0.013425956480205059052 -0.060967441648244857788 0.010370216332376003265 -0.045654080808162689209 0.02345355600118637085 0.037954475730657577515 -0.010030279867351055145 -0.024130946025252342224 0.032080039381980895996 -0.013017837889492511749 -0.078777298331260681152 0.00020878569921478629112 -0.019302433356642723083 -0.0088006183505058288574 0.064582750201225280762 -0.019004018977284431458 -0.089514404535293579102 0.0052329786121845245361 -0.068184167146682739258 -0.022308634594082832336 0.0095273014158010482788 -0.030195152387022972107 0.014992094598710536957 0.003477344755083322525 -0.013397715985774993896 -0.018198000267148017883 0.024359621107578277588 0.0022152271121740341187 -0.022929809987545013428 0.0067553711123764514923 -0.031172748655080795288 0.017618993297219276428 0.0462340526282787323 0.026029910892248153687 -0.050398107618093490601 -0.031177420169115066528 -0.067405812442302703857 -0.42202600836753845215 -0.16729372739791870117 -0.035496007651090621948 -0.093575417995452880859 0.028446998447179794312 0.11574869602918624878 -0.43892920017242431641 -0.070661969482898712158 -0.061082955449819564819 -0.058811958879232406616 -0.24284823238849639893 -0.33760431408882141113 0.0079369340091943740845 -0.088955253362655639648 -0.10404463112354278564 0.0095128398388624191284 0.041715484112501144409 0.045077662914991378784 -0.041913535445928573608 -0.01133543066680431366 0.026141947135329246521 0.0050860820338129997253 0.054922990500926971436 -0.02350521087646484375 -0.051459416747093200684 -0.016890656203031539917 -0.00040549886762164533138 -0.038334704935550689697 0.045252006500959396362 -0.083512589335441589355 -0.0031307744793593883514 0.0090402439236640930176 0.0093476055189967155457 -0.037612464278936386108 0.040123999118804931641 0.0087380474433302879333 0.049145869910717010498 0.014684323221445083618 0.03102551586925983429 -0.018740328028798103333 -0.018315391615033149719 -0.022567750886082649231 0.017128918319940567017 -0.016182594001293182373 -0.035399258136749267578 -0.0083022275939583778381 0.036559287458658218384 -0.0039226245135068893433 -0.039660714566707611084 0.037583030760288238525 -0.0038130853790789842606 -0.060001205652952194214 -0.038810484111309051514 0.0026377486065030097961 0.018881916999816894531 -0.02195402979850769043 -0.026249805465340614319 0.020864348858594894409 0.0034770609345287084579 0.0096984039992094039917 -0.020249707624316215515 -0.040038581937551498413 0.010788511484861373901 0.0083607882261276245117 -0.024745333939790725708 -0.0064089125953614711761 -0.0096988724544644355774 0.03195338323712348938 -0.029809085652232170105 -0.042266383767127990723 0.015946712344884872437 -0.019512696191668510437 0.025144474580883979797 0.020055802538990974426 0.027616428211331367493 0.0058546089567244052887 -0.052734248340129852295 0.019027512520551681519 0.016920298337936401367 0.014986618421971797943 0.016854241490364074707 -0.011328526772558689117 0.024261424317955970764 -0.018312111496925354004 0.0014824651880189776421 -0.00904482230544090271 -0.0062284953892230987549 0.02567869238555431366 0.0088727558031678199768 -0.0087436586618423461914 -0.0030716531910002231598 0.027927415445446968079 -0.048483621329069137573 0.026597736403346061707 -0.033892255276441574097 0.013768688775599002838 0.018884548917412757874 0.0057334089651703834534 -0.022540720179677009583 -0.00959643535315990448 -0.047938555479049682617 -0.025068698450922966003 -0.0060876542702317237854 -0.039705891162157058716 -0.016728334128856658936 0.014504740945994853973 -0.023764763027429580688 -0.00020144009613431990147 0.02313465997576713562 0.019023032858967781067 0.013579604215919971466 -0.036916162818670272827 0.0013355085393413901329 -0.0069499951787292957306 0.080452360212802886963 0.091517865657806396484 0.049409430474042892456 -0.1021046563982963562 -0.16214570403099060059 -0.072587825357913970947 0.0056877732276916503906 -0.31550016999244689941 0.19051702320575714111 -0.040894269943237304688 0.11178686469793319702 0.036367248743772506714 -0.12685954570770263672 0.14207784831523895264 -0.019211959093809127808 0.11655166000127792358 -0.13444539904594421387 -0.14966429769992828369 0.026642356067895889282 0.041375808417797088623 0.15325698256492614746 0.12176164984703063965 -0.12372937053442001343 -0.082162030041217803955 0.0087783727794885635376 -0.42104712128639221191 -0.031791515648365020752 0.03258420899510383606 0.16961519420146942139 0.05215243995189666748 0.054920457303524017334 -0.088362149894237518311 0.049074731767177581787 -0.0037146781105548143387 -0.16236458718776702881 0.049500998109579086304 0.11458608508110046387 0.055266965180635452271 0.098855406045913696289 0.038948256522417068481 -0.02288215048611164093 0.025108760222792625427 -0.10862235724925994873 -0.037761155515909194946 0.043549716472625732422 0.0045678094029426574707 -0.12255676835775375366 0.083653733134269714355 0.065334849059581756592 -0.0028266175650060176849 0.041630048304796218872 -0.020798647776246070862 0.089954011142253875732 -0.10205739736557006836 0.12894332408905029297 -0.052490316331386566162 0.059525784105062484741 -0.010791474953293800354 -0.12130541354417800903 -0.041873261332511901855 -0.015656074509024620056 -0.095011368393898010254 -0.022291900590062141418 -0.023270810022950172424 -0.056952241808176040649 0.025472337380051612854 -0.34632551670074462891 -0.064781971275806427002 -0.0677682533860206604 -0.43702074885368347168 0.056917048990726470947 -0.063734494149684906006 -0.34157344698905944824 -0.031079635024070739746 0.064377270638942718506 0.0028619021177291870117 0.011879442259669303894 0.083765931427478790283 0.098191790282726287842 0.01767931133508682251 0.088211752474308013916 0.024808349087834358215 -0.069230638444423675537 0.085925303399562835693 0.11945877969264984131 -0.10819110274314880371 0.061210375279188156128 0.086526341736316680908 -0.083037167787551879883 0.078413873910903930664 -0.047052122652530670166 0.26093617081642150879 -0.081402733922004699707 -0.054468236863613128662 -0.03460123017430305481 -0.050615973770618438721 -0.10303734242916107178 -0.0018768921727314591408 -0.14488269388675689697 0.09820184856653213501 0.084366321563720703125 -0.031780444085597991943 0.048237949609756469727 -0.056298367679119110107 0.013779173605144023895 -0.031182091683149337769 0.076600044965744018555 -0.026006279513239860535 0.032543756067752838135 0.014290085062384605408 -0.032363276928663253784 -0.083138145506381988525 0.082946404814720153809 -0.069817148149013519287 -0.0068381722085177898407 -0.046855993568897247314 -0.076569162309169769287 -0.08853887021541595459 -0.043142363429069519043 -0.036730632185935974121 0.022312600165605545044 -0.11245791614055633545 -0.034440726041793823242 -0.11335366964340209961 0.10624087601900100708 -0.017831176519393920898 -0.027065701782703399658 -0.11419126391410827637 -0.085421994328498840332 0.13169294595718383789 0.10680845379829406738 0.094942934811115264893 0.035888578742742538452 -0.035934980958700180054 0.10510036349296569824 0.10895386338233947754 0.027201937511563301086 0.015244310721755027771 0.28875046968460083008 0.063538029789924621582 0.044807713478803634644 0.2765763700008392334 0.3602078855037689209 0.025219988077878952026 0.11538968980312347412 0.14064037799835205078 -0.058965824544429779053 0.13636976480484008789 0.033187478780746459961 0.036532007157802581787 0.039714492857456207275 0.006137663964182138443 0.0041339574381709098816 -0.03876991569995880127 -0.050550747662782669067 -0.04619251936674118042 0.041927061975002288818 -0.010399770922958850861 0.048140183091163635254 -0.034204769879579544067 0.054678130894899368286 -0.030055725947022438049 0.044416539371013641357 -0.044985502958297729492 0.015407929196953773499 -0.1403459012508392334 -0.056335553526878356934 0.020292814821004867554 -0.056202944368124008179 0.051640953868627548218 0.033934056758880615234 -0.097046762704849243164 -0.020059337839484214783 -0.021164968609809875488 0.12389861047267913818 0.0093115679919719696045 -0.01282305549830198288 0.083739824593067169189 -0.049634158611297607422 -0.08469165116548538208 0.046801552176475524902 -0.028869893401861190796 -0.021243391558527946472 0.099225312471389770508 0.023395093157887458801 0.00044901599176228046417 -0.027899214997887611389 -0.044206641614437103271 0.030166622251272201538 -0.01183703448623418808 0.01448374427855014801 0.069656208157539367676 0.028856890276074409485 -0.0379294566810131073 -0.055636879056692123413 -0.010632145218551158905 -0.17125470936298370361 -0.092083461582660675049 -0.052800990641117095947 -0.17684984207153320312 -0.092579558491706848145 0.018568087369203567505 0.010940634645521640778 -0.042874272912740707397 0.0065460600890219211578 -0.031639143824577331543 -0.082814805209636688232 -0.0252760276198387146 -0.065791435539722442627 -0.063436239957809448242 -0.041625268757343292236 0.036325242370367050171 -0.041470140218734741211 0.053929589688777923584 0.090092882513999938965 -0.035427000373601913452 0.11389283835887908936 0.10609979182481765747 0.017645785585045814514 -0.13896298408508300781 0.021621357649564743042 -0.11877084523439407349 0.11226278543472290039 -0.1119146198034286499 -0.10769638419151306152 -0.19701506197452545166 -0.03635242953896522522 0.0053189564496278762817 0.075463868677616119385 0.03198207169771194458 0.17574061453342437744 -0.052482295781373977661 0.014743407256901264191 -0.020331561565399169922 0.097706586122512817383 -0.028471430763602256775 0.018690953031182289124 -0.40257123112678527832 -0.0097813187167048454285 0.071420155465602874756 -0.17140306532382965088 0.30421802401542663574 0.27707958221435546875 -0.19067512452602386475 0.13520567119121551514 0.2513599395751953125 0.0091719143092632293701 -0.0046134879812598228455 0.020517390221357345581 0.031277544796466827393 -0.0063697500154376029968 0.048092979937791824341 -0.056275751441717147827 0.068550094962120056152 -0.055791161954402923584 0.021041974425315856934 -0.0054435557685792446136 0.0066072046756744384766 0.053627293556928634644 -0.057036153972148895264 0.074623353779315948486 0.11333684623241424561 0.018047416582703590393 0.064260810613632202148 -0.019271316006779670715 0.0084523735567927360535 -0.059976413846015930176 0.002645026426762342453 -0.021983778104186058044 -0.061720956116914749146 -0.073154114186763763428 -0.024554241448640823364 -0.10857193917036056519 -0.059476893395185470581 -0.28860399127006530762 0.013787214644253253937 -0.16853858530521392822 -0.16561618447303771973 0.011467011645436286926 -0.17015255987644195557 -0.63239330053329467773 0.077984623610973358154 -0.33835247159004211426 0.072584815323352813721 -0.11426683515310287476 -0.56010937690734863281 -0.44900125265121459961 -0.21688637137413024902 0.0095809707418084144592 -0.39061465859413146973 -0.088982224464416503906 0.27084210515022277832 -0.018393462523818016052 -0.013498153537511825562 0.060588087886571884155 -0.3845208585262298584 -0.16142123937606811523 0.26388490200042724609 -0.052093762904405593872 -0.070475190877914428711 0.00027312387828715145588 0.0023272603284567594528 0.016907194629311561584 -0.042205166071653366089 0.043000709265470504761 0.0049219755455851554871 0.0016922059003263711929 -0.020198633894324302673 0.014646619558334350586 0.030224774032831192017 0.060843978077173233032 0.0031694795470684766769 0.019056400284171104431 0.091939650475978851318 0.021818270906805992126 -0.062022335827350616455 -0.052885003387928009033 -0.069861769676208496094 0.004492250736802816391 -0.10303373634815216064 -0.048518545925617218018 -0.020633870735764503479 0.023158408701419830322 -0.068669460713863372803 0.024679567664861679077 0.076491110026836395264 0.00077676831278949975967 0.12839308381080627441 0.046372976154088973999 -0.031027534976601600647 0.093545027077198028564 -0.1375961601734161377 0.10650091618299484253 0.12481052428483963013 0.087232306599617004395 -0.017406387254595756531 0.22561046481132507324 0.11633707582950592041 0.21458901464939117432 -0.09035657346248626709 0.11745089292526245117 0.14297845959663391113 0.087747745215892791748 0.16711886227130889893 0.11317390203475952148 -0.19456084072589874268 -0.048234593123197555542 -0.022284671664237976074 0.1291198432445526123 0.013717604801058769226 -0.052408460527658462524 -0.18690881133079528809 0.0043804342858493328094 -0.047571111470460891724 -0.23727525770664215088 -0.19052660465240478516 -0.11722608655691146851 -0.04018801078200340271 0.24301442503929138184 -0.11782792955636978149 -0.19846273958683013916 0.081823393702507019043 0.0044811414554715156555 0.0082125077024102210999 0.085641145706176757812 0.11500094830989837646 -0.03322906792163848877 -0.2381490170955657959 -0.083902746438980102539 0.0078295599669218063354 -0.0097070485353469848633 -0.12591354548931121826 -0.065595030784606933594 0.057481646537780761719 0.11325022578239440918 -0.045074950903654098511 0.093230530619621276855 0.10705861449241638184 -0.020336639136075973511 0.063937246799468994141 0.06899884343147277832 -0.036765925586223602295 0.04733033105731010437 -0.030584849417209625244 0.030301578342914581299 -0.014324387535452842712 -0.058397885411977767944 0.072612963616847991943 0.12280382215976715088 0.019215345382690429688 0.0081427032127976417542 0.011695373803377151489 0.086290098726749420166 -0.10042001307010650635 0.13092680275440216064 -0.065311372280120849609 0.054428376257419586182 -0.016450675204396247864 0.16305156052112579346 -0.095914401113986968994 0.021768843755125999451 0.0021172948181629180908 0.10972663015127182007 0.052193589508533477783 0.018772026523947715759 -0.064951688051223754883 0.040651809424161911011 0.017537742853164672852 0.104360923171043396 0.058085590600967407227 0.074778199195861816406 0.077086478471755981445 0.06508903205394744873 0.062644526362419128418 0.0093234675005078315735 0.022470153868198394775 -0.055563203990459442139 -0.21929988265037536621 -0.026489660143852233887 -0.03178960457444190979 -0.15263544023036956787 0.12216258049011230469 -0.30643755197525024414 -0.21430537104606628418 -0.15618844330310821533 -0.12486674636602401733 -0.027596537023782730103 -0.024224974215030670166 0.0057235113345086574554 -0.01535952836275100708 -0.041996084153652191162 -0.041470710188150405884 0.037452749907970428467 0.06163562089204788208 0.033050995320081710815 

0.0049267220310866832733 0.045425523072481155396 0.010076816193759441376 -0.050203561782836914062 -0.032175116240978240967 -0.01304396800696849823 0.065898977220058441162 -0.0045389044098556041718 0.066789738833904266357 -0.0045215273275971412659 0.038892775774002075195 -0.015918910503387451172 -0.043181184679269790649 0.00074724975274875760078 -0.027467623353004455566 -0.013403071090579032898 0.034587103873491287231 -0.00057836162159219384193 -0.024097736924886703491 -0.022949667647480964661 0.016060808673501014709 0.016074631363153457642 0.030229225754737854004 -0.047750100493431091309 -0.070021353662014007568 0.024393869563937187195 0.026078114286065101624 -0.045890096575021743774 0.015367717482149600983 -0.072813250124454498291 0.012134620919823646545 0.0025831165257841348648 0.032816138118505477905 -0.017858918756246566772 0.021535305306315422058 -0.03910749778151512146 -0.04464723542332649231 -0.015913108363747596741 -0.082270845770835876465 -0.0084237959235906600952 0.052314974367618560791 -0.026750734075903892517 0.021118925884366035461 -0.008292133919894695282 -0.033597491681575775146 0.012345259077847003937 0.0073569924570620059967 0.0088226860389113426208 0.011306039057672023773 0.047394346445798873901 -0.0063729807734489440918 -0.010943547822535037994 0.083278417587280273438 -0.025810465216636657715 -0.0027163131162524223328 -0.022475883364677429199 0.0081139402464032173157 -0.0024988600052893161774 0.010099290870130062103 0.019643500447273254395 0.043951582163572311401 -0.039475101977586746216 -0.0074240211397409439087 0.0048266551457345485687 0.037276543676853179932 0.010127616114914417267 0.028425894677639007568 0.039467152208089828491 0.063645765185356140137 -0.060337185859680175781 -0.071941986680030822754 0.01421703677624464035 -0.055468469858169555664 -0.04307702183723449707 0.020284937694668769836 0.15294592082500457764 -0.0092748878523707389832 -0.13390086591243743896 -0.055863037705421447754 0.02625652216374874115 0.016826039180159568787 -0.0047410535626113414764 -0.011810322292149066925 -0.044737897813320159912 -0.052503731101751327515 -0.03642006218433380127 0.027446534484624862671 0.0395757332444190979 0.0062597589567303657532 -0.0079970052465796470642 -0.0090326676145195960999 0.014873197302222251892 -0.0053520458750426769257 -0.0029953862540423870087 -0.049310073256492614746 0.010747054591774940491 -0.012193855829536914825 -0.0010046752868220210075 0.008456469513475894928 0.045299623161554336548 0.04294249415397644043 -0.07339938730001449585 0.029037496075034141541 -0.07648884505033493042 0.023214899003505706787 -0.013618569821119308472 0.026650045067071914673 0.037066288292407989502 0.056306943297386169434 -0.028354091569781303406 -0.0055071143433451652527 -0.0053789899684488773346 0.013786903582513332367 0.009033138863742351532 0.004082333296537399292 0.0052950009703636169434 0.0024230303242802619934 0.0088083269074559211731 -0.0081842662766575813293 0.0054576992988586425781 0.025875572115182876587 0.049078825861215591431 -0.010827449150383472443 0.016379145905375480652 0.012867157347500324249 -0.056305110454559326172 0.022758221253752708435 -0.011876061558723449707 0.0065306467004120349884 -0.0024709047283977270126 -0.028651511296629905701 -0.016368478536605834961 0.028364326804876327515 -0.007583464495837688446 0.029494855552911758423 0.017302943393588066101 0.012915072031319141388 -0.00028273573843762278557 -0.014500904828310012817 -0.0045450115576386451721 0.012879961170256137848 0.023677702993154525757 0.0047424719668924808502 0.0049363169819116592407 0.0086479987949132919312 0.043462079018354415894 -0.024729505181312561035 -0.00074358819983899593353 0.0025730766355991363525 0.0028123552910983562469 0.026165647432208061218 -0.0024128563236445188522 0.022194916382431983948 -0.0026313089765608310699 -0.0088872723281383514404 -0.014590017497539520264 -0.0055861296132206916809 0.018135217949748039246 -0.00098623416852205991745 0.0071815727278590202332 -0.004472073633223772049 -0.0054422477260231971741 0.018656989559531211853 0.019431011751294136047 0.0035703617613762617111 -0.007694396190345287323 -0.01704402826726436615 -0.0095892455428838729858 0.0050097792409360408783 0.011824127286672592163 0.046936925500631332397 0.037660434842109680176 -0.067278929054737091064 -0.038986172527074813843 0.0059410422109067440033 -0.015053882263600826263 -0.089756622910499572754 0.052580744028091430664 -0.026862489059567451477 -0.052725724875926971436 -0.026558646932244300842 -0.0024626087397336959839 0.019671913236379623413 -0.0088337361812591552734 -0.004990904591977596283 -0.021406915038824081421 0.032867830246686935425 -0.0011776444735005497932 0.037791717797517776489 0.044252283871173858643 -0.029245344921946525574 -0.10051167756319046021 -0.094019107520580291748 -0.015770014375448226929 0.05993177369236946106 -0.13058948516845703125 0.089457623660564422607 -0.055737316608428955078 -0.060973651707172393799 0.034336432814598083496 -0.064498037099838256836 0.059314608573913574219 -0.050215329974889755249 0.010816570371389389038 -0.070901840925216674805 0.058429323136806488037 -0.026734223589301109314 -0.024364048615097999573 0.037701167166233062744 -0.0010201412951573729515 -0.00079699035268276929855 -0.0013885383959859609604 0.021944465115666389465 -0.048640217632055282593 0.049775898456573486328 -0.059329837560653686523 0.033082325011491775513 0.039932209998369216919 0.042776744812726974487 -0.024175647646188735962 -0.014512199908494949341 0.017402868717908859253 0.0069933938793838024139 -0.012936067767441272736 0.0092302775010466575623 0.009479997679591178894 -0.028264889493584632874 -0.013920525088906288147 -0.007444501388818025589 -0.00074470008257776498795 0.0010304822353646159172 0.023397734388709068298 0.03442879021167755127 -0.015879947692155838013 -0.0082467216998338699341 -0.0050080521032214164734 -0.0099130524322390556335 0.0077484515495598316193 0.018678002059459686279 0.018614061176776885986 0.0051958588883280754089 -0.015932358801364898682 0.0053721908479928970337 -0.013384561054408550262 0.017936633899807929993 0.041437786072492599487 0.037653818726539611816 0.06191730499267578125 0.035623241215944290161 0.061257898807525634766 0.0042915889061987400055 -0.0045410920865833759308 0.014357952401041984558 -0.045454751700162887573 -0.052635740488767623901 -0.0090756956487894058228 -0.0026202967856079339981 -0.041588865220546722412 0.022482296451926231384 0.013709435239434242249 0.0075188227929174900055 0.0089731924235820770264 -0.0032716584391891956329 0.015680249780416488647 0.019923293963074684143 -0.015062192454934120178 -0.0094329379498958587646 -0.065917357802391052246 0.031951006501913070679 0.0019225077703595161438 -0.032063536345958709717 0.013851106166839599609 -0.02566152624785900116 0.017544822767376899719 0.0072606373578310012817 0.016684597358107566833 -0.05432763323187828064 0.023165212944149971008 -0.044571511447429656982 -0.017654482275247573853 0.023236934095621109009 -0.019499713554978370667 -0.0095342164859175682068 -0.01603642292320728302 0.0049396343529224395752 0.016236154362559318542 0.0024987068027257919312 -0.012855605222284793854 0.041262097656726837158 -0.059582758694887161255 -0.0082060843706130981445 0.01611429266631603241 -0.00010246182500850409269 0.030720716342329978943 -0.043939460068941116333 0.024404319003224372864 -0.000626113091129809618 0.0054877265356481075287 0.0080536240711808204651 -0.024653205648064613342 -0.0086664473637938499451 -0.0021481816656887531281 0.011709054931998252869 0.0048547070473432540894 0.0013957245973870158195 -0.0030883317813277244568 -0.013151224702596664429 -0.006932737305760383606 -0.0038206691388040781021 0.016119161620736122131 0.0021744796540588140488 -0.016499973833560943604 -0.07293214648962020874 0.039076659828424453735 -0.010075301863253116608 0.011964069679379463196 0.065553478896617889404 -0.043196119368076324463 -0.0046991403214633464813 0.010787015780806541443 -0.037911102175712585449 -0.0040970034897327423096 0.031794093549251556396 0.0049684047698974609375 0.0174587201327085495 0.0038214388769119977951 0.021990312263369560242 0.01932375691831111908 0.0043730847537517547607 0.005504674278199672699 7.3425442678853869438e-05 -0.023771356791257858276 0.046168167144060134888 -0.032132320106029510498 0.0060426294803619384766 -0.010464563034474849701 0.0087495855987071990967 0.018073633313179016113 0.0085276281461119651794 -0.032778240740299224854 0.0015678164782002568245 -0.035768106579780578613 -0.013597577810287475586 0.012743526138365268707 -0.080197051167488098145 -0.014761532656848430634 -0.011186954565346240997 0.02691159956157207489 0.009012524038553237915 0.018220152705907821655 -0.032702732831239700317 -0.017570607364177703857 -0.019547820091247558594 -0.0029474410694092512131 0.0062324423342943191528 -0.0023090397007763385773 -0.01658176816999912262 -0.011802871711552143097 -0.0024134737905114889145 0.0059234159998595714569 0.049281261861324310303 0.0006067097419872879982 0.055169463157653808594 0.025905312970280647278 -0.012388352304697036743 -0.01467152964323759079 -0.02620677649974822998 0.0089121516793966293335 -0.01415300462394952774 0.034382607787847518921 0.00051866780268028378487 -0.039814166724681854248 -0.024936081841588020325 0.0025988861452788114548 0.038872834295034408569 0.0062121460214257240295 0.047186188399791717529 0.0019655697979032993317 -0.036722950637340545654 0.013678437098860740662 -0.0035923128016293048859 -0.00042403192492201924324 -0.072155363857746124268 -0.025747433304786682129 -0.00049629237037152051926 0.0375157967209815979 -0.027341371402144432068 -0.024179713800549507141 0.016302285715937614441 -0.060060881078243255615 0.013434683904051780701 0.052401714026927947998 0.036196406930685043335 -0.010272698476910591125 -0.0059386044740676879883 -0.021573957055807113647 0.028167586773633956909 -0.0057269362732768058777 -0.04393883049488067627 0.0090678576380014419556 -0.023294920101761817932 -0.0047253682278096675873 0.021468328312039375305 -0.033246342092752456665 0.0062219826504588127136 0.0098360301926732063293 0.024951986968517303467 0.040974497795104980469 -0.014317208901047706604 0.012369189411401748657 -0.0030796658247709274292 -0.00049911963287740945816 0.018089562654495239258 0.017155975103378295898 -0.068466655910015106201 0.059964422136545181274 -0.038096357136964797974 0.01679437980055809021 0.03198703378438949585 0.0046739908866584300995 -0.010501291602849960327 -0.011013965122401714325 -0.022959897294640541077 0.010547156445682048798 0.01647365279495716095 0.013649300672113895416 -0.0011553788790479302406 -0.051700804382562637329 -0.0091934138908982276917 -0.0061566219665110111237 -0.014230094850063323975 0.024849828332662582397 -0.0082674110308289527893 0.017253683879971504211 0.055155236274003982544 0.02167719230055809021 0.061315644532442092896 0.022506883367896080017 0.013632282614707946777 0.027278942987322807312 0.019824309274554252625 -0.016195910051465034485 0.048281304538249969482 -0.008242478594183921814 0.01971379108726978302 0.00036285349051468074322 -0.0066548353061079978943 -0.0078903371468186378479 -0.035769205540418624878 0.0088027901947498321533 0.041401553899049758911 0.016052640974521636963 -0.042283587157726287842 -0.044452380388975143433 0.045075636357069015503 0.24607229232788085938 -0.02672308310866355896 -0.076028935611248016357 -0.21844278275966644287 -0.022513873875141143799 0.059127356857061386108 -0.045134667307138442993 -0.06920232623815536499 0.030823312699794769287 -0.010785167105495929718 -0.031705815345048904419 0.0056931152939796447754 -0.045749161392450332642 0.059182599186897277832 -0.022742949426174163818 0.054452620446681976318 -0.027245167642831802368 -0.0033936235122382640839 -0.031375493854284286499 0.06446240842342376709 -0.015126009471714496613 0.034045379608869552612 0.0063552567735314369202 0.013768481090664863586 -0.044641427695751190186 -0.0023871595039963722229 0.015229372307658195496 0.044064082205295562744 -0.0053690378554165363312 0.012297109700739383698 -0.028574200347065925598 -0.043910440057516098022 -0.027243519201874732971 0.017967971041798591614 -0.038310647010803222656 0.0074948980472981929779 -0.021222390234470367432 0.0027269385755062103271 0.015175892971456050873 0.0079822642728686332703 -0.062245536595582962036 0.00074606778798624873161 -0.0019211235921829938889 0.016766414046287536621 0.082001291215419769287 0.020022513344883918762 -0.068184226751327514648 0.016908867284655570984 -0.023444069549441337585 -0.072721809148788452148 0.034256417304277420044 -0.067319177091121673584 0.011017351411283016205 0.034685049206018447876 -0.03671291843056678772 -0.00062970124417915940285 0.058738887310028076172 -0.12015856802463531494 0.0065017980523407459259 -0.0028563984669744968414 0.014113911427557468414 -0.0099291633814573287964 0.01566279679536819458 0.053912326693534851074 0.091386057436466217041 -0.028435721993446350098 -0.0013996495399624109268 0.018572365865111351013 -0.00026075082132592797279 0.054416701197624206543 0.021284146234393119812 -0.036278810352087020874 -0.025017671287059783936 0.016911180689930915833 -0.028072750195860862732 0.04614559561014175415 0.011338338255882263184 0.028043977916240692139 -0.00070602871710434556007 -0.0084545556455850601196 0.0039190058596432209015 -0.0024817136581987142563 0.034243900328874588013 -0.0052045388147234916687 0.02334398217499256134 -0.084070943295955657959 -0.056897453963756561279 0.0039000543765723705292 0.066268295049667358398 -0.028922738507390022278 0.0020767257083207368851 0.058743212372064590454 0.0091019831597805023193 0.041405301541090011597 0.0028353028465062379837 0.0037612952291965484619 0.0045710215345025062561 -0.012552858330309391022 0.016533222049474716187 0.011165502481162548065 -0.0098648667335510253906 0.0016689626500010490417 0.02268820442259311676 -0.024208018556237220764 -0.033463820815086364746 -0.13944433629512786865 -0.036573842167854309082 0.025261469185352325439 -0.010461282916367053986 -0.067235611379146575928 0.028726493939757347107 -0.084966987371444702148 -0.021409483626484870911 0.020576607435941696167 -0.036571845412254333496 -0.019023051485419273376 -0.0075534009374678134918 -0.0038181724958121776581 -0.030983624979853630066 -0.015119677409529685974 -0.0063450913876295089722 0.013331618160009384155 0.020193090662360191345 -0.037706814706325531006 -0.024872031062841415405 -0.012404093518853187561 0.0077158045023679733276 0.032951928675174713135 -0.03118219226598739624 0.016320643946528434753 -0.038247637450695037842 -0.045408155769109725952 0.0058224094100296497345 0.057876989245414733887 0.028588641434907913208 -0.0024852661881595849991 -0.043328747153282165527 0.053280219435691833496 0.034842539578676223755 0.0085889352485537528992 -0.01108887791633605957 0.026438137516379356384 -0.020366145297884941101 0.0086850374937057495117 -0.044402487576007843018 -0.022058488801121711731 0.0047140945680439472198 0.01395968068391084671 0.031045800074934959412 -0.013430275022983551025 0.078360058367252349854 0.029135128483176231384 0.021755244582891464233 0.020656907930970191956 0.028223097324371337891 0.0063867424614727497101 0.031829588115215301514 -0.0026899809017777442932 0.0041220937855541706085 0.035452742129564285278 0.012678774073719978333 0.0054822820238769054413 -0.0096280230209231376648 0.015247135423123836517 -0.013215716928243637085 0.016914144158363342285 0.013439144007861614227 -0.008420229889452457428 0.038107674568891525269 0.019488839432597160339 0.03322488442063331604 0.0076364148408174514771 -0.030809847638010978699 0.037759821861982345581 -0.029178615659475326538 -0.0064381984993815422058 -0.016428278759121894836 0.055650509893894195557 -0.029653497040271759033 0.044701024889945983887 -0.014457053504884243011 0.061074402183294296265 -0.03768081963062286377 0.014501389116048812866 0.039428725838661193848 -0.085962474346160888672 0.026937257498502731323 0.01121366303414106369 -0.028472648933529853821 0.030569946393370628357 -0.0075586969032883644104 -0.012520444579422473907 -0.017702275887131690979 -0.0035500340163707733154 0.034039370715618133545 0.0091799935325980186462 -0.01545358169823884964 0.048964194953441619873 -0.0078689595684409141541 -0.017973762005567550659 0.014319817535579204559 0.0032405755482614040375 -0.009769570082426071167 -0.0052799899131059646606 -0.022554691880941390991 0.004608466755598783493 -0.0052175023593008518219 -0.025346796959638595581 -0.0093243950977921485901 0.0011673656990751624107 -0.017794325947761535645 0.020891685038805007935 0.015553273260593414307 0.020886087790131568909 -0.024743733927607536316 0.010056995786726474762 0.0018563838675618171692 -0.035163570195436477661 0.034112975001335144043 0.042344361543655395508 0.078036293387413024902 0.12690411508083343506 0.067333340644836425781 0.017993628978729248047 -0.0074350284412503242493 0.0081693464890122413635 0.046505942940711975098 -0.008995077572762966156 0.024108631536364555359 0.018689617514610290527 -0.0003461810993030667305 0.092117473483085632324 -0.037562921643257141113 -0.0097217103466391563416 0.0079663125798106193542 0.12149656563997268677 -0.0015615476295351982117 0.019126165658235549927 0.030295344069600105286 -0.0010758050484582781792 -0.0087412642315030097961 0.050569199025630950928 -0.02901491895318031311 0.054680168628692626953 0.020405560731887817383 0.0025679678656160831451 0.017625346779823303223 0.018763227388262748718 -0.033274594694375991821 -0.0094866836443543434143 0.0046537220478057861328 -0.02707611769437789917 0.043134130537509918213 0.011060215532779693604 -0.0012794124195352196693 -0.0028645263519138097763 -0.027969177812337875366 0.071976602077484130859 -0.0014650074299424886703 -0.089437566697597503662 -0.010162219405174255371 -0.066486343741416931152 0.01912089809775352478 -0.016957553103566169739 0.016580175608396530151 -0.015145031735301017761 0.0037244777195155620575 -0.018191097304224967957 0.026879806071519851685 -0.032721068710088729858 0.0012046954361721873283 0.082177251577377319336 -0.010505183599889278412 -0.026473104953765869141 0.0075003569945693016052 -0.004865201655775308609 -0.0030614503193646669388 0.007709721103310585022 -0.011268200352787971497 0.028926270082592964172 0.0082924077287316322327 0.0032538783270865678787 -0.0047946060076355934143 -0.16925887763500213623 -0.033065672963857650757 -0.083268888294696807861 -0.037189424037933349609 0.070820249617099761963 0.074651673436164855957 0.058694884181022644043 0.056343313306570053101 0.04101945832371711731 -0.047098293900489807129 0.030507251620292663574 -0.0047015277668833732605 0.015117743983864784241 -0.011292512528598308563 -0.043286349624395370483 -0.033118762075901031494 -0.029096905142068862915 0.009638463146984577179 -0.013683544471859931946 0.0019955132156610488892 0.026754254475235939026 0.012041463516652584076 -0.037290934473276138306 -0.010672946460545063019 0.014640261419117450714 -0.011171052232384681702 0.0044879387132823467255 0.00065080745844170451164 -0.020564055070281028748 0.050438255071640014648 0.0023500130046159029007 -0.050271205604076385498 0.02527077309787273407 0.0044599608518183231354 -0.028986487537622451782 0.014568423852324485779 -0.025835590437054634094 0.025967959314584732056 0.021209223195910453796 -0.014483547769486904144 0.019594050943851470947 0.020755756646394729614 -0.046629998832941055298 -0.035428185015916824341 -0.0058137690648436546326 0.022733544930815696716 0.12821479141712188721 -0.12420964986085891724 -0.047878276556730270386 -0.045873727649450302124 -0.014150072820484638214 0.034258048981428146362 -0.046561077237129211426 0.030925877392292022705 0.013086724095046520233 -0.020344376564025878906 -0.011426160112023353577 -0.0052317297086119651794 0.0041357600130140781403 -0.040842555463314056396 0.0068322806619107723236 0.029379500076174736023 -0.036488171666860580444 0.033909354358911514282 -0.016232553869485855103 -0.021498143672943115234 0.031325120478868484497 0.040255539119243621826 0.028695601969957351685 0.0013693541986867785454 0.0083116786554455757141 -0.017602737993001937866 0.025700135156512260437 -0.046139586716890335083 0.03113351576030254364 -0.008968267589807510376 0.012413005344569683075 0.036604844033718109131 -0.024021163582801818848 0.03563108295202255249 -0.036537855863571166992 0.012386940419673919678 -0.028110641986131668091 0.10264793038368225098 0.0071817124262452125549 -0.027988653630018234253 -0.031849235296249389648 -0.0053356736898422241211 0.027703339233994483948 0.030210498720407485962 0.041012741625308990479 0.064762540161609649658 0.026254890486598014832 -0.03314565122127532959 0.028662189841270446777 0.0036870113108307123184 0.015856696292757987976 0.027263734489679336548 0.022618023678660392761 0.0088474564254283905029 -0.00052911957027390599251 -0.02035216987133026123 0.010621807537972927094 -0.0026871701702475547791 0.0034857592545449733734 0.0091060791164636611938 0.043684724718332290649 0.0016768621280789375305 0.01288786623626947403 0.032934036105871200562 -0.0013085005339235067368 0.067634746432304382324 0.021769480779767036438 -0.012197091244161128998 -0.089384250342845916748 0.045404009521007537842 0.061470657587051391602 -0.0059354496188461780548 0.020379161462187767029 0.024102851748466491699 0.0042050867341458797455 0.018434131518006324768 -0.010835527442395687103 0.028530307114124298096 -0.0055172038264572620392 -0.0027837676461786031723 -0.035439521074295043945 0.017104867845773696899 -0.002541272435337305069 -0.010116321034729480743 0.017727853730320930481 0.0079636098816990852356 0.0015495567349717020988 -0.0014193417737260460854 0.030631119385361671448 -0.015838023275136947632 0.01425690576434135437 -0.029480446130037307739 0.023409390822052955627 -0.011540328152477741241 -0.0028626276180148124695 -0.0016352699603885412216 -0.00458537321537733078 -0.015347086824476718903 0.016702892258763313293 -0.026407212018966674805 0.020083406940102577209 -0.014917860738933086395 -0.008102245628833770752 0.074922531843185424805 0.026029555127024650574 -0.025443200021982192993 0.011394760571420192719 -0.060668915510177612305 -0.03139219433069229126 -0.028375059366226196289 0.0098822154104709625244 -0.036075673997402191162 -0.079413391649723052979 -0.010905722156167030334 -0.00037942023482173681259 -0.041082825511693954468 0.039972353726625442505 0.030493982136249542236 0.025326805189251899719 -0.015711035579442977905 -0.010056451894342899323 -0.0081142140552401542664 0.0023195385001599788666 0.020826552063226699829 0.022716270759701728821 -0.021362299099564552307 -0.061986744403839111328 0.086826428771018981934 0.057478442788124084473 0.020800264552235603333 0.0039390157908201217651 -0.040823407471179962158 -0.026600802317261695862 -0.0080006225034594535828 -0.005788781680166721344 0.02147306688129901886 0.0039475420489907264709 0.00096240208949893712997 0.0070614139549434185028 -0.0037872884422540664673 0.020779926329851150513 -0.017914686352014541626 0.017449835315346717834 0.03200243040919303894 -0.0098385261371731758118 -0.023877918720245361328 0.00042916589882224798203 0.039217106997966766357 0.03626270592212677002 -0.0032854191958904266357 -0.0017922876868396997452 -0.034429240971803665161 -0.024731932207942008972 0.0097906040027737617493 -0.033307455480098724365 0.011337887495756149292 0.05430170893669128418 -0.041766136884689331055 -0.038353495299816131592 0.013771199621260166168 0.0068865888752043247223 0.0051773739978671073914 0.026637731119990348816 0.0096804704517126083374 0.041175812482833862305 0.011907792650163173676 -0.02153275907039642334 0.0014223852194845676422 -0.0014071406330913305283 0.020344324409961700439 -0.072939984500408172607 0.017403043806552886963 -0.025687830522656440735 0.041647296398878097534 -0.018209813162684440613 0.035120815038681030273 -0.029586561024188995361 0.022337496280670166016 -0.02164572104811668396 0.0025379983708262443542 0.0003174295998178422451 -0.0069026602432131767273 -0.026583122089505195618 0.041583281010389328003 -0.02418613433837890625 -0.022180169820785522461 0.029201356694102287292 -0.037204895168542861938 0.035834033042192459106 0.0026423519011586904526 -0.01924160495400428772 -0.030296357348561286926 0.024171737954020500183 0.036564454436302185059 0.001206338987685739994 -0.027689443901181221008 -0.056773491203784942627 -0.0096558388322591781616 0.01855159364640712738 0.0013689319603145122528 0.065725512802600860596 -0.019176278263330459595 -0.0040983697399497032166 -0.00034087410313077270985 -0.017159163951873779297 0.084352828562259674072 0.01059461105614900589 -0.0057318904437124729156 0.0069933338090777397156 -0.0025693266652524471283 0.0059550558216869831085 -0.0055870730429887771606 0.0082684569060802459717 -0.015095805749297142029 -0.0068487240932881832123 -0.019997335970401763916 0.017145415768027305603 0.0080852713435888290405 0.039015993475914001465 0.023497616872191429138 0.011616208590567111969 -0.44474676251411437988 -0.057064287364482879639 -0.00074080843478441238403 -0.017077809199690818787 -0.0088680582121014595032 0.0012119064340367913246 0.19988688826560974121 0.072895824909210205078 -0.057330779731273651123 0.095717459917068481445 -0.21630996465682983398 0.068817764520645141602 -0.097296990454196929932 -0.13840334117412567139 -0.070339873433113098145 0.0011242929613217711449 -0.18966488540172576904 0.1463292539119720459 0.18756821751594543457 -0.084928095340728759766 -0.12180506438016891479 -0.048531051725149154663 0.15121382474899291992 0.07505817711353302002 -0.0091252736747264862061 0.14559322595596313477 0.02191385999321937561 0.016504012048244476318 0.083507359027862548828 0.012126638554036617279 0.07532551884651184082 0.058543201535940170288 -0.2139771878719329834 -0.037284385412931442261 -0.0095459613949060440063 -0.1157019883394241333 -0.027913931757211685181 0.01978628896176815033 0.083372905850410461426 0.092351123690605163574 0.026019141077995300293 0.062395561486482620239 -0.066624768078327178955 -0.33705079555511474609 -0.14964549243450164795 0.025193471461534500122 -0.016441861167550086975 0.11456174403429031372 -0.042197637259960174561 -0.068953476846218109131 -0.063679769635200500488 0.13402828574180603027 -0.039876151829957962036 0.029525594785809516907 0.035473067313432693481 -0.08123442530632019043 0.081002630293369293213 0.0065322411246597766876 -0.0023320368491113185883 0.021925408393144607544 -0.019024843350052833557 -0.015221260488033294678 -0.01653139851987361908 0.029294431209564208984 0.061558187007904052734 0.018527423962950706482 0.0021799344103783369064 -0.0046437252312898635864 -0.067106582224369049072 0.10879031568765640259 0.04237696528434753418 -0.087109453976154327393 0.058414760977029800415 0.10554673522710800171 -0.00034715930814854800701 -0.055221755057573318481 0.025398463010787963867 0.03029122576117515564 -0.039559930562973022461 0.021057056263089179993 0.11840980499982833862 0.028584921732544898987 0.00038619115366600453854 0.036030832678079605103 -0.1314481198787689209 -0.04208477213978767395 0.14224994182586669922 0.077980697154998779297 -0.087301976978778839111 -0.018285006284713745117 0.15420711040496826172 0.080062493681907653809 -0.10935340821743011475 -0.010425766929984092712 -0.060284923762083053589 0.12506370246410369873 0.13681632280349731445 -0.10803436487913131714 -0.12320650368928909302 0.0061634769663214683533 0.11381305009126663208 0.018217289820313453674 -0.024078184738755226135 -0.02245739474892616272 0.037745341658592224121 0.033908691257238388062 -0.099278151988983154297 0.042255505919456481934 -0.010256719775497913361 -0.0093464916571974754333 -0.0049808840267360210419 0.047991078346967697144 0.055279698222875595093 -0.00062910420820116996765 -0.10285070538520812988 -0.023183358833193778992 -0.036640454083681106567 0.0098739583045244216919 0.0493772849440574646 0.028528917580842971802 -0.037312258034944534302 -0.021773386746644973755 0.022715808823704719543 0.029293047264218330383 -0.025826750323176383972 0.068689204752445220947 -0.01127574872225522995 -0.025204047560691833496 -0.00076901249121874570847 -0.043819561600685119629 -0.002957219025120139122 0.0017834750469774007797 -0.0059088510461151599884 0.004406678956001996994 0.038444679230451583862 -0.064563952386379241943 -0.011926130391657352448 -0.060196649283170700073 0.0174276009202003479 -0.033891320228576660156 0.21899347007274627686 0.13603448867797851562 0.020878067240118980408 0.22042553126811981201 0.012322480790317058563 -0.13454334437847137451 0.15927110612392425537 0.093242250382900238037 0.20782318711280822754 0.32184252142906188965 -0.33638522028923034668 -0.16037073731422424316 0.27596738934516906738 -0.32197692990303039551 -0.29016140103340148926 0.15774326026439666748 0.02683736756443977356 0.034522399306297302246 0.0019633274059742689133 0.020185815170407295227 -0.088643036782741546631 -0.0196446981281042099 -0.0036357301287353038788 0.023476693779230117798 0.019945366308093070984 0.014195883646607398987 -0.021952943876385688782 -0.087551750242710113525 0.096118949353694915771 0.28218308091163635254 -0.038526229560375213623 -0.17556251585483551025 0.037000712007284164429 0.012384481728076934814 0.016513274982571601868 0.14079457521438598633 0.36463713645935058594 -0.3606503605842590332 -0.20940254628658294678 0.32653388381004333496 -0.26556062698364257812 -0.20563307404518127441 0.19213382899761199951 -0.0044738547876477241516 0.09316504746675491333 0.072006039321422576904 0.020428547635674476624 0.029488567262887954712 0.021174306049942970276 0.0030280672945082187653 0.0596733875572681427 0.043340284377336502075 0.073439896106719970703 0.089844495058059692383 0.0028183006215840578079 0.10615707933902740479 -0.00096276868134737014771 0.10788543522357940674 -0.002751416526734828949 0.053221061825752258301 0.055555585771799087524 0.056270647794008255005 -0.11501555144786834717 -0.083872050046920776367 0.071065016090869903564 0.027336103841662406921 0.0017140571726486086845 0.080329529941082000732 0.055243864655494689941 -0.044904526323080062866 0.0011200907174497842789 0.018337529152631759644 -0.13122919201850891113 -0.076285056769847869873 -0.24870422482490539551 -0.064753718674182891846 0.09944292902946472168 0.042186032980680465698 0.02593019045889377594 0.016086563467979431152 0.0088315978646278381348 0.036997407674789428711 0.0076154470443725585938 -0.079231150448322296143 0.032107181847095489502 0.0059855566360056400299 0.0020875069312751293182 0.019671075046062469482 -0.0096593489870429039001 -0.01032749563455581665 0.024073977023363113403 -0.039698552340269088745 -0.37718674540519714355 -0.028511570766568183899 -0.024217264726758003235 -0.0042354329489171504974 -0.017012637108564376831 0.016940694302320480347 -0.05456848442554473877 -0.12040463835000991821 0.084625877439975738525 -0.1898899376392364502 -0.12808835506439208984 0.26919549703598022461 0.1256052851676940918 -0.063479609787464141846 -0.044597931206226348877 -0.055171191692352294922 0.023790076375007629395 0.0096728950738906860352 -0.00084982195403426885605 -0.057363651692867279053 -0.050507362931966781616 0.035500053316354751587 0.0039107170887291431427 0.052341211587190628052 0.012653192505240440369 0.0048144115135073661804 -0.031565058976411819458 0.055090025067329406738 0.0032037107739597558975 0.030151661485433578491 -0.021980630233883857727 0.057899724692106246948 -0.0019389981171116232872 -0.086597383022308349609 -0.0024341230746358633041 0.12954285740852355957 -0.090402401983737945557 -0.1510677039623260498 0.15583465993404388428 0.12057606875896453857 -0.0024850112386047840118 0.017037438228726387024 0.0057257888838648796082 -0.065010048449039459229 0.00076083763269707560539 -0.071705743670463562012 0.072269991040229797363 0.013753623701632022858 0.0018496918492019176483 -0.01478143688291311264 -0.01945032365620136261 -0.058877494186162948608 -0.0053915884345769882202 -0.020682400092482566833 0.00092364597367122769356 -0.037549547851085662842 -0.066361613571643829346 0.0073435246013104915619 0.010202354751527309418 -0.039920769631862640381 -0.11297063529491424561 -0.23698906600475311279 0.21128951013088226318 0.24333995580673217773 -0.18213883042335510254 0.02612489648163318634 0.11335695534944534302 -0.062870658934116363525 -0.024334030225872993469 0.003806132124736905098 -0.01027889735996723175 -0.014799975790083408356 -0.0064024436287581920624 0.00087015604367479681969 -0.041895352303981781006 -0.025520835071802139282 0.00050968379946425557137 -0.009087260812520980835 0.0033169256057590246201 0.018524195998907089233 -0.037781644612550735474 -0.034347619861364364624 -0.011010124348104000092 -0.056546218693256378174 0.01828263700008392334 0.031615316867828369141 0.069895096123218536377 0.0039389077574014663696 0.027350654825568199158 -0.033858235925436019897 -0.082139164209365844727 0.052559453994035720825 0.0097110457718372344971 0.022194221615791320801 0.0061680041253566741943 -0.013177271001040935516 0.021612772718071937561 0.031626693904399871826 -0.021200673654675483704 0.016191439703106880188 -0.025892028585076332092 -0.043479207903146743774 0.00065679661929607391357 0.082228906452655792236 0.016263565048575401306 -0.08134415745735168457 0.047942057251930236816 0.063166223466396331787 -0.076774105429649353027 0.040901210159063339233 -0.037986703217029571533 0.03584941476583480835 0.093535512685775756836 -0.030866930261254310608 -0.063750065863132476807 0.032874148339033126831 -0.026627076789736747742 0.020350927487015724182 -0.011923352256417274475 -0.02324690110981464386 0.0079573774710297584534 0.016563596203923225403 0.043889880180358886719 0.018792886286973953247 0.099222443997859954834 0.014920500107109546661 -0.087496571242809295654 -0.10312206298112869263 -0.068026050925254821777 -0.036598876118659973145 0.019797984510660171509 0.0091623077169060707092 0.05209305882453918457 0.0081070279702544212341 0.025436248630285263062 -0.24805086851119995117 0.12275747209787368774 0.022629344835877418518 -0.017675073817372322083 0.036195162683725357056 0.010515375062823295593 -0.051729656755924224854 -0.1088643297553062439 0.011043015867471694946 -0.13687025010585784912 -0.084149025380611419678 0.098569817841053009033 -0.024161521345376968384 0.13549965620040893555 -0.0010961755178868770599 -0.046477727591991424561 -0.00038437650073319673538 0.010657747276127338409 -0.10064879059791564941 -0.067877084016799926758 -0.02882754988968372345 0.0088152159005403518677 0.0021599603351205587387 0.037804540246725082397 -0.012268596328794956207 -0.043903209269046783447 -0.06125518307089805603 0.055110707879066467285 0.023837052285671234131 0.0077775460667908191681 0.02573517337441444397 -0.00272330455482006073 0.077528364956378936768 -0.10610567778348922729 -0.057355426251888275146 -0.15963654220104217529 -0.012773414142429828644 -0.072361208498477935791 0.040988557040691375732 -0.0044718706049025058746 -0.050432328134775161743 -0.0035616506356745958328 -0.00095664901891723275185 0.077312596142292022705 0.013836490921676158905 -0.06648746877908706665 -0.1027561575174331665 -0.049527008086442947388 -0.08107897639274597168 0.12446243315935134888 -0.011199555359780788422 0.034772858023643493652 0.079397775232791900635 0.035783801227807998657 -0.070504255592823028564 -0.078357331454753875732 0.04347990080714225769 -0.011251258663833141327 -0.051429402083158493042 0.033533211797475814819 0.044910375028848648071 -0.040454253554344177246 -0.00078154035145416855812 0.013537309132516384125 0.0046439752914011478424 0.068352662026882171631 0.035811007022857666016 0.03266741335391998291 

0.066227138042449951172 -0.067771017551422119141 -0.0097715519368648529053 0.016843957826495170593 0.034312877804040908813 -0.029435632750391960144 -0.15938438475131988525 0.075063809752464294434 0.045651495456695556641 0.10799171775579452515 -0.078598827123641967773 -0.044548407196998596191 -0.0034650517627596855164 -0.037061914801597595215 -0.031663041561841964722 0.08258724212646484375 -0.044900890439748764038 0.01539229322224855423 0.0201274137943983078 -0.04338708147406578064 -0.0052109765820205211639 0.0076452209614217281342 -0.006173101719468832016 -0.015119973570108413696 0.025650620460510253906 -0.010663297958672046661 0.017544800415635108948 -0.024747364223003387451 0.035770818591117858887 -0.0067727938294410705566 0.0096767945215106010437 0.012133186683058738708 -0.018786905333399772644 -0.020865796133875846863 -0.0004652118950616568327 -0.0061473660171031951904 0.0097842393442988395691 0.015188989229500293732 0.12298928946256637573 0.071937963366508483887 -0.0014537144452333450317 -0.052164770662784576416 -0.067868180572986602783 0.016618628054857254028 0.060848154127597808838 0.059812266379594802856 -0.0051858057267963886261 -0.074131816625595092773 -0.021584110334515571594 0.017454443499445915222 -0.0018920784350484609604 0.030302140861749649048 -0.023372385650873184204 -0.031552698463201522827 -0.002322666579857468605 0.089754208922386169434 -0.014423971995711326599 0.035105559974908828735 0.054102580994367599487 -0.0011948982719331979752 0.020991638302803039551 0.039726573973894119263 -0.031647346913814544678 0.057301577180624008179 -0.13259546458721160889 -0.03004198707640171051 0.038416069000959396362 -0.031163359060883522034 0.026657156646251678467 0.021495038643479347229 0.16546703875064849854 -0.013397948816418647766 -0.01689459383487701416 -0.032215125858783721924 0.07417538762092590332 -0.030069511383771896362 -0.014633094891905784607 -0.03348299860954284668 0.051837235689163208008 0.06085750088095664978 0.03668281063437461853 -0.0038569280877709388733 0.025202276185154914856 0.03253475576639175415 -0.018715914338827133179 0.033578850328922271729 -0.039983622729778289795 -0.0095974775031208992004 0.0026115083601325750351 0.020787382498383522034 -0.013415111228823661804 -0.0012777433730661869049 0.01504336576908826828 -0.012385639362037181854 0.036086551845073699951 0.0016471379203721880913 -0.023244611918926239014 -0.0017841048538684844971 0.071377374231815338135 -0.025052662938833236694 -0.012452581897377967834 0.17427854239940643311 -0.083646282553672790527 0.040256045758724212646 -0.032782725989818572998 0.040653262287378311157 0.12030844390392303467 -0.079528637230396270752 -0.021591598168015480042 -0.033719167113304138184 0.0080581968650221824646 -0.0041099768131971359253 0.0022522150538861751556 0.0066357259638607501984 0.063067868351936340332 -0.040407143533229827881 -0.014573358930647373199 0.091187894344329833984 -0.058921452611684799194 -0.19592185318470001221 0.016421159729361534119 -0.026141429319977760315 -0.044131208211183547974 0.070799238979816436768 -0.10243629664182662964 -0.15656097233295440674 0.042620103806257247925 0.057117290794849395752 0.028228435665369033813 0.020835814997553825378 -0.011300671845674514771 0.010286329314112663269 0.022515676915645599365 0.032197568565607070923 0.027358096092939376831 0.0045458087697625160217 -0.00063719536410644650459 0.0028261828701943159103 0.013814405538141727448 -0.026625812053680419922 0.0080428319051861763 -0.016712259501218795776 0.018946876749396324158 0.0099360710009932518005 -0.00092845439212396740913 -0.079548045992851257324 0.028780156746506690979 0.0022479188628494739532 -0.013432736508548259735 0.005175211932510137558 -0.010802042670547962189 -0.0057826461270451545715 -0.017288085073232650757 -0.00049239501822739839554 -0.00061001587891951203346 0.015449208207428455353 -0.0031488207168877124786 0.0046573928557336330414 -0.012408185750246047974 0.0089803952723741531372 -0.012773822993040084839 0.015293193049728870392 0.016241317614912986755 -0.0053617781959474086761 0.018972793594002723694 0.023011637851595878601 0.010855714790523052216 0.035119622945785522461 0.009464047849178314209 -0.03074227459728717804 0.039639227092266082764 0.022753285244107246399 -0.012533712200820446014 -0.0047263693995773792267 -0.028403978794813156128 -0.01356978248804807663 0.023600865155458450317 0.034714739769697189331 -0.031320232897996902466 -0.0012687275884672999382 0.01406681351363658905 0.042504224926233291626 -0.027865290641784667969 0.015703268349170684814 -0.026470070704817771912 0.035394851118326187134 -0.018959483131766319275 -0.051602583378553390503 0.02143517322838306427 -0.20527699589729309082 -0.027235573157668113708 0.10540474206209182739 0.070018112659454345703 0.14475171267986297607 -0.062640465795993804932 -0.00033248629188165068626 -0.11374219506978988647 -0.044383227825164794922 -0.011300781741738319397 0.027195729315280914307 0.016857441514730453491 -0.029409203678369522095 -0.014936542138457298279 -0.029587224125862121582 -0.0048398855142295360565 -0.0010521156946197152138 -0.0027551848907023668289 0.051356215029954910278 0.010521670803427696228 0.0087605966255068778992 -0.0048024305142462253571 0.0065346146002411842346 -0.028645979240536689758 0.019320894032716751099 -0.031799696385860443115 0.03346149250864982605 0.038994252681732177734 -0.012353444471955299377 -0.016350315883755683899 0.044501055032014846802 0.0074489479884505271912 -0.033611886203289031982 -0.033599551767110824585 0.059309173375368118286 -0.036167267709970474243 0.010867453180253505707 0.069896064698696136475 -0.0060612228699028491974 0.053933858871459960938 -0.081657819449901580811 -0.0032022295054048299789 0.074272222816944122314 -0.10123899579048156738 0.06165632978081703186 -0.00020434518228285014629 0.056580688804388046265 0.035562925040721893311 0.018883939832448959351 0.0060860025696456432343 -0.021700330078601837158 0.039809215813875198364 -0.023538827896118164062 0.016738522797822952271 -0.10754068195819854736 0.030214292928576469421 -0.088410921394824981689 -0.010803724639117717743 0.0099031245335936546326 -0.017874129116535186768 -0.055201578885316848755 0.026073809713125228882 -0.11024701595306396484 0.015697244554758071899 0.018923757597804069519 0.0071273576468229293823 0.017867913469672203064 -0.0031941330526024103165 0.046215664595365524292 -0.00065036769956350326538 0.018209150061011314392 -0.060027562081813812256 -0.021431442350149154663 -0.036450449377298355103 0.004158420022577047348 0.031009439378976821899 0.041337691247463226318 -0.01739011518657207489 -0.0060012396425008773804 -0.0017588301561772823334 -0.02125749737024307251 -0.014320046640932559967 0.011130990460515022278 0.014404290355741977692 0.0067932778038084506989 -0.0027477908879518508911 0.0066367913968861103058 -0.024089792743325233459 0.026755573228001594543 0.03740260004997253418 -0.020167330279946327209 -0.013056096620857715607 0.033832352608442306519 0.018837416544556617737 -0.0017909576417878270149 0.0018216645112261176109 -0.014646701514720916748 -0.0012147815432399511337 0.0038790153339505195618 -0.15101043879985809326 0.088863268494606018066 0.016220632940530776978 -0.042250260710716247559 0.10284292697906494141 0.013881889171898365021 0.015671953558921813965 -0.034737970679998397827 -0.098149687051773071289 0.038346685469150543213 -0.0047925822436809539795 -0.18360306322574615479 -0.061183582991361618042 0.069929175078868865967 -0.050038658082485198975 -0.10023086518049240112 0.071852311491966247559 -0.17632192373275756836 0.014351260848343372345 0.051771901547908782959 -0.079888045787811279297 -0.017239818349480628967 0.016366638243198394775 0.025559779256582260132 0.017876885831356048584 0.039065442979335784912 -0.071809232234954833984 0.042237482964992523193 -0.043834891170263290405 0.050409205257892608643 0.017723249271512031555 -0.02035386301577091217 0.01570676267147064209 0.010710668750107288361 0.022261071950197219849 0.077284686267375946045 0.042961362749338150024 0.020968487486243247986 -0.038458719849586486816 0.019709512591361999512 -0.014465609565377235413 0.018654791638255119324 0.0109797697514295578 0.01585178077220916748 -0.037676606327295303345 0.020815875381231307983 0.0038676525000482797623 -0.0031994567252695560455 -0.015289628878235816956 0.010241101495921611786 -0.0030117251444607973099 0.044240314513444900513 -0.003794504096731543541 -0.0092292698100209236145 -0.026258435100317001343 -0.021900471299886703491 0.015064789913594722748 -0.018178973346948623657 -0.0010219621472060680389 0.011774297803640365601 -0.0041734818369150161743 -0.014003817923367023468 -0.010390301235020160675 0.0050534913316369056702 0.012101300060749053955 -0.0095665268599987030029 -0.020494015887379646301 0.027577757835388183594 -0.0062664803117513656616 0.029111396521329879761 -0.017104290425777435303 0.0033966000191867351532 0.054213706403970718384 0.069246351718902587891 0.031179560348391532898 0.0029336658772081136703 -0.030121255666017532349 0.014713810756802558899 0.0309522971510887146 0.019909422844648361206 0.022772004827857017517 0.029090821743011474609 -0.032925922423601150513 0.03712663799524307251 -0.016946857795119285583 -0.026239218190312385559 -0.011475375853478908539 0.014441842213273048401 -0.076187252998352050781 0.022399239242076873779 -0.028732828795909881592 -0.028653329238295555115 0.007139888126403093338 -0.033892929553985595703 0.027113238349556922913 -0.027293777093291282654 -0.017887014895677566528 -0.027718469500541687012 -0.029179593548178672791 -0.00024530771770514547825 -0.0279743243008852005 -0.031191607937216758728 -0.022015223279595375061 -0.016904732212424278259 -0.035560540854930877686 -0.01796204783022403717 0.013927174732089042664 -0.042090047150850296021 -0.016824964433908462524 0.031317148357629776001 -0.0028137094341218471527 -0.014891659840941429138 -0.0081043280661106109619 0.010331099852919578552 -0.019558586180210113525 -0.0023079209495335817337 0.027559462934732437134 0.00662450399249792099 -0.031906820833683013916 0.020482964813709259033 0.023592628538608551025 -0.0022414806298911571503 -0.037442356348037719727 0.0094139492139220237732 -0.023780973628163337708 0.026374574750661849976 -0.0917185172438621521 -0.023432219401001930237 0.0030232639983296394348 -0.027315799146890640259 -0.017368001863360404968 0.019418438896536827087 -0.042465798556804656982 -0.022804601117968559265 -0.025500068441033363342 -0.04115235060453414917 -0.012301263399422168732 -0.020893182605504989624 0.015419105067849159241 0.026007322594523429871 -0.0081542469561100006104 -0.030522763729095458984 0.00081492419121786952019 -0.0016417168080806732178 -0.03858237341046333313 0.012983579188585281372 -0.10826345533132553101 0.025647232308983802795 0.024350272491574287415 0.0026203528977930545807 0.029485968872904777527 -0.096946001052856445312 -0.015157626941800117493 0.11218704283237457275 -0.069873437285423278809 -0.015899168327450752258 -0.001962517155334353447 0.013898799195885658264 0.01567482389509677887 -0.025783563032746315002 0.024055758491158485413 -0.066575877368450164795 -0.01761632971465587616 0.031838577240705490112 -0.07441444694995880127 -0.010969632305204868317 0.053810816258192062378 -0.064194068312644958496 0.017255984246730804443 0.013927970081567764282 -0.081894345581531524658 0.066652357578277587891 -0.080490790307521820068 -0.049038045108318328857 -0.053574122488498687744 0.0048760776408016681671 -0.012241236865520477295 0.034909699112176895142 -0.16223023831844329834 -0.050251442939043045044 -0.051411718130111694336 -0.048817049711942672729 -0.11211836338043212891 0.00087291939416900277138 0.035992987453937530518 -0.0062490324489772319794 -0.073462814092636108398 -0.031538240611553192139 -0.099360711872577667236 0.01787648908793926239 0.021147511899471282959 -0.00063843559473752975464 0.0016285098390653729439 -0.026748869568109512329 -0.031354267150163650513 -0.010027338750660419464 0.0051298434846103191376 -0.028158377856016159058 0.0077362419106066226959 -0.008734506554901599884 0.016650795936584472656 0.0073698149062693119049 -0.0072523704729974269867 -0.0004672063805628567934 0.0064343940466642379761 0.006742823868989944458 -0.037273820489645004272 0.02057721652090549469 -0.023886207491159439087 -0.069584608078002929688 -0.018109863623976707458 0.0049280556850135326385 0.073013529181480407715 0.0041846944950520992279 -0.038714561611413955688 -0.02840727195143699646 -0.14265860617160797119 -0.10211831331253051758 -0.17587944865226745605 0.074804961681365966797 0.069482110440731048584 0.01625927165150642395 -0.031654015183448791504 -0.15944184362888336182 -0.076709762215614318848 0.036560587584972381592 -0.023256879299879074097 -0.050245523452758789062 -0.00048894202336668968201 0.0056958585046231746674 -0.054288037121295928955 -0.026840960606932640076 0.02996318228542804718 0.032135043293237686157 -0.03012795373797416687 0.04412209242582321167 0.055588889867067337036 -0.00019761495059356093407 0.025607883930206298828 -0.034733563661575317383 -0.026578020304441452026 0.08275292813777923584 -0.03169379010796546936 0.0075766718946397304535 0.023655442520976066589 -0.011473865248262882233 0.010354027152061462402 -0.010958344675600528717 0.0019332898082211613655 -0.023455800488591194153 0.00033819978125393390656 -0.0016487800749018788338 0.061907581984996795654 -0.050452750176191329956 0.076848648488521575928 0.025808809325098991394 -0.012459689751267433167 0.050465349107980728149 0.054188098758459091187 -0.029018215835094451904 0.075969547033309936523 -0.020793173462152481079 0.015403200872242450714 0.0078638345003128051758 0.010533639229834079742 0.0043864329345524311066 0.0014867967693135142326 -0.017459649592638015747 0.0046870666556060314178 -0.026341985911130905151 -0.14742036163806915283 0.067178592085838317871 -0.00014340525376610457897 0.021405046805739402771 -0.053571850061416625977 0.0014139576815068721771 -0.12131299078464508057 0.011688813567161560059 0.026746295392513275146 0.0030771046876907348633 -0.0095845721662044525146 0.0094601614400744438171 0.01440695393830537796 0.0094626769423484802246 -0.021833116188645362854 -3.7405439798021689057e-05 -0.011249676346778869629 0.015806518495082855225 -0.0093131680041551589966 0.024859461933374404907 -0.025392910465598106384 0.00047405262012034654617 0.01757857203483581543 0.027067162096500396729 -0.023615442216396331787 0.016685636714100837708 -0.0095886709168553352356 -0.001512402435764670372 0.0090816626325249671936 0.012471873313188552856 -0.024627311155200004578 -0.046943638473749160767 0.0036356740165501832962 -0.013243581168353557587 -0.034942232072353363037 -0.077098026871681213379 -0.078865930438041687012 -0.013983801007270812988 -0.059854734688997268677 -0.025182029232382774353 0.064442977309226989746 -0.052085928618907928467 -0.067290611565113067627 -0.0075031160376965999603 -0.039893761277198791504 0.033104572445154190063 -0.019737876951694488525 -0.029688976705074310303 -0.041788697242736816406 -0.016206758096814155579 -0.062135417014360427856 0.025552080944180488586 -0.065897248685359954834 0.03416382521390914917 -0.027094395831227302551 -0.066275000572204589844 -0.042763929814100265503 0.013788597658276557922 -0.03549601137638092041 0.029378486797213554382 -0.0077878823503851890564 -0.083637446165084838867 0.0096722431480884552002 0.025328360497951507568 0.036286339163780212402 -0.046817258000373840332 -0.022979138419032096863 -0.022362142801284790039 0.023141924291849136353 -0.03490266948938369751 0.026380768045783042908 -0.053492378443479537964 0.012108507566154003143 -0.019722349941730499268 -0.027531350031495094299 0.034498345106840133667 0.031440857797861099243 -0.05496095120906829834 -0.0033556087873876094818 -0.044865105301141738892 0.05322370678186416626 0.035013131797313690186 0.1406237483024597168 0.025765264406800270081 -0.02692748047411441803 -0.022333169355988502502 -0.026048870757222175598 0.040106806904077529907 0.054850883781909942627 0.073197826743125915527 0.053510770201683044434 0.0027558465953916311264 -0.026344908401370048523 -0.021063199266791343689 -0.0049409875646233558655 -0.034581005573272705078 0.04415591806173324585 0.013497117906808853149 -0.0081970598548650741577 -0.0067492099478840827942 -0.0063525992445647716522 -0.027120944112539291382 0.0083810919895768165588 0.019111666828393936157 0.0046170540153980255127 -0.010204204358160495758 -0.021090842783451080322 -0.019896106794476509094 6.9257839641068130732e-05 -0.0024879325646907091141 -0.011180220171809196472 0.032385677099227905273 0.013830047100782394409 0.0036490797065198421478 -0.02263376675546169281 -0.029712438583374023438 -0.019141992554068565369 -0.25239548087120056152 -0.073559120297431945801 -0.16258494555950164795 -0.064705699682235717773 0.19802559912204742432 0.024075470864772796631 -0.26959645748138427734 0.04468172416090965271 -0.061758399009704589844 -0.010174427181482315063 0.13269752264022827148 -0.014308513142168521881 -0.030392115935683250427 0.0323618277907371521 -0.012449389323592185974 -0.088942885398864746094 -0.078993663191795349121 0.054022129625082015991 -0.026715477928519248962 -0.054829031229019165039 0.0174159221351146698 -0.040588688105344772339 0.011206790804862976074 -0.0099915843456983566284 -0.0043165981769561767578 0.0052849091589450836182 -0.065614469349384307861 -0.021133419126272201538 9.5970863185357302427e-05 0.058719001710414886475 -0.014396535232663154602 0.004425982944667339325 -0.0096455384045839309692 -0.0040132948197424411774 0.020170032978057861328 0.040126938372850418091 0.017635608091950416565 0.063401035964488983154 -0.0088057145476341247559 -0.040245458483695983887 -0.021380320191383361816 0.0087319249287247657776 0.042387831956148147583 0.043362710624933242798 0.0020561404526233673096 -0.0083849895745515823364 -0.024103136733174324036 -0.003766699228435754776 -0.068398609757423400879 -0.051703151315450668335 -0.049764517694711685181 -0.028773680329322814941 -0.050651606172323226929 -0.077609017491340637207 -0.019875608384609222412 -0.045526567846536636353 0.047473728656768798828 -0.017786612734198570251 -0.022012630477547645569 -0.0034485943615436553955 -0.013899047859013080597 0.0017807399854063987732 0.024372687563300132751 -0.0068523883819580078125 -0.10582739859819412231 0.0029843316879123449326 0.027222622185945510864 -0.080886244773864746094 0.044482797384262084961 0.042325612157583236694 -0.074036978185176849365 0.0094870338216423988342 0.0070817954838275909424 -0.080217719078063964844 -0.098368935286998748779 0.0011566070606932044029 -0.0060318978503346443176 0.033172998577356338501 -0.043417263776063919067 0.070064254105091094971 0.061725709587335586548 0.0079507902264595031738 -0.039061427116394042969 -0.027157604694366455078 0.03191264718770980835 -0.0034771522041410207748 -0.010430864989757537842 -0.0079392306506633758545 0.0081171253696084022522 0.0067707132548093795776 -0.03557586669921875 -0.0027321816887706518173 -0.038679152727127075195 0.021898623555898666382 -0.012088125571608543396 -0.040168121457099914551 -0.019849572330713272095 -0.02766289934515953064 -0.030497131869196891785 -0.00014577950059901922941 0.0018425741000100970268 0.0052025746554136276245 0.0083193378522992134094 0.026478743180632591248 -0.03429508209228515625 0.012623785994946956635 -0.012758254073560237885 -0.020156407728791236877 0.014346320182085037231 -0.067410714924335479736 0.17890296876430511475 0.00086208351422101259232 -0.0044527575373649597168 0.061983224004507064819 -0.063318744301795959473 -0.036965463310480117798 -0.12563413381576538086 -0.047774955630302429199 0.043380424380302429199 0.063874959945678710938 0.01739943772554397583 -0.0039732903242111206055 0.050807282328605651855 -0.010520864278078079224 0.00071526051033288240433 0.098478585481643676758 -0.041908226907253265381 -0.027209628373384475708 -0.037636701017618179321 -0.0087954299524426460266 -0.013112109154462814331 0.001138210296630859375 -0.082324013113975524902 -0.063485115766525268555 -0.0063143549486994743347 0.046741239726543426514 -0.011045502498745918274 0.063544481992721557617 -0.014005002565681934357 0.035506382584571838379 -0.0066879820078611373901 0.021444266662001609802 0.02683108113706111908 0.046072155237197875977 0.031536854803562164307 -0.021555520594120025635 -0.13919077813625335693 0.0017972312634810805321 0.026590693742036819458 0.037800759077072143555 0.028235441073775291443 0.0099980430677533149719 -0.13971474766731262207 0.11970229446887969971 -0.02173124067485332489 -0.060161393135786056519 0.013534572906792163849 -0.040389813482761383057 0.0024532868992537260056 0.12215877324342727661 0.038902837783098220825 0.065316408872604370117 -0.0066775358282029628754 0.0022075136657804250717 -0.017067166045308113098 0.0032619952689856290817 -0.020799277350306510925 0.009186049923300743103 -0.0018453293014317750931 0.020904747769236564636 0.012319182045757770538 0.014992750249803066254 -0.049982678145170211792 -0.021032888442277908325 -0.01862930692732334137 -0.0050460458733141422272 0.013098022900521755219 0.021422984078526496887 -0.016958177089691162109 -0.0031254671048372983932 -0.011170438490808010101 -0.082991883158683776855 -0.026191232725977897644 -0.011893513612449169159 0.013077609241008758545 -0.0055944705381989479065 -0.080689571797847747803 -0.03844946250319480896 -0.047485712915658950806 -0.023149916902184486389 -0.021325716748833656311 -0.066270291805267333984 0.0058557777665555477142 0.0055939322337508201599 0.0022077921312302350998 -0.032739151269197463989 -0.023051448166370391846 -0.047108076512813568115 0.015415315516293048859 0.0074294838123023509979 0.0037341255228966474533 -0.013734880834817886353 -0.0024818361271172761917 0.037826944142580032349 0.015506789088249206543 -0.002745583653450012207 0.033412877470254898071 0.048409678041934967041 -0.061510920524597167969 0.063562653958797454834 -0.022995706647634506226 0.01627620309591293335 -0.097545646131038665771 0.049884520471096038818 0.037943478673696517944 -0.053524944931268692017 -0.030819915235042572021 -0.0052119982428848743439 0.0048005026765167713165 -0.01458039507269859314 -0.019779484719038009644 -0.015545383095741271973 0.019344016909599304199 0.0025481036864221096039 0.0034184805117547512054 -0.13189579546451568604 0.013193753547966480255 -0.051312081515789031982 -0.045632902532815933228 0.034146033227443695068 0.0041228472255170345306 -0.047975908964872360229 -0.018879061564803123474 -0.0053832428529858589172 -0.018624451011419296265 -0.027336692437529563904 -0.020049314945936203003 0.0078099938109517097473 -0.0084709171205759048462 -0.10558620095252990723 -0.033134803175926208496 -0.015827823430299758911 0.077268525958061218262 -0.00038994193891994655132 -0.039198908954858779907 -0.054520342499017715454 -0.01675093919038772583 -0.055728979408740997314 -0.012181328609585762024 -0.012094116769731044769 -0.040611509233713150024 -0.047755822539329528809 0.0063256719149649143219 -0.13164725899696350098 0.091878876090049743652 0.023393366485834121704 -0.011991622857749462128 0.021275086328387260437 0.0050270347855985164642 0.12380470335483551025 -0.1101811528205871582 -0.035516414791345596313 -0.00010497332550585269928 -0.0081884553655982017517 0.033752001821994781494 -0.01316523086279630661 0.0395623035728931427 -0.0076768267899751663208 0.020291194319725036621 -0.0064025400206446647644 0.039863597601652145386 -0.0020831644069403409958 0.028947906568646430969 -0.00097817566711455583572 -0.038249902427196502686 0.050064444541931152344 -0.0045448052696883678436 0.06080767512321472168 0.071719862520694732666 0.021093497052788734436 -0.0060715340077877044678 0.036471787840127944946 -0.014274794608354568481 0.024104291573166847229 -0.019533770158886909485 -0.008355226367712020874 0.041858915239572525024 0.053211677819490432739 0.051900599151849746704 0.012954406440258026123 0.001373119535855948925 -0.0033707756083458662033 -0.0049800202250480651855 -0.019112262874841690063 0.039228949695825576782 -0.036052182316780090332 -0.0051152431406080722809 -0.13767676055431365967 -0.033165968954563140869 0.067199282348155975342 0.0027919257991015911102 -0.091723613440990447998 0.022314438596367835999 0.026867536827921867371 0.013107136823236942291 -0.068598441779613494873 -0.0463104248046875 -0.10335495322942733765 0.034609027206897735596 0.011831581592559814453 -0.057129926979541778564 -0.0061131482943892478943 -0.056980542838573455811 -0.052101027220487594604 0.028693143278360366821 -0.01457968447357416153 -0.0037276095245033502579 0.0088953068479895591736 0.003245503641664981842 -0.017110180109739303589 0.0026194767560809850693 -0.024482501670718193054 0.0081131244078278541565 0.021578542888164520264 0.081376403570175170898 0.0002755749155767261982 0.020499994978308677673 0.086305320262908935547 -0.025329602882266044617 -0.14247590303421020508 0.21208392083644866943 0.032756693661212921143 0.08545424044132232666 -0.027463587000966072083 0.017799112945795059204 0.11068094521760940552 0.030430650338530540466 -0.099742084741592407227 0.40738093852996826172 0.026209672912955284119 -0.06401573866605758667 0.16254420578479766846 0.094043076038360595703 -0.19912108778953552246 0.045675229281187057495 -0.09975735098123550415 0.060103323310613632202 0.019442202523350715637 0.13888095319271087646 -0.14608550071716308594 -0.039154268801212310791 0.019805585965514183044 -0.098249450325965881348 -0.0017831611912697553635 0.017706185579299926758 -0.42811149358749389648 0.23239378631114959717 0.0097857769578695297241 -0.13909906148910522461 0.1556377112865447998 -0.0088433194905519485474 -0.032068386673927307129 0.012911655940115451813 0.081408739089965820312 0.11188201606273651123 0.33839729428291320801 -0.021754324436187744141 -0.033462043851613998413 0.051481943577527999878 -0.079118415713310241699 0.22927777469158172607 -0.12684057652950286865 -0.17744162678718566895 0.34113669395446777344 -0.24478507041931152344 -0.15735447406768798828 0.17465141415596008301 -0.0030753551982343196869 0.012238897383213043213 -0.081496506929397583008 0.088545173406600952148 -0.10745817422866821289 -0.042911771684885025024 -0.10435394197702407837 0.064463488757610321045 0.063889965415000915527 -0.068613529205322265625 -0.0045131663791835308075 -0.069735117256641387939 0.11097520589828491211 -0.050104685127735137939 -0.10939288139343261719 0.21632680296897888184 -0.014690892770886421204 -0.093974232673645019531 0.0762289389967918396 -0.018844833597540855408 0.053342297673225402832 -0.11596229672431945801 -0.054195232689380645752 0.07812967151403427124 0.027205826714634895325 -0.051264718174934387207 0.0160056333988904953 -0.049410920590162277222 0.11910910904407501221 -0.018422365188598632812 -0.10140499472618103027 0.11973243206739425659 -0.063194185495376586914 -0.27700373530387878418 0.11557687819004058838 0.12665536999702453613 -0.041468147188425064087 -0.032863076776266098022 0.028007820248603820801 -0.0016642722766846418381 -0.00064709794241935014725 -0.077152311801910400391 0.12283059209585189819 0.05259897187352180481 -0.14320966601371765137 0.12161199748516082764 0.062314994633197784424 -0.0065423995256423950195 0.035508017987012863159 0.081774227321147918701 -0.20703080296516418457 0.10814069956541061401 0.017790323123335838318 -0.075569726526737213135 0.0714397430419921875 0.0017466049175709486008 0.09392020106315612793 0.095918573439121246338 -0.0262554120272397995 0.24624067544937133789 0.057461250573396682739 -0.0033384647686034440994 0.005427405238151550293 0.043182380497455596924 0.024270046502351760864 -0.034432552754878997803 0.015031494200229644775 -0.080267369747161865234 -0.06562343984842300415 0.069356590509414672852 -0.025645647197961807251 0.026741174980998039246 -0.009057194925844669342 -0.048986982554197311401 0.12768134474754333496 0.0029737087897956371307 0.04509838297963142395 0.19827118515968322754 0.011260109953582286835 0.032207187265157699585 0.051149707287549972534 0.059072103351354598999 -0.027460705488920211792 0.063721120357513427734 -0.064491234719753265381 0.0053742066957056522369 0.13758909702301025391 -0.085905015468597412109 -0.030168274417519569397 0.16086341440677642822 -0.20900668203830718994 0.11505863815546035767 0.45937907695770263672 -0.11677575111389160156 0.10185456275939941406 0.36970144510269165039 -0.23250105977058410645 0.010082212276756763458 0.28585377335548400879 -0.16742357611656188965 0.013787030242383480072 0.1054406091570854187 -0.12487067282199859619 0.081144921481609344482 0.15066358447074890137 -0.16463249921798706055 0.0052668401040136814117 0.047426581382751464844 -0.10881569236516952515 -0.052554082125425338745 -0.0078994352370500564575 -0.034417342394590377808 0.1087283790111541748 0.24025738239288330078 0.18733613193035125732 -0.025139702484011650085 -0.018197437748312950134 -0.022996770218014717102 0.12033110857009887695 0.03353229910135269165 -0.040135506540536880493 0.12401256710290908813 -0.45473662018775939941 0.16969095170497894287 0.1315158456563949585 -0.41709625720977783203 0.1733999401330947876 0.033626291900873184204 0.16634929180145263672 -0.13777960836887359619 0.083038814365863800049 0.2316983342170715332 -0.25488960742950439453 0.056097824126482009888 0.1124197542667388916 -0.29738128185272216797 0.00088053668150678277016 -0.0537279471755027771 0.006929256487637758255 0.031037453562021255493 -0.068308465182781219482 -0.053952958434820175171 