0.025990037247538566589 -0.021270493045449256897 0.005706656724214553833 0.04174051433801651001 0.011702626943588256836 -0.014354029670357704163 -0.026003552600741386414 0.00254434952512383461 -0.02801511809229850769 0.011597605422139167786 0.080577194690704345703 0.023622764274477958679 0.032710112631320953369 0.11185356974601745605 0.064811661839485168457 -0.062406998127698898315 -0.080298103392124176025 -0.0034288703463971614838 -0.050775822252035140991 0.0088014909997582435608 0.062119528651237487793 -0.099568836390972137451 0.067235119640827178955 0.10784215480089187622 -0.064610525965690612793 -0.037663802504539489746 0.070168711245059967041 -0.0023326447699218988419 0.049474246799945831299 0.008776579052209854126 0.057375688105821609497 0.099560976028442382812 -0.017840690910816192627 -0.0021282047964632511139 -0.0033613692503422498703 0.016200236976146697998 0.013335251249372959137 0.0112614436075091362 0.010783238336443901062 -0.00187668635044246912 0.046366095542907714844 -0.0034119423944503068924 0.037707973271608352661 0.052212595939636230469 0.019876623526215553284 0.02449313923716545105 0.0048440056852996349335 0.0034413107205182313919 0.0059215594083070755005 0.068496495485305786133 -0.0051928991451859474182 0.069383680820465087891 0.076904632151126861572 0.037315674126148223877 0.026289846748113632202 -0.039921782910823822021 -0.0011479200329631567001 0.014691835269331932068 -0.059385042637586593628 -0.045063551515340805054 0.037826716899871826172 -0.0027609395328909158707 0.0077625494450330734253 0.016416454687714576721 0.021223805844783782959 0.0054305656813085079193 0.001147093367762863636 0.023925958201289176941 0.017208673059940338135 -0.0049797240644693374634 0.030593596398830413818 -0.0035364427603781223297 -0.11185093969106674194 -0.21083886921405792236 0.25511759519577026367 -0.13602983951568603516 -0.26590445637702941895 -0.070121146738529205322 0.12271264940500259399 0.1794077754020690918 0.0015605568187311291695 -0.020910426974296569824 -0.0070005743764340877533 -0.042758814990520477295 0.043696366250514984131 -0.037684161216020584106 0.0034872912801802158356 0.043468527495861053467 -0.05318071320652961731 -0.027658436447381973267 -0.06199801713228225708 0.024570606648921966553 0.00021192885469645261765 -0.088577046990394592285 -0.027078540995717048645 0.041724335402250289917 -0.018525378778576850891 0.10041888803243637085 0.054539356380701065063 0.035718131810426712036 -0.039862595498561859131 -0.0096824951469898223877 -0.062526263296604156494 0.025861037895083427429 0.0062490091659128665924 0.00027956382837146520615 -0.028032457455992698669 -0.015598549507558345795 0.020555391907691955566 0.13356474041938781738 -0.022417705506086349487 0.029203111305832862854 0.070798218250274658203 -0.03116496652364730835 -0.052217964082956314087 -0.030223634093999862671 -0.063168257474899291992 -0.03918065875768661499 0.0070579932071268558502 -0.021786972880363464355 -0.026134995743632316589 0.015151386149227619171 0.035325981676578521729 0.0107254786416888237 0.022892531007528305054 0.020027495920658111572 -0.018141018226742744446 0.02396281808614730835 -0.01323238760232925415 -0.017308659851551055908 0.0027367707807570695877 -0.0038244356401264667511 0.0084527675062417984009 0.00065345113398507237434 0.0057140798307955265045 -0.026790395379066467285 -0.010207017883658409119 -0.0020933344494551420212 0.022335264831781387329 0.018486533313989639282 0.014689203351736068726 -0.01000310853123664856 0.036060180515050888062 -0.0054666590876877307892 0.015165814198553562164 0.021254960447549819946 -0.011520851403474807739 -0.020505635067820549011 0.15460090339183807373 0.06699215620756149292 -0.0035559339448809623718 -0.014950599521398544312 -0.02325353771448135376 0.010512523353099822998 -0.0072484621778130531311 -0.018200298771262168884 0.036854859441518783569 0.027783742174506187439 -7.9990541053120978177e-06 0.013944181613624095917 0.003554426366463303566 0.011954708956182003021 -0.055495519191026687622 0.00066829420393332839012 0.020263757556676864624 0.047984708100557327271 0.030525060370564460754 0.06814174354076385498 -0.013382088392972946167 0.0055003422312438488007 -0.031697813421487808228 0.040004659444093704224 -0.021832954138517379761 0.00016919776680879294872 0.083264365792274475098 0.0051149008795619010925 -0.023161560297012329102 -0.046953238546848297119 0.013981776311993598938 -0.02693878859281539917 -0.011762061156332492828 -0.0067292386665940284729 0.015255271457135677338 -0.00069600518327206373215 0.05522266775369644165 -0.013117020949721336365 -0.013024685904383659363 0.063121564686298370361 0.0065064774826169013977 -0.014012545347213745117 0.0060207326896488666534 -0.0056115570478141307831 -0.0022618321236222982407 -0.020280446857213973999 -0.0055492185056209564209 0.039951216429471969604 -0.029395798221230506897 -0.013346868567168712616 -0.029305912554264068604 0.033486917614936828613 -0.02069924771785736084 -0.023339919745922088623 0.015731591731309890747 -0.0056313090026378631592 -0.012945367023348808289 0.0039664055220782756805 -0.015984272584319114685 -0.047273859381675720215 0.015063047409057617188 -0.025444768369197845459 -0.035474423319101333618 0.019217457622289657593 -0.0057515618391335010529 -0.0035794202703982591629 0.044439904391765594482 -0.011666474863886833191 0.0026928437873721122742 0.011670292355120182037 0.021796053275465965271 -0.0019554826430976390839 0.010735049843788146973 -0.0061036157421767711639 0.0084968795999884605408 -0.026435546576976776123 -0.015712954103946685791 0.014630009420216083527 -0.056359712034463882446 -0.0012791842455044388771 0.11029604077339172363 -0.029404770582914352417 -0.04991922527551651001 0.013307710178196430206 0.16695171594619750977 0.074275314807891845703 0.046312466263771057129 -0.045869082212448120117 0.010655684396624565125 0.0093080652877688407898 0.014974502846598625183 -0.051424399018287658691 0.0049069435335695743561 0.02806774526834487915 0.0078979991376399993896 -0.012780767865478992462 0.004935296718031167984 -0.036212127655744552612 0.040685210376977920532 -0.042891103774309158325 0.0085810134187340736389 0.014177461154758930206 -0.0053957602940499782562 -0.015553214587271213531 0.032905805855989456177 -0.013511182740330696106 -0.0079223094508051872253 -0.021611193194985389709 0.018092451617121696472 -0.036183595657348632812 0.0091864699497818946838 -0.00027742932434193789959 -0.0051817540079355239868 -0.00034469395177438855171 0.00060654495609924197197 0.013859840109944343567 0.019357474520802497864 -0.011802649125456809998 -0.014530423097312450409 0.010436697863042354584 0.0024200365878641605377 -0.0067523834295570850372 -0.011144555173814296722 0.0093022808432579040527 0.014370218850672245026 -0.048262581229209899902 0.052579715847969055176 0.022047117352485656738 -0.026021962985396385193 -0.036450140178203582764 0.033454217016696929932 0.06448831409215927124 -0.012976086698472499847 -0.014001823030412197113 0.038476385176181793213 0.03973676636815071106 -0.013932002708315849304 -0.099437668919563293457 -0.027030901983380317688 0.00811071787029504776 -0.0077219572849571704865 -0.017849780619144439697 0.0015349563909694552422 0.033853240311145782471 0.07602605968713760376 -0.016279481351375579834 0.034830842167139053345 -0.12912051379680633545 -0.043430667370557785034 -0.050297793000936508179 0.00081775529542937874794 -0.021546350792050361633 -0.089245624840259552002 0.037225421518087387085 -0.062186170369386672974 0.1129029691219329834 -0.095258250832557678223 -0.075464881956577301025 -0.010314868763089179993 0.014148588292300701141 -0.03257222101092338562 -0.010650351643562316895 0.0594350472092628479 0.016655270010232925415 -0.0014827235136181116104 0.020945100113749504089 -0.021996222436428070068 0.016535371541976928711 0.018786787986755371094 -0.011123486794531345367 0.049716178327798843384 -0.017059506848454475403 0.0051932414062321186066 -0.022562939673662185669 -0.020119545981287956238 -0.004385817795991897583 -0.070781841874122619629 -0.018621087074279785156 -0.026827879250049591064 -0.096235424280166625977 0.0051156543195247650146 0.033939737826585769653 0.0023147913161665201187 0.074275262653827667236 0.043306082487106323242 0.027123784646391868591 -0.028840700164437294006 0.007780801970511674881 0.0064490376971662044525 -0.016176536679267883301 -0.019290482625365257263 -0.024706983938813209534 -0.0024301351513713598251 -0.00032320746686309576035 -0.031993605196475982666 -0.027236677706241607666 -0.031367719173431396484 -0.0020721354521811008453 -0.035263031721115112305 0.019031072035431861877 0.030548714101314544678 -0.0078880768269300460815 -0.0079716593027114868164 -0.028740230947732925415 0.003935097716748714447 0.027144934982061386108 0.048582479357719421387 -0.11726666241884231567 0.1587212681770324707 0.037148114293813705444 0.013376520015299320221 0.0085210716351866722107 0.0042291977442800998688 0.013559005223214626312 0.00093174003995954990387 0.013735424727201461792 -0.019911956042051315308 -0.013146056793630123138 -0.0072714020498096942902 -0.019283192232251167297 -0.0055795386433601379395 0.0094244014471769332886 0.017974106594920158386 0.00085644610226154327393 -0.030734961852431297302 0.051123511046171188354 0.048969086259603500366 0.0087116677314043045044 -0.0017616309924051165581 0.0077546266838908195496 0.0045614344999194145203 -0.071176834404468536377 0.026861244812607765198 -0.058630552142858505249 0.15243996679782867432 -0.022382028400897979736 0.026505051180720329285 -0.028987113386392593384 0.040611959993839263916 -0.019444536417722702026 0.0084654912352561950684 -0.037405185401439666748 -0.0080516682937741279602 -0.097729183733463287354 0.015926985070109367371 -0.01756368391215801239 0.14904791116714477539 -0.23556594550609588623 -0.00022970767167862504721 0.0012733285548165440559 -0.0077750864438712596893 0.030428245663642883301 -0.035669028759002685547 0.012312231585383415222 -0.018283193930983543396 -0.017433509230613708496 -0.010247538797557353973 0.018423927947878837585 -0.026977699249982833862 -0.024101505056023597717 0.064960375428199768066 0.046200379729270935059 -0.022680621594190597534 0.044146340340375900269 -0.07208874821662902832 -0.041428890079259872437 0.046350542455911636353 -0.040658183395862579346 -0.036648012697696685791 0.11851909011602401733 -0.0085104871541261672974 -0.018760228529572486877 0.05765984952449798584 -0.065811052918434143066 -0.054107949137687683105 0.046748410910367965698 0.080948516726493835449 0.048670630902051925659 -0.10196852684020996094 0.8580989837646484375 -0.0012530045351013541222 0.078659713268280029297 -0.31393781304359436035 0.098682880401611328125 0.0033905794844031333923 -0.050832763314247131348 0.02606068737804889679 0.079440779983997344971 0.10031056404113769531 9.8013035312760621309e-05 0.024728799238801002502 0.035167146474123001099 0.0055071064271032810211 -0.039393506944179534912 -0.020810248330235481262 0.0020712602417916059494 -0.044763840734958648682 -0.0040773949585855007172 0.0046082516200840473175 -0.036849968135356903076 0.037009719759225845337 0.042340114712715148926 0.019779490306973457336 0.00037404254544526338577 -0.00092439685249701142311 -0.04482884332537651062 0.034997120499610900879 -0.032204575836658477783 0.002541293855756521225 0.010869234800338745117 -0.0067630703561007976532 0.0006744890124537050724 -0.028007172048091888428 0.02400993742048740387 0.0049318629316985607147 0.01700502447783946991 -0.011698938906192779541 -0.038228776305913925171 -0.017479846253991127014 0.0012676519108936190605 -0.039912104606628417969 0.066522568464279174805 0.028610700741410255432 -0.082967892289161682129 0.068161927163600921631 -0.065629623830318450928 0.024418221786618232727 0.098194837570190429688 0.0244206208735704422 0.048452079296112060547 -0.038996722549200057983 0.013503979891538619995 0.038890816271305084229 -0.015541184693574905396 -0.011578125879168510437 -0.049658894538879394531 0.0086926994845271110535 0.019054461270570755005 -0.0090699829161167144775 0.013739867135882377625 -0.0038202179130166769028 -0.020196566358208656311 0.039775107055902481079 0.016537014394998550415 -0.038989543914794921875 -0.055612590163946151733 -0.016656724736094474792 0.043739788234233856201 0.038651276379823684692 0.013670829124748706818 0.053755607455968856812 -0.0085971923545002937317 0.0038554191123694181442 -0.018912818282842636108 -0.044199563562870025635 -0.042086452245712280273 0.043428350239992141724 -0.059515848755836486816 0.035402368754148483276 0.029578730463981628418 -0.062021601945161819458 -0.04134378582239151001 -0.0030351318418979644775 0.041579503566026687622 0.03607880324125289917 0.014504573307931423187 0.033249016851186752319 0.01376140303909778595 -0.0046626809053122997284 0.016734093427658081055 -0.0022619543597102165222 -0.038892753422260284424 0.018209695816040039062 0.0064113265834748744965 0.044229738414287567139 -0.00092976877931505441666 0.055260434746742248535 0.065869785845279693604 0.022487243637442588806 0.057698246091604232788 -0.013567601330578327179 -0.055413212627172470093 -0.014273583889007568359 0.026176773011684417725 -0.0048910928890109062195 -0.01749281957745552063 0.057071287184953689575 0.024459265172481536865 -0.001685312134213745594 0.039058659225702285767 -0.039955880492925643921 -0.032607387751340866089 0.0044632516801357269287 0.013563339598476886749 -0.0012674902100116014481 -0.035117607563734054565 0.0050384225323796272278 -0.0097917998209595680237 -0.012063131667673587799 0.0054311971180140972137 -0.0028036322910338640213 -0.0040265922434628009796 0.0052037192508578300476 -0.0051275542937219142914 0.0010614838683977723122 0.027845621109008789062 -0.010934456251561641693 0.0031579015776515007019 0.015379874967038631439 0.019410397857427597046 0.014287395402789115906 -0.0089458422735333442688 -0.001526904059574007988 0.033134881407022476196 0.035518527030944824219 -0.00059076613979414105415 0.0078892931342124938965 -0.0078505882993340492249 -0.0093905180692672729492 0.11613330245018005371 0.0072979219257831573486 -0.046256814152002334595 0.034713294357061386108 0.33262786269187927246 0.069101408123970031738 0.035775475203990936279 0.088619560003280639648 0.062113050371408462524 

0.00073865021113306283951 0.024286456406116485596 0.017133733257651329041 -0.018760779872536659241 -0.075163945555686950684 -0.03854889795184135437 -0.010064467787742614746 0.055369079113006591797 -0.014903028495609760284 0.0022418862208724021912 0.015791183337569236755 0.028211940079927444458 -0.017158512026071548462 -0.028884019702672958374 -0.09347263723611831665 -0.037319000810384750366 -0.026417355984449386597 -0.057654988020658493042 0.030555507168173789978 0.005484557710587978363 0.27230533957481384277 0.10604612529277801514 0.086854688823223114014 0.4115021824836730957 -0.13614095747470855713 -0.28479790687561035156 -0.033826682716608047485 0.0030834088101983070374 -0.0019585706759244203568 -0.021532775834202766418 -0.0078027113340795040131 0.01041118428111076355 0.020359450951218605042 0.017498077824711799622 -0.048148773610591888428 0.060216423124074935913 0.0035203360021114349365 0.00444731907919049263 0.017326269298791885376 -0.013043344020843505859 -0.010909713804721832275 0.0076340916566550731659 0.024199023842811584473 0.012364075519144535065 0.053545359522104263306 -0.0017407410778105258942 0.0093624424189329147339 0.0092132538557052612305 0.0080892127007246017456 -0.031620711088180541992 -0.053514912724494934082 0.042700335383415222168 0.02251206524670124054 -0.0088608972728252410889 -0.060668494552373886108 -0.018957795575261116028 0.022972717881202697754 -0.031294964253902435303 -0.051789455115795135498 0.02266617119312286377 -0.00062313710805028676987 -0.015482624061405658722 -0.0086307609453797340393 -0.014430322684347629547 -0.0097994050011038780212 -0.0082694310694932937622 -0.030968632549047470093 -0.038185011595487594604 -0.044927515089511871338 0.0006816308596171438694 0.031465623527765274048 -0.13619777560234069824 0.17599788308143615723 -0.40812265872955322266 0.19827283918857574463 -0.0033814397174865007401 0.54815626144409179688 0.087428845465183258057 -0.0058699217624962329865 0.040567789226770401001 0.084840662777423858643 -0.02795560099184513092 0.075814098119735717773 -0.11698281764984130859 -0.019577577710151672363 0.10519748181104660034 -0.14724835753440856934 0.046676859259605407715 0.082580447196960449219 -0.019683897495269775391 0.019981833174824714661 -0.067619018256664276123 0.014612097293138504028 -0.00063314801082015037537 -0.083089426159858703613 0.038642693310976028442 -0.015049103647470474243 -0.047198262065649032593 0.0020098250824958086014 -0.0111309075728058815 0.01346401311457157135 -0.00172845437191426754 0.003441440872848033905 0.061313766986131668091 -0.031041482463479042053 -0.070813663303852081299 0.030207019299268722534 -0.015120542608201503754 0.003104258095845580101 -0.0053634443320333957672 -0.021267188712954521179 -0.023924795910716056824 0.0054343147203326225281 -0.025616453960537910461 0.0070586889050900936127 -0.049488116055727005005 -0.0042829201556742191315 -0.02152551896870136261 -0.0039172004908323287964 0.0070752049796283245087 0.023263311013579368591 -0.022219412028789520264 -0.034034177660942077637 0.020096423104405403137 0.013108761981129646301 -0.0082379532977938652039 0.015490538440644741058 0.00058710598386824131012 0.010394773446023464203 0.003839269513264298439 -0.0072094541974365711212 -0.0034139538183808326721 -0.0041995551437139511108 0.040684811770915985107 0.019757544621825218201 -0.013322059996426105499 0.055492766201496124268 0.0054850117303431034088 0.025091538205742835999 -0.057725869119167327881 0.010137349367141723633 -0.0071351006627082824707 0.054130714386701583862 -0.024104483425617218018 -0.010467233136296272278 0.014143377542495727539 0.019468056038022041321 0.011236711405217647552 0.036518048495054244995 -0.010351447388529777527 -0.0093540921807289123535 0.0025805407203733921051 -0.018201148137450218201 0.00045021614641882479191 -0.023011503741145133972 -0.020364386960864067078 0.030146379023790359497 0.0304669160395860672 -0.01238846220076084137 -0.013518633320927619934 -0.0022778771817684173584 0.044604338705539703369 -0.014041935093700885773 -0.0065904506482183933258 -0.032616898417472839355 0.014466088265180587769 0.030712461099028587341 0.018651325255632400513 -0.010102752596139907837 0.074003629386425018311 0.036439504474401473999 0.0027432003989815711975 0.0095874927937984466553 -0.094204090535640716553 -0.045738894492387771606 -0.044459458440542221069 -0.011513327248394489288 0.032795883715152740479 0.093058533966541290283 0.01719610951840877533 -0.0015867076581344008446 -0.02229363657534122467 0.02207903936505317688 0.057516489177942276001 -0.044931914657354354858 0.11190330237150192261 0.060260362923145294189 -0.05521842464804649353 -0.084809675812721252441 -0.015000409446656703949 0.097171790897846221924 0.12037077546119689941 -0.020213101059198379517 -0.10938992351293563843 -0.026627091690897941589 0.034814897924661636353 0.084027953445911407471 -0.033652234822511672974 -0.026114536449313163757 -0.10840661078691482544 -0.082015790045261383057 -0.012266042642295360565 0.045191880315542221069 -0.007967818528413772583 -0.031820248812437057495 -0.053979422897100448608 -0.047665648162364959717 0.047459248453378677368 -0.046457685530185699463 0.10361389070749282837 0.027266195043921470642 -0.10374678671360015869 0.10640256106853485107 0.052289955317974090576 -0.0040791495703160762787 0.064162142574787139893 -0.014610885642468929291 -0.0099234338849782943726 -0.0054047908633947372437 0.00017973156354855746031 0.055481936782598495483 0.035294737666845321655 -0.0056482353247702121735 0.01090309489518404007 0.039016511291265487671 -0.010619858279824256897 -0.013680257834494113922 -0.01693050190806388855 -0.0014341035857796669006 0.016280416399240493774 0.0011778182815760374069 0.019029373303055763245 0.020221102982759475708 0.028849614784121513367 -0.0067174625582993030548 0.04877724871039390564 -0.026047797873616218567 0.043499361723661422729 0.067474439740180969238 0.024933122098445892334 -0.058195754885673522949 -0.071234710514545440674 -0.017279498279094696045 0.012176776304841041565 -0.005385647062212228775 0.00062220892868936061859 0.0033065490424633026123 0.010584118776023387909 -0.0820962563157081604 -0.038138501346111297607 0.043162807822227478027 0.030129797756671905518 -0.0007396794389933347702 -0.047211207449436187744 -0.00322627299465239048 -0.032951213419437408447 0.026285389438271522522 -0.045464124530553817749 0.040102086961269378662 -0.044837158173322677612 0.03149692341685295105 -0.0076764891855418682098 0.0052410219796001911163 -0.015965485945343971252 0.0051173144020140171051 0.014188540168106555939 0.010723594576120376587 -0.010901441797614097595 -0.036728207021951675415 0.018820654600858688354 -0.029362013563513755798 -0.025609537959098815918 -0.04123827815055847168 -0.013233360834419727325 0.035190064460039138794 0.13953776657581329346 0.02663049846887588501 -0.12597838044166564941 -0.018223954364657402039 -0.06815961003303527832 0.031093060970306396484 0.022264974191784858704 -0.060916129499673843384 -0.032659333199262619019 -0.025475276634097099304 -0.11255097389221191406 0.11278506368398666382 -0.020734211429953575134 -0.010114960372447967529 -0.00093315698904916644096 0.00033406252623535692692 0.0078394003212451934814 0.027929473668336868286 -0.012552350759506225586 0.0022327809128910303116 -0.015506925061345100403 0.0063812439329922199249 -0.014682998880743980408 0.15089355409145355225 -0.021237399429082870483 -0.16744564473628997803 0.22068957984447479248 -0.15259315073490142822 -0.17120647430419921875 0.10208419710397720337 0.045664526522159576416 -0.0024107308126986026764 -0.024015631526708602905 -0.11889970302581787109 -0.072840876877307891846 0.29940184950828552246 -0.066892646253108978271 -0.1484419703483581543 0.018674157559871673584 0.095590725541114807129 -0.00087933742906898260117 -0.0022302072029560804367 -0.0026931175962090492249 0.017211759462952613831 0.063435137271881103516 0.01558070257306098938 0.0099248057231307029724 -0.035345554351806640625 0.02334929443895816803 -0.021358447149395942688 -0.012111407704651355743 0.071613669395446777344 -0.030072730034589767456 -0.026761943474411964417 0.0017401904333382844925 -0.020102826878428459167 0.035907983779907226562 -0.0011411447776481509209 -0.0072131231427192687988 0.02102637849748134613 0.026729462668299674988 -0.024468708783388137817 0.029965039342641830444 0.061233159154653549194 -0.023049067705869674683 -0.078902430832386016846 -0.029418678954243659973 -0.014289347454905509949 -0.08091274648904800415 0.029421344399452209473 0.009900394827127456665 -0.018781237304210662842 -0.12580943107604980469 0.046008739620447158813 0.072654798626899719238 0.027881164103746414185 0.0013411234831437468529 -0.0074786259792745113373 -0.030221017077565193176 -0.0077895727008581161499 0.030368370935320854187 0.025903539732098579407 0.047422308474779129028 -0.10963553190231323242 0.00755080394446849823 -0.013295206241309642792 -0.0065058274194598197937 0.0010052697034552693367 -0.0047978418879210948944 0.0017615307588130235672 0.032324306666851043701 0.0023178041446954011917 -0.0056927264668047428131 -0.014596892520785331726 0.020529428496956825256 0.043951578438282012939 -0.01907948032021522522 -0.023560471832752227783 0.053813897073268890381 0.017102079465985298157 -0.0085125109180808067322 -0.025568293407559394836 0.089632049202919006348 -0.00055100838653743267059 0.012830424122512340546 -0.0095457844436168670654 0.0052691982127726078033 0.0072849029675126075745 0.034134145826101303101 -0.016846332699060440063 -0.0024071754887700080872 0.0095280474051833152771 0.011842794716358184814 0.0058147655799984931946 -0.027354685589671134949 0.014604398980736732483 -0.0053102225065231323242 -0.01166765950620174408 0.011435871943831443787 -0.028237892314791679382 0.016294980421662330627 -0.011406223289668560028 -0.0013142462121322751045 -0.046786863356828689575 -0.044115897268056869507 -0.042448546737432479858 -0.042432997375726699829 0.012119404971599578857 -0.11979318410158157349 0.049240294843912124634 -0.013190066441893577576 -0.06508782505989074707 -0.10660459846258163452 0.056464210152626037598 0.05380136147141456604 -0.09688100963830947876 0.078696735203266143799 0.062033280730247497559 0.072944685816764831543 -0.0071880174800753593445 -0.0053602471016347408295 -0.06245517730712890625 -0.057190805673599243164 -0.03587444499135017395 -0.20305120944976806641 0.079258486628532409668 0.14962100982666015625 0.053553745150566101074 0.0078013134188950061798 -0.047520816326141357422 0.38981112837791442871 0.20251029729843139648 -0.29291519522666931152 0.12869586050510406494 0.017655240371823310852 0.32027646899223327637 -0.135637626051902771 -0.014652897603809833527 0.0059857238084077835083 -0.027029922232031822205 0.015018100850284099579 -0.015817550942301750183 -0.05342940986156463623 -0.019423063844442367554 0.018581325188279151917 0.0047918609343469142914 0.037608534097671508789 0.072299018502235412598 0.071633249521255493164 0.0030200951732695102692 0.0056967111304402351379 0.056263897567987442017 -0.025142792612314224243 -0.053781319409608840942 -0.029986642301082611084 0.0081535782665014266968 0.013362886384129524231 0.0036836874205619096756 0.013234053738415241241 0.031248526647686958313 0.022260935977101325989 0.0079413484781980514526 0.033389970660209655762 -0.0012934118276461958885 -0.007618200499564409256 -5.5307893489953130484e-05 0.036870844662189483643 0.077804990112781524658 -0.096446886658668518066 0.017983492463827133179 0.043958194553852081299 -0.017196534201502799988 -0.063025914132595062256 -0.030009903013706207275 0.029008148238062858582 0.056483533233404159546 -0.044353574514389038086 -0.088061064481735229492 -0.084118925034999847412 -0.014910684898495674133 0.055146936327219009399 0.063003078103065490723 0.014798904769122600555 0.071091935038566589355 -0.044077981263399124146 0.019089421257376670837 0.080619171261787414551 0.014297642745077610016 -0.0072257923893630504608 -0.0055255950428545475006 0.063674665987491607666 -0.010067962110042572021 0.015263012610375881195 -0.037425003945827484131 -0.0042738318443298339844 0.038317803293466567993 0.010418666526675224304 0.0058140931650996208191 -0.10542953014373779297 -0.0061382600106298923492 -0.0079277530312538146973 0.00097964156884700059891 -0.0389365367591381073 -0.0098252417519688606262 0.043619558215141296387 0.01342269405722618103 -0.0073266983963549137115 0.043968863785266876221 0.0079595958814024925232 -0.0091811893507838249207 0.025661645457148551941 -0.01872911304235458374 0.00034103379584848880768 0.046281665563583374023 0.013672012835741043091 -0.012303782626986503601 -0.0034814558457583189011 -0.047860044986009597778 0.025098659098148345947 0.020425530150532722473 0.035732898861169815063 -0.0071720103733241558075 0.011078002862632274628 -0.044554453343152999878 -0.028564346954226493835 -0.011684195138514041901 -0.053452242165803909302 -0.018538365140557289124 -0.0099542895331978797913 0.063089162111282348633 0.027151837944984436035 0.080928817391395568848 0.12488178908824920654 0.0005443646223284304142 0.053748015314340591431 0.047299101948738098145 -0.0053807329386472702026 0.013782395049929618835 0.036376852542161941528 0.039737597107887268066 0.010719750076532363892 -0.10192689299583435059 0.045184127986431121826 0.086243927478790283203 0.016690269112586975098 -0.0063301664777100086212 -0.044465679675340652466 -0.02860131487250328064 -0.024235321208834648132 0.021786110475659370422 0.010762440040707588196 0.0089651187881827354431 -0.067318364977836608887 -0.015192514285445213318 -0.031146593391895294189 -0.12484519928693771362 -0.11035988479852676392 0.038003068417310714722 0.17275291681289672852 0.095819972455501556396 -0.054640900343656539917 -0.12835778295993804932 -0.038379523903131484985 0.01003422960638999939 0.013642442412674427032 0.018366899341344833374 0.0210619363933801651 -0.040701624006032943726 -0.028179040178656578064 0.0024307481944561004639 -0.0048780883662402629852 -0.024246452376246452332 -0.0095815174281597137451 0.0010347242932766675949 0.02572993934154510498 0.013292279094457626343 0.19823068380355834961 0.24083600938320159912 0.025102924555540084839 -0.0079129580408334732056 0.014708328060805797577 

-0.0016315316315740346909 -0.018828308209776878357 0.020329885184764862061 -0.0063258269801735877991 -0.092521913349628448486 0.014108410105109214783 0.048867832869291305542 -0.0072711794637143611908 0.018140606582164764404 -0.012785764411091804504 0.015536467544734477997 0.0096346409991383552551 0.015139237977564334869 0.012900147587060928345 0.035279683768749237061 0.031560815870761871338 0.025762923061847686768 0.018506625667214393616 0.028397794812917709351 -0.043057609349489212036 -0.03700768202543258667 -0.013853575102984905243 -0.064046964049339294434 -0.032319895923137664795 0.046085860580205917358 0.051511283963918685913 0.048472840338945388794 0.010474449954926967621 0.0063580516725778579712 -0.017257263883948326111 -0.020820980891585350037 0.049800846725702285767 -0.028975475579500198364 -0.031320672482252120972 0.049636282026767730713 0.00083514238940551877022 0.016572082415223121643 0.0078011942096054553986 -0.0065299915149807929993 -0.022191189229488372803 0.0087806191295385360718 -0.016079423949122428894 0.019415603950619697571 0.063549861311912536621 0.010410872288048267365 -0.018160952255129814148 0.014272303320467472076 -0.00039491441566497087479 -0.019169934093952178955 -0.053539797663688659668 -0.013624216429889202118 0.01987381279468536377 0.012217140756547451019 0.011434494517743587494 -0.038783565163612365723 -0.0077052977867424488068 -0.076480254530906677246 -0.00076311873272061347961 0.070837080478668212891 -0.010228703729808330536 -0.078045330941677093506 0.031694073230028152466 -4.5280048652784898877e-05 -0.020034851506352424622 0.0026761482004076242447 -0.012666328810155391693 -0.014337857253849506378 -0.058199089020490646362 -0.020153572782874107361 0.017696434631943702698 -0.07541440427303314209 -0.05251658707857131958 0.33896675705909729004 -0.67387717962265014648 0.14019767940044403076 -0.057852134108543395996 0.48947554826736450195 -0.04584692046046257019 0.19117045402526855469 0.14770852029323577881 0.0063768569380044937134 -0.016733141615986824036 0.22079154849052429199 0.074480414390563964844 0.029422996565699577332 0.30376201868057250977 0.091100350022315979004 -0.2180496901273727417 -0.061757195740938186646 -0.091997444629669189453 0.011872790753841400146 -0.087559431791305541992 0.021111467853188514709 0.01323999650776386261 -0.14494052529335021973 -0.1007828935980796814 0.070243619382381439209 0.09621334075927734375 0.039925657212734222412 -7.9391153121832758188e-05 -0.014451908878982067108 0.0015972420806065201759 0.014261587522923946381 -0.019283812493085861206 0.0034337446559220552444 0.0047629806213080883026 0.019496358931064605713 0.0063303955830633640289 0.0082098953425884246826 -0.036912530660629272461 -0.0098051745444536209106 -0.036492638289928436279 -0.005659201648086309433 -0.033061198890209197998 -0.031706739217042922974 -0.029567113146185874939 -0.0069216336123645305634 -0.067884765565395355225 -0.12529504299163818359 -0.060265995562076568604 0.050023689866065979004 -0.045817613601684570312 -0.0036049599293619394302 0.16266462206840515137 0.027873756363987922668 0.0017362440703436732292 0.012252626009285449982 0.0079289516434073448181 0.0012698390055447816849 0.030642537400126457214 -0.021187534555792808533 0.0040952991694211959839 0.0026746075600385665894 0.045508120208978652954 0.0090791285037994384766 0.018562611192464828491 0.0086439428851008415222 -0.030752789229154586792 0.090399593114852905273 -0.01357971876859664917 0.02918358147144317627 -0.017232034355401992798 0.047905854880809783936 -6.4488340285606682301e-05 -0.029068307951092720032 -0.0030940216965973377228 -0.0095128864049911499023 0.00021594591089524328709 -0.030162716284394264221 -0.018340544775128364563 -0.0556489601731300354 0.0029771507252007722855 0.0077191214077174663544 -0.011559087783098220825 -0.015959484502673149109 -0.0031038001179695129395 0.05031093209981918335 -0.0072985705919563770294 0.0050700297579169273376 -0.0054294923320412635803 0.0098466994240880012512 0.0071697193197906017303 -0.016405880451202392578 0.0018248198321089148521 0.032755438238382339478 0.014553229324519634247 -0.094783075153827667236 0.090123303234577178955 0.019829627126455307007 0.0082997595891356468201 0.063572600483894348145 0.040252253413200378418 -0.11166252940893173218 -0.027674799785017967224 0.049974624067544937134 -0.11981023102998733521 0.014078521169722080231 0.094577580690383911133 -0.031798414885997772217 0.05024285241961479187 0.0011835896875709295273 -0.032276127487421035767 0.045481845736503601074 0.033434499055147171021 -0.033788669854402542114 -0.0026097313966602087021 0.019980868324637413025 -0.010176848620176315308 -0.01333652157336473465 -0.049707189202308654785 -0.011616009287536144257 -0.031017357483506202698 0.022845866158604621887 0.033964928239583969116 0.029804859310388565063 -0.05427611619234085083 0.021119492128491401672 0.011160023510456085205 -0.036466225981712341309 -0.075539499521255493164 -0.021140212193131446838 0.00057917274534702301025 -0.016257794573903083801 -0.0005568013293668627739 -0.028014916926622390747 -0.012970529496669769287 -0.022982532158493995667 0.02312164008617401123 -0.0058004520833492279053 -0.0055147251114249229431 -0.0040299291722476482391 0.0084079662337899208069 -0.0096156001091003417969 0.117803916335105896 0.063404262065887451172 0.021823083981871604919 -0.013010713271796703339 -0.0015739799709990620613 -0.0076412758789956569672 0.0025531537830829620361 0.062002107501029968262 0.010369250550866127014 -0.0073803509585559368134 0.035404600203037261963 -0.01432840246707201004 -0.039822176098823547363 0.012735992670059204102 -0.0085126738995313644409 0.0070150499232113361359 0.03353846818208694458 -0.0083971144631505012512 0.0020147345494478940964 0.040942735970020294189 -0.0087067773565649986267 0.01115047745406627655 0.054000549018383026123 0.041375696659088134766 -0.03951516374945640564 0.047953724861145019531 0.0073387548327445983887 -0.099500447511672973633 0.0052892179228365421295 -0.025300597772002220154 -0.01472322363406419754 0.062468443065881729126 -0.058255355805158615112 -0.030514592304825782776 0.12777850031852722168 0.018063314259052276611 -0.045498162508010864258 -0.065986722707748413086 -0.0045675975270569324493 0.010176635347306728363 0.00034957149182446300983 -0.0085593648254871368408 0.0041773212142288684845 -0.032391831278800964355 -0.013065242208540439606 -0.045540571212768554688 0.0088073480874300003052 -0.010304527357220649719 -0.015444465912878513336 -0.0039383298717439174652 -0.0038525389973074197769 0.0045142993330955505371 0.0095118116587400436401 -0.0017878917278721928596 -0.026626270264387130737 -0.01260208524763584137 0.0036775406915694475174 -0.0009202435612678527832 -0.043349027633666992188 0.019134815782308578491 0.017243091017007827759 -0.059392496943473815918 -0.0076395682990550994873 -0.013056121766567230225 0.069268584251403808594 -0.02440234646201133728 0.010213135741651058197 0.0087387533858418464661 -0.061974573880434036255 -0.042468272149562835693 -0.007424027658998966217 0.012531707063317298889 -0.046782545745372772217 0.057476155459880828857 -0.10267359018325805664 -0.0035787434317171573639 -0.0090710213407874107361 0.0062839812599122524261 0.020984575152397155762 -0.00086284405551850795746 0.0076621584594249725342 -0.036528147757053375244 0.049234263598918914795 -0.027440398931503295898 0.0021675236057490110397 0.002270048484206199646 0.026892986148595809937 -0.13382446765899658203 0.11218320578336715698 0.045715324580669403076 0.066380254924297332764 -0.064319998025894165039 -0.015138740651309490204 -0.06510890275239944458 0.015598674304783344269 -0.01891523413360118866 -0.089043192565441131592 0.12908981740474700928 0.044935818761587142944 0.0092024998739361763 -0.023684004321694374084 -0.047800313681364059448 0.00010915116581600159407 -0.000878475140780210495 -0.0070668091066181659698 0.027814555913209915161 0.034436054527759552002 -0.0078003513626754283905 -0.022284174337983131409 0.012968858703970909119 0.0042731165885925292969 -0.065595038235187530518 -0.15990453958511352539 -0.048217356204986572266 0.043694816529750823975 0.039586775004863739014 -0.053384549915790557861 0.14020588994026184082 0.12004724889993667603 0.018851893022656440735 0.003033425426110625267 0.046559404581785202026 -0.0082644894719123840332 -0.016143327578902244568 0.030734572559595108032 0.020976480096578598022 -0.09321187436580657959 0.020958535373210906982 -0.021918671205639839172 0.0041261478327214717865 -0.040973939001560211182 0.0013134906766936182976 -0.012858849018812179565 0.00194970681332051754 0.016169093549251556396 0.01464675460010766983 -0.044327799230813980103 -0.0035057533532381057739 0.00041207743925042450428 -0.016798568889498710632 -0.01329149492084980011 -0.0052307229489088058472 0.068152792751789093018 -0.0033158939331769943237 -0.021564893424510955811 -0.035514362156391143799 -0.0094655994325876235962 -1.5111151697055902332e-05 -0.00080182863166555762291 -0.0042229201644659042358 0.0017257363069802522659 0.038348942995071411133 0.0052340724505484104156 0.004216658417135477066 -0.01628743298351764679 -0.0061621582135558128357 0.044193245470523834229 0.027233364060521125793 0.0057916394434869289398 0.051467105746269226074 0.032045841217041015625 -0.031775932759046554565 -0.020425355061888694763 0.044478230178356170654 0.022499239072203636169 0.011445086449384689331 0.010242781601846218109 -0.012252013199031352997 0.021480837836861610413 0.0082841515541076660156 -0.0035628215409815311432 0.0087794940918684005737 -0.0012750300811603665352 -0.0024007954634726047516 0.00085093063535168766975 0.034720744937658309937 -0.017416061833500862122 -0.033097684383392333984 0.018865501508116722107 -0.16120235621929168701 0.01254591718316078186 -0.053131986409425735474 -0.032423138618469238281 -0.0017851125448942184448 -0.027928989380598068237 -0.02157824300229549408 -0.091877378523349761963 0.011092929169535636902 -0.036752395331859588623 -0.061222676187753677368 -0.011143086478114128113 0.015819480642676353455 0.030298585072159767151 0.028381630778312683105 0.02603883109986782074 0.024409886449575424194 0.049765452742576599121 0.019677249714732170105 -0.045699261128902435303 -0.12454325705766677856 0.014524930156767368317 -0.011082635261118412018 0.023638630285859107971 0.014247048646211624146 -0.029196521267294883728 0.011584537103772163391 0.066298082470893859863 -0.0064260340295732021332 -0.10505694150924682617 -0.023165706545114517212 -0.02481116168200969696 -0.18881465494632720947 0.15646117925643920898 0.02833843231201171875 0.57361513376235961914 -0.023908657953143119812 0.0010797890136018395424 -0.37110635638236999512 0.27480089664459228516 0.014917390421032905579 0.048294585198163986206 0.0025033401325345039368 0.11616504192352294922 0.083324812352657318115 0.080483697354793548584 0.040514208376407623291 0.12774674594402313232 0.011069613508880138397 0.0039801797829568386078 -0.063331715762615203857 -0.014872731640934944153 0.05151201784610748291 -0.0040784943848848342896 -0.027997041121125221252 0.051225997507572174072 0.060698501765727996826 -0.00041237554978579282761 -0.00074103893712162971497 -0.00091938261175528168678 -0.00018293655011802911758 0.0097615988925099372864 0.011267188936471939087 0.0050149830058217048645 0.01173244137316942215 -0.010049692355096340179 -0.0041622393764555454254 0.050644848495721817017 -0.025289077311754226685 -0.0031608147546648979187 0.040605522692203521729 -0.018168473616242408752 -0.046350851655006408691 -0.042079474776983261108 0.012424406595528125763 0.010774119757115840912 0.0078517412766814231873 0.031304925680160522461 0.041965227574110031128 -0.084770910441875457764 0.0071861576288938522339 -0.0082814609631896018982 0.045349370688199996948 0.055731255561113357544 -0.024176502600312232971 0.10300785303115844727 0.12681947648525238037 0.076214753091335296631 -0.054454021155834197998 -0.093819282948970794678 -0.060785640031099319458 0.11786935478448867798 0.040140286087989807129 0.03834673762321472168 -0.0059537529014050960541 0.019419947639107704163 -0.021577246487140655518 -0.021884251385927200317 0.10212646424770355225 -0.046754550188779830933 -0.078191764652729034424 -0.014522783458232879639 -0.0065180985257029533386 -0.0038342026527971029282 0.085239738225936889648 0.0049990024417638778687 -0.011868524365127086639 0.062905006110668182373 0.029084570705890655518 -0.064357861876487731934 -0.03090831264853477478 0.0016327037010341882706 0.052417565137147903442 -0.018066907301545143127 0.0011315173469483852386 0.052538689225912094116 0.010986949317157268524 0.019282566383481025696 0.0082219736650586128235 -0.031738951802253723145 -0.0072524170391261577606 0.013763760216534137726 0.059100065380334854126 0.026835938915610313416 -0.0052095698192715644836 -0.2753137052059173584 0.11020790785551071167 0.095459595322608947754 -0.032429214566946029663 -0.045880936086177825928 -0.021834699437022209167 -0.011555911973118782043 -0.0033055229578167200089 0.0096950354054570198059 0.0063963565044105052948 -0.029066534712910652161 -0.01975810714066028595 -0.026407493278384208679 -0.017577297985553741455 0.0066768089309334754944 0.076050594449043273926 -0.03858167305588722229 0.027916798368096351624 0.038218695670366287231 0.059516251087188720703 -0.010311342775821685791 -0.03769590333104133606 -0.022976944223046302795 0.0070721567608416080475 0.0049506416544318199158 -0.018961919471621513367 0.0093672145158052444458 -0.032611906528472900391 0.0030677549075335264206 -0.036694269627332687378 -0.0019458889728412032127 -0.012380287051200866699 0.025627961382269859314 -0.035045832395553588867 0.017807437106966972351 -0.085414640605449676514 -0.037648510187864303589 -0.098401896655559539795 0.0072277053259313106537 0.020193701609969139099 0.036399934440851211548 -0.0014986729947850108147 0.015759363770484924316 0.00218251766636967659 -0.0092370565980672836304 -0.018914673477411270142 0.0072510549798607826233 0.0078533217310905456543 -0.0102904466912150383 -0.012037050910294055939 -0.0185605660080909729 0.075959943234920501709 -0.030943309888243675232 0.12291975319385528564 0.29570677876472473145 0.095305182039737701416 0.0098623735830187797546 0.061209097504615783691 0.0035354096908122301102 

0.00098191061988472938538 0.0097940051928162574768 -0.051562726497650146484 -0.095662228763103485107 0.012219757772982120514 0.13162671029567718506 0.02281607501208782196 0.010893206112086772919 -0.033247407525777816772 -0.056877721101045608521 -0.012365272268652915955 0.034434333443641662598 0.045558709651231765747 0.0035796919837594032288 0.040134206414222717285 -0.060190498828887939453 -0.049076613038778305054 -0.0092057064175605773926 0.012353774160146713257 0.033812645822763442993 -0.13787011802196502686 0.20065298676490783691 -0.030507693067193031311 -0.27645525336265563965 0.0092182019725441932678 0.018525453284382820129 -0.072806052863597869873 0.0097115626558661460876 0.029507581144571304321 -0.00061090046074241399765 -0.071104161441326141357 -0.65786057710647583008 0.012453827075660228729 -0.0063019599765539169312 0.061612930148839950562 0.0030938591808080673218 -0.027517160400748252869 0.013413066975772380829 0.023953821510076522827 -0.08108676224946975708 0.02608762495219707489 0.07615200430154800415 -0.032225441187620162964 -0.026648573577404022217 0.040907576680183410645 0.025087047368288040161 -0.04151743277907371521 0.0142535381019115448 -0.12885999679565429688 0.024142898619174957275 0.035560920834541320801 0.11426889896392822266 0.030125487595796585083 -0.016597632318735122681 -0.024831706658005714417 -0.0064494102261960506439 -0.027928637340664863586 -0.059035696089267730713 0.033476259559392929077 0.0022606709972023963928 -0.019098853692412376404 0.046423975378274917603 0.01411024387925863266 0.042734835296869277954 -0.0080025549978017807007 -0.012531334534287452698 0.015155070461332798004 0.020738560706377029419 0.0025644705165177583694 0.021149564534425735474 -0.045500807464122772217 0.022364677861332893372 0.29834759235382080078 0.23590578138828277588 -0.64567041397094726562 0.2515780031681060791 0.18718010187149047852 -0.4938010871410369873 0.10692124068737030029 -0.20096567273139953613 0.16898302733898162842 0.025316264480352401733 -0.040064819157123565674 0.079721808433532714844 -0.037737358361482620239 -0.0044820476323366165161 -0.012748175300657749176 -0.0021467059850692749023 -0.0028227586299180984497 0.012315701693296432495 0.068964555859565734863 0.051465664058923721313 -0.03456722944974899292 0.038016263395547866821 0.068707048892974853516 -0.044494148343801498413 0.042211242020130157471 -0.01414127647876739502 -0.060915686190128326416 -0.039245452731847763062 0.026233917102217674255 0.018559204414486885071 -0.042432222515344619751 -0.015664961189031600952 -0.010120287537574768066 -0.02252241969108581543 0.073056548833847045898 0.01231983676552772522 0.047003533691167831421 -0.052814744412899017334 0.03379127010703086853 -0.013143151998519897461 0.072664640843868255615 0.052886355668306350708 0.077953003346920013428 -0.054458297789096832275 -0.00968035869300365448 -0.031874667853116989136 -0.040149617940187454224 0.018517168238759040833 -0.028828397393226623535 0.0087212109938263893127 -0.0072052241303026676178 -0.09151694178581237793 0.032584566622972488403 0.060387153178453445435 0.0028249397873878479004 -0.10459624975919723511 -0.020954925566911697388 0.075901210308074951172 0.060975551605224609375 0.01897327229380607605 0.006911267060786485672 -0.0292082224041223526 0.024189591407775878906 0.062351696193218231201 0.0031573269516229629517 -0.018031340092420578003 -0.06486842036247253418 -0.021878603845834732056 0.041486307978630065918 0.038933377712965011597 -0.076204501092433929443 -0.02766661718487739563 0.01115607190877199173 -0.088086411356925964355 -0.033062618225812911987 0.0018623739015311002731 -0.10176556557416915894 0.023687560111284255981 0.0018656734609976410866 -0.023653760552406311035 0.038063485175371170044 -0.11226306110620498657 0.043451085686683654785 0.060931339859962463379 0.048955854028463363647 -0.029478706419467926025 0.025545150041580200195 0.047840733081102371216 -0.047379236668348312378 -0.050641909241676330566 -0.11963853985071182251 0.24160720407962799072 -0.013732558116316795349 0.11836171150207519531 -0.12101870030164718628 0.27579519152641296387 -0.094264484941959381104 0.14639906585216522217 -0.17596645653247833252 0.00036479919799603521824 0.039618078619241714478 -0.053893793374300003052 -0.061392612755298614502 0.013378185220062732697 0.10763362795114517212 0.017050292342901229858 0.010089553892612457275 -0.020156122744083404541 -0.039495233446359634399 -0.013014982454478740692 -0.036322616040706634521 0.016858581453561782837 -0.15540161728858947754 -0.079130575060844421387 0.026943074539303779602 0.0061382330022752285004 -0.0091273216530680656433 0.16779686510562896729 0.015266315080225467682 -0.13543489575386047363 -0.027780603617429733276 0.008883801288902759552 0.062112849205732345581 -0.20379006862640380859 0.0078146746382117271423 0.18784914910793304443 -0.029556652531027793884 -0.036359693855047225952 0.055465888231992721558 -0.041980963200330734253 0.014870037324726581573 0.0093759428709745407104 0.093778066337108612061 0.089669167995452880859 -0.14927387237548828125 0.027064455673098564148 -0.0166710633784532547 -0.086186438798904418945 0.04178549349308013916 0.023824019357562065125 -0.025669977068901062012 0.081486634910106658936 0.0048018102534115314484 -0.081800155341625213623 0.060998458415269851685 0.027743766084313392639 0.0035080690868198871613 -0.03610375523567199707 -0.085217081010341644287 0.035112962126731872559 -0.051641676574945449829 0.095533415675163269043 0.017156999558210372925 0.013012538664042949677 0.071244060993194580078 0.0054219551384449005127 -0.0182725563645362854 -0.034807249903678894043 -0.046333413571119308472 0.067018613219261169434 0.1080209687352180481 -0.065641075372695922852 -0.0058807176537811756134 -0.0096664177253842353821 -0.024841332808136940002 0.010456487536430358887 0.077520646154880523682 -0.041377808898687362671 0.080959983170032501221 -0.019833458587527275085 -0.045303165912628173828 0.0025406761560589075089 -0.021889049559831619263 0.065694957971572875977 -0.056188970804214477539 0.019481988623738288879 0.023719662800431251526 0.0056260107085108757019 -0.002601964632049202919 -0.032679073512554168701 0.067638292908668518066 0.050792973488569259644 0.027665076777338981628 0.064270429313182830811 0.34308108687400817871 0.06798136979341506958 -0.016393255442380905151 -0.00046221030061133205891 0.031607598066329956055 0.057302232831716537476 0.057093244045972824097 0.036926489323377609253 -0.086272373795509338379 -0.043099775910377502441 -0.0037970528937876224518 0.054602775722742080688 0.054978299885988235474 0.020810766145586967468 -0.0082433354109525680542 -0.015853995457291603088 0.016132308170199394226 0.15373940765857696533 -0.059828944504261016846 -0.1463445127010345459 -0.016243366524577140808 0.033113945275545120239 0.053679689764976501465 -0.041944213211536407471 0.02835168689489364624 0.024132207036018371582 -0.057976901531219482422 -0.054563943296670913696 0.013843198306858539581 0.0097718834877014160156 0.087082982063293457031 0.029291061684489250183 -0.022783733904361724854 0.033351913094520568848 0.04657573997974395752 -0.06178620457649230957 -0.0050907894037663936615 -0.014414679259061813354 -0.091214157640933990479 0.0738164559006690979 0.15390895307064056396 0.017989194020628929138 -0.16253480315208435059 -0.060353793203830718994 0.020036790519952774048 -0.19136196374893188477 0.29868429899215698242 -0.18900756537914276123 -0.15970142185688018799 0.10485682636499404907 -0.051489241421222686768 -0.11997897177934646606 0.20724968612194061279 0.068221591413021087646 -0.070510908961296081543 -0.058176092803478240967 0.083996504545211791992 -0.19799736142158508301 0.042979449033737182617 -0.020502798259258270264 0.019306348636746406555 0.037545066326856613159 0.047463651746511459351 -0.012460460886359214783 0.022965908050537109375 0.012796248309314250946 0.0097686499357223510742 -0.0075162919238209724426 0.082487568259239196777 0.020880801603198051453 -0.043825823813676834106 0.001736794598400592804 -0.0081916404888033866882 -0.070936761796474456787 0.049161348491907119751 0.0023428183048963546753 -0.070174135267734527588 -0.0046183275990188121796 -0.00077684252755716443062 -0.061098400503396987915 0.034150160849094390869 -0.019331268966197967529 -0.040670324116945266724 0.092732407152652740479 0.047156646847724914551 -0.089800044894218444824 -0.065540105104446411133 0.055748797953128814697 0.069230251014232635498 -0.13264842331409454346 -0.0060346266254782676697 0.069949455559253692627 -0.075489714741706848145 -0.073174484074115753174 0.064848072826862335205 0.011268462054431438446 0.087545245885848999023 0.034832403063774108887 -0.10795381665229797363 4.3353152250347193331e-06 -0.3723570406436920166 0.014791072346270084381 -0.019656058400869369507 0.14938504993915557861 -0.036100845783948898315 0.028499247506260871887 -0.0147603573277592659 -0.0070462240837514400482 -0.17220914363861083984 0.01806144416332244873 -0.013551446609199047089 0.016028823330998420715 -0.039855867624282836914 0.074759155511856079102 0.073196321725845336914 0.075985006988048553467 0.0075293062254786491394 -4.32048797607421875 -0.066824421286582946777 0.043769974261522293091 0.095551781356334686279 -0.014100624248385429382 -0.011227876879274845123 0.020355723798274993896 -0.026968000456690788269 0.062095228582620620728 0.011758773587644100189 -0.024444652721285820007 -0.049076065421104431152 0.035093203186988830566 -0.0088982535526156425476 0.025555450469255447388 0.0012602820061147212982 -0.036853339523077011108 0.026183266192674636841 0.042419824749231338501 0.016820661723613739014 0.0065506254322826862335 -0.084413491189479827881 0.085425741970539093018 0.037333920598030090332 -0.0036707441322505474091 0.0023932459298521280289 0.017228141427040100098 -0.00044560810783877968788 -0.0096586570143699645996 0.0093741081655025482178 0.036801971495151519775 -0.018020439893007278442 -0.18799579143524169922 0.021946037188172340393 0.16297577321529388428 -0.065321184694766998291 -0.025941852480173110962 0.10153220593929290771 -0.21889871358871459961 -0.023624684661626815796 0.22255140542984008789 -0.13155867159366607666 0.013730841688811779022 0.098175287246704101562 -0.16515450179576873779 -0.0078544989228248596191 0.14203619956970214844 -0.15842421352863311768 -0.0098626865074038505554 0.18438978493213653564 0.3837337493896484375 0.015852374956011772156 -0.74844592809677124023 -0.57014161348342895508 -0.36946493387222290039 0.82821065187454223633 -0.44639348983764648438 0.081958286464214324951 0.23284010589122772217 0.074286513030529022217 -0.012675433419644832611 -0.031339533627033233643 -0.011506864801049232483 0.052975241094827651978 -0.010313222184777259827 0.040618900209665298462 -0.065923675894737243652 0.03493145480751991272 0.0782011374831199646 -0.05269356071949005127 -0.14043898880481719971 0.087766826152801513672 -0.023836610838770866394 -0.095780447125434875488 0.082726754248142242432 0.068275988101959228516 -0.093170396983623504639 0.018132226541638374329 -0.027667487040162086487 -0.012294535525143146515 -0.03309666365385055542 0.022497572004795074463 0.010323802940547466278 0.024803806096315383911 -0.0050118542276322841644 -0.0041677244007587432861 -0.11642221361398696899 0.13199053704738616943 -0.14708174765110015869 0.079995997250080108643 -0.15178252756595611572 0.046895667910575866699 -0.028104638680815696716 0.17490135133266448975 -0.08977995067834854126 -0.045950181782245635986 -0.030871016904711723328 0.013606318272650241852 0.11213648319244384766 -0.30510497093200683594 0.15948736667633056641 -0.034985214471817016602 0.074429489672183990479 -0.086478359997272491455 -0.081709392368793487549 0.12749718129634857178 -0.019214220345020294189 0.071262843906879425049 -0.11785773187875747681 0.0062293219380080699921 0.059706419706344604492 0.027342773973941802979 -0.022290354594588279724 -0.019395751878619194031 -0.062127877026796340942 0.024633701890707015991 0.0047938702628016471863 0.079233899712562561035 -0.12195693701505661011 -0.0023734085261821746826 0.053078539669513702393 0.072045594453811645508 -0.011354947462677955627 0.0031687333248555660248 0.04076299816370010376 0.013397160917520523071 -0.02174838632345199585 -0.030789578333497047424 -0.0066689602099359035492 -0.025107683613896369934 0.008885535411536693573 -0.0070377909578382968903 -0.021186329424381256104 0.023011568933725357056 -0.093610875308513641357 -0.25489950180053710938 -0.026235807687044143677 0.039224699139595031738 0.083286523818969726562 -0.030357304960489273071 0.073322407901287078857 0.01514948718249797821 0.0053426823578774929047 -0.092781305313110351562 -0.0088635804131627082825 0.088944330811500549316 0.035418424755334854126 -0.046051938086748123169 -0.048146862536668777466 -0.22061093151569366455 -0.024986801669001579285 -0.096746116876602172852 -0.0087017761543393135071 -0.14924630522727966309 -0.053981777280569076538 -0.12236125767230987549 -0.021642249077558517456 0.047523766756057739258 -0.072610445320606231689 -0.011192169971764087677 0.17691108584403991699 -0.088793359696865081787 0.0060190269723534584045 0.1367133408784866333 -0.15676382184028625488 -0.049947656691074371338 0.15186057984828948975 0.025519069284200668335 -0.097728304564952850342 -0.023584341630339622498 0.028054917231202125549 0.038917042315006256104 0.050354834645986557007 0.00075277662836015224457 -0.053530134260654449463 -0.0024180675391107797623 -0.062279026955366134644 0.046178400516510009766 0.12122164666652679443 0.10272050648927688599 -0.039333663880825042725 0.02915997430682182312 0.1040744483470916748 -0.025669205933809280396 -0.091732673346996307373 -0.041848093271255493164 0.011999229900538921356 -0.0095766512677073478699 -0.012474380433559417725 0.027480686083436012268 0.012031061574816703796 -0.015922512859106063843 0.059722401201725006104 0.00080321793211624026299 0.11737746000289916992 -0.062001109123229980469 -0.016935275867581367493 -0.10587593913078308105 0.029541237279772758484 0.024270912632346153259 0.056077443063259124756 -0.03619174659252166748 -0.050176460295915603638 

-0.11458989232778549194 -0.054290823638439178467 -0.084506094455718994141 0.0060807978734374046326 0.46899753808975219727 0.026760803535580635071 -0.10874371975660324097 -0.02313970029354095459 -0.12480566650629043579 0.046754438430070877075 0.060732983052730560303 0.09022792428731918335 -0.042828254401683807373 -0.02903124690055847168 -0.075786359608173370361 0.14194139838218688965 -0.18670701980590820312 0.030440444126725196838 0.0074355849064886569977 -0.03434405103325843811 0.014580115675926208496 0.019942179322242736816 -0.030665330588817596436 0.023824241012334823608 0.0027650531847029924393 0.0013111266307532787323 0.014710195362567901611 0.063895054161548614502 -0.08109073340892791748 0.060409892350435256958 0.21858102083206176758 0.040022719651460647583 0.090685732662677764893 0.024156846106052398682 0.01377930864691734314 0.00054478214588016271591 0.14885500073432922363 0.17449934780597686768 0.020223218947649002075 0.19617490470409393311 0.86626040935516357422 0.19268341362476348877 0.1163461729884147644 0.27107483148574829102 0.1887693256139755249 -0.15167646110057830811 0.15286839008331298828 -0.17165994644165039062 0.02989687211811542511 -0.018913805484771728516 0.035076837986707687378 -0.097556941211223602295 0.027292713522911071777 0.077264845371246337891 0.0691526755690574646 0.0067438371479511260986 -0.058858912438154220581 0.1208726540207862854 -0.029618768021464347839 0.0099802799522876739502 0.098279736936092376709 0.019590582698583602905 0.034813046455383300781 0.016522249206900596619 -0.062766782939434051514 -0.069595173001289367676 -0.11812514811754226685 -0.070186622440814971924 -0.060069482773542404175 -0.10143206268548965454 0.20989497005939483643 0.14843571186065673828 -0.27747848629951477051 0.39424058794975280762 -0.65979123115539550781 0.65363073348999023438 0.43455258011817932129 0.88094538450241088867 -0.050564456731081008911 0.96326744556427001953 -0.17669226229190826416 0.052413452416658401489 -0.042554363608360290527 0.022602425888180732727 0.061111092567443847656 0.063406951725482940674 0.017716843634843826294 -0.017138389870524406433 -0.030845688655972480774 0.030167723074555397034 -0.015822460874915122986 -0.030498152598738670349 0.033741164952516555786 -0.12537226080894470215 -0.034421272575855255127 -0.06432317197322845459 0.034524247050285339355 -0.047486178576946258545 0.025076275691390037537 -0.059716004878282546997 0.020973948761820793152 0.0065694483928382396698 -0.051709949970245361328 0.044189758598804473877 -0.024674767628312110901 -0.0025806161575019359589 0.050650171935558319092 0.0023503524716943502426 -0.10371769964694976807 -0.007782991509884595871 -0.22291384637355804443 -0.11811602860689163208 0.35257598757743835449 0.3541812896728515625 0.24579757452011108398 -0.12670196592807769775 -0.27937689423561096191 -0.018007228150963783264 -0.040779147297143936157 -0.0057783070951700210571 0.061617825180292129517 0.089312672615051269531 0.067905671894550323486 0.038843501359224319458 0.0046327244490385055542 0.003231146838515996933 -0.10286699235439300537 0.016990317031741142273 0.026673216372728347778 0.090869583189487457275 -0.0097116483375430107117 0.056362811475992202759 -0.04715563356876373291 -0.049874745309352874756 0.045461118221282958984 -0.0061218473128974437714 -0.039199639111757278442 0.062308218330144882202 0.059449501335620880127 -0.064366422593593597412 0.079524464905261993408 0.035328134894371032715 0.035725597292184829712 0.058534596115350723267 -0.034579686820507049561 -0.028674867004156112671 -0.070638544857501983643 -0.063570924103260040283 0.078904412686824798584 0.12282835692167282104 -0.002846067771315574646 0.0062662870623171329498 -0.053453590720891952515 0.066065974533557891846 0.082459017634391784668 0.020067926496267318726 0.03096467629075050354 0.04438557848334312439 0.030036542564630508423 -0.13305334746837615967 -0.0018451997311785817146 -0.038101885467767715454 0.12471598386764526367 -0.092454031109809875488 -0.21967411041259765625 -0.34719854593276977539 -0.14614498615264892578 0.43394553661346435547 -0.066829904913902282715 0.091328836977481842041 -0.66106688976287841797 -0.11401431262493133545 -0.047021102160215377808 -0.096984080970287322998 -0.11537724733352661133 0.46840146183967590332 -0.03094318881630897522 -0.024736175313591957092 -0.026041546836495399475 -0.065135732293128967285 -0.23776015639305114746 0.062203641980886459351 -0.039145812392234802246 -0.0028926325030624866486 0.15486250817775726318 0.079751327633857727051 -0.12635639309883117676 -0.042416833341121673584 0.21916417777538299561 0.044013544917106628418 -0.1402826458215713501 -0.011626793071627616882 0.040343217551708221436 -0.076163552701473236084 0.00050604186253622174263 0.12453404068946838379 -0.16070912778377532959 0.060441460460424423218 -0.093132533133029937744 -0.035660974681377410889 0.065854087471961975098 -0.0044698920100927352905 0.10322070866823196411 -0.025844044983386993408 0.090060919523239135742 -0.083481505513191223145 -0.036222606897354125977 -0.01074036676436662674 -0.0034992676228284835815 -0.014053450897336006165 0.049439031630754470825 0.01941322721540927887 0.036255162209272384644 0.012410122901201248169 -0.04409589618444442749 -0.098215967416763305664 -0.051941473037004470825 0.04813359677791595459 0.04698136448860168457 0.07581831514835357666 0.064552426338195800781 0.065428845584392547607 0.069101229310035705566 -0.022617939859628677368 -0.030334481969475746155 0.15200588107109069824 -0.21970927715301513672 -0.14155918359756469727 0.1264813542366027832 0.18473093211650848389 0.057735722512006759644 -0.406002044677734375 0.70637291669845581055 -0.23737572133541107178 0.11215142905712127686 -0.052529972046613693237 -0.13189847767353057861 0.11495980620384216309 -0.050518110394477844238 -0.099618434906005859375 0.1604582667350769043 0.028962586075067520142 -0.13978630304336547852 -0.0092461276799440383911 0.012384520843625068665 -0.016134878620505332947 0.013208112679421901703 -0.089245460927486419678 0.0093130972236394882202 -0.019100897014141082764 0.025334775447845458984 0.037768065929412841797 -0.14660587906837463379 -0.050219189375638961792 -0.033932365477085113525 0.073436304926872253418 0.13887485861778259277 0.041242577135562896729 -0.14322292804718017578 -0.097616963088512420654 0.055679395794868469238 0.018119838088750839233 0.038093458861112594604 -0.02247493155300617218 0.10018759965896606445 -0.0011618480784818530083 0.028859360143542289734 0.0046965456567704677582 -0.0086579602211713790894 -0.032565530389547348022 0.012002353556454181671 0.046767611056566238403 0.0010653504868969321251 -0.0039024958387017250061 -0.065688855946063995361 -0.011746201664209365845 0.046247068792581558228 -0.017012046650052070618 0.02053593657910823822 -0.33775344491004943848 0.00045586930355057120323 0.09803425520658493042 -0.01901447586715221405 0.12901932001113891602 -0.028019607067108154297 0.065230093896389007568 0.078505657613277435303 -0.088924489915370941162 0.05785414576530456543 -0.12733784317970275879 -0.012075110338628292084 0.060890361666679382324 0.042202781885862350464 0.12010647356510162354 -0.017695413902401924133 -0.27453556656837463379 -0.10878793895244598389 -0.22378167510032653809 -0.020919222384691238403 -0.10333827883005142212 -0.34375351667404174805 0.092776387929916381836 -0.076953962445259094238 0.092049919068813323975 0.056423641741275787354 -0.063525818288326263428 -0.16556409001350402832 0.05106587335467338562 0.13968993723392486572 -0.013596708886325359344 -0.020100569352507591248 0.10117121785879135132 -0.044507950544357299805 -0.031084578484296798706 -0.10781722515821456909 -0.064276933670043945312 -0.12232153862714767456 0.047515805810689926147 -0.10871861875057220459 0.32324776053428649902 -0.1361027061939239502 -0.15066871047019958496 0.047109510749578475952 -0.11879578977823257446 0.016209971159696578979 0.0095834378153085708618 -0.0022217237856239080429 -0.0022499754559248685837 -0.051238771528005599976 0.024976119399070739746 -0.029378373175859451294 0.031087988987565040588 0.075343839824199676514 -0.11783166229724884033 -0.060835305601358413696 -0.32719919085502624512 0.050858587026596069336 -0.202874794602394104 0.12790048122406005859 -0.054310999810695648193 -0.095500804483890533447 -0.14172129333019256592 0.26104727387428283691 -0.21631221473217010498 0.27688136696815490723 -0.41594544053077697754 -0.3022365272045135498 -0.4094378054141998291 0.065557532012462615967 -0.37369504570960998535 0.25230795145034790039 0.018250642344355583191 -0.12775748968124389648 -0.0088212536647915840149 -0.018254490569233894348 0.23725420236587524414 -0.11518105119466781616 0.17497609555721282959 -0.15063261985778808594 0.10084193199872970581 0.090301193296909332275 0.0021828415337949991226 -0.081326268613338470459 0.002263254951685667038 0.039310149848461151123 0.26638674736022949219 -0.0095587391406297683716 -0.085872575640678405762 -0.15472054481506347656 -0.051330957561731338501 0.0076208054088056087494 -0.11945114284753799438 -0.10621226578950881958 0.13808022439479827881 0.021583240479230880737 -0.14861996471881866455 0.026058401912450790405 -0.18069250881671905518 -0.23099841177463531494 -0.15978142619132995605 -0.11311139911413192749 0.037895750254392623901 0.75785982608795166016 -0.035178903490304946899 -0.15055596828460693359 -0.087920852005481719971 -0.0405826568603515625 0.040959082543849945068 -0.1123374253511428833 0.13960723578929901123 -0.036438595503568649292 -0.16326032578945159912 -0.037277147173881530762 0.1098514944314956665 0.014418033882975578308 -0.029574709013104438782 -0.033372286707162857056 -0.076226904988288879395 -0.056109029799699783325 -0.059249803423881530762 0.018655199557542800903 -0.013330489397048950195 -0.09529981762170791626 -0.051737669855356216431 -0.10009000450372695923 0.00091669161338359117508 0.074134387075901031494 0.039166186004877090454 -0.010402239859104156494 -0.085865199565887451172 0.038010634481906890869 0.053626082837581634521 -0.029783297330141067505 -0.061539627611637115479 -0.019965900108218193054 0.042521782219409942627 0.049540251493453979492 0.005784197244793176651 -0.043623782694339752197 -0.021117676049470901489 0.073948316276073455811 0.065321177244186401367 -0.0143998684361577034 0.48890072107315063477 -0.65234339237213134766 -1.1334761381149291992 -0.27122920751571655273 -0.3857212066650390625 -0.59549462795257568359 0.34409168362617492676 -0.5721333622932434082 -0.81269222497940063477 -0.17207285761833190918 0.23936577141284942627 -0.12052480131387710571 -0.099632017314434051514 0.21454130113124847412 -0.021827984601259231567 0.039309971034526824951 -0.0028077235911041498184 -0.10921729356050491333 -0.092517316341400146484 -0.20253260433673858643 0.063372664153575897217 0.021590117365121841431 -0.12595231831073760986 0.093033105134963989258 0.094556085765361785889 -0.065821811556816101074 -0.014706578105688095093 0.031194543465971946716 0.084370844066143035889 -0.02420479990541934967 0.035674449056386947632 -0.16989290714263916016 0.11966478824615478516 0.0029538944363594055176 0.010023602284491062164 0.012377775274217128754 -0.10196582973003387451 0.019064910709857940674 -0.1265840679407119751 -0.089082747697830200195 0.052286740392446517944 0.10014178603887557983 -0.034507941454648971558 0.064689151942729949951 0.047526124864816665649 -0.34038853645324707031 0.33129319548606872559 -0.216175079345703125 0.033063396811485290527 0.67031395435333251953 -0.043778017163276672363 -0.071394503116607666016 -0.58065044879913330078 0.02121121622622013092 -0.051292423158884048462 -0.011145815253257751465 -0.17971479892730712891 -0.068006195127964019775 0.096936523914337158203 0.070504166185855865479 -0.083047054708003997803 0.011306086555123329163 0.0049330173060297966003 0.0046415640972554683685 0.041188634932041168213 -0.32050001621246337891 0.022420659661293029785 -0.41877916455268859863 0.21931985020637512207 0.077007360756397247314 -0.12535755336284637451 -0.17820458114147186279 -0.10197202861309051514 0.18184594810009002686 -0.21521075069904327393 0.18685540556907653809 0.13343593478202819824 0.092678606510162353516 -0.18492013216018676758 0.1901896744966506958 -0.16971690952777862549 -0.12443394958972930908 0.18951681256294250488 -0.087690167129039764404 0.040320485830307006836 0.1283206939697265625 -0.033158801496028900146 -0.20586757361888885498 -0.041744779795408248901 0.0003761850530281662941 -0.040429588407278060913 -0.16941584646701812744 -0.0020910564344376325607 0.18218858540058135986 0.35683053731918334961 -0.16153624653816223145 0.15305732190608978271 -0.054553493857383728027 -0.045918516814708709717 -0.042361352592706680298 0.023719757795333862305 -0.012082339264452457428 0.020406736060976982117 -0.022751415148377418518 0.019470784813165664673 0.0076326881535351276398 0.03714510798454284668 -0.062830440700054168701 -0.015919320285320281982 0.0060458988882601261139 -0.0082446755841374397278 -0.052170425653457641602 0.025053517892956733704 0.022842986509203910828 -0.051256988197565078735 -0.13851849734783172607 -0.13755497336387634277 -0.15146425366401672363 0.04939902573823928833 -0.0094100218266248703003 0.13539077341556549072 0.11021462827920913696 -0.16230896115303039551 0.0036467460449784994125 -0.024357233196496963501 0.064943127334117889404 -0.11332331597805023193 0.1834408193826675415 0.10089924931526184082 -0.060732979327440261841 0.048707120120525360107 -0.032621990889310836792 -0.14814351499080657959 0.073358640074729919434 0.0061287633143365383148 -0.0012434599921107292175 -0.00078414450399577617645 -0.067585639655590057373 0.018930576741695404053 0.055280134081840515137 -0.040324013680219650269 0.07242584228515625 -0.012609346769750118256 -0.094956941902637481689 0.045499403029680252075 -0.25050535798072814941 0.20821395516395568848 -0.033851172775030136108 0.24719877541065216064 -0.12713980674743652344 -0.21561500430107116699 0.13141661882400512695 -0.2020486295223236084 

0.019382441416382789612 -0.016239557415246963501 -0.043779615312814712524 -0.0064718881621956825256 -0.051681641489267349243 -0.089048936963081359863 0.023262294009327888489 0.080571860074996948242 0.011144117452204227448 0.020039983093738555908 0.030877778306603431702 0.054749570786952972412 0.021955681964755058289 0.0024952455423772335052 -0.082188591361045837402 0.03320051729679107666 0.15403309464454650879 0.22743993997573852539 0.028849536553025245667 -0.058783851563930511475 0.031055627390742301941 0.15217280387878417969 0.026776924729347229004 -0.096923291683197021484 -0.067330591380596160889 0.13728296756744384766 -0.13057023286819458008 0.0014254100387915968895 0.12309025973081588745 -0.16191478073596954346 -0.1236619800329208374 0.1159871518611907959 -0.29636207222938537598 -0.082415439188480377197 -0.16823731362819671631 0.10970679670572280884 0.0079038860276341438293 0.22211545705795288086 0.13969710469245910645 -0.057181727141141891479 0.24964499473571777344 0.36514341831207275391 -0.22066318988800048828 -0.31223267316818237305 0.13158838450908660889 -0.045332144945859909058 0.072937950491905212402 0.046883441507816314697 0.024275667965412139893 0.041537806391716003418 0.1997954249382019043 -0.25190976262092590332 0.091325886547565460205 -0.22920113801956176758 -0.063433557748794555664 -0.02892772480845451355 0.027296096086502075195 -0.017691133543848991394 0.040444493293762207031 0.044663947075605392456 -0.019792068749666213989 0.034415487200021743774 -0.0071373619139194488525 0.16430778801441192627 -0.16181313991546630859 -0.15654261410236358643 0.06859197467565536499 -0.096147038042545318604 -0.061983469873666763306 0.12164989113807678223 -0.41927865147590637207 -0.13962179422378540039 0.28909894824028015137 -0.52577352523803710938 -0.039172787219285964966 -0.063373841345310211182 0.215757712721824646 0.080213904380798339844 -0.095382288098335266113 -0.058659877628087997437 -0.18718533217906951904 0.067762464284896850586 -0.12989658117294311523 0.13475848734378814697 0.065913289785385131836 -0.053828865289688110352 -0.078257225453853607178 -0.24352288246154785156 0.120853424072265625 -0.022578440606594085693 -0.03467655181884765625 -0.039285745471715927124 -0.031307499855756759644 -0.073824055492877960205 -0.033073160797357559204 -0.046420462429523468018 -0.14994646608829498291 -0.13712389767169952393 -0.13259974122047424316 0.067343249917030334473 0.011079624295234680176 -0.050364460796117782593 0.20861504971981048584 -0.052211713045835494995 0.15519465506076812744 -0.42553791403770446777 0.087223581969738006592 -0.088969409465789794922 -0.032553937286138534546 -0.099720537662506103516 0.050572354346513748169 -0.011424325406551361084 0.22315350174903869629 -0.23532150685787200928 -0.048742607235908508301 -0.16155394911766052246 0.05100771784782409668 -0.028778526932001113892 0.057480227202177047729 0.047564536333084106445 0.0053198193199932575226 0.041083786636590957642 0.047715619206428527832 -0.017005592584609985352 -0.077779084444046020508 0.032282326370477676392 -0.17383468151092529297 -0.011141489259898662567 0.12268206477165222168 -0.077410556375980377197 -0.10792159289121627808 0.18866977095603942871 0.25252610445022583008 0.032414082437753677368 -0.093841098248958587646 0.16881485283374786377 0.11230533570051193237 0.15634675323963165283 -0.13292007148265838623 -0.096173770725727081299 -0.0040120473131537437439 -0.14363749325275421143 -0.2777551114559173584 -0.015367979183793067932 0.030276052653789520264 -0.054142586886882781982 0.028013782575726509094 0.022519191727042198181 0.053617421537637710571 -0.043227422982454299927 0.02742043323814868927 0.086403302848339080811 0.029895659536123275757 -0.0051958607509732246399 0.16127729415893554688 0.16073934733867645264 -0.23462206125259399414 0.13988794386386871338 -0.18788310885429382324 0.078479014337062835693 0.2182080000638961792 -0.1051081046462059021 -0.051962416619062423706 -0.11705805361270904541 -0.078601591289043426514 -0.35987356305122375488 -0.018779888749122619629 -0.36077329516410827637 0.38546550273895263672 -0.012008721940219402313 0.3781719207763671875 -0.0015447918558493256569 -0.061043869704008102417 0.009637420065701007843 0.15002496540546417236 0.0011812340235337615013 -0.051467668265104293823 -0.22077460587024688721 0.13201278448104858398 -0.023073889315128326416 0.05377788841724395752 0.030981365591287612915 -0.052146993577480316162 -0.056246090680360794067 0.0029553328640758991241 -0.021914662793278694153 -0.06626656651496887207 -0.040010906755924224854 0.043673336505889892578 -0.15283104777336120605 -0.15968342125415802002 0.096039764583110809326 0.007019455544650554657 -0.12698632478713989258 0.13028049468994140625 0.094280347228050231934 -0.42522203922271728516 0.10289006680250167847 0.076751299202442169189 -0.24916376173496246338 0.021778488531708717346 0.20502296090126037598 -0.10912916809320449829 -0.016684548929333686829 -0.034363735467195510864 0.011348944157361984253 0.12864492833614349365 0.068807080388069152832 0.1195513606071472168 0.12137263268232345581 0.083743110299110412598 0.12486217916011810303 0.15156359970569610596 0.024053325876593589783 0.068002939224243164062 0.09990577399730682373 -0.043551877140998840332 -0.051614373922348022461 -0.18805424869060516357 0.15816196799278259277 0.06297407299280166626 0.019083147868514060974 -0.055886454880237579346 -0.088971048593521118164 0.26684224605560302734 0.028462279587984085083 -0.019521106034517288208 -0.022270252928137779236 -0.028262933716177940369 -0.0059504131786525249481 0.024681661278009414673 -0.04471399262547492981 -0.025599142536520957947 0.27593779563903808594 -0.026872944086790084839 0.046247296035289764404 0.075974643230438232422 -0.066229850053787231445 0.0034257778897881507874 0.040749367326498031616 -0.062458451837301254272 -0.095132157206535339355 -0.035220112651586532593 -0.031113639473915100098 -0.065246321260929107666 0.029440250247716903687 0.042600620537996292114 -0.019046884030103683472 -0.09777425229549407959 0.014304109849035739899 0.084623575210571289062 0.031559783965349197388 0.11049322783946990967 -0.01881381496787071228 0.076292470097541809082 0.013863679952919483185 -0.15343618392944335938 0.071742542088031768799 -0.10627076029777526855 0.12967337667942047119 -0.071936018764972686768 0.25835895538330078125 0.049400560557842254639 -0.039896331727504730225 -0.061769120395183563232 0.05374326556921005249 -0.13868811726570129395 -0.22543720901012420654 -0.023683737963438034058 -0.010447029024362564087 0.028556041419506072998 -0.047326434403657913208 -0.012160615064203739166 0.048567738384008407593 0.016270881518721580505 -0.055069986730813980103 -0.022112708538770675659 0.090595230460166931152 0.0010493807494640350342 -0.15315461158752441406 -0.036318648606538772583 0.45845907926559448242 -0.16643132269382476807 -0.17041061818599700928 0.17103850841522216797 0.23762455582618713379 -0.6895764470100402832 -0.3029022216796875 -0.021606627851724624634 0.038552798330783843994 -0.15131157636642456055 0.009645981714129447937 0.091406442224979400635 0.05802829936146736145 -0.20074471831321716309 0.13225747644901275635 0.21153713762760162354 -0.09170226752758026123 -0.25700578093528747559 0.10727600008249282837 -0.085005111992359161377 0.037071704864501953125 0.23279690742492675781 0.14129427075386047363 -0.18903055787086486816 -0.221698760986328125 0.11469088494777679443 0.038301937282085418701 0.016543682664632797241 0.17291845381259918213 -0.038709443062543869019 -0.11811815202236175537 0.073630981147289276123 -0.052277628332376480103 0.014359082095324993134 -0.021474221721291542053 0.0908319130539894104 0.0018194646108895540237 0.017314910888671875 0.21575656533241271973 -0.02370297163724899292 0.034534499049186706543 0.059380572289228439331 0.087209634482860565186 0.039268814027309417725 0.14766745269298553467 0.078307017683982849121 -0.066693119704723358154 -0.063757717609405517578 0.08681532740592956543 -0.063026919960975646973 -0.078902587294578552246 -0.056069888174533843994 -0.11687768250703811646 -0.039009772241115570068 -0.05552099272608757019 -0.040567308664321899414 0.011164418421685695648 0.13583621382713317871 -0.050017543137073516846 -0.1764239966869354248 -0.020437030121684074402 -0.013922803103923797607 -0.018704688176512718201 -0.16405098140239715576 -0.068855218589305877686 0.21403354406356811523 0.015836805105209350586 0.0068598957732319831848 -0.17479753494262695312 -0.05018808320164680481 -0.19255545735359191895 0.28930988907814025879 -0.081626482307910919189 -0.12420626729726791382 0.66029363870620727539 0.52978736162185668945 -0.48705583810806274414 -1.0946880578994750977 0.012332301586866378784 -0.0023657912388443946838 -0.072317607700824737549 -0.099073186516761779785 0.040098752826452255249 0.069264449179172515869 0.0033739728387445211411 -0.08107054978609085083 -0.074422806501388549805 -0.05543901398777961731 -0.083247542381286621094 -0.1844584047794342041 0.33679115772247314453 0.054618008434772491455 -0.068788386881351470947 0.18742547929286956787 0.12530753016471862793 0.38600775599479675293 -0.27548974752426147461 -0.13587641716003417969 0.072885110974311828613 -0.026625931262969970703 0.055289279669523239136 -0.22729891538619995117 0.0791017189621925354 0.13608139753341674805 0.16308864951133728027 -0.168188437819480896 -0.040856972336769104004 0.040664415806531906128 0.063834302127361297607 -0.013999906368553638458 0.041359048336744308472 -0.071816824376583099365 0.035887993872165679932 -0.044039852917194366455 0.086544103920459747314 0.073713861405849456787 -0.17361301183700561523 -0.031874336302280426025 -0.045806657522916793823 -0.031902510672807693481 -0.43839532136917114258 -0.0027584757190197706223 0.12718288600444793701 0.10957309603691101074 0.035917811095714569092 0.058487761765718460083 0.028930211439728736877 -0.025371147319674491882 0.053902462124824523926 0.14633150398731231689 -0.12671469151973724365 -0.10749281197786331177 -0.061119675636291503906 -0.010727727785706520081 0.063733920454978942871 0.044342588633298873901 -0.058492209762334823608 -0.043415259569883346558 0.049446035176515579224 -0.19132290780544281006 -0.149835243821144104 -0.039216969162225723267 -0.20509189367294311523 -0.4639142453670501709 -0.35312795639038085938 -0.12761026620864868164 0.36446332931518554688 -0.31963008642196655273 -0.010623898357152938843 0.20503398776054382324 -0.26196125149726867676 -0.024269990622997283936 -0.05875449255108833313 0.021682461723685264587 0.035399444401264190674 0.059563115239143371582 -0.11548857390880584717 -0.031993925571441650391 -0.059742748737335205078 -0.064387232065200805664 -0.056435860693454742432 0.080121628940105438232 0.067672975361347198486 -0.037818979471921920776 -0.1056756824254989624 -0.062368851155042648315 0.10308971256017684937 0.16589659452438354492 -0.0065134800970554351807 -0.018657883629202842712 -0.065627537667751312256 0.013433105312287807465 0.051088776439428329468 -0.098684810101985931396 -0.03544922173023223877 -0.062844313681125640869 -0.054927602410316467285 0.070048041641712188721 -0.038193129003047943115 -0.0016017578309401869774 0.043781258165836334229 -0.15919277071952819824 -0.10791129618883132935 -0.22882781922817230225 0.095837168395519256592 0.23571352660655975342 0.23480464518070220947 -0.027454826980829238892 0.20500500500202178955 -0.12655499577522277832 -0.041712131351232528687 0.037272326648235321045 -0.005194587167352437973 0.14646425843238830566 -0.34727692604064941406 -0.073591545224189758301 -0.14701089262962341309 -0.068781793117523193359 -0.028335444629192352295 0.08220370858907699585 0.13929900527000427246 0.059562206268310546875 -0.016538571566343307495 -0.027027487754821777344 0.081552579998970031738 -0.022467153146862983704 -0.19521059095859527588 0.072831079363822937012 0.23797142505645751953 -0.14300782978534698486 -0.077286429703235626221 -0.1914459913969039917 0.29286536574363708496 -0.15791381895542144775 0.069171726703643798828 -0.16552363336086273193 0.079510271549224853516 0.13350985944271087646 -0.012235014699399471283 -0.19478367269039154053 0.10331351310014724731 0.17663715779781341553 0.06760225445032119751 0.01771938614547252655 -0.039370525628328323364 -0.010697815567255020142 -0.014395857229828834534 0.11192094534635543823 -0.015342251397669315338 -0.0051046242006123065948 0.030530216172337532043 -0.050189647823572158813 0.054491307586431503296 0.018126606941223144531 -0.05143615230917930603 0.0024351964239031076431 0.1005814969539642334 0.22284491360187530518 0.024484265595674514771 -0.23145225644111633301 -0.12260317057371139526 0.030203677713871002197 -0.029892502352595329285 -0.20447701215744018555 -0.063552021980285644531 -0.0083478456363081932068 -0.052800990641117095947 -0.042338132858276367188 -0.19165238738059997559 -0.0010020443005487322807 0.043410409241914749146 0.094728924334049224854 0.065173618495464324951 0.079763121902942657471 0.082237765192985534668 0.045068316161632537842 0.01469026319682598114 0.036070786416530609131 0.04557827487587928772 -0.102075234055519104 -0.10047467052936553955 -0.1780535578727722168 0.091079540550708770752 0.049867637455463409424 0.23896454274654388428 0.088192597031593322754 -0.3527418673038482666 -0.048856254667043685913 0.031498905271291732788 0.048720076680183410645 0.17941957712173461914 0.015190908685326576233 -0.092004336416721343994 -0.14533768594264984131 0.043137613683938980103 0.13907073438167572021 -0.26571774482727050781 0.02599920518696308136 0.054742138832807540894 0.037557609379291534424 -0.055828485637903213501 -0.033883806318044662476 0.031075846403837203979 -0.0049372445791959762573 0.016559539362788200378 0.031229222193360328674 0.43727460503578186035 -0.16634966433048248291 -0.38640803098678588867 0.28334754705429077148 -1.295621037483215332 -0.50828248262405395508 -0.053802229464054107666 -0.57981032133102416992 0.16229121387004852295 

-0.020420940592885017395 -0.045120373368263244629 -0.014120930805802345276 0.018162792548537254333 0.087279401719570159912 -0.012627155520021915436 -0.11243592202663421631 0.010815557092428207397 -0.04276016727089881897 -0.063226670026779174805 0.093177184462547302246 -0.060610193759202957153 -0.027534155175089836121 -0.071474708616733551025 -0.076639674603939056396 0.025873947888612747192 -0.070370800793170928955 0.03139194101095199585 0.047604847699403762817 0.10474367439746856689 -0.023268556222319602966 0.10719045251607894897 0.030876249074935913086 0.10150066763162612915 0.067669466137886047363 0.095078483223915100098 0.029834866523742675781 -0.066161260008811950684 0.056335728615522384644 0.068829938769340515137 -0.0087796887382864952087 -0.069109767675399780273 -0.021008415147662162781 -0.032530408352613449097 0.099894344806671142578 0.12876750528812408447 0.081562064588069915771 0.078925907611846923828 0.076856411993503570557 -0.010972368530929088593 -0.2141386866569519043 0.085149295628070831299 0.016156051307916641235 -0.085888303816318511963 0.010523854754865169525 -0.2226168215274810791 -0.10243392735719680786 0.048547662794589996338 0.053341109305620193481 -0.06157495453953742981 -0.087485432624816894531 0.20455367863178253174 -0.048641003668308258057 0.029070680961012840271 0.00057588511845096945763 -0.028797436505556106567 -0.037618488073348999023 0.073950111865997314453 0.061462990939617156982 -0.066375851631164550781 0.028631849214434623718 0.056067377328872680664 -0.02112028561532497406 0.046499148011207580566 0.030071806162595748901 0.054474838078022003174 -0.037148211151361465454 -0.037938110530376434326 0.026915486901998519897 0.10665094107389450073 -0.21785429120063781738 -0.10410220921039581299 -0.40029644966125488281 0.37788191437721252441 -0.33564448356628417969 0.14019282162189483643 0.45795401930809020996 0.052216053009033203125 -0.51705086231231689453 0.3633041083812713623 -0.48376563191413879395 -0.017013514414429664612 0.103446178138256073 -0.040130086243152618408 0.1522693634033203125 0.15137471258640289307 0.14687173068523406982 -0.011787726543843746185 0.065229021012783050537 0.0057783033698797225952 -0.0074950526468455791473 -0.063729949295520782471 -0.033482939004898071289 0.024907689541578292847 -0.06455732882022857666 -0.04728975147008895874 -0.048104345798492431641 -0.038895811885595321655 -0.039831057190895080566 -0.034012995660305023193 0.14180962741374969482 -0.053318336606025695801 -0.088277064263820648193 0.023481924086809158325 0.14482483267784118652 -0.010169841349124908447 -0.039504230022430419922 -0.150133475661277771 0.011047827079892158508 -0.16742977499961853027 0.058376375585794448853 0.051886163651943206787 0.036853466182947158813 -0.064988777041435241699 -0.0013378417352214455605 0.012573401443660259247 0.03037838079035282135 -0.054345056414604187012 -0.0532494373619556427 -0.011011803522706031799 -0.024822158738970756531 -0.11684599518775939941 -0.036839440464973449707 -0.07689059525728225708 -0.10252507776021957397 -0.038953397423028945923 -0.049510397017002105713 -0.029839018359780311584 -0.034567423164844512939 0.037336960434913635254 -0.029279153794050216675 -0.037649180740118026733 0.037209812551736831665 0.085812233388423919678 -0.022053597494959831238 -0.041474033147096633911 -0.080249927937984466553 -0.026947990059852600098 -0.15601201355457305908 -0.087248407304286956787 -0.029678829014301300049 -0.01533232908695936203 -0.06652580946683883667 -0.055830929428339004517 -0.071191959083080291748 -0.085436172783374786377 -0.096137866377830505371 0.12482148408889770508 -0.05208949744701385498 0.15801981091499328613 0.073074735701084136963 -0.029257437214255332947 0.095608063042163848877 -0.056118622422218322754 -0.074289888143539428711 -0.021079329773783683777 0.031246194615960121155 -0.058893471956253051758 0.034042775630950927734 0.070864632725715637207 0.024006839841604232788 0.04356055334210395813 -0.23054516315460205078 0.15394428372383117676 -0.15048372745513916016 0.1001999974250793457 -0.40147960186004638672 0.20561462640762329102 -0.49703630805015563965 0.35139787197113037109 -0.246733054518699646 0.076443001627922058105 0.12042974680662155151 0.018758153542876243591 0.090860843658447265625 0.12697190046310424805 0.055402919650077819824 0.046731885522603988647 0.089645341038703918457 0.019189106300473213196 -0.057989221066236495972 0.057297188788652420044 0.054601181298494338989 0.082131616771221160889 0.054758395999670028687 -0.024382947012782096863 -0.01004694029688835144 -0.028693769127130508423 -0.047709453850984573364 0.05876940116286277771 -0.030666805803775787354 0.046684015542268753052 -0.028143852949142456055 -0.011693917214870452881 -0.0038710702210664749146 -0.049278795719146728516 -0.043599132448434829712 -0.0080437595024704933167 -0.018015800043940544128 0.084838449954986572266 -0.010160996578633785248 -0.041145902127027511597 -0.0033397837541997432709 0.055417958647012710571 -0.090737752616405487061 0.12111228704452514648 -0.026861919090151786804 0.12496221810579299927 0.10064593702554702759 0.03262883797287940979 0.15119513869285583496 0.14435194432735443115 0.097141586244106292725 0.170526161789894104 0.17829936742782592773 0.21240742504596710205 0.12939763069152832031 0.021362144500017166138 0.1746231764554977417 0.045455291867256164551 -0.016744842752814292908 0.13505189120769500732 -0.11764420568943023682 0.081021860241889953613 0.016936078667640686035 -0.065343044698238372803 0.037948045879602432251 -0.02579134330153465271 0.035377185791730880737 -0.047706436365842819214 -0.027472285553812980652 0.10561265051364898682 -0.030806306749582290649 -0.046474412083625793457 0.0047224024310708045959 -0.040652170777320861816 -0.049828134477138519287 -0.0068416660651564598083 -0.039198100566864013672 -0.020239762961864471436 -0.0048126303590834140778 -0.0020198014099150896072 -0.017387341707944869995 -0.067682236433029174805 0.0022307399194687604904 -0.052648060023784637451 -0.003404161892831325531 -0.019998578354716300964 -0.011989006772637367249 -0.089598059654235839844 -0.00050014100270345807076 -0.052349314093589782715 0.044416036456823348999 0.033897973597049713135 -0.12963967025279998779 -0.0047455318272113800049 -0.091695964336395263672 0.13499267399311065674 0.098863266408443450928 -0.024918604642152786255 -0.079746738076210021973 -0.035346630960702896118 -0.0090609500184655189514 0.009757647290825843811 -0.062224399298429489136 -0.057576157152652740479 0.025192996487021446228 -0.0059965765103697776794 -0.003100323723629117012 0.10839289426803588867 -0.024706760421395301819 -0.034643467515707015991 -0.038283690810203552246 -0.033853799104690551758 0.046703733503818511963 -0.0062556411139667034149 -0.09975789487361907959 -0.076381087303161621094 -0.045566849410533905029 -0.063243485987186431885 -0.26464039087295532227 -0.19837193191051483154 0.35909730195999145508 0.15632687509059906006 -0.17189316451549530029 1.0449910163879394531 0.28430804610252380371 -0.19505919516086578369 -0.023679705336689949036 -0.020385071635246276855 -0.018575461581349372864 -0.11321642249822616577 -0.13408035039901733398 -0.056630201637744903564 -0.046752050518989562988 0.09630123525857925415 0.040954284369945526123 -0.033305961638689041138 0.13943794369697570801 -0.13630048930644989014 -0.22088891267776489258 -0.0052597816102206707001 -0.026522025465965270996 0.061869572848081588745 -0.057634916156530380249 -0.18392011523246765137 -0.10578893870115280151 0.023053985089063644409 -0.012704821303486824036 -0.06796611100435256958 -0.023262117058038711548 -0.028002604842185974121 0.047066979110240936279 0.099444806575775146484 0.012088336050510406494 -0.03021763823926448822 0.17224174737930297852 -0.068786799907684326172 -0.033127401024103164673 -0.028382081538438796997 -0.011427600868046283722 0.025123694911599159241 -0.044956024736166000366 0.07998336106538772583 0.0093356668949127197266 -0.02287401445209980011 0.0058596027083694934845 -0.016457237303256988525 0.0027088229544460773468 -0.032069239765405654907 0.041995938867330551147 -0.057109575718641281128 0.014142319560050964355 -0.020866053178906440735 -0.26414224505424499512 0.099743954837322235107 -0.2957096397876739502 -0.022238932549953460693 -0.245909079909324646 -0.0071320571005344390869 -0.30856108665466308594 0.020945731550455093384 0.052901316434144973755 0.0062434608116745948792 -0.14169780910015106201 -0.037782214581966400146 0.11071261018514633179 0.032736264169216156006 -0.096166178584098815918 0.02579147927463054657 -0.21396155655384063721 -0.19003100693225860596 0.31818491220474243164 -0.30948823690414428711 0.18994390964508056641 1.1927883625030517578 0.15684442222118377686 -0.2109299004077911377 0.20927862823009490967 -0.39143747091293334961 -0.11063250154256820679 -0.10648709535598754883 0.049130316823720932007 0.15848231315612792969 -0.031674079596996307373 -0.030823865905404090881 -0.064411990344524383545 -0.081595636904239654541 0.075958639383316040039 0.070160977542400360107 0.16070908308029174805 -0.2437509000301361084 0.025865644216537475586 -0.069906406104564666748 0.13669805228710174561 -0.00055112456902861595154 0.10722937434911727905 -0.22467523813247680664 -0.16868191957473754883 0.013883387669920921326 -0.050827618688344955444 0.13443745672702789307 0.018595051020383834839 -0.044944472610950469971 -0.047483947128057479858 0.13423095643520355225 -0.036425516009330749512 -0.028065994381904602051 0.038629800081253051758 0.095636986196041107178 -0.11892686784267425537 0.017069075256586074829 -0.12370900064706802368 0.02840267866849899292 0.056517213582992553711 0.027142474427819252014 -0.10352475941181182861 -0.030557878315448760986 -0.12211500108242034912 -0.089252837002277374268 -0.086486220359802246094 0.020678132772445678711 -0.063214480876922607422 -0.076366804540157318115 -0.085077315568923950195 -0.030581811442971229553 -0.057646941393613815308 -0.014718816615641117096 0.001793370349332690239 -0.060067750513553619385 -0.0058813663199543952942 -0.0096647562459111213684 -0.037766482681035995483 -0.006698142271488904953 0.0065751052461564540863 -0.019216924905776977539 -0.022794896736741065979 0.028011806309223175049 -0.05749770626425743103 0.016107745468616485596 0.00033242223435081541538 0.0088796010240912437439 0.053728792816400527954 -0.18916225433349609375 0.40104252099990844727 -0.028583038598299026489 0.18864727020263671875 0.62748259305953979492 0.38230669498443603516 -0.10224045813083648682 0.54985517263412475586 0.063190095126628875732 -0.066806003451347351074 0.1184918135404586792 -0.081307202577590942383 0.021617466583847999573 0.021541805937886238098 0.063245572149753570557 -0.044230453670024871826 0.11243224889039993286 -0.2112598717212677002 -0.13968642055988311768 0.044072609394788742065 -0.13976067304611206055 0.052571386098861694336 -0.2423855513334274292 0.11497973650693893433 -0.16898381710052490234 0.054185412824153900146 -0.04365963861346244812 0.040448598563671112061 0.039613418281078338623 0.1158105507493019104 -0.083857305347919464111 0.11818993836641311646 -0.096189133822917938232 -0.12703347206115722656 0.061954755336046218872 -0.091625079512596130371 -0.0028354323003441095352 0.053121078759431838989 -0.050505779683589935303 0.084573768079280853271 -0.0475197620689868927 0.024546658620238304138 -0.028891474008560180664 0.039955366402864456177 -0.075497068464756011963 0.12077414244413375854 0.11569949984550476074 0.098933793604373931885 -0.29279503226280212402 -0.29552024602890014648 -0.021295709535479545593 -0.13404281437397003174 0.22954191267490386963 -0.18245510756969451904 0.024900671094655990601 0.087821982800960540771 -0.19999857246875762939 -0.067060954868793487549 0.15404441952705383301 0.097369283437728881836 -0.10930089652538299561 0.072017036378383636475 -0.25111588835716247559 0.003773691132664680481 -0.039698045700788497925 -0.10145251452922821045 -0.12698774039745330811 -0.21919292211532592773 -0.12146396934986114502 -0.09101139754056930542 -0.043176792562007904053 -0.22048477828502655029 0.080214671790599822998 0.21236923336982727051 0.026830472052097320557 0.026486705988645553589 0.14290423691272735596 0.049221422523260116577 0.00084160815458744764328 0.041241668164730072021 0.069022312760353088379 -0.074936345219612121582 -0.031958021223545074463 -0.062399931252002716064 0.045606400817632675171 -0.0049666934646666049957 -0.07547413557767868042 0.0092441206797957420349 0.026811819523572921753 -0.0464134998619556427 0.082849368453025817871 0.064705036580562591553 0.074447847902774810791 -0.0068494686856865882874 0.089110381901264190674 -0.034777536988258361816 -0.10465565323829650879 0.017409451305866241455 0.049025118350982666016 -0.019365465268492698669 0.049605239182710647583 -0.055135607719421386719 0.12453467398881912231 0.046225305646657943726 0.13501882553100585938 -0.25527033209800720215 0.0084636891260743141174 -0.047988787293434143066 0.00026874322793446481228 -0.058450397104024887085 -0.044302139431238174438 0.05023078620433807373 -0.030217964202165603638 -0.039773683995008468628 0.058014951646327972412 -0.012381856329739093781 0.033616360276937484741 0.099784463644027709961 0.071154683828353881836 -0.03253060951828956604 -0.074588589370250701904 0.11079329252243041992 -0.038959953933954238892 -0.017266178503632545471 0.020899964496493339539 -0.1140731126070022583 -0.0202114153653383255 0.028019355610013008118 -0.12698990106582641602 0.02802745625376701355 0.0045774700120091438293 -0.0022078722249716520309 -0.0070295389741659164429 0.10478764772415161133 0.047672666609287261963 0.044839389622211456299 -0.028664713725447654724 -0.02910847589373588562 0.043663408607244491577 0.060943685472011566162 -0.0043299961835145950317 0.024180764332413673401 0.051529139280319213867 0.054675340652465820312 0.022204069420695304871 0.061409570276737213135 -0.028264140710234642029 -0.028921175748109817505 0.023424575105309486389 -0.099249318242073059082 -0.06945880502462387085 0.12443144619464874268 -0.21264852583408355713 

