0.012621160596609115601 -0.0061703501269221305847 -0.012344643473625183105 0.024175018072128295898 0.0083669777959585189819 -0.0029209735803306102753 0.0065890229307115077972 -0.010756116360425949097 -0.016738364472985267639 -0.011229643598198890686 0.017994711175560951233 -0.0021268909331411123276 -0.016121406108140945435 0.00029732537223026156425 -0.0080697983503341674805 0.007873383350670337677 0.0080988137051463127136 0.0018787861336022615433 -0.0012206159299239516258 -0.010505736805498600006 0.013678357936441898346 -0.0084400689229369163513 -0.0088234022259712219238 0.011378081515431404114 -0.014537919312715530396 0.0033090768847614526749 0.014290564693510532379 -0.089223086833953857422 -0.043150052428245544434 0.12713639438152313232 0.015162011608481407166 -0.060731884092092514038 0.064563736319541931152 -0.090006738901138305664 0.0083301858976483345032 0.066052541136741638184 -0.019937438890337944031 0.23015673458576202393 -0.071870848536491394043 -0.059882175177335739136 -0.04919240996241569519 0.06539605557918548584 0.0017335365992039442062 -0.054886210709810256958 -0.039081357419490814209 0.00079563888721168041229 -0.074694551527500152588 0.0042352564632892608643 -0.011386177502572536469 -0.053204782307147979736 0.12299841642379760742 -0.083143785595893859863 0.092249549925327301025 0.00028244988061487674713 0.15786324441432952881 0.11860768496990203857 -0.18771706521511077881 0.38015305995941162109 0.0070018488913774490356 -0.40297359228134155273 0.15210431814193725586 -0.052408013492822647095 -0.17282621562480926514 0.076246432960033416748 -0.016473028808832168579 -0.12826716899871826172 0.08549915999174118042 0.098250955343246459961 -0.13653062283992767334 0.18103988468647003174 0.091394200921058654785 -0.2515869438648223877 -0.16189460456371307373 0.031333040446043014526 0.10472894459962844849 -0.27028059959411621094 -0.19534665346145629883 0.35964658856391906738 -0.12087620049715042114 0.033876802772283554077 0.21859005093574523926 

-0.0072934622876346111298 -0.0056324703618884086609 -0.00044124812120571732521 0.001179011072963476181 -0.00035548285814002156258 0.0003471764794085174799 0.0059784404002130031586 0.002520920243114233017 0.0052052149549126625061 0.0061270827427506446838 0.0029765865765511989594 0.0034345113672316074371 -0.00075571989873424172401 0.00027934103854931890965 0.0023884193506091833115 -0.0039665997028350830078 -0.0049143857322633266449 -0.0055150077678263187408 0.0010523569071665406227 0.001973003847524523735 -0.0027366741560399532318 -0.0013202275149524211884 0.00096787069924175739288 -0.0022569494321942329407 -0.002559352898970246315 0.0028458251617848873138 0.0007474711746908724308 0.021453894674777984619 0.0080318078398704528809 -0.015973178669810295105 -0.01864931546151638031 0.00026205828180536627769 -0.014767922461032867432 0.00078606186434626579285 0.030979609116911888123 -0.013530731201171875 0.06854394078254699707 -0.071375995874404907227 0.060885105282068252563 0.023514917120337486267 0.10031584650278091431 -0.039844717830419540405 -0.05116964876651763916 -0.041276518255472183228 -0.049516782164573669434 -0.04536975175142288208 -0.0071599758230149745941 -0.063175939023494720459 -0.032977916300296783447 -0.027073835954070091248 0.027997277677059173584 0.093431934714317321777 -0.018425498157739639282 0.073130987584590911865 0.18484188616275787354 0.29618915915489196777 0.13757801055908203125 -0.020995751023292541504 -0.13177551329135894775 -0.00087872281437739729881 -0.10281561315059661865 -0.20522233843803405762 -0.15782275795936584473 -0.23420731723308563232 -0.27688530087471008301 -0.23504023253917694092 -0.016266118735074996948 0.16441832482814788818 0.088812723755836486816 0.14523170888423919678 0.20979304611682891846 0.15374097228050231934 -0.16909858584403991699 -0.36047577857971191406 -0.18169270455837249756 -0.034782003611326217651 0.16581206023693084717 0.067771337926387786865 0.12078825384378433228 0.26745679974555969238 0.1238193213939666748 

-0.30213344097137451172 -5.8389630317687988281 0.30036142468452453613 -0.30819538235664367676 -0.301509857177734375 -0.0076551674865186214447 0.099717058241367340088 -3.4690775871276855469 -0.38827529549598693848 0.0042283041402697563171 -5.5555849075317382812 -0.11510930955410003662 -4.2796263694763183594 -0.17019416391849517822 0.2588055729866027832 -0.49205958843231201172 -5.08089447021484375 -3.1981034278869628906 0.17347966134548187256 -4.6721920967102050781 -0.22861389815807342529 -5.3237318992614746094 -0.23296348750591278076 -0.1589867323637008667 0.33491662144660949707 -5.8524937629699707031 -0.11972041428089141846 0.030896581709384918213 -0.0052065290510654449463 -0.0050791106186807155609 0.030271327123045921326 -0.10089810192584991455 0.050459071993827819824 -0.026769928634166717529 0.038867611438035964966 -0.026653034612536430359 -0.021282402798533439636 0.054378189146518707275 0.014986165799200534821 -0.052889615297317504883 0.04717159271240234375 -0.046527419239282608032 0.021066037937998771667 0.037603411823511123657 -0.033822666853666305542 0.02496121823787689209 0.020485000684857368469 -0.048162676393985748291 -0.0034063972998410463333 -0.037510994821786880493 0.063284128904342651367 -0.0050808647647500038147 -0.034038692712783813477 0.03270166739821434021 0.014956908300518989563 6.4162479247897863388e-05 0.035200662910938262939 -0.025638846680521965027 -0.066322393715381622314 -0.022805586457252502441 0.021568831056356430054 0.031847238540649414062 0.0070897312834858894348 0.046797506511211395264 -0.022600274533033370972 0.03919019550085067749 -0.036607388406991958618 -0.04643084108829498291 -0.04559431225061416626 0.0031472018454223871231 0.030677331611514091492 0.024883275851607322693 0.024986570701003074646 -0.027688916772603988647 0.056428533047437667847 -0.012745820917189121246 -0.042084995657205581665 -0.050953898578882217407 -0.012623016722500324249 0.043282583355903625488 0.015917586162686347961 

0.0070735304616391658783 -0.061671458184719085693 0.043867018073797225952 0.0077434559352695941925 -0.27192443609237670898 0.1093672141432762146 -0.0045490968041121959686 0.082866027951240539551 0.085741616785526275635 -0.035643290728330612183 -0.12650069594383239746 -0.043647222220897674561 0.084539905190467834473 -0.23010472953319549561 0.022104332223534584045 0.099258668720722198486 0.20721237361431121826 0.0074104312807321548462 -0.10447810590267181396 0.068936228752136230469 -0.077061787247657775879 0.038321815431118011475 -0.18314242362976074219 0.0098420381546020507812 -0.069458551704883575439 0.18601270020008087158 0.12361627072095870972 -0.0073334923945367336273 -0.073180839419364929199 0.05785439908504486084 -0.0058188140392303466797 0.023193659260869026184 0.0011489590397104620934 0.015803420916199684143 -0.030629225075244903564 0.01203482411801815033 0.017201155424118041992 0.020260386168956756592 0.01148337777704000473 0.030284777283668518066 -0.025733193382620811462 -0.037098497152328491211 -0.053460221737623214722 0.059627912938594818115 -0.0074512795545160770416 0.024452243000268936157 0.010038591921329498291 -0.0026848937850445508957 0.013437198475003242493 -0.021887132897973060608 -0.0029596253298223018646 0.025593450292944908142 -0.021038571372628211975 -0.02774439007043838501 0.0050461189821362495422 -0.025989077985286712646 0.037977352738380432129 -0.010254514403641223907 0.024435674771666526794 -0.027811938896775245667 -0.006809170357882976532 -0.0092895319685339927673 0.010909504257142543793 0.010303736664354801178 -0.0098712397739291191101 0.0099819032475352287292 0.0076901460997760295868 -0.0031085109803825616837 -0.013149723410606384277 -0.012750163674354553223 6.8861590989399701357e-06 0.00856915302574634552 0.0082946326583623886108 -0.0097263474017381668091 -0.0013737126719206571579 0.0047903908416628837585 -0.015123470686376094818 0.018590642139315605164 0.013994029723107814789 -0.033638279885053634644 0.012369964271783828735 

-0.029847532510757446289 0.11269376426935195923 -0.057034172117710113525 -0.065323054790496826172 0.58972877264022827148 -0.14316737651824951172 0.026694834232330322266 -0.23257203400135040283 -0.19833557307720184326 0.043750200420618057251 0.11169617623090744019 0.040629807859659194946 -0.07777751237154006958 0.30367776751518249512 -0.04842349514365196228 -0.025362126529216766357 -0.31932082772254943848 0.0022990412544459104538 0.10938308387994766235 -0.094735920429229736328 0.15224225819110870361 -0.024242555722594261169 -0.11440259218215942383 0.073370315134525299072 0.029466865584254264832 -0.11042699217796325684 -0.043348599225282669067 -0.054145693778991699219 0.025157086551189422607 -0.052630554884672164917 -0.019737748429179191589 0.030958792194724082947 0.01079673226922750473 -0.0041413060389459133148 0.046406324952840805054 0.023668861016631126404 -0.022104065865278244019 0.012303126975893974304 -0.018376503139734268188 0.024348499253392219543 -0.085147082805633544922 -0.043947346508502960205 -0.017397068440914154053 0.06250362098217010498 0.066019035875797271729 -0.021619977429509162903 -0.015488948673009872437 -0.04719064757227897644 0.076243385672569274902 -0.027739420533180236816 0.065219059586524963379 0.0071161235682666301727 -0.003607767866924405098 -0.011087534017860889435 -0.024490345269441604614 0.019642755389213562012 -0.0220403280109167099 0.018759720027446746826 0.0053626233711838722229 -0.0032299349550157785416 -0.025601841509342193604 0.044539447873830795288 -0.015400449745357036591 -0.03773722425103187561 0.036383405327796936035 0.0069454973563551902771 0.037222612649202346802 -0.043730199337005615234 -0.020400505512952804565 -0.014062590897083282471 0.017876647412776947021 0.015775740146636962891 -0.0034755147062242031097 0.0079971905797719955444 0.0049686143174767494202 -0.016466904431581497192 0.014841823838651180267 -0.019172405824065208435 -0.015850167721509933472 0.045712251216173171997 -0.020531300455331802368 

0.096532098948955535889 0.13424506783485412598 0.041359961032867431641 0.094968825578689575195 -0.034104954451322555542 0.1501302868127822876 0.070568569004535675049 0.13874423503875732422 0.065900728106498718262 -0.074745088815689086914 -0.06271206587553024292 -0.021548194810748100281 -0.026845891028642654419 0.026050982996821403503 -0.044075071811676025391 -0.072193466126918792725 -0.026436921209096908569 0.031961020082235336304 -0.01999615691602230072 -0.01673710159957408905 0.045196034014225006104 -0.044794294983148574829 -0.029221896082162857056 -0.0078331604599952697754 0.015170749276876449585 -0.082091420888900756836 -0.021831333637237548828 -0.057241600006818771362 0.032736863940954208374 -0.068473264575004577637 -0.029126608744263648987 -0.029319236055016517639 0.061258483678102493286 -0.0089193079620599746704 -0.053733285516500473022 -0.051164541393518447876 0.021970862522721290588 0.0019656650256365537643 -0.0060639395378530025482 0.015028480440378189087 0.019889201968908309937 0.026584707200527191162 0.016679484397172927856 0.032652638852596282959 -0.015427672304213047028 0.035009339451789855957 -0.0078447191044688224792 0.024457942694425582886 0.012516918592154979706 -0.019933996722102165222 0.00076488504419103264809 0.012270827777683734894 -0.016494423151016235352 0.041822403669357299805 -0.0098431417718529701233 -0.0082135880365967750549 0.042255397886037826538 0.025080103427171707153 -0.075646944344043731689 -0.0044176080264151096344 0.0043630381114780902863 0.038281049579381942749 -0.01141017768532037735 -0.00083869777154177427292 0.01517891325056552887 -0.0090791126713156700134 0.0046085533685982227325 -0.0074280304834246635437 1.4371408724400680512e-05 0.029710775241255760193 -0.046390447765588760376 0.014500734396278858185 0.015380325727164745331 -0.026719067245721817017 0.003571915673092007637 -0.027411462739109992981 0.071060888469219207764 -0.022206125780940055847 -0.013497976586222648621 0.019601352512836456299 -0.019475966691970825195 

0.018509969115257263184 0.3672644197940826416 -0.012474470771849155426 -0.0045179151929914951324 -0.051713038235902786255 -0.0064422301948070526123 0.0082629928365349769592 -0.00041504341061227023602 0.0027323355898261070251 -0.047397740185260772705 0.3328876495361328125 -0.033772330731153488159 0.0033487568143755197525 0.015333349816501140594 -0.0075618922710418701172 -0.007330256979912519455 0.00024909124476835131645 0.0045102136209607124329 0.034801878035068511963 0.36733782291412353516 -0.038998819887638092041 0.0022267512977123260498 -0.033407498151063919067 -0.024696454405784606934 0.010276714339852333069 -0.003059131791815161705 -0.0075463233515620231628 -0.00091619079466909170151 -0.014536697417497634888 -0.027208631858229637146 -0.016754226759076118469 0.041237249970436096191 0.013793355785310268402 0.0012586006196215748787 0.006666497793048620224 -0.017569312825798988342 0.0013615657808259129524 -0.0041962326504290103912 0.0068567823618650436401 0.020597679540514945984 -0.0094407992437481880188 0.017433313652873039246 -0.0075854114256799221039 0.0035030196886509656906 -0.0066823982633650302887 -0.037122651934623718262 0.039355691522359848022 0.014099143445491790771 0.0010288202902302145958 -0.0079155117273330688477 -0.016500007361173629761 0.010014872997999191284 -0.014987029135227203369 0.014545445330440998077 0.0025091266725212335587 0.003659650217741727829 -0.0043199774809181690216 -0.011567741632461547852 0.0062793777324259281158 -0.0027986103668808937073 -0.0012368385214358568192 0.0055523272603750228882 0.00025729346089065074921 0.004402019549161195755 0.0032463185489177703857 -0.014301468618214130402 0.0076250289566814899445 0.0061859907582402229309 -0.00019737525144591927528 -0.011482308618724346161 0.0013733492232859134674 0.0015112670371308922768 -0.016546202823519706726 0.011452739126980304718 -0.0035366173833608627319 0.013552416115999221802 0.0045121093280613422394 -0.0012281121453270316124 0.00063074013451114296913 -0.0020840198267251253128 -0.0083745541051030158997 

0.032674256712198257446 -0.090056546032428741455 -0.02921355515718460083 0.20721821486949920654 0.040828526020050048828 -0.080667220056056976318 0.041835784912109375 -0.0038357304874807596207 -0.055804464966058731079 -0.031673058867454528809 0.098165348172187805176 0.020426345989108085632 -0.13688759505748748779 -0.03355981782078742981 -0.0089876726269721984863 0.029524957761168479919 0.026362081989645957947 0.02725180797278881073 -0.011788276024162769318 -0.00069343007635325193405 -0.0050081051886081695557 -0.041904725134372711182 0.011731674894690513611 0.10486350953578948975 -0.054079592227935791016 -0.026409607380628585815 0.020822890102863311768 0.060281556099653244019 0.091595679521560668945 0.013637760654091835022 -0.035141162574291229248 0.084607265889644622803 -0.007406332995742559433 -0.021499766036868095398 -0.11212980002164840698 -0.069519475102424621582 0.054253820329904556274 -0.013097290880978107452 0.026972204446792602539 0.033733002841472625732 0.063227266073226928711 0.0022140173241496086121 -0.022446980699896812439 -0.13185551762580871582 -0.021461455151438713074 0.027821641415357589722 0.016699001193046569824 0.088200040161609649658 -0.020176757127046585083 0.067241892218589782715 0.0029920379165560007095 -0.0050690793432295322418 -0.1033444628119468689 -0.070365294814109802246 0.01804997958242893219 -0.085570819675922393799 0.062108542770147323608 -0.096294775605201721191 -0.032442405819892883301 0.077728830277919769287 -0.027952121570706367493 0.08276151120662689209 0.0054683671332895755768 0.04317491874098777771 -0.037773616611957550049 0.00034120204509235918522 0.054746091365814208984 0.028405688703060150146 -0.064766354858875274658 0.0015576791483908891678 -0.12114595621824264526 0.10017288476228713989 -0.027943909168243408203 0.045639760792255401611 0.0094540948048233985901 0.046280153095722198486 0.11706253886222839355 -0.044244904071092605591 0.022197389975190162659 -0.058336384594440460205 -0.10499043762683868408 

0.0046933284029364585876 -0.06140448153018951416 0.021126132458448410034 0.11978846043348312378 0.049520436674356460571 -0.021511033177375793457 0.24340780079364776611 -0.11863954365253448486 -0.038521472364664077759 0.027117213234305381775 0.026999786496162414551 0.04178991168737411499 -0.073438033461570739746 -0.099280916154384613037 -0.019603393971920013428 -0.28386354446411132812 0.045112751424312591553 0.02254600822925567627 -0.037404824048280715942 0.01018947456032037735 -0.092872627079486846924 -0.044426817446947097778 0.04188833385705947876 0.037641171365976333618 0.26354685425758361816 0.057656154036521911621 0.0012647073017433285713 0.010524340905249118805 -0.049039803445339202881 0.02466051839292049408 0.013511553406715393066 0.0011244564084336161613 -0.01765515841543674469 -0.01575808599591255188 -0.027090726420283317566 0.0047234101220965385437 0.0018976061837747693062 0.068371102213859558105 0.020654201507568359375 0.00046983835636638104916 -0.016987595707178115845 -0.019732626155018806458 0.020102337002754211426 0.026867771521210670471 0.029142631217837333679 -0.03033336251974105835 -0.043148182332515716553 -0.006848531775176525116 -0.029314065352082252502 0.052830986678600311279 -0.029164854437112808228 0.03587218746542930603 0.0046907612122595310211 -0.026870990172028541565 -0.031212287023663520813 -0.011354080401360988617 -0.032060276716947555542 0.078051440417766571045 0.11353130638599395752 -6.3254927226807922125e-05 -0.058267679065465927124 -0.030405888333916664124 -0.02573100849986076355 0.012085998430848121643 -0.042483519762754440308 0.017215698957443237305 -0.014937775209546089172 0.016367096453905105591 0.016034195199608802795 -0.042403642088174819946 0.050764475017786026001 -0.0090892827138304710388 0.014639428816735744476 0.045246329158544540405 0.012095371261239051819 -0.0021776591893285512924 -0.14932425320148468018 0.00070651143323630094528 0.00069630879443138837814 0.029656160622835159302 0.051775190979242324829 

-0.043776288628578186035 -0.008184756152331829071 -0.02290122397243976593 -0.044990409165620803833 0.04109435155987739563 -0.020200381055474281311 0.030545160174369812012 0.022540513426065444946 0.041250217705965042114 0.011636079289019107819 -0.009282565675675868988 -0.020471833646297454834 0.044168110936880111694 0.010918994434177875519 0.023965448141098022461 -0.051410671323537826538 -0.021696088835597038269 0.013802417553961277008 0.024844424799084663391 0.011438135989010334015 0.048211161047220230103 0.010209910571575164795 -0.046744376420974731445 0.0054520932026207447052 0.034513562917709350586 -0.0093294158577919006348 -0.060247551649808883667 0.082890234887599945068 0.11972346901893615723 -0.21291811764240264893 0.30913934111595153809 -0.20281220972537994385 -0.12082117795944213867 0.089607402682304382324 0.14467209577560424805 -0.20827284455299377441 0.0042969030328094959259 0.21969085931777954102 -0.2931156158447265625 0.37330582737922668457 -0.22337049245834350586 -0.13605697453022003174 0.10709398984909057617 0.053236313164234161377 -0.10569539666175842285 0.14142781496047973633 0.0034462481271475553513 -0.25036767125129699707 0.3332290351390838623 -0.12781926989555358887 -0.11286185681819915771 0.047421108931303024292 0.22132202982902526855 -0.24463707208633422852 0.051504086703062057495 0.056038316339254379272 -0.15980070829391479492 0.10517204552888870239 -0.039142597466707229614 -0.10440482944250106812 0.099688678979873657227 0.045243829488754272461 -0.05075297132134437561 0.14400297403335571289 0.0010950611904263496399 -0.084254279732704162598 0.093260392546653747559 -0.033528294414281845093 -0.051528628915548324585 0.038705617189407348633 0.030954299494624137878 -0.13562269508838653564 -0.051208570599555969238 0.043451193720102310181 0.00096061028307303786278 -0.026578351855278015137 -0.018114723265171051025 0.12928681075572967529 -0.041869614273309707642 -0.067007586359977722168 0.033975202590227127075 

0.023186434060335159302 0.058631833642721176147 0.0045712790451943874359 0.086006440222263336182 -0.065922029316425323486 0.018288772553205490112 0.027530441060662269592 0.069183468818664550781 0.0024004492443054914474 0.060554441064596176147 -0.024772910401225090027 0.002796019427478313446 0.12275770306587219238 0.081209115684032440186 0.074154861271381378174 0.097288362681865692139 0.043310601264238357544 -0.0078416522592306137085 0.019234713166952133179 0.037417046725749969482 0.051179666072130203247 0.028384139761328697205 0.07342478632926940918 -0.021155761554837226868 0.028523568063974380493 0.14836965501308441162 0.012020601890981197357 0.018420236185193061829 -0.047226432710886001587 0.0010928433621302247047 0.017463324591517448425 0.04776530340313911438 0.017664331942796707153 -0.04454727470874786377 0.026419812813401222229 -0.0080178342759609222412 -0.017778344452381134033 -0.0028258271049708127975 0.0049436660483479499817 0.031596295535564422607 -0.058773797005414962769 0.015412995591759681702 -0.011574039235711097717 0.03118367120623588562 -0.020601665601134300232 -0.02224087156355381012 0.037922337651252746582 -0.017962073907256126404 -0.027928180992603302002 0.038029961287975311279 -0.031163414940237998962 0.047021485865116119385 -0.057905342429876327515 0.023840913549065589905 0.0043452833779156208038 0.01368770841509103775 -0.043348412960767745972 0.0043177432380616664886 0.01807267405092716217 0.033924952149391174316 -0.0091039817780256271362 -0.024893797934055328369 0.0051287719979882240295 -0.017589835450053215027 0.0082701658830046653748 -0.012069690972566604614 0.0072809290140867233276 0.037048801779747009277 -0.0023083265405148267746 0.008669679984450340271 -0.042949628084897994995 0.016001787036657333374 -0.00060218753060325980186 -0.014002281241118907928 -0.0059512942098081111908 0.019849397242069244385 0.025572486221790313721 0.001317102811299264431 0.0010535540059208869934 -0.044072061777114868164 0.019058765843510627747 

0.035523150116205215454 -0.243608132004737854 -0.056222870945930480957 0.022145776078104972839 -0.20425581932067871094 -0.012875137850642204285 0.044133428484201431274 0.098409987986087799072 0.083401478826999664307 -0.032258309423923492432 0.43674379587173461914 0.036315876990556716919 -0.051665037870407104492 0.083294466137886047363 -0.089215643703937530518 -0.029750794172286987305 -0.054777558892965316772 0.012055705301463603973 -0.015991317108273506165 -0.056145254522562026978 -0.00028619973454624414444 0.0033776361960917711258 0.16932389140129089355 0.07265342026948928833 -0.030066750943660736084 -0.049427606165409088135 -0.11027164757251739502 -0.065242685377597808838 0.0085712457075715065002 -0.0097775189206004142761 -0.0016386334318667650223 0.0044885189272463321686 0.022531224414706230164 -0.032504055649042129517 0.014874799177050590515 0.0053607951849699020386 -0.030653309077024459839 0.024138124659657478333 0.03322488442063331604 0.036033689975738525391 -0.057810418307781219482 -0.014934935607016086578 0.024890055879950523376 0.02172242291271686554 -0.02735359780490398407 0.0096636945381760597229 0.020430648699402809143 -0.033922716975212097168 -0.0052492432296276092529 0.0067686950787901878357 0.021968321874737739563 0.029961073771119117737 -0.0019390102243050932884 0.0087159462273120880127 0.015669522807002067566 -0.036021307110786437988 0.031433459371328353882 0.06679560244083404541 -0.069728977978229522705 -0.031562387943267822266 -0.00040857421117834746838 0.014828375540673732758 0.0037305348087102174759 0.020435534417629241943 0.01570933125913143158 -0.0095598855987191200256 0.050734274089336395264 -0.097548902034759521484 -0.011599605903029441833 0.013780277222394943237 0.012327017262578010559 0.00038860546192154288292 -0.018325760960578918457 0.04292809218168258667 -0.037897620350122451782 -0.035902686417102813721 0.037493202835321426392 0.005474240519106388092 0.001767644309438765049 -0.028812402859330177307 0.027712969109416007996 

-0.00073935330146923661232 0.0025021671317517757416 -0.0015495803672820329666 0.0013455554144456982613 -0.0018765800632536411285 -0.00072046142304316163063 0.00048961024731397628784 0.0019049139227718114853 -0.00078482792014256119728 0.0042091286741197109222 -0.0033993029501289129257 -0.0022090964484959840775 0.00071551837027072906494 0.0029792778659611940384 -0.0032361552584916353226 0.0035847916733473539352 0.00015484183677472174168 -0.0029362123459577560425 -0.0031829907093197107315 0.00085077417315915226936 0.0033805945422500371933 -0.0015137341106310486794 -0.0013510787393897771835 0.0039095426909625530243 -0.0037979795597493648529 -0.0020130677148699760437 0.0037413381505757570267 0.019733551889657974243 -0.024405470117926597595 -0.010319462046027183533 0.053090397268533706665 -0.015574660152196884155 -0.026308184489607810974 0.030858287587761878967 0.00014333307626657187939 -0.027684468775987625122 0.087910763919353485107 -0.011668979190289974213 -0.092320084571838378906 0.079973198473453521729 0.0043817940168082714081 -0.083127886056900024414 0.070740528404712677002 0.0029843815136700868607 -0.058430217206478118896 -0.1358518749475479126 0.041019842028617858887 0.12871526181697845459 -0.12774313986301422119 -0.017018850892782211304 0.13956624269485473633 -0.12227109819650650024 -0.015800053253769874573 0.10919493436813354492 0.10149729996919631958 0.0020463576074689626694 -0.095333583652973175049 0.16876322031021118164 0.047907061874866485596 -0.23931716382503509521 0.08915112912654876709 0.018958719447255134583 -0.093609482049942016602 -0.16096630692481994629 -0.049490466713905334473 0.2135661393404006958 -0.30021518468856811523 -0.051958497613668441772 0.38731357455253601074 -0.18789203464984893799 0.011227304115891456604 0.13830909132957458496 0.16167885065078735352 -0.00012420838174875825644 -0.18647158145904541016 0.28886255621910095215 0.045792698860168457031 -0.33816197514533996582 0.14374624192714691162 0.0048370542936027050018 -0.11993927508592605591 

0.012804019264876842499 0.0023833638988435268402 -0.0093244928866624832153 -0.026972260326147079468 -0.0093142855912446975708 0.021728016436100006104 0.033042427152395248413 0.00046475432463921606541 -0.014428458176553249359 0.0098061533644795417786 0.0014159785350784659386 0.0091047557070851325989 0.0084941089153289794922 -0.0052036861889064311981 -0.0052716950885951519012 -0.023254754021763801575 0.0062956879846751689911 0.0073232194408774375916 -0.0054100942797958850861 0.015104791149497032166 0.0053990175947546958923 -0.0061309444718062877655 -0.014030380174517631531 -0.0045095034874975681305 0.017032178118824958801 -0.0017205339390784502029 0.01452070288360118866 -0.096890963613986968994 0.075849927961826324463 -0.0052006822079420089722 0.074342705309391021729 -0.26360288262367248535 0.045100748538970947266 -1.0391490459442138672 -0.024641126394271850586 -0.030718054622411727905 0.019605845212936401367 -0.012328917160630226135 -0.00074419379234313964844 -0.022705316543579101562 -0.0025952251162379980087 -0.008458789438009262085 0.015027019195258617401 0.016177199780941009521 0.012845999561250209808 0.0055437400005757808685 -0.039115101099014282227 -0.016592977568507194519 -0.027054771780967712402 0.065252117812633514404 0.010386004112660884857 0.11173686385154724121 -0.023807745426893234253 -0.0044761113822460174561 -0.0050663654692471027374 0.0098815485835075378418 -0.0074028884992003440857 -0.012193318456411361694 -0.00039636809378862380981 -0.0014335317537188529968 0.0056542931124567985535 0.01116147264838218689 -0.0028849213849753141403 -0.010865105316042900085 0.0057994946837425231934 0.0068961651995778083801 -0.0055656852200627326965 0.00074707303429022431374 -0.0042662983760237693787 0.0081665236502885818481 0.013174896128475666046 -0.016392527148127555847 -0.0015754493651911616325 0.0090279709547758102417 -0.011347142048180103302 -0.021466350182890892029 0.010416427627205848694 0.0070087127387523651123 0.02170615270733833313 -0.014131848700344562531 -0.0026431335136294364929 

0.052815545350313186646 0.029042383655905723572 -0.049003992229700088501 -0.05277063325047492981 0.26431369781494140625 0.028113219887018203735 0.0028867674991488456726 -0.1739317476749420166 0.031730324029922485352 0.0096198162063956260681 0.19003260135650634766 0.048673745244741439819 0.10276789963245391846 0.17261318862438201904 -0.0045549501664936542511 -0.050604905933141708374 0.20342345535755157471 -0.086811684072017669678 -0.065192945301532745361 -0.1782748103141784668 -0.020389921963214874268 -0.030066335573792457581 -0.29378396272659301758 -0.025608053430914878845 0.047283690422773361206 -0.0044107837602496147156 0.060267105698585510254 -0.013696947135031223297 0.0021627149544656276703 -0.029325079172849655151 -0.0052673555910587310791 0.009346288628876209259 0.0073700561188161373138 0.037701968103647232056 -0.03225441277027130127 0.00029693919350393116474 -0.03316351771354675293 -0.063526213169097900391 0.020043617114424705505 -0.062297955155372619629 0.016356125473976135254 -0.0087547590956091880798 -0.039628513157367706299 0.026881283149123191833 -0.022956669330596923828 0.035913258790969848633 0.071544863283634185791 0.015276839956641197205 -0.0023389654234051704407 0.032250896096229553223 0.0029612740036100149155 0.0166751910001039505 -0.034397739917039871216 0.050294518470764160156 0.041586305946111679077 -0.04819949716329574585 0.042946252971887588501 -0.025571430101990699768 -0.027044065296649932861 0.01475812029093503952 -0.022174341604113578796 0.059573415666818618774 -0.032673519104719161987 -0.021818419918417930603 0.039106138050556182861 0.0010716894175857305527 0.045226573944091796875 -0.060306161642074584961 0.0066243144683539867401 -0.028219193220138549805 -0.0089605133980512619019 0.030563516542315483093 -0.022940464317798614502 -0.04954209551215171814 0.045276775956153869629 0.028446286916732788086 0.057917758822441101074 -0.019503273069858551025 0.021333886310458183289 -0.050502862781286239624 -0.0071891420520842075348 

0.0032076619099825620651 0.0011406661942601203918 -0.0025480450130999088287 0.0027379048988223075867 0.00072946754517033696175 -0.0034314384683966636658 0.0030356240458786487579 -2.5282753995270468295e-05 -0.0043076714500784873962 -0.0029395732562988996506 -0.0017888478469103574753 0.0021746975835412740707 -0.0035482035018503665924 -0.0001347637444268912077 0.0044223512522876262665 -0.0044761984609067440033 0.00011821862426586449146 0.0057146712206304073334 -1.9416442228248342872e-05 0.00033846715814433991909 0.00016718718688935041428 0.0014507187297567725182 -0.00073022290598601102829 -0.0013624907005578279495 0.001629590056836605072 -4.3281917896820232272e-05 -0.0014403758104890584946 0.12475766241550445557 0.031810216605663299561 -0.12460412085056304932 0.0361157245934009552 0.0029429057613015174866 -0.097548887133598327637 0.073547996580600738525 0.047973062843084335327 -0.095854133367538452148 -0.096446052193641662598 -0.016909318044781684875 0.10350110381841659546 -0.1092414557933807373 -0.011179991066455841064 0.19755139946937561035 -0.13675001263618469238 -0.0052982834167778491974 0.075873211026191711426 -0.028710650280117988586 -0.047675438225269317627 0.053842034190893173218 0.017726818099617958069 0.018071670085191726685 -0.053510148078203201294 0.042168546468019485474 -0.051547281444072723389 0.049218796193599700928 -0.13377876579761505127 0.0850030556321144104 0.14921590685844421387 -0.31867527961730957031 0.091879762709140777588 0.34455966949462890625 -0.26195201277732849121 -0.069256111979484558105 0.11293034255504608154 0.15575627982616424561 -0.1080972328782081604 -0.15743960440158843994 0.34192195534706115723 -0.079810626804828643799 -0.35389575362205505371 0.26001176238059997559 0.05513545498251914978 -0.11355239897966384888 0.11849754303693771362 -0.077666252851486206055 -0.11236761510372161865 0.29164537787437438965 -0.097233608365058898926 -0.33108612895011901855 0.22173106670379638672 0.083418577909469604492 -0.096891723573207855225 

-0.012290105223655700684 -0.0031923437491059303284 0.0017950792098417878151 -0.013094274327158927917 0.078971810638904571533 -0.0037759207189083099365 -0.041909087449312210083 -0.018108680844306945801 0.016460895538330078125 0.010168873704969882965 -0.018246663734316825867 0.021795434877276420593 -0.00089239486260339617729 -0.10271780937910079956 0.02365608513355255127 0.035755574703216552734 0.022811628878116607666 0.0048682084307074546814 0.0074597806669771671295 0.019944643601775169373 -0.031740058213472366333 0.015666060149669647217 0.025817703455686569214 -0.016235847026109695435 0.0011596693657338619232 0.012491353787481784821 -0.028392216190695762634 -0.14658652245998382568 -0.087869673967361450195 -0.14762939512729644775 0.05285712704062461853 -0.07064107060432434082 0.079857617616653442383 0.002767936093732714653 0.22687123715877532959 0.079784817993640899658 -0.18672443926334381104 -0.12576684355735778809 -0.13157749176025390625 -0.021790599450469017029 -0.082574389874935150146 0.14591652154922485352 0.047836791723966598511 0.25468716025352478027 0.10159916430711746216 -0.16782930493354797363 -0.13587042689323425293 -0.086869738996028900146 0.046720709651708602905 -0.10920692235231399536 0.067688561975955963135 -0.035578146576881408691 0.26470449566841125488 0.15083843469619750977 0.019873296841979026794 -0.062194008380174636841 0.0074238139204680919647 -0.0034080410841852426529 -0.09169302135705947876 0.090493604540824890137 -0.065964847803115844727 0.064126901328563690186 0.043392460793256759644 0.015433879569172859192 -0.014522788114845752716 0.0071034478023648262024 0.057403910905122756958 -0.074590153992176055908 0.034757468849420547485 0.060727015137672424316 -0.10923387110233306885 0.024479031562805175781 0.024735409766435623169 -0.019374985247850418091 -0.01401018630713224411 -0.022418051958084106445 0.095474034547805786133 -0.0093633951619267463684 0.07086582481861114502 -0.034643199294805526733 -0.089877791702747344971 

0.0011656438000500202179 0.0076366141438484191895 0.0031210416927933692932 -0.0025167730636894702911 0.0013272605137899518013 0.001709405798465013504 -0.0044518732465803623199 -0.0060346284881234169006 -0.00041392151615582406521 0.0016686987364664673805 -0.00538046984001994133 -0.00077533349394798278809 0.0012150758411735296249 -0.00023426998814102262259 0.0022083073854446411133 0.00057257647858932614326 0.00063936406513676047325 0.00018109883239958435297 -0.0021361063700169324875 -0.001373719656839966774 -0.0020990432240068912506 0.0011693002888932824135 -0.00098027777858078479767 -0.0037245401181280612946 0.0033280744682997465134 0.0045185047201812267303 -0.0002077175449812784791 0.1656465679407119751 0.11037404835224151611 0.17074815928936004639 0.048762232065200805664 0.03201786428689956665 -0.022580677643418312073 -0.22446772456169128418 -0.15561290085315704346 -0.12608717381954193115 -0.087392486631870269775 0.044307652860879898071 -0.019801788032054901123 -0.047707505524158477783 -0.07174943387508392334 0.0042608184739947319031 0.06117145344614982605 0.045053943991661071777 0.072294898331165313721 -0.041819088160991668701 -0.11375878751277923584 -0.12426372617483139038 -0.0035708264913409948349 0.031702067703008651733 0.011458077467978000641 0.12594564259052276611 0.079894199967384338379 0.035280697047710418701 0.22716686129570007324 0.30435979366302490234 0.081773936748504638672 0.050853811204433441162 0.068814478814601898193 -0.00040302029810845851898 -0.26494127511978149414 -0.35651114583015441895 -0.11122166365385055542 0.18035887181758880615 0.27288761734962463379 0.058825682848691940308 0.071876011788845062256 0.022384611889719963074 0.0042771599255502223969 -0.20433816313743591309 -0.33686152100563049316 -0.06948652118444442749 0.1780373305082321167 0.26867458224296569824 0.046512376517057418823 0.011262055486440658569 0.060044929385185241699 0.026376515626907348633 -0.19211217761039733887 -0.31264865398406982422 -0.085871003568172454834 

-0.10386716574430465698 -0.10906723141670227051 -0.084573656320571899414 -0.055651582777500152588 0.36527299880981445312 0.088726520538330078125 -0.059368599206209182739 0.062337484210729598999 -0.029575349763035774231 -0.085265517234802246094 -0.047229524701833724976 -0.021596040576696395874 -0.05761033669114112854 0.27415987849235534668 -0.017080277204513549805 0.015752436593174934387 0.013291167095303535461 0.0048923026770353317261 -0.041114266961812973022 -0.076751939952373504639 -0.082490548491477966309 -0.046072058379650115967 0.4744294285774230957 -0.0358182564377784729 -0.069921426475048065186 0.062904842197895050049 -0.042236849665641784668 0.024157235398888587952 -0.013567191548645496368 0.027225833386182785034 0.0042194169946014881134 -0.0027302564121782779694 -0.001414616941474378109 0.039594307541847229004 -0.072459749877452850342 -0.020043574273586273193 0.0094910319894552230835 -0.015874650329351425171 0.057813890278339385986 0.016701959073543548584 -0.0059260185807943344116 -0.018521731719374656677 -0.042866416275501251221 0.038845993578433990479 -0.048764720559120178223 -0.030567301437258720398 0.080611705780029296875 -0.0037443181499838829041 0.036573875695466995239 -0.067125998437404632568 -0.046370446681976318359 -0.011825267225503921509 -0.029936609789729118347 0.047950509935617446899 0.01774752885103225708 -0.044250655919313430786 0.011512062512338161469 0.0064173648133873939514 0.0063999998383224010468 0.010892453603446483612 -0.0054434216581284999847 -0.02130395546555519104 0.018656589090824127197 -0.0060924976132810115814 -0.006607314571738243103 0.018005734309554100037 -0.023805180564522743225 0.04546001926064491272 -0.021011224016547203064 0.037492677569389343262 -0.047733008861541748047 0.0045265476219356060028 0.015896772965788841248 -0.0093434434384107589722 0.0066125071607530117035 -0.035178881138563156128 0.024531908333301544189 -0.023985419422388076782 0.0036640251055359840393 0.016410347074270248413 0.0017271135002374649048 

0.11934151500463485718 0.29811918735504150391 -0.013489827513694763184 -0.037860933691263198853 -0.15988345444202423096 -0.042182322591543197632 -0.004578385036438703537 -0.041095744818449020386 -0.075224108994007110596 -0.049524705857038497925 -0.31915181875228881836 0.061801970005035400391 0.05153916776180267334 -0.049288425594568252563 -0.026544993743300437927 0.052480757236480712891 0.025089737027883529663 0.013656632043421268463 -0.048573780804872512817 0.11380138248205184937 -0.058322727680206298828 -0.070987388491630554199 0.29966041445732116699 0.059730324894189834595 -0.094643674790859222412 -0.0222462434321641922 0.04332777857780456543 -0.027864735573530197144 0.080325834453105926514 0.0067945378832519054413 -0.012574755586683750153 -0.0096560968086123466492 0.040723327547311782837 0.014794559217989444733 0.0098074963316321372986 0.049702774733304977417 0.010497582145035266876 -0.0080007612705230712891 0.0014425171539187431335 0.018842192366719245911 -0.062643252313137054443 -0.0052600968629121780396 0.026965925469994544983 -0.014809357933700084686 -0.0037148594856262207031 0.0076022930443286895752 -0.067332580685615539551 -0.054730910807847976685 0.030824422836303710938 0.029809242114424705505 -0.0025359583087265491486 -0.021903052926063537598 -0.0059524429962038993835 -0.021890059113502502441 0.030895138159394264221 -0.044285319745540618896 -0.0003128996468149125576 0.028099328279495239258 -0.024762088432908058167 0.016691295430064201355 0.0041286554187536239624 0.013302493840456008911 -0.02799707464873790741 0.0077638300135731697083 -0.007142415270209312439 -0.0051003880798816680908 0.0098292911425232887268 -0.033069241791963577271 0.012837630696594715118 0.029901877045631408691 -0.022197848185896873474 0.0027213906869292259216 -0.0085277659818530082703 0.02394382283091545105 -0.011570129543542861938 -0.035537201911211013794 0.020764308050274848938 -0.00049864023458212614059 -0.013329063542187213898 -0.00156910682562738657 0.022677820175886154175 

-0.040757000446319580078 -0.17719668149948120117 0.12704350054264068604 -0.035797342658042907715 0.25780698657035827637 -0.064423315227031707764 -0.060574557632207870483 0.073722772300243377686 -0.0058668465353548526764 -0.03147358819842338562 -0.053676504641771316528 -0.092551775276660919189 -0.0046905982308089733124 0.41951093077659606934 -0.087876133620738983154 0.0033306346740573644638 -0.13276240229606628418 0.038068097084760665894 0.02163122221827507019 0.11438231915235519409 -0.019076164811849594116 0.041030112653970718384 -0.34271255135536193848 -0.012694751843810081482 0.020536702126264572144 0.040788419544696807861 -0.033137425780296325684 0.021501841023564338684 0.022123884409666061401 0.019251620396971702576 -0.011385962367057800293 0.012659649364650249481 -0.030715392902493476868 0.016598576679825782776 -0.019170813262462615967 0.012502265162765979767 0.0024467846378684043884 -0.010345115326344966888 0.0070730149745941162109 0.11031720787286758423 -0.0026876053307205438614 0.017057280987501144409 -0.012151326052844524384 0.027203802019357681274 -0.0074981325305998325348 -0.035187784582376480103 -0.059922076761722564697 0.022006968036293983459 0.014777028001844882965 0.045030314475297927856 -0.044326901435852050781 -0.060627549886703491211 -0.014486126601696014404 -0.022182019427418708801 -0.016364770010113716125 0.044183194637298583984 -0.0038281194865703582764 0.00366771710105240345 -0.0333689860999584198 -0.0167226400226354599 0.01663385145366191864 -0.014317217282950878143 0.020809089764952659607 -0.00090388616081327199936 0.004024182446300983429 0.019242316484451293945 -0.0032191378995776176453 -0.026266107335686683655 -0.016762301325798034668 0.0021251519210636615753 0.024843012914061546326 -0.0021720780059695243835 0.012419266626238822937 0.034001599997282028198 -0.02388878166675567627 -0.027478177100419998169 -0.034176360815763473511 0.0097312992438673973083 0.024942493066191673279 -0.020161464810371398926 0.024039357900619506836 

-0.32271856069564819336 -0.1839084625244140625 -0.21639214456081390381 -0.1683177649974822998 -0.28961461782455444336 0.21126945316791534424 -0.22931313514709472656 -0.071488715708255767822 -0.097164884209632873535 0.21412709355354309082 0.12731631100177764893 0.068953178822994232178 0.099857412278652191162 0.0095433490350842475891 -0.046532068401575088501 0.084212943911552429199 -0.017944030463695526123 -0.020122328773140907288 0.052529923617839813232 -0.019055033102631568909 0.031553689390420913696 0.037514071911573410034 0.004099651239812374115 -0.063134506344795227051 0.1178935319185256958 0.039861738681793212891 0.048431277275085449219 0.18272288143634796143 -0.017126515507698059082 0.056526664644479751587 -0.021122431382536888123 0.056046426296234130859 0.059927441179752349854 0.087508670985698699951 -0.048851076513528823853 0.0046370751224458217621 -0.063352271914482116699 -0.024703787639737129211 -0.12945806980133056641 -0.057709414511919021606 -0.0092446515336632728577 0.090955711901187896729 -0.024763429537415504456 -0.035602420568466186523 0.016571877524256706238 0.0012396139791235327721 -0.024685589596629142761 -0.019172599539160728455 0.047255203127861022949 -0.096023797988891601562 -0.0031417498830705881119 -0.098598264157772064209 0.087720006704330444336 -0.031480077654123306274 -0.018582057207822799683 0.014169194735586643219 -0.0015168732497841119766 -0.051983114331960678101 -0.029613967984914779663 0.070951826870441436768 0.069184660911560058594 0.02469699271023273468 -0.078138686716556549072 -0.025092193856835365295 0.012790205888450145721 -0.032364491373300552368 -0.025916444137692451477 0.049658335745334625244 0.030934214591979980469 -0.03986082226037979126 0.059106558561325073242 -0.031086858361959457397 -0.057277403771877288818 0.032925639301538467407 -0.0090186288580298423767 -0.0065592727623879909515 0.048234853893518447876 -0.030044853687286376953 0.0049784397706389427185 -0.0028162316884845495224 0.017555776983499526978 

0.016102338209748268127 -0.0085334861651062965393 -0.00040521178743802011013 0.015040372498333454132 -0.022575555369257926941 0.02660097368061542511 -0.0064216074533760547638 0.0012591605773195624352 -0.0018975561251863837242 -0.015544629655778408051 -0.0048574232496321201324 0.019674010574817657471 -0.020155228674411773682 0.016263412311673164368 -0.019606223329901695251 0.018643733114004135132 0.012290936894714832306 -0.005885295569896697998 -0.0052154944278299808502 0.0082424795255064964294 -0.010476742871105670929 0.023712940514087677002 0.030102040618658065796 -0.043300718069076538086 -0.02479915320873260498 -0.0056651765480637550354 0.023871872574090957642 -0.03303052857518196106 0.0012776560615748167038 0.060093581676483154297 0.014392180368304252625 -0.054128661751747131348 -0.050295852124691009521 0.046454802155494689941 -0.034336686134338378906 0.03129050135612487793 -0.0071812644600868225098 0.022743860259652137756 -0.023288721218705177307 -0.05288799479603767395 -0.14164991676807403564 0.043202172964811325073 0.035936154425144195557 -0.032848965376615524292 -0.017324080690741539001 0.022443257272243499756 -0.034663293510675430298 -0.02577246539294719696 -0.053260579705238342285 -0.74588114023208618164 0.13982711732387542725 -0.023106984794139862061 0.06744680553674697876 -0.054427139461040496826 -0.0085408203303813934326 0.011882788501679897308 0.00078830419806763529778 -0.0106721511110663414 0.034435238689184188843 -0.024434756487607955933 -0.008263632655143737793 0.016456980258226394653 -0.010125258937478065491 0.012941434048116207123 -0.035447072237730026245 0.0058127036318182945251 -0.01057462301105260849 0.041499942541122436523 0.0056318114511668682098 -0.02112018875777721405 0.026524655520915985107 -0.023831343278288841248 -0.010588243603706359863 0.016293847933411598206 -0.026048148050904273987 0.0013795217964798212051 0.020219862461090087891 0.017672643065452575684 -0.00098496128339320421219 -0.010539377108216285706 -0.0055219950154423713684 

-0.020055539906024932861 -0.044519901275634765625 -0.060866933315992355347 0.29302299022674560547 -0.10252497345209121704 -0.093076124787330627441 -0.014342108741402626038 0.029516046866774559021 0.017035881057381629944 0.019360026344656944275 -0.064864903688430786133 -0.068870410323143005371 0.34244719147682189941 -0.072138100862503051758 -0.08554534614086151123 -0.039935361593961715698 0.054366428405046463013 -0.08532654494047164917 -0.065604120492935180664 0.057076826691627502441 -0.14288695156574249268 0.38615658879280090332 -0.072505325078964233398 -0.14922365546226501465 -0.01743569597601890564 0.038137700408697128296 -0.034928563982248306274 -0.031316198408603668213 0.058819375932216644287 -0.018351571634411811829 -0.099865697324275970459 0.12351458519697189331 0.0036235440056771039963 -0.0036822303663939237595 -0.036892175674438476562 0.0058356560766696929932 -0.015031120739877223969 -0.019427586346864700317 0.063516236841678619385 -0.057098556309938430786 0.053417533636093139648 -0.01192566845566034317 -0.034210342913866043091 -0.046805176883935928345 0.069475941359996795654 -0.024750597774982452393 -0.01517534162849187851 0.085284784436225891113 -0.095558106899261474609 0.018264299258589744568 0.070317916572093963623 -0.022665709257125854492 0.0024728288408368825912 -0.0047496724873781204224 0.011336314491927623749 -0.018647491931915283203 0.0093042850494384765625 -0.034986741840839385986 0.027956079691648483276 -0.0026101754046976566315 0.016738003119826316833 0.020606329664587974548 -0.026849536225199699402 0.015667770057916641235 -0.021158037707209587097 0.013276261277496814728 -0.041856795549392700195 0.043916191905736923218 -0.017202215269207954407 0.018704684451222419739 3.0898158001946285367e-05 -0.0083671221509575843811 0.025423189625144004822 -0.034223847091197967529 -0.0082018133252859115601 -0.032746385782957077026 0.066496998071670532227 0.017384994775056838989 -0.002779798116534948349 -0.010377355851233005524 -0.018356788903474807739 

-0.0073513523675501346588 0.0026214725803583860397 -0.020558837801218032837 -0.091684311628341674805 -0.020855959504842758179 0.0054258783347904682159 0.0140546383336186409 0.068998344242572784424 0.042628604918718338013 0.0093353120610117912292 0.018823815509676933289 0.00084588717436417937279 0.09530077129602432251 -0.0037874185945838689804 0.054139189422130584717 -0.44734340906143188477 -0.058438487350940704346 0.013174400664865970612 -0.014429371803998947144 -0.046312227845191955566 0.010748536325991153717 -0.064293012022972106934 0.053422525525093078613 -0.11512094736099243164 0.55790674686431884766 0.008889803662896156311 -0.092436417937278747559 -0.010067716240882873535 0.046718023717403411865 -0.013788392767310142517 -0.027323095127940177917 -0.011737134307622909546 0.02634789980947971344 0.013393965549767017365 -0.020152159035205841064 -0.019199136644601821899 0.027662532404065132141 -0.060663286596536636353 -0.035261873155832290649 -0.00077678804518654942513 0.02328333631157875061 -0.0092820376157760620117 -0.011154625564813613892 -0.0036274385638535022736 -0.0022192681208252906799 -0.0063149733468890190125 0.018709082156419754028 0.039407599717378616333 0.0024600280448794364929 0.018804444000124931335 -0.0064006517641246318817 0.0098019381985068321228 0.0031898904126137495041 0.014251346699893474579 0.0043079042807221412659 0.024705851450562477112 0.017495017498731613159 -0.035303346812725067139 -0.032453160732984542847 -0.028196690604090690613 0.012384303845465183258 0.025702431797981262207 0.012843975797295570374 -0.01992248930037021637 0.02040662616491317749 -0.0054253493435680866241 0.016183098778128623962 -0.00042564014438539743423 -0.0065818629227578639984 0.0071170539595186710358 -0.030699910596013069153 0.020692190155386924744 -0.017717480659484863281 -0.014578251168131828308 -0.012330127879977226257 0.016853848472237586975 0.057437460869550704956 0.019344845786690711975 -0.0080102859064936637878 -0.012755391187965869904 -0.02835742756724357605 

-0.0046696891076862812042 -0.0030285490211099386215 0.00037883955519646406174 0.00034735901863314211369 -0.0022444149944931268692 0.0016597274225205183029 0.0031511329580098390579 0.0022704815492033958435 0.0024696746841073036194 0.0026875089388340711594 0.00014798522170167416334 0.0016484060324728488922 0.00041783737833611667156 0.001296529197134077549 0.0012480895966291427612 -0.0024223532527685165405 -0.002195661887526512146 -0.002601646818220615387 0.001750726369209587574 0.0021710570435971021652 -0.0019945641979575157166 -0.0010109881404787302017 0.0011375698959454894066 -0.0029498643707484006882 -0.00040305420407094061375 0.00037968339165672659874 0.00054153433302417397499 -0.09706783294677734375 -0.099779352545738220215 -0.1139782443642616272 -0.0027832638006657361984 0.033759489655494689941 0.017271330580115318298 0.089203007519245147705 0.11599449813365936279 0.056142088025808334351 0.12577289342880249023 0.054126314818859100342 0.090592011809349060059 -0.0072416588664054870605 0.023077016696333885193 0.044091034680604934692 -0.065465562045574188232 -0.16666989028453826904 -0.097814157605171203613 0.0036122603341937065125 0.10255971550941467285 0.027746932581067085266 -0.023997824639081954956 -0.059611853212118148804 -0.075895570218563079834 -0.016150426119565963745 -0.008364525623619556427 0.050649456679821014404 -0.17104001343250274658 -0.31091228127479553223 -0.069295465946197509766 -0.0048221000470221042633 -0.01562803611159324646 0.00096020032651722431183 0.20105394721031188965 0.2978299558162689209 0.071910917758941650391 0.21165673434734344482 0.35048669576644897461 0.09093961864709854126 0.0050368979573249816895 0.012587234377861022949 -0.034742109477519989014 -0.23440210521221160889 -0.31656730175018310547 -0.085278980433940887451 -0.18522857129573822021 -0.31480374932289123535 -0.063885733485221862793 0.020419307053089141846 0.013506880030035972595 0.021062919870018959045 0.17599055171012878418 0.26191744208335876465 0.070955663919448852539 

0.0017471584724262356758 0.025461908429861068726 -0.0049307062290608882904 -0.021798143163323402405 -0.019589653238654136658 0.0094286864623427391052 0.015493150800466537476 -0.0038501874078065156937 0.0048279678449034690857 0.012586027383804321289 0.01488140597939491272 0.0057580615393817424774 0.0077112796716392040253 -0.0068847616203129291534 -0.00066584983142092823982 0.010677420534193515778 0.0095624746754765510559 0.013879336416721343994 -0.0037972796708345413208 -0.00077978050103411078453 0.022865686565637588501 0.0059374729171395301819 -0.0039920494891703128815 -0.012730376794934272766 -9.4100636488292366266e-05 0.00037063946365378797054 0.011429337784647941589 -0.00019570358563214540482 -0.37503790855407714844 -0.00505122356116771698 0.020187661051750183105 0.069952212274074554443 -0.015059828758239746094 -0.086636252701282501221 0.090435646474361419678 -0.081508845090866088867 -0.053334735333919525146 -1.1105520725250244141 -0.063871085643768310547 -0.13790263235569000244 0.050305299460887908936 -0.13844710588455200195 0.040623597800731658936 -0.075622327625751495361 0.019692290574312210083 -0.051822446286678314209 -1.1073617935180664062 -0.039834011346101760864 -0.14026927947998046875 0.046933066099882125854 -0.13512907922267913818 -0.019437717273831367493 -0.020418586209416389465 -0.025164922699332237244 -0.0077262162230908870697 0.044937975704669952393 -0.022632196545600891113 -0.0027077407576143741608 -0.0017749847611412405968 0.02484126947820186615 -0.0086745042353868484497 0.0038045248948037624359 -0.022050699219107627869 -0.0084796706214547157288 0.044459436088800430298 -0.020118005573749542236 0.003983420785516500473 -0.0041104573756456375122 0.012665411457419395447 0.0023490632884204387665 -0.0164211224764585495 -0.0062160543166100978851 -0.020589448511600494385 0.05549672245979309082 -0.01120591629296541214 0.019313108175992965698 -0.020060561597347259521 0.0047401539050042629242 0.00014288851525634527206 -0.02213657088577747345 0.0028359766583889722824 

0.019862666726112365723 -0.06427834928035736084 0.0025398209691047668457 0.0058721113018691539764 0.0034611003939062356949 0.030855808407068252563 -0.0050232349894940853119 -0.042994011193513870239 -0.0016882637282833456993 -0.026343440636992454529 0.058503653854131698608 -0.006750592496246099472 0.0090889986604452133179 -0.076198704540729522705 0.0091143436729907989502 -0.0051145944744348526001 0.044605121016502380371 -0.012718177400529384613 0.0023532239720225334167 -0.0064830644987523555756 0.002587622031569480896 -0.017777685075998306274 0.056579884141683578491 -0.049100015312433242798 0.0037002293393015861511 -0.0066300067119300365448 0.0092162862420082092285 -0.0048469151370227336884 0.032109916210174560547 -0.0097227869555354118347 -0.010193441063165664673 0.08686758577823638916 0.023450957611203193665 0.016988145187497138977 0.0063307024538516998291 0.0063659227453172206879 -0.018826814368367195129 0.03209711611270904541 0.00086301629198715090752 0.05798193812370300293 0.028664069250226020813 0.040895123034715652466 -0.021014710888266563416 0.035235982388257980347 0.011303691193461418152 -0.020548179745674133301 0.047276023775339126587 -0.040151894092559814453 0.04664101824164390564 0.041376043111085891724 0.057320989668369293213 -0.02248785458505153656 0.017637124285101890564 0.020816225558519363403 0.0019009410170838236809 0.0072393403388559818268 -0.017506971955299377441 -0.02414292655885219574 0.041266612708568572998 0.00098351435735821723938 0.013713879510760307312 -0.016967846080660820007 -0.00062567630084231495857 -0.011069218628108501434 0.0039264643564820289612 0.0054557942785322666168 0.0072236466221511363983 0.02864053286612033844 -0.017604736611247062683 -0.0018642252543941140175 -0.0046492428518831729889 -0.0046665193513035774231 -0.0020560382399708032608 -0.012427098117768764496 0.0056585120037198066711 -0.0055665546096861362457 0.046716410666704177856 -0.016394691541790962219 0.0025613026227802038193 -0.01770905032753944397 0.0045066438615322113037 

-0.054169859737157821655 0.043287400156259536743 -0.011971044354140758514 -0.082216955721378326416 0.084133148193359375 -0.024127567186951637268 0.015868257731199264526 -0.16354617476463317871 0.012580496259033679962 0.074103780090808868408 -0.052202116698026657104 -0.0402220897376537323 -0.10770316421985626221 0.005703526083379983902 0.0050564333796501159668 -0.054012835025787353516 0.022144449874758720398 0.0066200541332364082336 0.015983004122972488403 0.028315670788288116455 0.12325961887836456299 0.1604321599006652832 -0.09286995232105255127 0.087351784110069274902 0.050125923007726669312 0.14630421996116638184 -0.00027066445909440517426 0.0049947411753237247467 0.013290703296661376953 -0.026605812832713127136 -0.020070210099220275879 -0.00068256276426836848259 -0.0046179029159247875214 0.013892345130443572998 0.024877730756998062134 0.026438917964696884155 0.03236085548996925354 -0.052759576588869094849 0.052722837775945663452 0.0063833384774625301361 0.0031879695598036050797 0.0015426125610247254372 0.055607616901397705078 -0.0093363290652632713318 0.024989064782857894897 -0.019494611769914627075 0.063387587666511535645 -0.032604597508907318115 -0.027212096378207206726 -0.083184659481048583984 0.042954813688993453979 -0.068139858543872833252 0.028887078166007995605 -0.056443035602569580078 0.012733015231788158417 -0.011599845252931118011 0.017358139157295227051 -0.035765308886766433716 -0.021673347800970077515 0.0090642385184764862061 0.0093127107247710227966 0.015924351289868354797 0.0047279526479542255402 -0.0029723942279815673828 0.03572748228907585144 -0.021156668663024902344 0.022884059697389602661 0.0070804329589009284973 -0.02714783884584903717 -0.021606078371405601501 -0.0074468310922384262085 0.014499563723802566528 -0.01740103401243686676 0.024625109508633613586 -0.012148852460086345673 -0.022338129580020904541 0.042800374329090118408 0.0077460971660912036896 0.045594308525323867798 -0.036221768707036972046 -0.032805301249027252197 

0.018075939267873764038 -0.011858111247420310974 0.044597942382097244263 -0.010724758729338645935 -0.025096509605646133423 -0.16316880285739898682 0.010806861333549022675 -0.04120894894003868103 0.070863962173461914062 -0.020116064697504043579 0.016476018354296684265 -0.14536355435848236084 0.0053508104756474494934 -0.10851790755987167358 0.51682734489440917969 -0.02407229691743850708 -0.027282487601041793823 -0.012957130558788776398 -0.023388650268316268921 -0.073771387338638305664 -0.017842272296547889709 -0.038668416440486907959 -0.07525574415922164917 0.51044553518295288086 -0.0045378329232335090637 0.009409795515239238739 -0.13196669518947601318 -0.024508565664291381836 0.008053063414990901947 0.031007379293441772461 -0.0071194386109709739685 0.0014424013206735253334 0.013311405666172504425 0.036253087222576141357 0.0034074089489877223969 -0.036302857100963592529 -0.010258473455905914307 0.025655994191765785217 -0.029353979974985122681 -0.018402069807052612305 0.058325108140707015991 -0.036929935216903686523 -0.0020049014128744602203 -0.0023192500229924917221 -0.0092435395345091819763 0.021246911957859992981 -0.0095653245225548744202 -0.027262357994914054871 0.04228315502405166626 0.0050659212283790111542 0.017888190224766731262 -0.02899905666708946228 -0.011246548965573310852 -0.00018837292736861854792 -0.008449490182101726532 0.014744100160896778107 -0.012234705500304698944 -0.017153738066554069519 0.0072969766333699226379 0.0072119301185011863708 0.0077377664856612682343 -0.0092340670526027679443 0.013091960921883583069 -0.00021320107043720781803 -0.040068220347166061401 0.020473150536417961121 -0.0026403088122606277466 0.02874613739550113678 0.0070456080138683319092 -0.0077105779200792312622 -0.02100029774010181427 0.018495699390769004822 0.0087976604700088500977 0.0087665505707263946533 -0.024720268324017524719 -0.0084595633670687675476 0.017070680856704711914 0.0064295944757759571075 -0.022642651572823524475 0.014594015665352344513 0.0035536219365894794464 

-0.0033926728647202253342 -0.0016724130837246775627 -0.00046477667638100683689 -0.00033075330429710447788 -0.000831200391985476017 0.0020817683544009923935 0.0012938613072037696838 0.0029281170573085546494 0.0011213776888325810432 -0.0020426909904927015305 -0.0078863641247153282166 -0.0029818208422511816025 4.3850424845004454255e-05 0.0006064663175493478775 0.0011958358809351921082 0.0034810295328497886658 0.0050021368078887462616 0.002270677126944065094 0.0053388709202408790588 0.0086170379072427749634 0.0034185724798589944839 2.9930788514320738614e-05 0.0005540769197978079319 -0.0032540396787226200104 -0.004816033877432346344 -0.0073067173361778259277 -0.0029244853649288415909 -0.063336297869682312012 0.0069899121299386024475 -0.042345292866230010986 -0.049469687044620513916 -0.043805215507745742798 0.070782065391540527344 0.073468767106533050537 -0.0066184084862470626831 0.052996434271335601807 -0.0012796407099813222885 -0.11187154799699783325 -0.075169481337070465088 -0.013251538388431072235 0.019856669008731842041 -0.057762932032346725464 0.040653921663761138916 0.12995609641075134277 0.069162495434284210205 0.094949267804622650146 0.1301962733268737793 0.12981024384498596191 0.043171569705009460449 0.018453454598784446716 -0.018173698335886001587 -0.11168742924928665161 -0.16036818921566009521 -0.12551173567771911621 -0.11563501507043838501 -0.33855623006820678711 -0.14289659261703491211 0.042162366211414337158 0.036064580082893371582 -0.0010086013935506343842 0.13957273960113525391 0.27467697858810424805 0.10614351928234100342 -0.10593284666538238525 -0.31371530890464782715 -0.13619332015514373779 0.041493218392133712769 0.022206725552678108215 -0.0031883101910352706909 0.13075307011604309082 0.2589111030101776123 0.10593009740114212036 0.13557423651218414307 0.36050403118133544922 0.18472245335578918457 -0.022507963702082633972 -0.020517401397228240967 -0.02460791170597076416 -0.18763196468353271484 -0.30357879400253295898 -0.12221432477235794067 

-0.0041244328022003173828 0.002149537205696105957 0.0061708847060799598694 -0.0067389891482889652252 -0.0014894050545990467072 0.0042364918626844882965 -0.0021901878062635660172 4.1348150261910632253e-05 0.0022230299655348062515 0.0011454885825514793396 -0.001004022546112537384 -0.0020778912585228681564 0.0020169606432318687439 0.00064113491680473089218 -0.00070015818346291780472 -0.00026990158949047327042 0.00034126438549719750881 -0.00041013903683051466942 0.002281340770423412323 -0.0010647638700902462006 -0.0036413725465536117554 0.0042080231942236423492 0.00058569625252857804298 -0.0028022578917443752289 0.0026655988767743110657 -0.00031762538128532469273 -0.0017089190660044550896 -0.084771879017353057861 -0.0047084963880479335785 0.11819791048765182495 -0.1210157051682472229 -0.0091766063123941421509 0.13067172467708587646 -0.07474076002836227417 -0.04018635675311088562 0.085651926696300506592 -0.050892904400825500488 -0.02868490852415561676 0.037349909543991088867 0.008838914334774017334 0.062120776623487472534 -0.057214938104152679443 0.020753495395183563232 -0.014583416283130645752 0.022795174270868301392 0.10470608621835708618 0.028550423681735992432 -0.13083481788635253906 0.10528684407472610474 -0.047548551112413406372 -0.059092000126838684082 0.043306827545166015625 0.037090469151735305786 -0.081757940351963043213 -0.21668957173824310303 0.054674867540597915649 0.18907153606414794922 -0.31094810366630554199 -0.000415843533119186759 0.28630983829498291016 -0.077567823231220245361 0.010457620956003665924 0.065363638103008270264 -0.1955785900354385376 0.041029963642358779907 0.17843654751777648926 -0.26484665274620056152 0.02041528746485710144 0.21038885414600372314 -0.064608715474605560303 0.001963545801118016243 0.073090545833110809326 -0.18852387368679046631 -9.4703391368966549635e-05 0.20570316910743713379 -0.31033506989479064941 0.040693908929824829102 0.26804557442665100098 -0.092516250908374786377 0.02700842730700969696 0.050021227449178695679 

