-0.010220608673989772797 -0.11196160316467285156 0.046448837965726852417 -0.037488933652639389038 0.051113873720169067383 -0.021569302305579185486 0.0057170842774212360382 -0.16137506067752838135 -0.27558693289756774902 -0.068537287414073944092 -0.059554740786552429199 0.02212277241051197052 -0.0086167836561799049377 0.013491164892911911011 0.014868061989545822144 -0.50544339418411254883 0.036025762557983398438 -0.024681542068719863892 0.085442021489143371582 0.04976366087794303894 -0.0094515969976782798767 -0.1009337007999420166 -0.023050418123602867126 -0.016019655391573905945 -0.0024883747100830078125 -0.054755173623561859131 0.25145775079727172852 -0.017408343032002449036 -0.011943987570703029633 -0.001388414064422249794 0.018512176349759101868 0.020294226706027984619 0.20142015814781188965 -0.0038990469183772802353 -0.0046824701130390167236 -0.18875461816787719727 -0.33821469545364379883 -0.047235652804374694824 -0.017098017036914825439 -0.030223393812775611877 0.10577031224966049194 0.046426240354776382446 0.025053715333342552185 -0.025797929614782333374 -0.056106243282556533813 -0.051085103303194046021 0.097377143800258636475 0.073982670903205871582 