-0.020073980093002319336 0.059807840734720230103 -0.081862032413482666016 0.072890527546405792236 -0.12119271606206893921 -0.071864433586597442627 -0.0099236639216542243958 0.0069367419928312301636 0.050990149378776550293 -0.076340124011039733887 0.13995499908924102783 0.011879240162670612335 0.15745742619037628174 0.0016867103986442089081 0.06000421568751335144 0.059477917850017547607 0.048255797475576400757 -0.068625688552856445312 -0.061295054852962493896 0.045741163194179534912 0.065723493695259094238 0.084693394601345062256 0.022380929440259933472 -0.034237943589687347412 -0.027718342840671539307 0.037863444536924362183 -0.1558262556791305542 0.0052399220876395702362 0.076246306300163269043 -0.19268111884593963623 0.020712748169898986816 0.077327460050582885742 -0.04455027356743812561 -0.0056060748174786567688 0.10968653857707977295 0.089259080588817596436 0.07309973984956741333 0.09076630324125289917 -0.046684335917234420776 0.099605023860931396484 -0.023066923022270202637 -0.1666813194751739502 0.070726849138736724854 -0.021023405715823173523 -0.035523127764463424683 -0.085604399442672729492 0.062253657728433609009 0.074394598603248596191 -0.03108499571681022644 -0.1714337468147277832 0.018749235197901725769 -0.010407743044197559357 0.0032144882716238498688 -0.073270276188850402832 -0.0013712173094972968102 -0.1144318804144859314 -0.048157811164855957031 0.0016853269189596176147 -0.040506247431039810181 0.046616759151220321655 -0.011060730554163455963 -0.12308698892593383789 0.031689971685409545898 0.021414251998066902161 -0.13951261341571807861 0.0040550734847784042358 -0.062891751527786254883 0.08147350698709487915 0.10551745444536209106 0.040005229413509368896 0.13203670084476470947 -0.068666882812976837158 0.053584564477205276489 -0.082074724137783050537 0.057130280882120132446 -0.1545044630765914917 0.047374933958053588867 0.037788439542055130005 -0.10472901910543441772 0.071898251771926879883 0.014023778960108757019 -0.083038412034511566162 0.047488637268543243408 0.0013819359010085463524 0.022152772173285484314 -0.002104436047375202179 -0.094476290047168731689 -0.22030441462993621826 0.045803185552358627319 0.083470456302165985107 -0.030539242550730705261 0.082550659775733947754 0.022315431386232376099 0.088169306516647338867 -0.021432125940918922424 0.048205658793449401855 