0.0076565649360418319702 -0.10625969618558883667 0.035664740949869155884 -0.25704199075698852539 -0.27978438138961791992 0.12258414179086685181 0.021402208134531974792 0.037963055074214935303 -0.1695849299430847168 -0.076164722442626953125 -0.025338463485240936279 -0.40875458717346191406 -0.083091408014297485352 -0.12363442778587341309 0.11050789803266525269 -0.023016108199954032898 -0.079686209559440612793 -0.26930218935012817383 0.037714961916208267212 0.058110911399126052856 -0.16858987510204315186 -0.11203848570585250854 -0.052089478820562362671 0.00029484936385415494442 -0.021824887022376060486 -0.45669540762901306152 -0.026732781901955604553 -0.078086338937282562256 0.065563440322875976562 -0.20539472997188568115 -0.16214384138584136963 -0.1113802790641784668 -0.049701780080795288086 -0.30917587876319885254 -0.27746653556823730469 -0.15972715616226196289 0.044006355106830596924 0.19791661202907562256 0.2611001431941986084 -0.16208001971244812012 -0.041700024157762527466 0.099278740584850311279 0.071126341819763183594 -0.072041012346744537354 -0.10826490819454193115 0.12684476375579833984 0.064021639525890350342 0.23851846158504486084 -0.24599555134773254395 -0.049298256635665893555 -0.15833356976509094238 0.10630133002996444702 0.029987679794430732727 0.081143751740455627441 -0.031257603317499160767 -0.10059708356857299805 -0.074169829487800598145 0.14885668456554412842 0.01673558354377746582 0.054228380322456359863 -0.040331955999135971069 -0.088014103472232818604 -0.045732598751783370972 0.042807236313819885254 -0.0083003984764218330383 -0.029946586117148399353 -0.17878593504428863525 -0.087037853896617889404 0.014217610470950603485 -0.053431365638971328735 -0.0033316055778414011002 -0.066722147166728973389 -0.17931053042411804199 -0.10621064901351928711 -0.027564002200961112976 -0.13398477435111999512 0.15615572035312652588 -0.2535718083381652832 -0.075480818748474121094 -0.074474863708019256592 