0.02544987015426158905 -0.06760482490062713623 -0.082513585686683654785 0.034205570816993713379 -0.0081386482343077659607 -0.084157794713973999023 -0.011623706668615341187 0.0036146496422588825226 -0.15471291542053222656 0.17631542682647705078 -0.0081073092296719551086 -0.26500946283340454102 0.10944838076829910278 0.098076350986957550049 0.07097279280424118042 -0.065890535712242126465 -0.65196096897125244141 -0.051452249288558959961 -0.072900258004665374756 -0.039904654026031494141 0.18060308694839477539 -0.11046765744686126709 -0.01066839415580034256 -0.16567607223987579346 0.06460269540548324585 0.092416465282440185547 0.14794938266277313232 -0.022707182914018630981 -0.061874769628047943115 0.088134847581386566162 0.022876620292663574219 0.017364386469125747681 -0.034752458333969116211 0.10614261776208877563 -0.060549266636371612549 -0.20066526532173156738 -0.0065952087752521038055 -0.10340166836977005005 0.09445521235466003418 0.0033473588991910219193 -0.094166964292526245117 0.22691196203231811523 0.20923334360122680664 -0.037710372358560562134 -0.032826483249664306641 -0.052703626453876495361 -0.023827722296118736267 0.16931241750717163086 0.14186467230319976807 -0.21893206238746643066 0.022570224478840827942 0.0046353708021342754364 0.12586754560470581055 0.12928767502307891846 -0.26552933454513549805 0.073909930884838104248 -0.12619228661060333252 -0.12270555645227432251 0.077133961021900177002 -0.015966959297657012939 0.046297322958707809448 0.12785392999649047852 0.18656347692012786865 -0.043894346803426742554 0.098447948694229125977 0.06087754666805267334 0.013811493292450904846 -0.062760025262832641602 0.058981064707040786743 -0.0044265501201152801514 -0.063632607460021972656 0.06801093369722366333 -0.11077998578548431396 0.044839404523372650146 -0.14659801125526428223 0.013775571249425411224 -0.21340179443359375 0.23156210780143737793 -0.073985666036605834961 0.086986519396305084229 -0.078826375305652618408 -0.13089039921760559082 -0.06566981971263885498 0.054775040596723556519 0.038232065737247467041 0.12727731466293334961 0.046109758317470550537 -0.017805583775043487549 -0.053381819278001785278 0.014426061883568763733 -0.24802148342132568359 -0.019492395222187042236 -0.078134238719940185547 0.022420059889554977417 0.0094361351802945137024 -0.062327705323696136475 