0.039747163653373718262 -0.041730459779500961304 0.082029715180397033691 0.23067313432693481445 -0.013719528913497924805 -0.019759988412261009216 -0.064663648605346679688 0.0059047108516097068787 0.0019363316241651773453 0.091227203607559204102 -0.0006311016622930765152 -0.036450676620006561279 0.068576663732528686523 0.042162887752056121826 0.13396202027797698975 0.14540067315101623535 -0.077286928892135620117 0.19287781417369842529 0.040464378893375396729 -0.03356429561972618103 0.12478824704885482788 -0.053319431841373443604 0.036649927496910095215 0.048906154930591583252 0.023018406704068183899 -0.40571358799934387207 -0.15412421524524688721 0.082946702837944030762 -0.06009751930832862854 -0.025818305090069770813 -0.015427920036017894745 0.064646184444427490234 0.035786397755146026611 -0.12978620827198028564 0.0033546546474099159241 0.008706614375114440918 -0.0067950352095067501068 0.077862262725830078125 -0.049426976591348648071 -0.022638227790594100952 -0.3089676201343536377 0.017215618863701820374 -0.0089288027957081794739 0.1347621232271194458 -0.030999545007944107056 -0.0065142293460667133331 -0.096372015774250030518 -0.0087793050333857536316 -0.076393298804759979248 -0.25375795364379882812 -0.030833227559924125671 0.056127980351448059082 -0.059959676116704940796 -0.064500778913497924805 -0.037015274167060852051 -0.2770023643970489502 -0.16667421162128448486 0.039454042911529541016 -0.028774445876479148865 -0.038062732666730880737 0.096213631331920623779 0.0015095368726179003716 -0.11612665653228759766 -0.15481199324131011963 