0.075400792062282562256 0.15323500335216522217 0.090400941669940948486 -0.0061155790463089942932 -0.020866401493549346924 -0.012969958595931529999 -0.11653864383697509766 -0.15266172587871551514 -0.035845547914505004883 -0.051333989948034286499 -0.064360328018665313721 0.022022392600774765015 -0.0040069278329610824585 -0.16873380541801452637 -0.077716648578643798828 0.04477952420711517334 -0.088277347385883331299 0.023429945111274719238 0.056896176189184188843 0.062897384166717529297 0.078867219388484954834 0.0028860624879598617554 0.076488122344017028809 -0.020803291350603103638 0.0096169235184788703918 0.066424317657947540283 0.04974849894642829895 0.020849486812949180603 -0.005314587615430355072 0.05552899092435836792 -0.025920523330569267273 0.0017817541956901550293 0.08360204845666885376 0.0080546056851744651794 -0.001627834513783454895 0.020116807892918586731 0.045626536011695861816 -0.096767969429492950439 0.043283473700284957886 -0.043952368199825286865 -0.2688058316707611084 -0.088626623153686523438 0.043970163911581039429 -0.0187541227787733078 0.097805313766002655029 -0.041551321744918823242 0.027959177270531654358 0.065749570727348327637 -0.057693991810083389282 -0.055410653352737426758 -0.016800191253423690796 -0.01501589454710483551 -0.016185684129595756531 0.00030027164029888808727 0.077390782535076141357 0.036381863057613372803 0.021792389452457427979 0.013704340904951095581 -0.025814468041062355042 0.0094414558261632919312 0.0277663450688123703 0.056982617825269699097 0.067256994545459747314 -0.028358757495880126953 0.093738645315170288086 0.010070555843412876129 0.073474831879138946533 0.14611573517322540283 0.025765532627701759338 -0.049570359289646148682 -0.021150087937712669373 -0.048155538737773895264 0.017258465290069580078 -0.024442028254270553589 0.016495376825332641602 -0.044960439205169677734 -0.2158934175968170166 -0.068174116313457489014 0.19221326708793640137 0.13052572309970855713 0.021965270861983299255 -0.10372461378574371338 0.0056335143744945526123 0.067132644355297088623 -0.018752722069621086121 0.025775283575057983398 0.067061915993690490723 0.023744901642203330994 0.038294620811939239502 0.041075237095355987549 -0.095149792730808258057 -0.0483873710036277771 -0.002191472100093960762 -0.05661182105541229248 -0.059889420866966247559 -0.016939261928200721741 -0.042777679860591888428 -0.070120953023433685303 0.057482637465000152588 -0.049502670764923095703 0.029757177457213401794 -0.071253053843975067139 -0.044593513011932373047 -0.033781379461288452148 -0.017036180943250656128 -0.026513621211051940918 -0.046677332371473312378 0.0165747813880443573 0.0074416543357074260712 -0.0076807448640465736389 -0.083566181361675262451 0.022834233939647674561 0.13976265490055084229 -0.059974938631057739258 -0.079002298414707183838 -0.085166409611701965332 -0.030883070081472396851 -0.13047957420349121094 0.011619328521192073822 -0.097891293466091156006 -0.07005751878023147583 -0.019096925854682922363 0.01497248280793428421 0.037186395376920700073 0.055626969784498214722 0.06208672747015953064 -0.039990764111280441284 0.027099711820483207703 0.076274536550045013428 -0.10010761022567749023 -0.072741113603115081787 -0.03953429684042930603 0.0097751263529062271118 -0.0085698356851935386658 0.076926879584789276123 -0.011414223350584506989 -0.056480713188648223877 0.083948455750942230225 -0.094189524650573730469 -0.22025080025196075439 -0.048495251685380935669 0.071283072233200073242 0.0062137860804796218872 0.14214490354061126709 0.14952903985977172852 -0.05869511142373085022 0.034014355391263961792 0.14750047028064727783 -0.072314500808715820312 0.018353685736656188965 0.11359997838735580444 0.039312675595283508301 0.06813354790210723877 -0.18156923353672027588 0.001827336498536169529 -0.0086872549727559089661 -0.093494229018688201904 -0.059948641806840896606 0.094896517693996429443 0.024134175851941108704 0.056933484971523284912 -0.033671449869871139526 -0.022201318293809890747 0.067843712866306304932 -0.097971081733703613281 0.042149107903242111206 0.1936006695032119751 0.0031823399476706981659 -0.088718757033348083496 -0.028495011851191520691 -0.075648188591003417969 0.013920678757131099701 0.12927423417568206787 0.015250775031745433807 0.094510227441787719727 0.12767721712589263916 -0.0013276309473440051079 -0.027047302573919296265 -0.00197729538194835186 0.015711110085248947144 0.0019956042524427175522 -0.10482683032751083374 0.0942594185471534729 0.0071807755157351493835 -0.17888851463794708252 -0.068499200046062469482 0.053539756685495376587 -0.015334322117269039154 0.013952351175248622894 -0.076408237218856811523 -0.26297983527183532715 0.091631405055522918701 -0.14844454824924468994 -0.51262611150741577148 -0.084354631602764129639 0.30290418863296508789 0.16672819852828979492 0.20336878299713134766 0.069730021059513092041 -0.097233653068542480469 -0.1176220327615737915 0.062487255781888961792 -0.10309292376041412354 -0.14728334546089172363 -0.029671410098671913147 -0.038336925208568572998 -0.059582453221082687378 -0.0022494196891784667969 -0.06625029444694519043 -0.11749160289764404297 0.06732031702995300293 0.0019156306516379117966 -0.19784921407699584961 0.1052462458610534668 -0.042317230254411697388 -0.088727317750453948975 0.014623452909290790558 -0.012233862653374671936 0.035104885697364807129 -0.068875834345817565918 -0.030761435627937316895 0.0025528869591653347015 -0.040315944701433181763 -0.058747045695781707764 -0.0059957616031169891357 -0.013922956772148609161 0.035714063793420791626 -0.053208213299512863159 0.021881125867366790771 0.14393095672130584717 -0.0027973288670182228088 -0.082484222948551177979 0.052564430981874465942 -0.023246563971042633057 -0.052987888455390930176 -0.10770820081233978271 -0.11407462507486343384 -0.03236225619912147522 -0.094330608844757080078 -0.10183281451463699341 -0.01248900778591632843 -0.037120550870895385742 -0.063725061714649200439 -0.12425824254751205444 0.0056590572930872440338 0.081639900803565979004 0.0018519839504733681679 0.10312312841415405273 0.10827050358057022095 -0.038712177425622940063 0.061428628861904144287 0.088577672839164733887 0.034930024296045303345 0.011499496176838874817 -0.011266987770795822144 -0.037108212709426879883 -0.031608361750841140747 0.022380070760846138 -0.0020425452385097742081 0.012873201631009578705 0.010603591799736022949 -0.019595334306359291077 -0.13550774753093719482 -0.0088251335546374320984 0.042690038681030273438 -0.12054572254419326782 -0.0052025504410266876221 -0.01863088458776473999 -0.033979732543230056763 -0.060406919568777084351 -0.20118993520736694336 -0.80571472644805908203 -0.0092593869194388389587 0.0057401247322559356689 0.081497125327587127686 0.024064933881163597107 -0.066215850412845611572 -0.019012199714779853821 -0.017893385142087936401 -0.011705489829182624817 0.063927643001079559326 -0.042404744774103164673 -0.067616552114486694336 -0.0030305637046694755554 0.0026079139206558465958 -0.1392479240894317627 0.016710102558135986328 -0.0888002738356590271 -0.014451306313276290894 0.018463021144270896912 -0.063887767493724822998 0.03489130362868309021 0.10586176812648773193 -0.012102498672902584076 0.035458192229270935059 0.042738880962133407593 -0.020247505977749824524 0.029532190412282943726 0.04795483127236366272 -0.0054065305739641189575 0.10344313830137252808 0.13687601685523986816 0.0044918418861925601959 -0.070779815316200256348 -0.036816243082284927368 -0.047131340950727462769 -0.038896121084690093994 -0.0095078069716691970825 0.0034158639609813690186 -0.033320378512144088745 0.14395196735858917236 0.019461391493678092957 -0.029858037829399108887 0.015936030074954032898 -0.0072120046243071556091 -0.036394003778696060181 0.048704691231250762939 0.013943396508693695068 -0.017727730795741081238 -0.028478890657424926758 0.10664190351963043213 0.073192223906517028809 0.020517334342002868652 0.082038864493370056152 0.029066912829875946045 -0.086481027305126190186 -0.050561409443616867065 -0.060884993523359298706 0.011183124035596847534 -0.089737959206104278564 -0.04101416468620300293 -0.041674830019474029541 -0.040009882301092147827 -0.12757715582847595215 -0.14887294173240661621 -0.15990373492240905762 0.16845235228538513184 0.29639443755149841309 -0.19520282745361328125 -0.26329749822616577148 -0.12982189655303955078 -0.18171773850917816162 -0.25419941544532775879 -0.13843353092670440674 -0.070070140063762664795 -0.25908267498016357422 -0.30249556899070739746 -0.11790809035301208496 -0.203268393874168396 -0.16894643008708953857 -0.086981989443302154541 0.010949972085654735565 0.084064908325672149658 0.01353564579039812088 -0.020854823291301727295 -0.029944002628326416016 -0.02550913393497467041 -0.040450897067785263062 -0.066300593316555023193 -0.013551067560911178589 0.012570645660161972046 0.038705162703990936279 0.10137660056352615356 -0.051342505961656570435 0.067902900278568267822 0.11892294883728027344 -0.070806778967380523682 -0.089549839496612548828 -0.061190657317638397217 0.061639137566089630127 0.057745989412069320679 0.032463081181049346924 0.04879507794976234436 0.16990159451961517334 0.081715688109397888184 0.052795533090829849243 0.093728803098201751709 -0.016091447323560714722 0.038381710648536682129 0.024286299943923950195 -0.0055377804674208164215 0.10752589255571365356 0.087024770677089691162 0.0050165052525699138641 -0.054645281285047531128 -0.03234662860631942749 0.044360388070344924927 0.15442615747451782227 -0.045581199228763580322 0.10456322133541107178 -0.052534066140651702881 -0.40431690216064453125 -0.027424614876508712769 0.28474918007850646973 0.10656300187110900879 0.10940769314765930176 -0.012400700710713863373 0.024660766124725341797 -0.076202288269996643066 0.010071314871311187744 0.10326104611158370972 -0.024443304166197776794 -0.014761390164494514465 -0.024839704856276512146 -0.032200887799263000488 -0.0085846651345491409302 0.030882915481925010681 0.034213367849588394165 0.012350551784038543701 0.038361106067895889282 0.0067355646751821041107 -0.010206948034465312958 -0.035186909139156341553 0.15141010284423828125 -0.26361036300659179688 -0.28014701604843139648 -0.38790395855903625488 -0.31530946493148803711 -0.52616673707962036133 -0.44047886133193969727 -0.17711819708347320557 -0.12038925290107727051 -0.38788712024688720703 -0.022384833544492721558 -0.085261806845664978027 0.070551209151744842529 -0.050273340195417404175 -0.24816656112670898438 -0.047979217022657394409 0.012792040593922138214 -0.033954922109842300415 0.026824459433555603027 -0.012290474027395248413 0.027437536045908927917 0.021364070475101470947 0.05538107454776763916 0.13456803560256958008 0.047072168439626693726 -0.016522668302059173584 -0.039667025208473205566 -0.015425870195031166077 0.071466021239757537842 -0.044243127107620239258 0.2476711273193359375 -0.009039184078574180603 -0.39286923408508300781 0.10034521669149398804 0.030158072710037231445 -0.086183749139308929443 0.097839966416358947754 -0.017616119235754013062 0.037037741392850875854 -0.030601359903812408447 0.020026566460728645325 0.23456498980522155762 0.033437900245189666748 -0.1167804226279258728 -0.0099679911509156227112 -0.067220874130725860596 0.009744231589138507843 -0.18077529966831207275 -0.035117141902446746826 -0.072003655135631561279 -0.18777069449424743652 0.045837312936782836914 0.036173071712255477905 0.067135296761989593506 -0.037066593766212463379 -0.017347717657685279846 0.07085825502872467041 -0.04710294678807258606 -0.037479940801858901978 0.08556918799877166748 -0.066611215472221374512 -0.048840217292308807373 -4.2552612285362556577e-05 -0.043300475925207138062 -0.06549428403377532959 0.15235118567943572998 0.17685079574584960938 -0.20111297070980072021 0.12364922463893890381 0.17305469512939453125 0.10960949957370758057 0.16950745880603790283 0.060376092791557312012 0.0018330765888094902039 -0.0091789308935403823853 -0.022341346368193626404 0.012522228062152862549 -0.048856422305107116699 -0.027362972497940063477 -0.070335842669010162354 0.12602938711643218994 -0.035784885287284851074 -0.057213637977838516235 0.046709123998880386353 -0.033090870827436447144 -0.028562758117914199829 -0.051726993173360824585 0.021815538406372070312 -0.037776462733745574951 -0.050399012863636016846 -0.030022772029042243958 0.12188601493835449219 -0.053353440016508102417 -0.1288000643253326416 0.071484297513961791992 -0.16877110302448272705 -0.11055523902177810669 -0.0051888530142605304718 -0.080277614295482635498 -0.077951855957508087158 -0.014942667447030544281 -0.041666273027658462524 0.047580584883689880371 -0.055552281439304351807 0.12985551357269287109 0.010213996283710002899 -0.0032546455040574073792 0.06230829283595085144 0.053540572524070739746 -0.014359664171934127808 -0.031397052109241485596 0.014055125415325164795 0.027868369594216346741 0.20717063546180725098 0.018935130909085273743 -0.012091268785297870636 -0.0080799143761396408081 0.00040554377483204007149 0.092677421867847442627 0.036369077861309051514 -0.024268554523587226868 0.0087385475635528564453 0.15641137957572937012 -0.05377648770809173584 -0.067824542522430419922 0.0033407232258468866348 -0.16841855645179748535 -0.047530643641948699951 -0.0049438462592661380768 -0.109460487961769104 -0.10692817717790603638 -0.18970741331577301025 0.014789108186960220337 0.094958595931529998779 -0.010013770312070846558 0.1337315291166305542 0.14936780929565429688 -0.078511454164981842041 -0.48490959405899047852 0.19852407276630401611 0.2443637549877166748 -0.14467442035675048828 0.058763831853866577148 0.065659865736961364746 -0.07312488555908203125 0.025270981714129447937 0.026837218552827835083 -0.0058759907260537147522 0.038951277732849121094 -0.035630501806735992432 0.01657970622181892395 0.024873498827219009399 0.015201352536678314209 -0.036332853138446807861 -0.0044079432263970375061 -0.08528032153844833374 -0.077453307807445526123 -0.056468669325113296509 -0.13244034349918365479 -0.025954356417059898376 0.13462743163108825684 0.040566682815551757812 0.068570196628570556641 

-0.056500256061553955078 -0.054063845425844192505 -0.054315164685249328613 0.0087973931804299354553 -0.0095746200531721115112 -0.014879055321216583252 0.0679281577467918396 0.045504800975322723389 -0.026038557291030883789 -0.022346202284097671509 -0.042070522904396057129 -0.040625359863042831421 -0.0013222767738625407219 0.00035273720277473330498 -0.01674872078001499176 0.0071770749054849147797 0.067217245697975158691 0.086434036493301391602 -0.043722733855247497559 -0.22124905884265899658 0.0068685072474181652069 0.16865928471088409424 -0.41937059164047241211 -0.0038532908074557781219 0.25560331344604492188 -0.032803423702716827393 0.17983187735080718994 0.093637987971305847168 -0.021185601130127906799 -0.044920433312654495239 0.14818544685840606689 0.12138947099447250366 -0.12381035089492797852 0.067958049476146697998 0.034502036869525909424 -0.10947248339653015137 -0.062114026397466659546 -0.033914804458618164062 -0.063595488667488098145 -0.02527079358696937561 0.052651390433311462402 0.0013551156735047698021 0.0068192211911082267761 0.031404491513967514038 0.054666731506586074829 0.15620145201683044434 0.13308228552341461182 0.040359694510698318481 0.19033309817314147949 0.27042409777641296387 0.066075272858142852783 0.061736810952425003052 0.12735314667224884033 -0.064970359206199645996 0.041777003556489944458 0.037955928593873977661 -0.03055268898606300354 0.035234037786722183228 -0.021531445905566215515 -0.026098391041159629822 0.023609166964888572693 0.027069918811321258545 -0.063299253582954406738 0.047492701560258865356 0.010255875065922737122 0.054129943251609802246 0.098594270646572113037 0.038237296044826507568 0.10333570092916488647 -0.0093013467267155647278 -0.023250136524438858032 0.019593263044953346252 -0.00027427251916378736496 0.043118059635162353516 0.070497572422027587891 0.019173890352249145508 0.0069273076951503753662 -0.023160494863986968994 -0.093850702047348022461 -0.10270734876394271851 -0.030236702412366867065 -0.23825539648532867432 -0.20869770646095275879 0.077814981341361999512 -0.23438331484794616699 -0.20925787091255187988 0.095337651669979095459 0.11707644909620285034 0.11687720566987991333 0.34417062997817993164 0.0061527546495199203491 0.15090331435203552246 0.12180894613265991211 0.1141583174467086792 0.043824121356010437012 0.056454807519912719727 0.12957093119621276855 0.23409637808799743652 0.14636239409446716309 -0.017224648967385292053 -0.025963969528675079346 0.057970330119132995605 -0.080465979874134063721 -0.10728764533996582031 0.055999130010604858398 -0.025443753227591514587 -0.019028922542929649353 0.034982152283191680908 0.018329322338104248047 0.068370610475540161133 0.1229039803147315979 -0.039144281297922134399 0.024887673556804656982 0.12995252013206481934 -0.013352906331419944763 0.003482048865407705307 0.092036858201026916504 -0.074547789990901947021 -0.010575224645435810089 -0.066723614931106567383 -0.04988748207688331604 0.022563617676496505737 -0.0551721230149269104 -0.079967007040977478027 -0.017928725108504295349 -0.060449067503213882446 0.074499979615211486816 0.044031489640474319458 0.043352790176868438721 0.060230713337659835815 -0.037463683634996414185 0.004696262069046497345 0.066909037530422210693 -0.02796221710741519928 0.075703509151935577393 0.0696010589599609375 0.08430837094783782959 0.017773663625121116638 0.15212295949459075928 0.1534929424524307251 0.090267807245254516602 0.166715964674949646 0.12778031826019287109 0.022774241864681243896 0.043450169265270233154 0.026810036972165107727 0.0064657269977033138275 0.035778179764747619629 0.014858935028314590454 0.006531185004860162735 0.0024968008510768413544 0.034506499767303466797 0.032029163092374801636 0.071849413216114044189 0.083852015435695648193 -0.094501599669456481934 0.11224722117185592651 0.19126880168914794922 -0.047784093767404556274 0.02777257189154624939 0.063793748617172241211 -0.085019782185554504395 -0.07915773242712020874 -0.069249011576175689697 -0.01089786924421787262 0.020735381171107292175 0.0029784443322569131851 0.047274775803089141846 0.030258726328611373901 0.054558057337999343872 0.01357118505984544754 -0.13230586051940917969 -0.15926693379878997803 -0.087646305561065673828 -0.22835078835487365723 -0.14612449705600738525 -0.08604466170072555542 -0.058164328336715698242 -0.070556648075580596924 -0.11536610871553421021 -0.10269014537334442139 -0.010984975844621658325 -0.1004528924822807312 -0.075529970228672027588 -0.14610676467418670654 -0.017695166170597076416 -0.027684366330504417419 0.020582543686032295227 0.039682216942310333252 -0.014498479664325714111 -0.021008087322115898132 -0.04547806084156036377 0.026205804198980331421 0.045534331351518630981 -0.09400358051061630249 -0.11494135111570358276 -0.035863891243934631348 -0.16444166004657745361 0.061232991516590118408 0.040570221841335296631 -0.051867470145225524902 0.029244821518659591675 0.11250949651002883911 -0.065768025815486907959 -0.040686711668968200684 0.029318252578377723694 -0.089940570294857025146 0.053523436188697814941 0.0097452448680996894836 0.022476037964224815369 0.064228020608425140381 0.040230590850114822388 -0.038887739181518554688 0.022981995716691017151 0.007304504048079252243 -0.02084535546600818634 0.10042199492454528809 0.089638061821460723877 -0.032325398176908493042 0.040224254131317138672 0.1392275691032409668 -0.020828360691666603088 -0.02833913266658782959 0.13068406283855438232 -0.017723627388477325439 0.22235658764839172363 0.15664936602115631104 0.13223436474800109863 -0.10745069384574890137 -0.13479405641555786133 0.086560621857643127441 -0.09440498054027557373 -0.14802791178226470947 0.044812675565481185913 0.12611123919486999512 0.079314053058624267578 -0.029084647074341773987 0.13052281737327575684 0.066267862915992736816 -0.011498867534101009369 0.098336756229400634766 0.048880841583013534546 0.017582669854164123535 0.00032591685885563492775 0.033114980906248092651 -0.042179316282272338867 0.018794380128383636475 0.090005293488502502441 -0.029931148514151573181 0.048336241394281387329 0.076983712613582611084 -0.082469925284385681152 -0.15437108278274536133 0.081241250038146972656 0.053274735808372497559 -0.058758135885000228882 -0.36398872733116149902 0.03945368155837059021 -0.13740240037441253662 -0.15223874151706695557 0.031339913606643676758 -0.21621780097484588623 -0.02781422249972820282 -0.1258020550012588501 -0.15582861006259918213 -0.055323414504528045654 -0.018143262714147567749 -0.21434737741947174072 -0.03462662920355796814 -0.06974315643310546875 0.018248826265335083008 0.042827729135751724243 0.03465358540415763855 0.014948049560189247131 -0.0069640749134123325348 0.050483390688896179199 2.8363281671772710979e-05 -0.025424458086490631104 -0.0038778979796916246414 -0.12505100667476654053 -0.00062801031162962317467 0.024350153282284736633 0.02595376037061214447 0.15914829075336456299 0.10223693400621414185 -0.092167273163795471191 0.05323071405291557312 0.0033444468863308429718 0.12072124332189559937 0.10407326370477676392 0.025926154106855392456 0.0087975924834609031677 0.23169751465320587158 0.030540674924850463867 0.023368431255221366882 0.14399898052215576172 -0.0048434040509164333344 0.0071647362783551216125 0.0036491360515356063843 0.093167237937450408936 0.021362651139497756958 -0.12144786864519119263 0.04140635952353477478 0.1334038078784942627 0.040101904422044754028 0.052030101418495178223 0.097342267632484436035 -0.041606448590755462646 0.062456276267766952515 0.041640099138021469116 -0.063562691211700439453 -0.0044192788191139698029 -0.03310205414891242981 -0.0098502039909362792969 0.0019137003691866993904 0.031405858695507049561 -0.048066195100545883179 -0.17224752902984619141 0.0061703249812126159668 -0.014398708008229732513 -0.10704582184553146362 0.0057327430695295333862 0.06478118896484375 0.045750290155410766602 0.064768478274345397949 0.08171965181827545166 0.07562236487865447998 0.078673668205738067627 -0.19340550899505615234 -0.047853600233793258667 0.10664706677198410034 -0.01621989719569683075 -0.075515002012252807617 0.05369665101170539856 0.029331535100936889648 -0.074110969901084899902 -0.093838624656200408936 0.028510089963674545288 -0.054734770208597183228 -0.10082355886697769165 0.014485978521406650543 -0.014040352776646614075 -0.050962179899215698242 0.0039777518250048160553 -0.10106116533279418945 0.056720085442066192627 -0.028159877285361289978 -0.077205374836921691895 -0.008855015970766544342 -0.047127325087785720825 -0.096027396619319915771 -0.055843584239482879639 -0.12173125892877578735 -0.079821884632110595703 0.024672245606780052185 0.038648493587970733643 0.023621585220098495483 0.042635861784219741821 0.025376986712217330933 0.035959042608737945557 0.00015661517682019621134 -0.083447113633155822754 -0.016626717522740364075 0.082619555294513702393 -0.011561399325728416443 0.1022208482027053833 0.13524100184440612793 -0.073962494730949401855 -0.0017637984128668904305 0.18276791274547576904 0.012960088439285755157 0.067398540675640106201 0.094733312726020812988 -0.054543808102607727051 -0.085708722472190856934 -0.01426911819726228714 -0.13006061315536499023 -0.024854131042957305908 0.073507651686668395996 0.084423713386058807373 0.0089012412354350090027 0.065384738147258758545 -0.020675474777817726135 0.0063690757378935813904 0.084939330816268920898 0.022014139220118522644 0.023245930671691894531 -0.059474252164363861084 -0.070471405982971191406 -0.060710053890943527222 0.048836782574653625488 0.0096039660274982452393 -0.031747646629810333252 0.12736645340919494629 0.068025603890419006348 0.035426210612058639526 -0.089719019830226898193 -0.19715701043605804443 -0.097602762281894683838 -0.076483339071273803711 -0.11745179444551467896 -0.017871726304292678833 -0.035475008189678192139 -0.041555497795343399048 0.047733012586832046509 0.19556440412998199463 -0.054475519806146621704 0.0021555714774876832962 0.035623349249362945557 -0.011827833019196987152 0.042450357228517532349 0.14556640386581420898 -0.093128584325313568115 0.023928672075271606445 0.025282913818955421448 -0.16803081333637237549 -0.085970319807529449463 -0.028905799612402915955 -0.14032852649688720703 -0.15806381404399871826 -0.075504012405872344971 -0.18610197305679321289 -0.1941585242748260498 -0.014552904292941093445 0.0029419469647109508514 -0.087445981800556182861 0.013827625662088394165 0.056724321097135543823 -0.041478928178548812866 0.0053001097403466701508 0.058698121458292007446 0.026615703478455543518 -0.089057795703411102295 -0.10106415301561355591 -0.0030338026117533445358 -0.082907140254974365234 -0.17139458656311035156 -0.090870141983032226562 -0.082933254539966583252 -0.047485016286373138428 -0.00014554265362676233053 -0.13403925299644470215 -0.046420183032751083374 -0.041831132024526596069 0.091301962733268737793 0.18036848306655883789 -0.016122870147228240967 -0.11562471091747283936 0.076335117220878601074 -0.1358753889799118042 -0.0150292934849858284 0.16667768359184265137 0.11579011380672454834 -0.21844731271266937256 -0.15976642072200775146 0.1055755615234375 0.07302630692720413208 -0.00061463564634323120117 0.14822500944137573242 -0.14804975688457489014 -0.059492535889148712158 0.040744386613368988037 -0.03208386152982711792 -0.12814033031463623047 -0.038504585623741149902 0.12765741348266601562 0.08225361257791519165 0.15775112807750701904 -0.23714047670364379883 -0.18997840583324432373 -0.13044296205043792725 -0.13918818533420562744 -0.15248602628707885742 -0.11870343983173370361 -0.0011450001038610935211 -0.077548168599605560303 0.027670677751302719116 0.01766317710280418396 0.041100539267063140869 0.088334359228610992432 0.16196800768375396729 0.0051803262904286384583 0.094088546931743621826 0.086791455745697021484 0.026186766102910041809 0.065660811960697174072 -0.050559204071760177612 -0.068011403083801269531 -0.070448316633701324463 0.033416640013456344604 0.02146670222282409668 0.027539990842342376709 -0.015959763899445533752 0.035083077847957611084 0.11203549802303314209 -0.21813666820526123047 0.00082983757602050900459 -0.051522862166166305542 -0.32008475065231323242 0.039969407021999359131 -0.1262012869119644165 -0.10100916028022766113 0.01596310734748840332 -0.14418654143810272217 0.0042884116992354393005 0.0087899640202522277832 0.055790748447179794312 -0.078592643141746520996 -0.07458410412073135376 -0.071991868317127227783 -0.014181258156895637512 -0.053540915250778198242 0.008138853125274181366 0.21351714432239532471 0.15775592625141143799 0.15003184974193572998 0.046767979860305786133 -0.049367178231477737427 0.12670059502124786377 -0.084257647395133972168 -0.12648037075996398926 0.15101809799671173096 0.049392998218536376953 0.17384380102157592773 0.073471054434776306152 0.042464349418878555298 0.22338148951530456543 0.15935182571411132812 0.10234369337558746338 0.10031101852655410767 0.11414931714534759521 0.26731991767883300781 0.29951748251914978027 0.25480198860168457031 -0.23082296550273895264 0.11642774194478988647 0.24319525063037872314 0.050774712115526199341 0.22736504673957824707 0.27927920222282409668 0.20190127193927764893 -0.03067952767014503479 0.040661416947841644287 0.10837561637163162231 -0.3430506587028503418 -0.13592648506164550781 0.16529485583305358887 -0.23986822366714477539 -0.033530034124851226807 -0.012412555515766143799 -0.028206257149577140808 -0.0020254002884030342102 0.013209686614573001862 -0.021085673943161964417 0.055516775697469711304 0.028740219771862030029 0.14804224669933319092 0.085537873208522796631 -0.13940687477588653564 -0.073515057563781738281 -0.038450177758932113647 -0.2516288459300994873 -0.14079098403453826904 -0.11627789586782455444 -0.13678915798664093018 -0.21453711390495300293 -0.078528739511966705322 0.026475962251424789429 0.046876758337020874023 0.0085110208019614219666 -0.047281257808208465576 0.0607069358229637146 -0.037996634840965270996 -0.079652994871139526367 -0.022357890382409095764 0.048751249909400939941 

0.0064656650647521018982 0.01870229281485080719 0.10003808885812759399 0.046089276671409606934 0.00019931101996917277575 0.10789242386817932129 0.075463466346263885498 0.055075697600841522217 0.019830731675028800964 0.0013244100846350193024 -0.036959342658519744873 0.0050182687118649482727 -0.066918514668941497803 -0.062224697321653366089 -0.018508059903979301453 -0.036516185849905014038 -0.077974252402782440186 -0.050090301781892776489 0.078426688909530639648 -0.052449293434619903564 -0.087079621851444244385 -0.066262990236282348633 -0.11901286989450454712 0.038178820163011550903 0.021372221410274505615 -0.16363161802291870117 0.070601098239421844482 0.034200828522443771362 0.055786225944757461548 0.020841069519519805908 0.005165196489542722702 -0.043882846832275390625 -0.027739441022276878357 0.037583727389574050903 0.017847128212451934814 -0.0040309671312570571899 -0.00012292485916987061501 0.017024364322423934937 -0.053045939654111862183 -0.027172977104783058167 -0.041869599372148513794 0.0027025633025914430618 -0.06123289838433265686 -0.12411668151617050171 -0.050081260502338409424 -0.90269047021865844727 -0.75068706274032592773 -0.80340075492858886719 -0.74525493383407592773 -0.67333239316940307617 -0.76578754186630249023 -0.57916241884231567383 -0.64579164981842041016 -0.70210480690002441406 0.049033921211957931519 -0.030480995774269104004 0.0098056355491280555725 0.026460820809006690979 0.044529840350151062012 0.044602397829294204712 0.057045977562665939331 0.05711911618709564209 0.0083637060597538948059 0.10849786549806594849 0.12904572486877441406 0.036085974425077438354 -0.056987676769495010376 0.0089924894273281097412 0.045609559863805770874 -0.017685551196336746216 0.0838068351149559021 0.038348384201526641846 -0.043921180069446563721 0.0080700004473328590393 0.088739104568958282471 -0.050868954509496688843 -0.012777089141309261322 0.030189400538802146912 0.033305443823337554932 0.0085018984973430633545 0.0090852761641144752502 0.026189107447862625122 -0.031430054455995559692 0.0044131036847829818726 0.047922048717737197876 0.0016452613053843379021 0.044462416321039199829 0.027091935276985168457 -0.045424740761518478394 0.019993342459201812744 -0.03906985744833946228 0.078250624239444732666 -0.04964090883731842041 0.074491620063781738281 0.021306214854121208191 -0.099258698523044586182 -0.024075109511613845825 -0.023976003751158714294 -0.30030712485313415527 0.03851439058780670166 0.13881960511207580566 0.19361361861228942871 0.026327153667807579041 0.13126574456691741943 0.12061417847871780396 -0.16277949512004852295 -0.090861760079860687256 -0.33105427026748657227 -0.0064273448660969734192 0.0094409324228763580322 -0.033784791827201843262 -0.023058116436004638672 -0.031113140285015106201 0.029428303241729736328 -0.11913421750068664551 -0.005496296565979719162 0.096751168370246887207 0.013652028515934944153 -0.018722873181104660034 0.024474816396832466125 0.0023300165776163339615 0.055654495954513549805 -0.067700125277042388916 -0.073881417512893676758 -0.044478975236415863037 0.012710178270936012268 -0.07861855626106262207 -0.041881632059812545776 -0.033438727259635925293 -0.1167235448956489563 -0.049036115407943725586 -0.029188392683863639832 -0.11979471147060394287 0.014242582023143768311 -0.0057111815549433231354 0.23425270617008209229 0.16785393655300140381 0.18541264533996582031 0.16765974462032318115 0.10425303131341934204 0.098394364118576049805 0.22857309877872467041 0.17544703185558319092 0.23032858967781066895 0.054891996085643768311 -0.0029053993057459592819 0.077830262482166290283 0.083855904638767242432 0.10380700230598449707 0.041900400072336196899 0.062580689787864685059 0.073858581483364105225 0.10727292299270629883 -0.019687736406922340393 0.068618036806583404541 0.094999112188816070557 -0.024769887328147888184 0.16153739392757415771 0.022778183221817016602 -0.10648407787084579468 0.037937842309474945068 -0.013423150405287742615 0.004916721489280462265 0.034891754388809204102 0.0011694579152390360832 -0.055411189794540405273 -0.036402016878128051758 0.011231649667024612427 -0.10683885961771011353 -0.089909054338932037354 -0.082395322620868682861 -0.075599104166030883789 -0.12836039066314697266 -0.1143989861011505127 -0.13065032660961151123 -0.057699985802173614502 0.044099517166614532471 -0.12415362149477005005 -0.01009703613817691803 -0.0964109078049659729 -0.051295049488544464111 -0.074405968189239501953 -0.028255291283130645752 -0.0068651461042463779449 -0.0076583754271268844604 -0.023189920932054519653 -0.017944291234016418457 -0.056772463023662567139 -0.041463363915681838989 0.0068643279373645782471 0.0027114227414131164551 0.0041163000278174877167 0.0077942004427313804626 -0.033835895359516143799 -0.032632928341627120972 -0.0088092125952243804932 -0.037549532949924468994 -0.012473784387111663818 0.020901877433061599731 -0.041086740791797637939 -0.034645911306142807007 0.05891844630241394043 -0.042485423386096954346 0.025893766433000564575 0.013743724673986434937 0.071940384805202484131 0.025393305346369743347 0.043372359126806259155 0.0065378993749618530273 -0.021274453029036521912 -0.0037547624669969081879 -0.026519745588302612305 0.011922577396035194397 -0.038605604320764541626 0.053668919950723648071 0.0037438392173498868942 -0.13454441726207733154 0.033089898526668548584 -0.076844938099384307861 -0.018180124461650848389 0.060064032673835754395 0.0039401096291840076447 0.059712875634431838989 -0.058155901730060577393 -0.12339881062507629395 -0.074152894318103790283 -0.076565012335777282715 -0.099241562187671661377 -0.030458414927124977112 -0.021268937736749649048 -0.027419522404670715332 0.0074503589421510696411 0.082655951380729675293 0.020988201722502708435 -0.1611312180757522583 -0.10710913687944412231 0.03923519328236579895 -0.16198994219303131104 -0.16652846336364746094 0.11625620722770690918 -0.093873888254165649414 -0.26142278313636779785 0.00069689186057075858116 0.059822980314493179321 0.047882650047540664673 0.071625307202339172363 0.055003535002470016479 -0.021584933623671531677 0.065430380403995513916 0.045803740620613098145 -0.016457056626677513123 0.027353489771485328674 -0.48084279894828796387 -0.83589285612106323242 -0.82884436845779418945 -0.63804829120635986328 -0.76923727989196777344 -0.72761756181716918945 -1.0063191652297973633 -0.98179656267166137695 -0.75723540782928466797 -0.15367749333381652832 -0.0052796769887208938599 -0.069952428340911865234 -0.070371620357036590576 0.083527483046054840088 -0.089012585580348968506 0.030135255306959152222 -0.025358352810144424438 -0.010842231102287769318 0.015652643516659736633 0.056890912353992462158 0.045155487954616546631 0.015155900269746780396 0.053237862884998321533 0.082063600420951843262 0.045348152518272399902 -0.03449578210711479187 0.067061491310596466064 0.052609298378229141235 0.013428120873868465424 -0.0049331239424645900726 0.049621384590864181519 -0.0023619481362402439117 -0.091910220682621002197 0.075011208653450012207 -0.015441361814737319946 -0.072737120091915130615 0.018933584913611412048 0.015837851911783218384 0.098303630948066711426 0.090628489851951599121 -0.047699645161628723145 0.056254804134368896484 -0.048271246254444122314 0.044168829917907714844 0.041323713958263397217 0.010570812039077281952 -0.043456066399812698364 -0.08581507951021194458 0.12190365046262741089 -0.045767851173877716064 -0.03922365233302116394 0.23957230150699615479 -0.18014436960220336914 -0.34372720122337341309 0.04606653749942779541 -0.036147437989711761475 -0.14427481591701507568 0.041993226855993270874 0.055778890848159790039 0.11232521384954452515 -0.099096938967704772949 0.077381692826747894287 0.036257423460483551025 0.048911109566688537598 -0.16109725832939147949 -0.032460577785968780518 0.043359123170375823975 -0.19166044890880584717 0.048811063170433044434 -0.16803079843521118164 -0.2086852341890335083 0.096850767731666564941 -0.23790632188320159912 -0.36801496148109436035 -0.14202310144901275635 -0.13261251151561737061 -0.086951978504657745361 0.04641385003924369812 -0.19704839587211608887 -0.062699489295482635498 0.054298270493745803833 0.016985358670353889465 -0.060983594506978988647 -0.086705394089221954346 -0.038540463894605636597 -0.13965535163879394531 -0.12135897576808929443 -0.052338488399982452393 -0.052359081804752349854 0.013437207788228988647 0.014104438945651054382 -0.0082931155338883399963 0.0075555499643087387085 0.059336811304092407227 -0.026507515460252761841 -0.07131405174732208252 0.016320049762725830078 -0.0054153297096490859985 -0.057755760848522186279 -0.25486224889755249023 -0.2433535158634185791 -0.34215998649597167969 -0.032528419047594070435 -0.011800801381468772888 -0.032636512070894241333 -0.15800006687641143799 -0.14733614027500152588 -0.28662148118019104004 -0.041414093226194381714 -0.037312462925910949707 -0.14023512601852416992 0.050124384462833404541 0.045717582106590270996 -0.030820708721876144409 0.12079684436321258545 0.065940365195274353027 0.018591331318020820618 -0.0097810318693518638611 0.049316197633743286133 0.023148085922002792358 0.061876643449068069458 0.045568734407424926758 0.018754029646515846252 0.059528067708015441895 0.047630395740270614624 0.031407650560140609741 0.12252511084079742432 0.091364741325378417969 0.091441683471202850342 0.078915648162364959717 0.11840216070413589478 0.12104938924312591553 0.099323712289333343506 0.22776314616203308105 0.19429939985275268555 0.01741366460919380188 0.041944205760955810547 0.11684777587652206421 0.065069906413555145264 0.084997802972793579102 0.048836659640073776245 0.059473343193531036377 0.10044489055871963501 0.10878736525774002075 -0.011227864772081375122 0.010440284386277198792 0.22344005107879638672 0.16982945799827575684 0.077703744173049926758 0.024297449737787246704 0.11910066753625869751 -0.043225418776273727417 0.036845061928033828735 -0.10334304720163345337 0.015264998190104961395 -0.15056255459785461426 -0.047852233052253723145 -0.11032411456108093262 -0.097257554531097412109 -0.12183408439159393311 -0.11058852821588516235 -0.37751594185829162598 0.0019790462683886289597 0.11307210475206375122 -0.0072922036051750183105 0.030833519995212554932 0.016184419393539428711 0.073322854936122894287 0.058001603931188583374 0.017107026651501655579 0.071242809295654296875 0.019210595637559890747 -0.032875727862119674683 -0.02530467696487903595 -0.024573113769292831421 -0.014453631825745105743 -0.073041029274463653564 -0.077695518732070922852 -0.065628066658973693848 -0.075049772858619689941 0.10105542093515396118 -0.20680783689022064209 -0.085876122117042541504 0.010186564177274703979 -0.50213342905044555664 0.052052102982997894287 0.0097073493525385856628 -0.52613985538482666016 0.0028364285826683044434 0.033872373402118682861 -0.034239128232002258301 0.0058459555730223655701 0.076029412448406219482 0.067194007337093353271 0.018142126500606536865 0.16552944481372833252 0.070364408195018768311 0.0027912985533475875854 0.064341016113758087158 0.024409385398030281067 -0.03545179218053817749 0.053647018969058990479 -0.0050129075534641742706 0.061740729957818984985 0.082681961357593536377 -0.0099896173924207687378 0.023338280618190765381 -0.016745144501328468323 0.058078419417142868042 0.062169313430786132812 -0.054043661803007125854 -0.0058735311031341552734 0.019503591582179069519 -0.048656608909368515015 -0.09051523357629776001 -0.057920642197132110596 -0.015448789112269878387 -0.071516007184982299805 -0.071905381977558135986 0.032845504581928253174 0.05870462954044342041 -0.030330257490277290344 0.22042988240718841553 0.018646048381924629211 0.14356632530689239502 -0.03167629241943359375 -0.0074048242531716823578 0.070980109274387359619 -0.024433771148324012756 -0.034011248499155044556 -0.050833232700824737549 0.022013155743479728699 -0.13765285909175872803 -0.01361649390310049057 0.12316110730171203613 0.16537302732467651367 0.1193075329065322876 0.099267631769180297852 0.078001841902732849121 -0.069265298545360565186 0.020145859569311141968 0.0096833836287260055542 0.087742067873477935791 -0.37825566530227661133 -0.31084120273590087891 -0.40763434767723083496 -0.045182660222053527832 -0.22871772944927215576 -0.16496238112449645996 0.035432316362857818604 -0.30642142891883850098 -0.22957712411880493164 -0.053252119570970535278 -0.13961027562618255615 -0.38894426822662353516 -0.08729006350040435791 -0.40018093585968017578 -0.058953262865543365479 0.0076904483139514923096 0.057973176240921020508 0.010022740811109542847 -0.089481994509696960449 -0.10506875813007354736 -0.12551888823509216309 -0.078098237514495849609 -0.036438573151826858521 -0.12734030187129974365 -1.325400990026537329e-05 -0.017773114144802093506 0.087567307054996490479 0.25557252764701843262 0.087938837707042694092 -0.1276267319917678833 0.061222847551107406616 -0.019717602059245109558 -0.021200941875576972961 -0.031623687595129013062 0.14188976585865020752 0.19398172199726104736 -0.095148362219333648682 -0.11665371060371398926 -0.16400824487209320068 -0.070182092487812042236 -0.028185365721583366394 0.0039266534149646759033 -0.045370791107416152954 -0.0312710590660572052 -0.049695055931806564331 -0.062802858650684356689 0.05400562286376953125 0.050595913082361221313 -0.0050886673852801322937 -0.030510002747178077698 -0.045647121965885162354 -0.0063861026428639888763 -0.066821128129959106445 -0.034949976950883865356 0.068104021251201629639 -0.034580707550048828125 -0.032983191311359405518 0.024798883125185966492 0.042544882744550704956 0.097156561911106109619 0.032346799969673156738 0.018306432291865348816 0.098157867789268493652 -0.050773974508047103882 -0.02608460746705532074 -0.23975059390068054199 0.034812103956937789917 -0.071405671536922454834 -0.067716494202613830566 0.039499893784523010254 0.26976227760314941406 0.040875557810068130493 0.0009225070243701338768 -0.019876874983310699463 -0.050868790596723556519 0.0043210168369114398956 -0.02364045754075050354 0.0031390762887895107269 0.17725333571434020996 -0.26795437932014465332 -0.14328460395336151123 

-0.19999422132968902588 -0.3030643761157989502 -0.13983619213104248047 -0.15843319892883300781 -0.30696290731430053711 -0.13580484688282012939 -0.090206921100616455078 -0.24125428497791290283 -0.036524716764688491821 0.016216522082686424255 -0.063755236566066741943 0.028926640748977661133 -0.058759681880474090576 -0.040390085428953170776 -0.089947231113910675049 0.081951037049293518066 0.080544985830783843994 0.030058458447456359863 -0.017915960401296615601 0.049039606004953384399 0.0044962097890675067902 0.20193217694759368896 0.2085297703742980957 0.067699372768402099609 0.0037543948274105787277 -0.17945975065231323242 -0.061723582446575164795 0.068086080253124237061 0.06239638105034828186 0.19232335686683654785 -0.010115903802216053009 -0.045395612716674804688 0.024717735126614570618 -0.19427725672721862793 -0.17637690901756286621 -0.10005067288875579834 -0.025451401248574256897 -0.00018417878891341388226 -0.068499557673931121826 0.028536275029182434082 -0.088691733777523040771 -0.037502966821193695068 0.05851529538631439209 0.079201124608516693115 0.029387421905994415283 -0.01743184216320514679 -0.07146167755126953125 0.064925253391265869141 0.038588564842939376831 0.30766704678535461426 -0.056895185261964797974 0.085207134485244750977 -0.12504525482654571533 -0.0014527526218444108963 -0.03222362324595451355 -0.052450947463512420654 -0.010886310599744319916 -0.038565341383218765259 -0.012797843664884567261 0.034361883997917175293 0.029305184260010719299 0.026376221328973770142 0.054893966764211654663 0.21809595823287963867 0.17986604571342468262 0.18773870170116424561 0.052067358046770095825 -0.047271359711885452271 0.12119836360216140747 0.17017379403114318848 0.11686395108699798584 0.065121985971927642822 -0.093752473592758178711 -0.1160333976149559021 -0.053307518362998962402 -0.041466448456048965454 -0.021562088280916213989 -0.0075815673917531967163 0.071240715682506561279 0.16830419003963470459 0.14146813750267028809 -0.010077120736241340637 0.026338919997215270996 -0.15264856815338134766 0.046283055096864700317 -0.00089617975754663348198 0.063473075628280639648 -0.073518238961696624756 -0.0028747138567268848419 0.048935569822788238525 -0.0047133662737905979156 -0.091389246284961700439 0.056034795939922332764 -0.091714300215244293213 0.055888436734676361084 0.019971042871475219727 -0.042649827897548675537 -0.17272813618183135986 -0.08258473128080368042 -0.025210285559296607971 -0.038347061723470687866 0.004587584175169467926 0.084919616580009460449 0.10031136125326156616 0.10710866749286651611 0.05113210529088973999 0.027324568480253219604 -0.013258442282676696777 -0.0200025215744972229 -0.094269812107086181641 0.08114884793758392334 -0.12497190386056900024 -0.20981296896934509277 0.010930013842880725861 0.20299518108367919922 0.29916736483573913574 0.0053489934653043746948 0.17161783576011657715 0.27863329648971557617 0.17221619188785552979 0.32463669776916503906 0.27108538150787353516 0.33263051509857177734 0.24749952554702758789 0.29108667373657226562 0.21983872354030609131 0.068060807883739471436 0.076833367347717285156 0.027273492887616157532 -0.04085126146674156189 -0.056815709918737411499 -0.038599491119384765625 -0.18950052559375762939 -0.13759326934814453125 -0.058208566159009933472 -0.0092697665095329284668 0.14525562524795532227 0.018381154164671897888 -0.0099171083420515060425 -0.13693052530288696289 -0.0062535526230931282043 -0.053498785942792892456 0.00094301346689462661743 -0.024330122396349906921 -0.079076148569583892822 -0.078864321112632751465 -0.12318839132785797119 0.076900348067283630371 0.018611595034599304199 0.051388431340456008911 0.12907442450523376465 0.10717841982841491699 0.10478553920984268188 0.018708990886807441711 -0.073228940367698669434 -0.083184763789176940918 0.010490665212273597717 -0.097201317548751831055 0.023797830566763877869 -0.048842731863260269165 0.032044265419244766235 0.059995260089635848999 0.018316356465220451355 0.024731563404202461243 0.061952818185091018677 -0.080512732267379760742 -0.038716327399015426636 -0.075468249619007110596 -0.046770140528678894043 -0.035108473151922225952 0.0054757678881287574768 -0.06949720531702041626 -0.019914945587515830994 0.01309004705399274826 -0.063585191965103149414 -0.032184705138206481934 -0.062332473695278167725 0.021231424063444137573 0.042999036610126495361 0.049577545374631881714 -0.019966354593634605408 -0.066411845386028289795 -0.11426036059856414795 0.056804727762937545776 0.067082189023494720459 0.007144656497985124588 0.05386463552713394165 0.032076675444841384888 -0.02210202440619468689 0.010705669410526752472 0.011108540929853916168 -0.031247407197952270508 -0.027709174901247024536 0.023001348599791526794 -0.065400674939155578613 -0.077008672058582305908 -0.093338720500469207764 0.010606689378619194031 -0.12691769003868103027 -0.042076319456100463867 0.0598927326500415802 0.08129682391881942749 0.13325154781341552734 0.068121679127216339111 0.026519449427723884583 -0.011955896392464637756 -0.038088053464889526367 -0.077573411166667938232 0.012649634853005409241 -0.016699798405170440674 -0.11397652328014373779 -0.057381540536880493164 -0.048639692366123199463 0.076641328632831573486 0.02088223583996295929 -0.075333178043365478516 -0.037539128214120864868 -0.032928645610809326172 0.11358699202537536621 -0.11922790855169296265 -0.36285468935966491699 -0.1840798109769821167 0.04682461172342300415 0.0044473358429968357086 -0.013096664100885391235 -0.011781831271946430206 0.00010096305049955844879 0.050693895667791366577 -0.091413550078868865967 -0.015459720976650714874 -0.00060226570349186658859 -0.023339901119470596313 0.089915409684181213379 -0.0020759617909789085388 -0.077795341610908508301 -0.023675374686717987061 -0.17899565398693084717 -0.11342691630125045776 -0.020691582933068275452 0.045573588460683822632 -0.38084366917610168457 -0.22885808348655700684 -0.20511141419410705566 0.02935175970196723938 0.040595572441816329956 -0.032559119164943695068 -0.084139660000801086426 -0.031337257474660873413 -0.15622359514236450195 -0.035437170416116714478 0.055079977959394454956 0.078725688159465789795 0.014970151707530021667 -0.024652134627103805542 -0.0077373292297124862671 -0.041520573198795318604 -0.05958928912878036499 -0.056190077215433120728 -0.059123806655406951904 -0.03209374845027923584 -0.0024557712022215127945 0.042758062481880187988 0.016092766076326370239 0.032454583793878555298 0.019739052280783653259 0.034898113459348678589 -0.017778428271412849426 -0.080752775073051452637 -0.083745054900646209717 -0.11393859982490539551 0.077089577913284301758 0.059332583099603652954 0.077105805277824401855 0.0011019739322364330292 -0.032539959996938705444 0.014448823407292366028 -0.056111738085746765137 -0.012055019848048686981 -0.020102845504879951477 -0.015471044927835464478 -0.064402811229228973389 -0.0085929185152053833008 -0.032574620097875595093 0.093085810542106628418 0.075904347002506256104 -0.017027512192726135254 0.0084997611120343208313 0.010072666220366954803 0.051338676363229751587 -0.12075928598642349243 -0.052655227482318878174 0.15818469226360321045 0.16242666542530059814 0.085150480270385742188 -0.029828175902366638184 0.086906217038631439209 0.081301860511302947998 0.092954650521278381348 -0.27150860428810119629 -0.14666375517845153809 -0.017161821946501731873 0.26547062397003173828 -0.066747106611728668213 -0.047577355057001113892 -0.12562076747417449951 0.11412886530160903931 0.16989223659038543701 0.034115128219127655029 -0.028033740818500518799 0.18900159001350402832 0.12374684959650039673 0.15524572134017944336 -0.080948539078235626221 -0.049085624516010284424 0.11005266755819320679 0.0301055125892162323 0.025198532268404960632 0.099206633865833282471 -0.058598957955837249756 -0.090381182730197906494 -0.13821674883365631104 -0.033125884830951690674 -0.013481123372912406921 0.018059177324175834656 0.1424255073070526123 -0.013312601484358310699 0.020529441535472869873 -0.083982475101947784424 -0.10700245201587677002 -0.050662890076637268066 0.060320399701595306396 -0.10259920358657836914 -0.044231615960597991943 0.0095399925485253334045 -0.049378268420696258545 -0.035069476813077926636 -0.067486539483070373535 -0.18818597495555877686 -0.14915631711483001709 -0.31571847200393676758 -0.1699746549129486084 -0.20622679591178894043 0.022817835211753845215 -0.014363841153681278229 -0.089312665164470672607 -0.041541643440723419189 -0.010915618389844894409 -0.040769714862108230591 -0.088804587721824645996 -0.0056214514188468456268 -0.050805214792490005493 0.047929722815752029419 -0.004113825969398021698 0.056409873068332672119 -0.09418983757495880127 -0.14451371133327484131 -0.042423527687788009644 -0.019631836563348770142 0.0097374618053436279297 -0.03906925395131111145 -0.050135869532823562622 -0.046039957553148269653 -0.044763438403606414795 -0.09373041987419128418 -0.012174454517662525177 0.021069426089525222778 0.041024781763553619385 0.15820252895355224609 -0.014144785702228546143 0.20439055562019348145 0.21172720193862915039 0.17252950370311737061 0.088315755128860473633 0.11912037432193756104 0.039198145270347595215 -0.24203816056251525879 -0.18059219419956207275 -0.28083130717277526855 0.15310053527355194092 -0.16280533373355865479 0.060665886849164962769 0.093817539513111114502 0.10566478222608566284 -0.042888645082712173462 -0.12567353248596191406 0.11967040598392486572 0.054718457162380218506 -0.069864697754383087158 -0.059861309826374053955 -0.12196170538663864136 -0.11530257761478424072 0.02086604386568069458 -0.057366557419300079346 0.13837283849716186523 0.18651448190212249756 0.14127339422702789307 0.14050731062889099121 0.14866916835308074951 -0.05918236076831817627 -0.069701693952083587646 0.098321147263050079346 -0.10799223929643630981 -0.060264114290475845337 0.094865530729293823242 0.06057219579815864563 0.098924331367015838623 0.089869894087314605713 -0.014530088752508163452 -0.12932358682155609131 -0.1472253948450088501 -0.033299915492534637451 -0.036925148218870162964 -0.091315194964408874512 0.018665038049221038818 -0.028064068406820297241 -0.019005475565791130066 0.075559467077255249023 -0.087102800607681274414 -0.095000125467777252197 -0.064037866890430450439 -0.024801908060908317566 -0.07532857358455657959 -0.029794553294777870178 -0.01690893806517124176 -0.036076597869396209717 -0.00857112836092710495 -0.028756327927112579346 -0.092020004987716674805 -0.056531820446252822876 0.082294821739196777344 0.062377654016017913818 0.055034503340721130371 -0.17375414073467254639 0.012137592770159244537 0.059405937790870666504 0.032762348651885986328 -0.01596855558454990387 0.010526490397751331329 0.15307317674160003662 0.061858855187892913818 0.033436477184295654297 -0.10521143674850463867 0.043380908668041229248 -0.063696056604385375977 -0.059608437120914459229 -0.036244288086891174316 -0.00013984020915813744068 0.097754895687103271484 0.080637462437152862549 0.019543653354048728943 0.10297271609306335449 0.13901938498020172119 0.1316970139741897583 -0.11309774965047836304 -0.15073505043983459473 -0.17244715988636016846 -0.10943619906902313232 -0.060829538851976394653 -0.26274892687797546387 -0.019691610708832740784 0.016130750998854637146 0.053774647414684295654 -0.12645074725151062012 -0.015628095716238021851 0.048976734280586242676 0.036024492233991622925 -0.0012289036531001329422 -0.034574743360280990601 -0.042289704084396362305 0.031099041923880577087 -0.011312950402498245239 -0.020698048174381256104 0.084779106080532073975 -0.058879233896732330322 -0.0016360698500648140907 0.1144572719931602478 -0.021123746410012245178 0.023179559037089347839 -0.14776280522346496582 -0.088899940252304077148 -0.013737447559833526611 0.082383014261722564697 0.0061528715305030345917 0.036527216434478759766 0.069064371287822723389 0.046830810606479644775 -0.0072343829087913036346 -0.082732759416103363037 0.31243395805358886719 -0.28013160824775695801 -0.19799669086933135986 -0.29265826940536499023 0.24739378690719604492 0.10263802111148834229 -0.2467041015625 0.031087931245565414429 0.12155321985483169556 -0.053684879094362258911 -0.078604683279991149902 -0.077479898929595947266 -0.033519335091114044189 -0.087267063558101654053 0.019260603934526443481 -0.11985564976930618286 -0.045103941112756729126 0.09202721714973449707 0.094012886285781860352 0.040293436497449874878 -0.31933474540710449219 -0.026776337996125221252 0.031028589233756065369 -0.33247783780097961426 -0.1873995363712310791 0.029158068820834159851 -0.039004709571599960327 0.043131593614816665649 0.16528372466564178467 0.3423570096492767334 0.13437436521053314209 0.027033489197492599487 -0.06753088533878326416 0.095876581966876983643 -0.15583212673664093018 0.070265986025333404541 0.26509976387023925781 0.22198812663555145264 0.34677615761756896973 0.17573073506355285645 0.13966801762580871582 -0.20627160370349884033 -0.11657086014747619629 0.036085363477468490601 -0.086584232747554779053 0.021604523062705993652 -0.016594914719462394714 0.047197710722684860229 0.092725105583667755127 -0.0066973944194614887238 0.06692781299352645874 0.095666289329528808594 -0.057456452399492263794 0.13135132193565368652 0.17308677732944488525 -0.19433933496475219727 -0.39620149135589599609 -0.079551361501216888428 0.12785780429840087891 -0.029708556830883026123 -0.04783657565712928772 0.090984225273132324219 0.10303688794374465942 -0.057313885539770126343 0.042617365717887878418 0.024823579937219619751 -0.069478675723075866699 -0.022380525246262550354 0.042815953493118286133 0.065258368849754333496 0.047533452510833740234 -0.13306494057178497314 0.018296910449862480164 -0.16488353908061981201 0.072857886552810668945 -0.10265628993511199951 0.036306422203779220581 -0.078158803284168243408 0.088054627180099487305 -0.052676741033792495728 0.067763663828372955322 -0.12744323909282684326 0.14712540805339813232 -0.26568534970283508301 -0.045994665473699569702 -0.061859779059886932373 0.14240895211696624756 -0.028478460386395454407 

-0.037516519427299499512 -0.030531048774719238281 -0.024492267519235610962 0.062958739697933197021 0.027122469618916511536 -0.007320361211895942688 0.003244969760999083519 -0.015699470415711402893 -0.081874586641788482666 -0.29489588737487792969 -0.47644785046577453613 -0.40422481298446655273 -0.15773464739322662354 -0.4352550804615020752 -0.38700032234191894531 0.25955712795257568359 0.067032739520072937012 0.044482000172138214111 0.2206738591194152832 0.066056817770004272461 0.0091659491881728172302 0.22666800022125244141 0.11469826847314834595 0.069792926311492919922 -0.023576606065034866333 -0.057976223528385162354 -0.17721205949783325195 0.06709524989128112793 0.032637417316436767578 0.12671165168285369873 0.043385192751884460449 0.021778451278805732727 0.07403424382209777832 0.14163692295551300049 -0.045718684792518615723 0.12669701874256134033 -0.31013354659080505371 -0.3512795567512512207 -0.25959536433219909668 -0.20592916011810302734 -0.17953221499919891357 -0.32729122042655944824 0.10460300743579864502 -0.046945489943027496338 -0.13276265561580657959 -0.095369763672351837158 -0.14687164127826690674 0.3812796473503112793 0.18723364174365997314 -0.017904102802276611328 0.29554477334022521973 0.15247143805027008057 0.2604007720947265625 0.11898586899042129517 0.021715687587857246399 0.0027772318571805953979 0.027583656832575798035 0.016091603785753250122 -0.0021722910460084676743 -0.02359985746443271637 -0.043830674141645431519 -0.042088959366083145142 -0.037574179470539093018 0.039975482970476150513 0.047186046838760375977 0.0067315506748855113983 -0.051491789519786834717 -0.081662438809871673584 -0.057748641818761825562 0.0070377830415964126587 -0.0099225742742419242859 -0.0040163337253034114838 0.10931368172168731689 0.11364185810089111328 0.072075456380844116211 0.047285247594118118286 0.076887600123882293701 0.099518977105617523193 0.1909967958927154541 0.085876762866973876953 0.14688006043434143066 -0.17742821574211120605 -0.21515136957168579102 -0.08514474332332611084 -0.22428326308727264404 -0.2219750136137008667 -0.16434569656848907471 -0.059302359819412231445 -0.12831911444664001465 0.0034446932841092348099 0.12687994539737701416 0.31164890527725219727 0.16947604715824127197 0.19272716343402862549 0.081932105123996734619 -0.21128271520137786865 -0.0013671917840838432312 0.22249467670917510986 0.28257247805595397949 -0.11767322570085525513 0.012569492682814598083 0.043491825461387634277 -0.13240452110767364502 -0.031814716756343841553 0.033662710338830947876 -0.073654152452945709229 -0.027087705209851264954 -0.058278605341911315918 0.084781773388385772705 0.044303711503744125366 0.11115154623985290527 -0.032565008848905563354 -0.11261311918497085571 0.080024756491184234619 0.0077162892557680606842 -0.22282649576663970947 -0.048143424093723297119 0.3004373013973236084 0.21329487860202789307 0.018801141530275344849 -0.00010314365499652922153 -0.0053881225176155567169 0.033103656023740768433 -0.14293794333934783936 -0.21338872611522674561 -0.12605243921279907227 0.14272949099540710449 0.15545566380023956299 0.18374738097190856934 0.16224314272403717041 0.30129870772361755371 0.19033086299896240234 0.067290164530277252197 0.071236871182918548584 0.16223505139350891113 -0.24833033978939056396 -0.039227511733770370483 -0.092311777174472808838 -0.076247200369834899902 0.02762784808874130249 -0.021074678748846054077 -0.1440423130989074707 -0.087368130683898925781 -0.19278024137020111084 -0.010613319464027881622 0.2338867485523223877 0.12123752385377883911 0.056307639926671981812 0.058417331427335739136 0.21378320455551147461 0.16126477718353271484 0.26537624001502990723 0.42339652776718139648 0.095891140401363372803 0.093273118138313293457 0.045076318085193634033 0.1380230635404586792 0.024266995489597320557 0.15378293395042419434 0.049673173576593399048 0.077986568212509155273 0.18562835454940795898 -0.10034619271755218506 -0.0084969429299235343933 0.014442967250943183899 -0.053443375974893569946 -0.04322112351655960083 0.083294384181499481201 -0.085076950490474700928 -0.023613503202795982361 0.023655273020267486572 0.049462806433439254761 0.23859807848930358887 0.022240331396460533142 -0.044787876307964324951 -0.23418381810188293457 -0.04277359694242477417 -0.10950526595115661621 -0.0010733912931755185127 0.014430120587348937988 0.13527421653270721436 0.0073225237429141998291 0.21027098596096038818 -0.015124818310141563416 -0.2783374488353729248 0.056829966604709625244 0.11405016481876373291 -0.14940109848976135254 0.032349273562431335449 -0.082592993974685668945 -0.11723200231790542603 -0.1122350543737411499 -0.069647379219532012939 -0.010543234646320343018 -0.10213951021432876587 0.0061073764227330684662 0.032766085118055343628 0.0031708530150353908539 -0.035889416933059692383 0.0051840883679687976837 0.12216675281524658203 0.0038233241066336631775 0.093610726296901702881 0.098657906055450439453 0.005620676092803478241 0.055468551814556121826 0.13965134322643280029 -0.080025665462017059326 0.057299215346574783325 0.057198438793420791626 -0.20266257226467132568 -0.026206972077488899231 0.051127307116985321045 -0.30814889073371887207 -0.082609340548515319824 0.019987694919109344482 -0.16360744833946228027 0.051725279539823532104 -0.20084920525550842285 -0.059508599340915679932 -0.078733704984188079834 -0.031468633562326431274 -0.0084651019424200057983 0.0062572052702307701111 -0.15916608273983001709 -0.12380245327949523926 -0.083317890763282775879 0.34529438614845275879 -0.38646057248115539551 -0.35737657546997070312 0.0058926157653331756592 -0.16828705370426177979 -0.10776897519826889038 0.21148546040058135986 0.024831054732203483582 -0.090782664716243743896 0.029502760618925094604 0.10905510187149047852 -0.064627751708030700684 -0.082801416516304016113 0.098889142274856567383 0.20094315707683563232 0.073628693819046020508 0.062305364757776260376 0.035783905535936355591 0.0013533943565562367439 0.016245152801275253296 -0.0063873934559524059296 -0.14038410782814025879 0.031315796077251434326 -0.0077561833895742893219 -0.11525703966617584229 -0.04882689937949180603 -0.17977443337440490723 0.012660142034292221069 0.19243109226226806641 -0.090685889124870300293 0.0310915336012840271 0.25959569215774536133 0.095918677747249603271 0.052550889551639556885 -0.20276130735874176025 -0.25364160537719726562 -0.14696300029754638672 0.12296899408102035522 -0.18566067516803741455 -0.15446618199348449707 0.054129675030708312988 -0.086726047098636627197 -0.18627205491065979004 -0.2246827930212020874 -0.057131484150886535645 -0.16568633913993835449 -0.27466821670532226562 -0.076985940337181091309 -0.10287345945835113525 -0.25276133418083190918 -0.13370841741561889648 -0.20798175036907196045 0.018007140606641769409 0.061099134385585784912 0.084511674940586090088 0.0078812595456838607788 -0.18017202615737915039 0.031949173659086227417 0.3308582007884979248 0.32770988345146179199 0.24009755253791809082 0.0022258141543716192245 0.062234561890363693237 0.033201932907104492188 0.088290169835090637207 -0.098373301327228546143 0.035991810262203216553 0.18283161520957946777 0.13537731766700744629 -0.0068865595385432243347 -0.11118046194314956665 0.27219405770301818848 0.043469965457916259766 -0.031338211148977279663 -0.12292373925447463989 0.16389362514019012451 0.2155275195837020874 0.12517605721950531006 -0.012322974391281604767 0.073361165821552276611 -0.082842536270618438721 -0.072094224393367767334 0.11558228731155395508 -0.080566830933094024658 -0.25273698568344116211 -0.11248360574245452881 0.027312448248267173767 -0.096320696175098419189 -0.25869351625442504883 -0.012842731550335884094 -0.28713777661323547363 -0.41527986526489257812 -0.31855842471122741699 0.057005666196346282959 0.052480291575193405151 -0.19019782543182373047 -0.22608706355094909668 -0.21468076109886169434 -0.57963961362838745117 -0.22218836843967437744 -0.19039554893970489502 -0.5015951991081237793 -0.30052623152732849121 -0.39024716615676879883 -0.14713431894779205322 -0.022643806412816047668 0.0333288535475730896 0.052295345813035964966 0.041844002902507781982 0.22982573509216308594 0.26083874702453613281 0.15619833767414093018 -0.03953620418906211853 0.11255323886871337891 0.041168395429849624634 0.12998840212821960449 0.2063729017972946167 0.13126562535762786865 0.13406133651733398438 0.29414987564086914062 0.075039856135845184326 0.077548235654830932617 0.1155123487114906311 0.0050930627621710300446 -0.045328300446271896362 -0.14120769500732421875 -0.22431506216526031494 -0.038575325161218643188 -0.51619452238082885742 -0.15019099414348602295 0.033014852553606033325 -0.15179994702339172363 0.12993253767490386963 -0.125417366623878479 -0.17213635146617889404 0.016158763319253921509 -0.094329886138439178467 0.066210173070430755615 0.11315817385911941528 -0.044456917792558670044 -0.17255157232284545898 0.023932805284857749939 0.027133017778396606445 0.033853799104690551758 0.071676872670650482178 0.051364850252866744995 0.096831299364566802979 0.043451089411973953247 -0.0059069660492241382599 0.0031928990501910448074 0.055685367435216903687 0.13557545840740203857 0.037188965827226638794 -0.013858565129339694977 0.075826697051525115967 -0.0033291399013251066208 -0.069872558116912841797 0.094176054000854492188 0.19083236157894134521 0.033129435032606124878 0.00094624661142006516457 0.077022932469844818115 0.067303493618965148926 0.033183261752128601074 0.029922109097242355347 0.022012110799551010132 -0.0049035088159143924713 0.092624947428703308105 0.011310401372611522675 0.11492367088794708252 0.095611393451690673828 -0.14248599112033843994 0.092876464128494262695 0.069093503057956695557 -0.0011365296086296439171 -0.00048073584912344813347 -0.077229969203472137451 0.13234868645668029785 0.045695081353187561035 0.037795029580593109131 -0.020634202286601066589 -0.096306368708610534668 -0.055781722068786621094 0.11784041672945022583 -0.12201350182294845581 0.13498978316783905029 -0.071124590933322906494 -0.13547764718532562256 -0.17679867148399353027 -0.13062405586242675781 -0.18208479881286621094 -0.21040910482406616211 -0.028511656448245048523 0.10972662270069122314 0.042974133044481277466 -0.12050681561231613159 -0.27032509446144104004 -0.44475579261779785156 -0.50234377384185791016 -0.084805451333522796631 -0.30039125680923461914 -0.4496733546257019043 0.16342817246913909912 0.023612322285771369934 -0.018353279680013656616 -0.057565920054912567139 -0.01071614585816860199 0.13627494871616363525 -0.053235519677400588989 -0.081248976290225982666 0.096475467085838317871 0.078102819621562957764 -0.039592619985342025757 -0.0092532355338335037231 0.02071559615433216095 0.0089536812156438827515 -0.38785851001739501953 0.078912846744060516357 -0.29750677943229675293 -0.58407771587371826172 0.16470165550708770752 -0.22597397863864898682 -0.43980455398559570312 -0.0075009567663073539734 -0.045837171375751495361 -0.056370880454778671265 0.057616095989942550659 0.15630431473255157471 0.059680595993995666504 0.028074314817786216736 -0.0074725248850882053375 -0.0022787956986576318741 0.01400076691061258316 0.095461264252662658691 0.0090851429849863052368 -0.062307424843311309814 0.00095750967739149928093 0.04949449002742767334 0.11579643934965133667 0.02859294600784778595 0.067994944751262664795 -0.026010619476437568665 0.15291255712509155273 -0.0051152915693819522858 0.09216900169849395752 0.16252180933952331543 0.10873799771070480347 -0.050672233104705810547 0.064035281538963317871 0.0073561714962124824524 -0.061166308820247650146 -0.11441035568714141846 -0.12529852986335754395 -0.10016265511512756348 -0.073290951550006866455 -0.07393109053373336792 -0.012723939493298530579 0.084163516759872436523 -0.037303771823644638062 -0.16256605088710784912 0.10011567920446395874 0.08178444206714630127 -0.10174795985221862793 0.0016883809585124254227 0.21922670304775238037 0.005342321004718542099 0.13248419761657714844 0.24577628076076507568 0.0090220998972654342651 0.10879965126514434814 0.060332447290420532227 0.043727520853281021118 0.1769733726978302002 0.23928113281726837158 -0.16381844878196716309 0.0063857240602374076843 -0.11321320384740829468 0.091678321361541748047 0.079204566776752471924 -0.086253732442855834961 0.0012970287352800369263 0.034732963889837265015 0.091427914798259735107 -0.0063690813258290290833 0.018561860546469688416 0.10976450145244598389 -0.32113987207412719727 -0.088479332625865936279 -0.18236619234085083008 -0.12647789716720581055 0.037331029772758483887 -0.039645507931709289551 -0.33849439024925231934 -0.1610927283763885498 -0.19794002175331115723 0.033720139414072036743 0.10237415879964828491 0.10260196030139923096 -0.0082380231469869613647 0.084045246243476867676 0.098285973072052001953 -0.05634930729866027832 0.17648150026798248291 -0.086765617132186889648 -0.027775259688496589661 -0.082684740424156188965 0.18669845163822174072 -0.16916356980800628662 -0.026587113738059997559 0.073812156915664672852 0.25061842799186706543 -0.20520500838756561279 0.074418939650058746338 0.19046713411808013916 -0.058970380574464797974 -0.19578252732753753662 0.28611713647842407227 0.048746734857559204102 -0.32667267322540283203 0.12495081126689910889 0.079011827707290649414 0.040593881160020828247 -0.093444049358367919922 -0.30624589323997497559 -0.06955448538064956665 0.07700885087251663208 -0.058361731469631195068 -0.10770846158266067505 -0.12435878068208694458 0.21309897303581237793 0.019641457125544548035 0.040737878531217575073 -0.14307631552219390869 -0.33112573623657226562 -0.10239470750093460083 -0.27925509214401245117 0.043735053390264511108 -0.24402616918087005615 -0.032102327793836593628 0.037308394908905029297 0.091350436210632324219 0.05067130550742149353 0.0096770580857992172241 0.040348801761865615845 0.086191304028034210205 0.013361757621169090271 -0.040761742740869522095 0.029849654063582420349 0.072347454726696014404 

-0.017578264698386192322 -0.11939911544322967529 -0.02607785351574420929 0.0072997636161744594574 0.011869550682604312897 -0.078563407063484191895 -0.028815552592277526855 -0.0022319445852190256119 -0.085556581616401672363 0.014711203053593635559 -0.046095740050077438354 -0.056528627872467041016 -0.0089608151465654373169 -0.036433361470699310303 -0.094073519110679626465 0.109073638916015625 0.027314698323607444763 0.057517029345035552979 0.046129729598760604858 -4.5283264626050367951e-05 -0.048570524901151657104 -0.032748505473136901855 -0.029816523194313049316 -0.049070287495851516724 0.014231202192604541779 -0.013548200018703937531 -0.021547261625528335571 0.030584553256630897522 0.066241919994354248047 0.10722750425338745117 0.06478198617696762085 0.04245395958423614502 0.031295847147703170776 0.034859016537666320801 0.030687987804412841797 -0.021665303036570549011 0.0019287333125248551369 -0.078826367855072021484 -0.086835734546184539795 0.032008789479732513428 -0.064710639417171478271 -0.19599406421184539795 0.11499255895614624023 0.059114616364240646362 -0.053377959877252578735 -0.048209428787231445312 -0.15998032689094543457 -0.060794442892074584961 -0.076578475534915924072 0.090267062187194824219 -0.094756677746772766113 0.027424082159996032715 -0.0090536111965775489807 0.077201545238494873047 -0.038357980549335479736 0.034626401960849761963 0.025289328768849372864 -0.05644115060567855835 -0.029809148982167243958 0.024963598698377609253 -0.0017727443482726812363 0.018983211368322372437 -0.0039006234146654605865 0.018073569983243942261 0.014397765509784221649 -0.056148160248994827271 -0.049288790673017501831 0.012374242767691612244 -0.032975535839796066284 -0.13559092581272125244 -0.11113841086626052856 -0.063919372856616973877 -0.029395630583167076111 0.024392690509557723999 -0.027859058231115341187 0.027364403009414672852 0.05231074988842010498 0.078611142933368682861 -0.07246815413236618042 -0.029715023934841156006 0.019533105194568634033 -0.077260337769985198975 -0.083721175789833068848 -0.075724229216575622559 -0.096000142395496368408 -0.077537454664707183838 -0.080693304538726806641 -0.14791628718376159668 -0.13577546179294586182 -0.13930340111255645752 0.18618160486221313477 0.074092000722885131836 -0.021350290626287460327 0.0059375357814133167267 0.069858670234680175781 0.058139231055974960327 0.044902913272380828857 0.032104894518852233887 0.033470798283815383911 -0.0013891146518290042877 -0.0376624278724193573 -0.0083415973931550979614 -0.065818212926387786865 -0.040265373885631561279 0.032985478639602661133 -0.12392909824848175049 0.01815566234290599823 0.032912969589233398438 0.023529622703790664673 0.057839006185531616211 0.040521007031202316284 0.013666804879903793335 0.0042432057671248912811 0.081966042518615722656 0.036376718431711196899 0.053704589605331420898 0.10702092200517654419 0.033161100000143051147 0.053614836186170578003 0.04088150709867477417 -0.0094993114471435546875 -0.015124233439564704895 -0.041100956499576568604 -0.012717436067759990692 -0.020338563248515129089 -0.069517262279987335205 -0.064906261861324310303 0.1163910403847694397 0.13451857864856719971 0.13377910852432250977 0.18745586276054382324 0.13890661299228668213 0.027489600703120231628 -0.02414203248918056488 -0.02234540693461894989 -0.079110153019428253174 0.02547124028205871582 0.00084373407298699021339 -0.018717430531978607178 0.024636829271912574768 0.096395574510097503662 -0.025969102978706359863 0.10132531076669692993 -0.0013765037292614579201 0.084264837205410003662 0.035709161311388015747 0.13386464118957519531 0.027331130579113960266 -0.012121209874749183655 0.094283528625965118408 0.076809875667095184326 -0.0017190392827615141869 0.13236398994922637939 0.13274216651916503906 -0.04419256746768951416 0.023733200505375862122 0.10021585971117019653 -0.043868403881788253784 0.04217961430549621582 0.07933571934700012207 -0.042550478130578994751 0.026014912873506546021 0.065399467945098876953 0.10451610386371612549 0.089389555156230926514 0.077602215111255645752 0.060495268553495407104 0.08372036367654800415 0.085411891341209411621 0.087410636246204376221 0.077926725149154663086 0.0058328164741396903992 0.0076043759472668170929 0.053863395005464553833 -0.056475564837455749512 -0.064552217721939086914 0.05823472142219543457 -0.055376939475536346436 -0.049211379140615463257 -0.0041067139245569705963 -0.1539043039083480835 -0.10387698560953140259 -0.052436608821153640747 -0.16353018581867218018 -0.26238027215003967285 -0.2662772834300994873 -0.15662188827991485596 -0.14561024308204650879 -0.1414982527494430542 -0.059207562357187271118 -0.16055926680564880371 -0.064944282174110412598 -0.06764341890811920166 -0.010688604786992073059 -0.037437792867422103882 -0.054251015186309814453 -0.059639539569616317749 -0.079636633396148681641 -0.043840643018484115601 -0.06222872808575630188 -0.01615691743791103363 -0.11026943475008010864 -0.11825734376907348633 -0.067699752748012542725 -0.076889112591743469238 -0.13791954517364501953 -0.12235652655363082886 0.042126931250095367432 0.023882992565631866455 -0.020919483155012130737 -0.059321898967027664185 -0.01531369425356388092 -0.055040974169969558716 -0.022068796679377555847 -0.058324676007032394409 0.027235735207796096802 -0.024586768820881843567 0.036262471228837966919 0.016519412398338317871 -0.0068155466578900814056 0.02664630301296710968 0.0090034324675798416138 -0.038615595549345016479 0.035629983991384506226 -0.018302358686923980713 0.084785744547843933105 0.094517208635807037354 -0.013790496625006198883 0.069613695144653320312 0.022270355373620986938 -0.014441339299082756042 0.05542721971869468689 0.037487082183361053467 0.061465937644243240356 0.1211708560585975647 0.093627080321311950684 0.062927380204200744629 0.026023363694548606873 0.013723854906857013702 -0.10163289308547973633 0.076146110892295837402 -0.14685645699501037598 -0.08716316521167755127 0.007759113796055316925 0.021403348073363304138 0.021932579576969146729 0.021164093166589736938 0.011096556670963764191 -0.034003265202045440674 0.015640681609511375427 0.022987032309174537659 -0.01833032071590423584 -0.051400773227214813232 -0.024283403530716896057 0.022446740418672561646 0.021909439936280250549 0.028956634923815727234 0.0063695986755192279816 0.10607220977544784546 0.088651470839977264404 -0.010340973734855651855 -0.015675188973546028137 -0.058763615787029266357 -0.01266034785658121109 -0.20729714632034301758 -0.36295840144157409668 -0.17747598886489868164 -0.088649511337280273438 -0.33770230412483215332 -0.064069457352161407471 -0.31035280227661132812 -0.25815057754516601562 -0.27112784981727600098 -0.29740244150161743164 -0.30508729815483093262 -0.25597718358039855957 -0.43345683813095092773 -0.49287018179893493652 -0.27629330754280090332 0.078624777495861053467 0.051227729767560958862 0.13587146997451782227 -0.14129364490509033203 -0.16747452318668365479 -0.048840552568435668945 0.0055493321269750595093 0.028103956952691078186 0.11718171834945678711 -0.056605793535709381104 -0.08267749100923538208 -0.012157556600868701935 -0.035214066505432128906 0.004541809670627117157 -0.012169909663498401642 -0.044578544795513153076 0.030072631314396858215 0.0019879541359841823578 -0.13591761887073516846 -0.0092618893831968307495 0.0010549239814281463623 -0.017019422724843025208 -0.036163967102766036987 0.039714604616165161133 0.039778426289558410645 0.020094919949769973755 -0.14995576441287994385 0.084068313241004943848 -0.058038797229528427124 -0.045064397156238555908 0.10467849671840667725 -0.0087225008755922317505 -0.063408762216567993164 0.17726558446884155273 0.038814477622509002686 0.040743034332990646362 -0.14058992266654968262 0.052306685596704483032 0.1137477383017539978 -0.07133188098669052124 -0.041390996426343917847 0.026574715971946716309 0.047201592475175857544 -0.087916299700736999512 -0.043109238147735595703 0.070823773741722106934 -0.080494403839111328125 -0.10522885620594024658 0.016586916521191596985 0.025516651570796966553 -0.070345312356948852539 -0.090931504964828491211 0.02151156403124332428 0.10187678784132003784 -0.18311880528926849365 -0.080337628722190856934 -0.029823275282979011536 0.028244569897651672363 0.15998862683773040771 -0.021149536594748497009 0.094811372458934783936 0.090170420706272125244 0.048021942377090454102 -0.28872713446617126465 -0.43308183550834655762 -0.36337310075759887695 -0.29481932520866394043 -0.23257382214069366455 -0.55218648910522460938 -0.1081409454345703125 -0.16620384156703948975 -0.42165169119834899902 0.04676020890474319458 -0.011877779848873615265 -0.054299708455801010132 0.011990857310593128204 -0.018019841983914375305 -0.086323268711566925049 -0.074713073670864105225 -0.044123001396656036377 -0.033637098968029022217 0.038584977388381958008 -0.053629815578460693359 -0.051230441778898239136 0.048807151615619659424 0.039463989436626434326 0.10092951357364654541 0.21272642910480499268 0.0042350189760327339172 0.10679539293050765991 0.040535993874073028564 0.014427137561142444611 0.010314531624317169189 0.017660364508628845215 0.088060081005096435547 0.016280012205243110657 0.04281719401478767395 0.055642891675233840942 0.080119058489799499512 -0.012008762918412685394 0.083959907293319702148 0.048139404505491256714 0.034020192921161651611 0.025229975581169128418 0.01695231907069683075 -0.032732624560594558716 -0.073950208723545074463 0.013115774840116500854 -0.093966059386730194092 0.011789488606154918671 -0.13907618820667266846 0.058546975255012512207 0.13867656886577606201 0.032744921743869781494 0.069940149784088134766 0.11776071041822433472 0.12088715285062789917 -0.13054406642913818359 -0.039508130401372909546 0.026752397418022155762 -0.056375849992036819458 -0.010292458347976207733 0.018652241677045822144 -0.0036828545853495597839 0.068530201911926269531 -0.090097464621067047119 0.064293190836906433105 0.087901577353477478027 -0.072930611670017242432 -0.10355282574892044067 -0.049971077591180801392 -0.029205027967691421509 -0.052934270352125167847 0.0075307441875338554382 0.071035876870155334473 -0.13216058909893035889 -0.058525931090116500854 -0.13046242296695709229 -0.64459246397018432617 -0.26522043347358703613 -0.35968521237373352051 -0.15974849462509155273 0.42239785194396972656 0.42271694540977478027 0.037720534950494766235 -0.044761698693037033081 -0.090304084122180938721 -0.012121266685426235199 -0.04642729833722114563 -0.039705835282802581787 -0.006056762300431728363 -0.020235907286405563354 -0.038826331496238708496 0.094742305576801300049 0.043000247329473495483 0.043287195265293121338 -0.013826891779899597168 0.045953039079904556274 0.020753519609570503235 -0.023125654086470603943 0.038499973714351654053 0.09308328479528427124 -0.21197174489498138428 -0.092916131019592285156 -0.078716330230236053467 -0.20325008034706115723 -0.067816875874996185303 0.22395275533199310303 -0.057587970048189163208 0.083012662827968597412 0.24380110204219818115 -0.013099219650030136108 -0.0098496712744235992432 0.075065955519676208496 0.018247881904244422913 0.048917744308710098267 0.0543783530592918396 0.019629482179880142212 0.053966451436281204224 0.068043291568756103516 0.057306539267301559448 -0.013141986913979053497 -0.054678458720445632935 -0.12658581137657165527 -0.064411170780658721924 -0.026681251823902130127 -0.0015181170310825109482 -0.12332133948802947998 -0.060127690434455871582 0.0030795789789408445358 0.051093380898237228394 -0.029165728017687797546 0.0019929273985326290131 0.0077483826316893100739 0.062823586165904998779 -0.00085684348596259951591 -0.060691025108098983765 0.066741004586219787598 -0.11656592786312103271 -0.097809426486492156982 0.020089566707611083984 -0.046984568238258361816 -0.1116067543625831604 -0.19038090109825134277 0.014199009165167808533 -0.10358965396881103516 -0.13250370323657989502 -0.097323380410671234131 -0.094060525298118591309 0.063635513186454772949 -0.037543732672929763794 0.0088587831705808639526 0.0014249604428187012672 -0.11960746347904205322 -0.034172043204307556152 0.11415170878171920776 0.0095275025814771652222 0.12982362508773803711 -0.043589919805526733398 0.13942500948905944824 0.054618440568447113037 -0.021393299102783203125 0.197797432541847229 0.078261718153953552246 0.0086414925754070281982 -0.10223872214555740356 0.023134630173444747925 0.0075955213978886604309 -0.059684284031391143799 0.0071882936172187328339 -0.068191193044185638428 -0.0025402444880455732346 -0.0059680524282157421112 -0.0068630226887762546539 -0.043175809085369110107 0.086556039750576019287 0.14131522178649902344 -0.042014405131340026855 0.033003900200128555298 0.13154821097850799561 0.073688969016075134277 -0.018152669072151184082 0.051136106252670288086 0.067127257585525512695 -0.041708644479513168335 0.028099428862333297729 0.021032735705375671387 0.089406184852123260498 0.12488429248332977295 0.039313476532697677612 0.030025441199541091919 0.15256369113922119141 -0.058871027082204818726 -0.12001268565654754639 0.15560820698738098145 -0.02389209158718585968 -0.021112201735377311707 0.052825022488832473755 -0.16724395751953125 -0.02009944431483745575 0.024377288296818733215 0.09418608248233795166 -0.05791689455509185791 -0.043005701154470443726 0.01367873605340719223 -0.06402918696403503418 -0.084014676511287689209 0.0096851568669080734253 0.12041123956441879272 0.07738660275936126709 -0.27003392577171325684 -0.16179956495761871338 -0.15556477010250091553 -0.40312522649765014648 -0.088325820863246917725 -0.34988394379615783691 -0.15130309760570526123 -0.08018001168966293335 -0.20455105602741241455 -0.014842926524579524994 -0.064170874655246734619 -0.036972358822822570801 -0.027981080114841461182 0.029414149001240730286 -0.074411243200302124023 -0.12963706254959106445 -0.066337831318378448486 0.012310384772717952728 -0.051197886466979980469 -0.040499113500118255615 0.059133544564247131348 0.036123946309089660645 0.031609334051609039307 0.0013958680210635066032 0.09407921135425567627 0.053238485008478164673 0.025305511429905891418 

0.02027994208037853241 -0.0096124857664108276367 0.039863925427198410034 -0.041078031063079833984 0.042810026556253433228 -0.041330788284540176392 0.0057943696156144142151 0.037756554782390594482 -0.011253737844526767731 0.055477116256952285767 -0.0069354418665170669556 0.094645708799362182617 0.039511226117610931396 -0.17164206504821777344 0.0072832619771361351013 0.010810391046106815338 0.045738074928522109985 0.044600147753953933716 -0.0069602704606950283051 -0.025809554383158683777 -0.047789815813302993774 -0.049927826970815658569 0.13265636563301086426 0.033204995095729827881 0.019186688587069511414 0.019726112484931945801 -0.0025149474386125802994 0.092153072357177734375 0.016199609264731407166 0.074047528207302093506 0.057898975908756256104 -0.14099299907684326172 0.044689767062664031982 0.032095968723297119141 0.047755818814039230347 0.052136391401290893555 0.15845663845539093018 -0.074190378189086914062 0.073482535779476165771 0.14706690609455108643 -0.26691448688507080078 -0.05499571189284324646 0.060138281434774398804 -0.071174949407577514648 0.10518877208232879639 -0.058049120008945465088 0.0088937459513545036316 -0.0029677466955035924911 -0.077441208064556121826 0.044310767203569412231 -0.057148538529872894287 -0.029192317277193069458 0.023764466866850852966 -0.00077729742042720317841 -0.042770668864250183105 -0.021680418401956558228 0.0068253492936491966248 0.013235682621598243713 0.0042635989375412464142 -0.049504920840263366699 0.010643337853252887726 -0.045578084886074066162 -0.036629486829042434692 0.070795521140098571777 0.039725974202156066895 0.051485057920217514038 0.086204670369625091553 -0.08132191002368927002 0.0438386574387550354 0.038444757461547851562 0.0036542676389217376709 -0.024656478315591812134 0.030301749706268310547 0.042777877300977706909 0.020005736500024795532 0.03018349967896938324 0.01187848113477230072 0.025090210139751434326 0.049325104802846908569 0.037273868918418884277 -0.010560957714915275574 0.0097922682762145996094 0.0025954064913094043732 -0.05770050734281539917 -0.018430024385452270508 0.013955092988908290863 -0.057435173541307449341 -0.040323209017515182495 0.014734845608472824097 -0.027755199000239372253 0.047593511641025543213 0.016687657684087753296 -0.065952435135841369629 0.087113969027996063232 0.035720977932214736938 0.0083150099962949752808 0.01128238532692193985 -0.046814721077680587769 -0.050953362137079238892 -0.019900642335414886475 0.11144451051950454712 -0.045084442943334579468 -0.052464362233877182007 0.053629554808139801025 -0.049077149480581283569 -0.057227607816457748413 0.013865072280168533325 0.036925438791513442993 -0.031520374119281768799 -0.013079893775284290314 0.052434973418712615967 -0.029435869306325912476 -0.10207864642143249512 0.025258583948016166687 0.034559603780508041382 -0.044813618063926696777 0.029147354885935783386 0.044343575835227966309 0.085565529763698577881 0.0034302351996302604675 0.032750204205513000488 -0.046394333243370056152 0.034829527139663696289 0.011780313216149806976 -0.0063552055507898330688 0.01313373912125825882 0.042519081383943557739 -0.032687548547983169556 -0.087240129709243774414 0.024832623079419136047 0.03711034730076789856 -0.094469316303730010986 -0.015528930351138114929 -0.10137766599655151367 0.034408070147037506104 -0.051821392029523849487 0.01652736961841583252 -0.016478113830089569092 -0.029081963002681732178 -0.052942324429750442505 -0.015825746580958366394 -0.079563908278942108154 -0.058290727436542510986 -0.014934476464986801147 0.024222770705819129944 -0.030899863690137863159 -0.049062583595514297485 0.014402677305042743683 0.011887460015714168549 -0.037151746451854705811 -0.021376930177211761475 -0.012902579270303249359 -0.033039987087249755859 -0.053101688623428344727 -0.066227376461029052734 -0.0734442099928855896 0.023237382993102073669 0.19381299614906311035 0.1195538938045501709 0.011483030393719673157 0.017110075801610946655 0.024314779788255691528 0.057808980345726013184 0.016847524791955947876 0.031573608517646789551 0.025844007730484008789 -0.039955478161573410034 -0.0012458217097446322441 0.068052060902118682861 0.059075500816106796265 0.053495045751333236694 0.044340811669826507568 0.0063307299278676509857 0.038622394204139709473 0.03304438665509223938 -0.14395308494567871094 -0.043283417820930480957 0.032473180443048477173 -0.022032376378774642944 0.0059504066593945026398 -0.13461822271347045898 -0.00027912334189750254154 0.078547105193138122559 -0.033571053296327590942 -0.080034174025058746338 0.0010961834341287612915 -0.036747656762599945068 -0.025937436148524284363 -0.068312101066112518311 -0.17021472752094268799 0.05035635828971862793 -0.077286861836910247803 -0.06377732008695602417 0.1238554045557975769 0.062431227415800094604 -0.070825554430484771729 -0.082147605717182159424 -0.061581939458847045898 -0.0044115264900028705597 -0.011460187844932079315 -0.024944504722952842712 -0.036339569836854934692 0.035833071917295455933 -0.015432206913828849792 -0.034775901585817337036 -0.016152773052453994751 -0.044554486870765686035 -0.015632098540663719177 0.029519636183977127075 0.063069887459278106689 -0.026201488450169563293 0.08715985715389251709 0.11808119714260101318 0.025295274332165718079 0.060821410268545150757 0.032353464514017105103 -0.05083021894097328186 0.031267903745174407959 0.038560565561056137085 0.042213410139083862305 0.083743639290332794189 -0.035972494632005691528 0.012882157228887081146 0.032836239784955978394 0.0096830260008573532104 0.0095653692260384559631 -0.04069337993860244751 0.028016656637191772461 0.035480029881000518799 -0.050713274627923965454 -0.064357392489910125732 0.086445152759552001953 0.05902810022234916687 -0.0022148587740957736969 -0.012668537907302379608 0.0089353416115045547485 0.012645283713936805725 0.027543755248188972473 -0.37726601958274841309 0.0055358335375785827637 -0.015066271647810935974 0.024303069338202476501 0.018202561885118484497 0.028429854661226272583 -0.043441724032163619995 0.010963364504277706146 0.034427642822265625 -0.035559602081775665283 0.016031779348850250244 0.0068769194185733795166 -0.042473822832107543945 0.0032470196019858121872 0.0020854915492236614227 0.028084279969334602356 0.034740455448627471924 -0.0041747023351490497589 0.16769894957542419434 0.056730926036834716797 0.02337045036256313324 -0.0091550676152110099792 -0.020535657182335853577 0.038839049637317657471 -0.13712379336357116699 0.014535522088408470154 0.03085930459201335907 -0.34350892901420593262 -0.089552842080593109131 0.057642497122287750244 0.017734030261635780334 0.0077572534792125225067 -0.087530195713043212891 0.91204625368118286133 0.074454173445701599121 0.026200328022241592407 0.18261796236038208008 0.21858316659927368164 -0.025752581655979156494 -0.037854846566915512085 -0.017738725990056991577 0.075417242944240570068 0.02377698943018913269 0.11515707522630691528 0.0295637473464012146 -0.16202262043952941895 -0.014314419589936733246 0.046221248805522918701 0.042024552822113037109 0.020922359079122543335 -0.044504854828119277954 -0.063150569796562194824 -0.081571556627750396729 -0.070986010134220123291 -0.13517931103706359863 -0.084398828446865081787 -0.0097453305497765541077 -0.011921770870685577393 -0.0032020029611885547638 -0.0017274431884288787842 -0.019045235589146614075 0.014748337678611278534 0.010857408866286277771 -0.013488817028701305389 0.0089600244536995887756 0.041549071669578552246 -0.033487167209386825562 -0.0097855348140001296997 0.014730065129697322845 0.014849952422082424164 -0.0082323718816041946411 0.029244702309370040894 -0.10962304472923278809 -0.0087688341736793518066 0.025318648666143417358 0.016964789479970932007 0.018949380144476890564 -0.13827584683895111084 -0.026216657832264900208 0.013170064426958560944 0.011019153520464897156 -0.062212701886892318726 -0.0042546307668089866638 0.034313939511775970459 -0.022925218567252159119 -0.039410077035427093506 0.057034932076930999756 -0.044152174144983291626 -0.021474150940775871277 -0.044001117348670959473 0.051935341209173202515 0.072005912661552429199 -0.043370485305786132812 -0.060130484402179718018 0.0031870789825916290283 -0.056108072400093078613 -0.072911687195301055908 -0.14271640777587890625 0.02567232958972454071 0.1117839813232421875 -0.11545224487781524658 -0.039606574922800064087 -0.17783276736736297607 -0.080777227878570556641 0.026046747341752052307 0.014456804841756820679 -0.088139161467552185059 0.027925672009587287903 0.1161408349871635437 -0.16227655112743377686 -0.12373445183038711548 -0.14253059029579162598 -0.16292940080165863037 0.0001483412634115666151 -0.019050806760787963867 -0.012379777617752552032 -0.0439302101731300354 0.011097125709056854248 0.0003079501911997795105 -0.014654565602540969849 -0.0074932039715349674225 0.0072243805043399333954 -0.08624181896448135376 -0.13718773424625396729 -0.11163471639156341553 -0.096337020397186279297 0.025038259103894233704 -0.012201646342873573303 -0.11314498633146286011 -0.12446682155132293701 -0.13881574571132659912 0.023026609793305397034 -0.07080348581075668335 0.036700725555419921875 0.0034529238473623991013 -0.18275630474090576172 -0.020549654960632324219 0.031648118048906326294 -0.035911079496145248413 0.010580902919173240662 0.026386789977550506592 -0.014750401489436626434 -0.0088610462844371795654 -0.02774779684841632843 0.073797568678855895996 0.029746167361736297607 0.0087225381284952163696 -0.011135101318359375 -0.0068709477782249450684 0.0015980418538674712181 -0.014236666262149810791 0.00070600339677184820175 0.044398311525583267212 0.054300379008054733276 -0.065158993005752563477 0.052495308220386505127 0.0069072223268449306488 0.010746730491518974304 -0.036706566810607910156 -0.00048798706848174333572 0.008065871894359588623 0.050668749958276748657 0.083471246063709259033 0.010062684305012226105 0.0061328532174229621887 0.013746810145676136017 -0.049128662794828414917 -0.00066414527827873826027 -0.017587279900908470154 -0.077100284397602081299 -0.043525703251361846924 0.031531810760498046875 0.0009629179839976131916 -0.043049413710832595825 -0.023640733212232589722 0.030807927250862121582 -0.095390498638153076172 0.30416607856750488281 0.068889759480953216553 -0.10977975279092788696 0.46040382981300354004 0.21431627869606018066 0.094283834099769592285 -0.099342994391918182373 0.071965001523494720459 0.14633947610855102539 0.029533866792917251587 0.11276808381080627441 0.031862754374742507935 -0.23681229352951049805 -0.10737036913633346558 0.098440393805503845215 0.005958317779004573822 0.020724868401885032654 -0.019172277301549911499 0.073614932596683502197 0.032923277467489242554 0.037553906440734863281 -0.083548821508884429932 0.0067875026725232601166 -0.0065507646650075912476 0.080316901206970214844 0.023735588416457176208 -0.15899652242660522461 -0.028325689956545829773 -0.14313109219074249268 0.01567850261926651001 0.19315111637115478516 -0.051187176257371902466 0.053992707282304763794 -0.0727939605712890625 -0.070049077272415161133 0.12054503709077835083 -0.094052404165267944336 0.16226190328598022461 0.11947864294052124023 -0.89172857999801635742 -0.089114569127559661865 0.14365048706531524658 0.11140035092830657959 0.092382363975048065186 0.0074336258694529533386 -0.025819910690188407898 -0.014613059349358081818 0.02052902616560459137 -0.058010641485452651978 -0.055276829749345779419 0.021697770804166793823 -0.0057717813178896903992 -0.0043465704657137393951 -0.026138249784708023071 0.019767817109823226929 0.012465044856071472168 -0.034991979598999023438 0.078755207359790802002 -0.00016502285143360495567 -0.032424222677946090698 0.013459121808409690857 -0.011017638258635997772 -0.009004657156765460968 -0.046616967767477035522 -0.0078232362866401672363 -0.0048645627684891223907 0.011934965848922729492 -0.028350649401545524597 -0.04764107242226600647 -0.070541121065616607666 -0.0067447368055582046509 0.044491507112979888916 -0.17152798175811767578 0.029568921774625778198 0.054710462689399719238 -0.025326697155833244324 0.047912880778312683105 0.031888060271739959717 -0.11611489951610565186 -0.055506918579339981079 0.0026811072602868080139 0.059622678905725479126 0.020280132070183753967 -0.040533304214477539062 0.1308241039514541626 -0.073266573250293731689 0.039355572313070297241 -0.028566258028149604797 0.043169990181922912598 -0.0028268382884562015533 -0.0078608859330415725708 -0.029949968680739402771 -0.060254219919443130493 -0.026544729247689247131 0.00030369809246622025967 0.013690322637557983398 0.0017118717078119516373 -0.024350631982088088989 0.028194066137075424194 -0.13406325876712799072 0.030914684757590293884 -0.055149741470813751221 0.12919577956199645996 -0.023036481812596321106 0.024083303287625312805 0.033341523259878158569 0.042018491774797439575 0.00071296072565019130707 0.087937898933887481689 0.027569334954023361206 0.07517563551664352417 0.072947986423969268799 0.086186334490776062012 -0.011103622615337371826 0.045958548784255981445 0.025519244372844696045 -0.092373169958591461182 -0.12502156198024749756 -0.053178355097770690918 0.017719656229019165039 -0.058714684098958969116 -0.10185648500919342041 -0.033923219889402389526 -0.1151202470064163208 -0.082894250750541687012 -0.13029995560646057129 0.08695742487907409668 0.054615713655948638916 -0.16095292568206787109 -0.064493440091609954834 -0.029854776337742805481 -0.10116672515869140625 -0.097174979746341705322 -0.058251257985830307007 -0.057791046798229217529 0.0132343340665102005 0.0060463948175311088562 -0.052579712122678756714 -0.05338766053318977356 0.011733676306903362274 -0.059084564447402954102 -0.055422417819499969482 0.0059034177102148532867 0.00087870185961946845055 -0.032263875007629394531 -0.02898800186812877655 -0.022384932264685630798 -0.024957358837127685547 -0.013603911735117435455 -0.023510592058300971985 0.0087713599205017089844 -0.00074331532232463359833 -0.071951337158679962158 -0.036225154995918273926 -0.077117778360843658447 -0.039663285017013549805 0.062868125736713409424 -0.041671521961688995361 -0.0040507470257580280304 -0.01362173818051815033 0.018137944862246513367 

