0.18736509978771209717 0.18238134682178497314 -0.013382922857999801636 0.049284625798463821411 -0.46009746193885803223 -0.082785308361053466797 -0.063704535365104675293 -0.16038635373115539551 0.13456115126609802246 -0.01571413874626159668 0.017337320372462272644 -0.068511947989463806152 0.038609374314546585083 0.26915138959884643555 -0.33499649167060852051 -0.2178032994270324707 -0.17350237071514129639 0.34924820065498352051 -0.0071376762352883815765 -0.0047579314559698104858 -0.010378472506999969482 -0.003907291218638420105 0.0027211664710193872452 -0.0081427721306681632996 -0.0040598865598440170288 -0.00035436154576018452644 -0.0034221215173602104187 0.0020895008929073810577 -0.004266185220330953598 0.011734051629900932312 0.012045065872371196747 0.012123268097639083862 0.00068570295115932822227 -0.020428629592061042786 0.0088571989908814430237 -0.0023028007708489894867 0.0030622687190771102905 0.012688442133367061615 -0.0040355385281145572662 -0.0090129487216472625732 -0.0057092350907623767853 0.0043602040968835353851 0.021715367212891578674 0.0068256151862442493439 0.0098173562437295913696 -0.048739563673734664917 0.0026914060581475496292 -0.0095691159367561340332 -0.0053085526451468467712 0.14052826166152954102 -0.063055172562599182129 0.0029728359077125787735 0.0099701117724180221558 0.011093974113464355469 -0.00073884765151888132095 0.0043087070807814598083 0.0051634786650538444519 0.0056119384244084358215 0.0045827683061361312866 -0.0062790289521217346191 -0.0018644121009856462479 -0.0030621059704571962357 -0.010836270637810230255 -0.235654488205909729 0.064635001122951507568 -0.060402568429708480835 0.018092477694153785706 0.19295039772987365723 -0.044533167034387588501 0.048326540738344192505 0.056489802896976470947 -0.20403082668781280518 0.035512384027242660522 -0.003769919276237487793 0.033401906490325927734 -0.07652683556079864502 -0.19811275601387023926 -0.03415419161319732666 0.0086208591237664222717 0.074410304427146911621 0.094954438507556915283 -0.023443939164280891418 -0.035942841321229934692 0.0025327198673039674759 0.028319299221038818359 0.033832542598247528076 0.0051813921891152858734 -0.0057880920358002185822 -0.038640189915895462036 -0.029167538508772850037 0.0035493697505444288254 0.073719874024391174316 -0.046769872307777404785 0.031227281317114830017 -0.026808839291334152222 -0.030089523643255233765 0.01709360070526599884 -0.036910012364387512207 0.025599651038646697998 0.017618831247091293335 0.00033215616713277995586 -0.016982391476631164551 0.011598095297813415527 0.065506987273693084717 -0.032672367990016937256 0.0046813162043690681458 -0.015421750955283641815 -0.046742990612983703613 0.20294593274593353271 -0.32525861263275146484 0.089510463178157806396 -0.24827255308628082275 0.21177825331687927246 -0.019059713929891586304 0.015287525951862335205 0.036108359694480895996 -0.0097551690414547920227 -0.0097431810572743415833 -0.017574358731508255005 0.02528178878128528595 0.020170787349343299866 0.0035839588381350040436 0.0097402306273579597473 -0.0063402932137250900269 -0.0016179565573111176491 -0.028584999963641166687 -0.051803398877382278442 -0.053090538829565048218 0.016895992681384086609 0.0030986370984464883804 0.10812310129404067993 0.012735857628285884857 0.0065205497667193412781 -0.024627752602100372314 -0.061723995953798294067 -0.038433670997619628906 0.26044616103172302246 0.10923169553279876709 -0.27576845884323120117 -0.11573769152164459229 -0.28893998265266418457 0.18831352889537811279 0.016566514968872070312 0.020536810159683227539 -0.14486932754516601562 0.097803607583045959473 -0.0079378290101885795593 -0.087210185825824737549 0.21851579844951629639 -0.088668771088123321533 -0.0063044084236025810242 0.075435437262058258057 -0.085128165781497955322 -0.31096801161766052246 0.20924723148345947266 0.092887803912162780762 -0.091368235647678375244 0.75024563074111938477 -0.63549447059631347656 -0.13565926253795623779 -0.06992972642183303833 0.11928801238536834717 -0.0016783142928034067154 -0.0037276286166161298752 0.00089206564007326960564 -0.00066883047111332416534 -0.0046260743401944637299 -0.00051564275054261088371 0.018478659912943840027 0.0076983021572232246399 0.0038751303218305110931 -0.037019152194261550903 -0.004673188086599111557 0.005918774288147687912 -0.011871829628944396973 -0.0094221644103527069092 0.0036446510348469018936 0.015653444454073905945 0.008162716403603553772 0.00897036772221326828 0.0075734211131930351257 -0.013235783204436302185 0.0015562182525172829628 -0.0024936967529356479645 -0.0084975818172097206116 0.0028526503592729568481 -0.015546542592346668243 -0.0026739099994301795959 0.0064571169205009937286 0.028837148100137710571 -0.018905343487858772278 0.0078482525423169136047 -0.034898955374956130981 -0.025623586028814315796 -0.039706766605377197266 0.02892885357141494751 0.020674547180533409119 -0.00067783228587359189987 0.025818128138780593872 -0.027114760130643844604 0.0015490696532651782036 0.01375658717006444931 0.0077182776294648647308 0.017600793391466140747 -0.0054232468828558921814 -0.0030977723654359579086 -0.033905703574419021606 0.0026301555335521697998 -0.00631556706503033638 -0.0021546024363487958908 -0.0090523976832628250122 -0.0044783833436667919159 -0.0082256505265831947327 0.0077113416045904159546 -0.0086909849196672439575 -0.0092316363006830215454 -0.045630447566509246826 0.001969475066289305687 -0.00076857215026393532753 0.041864752769470214844 0.075718767940998077393 0.026281282305717468262 -0.022654924541711807251 -0.035645123571157455444 -0.049955468624830245972 -0.18899136781692504883 -0.094494655728340148926 0.076017327606678009033 0.079636529088020324707 0.26958647370338439941 -0.092008300125598907471 0.044476367533206939697 -0.2294111102819442749 -0.074079267680644989014 0.0033518495038151741028 -0.024506183341145515442 0.025459723547101020813 0.012975112535059452057 -0.029435249045491218567 -0.013013558462262153625 0.0108071938157081604 0.008503890596330165863 0.0051611415110528469086 0.085208274424076080322 -0.026551989838480949402 0.057391215115785598755 0.046055350452661514282 -0.070889003574848175049 -0.00035026695695705711842 -0.033263802528381347656 -0.03548917919397354126 -0.016223024576902389526 -0.075683645904064178467 -0.011504139751195907593 0.06089010089635848999 0.011221017688512802124 0.069143988192081451416 0.014967769384384155273 -0.014935135841369628906 -0.014909775927662849426 -0.047487203031778335571 0.0055180564522743225098 0.0077197700738906860352 0.0057607912458479404449 5.7287543313577771187e-05 0.0070314933545887470245 0.0080834450200200080872 0.0038926887791603803635 -0.0021345848217606544495 0.011782041750848293304 -0.067832812666893005371 -0.015843681991100311279 -0.0005375372711569070816 -0.13133303821086883545 0.073530696332454681396 -0.0013582886895164847374 -0.075870200991630554199 0.20753955841064453125 -0.082955889403820037842 -0.34483045339584350586 -0.024416482076048851013 0.019192041829228401184 0.0067954864352941513062 0.56182789802551269531 -0.071098349988460540771 0.31494790315628051758 -0.5386587977409362793 0.037480793893337249756 

0.0099920844659209251404 -0.0020299579482525587082 -0.0045894975773990154266 -0.016322905197739601135 0.0064404853619635105133 -0.0051134834066033363342 0.010233708657324314117 -0.012239566072821617126 0.012170992791652679443 -0.016068635508418083191 0.017894459888339042664 -0.00055174547014757990837 0.0022164762485772371292 0.031627587974071502686 -0.022072244435548782349 -0.011667537502944469452 0.0010305732721462845802 0.0022528315894305706024 -0.05966412276029586792 0.2883167564868927002 0.016277784481644630432 -0.013777413405478000641 -0.35249865055084228516 0.86174571514129638672 -0.034524925053119659424 -0.38093549013137817383 0.036877937614917755127 0.011823513545095920563 0.034483443945646286011 0.019851660355925559998 -0.019946085289120674133 -0.13179461658000946045 0.0040781302377581596375 -0.0094873141497373580933 0.063375070691108703613 0.012183046899735927582 -0.014041353017091751099 -0.060052160173654556274 -0.0041277878917753696442 -0.0068643400445580482483 -0.063164308667182922363 0.00095990957925096154213 0.017103806138038635254 -0.043138645589351654053 0.0068554091267287731171 -0.059122093021869659424 -0.089011676609516143799 0.040968354791402816772 0.040507864207029342651 0.0012310271849855780602 0.016895677894353866577 0.0099268527701497077942 -0.082474522292613983154 -0.038294501602649688721 -0.021474946290254592896 -0.0046282960101962089539 -0.00067459890851750969887 -0.037663094699382781982 -0.037917807698249816895 0.0050785685889422893524 0.062010914087295532227 0.68951326608657836914 -0.062286756932735443115 -0.0059043546207249164581 -0.014378204010426998138 -0.020594134926795959473 0.069526933133602142334 -0.047460019588470458984 0.0012109229573979973793 -0.0049897371791303157806 -0.010757687501609325409 -0.021489840000867843628 -0.00063366134418174624443 0.020615922287106513977 0.23183543980121612549 -0.0074221682734787464142 0.02005804888904094696 -0.040801823139190673828 -0.05287012830376625061 -0.00027881533605977892876 -0.060422614216804504395 -0.00095953064737841486931 -0.0061295288614928722382 0.0034324768930673599243 -0.008582765236496925354 -0.0028641694225370883942 -0.0009246581466868519783 0.010585837066173553467 0.0087581267580389976501 0.0035718937870115041733 -0.024851299822330474854 0.14848023653030395508 0.077635556459426879883 0.02795811183750629425 0.13053186237812042236 0.091027885675430297852 -0.0084802769124507904053 -0.041321940720081329346 -0.037209864705801010132 -0.06432934105396270752 0.00053097784984856843948 -0.032365679740905761719 0.03904836997389793396 0.10075021535158157349 0.017187904566526412964 0.055150501430034637451 0.085341736674308776855 -0.013947498053312301636 -0.013270341791212558746 -0.021234216168522834778 -0.004063281230628490448 0.022069640457630157471 0.0091951405629515647888 0.0083234952762722969055 -0.0043378691188991069794 0.01070357300341129303 -0.00035395534359849989414 -0.009045624174177646637 -0.0057051447220146656036 0.077483467757701873779 -0.022277042269706726074 -0.031038252636790275574 0.0051753488369286060333 0.015914380550384521484 0.006760629359632730484 -0.027558146044611930847 0.03342011570930480957 0.011975134722888469696 0.069396831095218658447 -0.0069135711528360843658 -0.23146177828311920166 -0.014694738201797008514 0.0043523828499019145966 -0.10877420753240585327 -0.062130343168973922729 -0.0010890671983361244202 0.012334634549915790558 -0.0068963426165282726288 -0.029980499297380447388 -0.019483378157019615173 0.022684756666421890259 0.027647983282804489136 0.0076746996492147445679 -0.013810130767524242401 -0.0034080545883625745773 0.0063868556171655654907 -0.0049350881017744541168 -0.0061726532876491546631 0.02347412891685962677 0.00072356482269242405891 -0.027303289622068405151 0.0070128510706126689911 0.0085379881784319877625 -0.025966849178075790405 0.064420826733112335205 -0.0029556958470493555069 -0.0034687016159296035767 -0.028784943744540214539 -0.0060693700797855854034 0.020307904109358787537 -0.023340953513979911804 0.0094828344881534576416 0.01739750988781452179 0.00051030708709731698036 0.0085170585662126541138 -0.015327703207731246948 0.14898696541786193848 0.0035581276752054691315 0.017200466245412826538 0.02402025274932384491 0.016350217163562774658 0.015900723636150360107 0.039218161255121231079 -0.019427753984928131104 -0.0022342363372445106506 0.026345163583755493164 0.0078710056841373443604 -0.085210919380187988281 0.04346993565559387207 -0.035145737230777740479 -0.022747464478015899658 -0.0076084760949015617371 0.0097563248127698898315 0.042699802666902542114 -0.35422864556312561035 -0.073527537286281585693 -0.089184239506721496582 0.0027901169378310441971 -0.0031346785835921764374 -0.030068757012486457825 -0.041717331856489181519 -0.019291084259748458862 -0.024330517277121543884 -0.087765149772167205811 -0.017402891069650650024 0.022220937535166740417 0.037415072321891784668 0.087836839258670806885 0.0055284514091908931732 0.012002725154161453247 0.025262592360377311707 0.01769815199077129364 0.0081807291135191917419 0.0045217499136924743652 -0.020174896344542503357 0.035652726888656616211 -0.037467308342456817627 0.00031608957215212285519 -0.006527205929160118103 0.01919351331889629364 0.0069177108816802501678 0.0063749598339200019836 0.069290362298488616943 0.0062158750370144844055 0.0020968092139810323715 -0.0024008261971175670624 -0.017808675765991210938 0.095105990767478942871 0.41767701506614685059 -0.057294204831123352051 0.069542795419692993164 -0.0097621483728289604187 0.0054118447005748748779 -0.001297386479564011097 0.02375380881130695343 -0.0159204825758934021 0.033403694629669189453 -0.00043519088649190962315 0.0077871498651802539825 -0.0034189557190984487534 -0.0031775501556694507599 0.009442872367799282074 -0.023663142696022987366 -0.0059542935341596603394 -0.015552543103694915771 -0.00041981108370237052441 -0.0095474142581224441528 -0.013596822507679462433 0.057199090719223022461 -0.026409449055790901184 -0.021154778078198432922 0.052864007651805877686 -0.019571773707866668701 0.037528451532125473022 9.9943259556312114e-05 -0.010733893141150474548 -0.077210910618305206299 0.074594348669052124023 -0.072985157370567321777 -0.0045201159082353115082 0.032004170119762420654 -0.01204824540764093399 -0.018070394173264503479 0.078065380454063415527 0.077877379953861236572 0.020499750971794128418 -0.11916720122098922729 0.19326832890510559082 0.054375000298023223877 -0.036046303808689117432 0.0207546968013048172 0.0050702444277703762054 -0.036259032785892486572 0.0058827134780585765839 0.32670506834983825684 0.052432522177696228027 0.013888759538531303406 -0.0095590222626924514771 -0.0038753454573452472687 0.0047340514138340950012 -0.0042487662285566329956 0.026047207415103912354 -0.011774132959544658661 -0.020642945542931556702 0.044115412980318069458 -0.0182237233966588974 0.018941324204206466675 -0.046461254358291625977 0.010800822637975215912 -0.015016463585197925568 -0.0047309314832091331482 -0.0040986910462379455566 0.015542124398052692413 0.01563013903796672821 -0.010262424126267433167 -0.015599234029650688171 0.0056523839011788368225 0.01940228976309299469 

-0.0032502806279808282852 0.039406448602676391602 0.09328737109899520874 -0.028269041329622268677 0.12556357681751251221 0.089634031057357788086 -0.0068650715984404087067 0.05845406651496887207 0.01296976674348115921 0.031101675704121589661 -0.058621954172849655151 0.070596575736999511719 0.014326559379696846008 0.11348105967044830322 0.067359261214733123779 0.12609665095806121826 0.15391428768634796143 -0.025501294061541557312 -0.0047338651493191719055 -0.0065695010125637054443 -0.0071165473200380802155 0.0029483651742339134216 0.0045156506821513175964 0.0085760578513145446777 0.010310916230082511902 0.012970891781151294708 0.0066104815341532230377 0.0041130566969513893127 0.0077859549783170223236 0.0052943923510611057281 0.014582986012101173401 0.01740294136106967926 0.0094622597098350524902 0.0048163612373173236847 0.013897971250116825104 0.010726041160523891449 -0.004052290692925453186 -0.0050952616147696971893 -0.00036716327304020524025 -0.0070029795169830322266 -0.0074776220135390758514 -0.0050046918913722038269 0.0023894191253930330276 -0.004550673067569732666 -0.0036829002201557159424 0.011402696371078491211 0.0072104614228010177612 0.001084034796804189682 -0.017648795619606971741 0.033560998737812042236 0.0022992431186139583588 -0.037102237343788146973 -0.027031851932406425476 -0.010042557492852210999 0.0017257265280932188034 0.0057097948156297206879 0.0040720668621361255646 0.0019800001755356788635 0.0060421330854296684265 0.0016919359331950545311 0.005839204881340265274 0.008709777146577835083 0.0031325109302997589111 0.0030228039249777793884 0.012810362502932548523 0.042802527546882629395 0.052397646009922027588 0.091037519276142120361 0.033322345465421676636 0.032224271446466445923 0.036498136818408966064 0.023714998736977577209 0.014106607064604759216 -0.0052060424350202083588 -0.010190152563154697418 0.0070277913473546504974 -0.012064459733664989471 -0.0046340054832398891449 0.005101086106151342392 0.0012309500016272068024 -0.0094540361315011978149 -0.0051279743202030658722 0.014375014230608940125 0.0022166792768985033035 -0.0097125042229890823364 0.01911280117928981781 0.033709872514009475708 -0.0082743456587195396423 0.031551398336887359619 0.0030649430118501186371 0.00072408979758620262146 0.014490876346826553345 0.023125756531953811646 -0.032656949013471603394 -0.0055855661630630493164 0.002246408490464091301 0.00015268677088897675276 0.011475054547190666199 0.00073229172267019748688 -0.0038053689058870077133 0.0018680441426113247871 0.0087857060134410858154 -0.017642380669713020325 -0.0014691955875605344772 -0.0049607963301241397858 0.00090368359815329313278 0.018194084987044334412 0.0075581329874694347382 0.030230641365051269531 -0.018465999513864517212 0.072406813502311706543 -0.064393505454063415527 0.18646891415119171143 0.10713466256856918335 0.030240459367632865906 0.073619462549686431885 0.0092750480398535728455 -0.017934150993824005127 -0.014505982398986816406 -0.0041345427744090557098 0.010131225921213626862 0.01134192291647195816 -0.025470586493611335754 -0.0096663804724812507629 0.0091472445055842399597 0.019626667723059654236 0.014080340974032878876 -0.0082598542794585227966 -0.0048203170299530029297 -0.00081975426292046904564 -0.0016735353274270892143 0.0027816276997327804565 -0.012853618711233139038 -0.0095757097005844116211 -0.0073162298649549484253 -0.0046583898365497589111 -0.01578661799430847168 0.070189863443374633789 0.0032746077049523591995 0.087478473782539367676 0.10527489334344863892 -0.016360405832529067993 0.095927245914936065674 0.024679727852344512939 -0.015319935046136379242 -0.00078317354200407862663 0.019258411601185798645 0.028027579188346862793 0.069809928536415100098 0.016310278326272964478 0.032948676496744155884 0.02823136746883392334 0.025697452947497367859 0.053697723895311355591 -0.14886461198329925537 0.13651943206787109375 -0.027443705126643180847 0.20980480313301086426 0.071019925177097320557 0.047833390533924102783 0.16217631101608276367 -0.014666041359305381775 0.0030402005650103092194 0.0042215101420879364014 0.0067659080959856510162 -0.00038274464895948767662 -0.0021310043521225452423 0.0024024059530347585678 0.0013543985551223158836 0.0056274281814694404602 0.00077765644527971744537 0.0049522183835506439209 -0.0074589964933693408966 0.011047907173633575439 0.001552253146655857563 -0.0011814330937340855598 -0.0012979879975318908691 -0.012012012302875518799 0.0037460245657712221146 0.0066629289649426937103 -0.00087753840489313006401 -0.0017959774704650044441 0.0055231181904673576355 -0.0058375829830765724182 0.0012332827318459749222 0.0022464981302618980408 -0.0076130074448883533478 0.00010586476855678483844 0.0080947242677211761475 0.012878279201686382294 0.0060076583176851272583 0.0026672289241105318069 -0.00099737977143377065659 0.014995499514043331146 -0.008857725188136100769 0.0069724745117127895355 -0.013131457380950450897 -0.014936536550521850586 0.0039724051021039485931 -0.0268382243812084198 0.012214557267725467682 -0.014772052876651287079 -0.01193625573068857193 -0.031235078349709510803 0.0054870583117008209229 0.0014708142261952161789 -0.0062168431468307971954 0.0041707814671099185944 0.0060304575599730014801 0.0070437276735901832581 0.0055777886882424354553 0.0099528860300779342651 0.0093596475198864936829 0.0067007988691329956055 0.0096394224092364311218 0.0023385821841657161713 -0.0096171237528324127197 0.0091136842966079711914 0.003390155034139752388 0.0038198428228497505188 0.006178054027259349823 -0.0060001746751368045807 0.011103367432951927185 0.0091509912163019180298 0.0067041888833045959473 0.00017650648078415542841 -0.027101211249828338623 0.090104036033153533936 0.040036842226982116699 0.15777441859245300293 0.068908080458641052246 0.050742503255605697632 0.21711905300617218018 -0.012249340303242206573 0.0031377144623547792435 0.015250494703650474548 -0.018181676045060157776 -0.012253896333277225494 -0.028331356123089790344 -0.01138879731297492981 0.05025766417384147644 0.0082246148958802223206 -0.042064923793077468872 0.010710777714848518372 -0.036392003297805786133 0.03200531005859375 -0.02764867246150970459 -0.04754846915602684021 0.0034154495224356651306 0.01263232063502073288 -0.026280263438820838928 0.036667257547378540039 -0.0069733760319650173187 -0.029666105285286903381 0.018845822662115097046 -0.023994935676455497742 -0.043572481721639633179 -0.0050774118863046169281 -0.0043912879191339015961 -0.0013722639996558427811 0.034102372825145721436 0.0038012356963008642197 0.0018654864979907870293 0.0096058249473571777344 -0.0038690150249749422073 0.0034862896427512168884 0.011614171788096427917 -0.0031651589088141918182 0.002239397028461098671 0.0079870540648698806763 0.031151156872510910034 -0.026699021458625793457 0.056526996195316314697 0.06008981168270111084 0.19372993707656860352 0.015197473578155040741 0.13281738758087158203 0.15744386613368988037 -0.048168484121561050415 0.038930218666791915894 -0.036589398980140686035 0.0406322479248046875 -0.052707009017467498779 0.10110653936862945557 0.14832763373851776123 0.012615374289453029633 0.13883350789546966553 0.011268740519881248474 

0.0034285155124962329865 -0.022141812369227409363 0.010814737528562545776 -0.011644588783383369446 0.011929342523217201233 -0.0022637785878032445908 0.0084375366568565368652 0.0076903398148715496063 0.00062440946931019425392 -0.00037391911610029637814 0.014819948934018611908 -0.010088268667459487915 0.011608852073550224304 0.0021684502717107534409 0.0041195168159902095795 0.004395104479044675827 0.0030680384952574968338 0.0061246524564921855927 0.022077426314353942871 0.051285594701766967773 0.059043798595666885376 0.070994891226291656494 0.036572925746440887451 0.083623468875885009766 0.071807973086833953857 0.054657950997352600098 0.099729746580123901367 -0.018758833408355712891 0.057052187621593475342 0.010290989652276039124 0.070006452500820159912 -0.014111523516476154327 0.069425798952579498291 0.028859412297606468201 0.057330328971147537231 0.034791141748428344727 0.045697040855884552002 0.10131231695413589478 0.053773969411849975586 0.014689038507640361786 0.063648700714111328125 0.059817727655172348022 0.012857869267463684082 0.012477617710828781128 0.032000981271266937256 0.065018318593502044678 0.020799070596694946289 0.036259751766920089722 -0.10447688400745391846 -0.0093224728479981422424 0.0097562801092863082886 -0.071794532239437103271 0.0191295575350522995 0.031244162470102310181 -0.054700382053852081299 0.019974445924162864685 0.033202607184648513794 0.046750888228416442871 0.099432796239852905273 0.13039024174213409424 -0.0082382308319211006165 -0.13380223512649536133 0.053747113794088363647 0.015560657717287540436 0.0097053544595837593079 -0.048201326280832290649 0.013654882088303565979 -0.022230332717299461365 0.0057914913631975650787 0.02364088594913482666 0.027419133111834526062 -0.005244896281510591507 0.026069378480315208435 -0.0070780045352876186371 -0.047962825745344161987 0.054239217191934585571 -0.034921824932098388672 -0.0084012094885110855103 -0.010579884052276611328 0.022993428632616996765 0.027150794863700866699 0.0034115221351385116577 0.0063236327841877937317 -0.0077862548641860485077 -0.0021474992390722036362 -0.0051551074720919132233 0.016521582379937171936 0.0002939857367891818285 0.0082814879715442657471 0.0066487668082118034363 0.034116350114345550537 -0.0045194490812718868256 0.03153612092137336731 -0.046747095882892608643 -0.034967590123414993286 -0.076502762734889984131 0.01005195174366235733 -0.053327567875385284424 -0.019285837188363075256 0.02532172761857509613 0.093119494616985321045 0.021193452179431915283 -0.055152062326669692993 -0.0042953426018357276917 -0.013446388766169548035 0.030450375750660896301 -0.053900860249996185303 0.0025114666204899549484 0.0066391038708388805389 -0.010564238764345645905 0.01010555122047662735 -0.0085974438115954399109 -0.0067465645261108875275 -0.011899380944669246674 0.01133204437792301178 0.034304477274417877197 0.0048065069131553173065 0.0015742039540782570839 -0.012659153901040554047 -0.03719094395637512207 0.021464228630065917969 0.022142583504319190979 -0.039022415876388549805 0.0053704958409070968628 0.033526871353387832642 -0.0004698126576840877533 -0.019577311351895332336 -0.0014631126541644334793 0.06928615272045135498 0.0235415678471326828 -0.021719593554735183716 0.0062246690504252910614 0.021662520244717597961 -0.023250784724950790405 -0.0012332486221566796303 0.016526840627193450928 -0.00064172124257311224937 -0.0030920633580535650253 -0.02514681592583656311 0.0099050067365169525146 0.0072644581086933612823 0.0074290735647082328796 0.0057808458805084228516 -0.003449443494901061058 0.0017467275029048323631 -0.0041147698648273944855 -0.011596286669373512268 0.0045295632444322109222 0.0047823097556829452515 -0.0072762835770845413208 0.0067522120662033557892 0.0081215817481279373169 0.0029655594844371080399 0.015079756267368793488 -0.010162545368075370789 0.00613576546311378479 -0.014130940660834312439 0.018232410773634910583 0.0021838613320142030716 0.012066019698977470398 -0.018133694306015968323 0.010802238248288631439 0.020576871931552886963 0.093385025858879089355 0.06194044649600982666 0.067364297807216644287 -0.10138011723756790161 0.17264476418495178223 0.025819523259997367859 0.10372896492481231689 0.037011157721281051636 -0.012784372083842754364 0.10552597790956497192 0.0080277277156710624695 -0.030509900301694869995 0.0056631783954799175262 0.019005227833986282349 0.011606550775468349457 -0.01850019209086894989 -0.037368189543485641479 0.011158826760947704315 0.036789044737815856934 0.020303169265389442444 -0.0097490921616554260254 -0.084553487598896026611 -0.052800722420215606689 0.017872244119644165039 0.035044271498918533325 0.061748195439577102661 -0.041744314134120941162 0.011985155753791332245 0.046431176364421844482 0.044102612882852554321 0.0062747942283749580383 -0.0076591991819441318512 -0.0023534290958195924759 0.013013303279876708984 -0.073479883372783660889 0.0032173776999115943909 0.030102781951427459717 0.00208377116359770298 -0.0099633140489459037781 -0.088219374418258666992 -0.011922858655452728271 0.0071195052005350589752 0.0091745974496006965637 0.032055266201496124268 0.034529916942119598389 0.043542396277189254761 -0.022674102336168289185 0.025718098506331443787 0.083958886563777923584 0.0094891516491770744324 -0.0021381876431405544281 0.023098401725292205811 -0.005411951802670955658 -0.00088997150305658578873 0.0022006779909133911133 -0.058904837816953659058 0.0090997526422142982483 0.022156821563839912415 -0.008628216572105884552 0.023791890591382980347 0.01473134942352771759 -0.0035132847260683774948 -0.0051042092964053153992 0.011903404258191585541 -0.0079443771392107009888 0.0038052115123718976974 -0.0038105440326035022736 0.015776664018630981445 0.023345865309238433838 -0.039205379784107208252 0.025169629603624343872 -0.01005238015204668045 -0.00065442849881947040558 -0.016321791335940361023 0.014603562653064727783 0.015728505328297615051 0.046472970396280288696 0.016611924394965171814 -0.09562291949987411499 0.0079015018418431282043 0.020911306142807006836 -0.0035972853656858205795 -0.040231913328170776367 -0.0054498184472322463989 -0.036204349249601364136 0.029556777328252792358 0.019409516826272010803 -0.0051759891211986541748 0.032141827046871185303 0.040013927966356277466 0.0052730157040059566498 0.032432671636343002319 -0.11032236367464065552 0.054054517298936843872 0.096903175115585327148 -0.016769988462328910828 -0.018769184127449989319 -0.038695380091667175293 0.036146763712167739868 0.16855219006538391113 0.1615206301212310791 0.055081836879253387451 0.044552665203809738159 0.075333639979362487793 -0.029746977612376213074 0.09596920013427734375 0.058780614286661148071 -0.00021128593652974814177 -0.0083249304443597793579 0.019605366513133049011 0.025843571871519088745 -0.017267389222979545593 -0.0081729209050536155701 0.031492445617914199829 -0.029720339924097061157 0.020206503570079803467 -0.0019005001522600650787 0.0075037907809019088745 0.0068647768348455429077 -0.015287959948182106018 -0.015799971297383308411 -0.03343930467963218689 -0.0010499343043193221092 0.01581137441098690033 0.032710183411836624146 

-0.039922140538692474365 0.059073377400636672974 0.0019715521484613418579 0.022332118824124336243 0.02209540829062461853 -0.042331788688898086548 0.0051044886931777000427 -0.0022348293568938970566 -0.0052665830589830875397 -0.040658921003341674805 0.045378949493169784546 0.06487579643726348877 -0.012120989151298999786 -0.063824526965618133545 -0.019792720675468444824 -0.019472507759928703308 0.031198311597108840942 0.030880579724907875061 0.0078828716650605201721 -0.012866239063441753387 0.07934223860502243042 -0.011601692065596580505 -0.045410942286252975464 0.074814155697822570801 -0.035793516784906387329 0.01273088064044713974 0.051315087825059890747 -0.096050404012203216553 0.040070373564958572388 -0.034593343734741210938 -0.023114114999771118164 -0.014420398510992527008 -0.007117919623851776123 0.037709116935729980469 0.086650475859642028809 0.084947876632213592529 0.098812535405158996582 0.0031919023022055625916 0.012959032319486141205 0.037546824663877487183 -0.074049025774002075195 -0.089754156768321990967 0.013204090297222137451 -0.071406148374080657959 -0.069330841302871704102 0.057228025048971176147 -0.024481508880853652954 -0.077165372669696807861 0.034204006195068359375 0.020292062312364578247 -0.12815864384174346924 0.089951157569885253906 0.05490250512957572937 -0.059423781931400299072 0.087741889059543609619 0.024783836677670478821 -0.02169842645525932312 0.10476233810186386108 -0.023706948384642601013 -0.048049535602331161499 0.12291075289249420166 -0.021065803244709968567 -0.17293977737426757812 0.053497005254030227661 -0.015059599652886390686 0.013789977878332138062 -0.024155259132385253906 -0.022917885333299636841 0.071530893445014953613 0.0087314452975988388062 -0.036311302334070205688 0.0035273083485662937164 0.0084595168009400367737 -0.068614855408668518066 0.052649807184934616089 -0.028663018718361854553 -0.048538897186517715454 -0.030052307993173599243 0.081502400338649749756 0.017277862876653671265 0.0028177856002002954483 -0.0065874224528670310974 -0.035719592124223709106 0.0052622859366238117218 -0.015536735765635967255 0.068361245095729827881 0.0058639156632125377655 -0.0060994010418653488159 -0.029003601521253585815 0.0079236133024096488953 0.16097711026668548584 -0.017790766432881355286 -0.15474897623062133789 0.084379114210605621338 0.035376269370317459106 -0.073387697339057922363 0.18862922489643096924 0.014508907683193683624 -0.13810998201370239258 0.033657766878604888916 -0.0111189279705286026 -0.024175180122256278992 -0.035747483372688293457 0.06921844184398651123 -0.034105021506547927856 -0.031976453959941864014 -4.6187618863768875599e-05 0.052974034100770950317 -0.08258558809757232666 -0.022830957546830177307 0.031084319576621055603 0.089100822806358337402 0.17793090641498565674 -0.10787332057952880859 -0.0470276661217212677 -0.062291041016578674316 0.039179302752017974854 0.016664044931530952454 -0.05291131138801574707 0.10815224796533584595 -0.014046209864318370819 -0.046410556882619857788 0.022808117792010307312 0.0084169600158929824829 -0.0020516442600637674332 -0.019130948930978775024 -0.031620293855667114258 -0.022468602284789085388 -0.011615320108830928802 -0.017130203545093536377 0.02754008956253528595 0.019570086151361465454 0.010040760040283203125 -0.0066076847724616527557 -0.040092114359140396118 -0.037824079394340515137 -0.079813838005065917969 0.033605657517910003662 0.0053086089901626110077 0.2577864229679107666 -0.11535667628049850464 -0.0062038931064307689667 -0.093030266463756561279 0.047186125069856643677 -0.043090958148241043091 0.045542821288108825684 -0.0034316182136535644531 0.0069319927133619785309 -0.031811680644750595093 0.064974613487720489502 -0.013867664150893688202 0.0055334554053843021393 -0.0066756089217960834503 -0.026768974959850311279 0.0034797498956322669983 0.05695706978440284729 0.01046281866729259491 -0.0055579668842256069183 -0.035740941762924194336 -0.029848886653780937195 -0.0077226459980010986328 0.085412763059139251709 -0.057181656360626220703 -0.066841386258602142334 -0.11834864318370819092 0.088999815285205841064 -0.07780577242374420166 -0.1233048662543296814 0.030742205679416656494 -0.0051715723238885402679 -0.015556730329990386963 0.047534186393022537231 -0.019327158108353614807 -0.00066327949753031134605 -0.035393513739109039307 0.068409338593482971191 -0.023861976340413093567 -0.01645142771303653717 -0.05139508470892906189 0.052244096994400024414 -0.01313374936580657959 0.010566464625298976898 -0.044663302600383758545 -0.0011429692385718226433 0.0075356960296630859375 0.088232457637786865234 -0.0024983040057122707367 0.0013610743917524814606 0.0032135017681866884232 0.0019403549376875162125 -0.01596008986234664917 -0.010658545419573783875 0.0038769526872783899307 -0.015534387901425361633 0.016473183408379554749 0.018040658906102180481 -0.033860191702842712402 0.037383664399385452271 -0.0017637317068874835968 -0.0014041591202840209007 0.040171846747398376465 -0.063562966883182525635 0.0091016432270407676697 0.021611118689179420471 -0.0016140411607921123505 -0.050388425588607788086 0.063193492591381072998 0.066987983882427215576 0.03864782676100730896 0.061002220958471298218 0.032082397490739822388 -0.011900787241756916046 -0.030023675411939620972 0.037273120135068893433 0.029795261099934577942 0.098636128008365631104 -0.00013345337356440722942 0.049327615648508071899 0.00013429601676762104034 0.03941736370325088501 -0.043399885296821594238 0.043202232569456100464 -0.0037458015140146017075 -0.034289728850126266479 -0.0038340026512742042542 -0.036832820624113082886 0.016488447785377502441 0.090807460248470306396 -0.024847114458680152893 0.026413165032863616943 -0.10543259978294372559 0.00034341475111432373524 -0.036052536219358444214 0.10759270936250686646 0.013248886913061141968 -0.0064089265652000904083 -0.013861107639968395233 -0.015157810412347316742 -0.037923887372016906738 -0.0063375532627105712891 -0.028270069509744644165 0.051217216998338699341 0.063391037285327911377 0.036287821829319000244 -0.019267873838543891907 0.0084472503513097763062 0.015505049377679824829 0.00085326982662081718445 0.046228036284446716309 0.023200880736112594604 -0.089757457375526428223 -0.017853369936347007751 0.0013094939058646559715 0.02686041221022605896 0.011835683137178421021 0.0076639628969132900238 0.0054055056534707546234 -0.06580066680908203125 -0.050212420523166656494 0.0099851163104176521301 -0.0099985478445887565613 0.091273687779903411865 -0.025773063302040100098 -0.13249137997627258301 0.053849831223487854004 0.1062539219856262207 -0.22302585840225219727 -0.00070914253592491149902 -0.055035803467035293579 -0.12548871338367462158 -0.014978830702602863312 0.025736194103956222534 0.056694138795137405396 -0.016992436721920967102 0.0027953917160630226135 -0.097400180995464324951 -0.086659826338291168213 0.088955745100975036621 0.060067415237426757812 0.025251381099224090576 -0.029503898695111274719 0.013998748734593391418 -0.062171548604965209961 0.13299712538719177246 -0.036450184881687164307 0.024939918890595436096 -0.0015629037516191601753 -0.028039569035172462463 

-0.26028212904930114746 -0.35049125552177429199 -0.004264493938535451889 -0.24340271949768066406 0.042754460126161575317 0.10658063739538192749 0.053855832666158676147 0.088280320167541503906 0.0048345052637159824371 0.10316798090934753418 -0.23995295166969299316 0.015512659214437007904 -0.0080548748373985290527 0.023492926731705665588 0.079848855733871459961 0.078651055693626403809 0.13174752891063690186 0.079042002558708190918 0.029357358813285827637 0.0060989228077232837677 0.036754168570041656494 0.05452113226056098938 -0.02385373041033744812 0.050735410302877426147 0.057527404278516769409 0.012890974991023540497 0.056689832359552383423 0.0044374405406415462494 -0.0083433119580149650574 0.018428450450301170349 0.020768212154507637024 0.027901886031031608582 0.012452230788767337799 0.024963792413473129272 0.036733563989400863647 0.024246187880635261536 0.0058936281129717826843 0.010242233052849769592 0.00075465225381776690483 0.01327693648636341095 0.012364127673208713531 0.013911700807511806488 0.017573179677128791809 0.0040456410497426986694 0.0096433330327272415161 0.052541878074407577515 -0.0064810286276042461395 -0.031900543719530105591 0.039451893419027328491 0.026659967377781867981 -0.019046321511268615723 -0.0022274649236351251602 -0.015885310247540473938 -0.032483000308275222778 0.005275076255202293396 0.014949422329664230347 0.007016019430011510849 -0.011011392809450626373 -0.0075290603563189506531 -0.014109908603131771088 -0.011121510528028011322 -0.0088820140808820724487 -0.014693175442516803741 -0.070765718817710876465 -0.04119221121072769165 -0.02537398412823677063 -0.028188481926918029785 0.018495075404644012451 -0.038366202265024185181 0.022639306262135505676 0.087057664990425109863 -0.007822536863386631012 0.058975234627723693848 -0.013783999718725681305 0.018324550241231918335 -0.0060143354348838329315 -0.033884629607200622559 -0.0036774813197553157806 0.0092551475390791893005 -0.0047883242368698120117 0.00047683404409326612949 -0.069047965109348297119 -0.098791994154453277588 0.018040217459201812744 -0.061955150216817855835 -0.07111403346061706543 -0.00078201136784628033638 -0.0068692523054778575897 0.062825888395309448242 0.021910058334469795227 0.04054779931902885437 0.055695746093988418579 -0.01978479139506816864 -0.019778722897171974182 -0.022521506994962692261 -0.074060030281543731689 0.00023623477318324148655 -0.020863709971308708191 -0.029268743470311164856 0.020963672548532485962 0.0001200566839543171227 -0.00060432642931118607521 -0.052609033882617950439 -0.0088122719898819923401 0.039186961948871612549 -0.012089280411601066589 0.024007899686694145203 0.01900435425341129303 -0.21864776313304901123 -0.48782995343208312988 0.02823849208652973175 -0.43029174208641052246 0.0081043187528848648071 0.057830601930618286133 0.10296241939067840576 0.14295755326747894287 0.05076929926872253418 -0.021493999287486076355 0.086019642651081085205 0.019743753597140312195 -0.035646829754114151001 -0.051171842962503433228 -0.064661860466003417969 -0.0022439060267060995102 0.018915899097919464111 0.017874112352728843689 0.014941119588911533356 0.00099458906333893537521 -0.022719617933034896851 0.031505595892667770386 0.02636615559458732605 0.00059852498816326260567 -0.010631414130330085754 0.0079639256000518798828 0.017993589863181114197 -0.25215956568717956543 -0.47996178269386291504 0.035643845796585083008 -0.2039934694766998291 -0.01729157567024230957 0.033084813505411148071 0.012359268032014369965 0.11317860335111618042 0.066492959856986999512 -0.040356252342462539673 -0.052818704396486282349 -0.0077680102549493312836 0.022826045751571655273 0.070988133549690246582 0.031819496303796768188 0.02545816078782081604 0.027235170826315879822 0.064142398536205291748 0.1570962369441986084 -0.53410905599594116211 0.06103922426700592041 -0.1431093364953994751 0.12481191009283065796 0.1316973567008972168 0.057660602033138275146 0.16639645397663116455 0.017848776653409004211 0.018839567899703979492 0.031773377209901809692 0.015543037094175815582 0.031400639563798904419 0.024085275828838348389 0.020354855805635452271 0.024996377527713775635 0.030292959883809089661 0.014575781300663948059 0.016659155488014221191 0.031480908393859863281 0.0042671593837440013885 -0.0056451060809195041656 -0.010434214025735855103 0.0063765053637325763702 0.012008958496153354645 0.013834955170750617981 -0.022048499435186386108 0.034681152552366256714 0.00034859319566749036312 -0.0060261264443397521973 -0.0032086209394037723541 0.015104474499821662903 -0.014280522242188453674 -0.0072587155736982822418 -0.0065674944780766963959 0.0010858690366148948669 -0.0025387669447809457779 0.039230458438396453857 0.031108748167753219604 0.021064501255750656128 -0.014646624214947223663 0.0077921077609062194824 -0.013455445878207683563 -0.024814534932374954224 -0.0040276227518916130066 -0.011359401978552341461 0.049979921430349349976 -0.050730392336845397949 0.0088538555428385734558 -0.0046413396485149860382 -0.016792507842183113098 -0.010427587665617465973 -0.02962342090904712677 0.026004333049058914185 0.013713597320020198822 0.015683759003877639771 0.00059317477280274033546 0.0055118566378951072693 0.0037144026719033718109 0.0019399337470531463623 0.012861681170761585236 -0.0057589621283113956451 0.001031693420372903347 -0.028034491464495658875 -0.0092279575765132904053 0.0088440142571926116943 0.0070366454310715198517 0.021132746711373329163 -0.016399964690208435059 0.0020037067588418722153 0.0052679688669741153717 0.0015672865556553006172 0.057810414582490921021 -0.38636893033981323242 0.0065005649812519550323 -0.1205556914210319519 0.062763124704360961914 0.16085991263389587402 0.04664491117000579834 0.21619252860546112061 0.037231020629405975342 -0.011830341070890426636 -0.0013871941482648253441 -0.0091781942173838615417 0.048100560903549194336 0.052326541393995285034 0.024417830631136894226 -0.042330171912908554077 -0.034128639847040176392 -0.010432344861328601837 0.17018418014049530029 0.057472810149192810059 -0.030789108946919441223 0.075573287904262542725 0.045485440641641616821 -0.066075064241886138916 -0.00242799404077231884 -0.11119969934225082397 -0.15946653485298156738 0.0036815749481320381165 0.040145214647054672241 0.036054570227861404419 -0.020440554246306419373 0.014601602219045162201 0.032466214150190353394 -0.00028673507040366530418 -0.019613185897469520569 -0.019339792430400848389 0.018544416874647140503 0.027179410681128501892 0.0080073829740285873413 0.047319024801254272461 0.0029352935962378978729 0.029392844066023826599 -0.017310423776507377625 0.0030418662354350090027 0.02156635187566280365 0.0062695969827473163605 -0.36436247825622558594 0.016834944486618041992 -0.13097169995307922363 0.079098053276538848877 0.099630035459995269775 0.081692799925804138184 0.24645553529262542725 -0.0079889232292771339417 -0.029221467673778533936 -0.41962441802024841309 -0.0019514836603775620461 -0.52710044384002685547 -0.13210585713386535645 0.10494154691696166992 0.088462762534618377686 0.19576816260814666748 0.018107566982507705688 

-0.015022135339677333832 -0.0058800354599952697754 -0.0027430632617324590683 0.02691737934947013855 0.0062975124455988407135 -0.018204208463430404663 -0.0084017412737011909485 0.012382452376186847687 0.016849700361490249634 0.0075357658788561820984 -0.024058019742369651794 0.026474436745047569275 -0.02903698943555355072 0.0088361455127596855164 0.009864501655101776123 0.018936704844236373901 -0.029423955827951431274 -0.00012792297638952732086 0.018311295658349990845 -0.81504094600677490234 -0.0044958731159567832947 -0.046643014997243881226 -0.0061434265226125717163 -0.092437505722045898438 0.054133955389261245728 -2.2930803298950195312 -0.021676490083336830139 0.018701782450079917908 0.038995709270238876343 0.026996007189154624939 0.028865357860922813416 -0.27790662646293640137 -0.017991673201322555542 -0.0016070646233856678009 -0.079766266047954559326 -0.0046796551905572414398 -0.053547125309705734253 -0.018857326358556747437 0.0039836624637246131897 0.008808027021586894989 0.18486608564853668213 -0.023090235888957977295 -0.033019185066223144531 0.0062800277955830097198 -0.017958208918571472168 -0.039270978420972824097 0.046994756907224655151 0.029767032712697982788 0.16762311756610870361 -0.11646854877471923828 0.050231773406267166138 -0.026364298537373542786 0.0014597428962588310242 0.028546787798404693604 -0.006916242651641368866 -0.02083293721079826355 -0.0065117389895021915436 -0.017432974651455879211 -0.053708314895629882812 0.0066698472946882247925 -0.14128166437149047852 0.12885081768035888672 0.097475104033946990967 -0.025247508659958839417 0.010591169819235801697 0.070566453039646148682 -0.069048583507537841797 -0.025009749457240104675 0.14215442538261413574 -0.004875388462096452713 -0.066496528685092926025 0.018296815454959869385 -0.046725906431674957275 -0.097583398222923278809 0.2291094660758972168 -0.05006311461329460144 0.030214823782444000244 0.028445864096283912659 0.012434815056622028351 -0.040152993053197860718 -0.00038356310687959194183 0.012070097029209136963 0.012886721640825271606 0.018342338502407073975 -0.013869289308786392212 -0.0047524776309728622437 -0.024949163198471069336 0.0095770787447690963745 -0.0052484404295682907104 -0.0008402056409977376461 -0.061494279652833938599 0.0036395888309925794601 -0.015448372811079025269 0.042334061115980148315 -0.012431401759386062622 0.054640036076307296753 -0.024536991491913795471 0.015586779452860355377 -0.035405971109867095947 0.061474870890378952026 0.034813739359378814697 0.019750319421291351318 0.021735258400440216064 -0.077757686376571655273 0.022291587665677070618 -0.0056328098289668560028 -0.072460032999515533447 0.039843253791332244873 0.012482063844799995422 0.016274964436888694763 0.0096680792048573493958 0.0016978068742901086807 -0.018677275627851486206 -0.020234618335962295532 0.00026625153259374201298 0.015145075507462024689 -0.0093526756390929222107 0.010731935501098632812 -0.040617585182189941406 0.045662064105272293091 0.040118619799613952637 -0.098227649927139282227 -0.017336120828986167908 0.013069340027868747711 0.025732908397912979126 0.038184575736522674561 -0.0042852582409977912903 -0.16914005577564239502 -0.012342885136604309082 0.02587659098207950592 0.20431278645992279053 -0.037242423743009567261 -0.037127811461687088013 0.06953735649585723877 0.042308293282985687256 -0.0050375564023852348328 -0.026011530309915542603 -0.0088534150272607803345 0.023231519386172294617 0.030181016772985458374 -0.035116828978061676025 -0.0012014755047857761383 -0.0084314998239278793335 0.028259059414267539978 0.019822839647531509399 0.0073990873061120510101 -0.018500102683901786804 0.0012492224341258406639 0.0045013278722763061523 -0.014264657162129878998 -0.0021726072300225496292 0.0049952948465943336487 -0.0060134907253086566925 0.0047463350929319858551 0.010993156582117080688 0.0096899848431348800659 -0.015159855596721172333 -0.0022107195109128952026 -0.019706442952156066895 0.013378185220062732697 -0.023532364517450332642 0.014192401431500911713 -0.042337615042924880981 0.026048120111227035522 -0.05437504500150680542 0.016129760071635246277 0.16822956502437591553 -0.084935240447521209717 -0.064894765615463256836 -0.081809371709823608398 -0.018496857956051826477 -0.047451909631490707397 -0.081860132515430450439 -0.017015507444739341736 -0.044880561530590057373 -0.13525602221488952637 0.040791183710098266602 0.018863895907998085022 0.22231443226337432861 0.060063317418098449707 -0.018077738583087921143 -0.010221477597951889038 0.0037394543178379535675 -0.0315016135573387146 -0.013923642225563526154 0.0070292167365550994873 0.059794720262289047241 0.0082323374226689338684 -0.0034197815693914890289 0.017311226576566696167 -0.052093964070081710815 0.04012516513466835022 0.10536813735961914062 -0.25426009297370910645 -0.0033523968886584043503 0.020778512582182884216 0.025352755561470985413 0.085168443620204925537 -0.01872915215790271759 0.038017764687538146973 -0.0067662983201444149017 0.032114017754793167114 -0.026759037747979164124 0.007814426906406879425 -0.016383357346057891846 -0.0013238143874332308769 -0.027043832466006278992 -0.027642745524644851685 0.0086316317319869995117 0.0078058387152850627899 -0.073999091982841491699 -0.020698718726634979248 0.038755558431148529053 -0.028951218351721763611 -0.024503862485289573669 0.013017900288105010986 0.01342207007110118866 0.1011262163519859314 -0.02195099368691444397 -0.027960119768977165222 -0.043039105832576751709 -0.013163097202777862549 -0.039265803992748260498 0.021546704694628715515 0.019932666793465614319 0.0071319383569061756134 -0.021976463496685028076 0.0066936723887920379639 0.0045811077579855918884 -0.0036419224925339221954 -0.0077194864861667156219 -0.010097737424075603485 0.001026169629767537117 0.0093118008226156234741 -0.017119353637099266052 0.018790306523442268372 -0.022961916401982307434 -0.0094530014321208000183 0.054698534309864044189 -0.0015537280123680830002 -0.015023767948150634766 0.013990215025842189789 -0.0041288915090262889862 0.015918163582682609558 -0.056708138436079025269 -0.035183098167181015015 0.050174128264188766479 0.013082376681268215179 0.061134703457355499268 0.040637277066707611084 -0.074280463159084320068 -0.023904437199234962463 0.002255021827295422554 -0.14471027255058288574 0.04451726377010345459 0.14000837504863739014 0.081764616072177886963 -0.10001093894243240356 0.024070965126156806946 0.076093286275863647461 -0.037794280797243118286 -0.063263252377510070801 -0.0023970238398760557175 -0.061752259731292724609 -0.12252257764339447021 -0.096947088837623596191 -0.060015335679054260254 0.032250776886940002441 0.023464478552341461182 -0.049857240170240402222 -0.012727213092148303986 0.011515451595187187195 -0.010689719580113887787 -0.016152530908584594727 0.031928464770317077637 -0.015730451792478561401 0.0091877458617091178894 -0.029704973101615905762 0.014875546097755432129 -0.0011459856759756803513 0.012428899295628070831 0.017201516777276992798 -0.010194368660449981689 -0.018152138218283653259 -0.029354026541113853455 0.016593689098954200745 0.015760259702801704407 0.010945615358650684357 

-0.0046963468194007873535 -0.048611916601657867432 -0.086616389453411102295 -0.023111796006560325623 0.051547966897487640381 -0.166637420654296875 0.12941065430641174316 0.16601714491844177246 -0.0067609581165015697479 -0.025289975106716156006 -0.045165248215198516846 -0.0018195076845586299896 -0.069830335676670074463 0.060292012989521026611 0.15294660627841949463 0.0058272997848689556122 -0.19306346774101257324 -0.049801405519247055054 -0.018487971276044845581 0.0028923109639436006546 0.0034891667310148477554 -0.012619229033589363098 0.023807926103472709656 0.025783283635973930359 -0.0089477412402629852295 0.028274880722165107727 -0.013373945839703083038 -0.0180176515132188797 0.0012612477876245975494 -0.0095803597941994667053 -0.016725843772292137146 0.003825666382908821106 -0.0081088049337267875671 -0.012594597414135932922 0.011228005401790142059 0.0068153860047459602356 0.0081465542316436767578 0.019540740177035331726 0.010857691057026386261 0.019150612875819206238 0.014630865305662155151 0.012319795787334442139 0.010011321865022182465 0.0035773646086454391479 0.0021712812595069408417 -0.026190055534243583679 -0.036189906299114227295 0.013048134744167327881 -0.023360995575785636902 -0.01372870616614818573 0.02991312369704246521 0.01196894422173500061 0.031855016946792602539 0.037508387118577957153 -0.0071673630736768245697 0.0033475949894636869431 0.0080069070681929588318 -0.013707798905670642853 -0.018699755892157554626 -0.013627469539642333984 -0.00095995818264782428741 0.0069657680578529834747 -0.0039949421770870685577 -0.080578207969665527344 -0.20655126869678497314 -0.15463002026081085205 -0.10113631188869476318 -0.071941547095775604248 0.018263464793562889099 0.047405682504177093506 0.2036199718713760376 0.20284348726272583008 0.025151634588837623596 0.013056932948529720306 0.044780015945434570312 0.023816643282771110535 -0.014193451032042503357 -0.029577044770121574402 0.016856424510478973389 0.0029025704134255647659 -0.039247650653123855591 -0.035541381686925888062 0.083408504724502563477 0.05912418663501739502 -0.46057167649269104004 -0.081033118069171905518 0.15018993616104125977 -0.19102622568607330322 -0.10614293813705444336 0.1356090158224105835 -0.028589906170964241028 -0.0092911021783947944641 -0.0015390113694593310356 -0.010899216867983341217 0.020945472642779350281 -0.020371859893202781677 -0.013436354696750640869 -0.0095731886103749275208 0.016039904206991195679 -0.029782861471176147461 0.00547740887850522995 0.033350288867950439453 -0.059958986937999725342 0.034570779651403427124 0.039033867418766021729 -0.017060477286577224731 -0.031298849731683731079 -0.0073009310290217399597 0.087893031537532806396 -0.070578537881374359131 0.060012716799974441528 -0.26671007275581359863 0.19296103715896606445 -0.21981467306613922119 -0.013217013329267501831 0.025385439395904541016 0.052623022347688674927 0.20773023366928100586 -0.12613458931446075439 -0.30865919589996337891 0.24840587377548217773 -0.093933321535587310791 -0.25270247459411621094 0.16863690316677093506 0.1296192556619644165 -0.011425645090639591217 0.034831061959266662598 0.0039903963916003704071 -0.020956804975867271423 0.06146785244345664978 0.003844548715278506279 -0.045287970453500747681 0.0049230093136429786682 0.034573256969451904297 0.024846455082297325134 -0.0042223148047924041748 -0.14171245694160461426 -0.10699510574340820312 -0.19795304536819458008 0.2749315798282623291 -0.047567833214998245239 0.050449520349502563477 -0.0041610077023506164551 0.028658544644713401794 0.19671504199504852295 0.26500684022903442383 0.12682966887950897217 0.16582977771759033203 -0.086179308593273162842 0.0053414436988532543182 -0.0063688610680401325226 -0.27945953607559204102 -0.28681322932243347168 0.070202603936195373535 -0.25216454267501831055 -0.093626096844673156738 -0.058450050652027130127 0.23332539200782775879 -0.035965405404567718506 0.01998998597264289856 -0.068492151796817779541 -0.012907374650239944458 -0.0020814125891774892807 0.022476755082607269287 0.011292908340692520142 0.015601649880409240723 0.018048606812953948975 0.015565098263323307037 -0.00054233899572864174843 0.011489583179354667664 -0.0011206715134903788567 -0.036295477300882339478 0.0116758737713098526 -0.032085139304399490356 -0.019335705786943435669 0.039275318384170532227 -0.020647486671805381775 -0.0083344951272010803223 0.013557527214288711548 0.028297336772084236145 -0.024802457541227340698 -0.024551251903176307678 -0.022097662091255187988 0.0019890090916305780411 0.012340551242232322693 -0.011598484590649604797 -0.027508182451128959656 -0.0058807735331356525421 0.0042693642899394035339 -0.020822344347834587097 0.006302151363343000412 0.011597207747399806976 -0.0081659108400344848633 -0.010322267189621925354 0.025033412501215934753 0.004140105564147233963 0.026622740551829338074 -0.0087451012805104255676 0.28140243887901306152 0.067634277045726776123 0.066950961947441101074 0.097860246896743774414 -0.20758396387100219727 -0.16415275633335113525 0.13513417541980743408 -0.1331787109375 -0.13681669533252716064 0.0012643761001527309418 0.0069820117205381393433 0.012227730825543403625 0.011902837082743644714 -0.0011729119578376412392 0.0086639672517776489258 0.012802464887499809265 0.0081215929239988327026 -0.0034447086509317159653 -0.023862460628151893616 -0.021449200809001922607 -0.011443346738815307617 -0.0092159966006875038147 -0.003017414826899766922 0.002163869095966219902 0.0032911074813455343246 0.021525068208575248718 0.028647841885685920715 0.12969955801963806152 -0.24417448043823242188 -0.080181330442428588867 -0.047562297433614730835 0.17553500831127166748 0.051544599235057830811 0.075259745121002197266 -0.17729438841342926025 -0.039772607386112213135 0.36353337764739990234 0.19181270897388458252 0.17530536651611328125 0.16270612180233001709 -0.27880072593688964844 -0.12623302638530731201 0.010392479598522186279 -0.34057903289794921875 -0.20275168120861053467 -0.093045160174369812012 0.024601599201560020447 0.030973389744758605957 0.0094404798001050949097 0.089121855795383453369 0.023311804980039596558 -0.0086136171594262123108 -0.036577563732862472534 -0.040605220943689346313 0.01378104090690612793 0.022988231852650642395 0.023763107135891914368 0.040130101144313812256 0.068891733884811401367 -0.0098658185452222824097 0.039296258240938186646 0.00039740363718010485172 -0.072457715868949890137 -0.019941844046115875244 0.0051663792692124843597 0.01606770046055316925 0.0096768941730260848999 0.019242828711867332458 0.012180569581687450409 -0.0023268256336450576782 0.012175188399851322174 0.0067804097197949886322 0.050008025020360946655 -0.23472180962562561035 0.0035548605956137180328 -0.087030068039894104004 0.26199987530708312988 0.0093407034873962402344 0.015934452414512634277 -0.23345625400543212891 0.011109971441328525543 0.016814332455396652222 -0.076462604105472564697 0.15610952675342559814 -0.073599994182586669922 0.19069203734397888184 -0.28685447573661804199 -0.038961753249168395996 -0.011388479731976985931 -0.016159422695636749268 

-0.00042747345287352800369 -0.00026396306930109858513 -0.00024433279759250581264 -0.0063349767588078975677 0.025041520595550537109 0.00073019368574023246765 0.0032092574983835220337 0.0089148906990885734558 -0.00028362779994495213032 -0.00077508622780442237854 0.00020225453772582113743 0.008504237048327922821 0.0093565238639712333679 0.023262858390808105469 0.0043166605755686759949 -0.0036460128612816333771 -0.014819246716797351837 -0.0037399393040686845779 -0.0087176188826560974121 -0.0013433283893391489983 -0.010315117426216602325 -0.012694024480879306793 -0.034765984863042831421 -0.0016800392186269164085 -0.018032062798738479614 -0.0037571419961750507355 -0.012394292280077934265 0.0023516695946455001831 0.00097686448134481906891 0.0082007348537445068359 -2.7546269848244264722e-05 -0.00093344721244648098946 -0.0046793217770755290985 0.0061373324133455753326 -0.0084978761151432991028 -0.0024606094229966402054 -0.0087281828746199607849 -0.0032890043221414089203 -0.011154840700328350067 -0.0019377077696844935417 -0.002878165803849697113 0.00035862979711964726448 -0.0010461170459166169167 -0.0018233612645417451859 0.0023996352683752775192 -0.0045973318628966808319 -0.03087637387216091156 -0.01433995366096496582 -0.042320802807807922363 -0.043775361031293869019 -0.0057249972596764564514 -0.034914150834083557129 0.020945955067873001099 0.015225831419229507446 -0.0051970509812235832214 -0.00068715173983946442604 -0.0030214397702366113663 -0.0069381734356284141541 -0.014684635214507579803 -0.011193046346306800842 0.0012873004889115691185 -0.0061537376604974269867 -0.015903100371360778809 0.031354133039712905884 0.011230000294744968414 -0.0082910507917404174805 0.0013647959567606449127 -0.014776820316910743713 -0.0020937609951943159103 -0.0022703534923493862152 0.0010880125919356942177 -0.017887089401483535767 0.044658076018095016479 0.053592842072248458862 0.037414703518152236938 0.021178910508751869202 0.029672998934984207153 0.066802084445953369141 0.0056541268713772296906 0.011440546251833438873 0.031351909041404724121 0.0020150684285908937454 -0.0027259900234639644623 -0.0022767935879528522491 -0.002299351617693901062 0.0063844933174550533295 0.0030668354593217372894 0.0031061375048011541367 0.0012159850448369979858 -0.0012534061679616570473 0.028681030496954917908 0.04956297948956489563 0.0015227915719151496887 0.043084841221570968628 0.027536576613783836365 -0.013703944161534309387 0.0051627657376229763031 -0.0021701799705624580383 0.0071166791021823883057 0.0038337479345500469208 0.010786962695419788361 0.014263949356973171234 0.0025853740517050027847 -0.00068515661405399441719 0.010876960121095180511 0.0045940293930470943451 0.014947817660868167877 -0.0094258384779095649719 0.0034764204174280166626 -0.0055638868361711502075 0.0037157617043703794479 -0.00023306939692702144384 0.032513335347175598145 0.00067738071084022521973 -0.0011405914556235074997 0.0040360116399824619293 0.0039235763251781463623 0.0091668143868446350098 0.011107373982667922974 -0.0047580720856785774231 0.0074746538884937763214 -0.019102225080132484436 -0.00098644581157714128494 0.0051139947026968002319 0.0042473273351788520813 -0.011226529255509376526 -0.015238366089761257172 -0.00059565238188952207565 0.014074134640395641327 -0.017583195120096206665 -0.010129856877028942108 -0.013808521442115306854 0.0040549291297793388367 0.0088784201070666313171 -0.01306982431560754776 0.014891351573169231415 -0.0060537997633218765259 -0.0027799585368484258652 -0.015404229052364826202 0.028928974643349647522 0.0041325041092932224274 -0.0052020745351910591125 -0.0042396909557282924652 0.0073449695482850074768 -0.00043424210161902010441 0.0037689001765102148056 0.005324319005012512207 0.0027872137725353240967 0.0038068131543695926666 0.015831390395760536194 0.0012427354231476783752 -0.0053662965074181556702 0.0057576857507228851318 -0.0014602338196709752083 0.0044929548166692256927 0.010773531161248683929 -0.00079480797285214066505 0.0055556301958858966827 0.0059099928475916385651 0.0043321759440004825592 -0.0256987009197473526 0.0045543373562395572662 0.0131028713658452034 0.013087365776300430298 0.0042165522463619709015 0.0099378162994980812073 0.0090681845322251319885 0.004170223139226436615 0.011536469683051109314 0.014175857417285442352 0.0093736564740538597107 0.045157808810472488403 0.049965482205152511597 0.034029550850391387939 0.044263716787099838257 0.034345742315053939819 0.023879900574684143066 0.0061610424891114234924 0.0091949226334691047668 0.055659886449575424194 0.0048288893885910511017 0.0020101908594369888306 0.016214570030570030212 -0.0030136709101498126984 0.014415209181606769562 0.016587249934673309326 -0.0026417584158480167389 -0.013525192625820636749 0.0067040557041764259338 0.017141854390501976013 0.021802896633744239807 0.019582092761993408203 0.037510097026824951172 0.032921221107244491577 0.026736712083220481873 0.018507156521081924438 0.015150960534811019897 0.024817708879709243774 0.016304740682244300842 0.0038952049799263477325 0.017777558416128158569 0.001820907113142311573 0.019602896645665168762 0.010811441577970981598 0.012165713123977184296 0.011335030198097229004 0.01808283291757106781 0.0028587931301444768906 -0.0015737129142507910728 0.0028892674017697572708 -0.0040580183267593383789 0.0026079558301717042923 0.0088931825011968612671 0.0014854042092338204384 -0.0044682212173938751221 0.0052554910071194171906 0.013476537540555000305 0.047205474227666854858 0.034239217638969421387 0.043987393379211425781 0.022344123572111129761 0.05313351750373840332 0.02515541762113571167 0.021988391876220703125 0.010580263100564479828 0.0014304405776783823967 -0.0046015488915145397186 0.0087912688031792640686 -0.013777833431959152222 0.038112014532089233398 0.013884118758141994476 -0.0014504806604236364365 -0.033437438309192657471 0.0089909229427576065063 0.0060729137621819972992 -0.0024405992589890956879 0.0036424023564904928207 -0.00038819623296149075031 -0.0072413100861012935638 0.0069931782782077789307 0.0072447936981916427612 0.012911522760987281799 0.0097792623564600944519 0.026071494445204734802 0.021234845742583274841 0.016927339136600494385 0.021747540682554244995 -0.0052050394006073474884 -0.012527017854154109955 0.00060007377760484814644 -0.013910627923905849457 -0.032088484615087509155 0.118959769606590271 0.11582216620445251465 0.096272595226764678955 0.093948274850845336914 0.1638056635856628418 0.08470258861780166626 0.038997210562229156494 0.074567548930644989014 0.063169509172439575195 0.0020985845476388931274 0.0035182484425604343414 0.0056205494329333305359 -0.025501238182187080383 0.016546040773391723633 0.012680469080805778503 0.015645815059542655945 0.0025959433987736701965 0.0087547870352864265442 0.0059026246890425682068 -0.016206681728363037109 0.0078032035380601882935 0.010362505912780761719 0.038441661745309829712 -0.0066347750835120677948 -0.0021287114359438419342 -0.028761191293597221375 0.01139186415821313858 0.0010891483398154377937 -0.0038339497987180948257 0.0058480515144765377045 -0.0038875846657902002335 0.020113265141844749451 0.0035946045536547899246 9.7477241070009768009e-05 0.0041243410669267177582 0.0086727058514952659607 

0.13674373924732208252 0.090288840234279632568 -0.074619434773921966553 0.18446780741214752197 0.083667717874050140381 -0.061930380761623382568 0.037608645856380462646 0.044004291296005249023 0.0030468362383544445038 -0.0078513240441679954529 -0.064381100237369537354 -0.09914509207010269165 -0.13935635983943939209 -0.058027587831020355225 -0.040756639093160629272 -0.046768214553594589233 0.064912013709545135498 0.026770001277327537537 -0.014247502200305461884 -0.0043799257837235927582 0.0083227409049868583679 0.012517854571342468262 0.0082468194887042045593 0.014489397406578063965 -0.010789378546178340912 0.0014864754630252718925 -0.012514957226812839508 -0.0019832323305308818817 0.0026583999861031770706 -0.00071325368480756878853 0.0014457408105954527855 0.010837783105671405792 0.0039265193045139312744 0.0039889449253678321838 0.0009369641193188726902 0.010269127786159515381 0.0067365295253694057465 0.0023309374228119850159 0.0029646540060639381409 0.0016920256894081830978 0.0044315559789538383484 0.0044694570824503898621 0.0018891746876761317253 0.0019026631489396095276 -0.00090435723541304469109 0.024700870737433433533 -0.02456096746027469635 -0.031174661591649055481 0.057589635252952575684 0.01532293856143951416 -0.027704915031790733337 -0.014686607755720615387 0.0052166585810482501984 -0.0023060364183038473129 -0.0024521581362932920456 -0.0045239785686135292053 -0.0034196735359728336334 -0.00073513883398845791817 -0.0036613983102142810822 -0.0029082808177918195724 -0.0042970301583409309387 -0.003675082232803106308 0.011558874510228633881 -0.054077964276075363159 -0.080714531242847442627 -0.082760266959667205811 -0.017706708982586860657 -0.026305060833692550659 -0.02666179463267326355 0.023262806236743927002 -0.056234598159790039062 0.0062687415629625320435 -0.0089973574504256248474 0.042348027229309082031 0.017237583175301551819 -0.025031510740518569946 -0.014014232903718948364 0.016231231391429901123 0.010304835624992847443 0.016368063166737556458 0.00073008530307561159134 0.077076368033885955811 0.044989075511693954468 -0.011838582344353199005 0.04093870893120765686 0.085406519472599029541 -0.0142096690833568573 0.042759757488965988159 0.010590532794594764709 -0.0040814373642206192017 -0.0035521471872925758362 0.0081974901258945465088 0.0074440594762563705444 -0.0069807730615139007568 -0.042623624205589294434 0.036119058728218078613 -0.0051127253100275993347 0.021138243377208709717 0.0069270231761038303375 -0.0027202370110899209976 0.01382151339203119278 0.022748894989490509033 -0.023948367685079574585 -0.019157616421580314636 -0.0040342928841710090637 0.015231489203870296478 0.021879723295569419861 0.0080383215099573135376 0.10752351582050323486 0.04669084399938583374 -0.064852841198444366455 0.25357168912887573242 0.16432572901248931885 -0.060266263782978057861 0.057220838963985443115 0.084685333073139190674 0.030230671167373657227 0.050927437841892242432 -0.076507970690727233887 0.08666715770959854126 0.021779598668217658997 -0.10350564867258071899 -0.089059218764305114746 0.054796446114778518677 -0.0025886122602969408035 0.047323308885097503662 -0.0069693634286522865295 0.0079106092453002929688 0.0067263818345963954926 0.0070637483149766921997 -0.014204101637005805969 0.015347482636570930481 -0.021099453791975975037 -0.011338187381625175476 0.0083212433382868766785 0.1161977425217628479 0.081130966544151306152 -0.042056165635585784912 0.23110488057136535645 0.25849518179893493652 -0.081902384757995605469 0.0032773162238299846649 0.021505311131477355957 0.030016833916306495667 -0.025265533477067947388 -0.025942897424101829529 -0.061515629291534423828 -0.021960331127047538757 -0.041872795671224594116 -0.042827829718589782715 -0.013236663304269313812 0.017227837815880775452 0.0063633141107857227325 0.0046030925586819648743 -0.05893896147608757019 -0.16359828412532806396 -0.047202352434396743774 0.070189096033573150635 -0.073296271264553070068 -0.016381938010454177856 0.029251880943775177002 0.049229234457015991211 0.00093571172328665852547 0.004248186945915222168 0.003991518169641494751 0.002902338048443198204 0.010953263379633426666 -0.00086172338342294096947 0.0035322159528732299805 0.0016566248377785086632 0.001293998444452881813 -0.0064105363562703132629 -0.0076261381618678569794 -0.020399952307343482971 0.010586627759039402008 0.0045599713921546936035 0.01880305074155330658 -0.004391139838844537735 0.01833703555166721344 0.0095375534147024154663 -0.0047255908139050006866 0.0038178374525159597397 -0.0031728108879178762436 0.0089904405176639556885 0.0055296421051025390625 -0.0007665134035050868988 0.012011393904685974121 0.029849547892808914185 0.011156501248478889465 -0.015746787190437316895 0.0021018458064645528793 0.011338883079588413239 -0.026071654632687568665 -0.022317064926028251648 0.014152796007692813873 0.0001472402655053883791 -0.0096148131415247917175 -0.016406910493969917297 -0.017128653824329376221 0.017241084948182106018 0.073863707482814788818 -0.02469128929078578949 0.0017655224073678255081 0.052777506411075592041 -0.028421916067600250244 -0.035425551235675811768 -0.024449151009321212769 0.011536238715052604675 0.014710791409015655518 0.003379443194717168808 0.020229872316122055054 0.021223468706011772156 -0.0067495577968657016754 0.016022535040974617004 0.016668681055307388306 0.0034373037051409482956 0.0027504926547408103943 -0.024443365633487701416 -0.023517781868577003479 0.015508507378399372101 -0.013058339245617389679 -0.024940641596913337708 0.00064001081045717000961 0.0015096795978024601936 0.011478863656520843506 0.022279238328337669373 -0.047249041497707366943 -0.15251711010932922363 -0.053921841084957122803 0.052552025765180587769 -0.086166746914386749268 -0.057411897927522659302 0.060939621180295944214 0.054117530584335327148 -0.061660267412662506104 0.012715077959001064301 0.044211402535438537598 -0.066179953515529632568 0.08678782731294631958 0.10828971117734909058 -0.12772880494594573975 -0.044508196413516998291 0.032816797494888305664 -0.09850963205099105835 -0.086474999785423278809 -0.094890594482421875 -0.022463507950305938721 -0.05350233614444732666 0.012303319759666919708 0.11117436736822128296 0.11811646074056625366 0.10207065194845199585 -0.03569768369197845459 0.034477472305297851562 0.015981851145625114441 -0.031695477664470672607 -0.0030073348898440599442 0.039577413350343704224 -0.031293645501136779785 -0.021083068102598190308 -0.0027514945250004529953 0.010805089958012104034 0.0072611104696989059448 0.0025697336532175540924 0.013809494674205780029 0.0053660380654036998749 0.007281258702278137207 -0.009350299835205078125 -0.006859854329377412796 0.011587942019104957581 0.071042187511920928955 -0.16098482906818389893 -0.082080721855163574219 -0.057238012552261352539 0.11956815421581268311 -0.10834681242704391479 -0.11279529333114624023 0.16540308296680450439 0.026221707463264465332 0.090675115585327148438 0.070839919149875640869 0.01777936890721321106 0.19981212913990020752 0.18489836156368255615 -0.22035261988639831543 0.10046632587909698486 0.12326104938983917236 0.075418263673782348633 

0.015065829269587993622 0.0088575389236211776733 0.0053063286468386650085 -0.058975256979465484619 0.00046931894030421972275 -0.019285719841718673706 -0.0026232961099594831467 -0.027270205318927764893 0.016040151938796043396 0.0062786405906081199646 -0.028196716681122779846 0.028259443119168281555 -0.068397946655750274658 0.047332070767879486084 0.0080518228933215141296 0.10170981287956237793 0.070813640952110290527 -0.057084463536739349365 -0.54733502864837646484 -0.052092522382736206055 -0.067593134939670562744 -0.52477532625198364258 -2.6467916965484619141 -0.11442273855209350586 -0.48489341139793395996 -0.20284490287303924561 -0.076426327228546142578 -0.003561209188774228096 0.047002233564853668213 -0.0080767683684825897217 -0.34559360146522521973 -0.058230705559253692627 -0.010428470559418201447 -0.078604318201541900635 -0.051955133676528930664 -0.043383020907640457153 -0.08731184154748916626 -0.04424052312970161438 -0.014862447977066040039 0.054809127002954483032 0.0082292472943663597107 -0.016786012798547744751 0.012421933934092521667 -0.013040149584412574768 -0.0044635054655373096466 -0.031870845705270767212 -0.061207029968500137329 -0.0094936601817607879639 0.079423137009143829346 0.013062267564237117767 0.056107964366674423218 -0.0056068017147481441498 -0.0090602440759539604187 0.019886774942278862 0.0088651720434427261353 0.0059410519897937774658 -0.0025092882569879293442 0.21455329656600952148 0.084873713552951812744 0.036049012094736099243 0.15019246935844421387 0.082673795521259307861 0.02858936600387096405 0.074018053710460662842 0.052502848207950592041 0.030737476423382759094 -0.021973485127091407776 -0.039278969168663024902 0.025279892608523368835 -0.066476657986640930176 0.033732030540704727173 -0.0042545585893094539642 0.077736355364322662354 -0.11221689730882644653 0.00045364929246716201305 0.038603469729423522949 0.0034840370062738656998 -0.0008720463956706225872 -0.04720954596996307373 -0.004472623579204082489 -0.026307497173547744751 -0.0042877811938524246216 -0.001486453227698802948 0.016079297289252281189 0.060955118387937545776 -0.13961388170719146729 0.023258216679096221924 -0.016577102243900299072 0.0015409468906000256538 0.0061296103522181510925 0.007705559954047203064 -0.0074398834258317947388 0.032508209347724914551 0.079587735235691070557 0.036166954785585403442 0.0017167651094496250153 0.019738694652915000916 0.029669297859072685242 0.046334408223628997803 0.00054885831195861101151 0.0016755312681198120117 0.005834927782416343689 0.0051036039367318153381 0.017590723931789398193 0.015680396929383277893 0.018459230661392211914 0.037811469286680221558 0.048479441553354263306 0.052403770387172698975 0.02371175028383731842 0.0092807626351714134216 -0.11946377158164978027 -0.056929651647806167603 -0.013067114166915416718 0.047285906970500946045 -0.010442817583680152893 0.0059421234764158725739 -0.058746866881847381592 0.39885172247886657715 -0.0065511902794241905212 0.06098521500825881958 0.0016668391181156039238 -0.079794257879257202148 -0.082138188183307647705 -0.0060759102925658226013 -0.047181352972984313965 -0.020334815606474876404 -0.010188067331910133362 -0.03674479946494102478 0.034250646829605102539 -0.0079029770568013191223 -0.025863654911518096924 -0.00133713532704859972 -0.024089090526103973389 -0.042824488133192062378 -0.048573758453130722046 0.0025891396217048168182 -0.02626012265682220459 0.045816060155630111694 -0.060805853456258773804 0.019649801775813102722 -0.0053122350946068763733 0.0041166041046380996704 -0.0056129381991922855377 -0.051859743893146514893 0.022815205156803131104 0.018538445234298706055 0.038469448685646057129 0.019973363727331161499 -0.015863794833421707153 0.04214442521333694458 0.0097810775041580200195 0.022289488464593887329 -0.035242460668087005615 0.015887159854173660278 -0.021382356062531471252 0.0040622241795063018799 0.065531544387340545654 -0.015710614621639251709 0.030770998448133468628 0.054795242846012115479 -0.03339567035436630249 -0.0019351362716406583786 -0.0014617491979151964188 -0.0147042861208319664 0.036299362778663635254 -0.02152038179337978363 -0.020604038611054420471 -0.022462755441665649414 -0.038474291563034057617 -0.017898408696055412292 0.043003559112548828125 -0.0072517776861786842346 0.012992018833756446838 0.0023416408803313970566 0.065567180514335632324 0.050229012966156005859 0.013114726170897483826 -0.027279933914542198181 0.020161038264632225037 0.035998512059450149536 0.035001739859580993652 0.019071066752076148987 0.0083599127829074859619 -0.048614889383316040039 0.021031720563769340515 0.0051478347741067409515 0.06460873037576675415 0.050906695425510406494 -0.03643512725830078125 -0.024571888148784637451 -0.0021025831811130046844 0.0083261299878358840942 0.0057267970405519008636 -0.054795227944850921631 0.026988413184881210327 0.027745455503463745117 -0.037022467702627182007 -0.04997903481125831604 -0.14241458475589752197 0.057150147855281829834 0.46454194188117980957 -0.019347796216607093811 0.03416606411337852478 -0.10568373650312423706 -0.090759500861167907715 -0.072415620088577270508 0.010749268345534801483 -0.031550269573926925659 -0.030265372246503829956 0.013503990136086940765 0.10745630413293838501 -0.02277403511106967926 -0.015237309038639068604 -0.0017024258850142359734 -0.017700541764497756958 0.013441555202007293701 0.022344825789332389832 -0.024805365130305290222 0.067280791699886322021 -0.0043463702313601970673 0.07942937314510345459 -0.010239361785352230072 0.0024394264910370111465 -0.012337964959442615509 0.020356027409434318542 -0.064550995826721191406 0.022622194141149520874 0.0023495366331189870834 0.0099469441920518875122 -0.010100780986249446869 0.087285250425338745117 0.062441464513540267944 -0.04312731325626373291 -0.067350246012210845947 0.0032931307796388864517 -0.039748825132846832275 -0.06761646270751953125 0.021378986537456512451 0.020356535911560058594 0.29097631573677062988 -0.037118125706911087036 -0.055716659873723983765 0.036401100456714630127 0.049511842429637908936 -0.033768240362405776978 -0.066684134304523468018 0.052275575697422027588 0.032270446419715881348 -0.044007405638694763184 0.010571849532425403595 -0.020232750102877616882 -0.01146946195513010025 -0.080226600170135498047 -0.079804308712482452393 -0.014528779312968254089 0.007424656301736831665 0.02182156778872013092 -0.027545593678951263428 0.015736160799860954285 0.025289544835686683655 0.014742274768650531769 -0.014794491231441497803 -0.027089128270745277405 -0.050166793167591094971 -0.032552197575569152832 -0.055765926837921142578 0.034274071455001831055 -0.02453146129846572876 -0.044255286455154418945 -0.029593877494335174561 -0.0050308336503803730011 0.0099460678175091743469 -0.011581844650208950043 -0.01172876451164484024 0.01128798164427280426 0.16305363178253173828 -0.021208928897976875305 -0.033841799944639205933 0.014448232017457485199 0.05075186118483543396 0.044292908161878585815 -0.028302222490310668945 -0.098805837333202362061 -0.048426430672407150269 0.023766171187162399292 0.001184772467240691185 -0.013573330827057361603 

0.0099221915006637573242 0.028364522382616996765 -0.0059338328428566455841 0.011969047598540782928 -0.042182464152574539185 -0.017696743831038475037 -0.00285609392449259758 0.013182686641812324524 -0.00049356895033270120621 -0.014202323742210865021 -0.030758626759052276611 0.011290022172033786774 0.010118021629750728607 -0.056560270488262176514 0.025901516899466514587 0.017005559056997299194 -0.00063783448422327637672 0.026714703068137168884 0.017781045287847518921 -2.1950366497039794922 0.030903184786438941956 -0.036069594323635101318 -9.748737284098751843e-06 -2.2995586395263671875 -0.04124183952808380127 -1.240288853645324707 0.080598160624504089355 0.041969489306211471558 0.097904182970523834229 -0.0047049419954419136047 0.012101305648684501648 -0.22676806151866912842 0.03384043276309967041 -0.038045577704906463623 -0.030696582049131393433 -0.027134066447615623474 -0.042291298508644104004 -0.11079795658588409424 0.0025433988776057958603 0.013217992149293422699 -0.041204474866390228271 -0.02764797210693359375 -0.00058299553347751498222 -0.020004926249384880066 -0.012959427200257778168 -0.057805258780717849731 -0.11193389445543289185 0.037324737757444381714 0.077428855001926422119 -0.024902474135160446167 -0.012511909008026123047 0.10209684073925018311 0.011533972807228565216 -0.044240109622478485107 -0.018181681632995605469 -0.038120765239000320435 -0.017205568030476570129 0.0017420959193259477615 0.021777119487524032593 -0.025583755224943161011 -0.11528009176254272461 0.092108748853206634521 0.067720077931880950928 0.0076271505095064640045 -0.050940144807100296021 0.0098410015925765037537 0.065923422574996948242 0.0029997196979820728302 -0.041825816035270690918 -0.022878305986523628235 0.040663350373506546021 -0.015636622905731201172 -0.007593392394483089447 0.04965462908148765564 0.23800860345363616943 -0.0091163022443652153015 -0.00095077109290286898613 -0.13239449262619018555 -0.014671566896140575409 0.025930223986506462097 -0.071306586265563964844 -0.0058806287124752998352 0.0024691058788448572159 -0.0049230121076107025146 0.016270162537693977356 -0.019319366663694381714 0.00017406725964974611998 -0.012528928928077220917 0.0085247755050659179688 0.010085840709507465363 -0.064443185925483703613 0.087483920156955718994 0.024606656283140182495 -0.0042121768929064273834 0.031534560024738311768 0.016869055107235908508 0.015194255858659744263 -0.038441255688667297363 -0.022569892928004264832 -0.097434870898723602295 -0.033538393676280975342 -0.021662721410393714905 0.077411815524101257324 0.16752827167510986328 -0.02026188187301158905 0.028597107157111167908 -0.032772444188594818115 -0.04386911541223526001 0.025857845321297645569 0.010970681905746459961 0.016564467921853065491 -0.01135000959038734436 -0.032813645899295806885 -0.032172311097383499146 0.0046344823203980922699 0.0043929601088166236877 0.00063319614855572581291 0.0068096490576863288879 0.017150701954960823059 -0.055525477975606918335 0.0059059998020529747009 0.0045460835099220275879 0.045834161341190338135 -0.017774626612663269043 0.013135760091245174408 -0.018144598230719566345 0.12934172153472900391 0.065077580511569976807 0.085251636803150177002 0.029670763760805130005 -0.22732870280742645264 -0.056582909077405929565 0.030562626197934150696 -0.084345735609531402588 0.045252986252307891846 -0.010043906047940254211 -0.026466170325875282288 0.0028328471817076206207 0.033129286020994186401 0.027464894577860832214 -0.016858892515301704407 -0.0080048032104969024658 -0.006863194052129983902 -0.0039508291520178318024 -0.0083569046109914779663 0.016083529219031333923 0.012537564150989055634 -0.0058917626738548278809 -0.018110601231455802917 0.0043911840766668319702 0.012640111148357391357 -0.0048401509411633014679 0.010168895125389099121 0.047739490866661071777 -0.083898730576038360596 0.013882542029023170471 -0.0055717080831527709961 0.010475876741111278534 -0.0020627430640161037445 0.0062601715326309204102 0.0024633463472127914429 0.010807966813445091248 -0.054745011031627655029 0.040005736052989959717 -0.030859315767884254456 -0.033642537891864776611 0.23153676092624664307 -0.054019819945096969604 -0.080948278307914733887 -0.09214045107364654541 -0.08135776221752166748 0.041287779808044433594 -0.017932763323187828064 0.0081170871853828430176 -0.037238709628582000732 0.15854962170124053955 -0.019014727324247360229 0.060999955981969833374 -0.10881825536489486694 -0.048944503068923950195 -0.029210083186626434326 -0.0057735438458621501923 -0.012202444486320018768 -0.02123953402042388916 -0.15222667157649993896 0.10392897576093673706 0.072650671005249023438 0.052648942917585372925 0.030750475823879241943 0.073302164673805236816 0.053962860256433486938 0.018821194767951965332 -0.008082759566605091095 -0.027167851105332374573 0.0065750288777053356171 -0.013214732520282268524 0.0032633282244205474854 -0.0018631659913808107376 -5.5193399020936340094e-05 0.012231798842549324036 -0.0033689013216644525528 7.1570830186828970909e-06 -0.036234870553016662598 0.0033369036391377449036 0.036859583109617233276 -0.012411423027515411377 0.037806555628776550293 -0.030494600534439086914 0.027390399947762489319 -0.010392826050519943237 -0.076953023672103881836 -0.041280522942543029785 0.040681429207324981689 -0.047652222216129302979 -0.011911018751561641693 0.009974719025194644928 -0.073289655148983001709 0.0098425112664699554443 0.2509136497974395752 -0.03454693034291267395 0.0023476274218410253525 -0.015261635184288024902 -0.028438152745366096497 -0.054710626602172851562 -0.010783538222312927246 0.033885437995195388794 -0.075844123959541320801 -0.0030354624614119529724 -0.0049207489937543869019 0.027941072359681129456 -0.01264341454952955246 -0.018057581037282943726 0.032874953001737594604 0.0090912831947207450867 -0.00062109337886795401573 0.019452456384897232056 -0.00064431887585669755936 -0.0052063572220504283905 -0.021981529891490936279 0.0048939255066215991974 0.033941064029932022095 -0.038003075867891311646 0.018938815221190452576 0.0079927323386073112488 0.024033272638916969299 -0.054427705705165863037 -0.094117410480976104736 0.13830254971981048584 -0.03948089107871055603 0.0040018102154135704041 0.020401105284690856934 -0.0087293265387415885925 -0.053657233715057373047 0.17819252610206604004 0.017300207167863845825 0.076175384223461151123 -0.15481184422969818115 0.065854586660861968994 0.027477920055389404297 -0.11358248442411422729 0.0043875193223357200623 -0.048205643892288208008 0.04653887823224067688 -0.055988840758800506592 0.021102201193571090698 -0.10321849584579467773 -0.072203464806079864502 0.019563164561986923218 0.022891163825988769531 -0.081352442502975463867 0.040231581777334213257 -0.10137043893337249756 0.015829116106033325195 -0.0033899792470037937164 -0.009573545306921005249 0.037143949419260025024 -0.032106228172779083252 0.056508075445890426636 -0.014090291224420070648 0.032418336719274520874 -0.0034354624804109334946 0.034923732280731201172 -0.034839671105146408081 0.005639054812490940094 -0.034854035824537277222 0.024281140416860580444 -0.026115003973245620728 -0.0036889226175844669342 

-0.0010663809953257441521 0.070330277085304260254 -0.034209623932838439941 0.0079955244436860084534 -0.013857776299118995667 -0.015183622017502784729 -0.010030077770352363586 0.022744474932551383972 0.037685520946979522705 0.016028495505452156067 0.027379885315895080566 -0.035070318728685379028 -0.023133290931582450867 -0.46181818842887878418 0.047324594110250473022 0.024214252829551696777 -0.074112825095653533936 0.022202828899025917053 0.030019933357834815979 -0.012431303970515727997 0.03774781152606010437 0.10293745249509811401 0.10513190925121307373 0.053406056016683578491 0.060457199811935424805 0.066547684371471405029 0.046211645007133483887 0.008345753885805606842 0.08808085322380065918 -0.0795327797532081604 -0.024255027994513511658 0.069498606026172637939 0.092815645039081573486 -0.032069139182567596436 -0.059729505330324172974 -0.00053972640307620167732 0.014508571475744247437 0.056363180279731750488 0.036151252686977386475 0.0028473765123635530472 -0.044207882136106491089 -0.01840624585747718811 0.026521533727645874023 -0.01599831506609916687 -0.0080472994595766067505 0.039871685206890106201 0.052747234702110290527 0.063890017569065093994 -0.090198025107383728027 0.012715221382677555084 -0.093070179224014282227 0.033979233354330062866 -0.041701093316078186035 0.0031517627649009227753 0.15294884145259857178 -0.032710071653127670288 0.17069971561431884766 -0.017203520983457565308 0.12729558348655700684 -0.2088889777660369873 -0.0005174418911337852478 0.092812336981296539307 0.071943752467632293701 -0.0091650998219847679138 -0.060707032680511474609 -0.061733197420835494995 -0.032270811498165130615 -0.012799262069165706635 -0.024097193032503128052 -0.03558252379298210144 -0.017571382224559783936 0.02155938372015953064 -0.022927060723304748535 -0.019971355795860290527 0.10372374206781387329 0.063194476068019866943 -0.089616432785987854004 0.029223747551441192627 0.042295109480619430542 -0.058755408972501754761 -0.032153159379959106445 0.028902031481266021729 0.035317029803991317749 -0.025121398270130157471 -0.01629029400646686554 0.0032501269597560167313 0.035552147775888442993 0.01354436483234167099 -0.021150417625904083252 0.0048525524325668811798 -0.012814008630812168121 0.057650249451398849487 0.017710907384753227234 -0.082283109426498413086 0.0041746045462787151337 -0.00061711197486147284508 -0.055082559585571289062 -0.036344479769468307495 -0.13382454216480255127 0.075118407607078552246 0.081969946622848510742 0.01829085126519203186 -0.084060274064540863037 -0.13712462782859802246 -0.064155250787734985352 -0.0024267693515866994858 0.078763186931610107422 -0.020418012514710426331 0.032895907759666442871 0.015831803902983665466 -0.0032756151631474494934 -0.0028270070906728506088 -0.04810376092791557312 0.042927496135234832764 -0.01772946678102016449 0.041713498532772064209 -0.017834696918725967407 0.00079517834819853305817 0.15591265261173248291 0.084510244429111480713 0.015194728970527648926 -0.0972021445631980896 -0.070784032344818115234 0.039071261882781982422 -0.087246559560298919678 -0.10122846812009811401 0.053901236504316329956 -0.00050019891932606697083 0.019769582897424697876 -0.030704203993082046509 0.00071690615732222795486 -0.00063250504899770021439 0.0072510354220867156982 0.037970405071973800659 0.0040320293046534061432 -0.030016817152500152588 0.068121090531349182129 0.058226298540830612183 0.0031778851989656686783 -0.072918809950351715088 -0.0056648617610335350037 0.061638060957193374634 0.022793581709265708923 -0.022118540480732917786 0.053710173815488815308 -0.051765751093626022339 0.043862193822860717773 -0.052889030426740646362 -0.15525829792022705078 -0.010091924108564853668 -0.0084785455837845802307 -0.024553313851356506348 -0.013059983029961585999 0.06302175670862197876 -0.18915349245071411133 0.080230973660945892334 0.13568903505802154541 -0.58397704362869262695 -0.026208808645606040955 0.041205208748579025269 -0.010901797562837600708 0.012043517082929611206 0.046356063336133956909 0.21265934407711029053 -0.022906279191374778748 0.01590650901198387146 -0.0063903513364493846893 0.045649461448192596436 0.013172620907425880432 -0.12516470253467559814 -0.094629302620887756348 0.047203727066516876221 0.039457708597183227539 0.047697626054286956787 0.057724393904209136963 -0.11178710311651229858 -0.063752889633178710938 -0.03653448447585105896 -0.0012279624352231621742 -0.046364948153495788574 0.084015704691410064697 -0.1061035841703414917 0.024376431480050086975 0.022451976314187049866 -0.025908015668392181396 -0.016276814043521881104 0.033274520188570022583 -0.044582519680261611938 0.0021016877144575119019 -0.01286059059202671051 0.0090118451043963432312 0.032131120562553405762 -0.02313043549656867981 -0.038285084068775177002 -0.071535475552082061768 0.04136233404278755188 0.006588339339941740036 0.12029197812080383301 0.10734642297029495239 0.13404610753059387207 0.090870223939418792725 0.02271996624767780304 0.030238460749387741089 -0.048917870968580245972 -0.10697140544652938843 -0.14816066622734069824 -0.11263024806976318359 0.028212286531925201416 0.026469975709915161133 0.059517916291952133179 0.093844577670097351074 -0.064601920545101165771 -0.027822146192193031311 0.032955043017864227295 -0.060420326888561248779 -0.0060522169806063175201 0.025181921198964118958 -0.0026075432542711496353 0.099479109048843383789 -0.025318715721368789673 0.033873844891786575317 -0.027234869077801704407 -0.071517854928970336914 -0.015252584591507911682 -0.002138732466846704483 0.027277735993266105652 -0.065595649182796478271 0.046452004462480545044 0.1631927490234375 -0.7371222376823425293 0.05156793445348739624 0.072734832763671875 -0.090925246477127075195 0.034519169479608535767 0.020939176902174949646 -0.017857626080513000488 -0.0040295021608471870422 -0.026080232113599777222 0.13956394791603088379 -0.041031692177057266235 -0.05284163355827331543 -0.047121699899435043335 -0.0094265900552272796631 -0.16507640480995178223 0.044184796512126922607 -0.088357046246528625488 -0.050895195454359054565 -0.030268106609582901001 0.050843723118305206299 0.071717537939548492432 0.031393695622682571411 0.082827128469944000244 -0.0065612867474555969238 0.054592609405517578125 0.067581892013549804688 -0.062826104462146759033 -0.0046564671210944652557 -0.031756166368722915649 -0.013615590520203113556 0.041907396167516708374 -0.0034272228367626667023 -0.021525066345930099487 0.15856161713600158691 0.088769018650054931641 0.026972940191626548767 -0.065151542425155639648 0.03152257576584815979 -0.063063569366931915283 -0.10529496520757675171 0.027672052383422851562 0.0517807789146900177 -0.084061853587627410889 0.055020276457071304321 0.075294189155101776123 -0.76717031002044677734 0.17211055755615234375 0.083041593432426452637 -0.09034929424524307251 0.01844826526939868927 0.046251259744167327881 -0.052999917417764663696 0.076251238584518432617 -0.0023346140515059232712 0.027819346636533737183 -0.051204647868871688843 -0.029811726883053779602 0.038561973720788955688 0.0014316384913399815559 

0.00044858251931145787239 0.0078938379883766174316 -0.00095130444969981908798 0.0077438806183636188507 -0.01168701518326997757 0.00084504770347848534584 -0.0055466610938310623169 -0.0018568290397524833679 0.0099327564239501953125 0.000410043343435972929 0.0066568534821271896362 0.0037926943041384220123 0.00062908127438277006149 -0.0051531339995563030243 0.00092057429719716310501 0.0072455769404768943787 -0.0058423136360943317413 0.0077787386253476142883 -0.01695675775408744812 -0.021883625537157058716 -0.025779811665415763855 -0.012271651998162269592 -0.020298603922128677368 -0.027538254857063293457 -0.014084570109844207764 -0.0070333299227058887482 -0.027813408523797988892 -0.010438263416290283203 -0.011858434416353702545 -0.0089896796271204948425 -0.015014899894595146179 0.0047025983221828937531 -0.00030427565798163414001 0.0098121035844087600708 0.017929179593920707703 0.01519799698144197464 0.013639885000884532928 0.015670010820031166077 0.0055819242261350154877 0.0035848428960889577866 0.0059846667572855949402 0.010090347379446029663 0.010781982913613319397 0.0051694056019186973572 0.0035883735399693250656 -0.0081008570268750190735 0.0039487876929342746735 0.031662836670875549316 -0.034233301877975463867 -0.019709771499037742615 0.032036166638135910034 -0.034197051078081130981 -0.028504887595772743225 0.037136834114789962769 0.020175771787762641907 0.0084104137495160102844 0.015826655551791191101 0.021055268123745918274 0.031566560268402099609 0.020496573299169540405 0.025063507258892059326 0.030825549736618995667 0.012736677192151546478 0.0021062274463474750519 0.011099799536168575287 0.0059957215562462806702 -7.9868252214509993792e-05 -0.0067196656018495559692 -0.007696421351283788681 0.0034233459737151861191 -0.0050131692551076412201 -0.0089875729754567146301 0.0062401690520346164703 -0.0034788176417350769043 -0.003143717767670750618 0.0035094097256660461426 -0.014136512763798236847 -0.0081109441816806793213 0.017460873350501060486 0.0046088742092251777649 -0.0075659342110157012939 0.0005449618329294025898 -0.00035495305201038718224 0.00097577768610790371895 -0.00067130982642993330956 0.00049459410365670919418 -0.0033151700627058744431 0.0015982274198904633522 0.00091935734963044524193 0.0032294678967446088791 0.050333257764577865601 0.10955607891082763672 0.14095853269100189209 0.053348369896411895752 0.073263317346572875977 0.14350791275501251221 0.056052055209875106812 0.070713728666305541992 0.088444687426090240479 0.011955600231885910034 0.022724147886037826538 0.01316112373024225235 -0.012929840944707393646 -0.043280079960823059082 -0.0068203038536012172699 -0.010647907853126525879 -0.013868238776922225952 -0.0041226372122764587402 -0.0035685312468558549881 -0.0017098335083574056625 0.00099045142997056245804 -0.00023044674890115857124 -0.005250539630651473999 0.0016098582418635487556 0.0012652135919779539108 0.0022740201093256473541 0.0088992659002542495728 -0.0042758048512041568756 -0.012323849834501743317 0.0025445988867431879044 -0.011549963615834712982 -0.0069937300868332386017 -0.0041917818598449230194 0.0025033799465745687485 -0.0052776262164115905762 -0.0052811112254858016968 -0.0078247506171464920044 -0.028988536447286605835 0.0066923717968165874481 -0.021945225074887275696 -0.02800717577338218689 -0.013112763874232769012 -0.032670594751834869385 -0.0064352354966104030609 -0.0052083544433116912842 -0.0029867666307836771011 0.010110960341989994049 0.0056190323084592819214 0.0024141732137650251389 0.00247702072374522686 -0.0068824072368443012238 0.00121248618233948946 -0.010097050108015537262 0.0080369124189019203186 -0.0061138472519814968109 -0.0068030734546482563019 0.0043593295849859714508 0.0012031184742227196693 0.0046333917416632175446 -0.0016699029365554451942 0.0049496544525027275085 0.008637167513370513916 -0.0046249893493950366974 0.0030910624191164970398 -0.0050506875850260257721 0.013528543524444103241 -0.0072438879869878292084 0.0083114812150597572327 -0.0032707182690501213074 -0.0027415649965405464172 0.007045422680675983429 0.0068578124046325683594 0.009331072680652141571 0.012174669653177261353 0.017347007989883422852 0.026668475940823554993 0.040842413902282714844 0.026997998356819152832 0.034823562949895858765 0.039732377976179122925 0.014471949078142642975 0.0057298475876450538635 -0.00081649154890328645706 -0.018273873254656791687 -0.012638879008591175079 -0.0041519366204738616943 -0.0019646466244012117386 0.0022117914631962776184 -0.017617955803871154785 -0.027393171563744544983 0.008797816932201385498 0.0022331720683723688126 0.0015700720250606536865 0.010912016034126281738 -0.013526589609682559967 -0.019659414887428283691 -7.9219942563213407993e-05 -0.013864225707948207855 -0.0075086844153702259064 -0.0073435469530522823334 0.0062738256528973579407 -0.012256587855517864227 -0.0065074111334979534149 -0.015118681825697422028 -0.041766997426748275757 0.0086732162162661552429 -0.00012977261212654411793 -0.016145108267664909363 -0.0021377957891672849655 -0.010573656298220157623 -0.0049978401511907577515 -0.0079597039148211479187 0.0077945683151483535767 -0.0065591339953243732452 0.0028239758685231208801 -2.2509704649564810097e-05 -0.013195430859923362732 0.016127387061715126038 0.001526945037767291069 -1.4284617463999893516e-05 0.016248587518930435181 -0.001221869257278740406 0.006747540552169084549 0.012522835284471511841 0.0011184986215084791183 -0.0076644150540232658386 0.0038088308647274971008 -0.0058071226812899112701 -0.0086174635216593742371 0.00011529910261742770672 -0.0054771727882325649261 -0.011695765890181064606 0.0031794460956007242203 -0.0075119663961231708527 -0.0190143585205078125 0.0017352722352370619774 0.013125112280249595642 -0.00041785748908296227455 0.0088922036811709403992 -0.0072245290502905845642 -0.0060638259164988994598 0.0062824334017932415009 0.0024070229846984148026 0.0032997224479913711548 -0.00066920812241733074188 0.00094478687969967722893 0.00036762424861080944538 0.00043046008795499801636 0.0029178871773183345795 -0.0025000229943543672562 0.00086068164091557264328 -0.005136068444699048996 -0.0012413085205480456352 -0.032973248511552810669 -0.014742391183972358704 -0.022903379052877426147 -0.026858998462557792664 0.030351748690009117126 0.015441725961863994598 -0.031461544334888458252 -0.002043577609583735466 0.00047196893137879669666 -0.021644961088895797729 -0.0087360013276338577271 -0.0080127958208322525024 -0.036936108022928237915 -0.03771287575364112854 -0.010726478882133960724 -0.0047500417567789554596 -0.029397552832961082458 0.045117054134607315063 0.035408746451139450073 0.046524938195943832397 0.041890811175107955933 0.046825405210256576538 0.050309889018535614014 0.053339537233114242554 0.020556734874844551086 0.055280014872550964355 0.040269900113344192505 0.00565763888880610466 0.0041380771435797214508 0.0014277232112362980843 0.0059028272517025470734 -0.0207355450838804245 0.005278065800666809082 0.0085055567324161529541 -0.00068219564855098724365 0.012642637826502323151 -0.0019982324447482824326 0.0068807206116616725922 0.010942072607576847076 0.00080454285489395260811 0.00055081344908103346825 -0.010005549527704715729 0.0073147742077708244324 0.0013368065701797604561 -0.0065523483790457248688 

