-0.1388607025146484375 -0.029645210132002830505 -0.012418478727340698242 -0.012526858597993850708 0.097979873418807983398 0.0033820096869021654129 0.00037314713699743151665 -0.12174702435731887817 -0.05186030268669128418 0.02253991737961769104 0.045746013522148132324 0.00343025941401720047 -0.0054736942984163761139 0.0086985789239406585693 0.0098662367090582847595 -0.019011145457625389099 -0.0017783261137083172798 -0.025814538821578025818 -0.00098405149765312671661 0.033451478928327560425 -0.024516802281141281128 0.071992702782154083252 0.047422133386135101318 -0.041225653141736984253 -0.057674299925565719604 -0.0040222229436039924622 -0.0077705429866909980774 0.1397762298583984375 -0.17840997874736785889 0.078782998025417327881 0.034770626574754714966 -1.1938791275024414062 0.13081476092338562012 0.1854025721549987793 0.087106458842754364014 0.1732514798641204834 0.048248495906591415405 -0.054119653999805450439 0.010310680605471134186 0.044806797057390213013 -0.015454204753041267395 0.069980353116989135742 0.028232743963599205017 -0.022138500586152076721 -0.023773383349180221558 0.069195389747619628906 0.16743294894695281982 -0.054350312799215316772 -0.009757824242115020752 -0.014919945970177650452 -0.036188043653964996338 -0.15052515268325805664 -0.18973448872566223145 0.067594990134239196777 -0.039435744285583496094 0.034337092190980911255 -0.023683384060859680176 -0.0094618871808052062988 0.0011364882811903953552 -0.0073259719647467136383 -0.0057346844114363193512 0.028926851227879524231 -0.053226590156555175781 0.18519870936870574951 -0.12369792163372039795 0.070556335151195526123 0.036837309598922729492 0.020962379872798919678 -0.017408786341547966003 -0.045761909335851669312 0.10953302681446075439 0.0017544602742418646812 -0.081470794975757598877 0.034193553030490875244 -0.0090421317145228385925 0.0069353762082755565643 -0.040753338485956192017 -0.0038208786863833665848 0.036569625139236450195 0.058672852814197540283 -0.020012449473142623901 -0.24570585787296295166 -0.36361825466156005859 -0.4744141995906829834 0.066745072603225708008 0.14540654420852661133 0.012437139637768268585 -0.029008194804191589355 0.028217943385243415833 -0.011244843713939189911 -0.033861774951219558716 0.20687600970268249512 -0.010255331173539161682 -0.019060766324400901794 0.14041917026042938232 -0.016397830098867416382 0.11951985955238342285 0.04139361158013343811 -0.020124455913901329041 0.017373869195580482483 0.039388954639434814453 -0.031008441001176834106 0.020956508815288543701 -0.035392668098211288452 -0.015924930572509765625 -0.12925958633422851562 -0.039557427167892456055 -0.019054168835282325745 0.044531948864459991455 -0.019772985950112342834 0.0088584730401635169983 0.0085325976833701133728 -0.042290922254323959351 0.018541591241955757141 0.10320833325386047363 0.039025653153657913208 0.055941589176654815674 -0.0023663337342441082001 -0.089970231056213378906 0.024941915646195411682 0.025976730510592460632 0.066910088062286376953 -0.029225373640656471252 0.029350997880101203918 0.010855758562684059143 0.067848525941371917725 -0.0096977967768907546997 -0.097119338810443878174 -0.12027894705533981323 0.0093059269711375236511 0.14096041023731231689 -0.039420228451490402222 -0.10110653191804885864 0.06295716017484664917 -0.049324300140142440796 0.0019085921812802553177 -0.078514970839023590088 -0.053086195141077041626 0.047904476523399353027 0.0039730574935674667358 -0.022359831258654594421 -0.050781622529029846191 0.0047593517228960990906 -0.0058614392764866352081 -0.026118028908967971802 0.045525927096605300903 -0.041030522435903549194 0.028453035280108451843 0.013045833446085453033 0.064035855233669281006 0.016884913668036460876 -0.012261457741260528564 -0.046559739857912063599 0.10267492383718490601 -0.12637971341609954834 -0.072452269494533538818 -0.0044824564829468727112 0.01173627655953168869 -0.077627971768379211426 -0.087673194706439971924 -0.00025879964232444763184 0.0030935239046812057495 0.077012471854686737061 -0.053015671670436859131 0.013359739445149898529 0.013467689044773578644 -0.070131123065948486328 0.053796160966157913208 0.067884482443332672119 -0.048171713948249816895 0.049430552870035171509 -0.11885804682970046997 0.052179932594299316406 0.027918469160795211792 -0.093797825276851654053 0.045438710600137710571 -0.0040300018154084682465 -0.12119679152965545654 -0.1281388401985168457 -0.089423522353172302246 -0.12120604515075683594 0.05911992490291595459 -0.10310203582048416138 0.073233239352703094482 -0.044676166027784347534 -0.12881988286972045898 -0.052896097302436828613 -0.060224398970603942871 -0.030996359884738922119 -0.014491060748696327209 -0.13587905466556549072 -0.0058705438859760761261 -0.096747316420078277588 -0.027563711628317832947 0.00090928521240130066872 -0.13911160826683044434 0.010542419739067554474 0.034941442310810089111 -0.034517705440521240234 0.086905173957347869873 -0.030805246904492378235 -0.052133586257696151733 0.029977550730109214783 -0.13936749100685119629 0.17273001372814178467 0.1278772503137588501 -0.10292260348796844482 0.30011388659477233887 -0.073106348514556884766 0.21960707008838653564 0.045670680701732635498 -0.1004238128662109375 0.08542753756046295166 0.12090067565441131592 0.0060146795585751533508 0.10727225244045257568 0.026560492813587188721 0.019507339224219322205 -0.015012177638709545135 -0.014225935563445091248 -0.017773235216736793518 -0.036318659782409667969 -0.063284397125244140625 -0.073856219649314880371 -0.020117258653044700623 -0.0041789612732827663422 -0.0091175250709056854248 -0.011442769318819046021 0.080920353531837463379 -0.018159044906497001648 -0.011189941316843032837 0.099584870040416717529 0.087695620954036712646 -0.042243096977472305298 0.039907913655042648315 -0.031489286571741104126 0.007946166209876537323 0.037453506141901016235 0.075716830790042877197 0.038738019764423370361 -0.0029477560892701148987 0.011184127070009708405 0.049975033849477767944 -0.043236412107944488525 -0.19284780323505401611 0.0034935364965349435806 -0.022603698074817657471 -0.17075271904468536377 -0.079931274056434631348 -0.12706047296524047852 -0.053705744445323944092 0.004265537019819021225 0.091588430106639862061 0.21963016688823699951 0.055771756917238235474 0.024503195658326148987 0.0060923639684915542603 0.028327275067567825317 0.13898362219333648682 -0.013354444876313209534 0.040719866752624511719 -0.2364750206470489502 -0.16146695613861083984 -0.15089952945709228516 -0.16257147490978240967 -0.054619975388050079346 -0.046810537576675415039 0.020243113860487937927 -0.0061507076025009155273 -0.026471570134162902832 0.050226218998432159424 -0.13779895007610321045 0.01095586828887462616 0.064888276159763336182 -0.02285832725465297699 0.00306034809909760952 0.07159277796745300293 0.064765222370624542236 0.11785623431205749512 -0.017107894644141197205 0.00024377039517275989056 0.014124152250587940216 -0.065443105995655059814 0.011011060327291488647 0.0049646240659058094025 0.045206923037767410278 0.071827232837677001953 -0.013487120158970355988 -0.016529649496078491211 -0.25370731949806213379 0.0056028394028544425964 -0.10121228545904159546 -0.23031151294708251953 0.0051969266496598720551 -0.020545283332467079163 -0.16418327391147613525 -0.00076676631579175591469 -0.097335584461688995361 0.049467578530311584473 0.011500517837703227997 0.076013423502445220947 0.00559307122603058815 0.022721454501152038574 -0.021942475810647010803 0.028459679335355758667 -0.0031779045239090919495 -0.094588793814182281494 0.040589090436697006226 -0.029525429010391235352 -0.030635362491011619568 -0.038377698510885238647 -0.047962099313735961914 0.012136862613260746002 0.012333692982792854309 -0.026968771591782569885 -0.11366371065378189087 0.072461448609828948975 -0.077248305082321166992 -0.18900054693222045898 0.054409667849540710449 -0.034078456461429595947 0.044074084609746932983 -0.064766809344291687012 -0.28126248717308044434 -0.18497960269451141357 0.06987511366605758667 -0.029146531596779823303 -0.17355750501155853271 -0.070347383618354797363 -0.014350723475217819214 0.011919424869120121002 0.01773474179208278656 -0.09481585770845413208 0.022447645664215087891 -0.058320652693510055542 0.0046848016791045665741 -0.034569654613733291626 -0.032044574618339538574 0.012275324203073978424 -0.083608694374561309814 -0.050784017890691757202 -0.013403031975030899048 0.10780761390924453735 0.13008421659469604492 -0.062003251165151596069 -0.019525323063135147095 0.090064875781536102295 -0.04749955981969833374 -0.040055874735116958618 -0.047865562140941619873 -0.064060956239700317383 0.016939178109169006348 0.061735142022371292114 -0.032443676143884658813 -0.036659725010395050049 0.025444060564041137695 -0.009662996046245098114 0.10845275223255157471 -0.026247326284646987915 0.02955092303454875946 0.027338920161128044128 -0.064527988433837890625 0.046434614807367324829 0.030335143208503723145 0.011983795091509819031 0.023984968662261962891 -0.038930583745241165161 0.015737950801849365234 0.091338038444519042969 -0.018316967412829399109 0.097048714756965637207 -0.024726664647459983826 -0.027880860492587089539 0.054051116108894348145 -0.024591498076915740967 0.0095285484567284584045 -0.02345435507595539093 -0.034337528049945831299 0.006914269179105758667 -0.055543538182973861694 -0.036366824060678482056 0.090362884104251861572 -0.053551398217678070068 -0.019514206796884536743 0.059422310441732406616 0.019352981820702552795 0.053281620144844055176 0.046178579330444335938 -0.10125684738159179688 0.049425024539232254028 -0.074376761913299560547 -0.12463656067848205566 -0.018967086449265480042 0.029162783175706863403 -0.021795164793729782104 0.020617639645934104919 -0.17026890814304351807 -0.26405671238899230957 -0.13807412981986999512 -0.38724786043167114258 -0.40737691521644592285 -0.29692000150680541992 -0.15349502861499786377 -0.39023923873901367188 -0.21139229834079742432 -0.0081706289201974868774 0.0084355594590306282043 -0.0042033344507217407227 0.012234081514179706573 -0.0036866506561636924744 -0.015040765516459941864 -0.050524037331342697144 0.070599757134914398193 0.0021519442088901996613 0.15062977373600006104 0.090201050043106079102 0.040418066084384918213 0.039737049490213394165 -0.054901018738746643066 0.033964648842811584473 0.020211923867464065552 0.06831309199333190918 0.032934542745351791382 0.067441731691360473633 -0.091724887490272521973 0.082446083426475524902 -0.020607406273484230042 -0.11681151390075683594 0.0099961040541529655457 -0.0072057335637509822845 -0.0058998358435928821564 0.1189271882176399231 -0.025896517559885978699 0.016630107536911964417 0.018685078248381614685 -0.015732498839497566223 0.0015338773373514413834 -0.0019719328265637159348 -0.03798085823655128479 0.015452321618795394897 0.092394776642322540283 0.023336140438914299011 0.0014223505277186632156 -0.0094867795705795288086 0.052291147410869598389 0.0046385810710489749908 0.0068869004026055335999 0.041771605610847473145 0.081471987068653106689 -0.010626301169395446777 -0.0025804343167692422867 -0.068435564637184143066 0.058581564575433731079 -0.038331981748342514038 0.052039023488759994507 -0.069231778383255004883 -0.13187775015830993652 -0.086492560803890228271 -0.034329440444707870483 -0.033061120659112930298 0.030461516231298446655 -0.015799783170223236084 -0.097515791654586791992 0.040533248335123062134 0.0097364280372858047485 0.059826314449310302734 0.049190048128366470337 0.066245593130588531494 -0.031950674951076507568 0.029974957928061485291 -0.016283262521028518677 -0.044387809932231903076 -0.0020205623004585504532 0.015982242301106452942 -0.017883032560348510742 -0.059608954936265945435 -0.038956016302108764648 0.057700745761394500732 -0.14108282327651977539 0.010107212699949741364 0.016309639438986778259 -0.060464907437562942505 -0.0079032974317669868469 -0.057175010442733764648 0.0082001518458127975464 0.07770487666130065918 -0.082996085286140441895 -0.068838857114315032959 -0.002128358231857419014 -0.089793913066387176514 -0.13012099266052246094 0.062242627143859863281 -0.13707630336284637451 -0.18365886807441711426 -0.056212540715932846069 0.22104649245738983154 0.13117250800132751465 -0.079977363348007202148 0.088724769651889801025 -0.010178588330745697021 0.022818403318524360657 0.10341443121433258057 0.054654095321893692017 0.078219115734100341797 0.02436322532594203949 0.0049716867506504058838 -0.013213781639933586121 -0.020994527265429496765 -0.10405238717794418335 -0.033192295581102371216 0.036633417010307312012 0.040762312710285186768 0.025321695953607559204 -0.049563467502593994141 -0.0013970342697575688362 0.019703684374690055847 -0.016240738332271575928 -0.039229907095432281494 0.020497189834713935852 0.0018731005256995558739 -0.055609952658414840698 0.034215103834867477417 0.0045250621624290943146 -0.028124315664172172546 0.036169793456792831421 -0.086434423923492431641 -0.17075790464878082275 -0.052118781954050064087 -0.049380686134099960327 -0.20294159650802612305 -0.088340163230895996094 0.11622060835361480713 -0.082812234759330749512 0.15352819859981536865 0.037163343280553817749 -0.074522241950035095215 0.079403564333915710449 0.00031576241599395871162 0.0018038703128695487976 0.060134995728731155396 -0.021496841683983802795 0.052175022661685943604 -0.049452770501375198364 0.012128063477575778961 -0.004698535427451133728 -0.040079604834318161011 0.0090208901092410087585 -0.038678478449583053589 -0.01094348076730966568 0.088668741285800933838 0.0026708575896918773651 0.030047975480556488037 0.13030618429183959961 -0.18286597728729248047 0.098759464919567108154 0.050284631550312042236 0.0073601608164608478546 -0.045095145702362060547 -0.046891126781702041626 0.053733970969915390015 -0.050639625638723373413 -0.0862979888916015625 -7.0449459599331021309e-05 -0.013892197050154209137 -0.042102709412574768066 0.043303728103637695312 -0.085420690476894378662 0.017540220171213150024 -0.090327538549900054932 0.06308536231517791748 0.042938385158777236938 -0.090607956051826477051 0.042293731123208999634 -0.0025746005121618509293 0.089570470154285430908 -0.01076371408998966217 -0.016921188682317733765 0.026951257139444351196 0.092419803142547607422 -0.078408464789390563965 0.020424788817763328552 0.027322191745042800903 0.066307872533798217773 0.084977552294731140137 0.045931100845336914062 -0.056308075785636901855 0.30949929356575012207 0.07225176692008972168 -0.089798726141452789307 0.11894597858190536499 0.013910720124840736389 0.0964163169264793396 0.13099338114261627197 0.10101131349802017212 0.040957231074571609497 0.040885694324970245361 -0.0043718265369534492493 -0.057648383080959320068 0.012628625147044658661 -0.0036553074605762958527 0.020333083346486091614 0.13659325242042541504 -0.054540511220693588257 0.041429750621318817139 -0.0266474895179271698 0.022479098290205001831 0.067090585827827453613 0.0021576206199824810028 0.010259468108415603638 0.082603916525840759277 0.01275627966970205307 0.046690192073583602905 0.013883732259273529053 -0.080666504800319671631 -0.052074834704399108887 -0.014968959614634513855 -0.13174556195735931396 -0.00917816162109375 0.066486798226833343506 -0.22131341695785522461 -0.012284169904887676239 -0.018683878704905509949 0.045976955443620681763 0.035723574459552764893 -0.021491257473826408386 -0.057927004992961883545 -0.019443664699792861938 -0.055410478264093399048 -0.0145874805748462677 -0.024004571139812469482 0.022970940917730331421 0.11548250913619995117 0.011481420136988162994 -0.018548997119069099426 0.012901128269731998444 -0.023856244981288909912 0.04034873470664024353 0.055464092642068862915 -0.022425657138228416443 0.025728181004524230957 -0.10555192828178405762 0.0047193183563649654388 -0.020133320242166519165 0.039727043360471725464 -0.023996045812964439392 0.02411830611526966095 0.010048073716461658478 0.068943634629249572754 -0.042086925357580184937 0.12562383711338043213 -0.062450591474771499634 0.0013501503271982073784 0.092060334980487823486 -0.089221648871898651123 -0.079559117555618286133 0.10120512545108795166 -0.085259638726711273193 -0.042904146015644073486 -0.067155294120311737061 -0.025040827691555023193 0.05323125794529914856 -0.033567737787961959839 -0.093723177909851074219 0.12405950576066970825 0.15930579602718353271 0.0065398160368204116821 0.030041601508855819702 0.063048727810382843018 0.071307539939880371094 0.033645585179328918457 0.083359442651271820068 0.050348900258541107178 0.013164021074771881104 0.026975277811288833618 0.012368586845695972443 0.067089870572090148926 -0.050591971725225448608 -0.030805964022874832153 0.040512334555387496948 -0.0074195796623826026917 -0.012380350381135940552 -0.037325561046600341797 -0.0717336311936378479 0.020646868273615837097 0.020178938284516334534 -0.053600259125232696533 -0.052417114377021789551 -0.0040982877835631370544 -0.041017349809408187866 -0.00035909659345634281635 -0.045873440802097320557 0.056439738720655441284 -0.062463551759719848633 -0.013965231366455554962 0.041142284870147705078 0.0082312263548374176025 0.0034489424433559179306 0.089851744472980499268 0.029210789129137992859 -0.076070711016654968262 -0.091487757861614227295 0.073880925774574279785 -0.069967538118362426758 0.05447463691234588623 -0.033555559813976287842 -0.10115605592727661133 0.029627224430441856384 -0.042921274900436401367 -0.077604979276657104492 0.040395498275756835938 0.059251189231872558594 -0.027878999710083007812 0.26140743494033813477 0.068633049726486206055 0.13196617364883422852 0.094230815768241882324 0.055635496973991394043 0.099534407258033752441 0.063934795558452606201 -0.017366226762533187866 

0.11831972002983093262 -0.033803313970565795898 -0.0045470171608030796051 0.088429465889930725098 0.16040100157260894775 -0.11421167850494384766 0.082321204245090484619 -0.068312443792819976807 -0.12407992780208587646 -0.0062312935478985309601 0.14615659415721893311 0.20100954174995422363 0.059156298637390136719 0.19186443090438842773 0.18206657469272613525 -0.057667944580316543579 -0.013912638649344444275 -0.019030459225177764893 0.072160407900810241699 -0.059330113232135772705 0.11799337714910507202 -0.13515453040599822998 -0.1230212971568107605 -0.030670812353491783142 0.064742863178253173828 0.035539817065000534058 0.11710941791534423828 0.047124885022640228271 -0.13890913128852844238 -0.018922781571745872498 -0.10533172637224197388 -0.15937046706676483154 -0.042261816561222076416 -0.14301244914531707764 0.024904668331146240234 -0.2180754244327545166 -0.10809122771024703979 -0.22989411652088165283 -0.07985140383243560791 -0.09568138420581817627 -0.22403194010257720947 -0.086492419242858886719 -0.23813384771347045898 -0.33917069435119628906 -0.28166925907135009766 0.12278613448143005371 -0.028680456802248954773 0.075840622186660766602 0.023721937090158462524 -0.079278983175754547119 -0.026854019612073898315 0.041853968054056167603 -0.095644727349281311035 0.066264256834983825684 0.084099911153316497803 -0.019141457974910736084 -0.039102613925933837891 0.094724774360656738281 0.0095719294622540473938 -0.0028566012624651193619 0.010542799718677997589 0.033426802605390548706 -0.030134066939353942871 0.11117000877857208252 0.12085907906293869019 0.028064291924238204956 0.029104871675372123718 0.0036115024704486131668 -0.0096771251410245895386 0.012206197716295719147 0.047963891178369522095 0.037790089845657348633 -0.41561862826347351074 -0.56676679849624633789 -0.37253224849700927734 -0.28023096919059753418 -0.57826757431030273438 -0.13134603202342987061 -0.18754567205905914307 -0.22635222971439361572 -0.15361125767230987549 -0.15775237977504730225 -0.16227293014526367188 -0.054598938673734664917 -0.023708855733275413513 -0.051469128578901290894 0.018958903849124908447 0.014724520035088062286 -0.032922510057687759399 0.053749613463878631592 0.11059194058179855347 0.059981241822242736816 0.034033667296171188354 -0.0036012686323374509811 -0.04098407551646232605 -0.046997938305139541626 0.037336345762014389038 0.039028842002153396606 0.010342504829168319702 -0.038077913224697113037 0.044734664261341094971 -0.006423464510589838028 -0.01590405590832233429 0.055017050355672836304 0.078247666358947753906 0.064475461840629577637 0.11125087738037109375 0.075226292014122009277 0.10553279519081115723 0.13393168151378631592 0.13665176928043365479 -0.017380701377987861633 -0.016512358561158180237 0.045944094657897949219 0.03007380850613117218 0.020390611141920089722 0.080183967947959899902 -0.23533184826374053955 -0.20774649083614349365 -0.39799350500106811523 -0.15020002424716949463 -0.44277599453926086426 -0.37706294655799865723 -0.23433884978294372559 -0.28614220023155212402 -0.35744193196296691895 -0.018404057249426841736 0.091524273157119750977 0.034252721816301345825 0.065653860569000244141 0.064179100096225738525 0.059058494865894317627 -0.026885515078902244568 0.015694607049226760864 -0.0053793359547853469849 0.052721235901117324829 0.093022324144840240479 0.043849702924489974976 0.069000035524368286133 0.0060976603999733924866 -0.0041234190575778484344 0.1534004509449005127 0.17165014147758483887 0.22126805782318115234 0.10443034768104553223 -0.044106345623731613159 0.065880529582500457764 -0.059379003942012786865 -0.26410064101219177246 -0.10779908299446105957 -0.0043767406605184078217 -0.10407926887273788452 0.0057701943442225456238 -0.038613248616456985474 -0.16004127264022827148 0.022542176768183708191 -0.094693548977375030518 -0.13008809089660644531 0.0060129393823444843292 -0.14770649373531341553 -0.051044944673776626587 -0.050083488225936889648 0.12331701070070266724 0.037453766912221908569 0.054851651191711425781 0.19126695394515991211 0.076906912028789520264 0.11546343564987182617 0.23634891211986541748 0.13355949521064758301 0.14704939723014831543 0.14222921431064605713 0.12584635615348815918 0.08068380504846572876 0.064411401748657226562 0.076025947928428649902 0.086141176521778106689 0.0843791961669921875 0.079499550163745880127 0.093868844211101531982 -0.2064358144998550415 -0.031207215040922164917 -0.15200747549533843994 0.082921147346496582031 -0.017094070091843605042 -0.054829314351081848145 0.07792142033576965332 -0.020742664113640785217 -0.0039042909629642963409 -0.22288982570171356201 -0.093943811953067779541 -0.028620509430766105652 -0.15376457571983337402 -0.092709489166736602783 0.050144981592893600464 -0.17642472684383392334 0.013006073422729969025 0.0021773495245724916458 -0.15495364367961883545 0.034554433077573776245 -0.1152950674295425415 -0.052070640027523040771 -0.1401856541633605957 -0.10329309850931167603 -0.10888175666332244873 0.0075741331093013286591 -0.16037824749946594238 -0.065551638603210449219 -0.17623718082904815674 -0.25259074568748474121 -0.00016606213466729968786 0.0410689525306224823 -0.035633020102977752686 -0.099396646022796630859 -0.080740593373775482178 -0.051371213048696517944 -0.0085629746317863464355 0.011366443708539009094 0.0018911082297563552856 -0.023382218554615974426 0.053890045732259750366 0.017064401879906654358 0.0027916198596358299255 -0.0062789591029286384583 -0.017885770648717880249 0.09300648421049118042 -0.39427709579467773438 -0.34153434634208679199 0.16302242875099182129 -0.19561268389225006104 -0.10687303543090820312 0.57276540994644165039 0.28811588883399963379 0.084324568510055541992 -0.25492650270462036133 -0.1281871497631072998 -0.012369373813271522522 -0.094980150461196899414 -0.060977522283792495728 0.055367715656757354736 -0.0080775218084454536438 -0.065060041844844818115 -0.15518783032894134521 -0.17487911880016326904 0.0090518742799758911133 -0.052655532956123352051 -0.08167120814323425293 0.018399130553007125854 -0.19080653786659240723 -0.1197069510817527771 0.021671632304787635803 -0.31679996848106384277 0.19287860393524169922 0.13334959745407104492 0.089395992457866668701 0.040397640317678451538 0.01863602176308631897 0.13114205002784729004 0.047280937433242797852 0.073031246662139892578 0.13890247046947479248 -0.12782527506351470947 -0.18017278611660003662 -0.023303374648094177246 -0.0050423308275640010834 -0.14944790303707122803 -0.12658177316188812256 -0.15690444409847259521 -0.059007257223129272461 -0.07965590059757232666 0.17602045834064483643 0.050859875977039337158 0.1778875887393951416 0.21158139407634735107 -0.050601210445165634155 0.11277014017105102539 0.13674978911876678467 0.12191821634769439697 0.12063046544790267944 -0.11585812270641326904 -0.1704005897045135498 -0.091876111924648284912 0.10873316973447799683 -0.0331403389573097229 -0.0048820790834724903107 0.11939178407192230225 0.16837094724178314209 -0.016326950863003730774 0.021732086315751075745 0.084484688937664031982 -0.017443526536226272583 -0.11524105817079544067 -0.084514997899532318115 -0.05283704027533531189 -0.084920912981033325195 -0.019610531628131866455 -0.093051761388778686523 0.17843297123908996582 0.22540830075740814209 0.36163443326950073242 0.052611056715250015259 0.072023242712020874023 0.080165676772594451904 -0.031339142471551895142 0.24897333979606628418 0.14800749719142913818 -0.32781770825386047363 -0.30043494701385498047 -0.32163238525390625 -0.25178623199462890625 -0.36218121647834777832 -0.49912443757057189941 -0.13250108063220977783 -0.14976759254932403564 -0.29896306991577148438 0.084316134452819824219 -0.012337919324636459351 -0.098477020859718322754 -0.032315343618392944336 -0.12931130826473236084 -0.16189920902252197266 -0.079680725932121276855 -0.1067966073751449585 -0.067930907011032104492 0.031556792557239532471 0.050345852971076965332 0.12561614811420440674 -0.027237867936491966248 -0.0057290764525532722473 0.099001675844192504883 6.6692569816950708628e-05 0.076632551848888397217 0.071087367832660675049 0.025037039071321487427 0.010636438615620136261 -0.026560012251138687134 0.062318015843629837036 -0.039477139711380004883 -0.046151023358106613159 0.11012439429759979248 0.077271856367588043213 -0.009091357700526714325 -0.11799784004688262939 0.010861335322260856628 -0.10984374582767486572 0.0015605003573000431061 0.081004150211811065674 -0.017833864316344261169 0.025126542896032333374 0.016369050368666648865 -0.080199502408504486084 -0.34644019603729248047 -0.35598298907279968262 -0.36457967758178710938 -0.26837712526321411133 -0.19011725485324859619 -0.12734149396419525146 -0.17352481186389923096 -0.18580676615238189697 -0.22186778485774993896 0.021705593913793563843 -0.076715499162673950195 0.036383092403411865234 0.0030754329636693000793 -0.017753686755895614624 0.090817533433437347412 -0.085551999509334564209 -0.060491602867841720581 -0.0072084199637174606323 0.017310915514826774597 -0.017284048721194267273 0.037139847874641418457 -0.072974100708961486816 -0.081722669303417205811 0.006277345120906829834 -0.056762147694826126099 -0.062859266996383666992 0.016308510676026344299 -0.19903644919395446777 -0.12845724821090698242 -0.48016935586929321289 0.03579390794038772583 -0.094966016709804534912 -0.2289794236421585083 -0.10273041576147079468 -0.22472032904624938965 -0.21579511463642120361 -0.11130366474390029907 -0.026171311736106872559 -0.19595457613468170166 -0.052266713231801986694 0.041809469461441040039 0.042073227465152740479 -0.23637160658836364746 -0.10474851727485656738 -0.22788724303245544434 -0.077657274901866912842 -0.039515372365713119507 -0.11333856731653213501 -0.093017593026161193848 -0.11252421140670776367 -0.015828523784875869751 -0.0053202249109745025635 -0.1030311882495880127 -0.08834562450647354126 -0.22153358161449432373 -0.23328644037246704102 -0.13847880065441131592 -0.180408477783203125 -0.27607947587966918945 -0.096393629908561706543 -0.19197511672973632812 -0.096665114164352416992 -0.088613495230674743652 0.057551953941583633423 0.11029092222452163696 0.070343010127544403076 0.11821243166923522949 0.1228292509913444519 0.069887086749076843262 0.11647166311740875244 0.13497748970985412598 0.090803377330303192139 0.061202995479106903076 0.0048278947360813617706 -0.022267941385507583618 0.10553736239671707153 0.0077548306435346603394 0.059404227882623672485 0.055609464645385742188 -0.048169579356908798218 0.012024825438857078552 0.065500594675540924072 0.071378305554389953613 0.082235574722290039062 0.096595734357833862305 0.050932936370372772217 0.095775239169597625732 0.032392807304859161377 0.034132339060306549072 0.086947366595268249512 -0.10447154194116592407 0.070043735206127166748 0.028394708409905433655 -0.16954110562801361084 0.032268520444631576538 0.095736533403396606445 -0.11130273342132568359 0.050400353968143463135 0.092856548726558685303 0.029732594266533851624 0.081453949213027954102 0.035618416965007781982 -0.017142947763204574585 0.032694429159164428711 0.055794887244701385498 -0.069172985851764678955 0.03756852075457572937 -0.023754356428980827332 -0.094587124884128570557 -0.0589655265212059021 -0.020807776600122451782 0.039149053394794464111 0.010671703144907951355 0.021363103762269020081 -0.035645704716444015503 -0.030422935262322425842 0.04871880263090133667 -0.14574843645095825195 -0.062783025205135345459 -0.2287276536226272583 -0.1441393047571182251 -0.063302673399448394775 -0.11270602047443389893 -0.30800345540046691895 -0.12614303827285766602 -0.21507982909679412842 -0.11013572663068771362 -0.096328213810920715332 -0.10118032246828079224 -0.05512889474630355835 -0.092790707945823669434 -0.066200122237205505371 -0.063686072826385498047 -0.089700572192668914795 -0.10104649513959884644 -0.068925432860851287842 -0.073165841400623321533 -0.11208425462245941162 0.044474929571151733398 0.044175997376441955566 -0.048641804605722427368 0.15211454033851623535 0.12158272415399551392 0.089627563953399658203 0.0007650536135770380497 -0.04076809808611869812 -0.12154250591993331909 -0.098210379481315612793 -0.0044424724765121936798 -0.0014866577694192528725 -0.18599522113800048828 -0.10752353072166442871 -0.21964146196842193604 -0.71615290641784667969 -0.47809293866157531738 -0.75101083517074584961 -0.41711452603340148926 -0.5307648777961730957 -0.76889753341674804688 -0.87259763479232788086 -0.51210969686508178711 -0.77661085128784179688 0.10464803874492645264 -0.031987607479095458984 0.040625791996717453003 -0.079102732241153717041 -0.047519676387310028076 -0.036117784678936004639 -0.061758358031511306763 -0.028022838756442070007 -0.029656043276190757751 0.0025070586707442998886 0.014899926260113716125 0.060130044817924499512 -0.031510397791862487793 -0.0088316034525632858276 -0.022148655727505683899 -0.05194440111517906189 0.0032074148766696453094 0.041364695876836776733 0.12839132547378540039 0.040353894233703613281 0.037543427199125289917 0.011089890263974666595 -0.024719942361116409302 -0.0072538801468908786774 0.083320595324039459229 0.039533488452434539795 0.012120096944272518158 -0.087620839476585388184 -0.12616553902626037598 -0.067124769091606140137 -0.06599903106689453125 0.12761066854000091553 -0.10132637619972229004 -0.028056425973773002625 -0.081085920333862304688 -0.14506332576274871826 -0.24919383227825164795 -0.13911408185958862305 -0.070310197770595550537 -0.022660480812191963196 0.11935705691576004028 0.12972490489482879639 -0.034504830837249755859 -0.020529733970761299133 0.072380945086479187012 -0.14162425696849822998 -0.0034152485895901918411 0.096253722906112670898 -0.10552699118852615356 -0.072889104485511779785 -0.031372290104627609253 -0.15667873620986938477 -0.069500811398029327393 -0.11976632475852966309 -0.11238363385200500488 -0.062005762010812759399 0.063180513679981231689 0.041737101972103118896 -0.037678960710763931274 0.043571949005126953125 -0.021875714883208274841 -0.031498126685619354248 0.048394005745649337769 0.20451807975769042969 0.016039717942476272583 -0.51947903633117675781 0.19740189611911773682 0.041393425315618515015 -0.34627777338027954102 0.18661795556545257568 0.020730433985590934753 -0.31372743844985961914 -0.18609020113945007324 -0.1160243600606918335 -0.054639112204313278198 0.027466123923659324646 -0.04771538078784942627 0.044310148805379867554 -0.072948791086673736572 -0.02531686052680015564 0.062905296683311462402 -0.05045709758996963501 0.064672403037548065186 0.085426151752471923828 0.03888891264796257019 0.12382034212350845337 0.049690056592226028442 -0.023176865652203559875 -0.0031923903152346611023 -0.048269003629684448242 -0.10660637915134429932 -0.08726466447114944458 -0.19326797127723693848 -0.037777129560708999634 0.014251932501792907715 -0.17846053838729858398 -0.089564636349678039551 0.0032960039097815752029 -0.18123964965343475342 -0.134530678391456604 -0.18532848358154296875 -0.087242580950260162354 0.10161320120096206665 0.023067062720656394958 0.17186973989009857178 0.31786498427391052246 0.26042547821998596191 0.19785332679748535156 -0.0023068715818226337433 -0.024152344092726707458 -0.026246629655361175537 -0.078642182052135467529 -0.1229592934250831604 -0.011245949193835258484 -0.021413281559944152832 0.053577005863189697266 0.064758136868476867676 0.014811951667070388794 0.0008841344970278441906 -0.18331436812877655029 0.045520175248384475708 -0.10189864784479141235 -0.25984168052673339844 0.03729267418384552002 0.01104037649929523468 -0.33718836307525634766 -0.19944587349891662598 -0.087072387337684631348 -0.27259972691535949707 0.047668971121311187744 0.079157717525959014893 -0.11038391292095184326 -0.010649179108440876007 0.02329419553279876709 -0.11767424643039703369 0.027851101011037826538 0.022214815020561218262 -0.046019352972507476807 0.13121910393238067627 0.051849417388439178467 -0.034921679645776748657 0.096597582101821899414 0.10607680678367614746 5.2876672270940616727e-05 -0.024380132555961608887 0.014403671026229858398 0.0070438678376376628876 0.00082813121844083070755 0.038648895919322967529 0.029689252376556396484 -0.035929307341575622559 0.013705929741263389587 0.00879686698317527771 -0.11366440355777740479 -0.019818900153040885925 -0.078053578734397888184 -0.0095633445307612419128 0.10260695964097976685 -0.065280765295028686523 -0.019024185836315155029 -0.070962026715278625488 -0.23549394309520721436 0.066015608608722686768 0.13089509308338165283 0.025864895433187484741 0.07635889202356338501 0.14898972213268280029 0.054669290781021118164 0.099735833704471588135 0.1200397685170173645 0.024755410850048065186 0.11024004966020584106 0.1237611919641494751 0.12767286598682403564 0.14042843878269195557 0.05853619799017906189 0.1250101625919342041 0.027319258078932762146 0.0396498069167137146 0.091165691614151000977 0.30982613563537597656 0.1253286898136138916 0.098472893238067626953 0.065614789724349975586 0.010197232477366924286 -0.043259818106889724731 -0.27136829495429992676 -0.10796225070953369141 -0.17402087152004241943 0.075287528336048126221 0.00062744668684899806976 0.0050754495896399021149 -0.045181483030319213867 -0.22892148792743682861 -0.16042323410511016846 0.11370474100112915039 0.051323805004358291626 -0.0092273112386465072632 -0.21170571446418762207 -0.096287809312343597412 -0.15826758742332458496 -0.061441272497177124023 -0.024551851674914360046 -0.056385081261396408081 -0.19377554953098297119 -0.060138490051031112671 -0.10307239741086959839 

0.067857973277568817139 -0.040413215756416320801 0.034840993583202362061 0.03578886762261390686 0.091457411646842956543 0.059139251708984375 -0.085157990455627441406 0.030092418193817138672 -0.07830489426851272583 -0.0076128635555505752563 0.085399933159351348877 -0.082656227052211761475 0.039662756025791168213 0.12770503759384155273 0.018070926889777183533 0.0014240992022678256035 -0.046732496470212936401 -0.011691866442561149597 0.11300729215145111084 0.12839941680431365967 0.10412080585956573486 0.037772636860609054565 -0.10241026431322097778 0.022036103531718254089 0.11945623159408569336 -0.08539409935474395752 0.19958840310573577881 -0.054955068975687026978 -0.14039680361747741699 -0.055623505264520645142 -0.065517961978912353516 0.0065844794735312461853 0.064989708364009857178 -0.012725552543997764587 -0.014248582534492015839 -0.084524139761924743652 0.039936441928148269653 0.19068369269371032715 -0.050151444971561431885 -0.023636177182197570801 -0.019606173038482666016 0.071810208261013031006 0.011844744905829429626 0.05856200680136680603 0.082547426223754882812 -0.099299848079681396484 -0.0095979096367955207825 -0.039871957153081893921 0.082960270345211029053 0.20276117324829101562 -0.047090351581573486328 -0.054930366575717926025 0.05372352898120880127 -0.077366456389427185059 -0.18782323598861694336 -0.17204150557518005371 -0.16729444265365600586 -0.063779659569263458252 -0.089447282254695892334 -0.13080008327960968018 -0.11970922350883483887 -0.052259746938943862915 -0.21629942953586578369 -0.042191706597805023193 -0.040158562362194061279 -0.11706985533237457275 0.024478988721966743469 -0.070410512387752532959 0.041828919202089309692 -0.0083880778402090072632 -0.11601661145687103271 0.088972665369510650635 -0.146368369460105896 0.0329302959144115448 -0.017103582620620727539 -0.073620513081550598145 -0.063882745802402496338 -0.065280430018901824951 -0.078789353370666503906 -0.035426560789346694946 -0.042301360517740249634 0.10213623195886611938 0.082977838814258575439 -0.19234989583492279053 -0.044602211564779281616 0.058758221566677093506 -0.031076759099960327148 -0.044241622090339660645 0.066333845257759094238 0.027561048045754432678 0.058550190180540084839 -0.010673128999769687653 -0.10338009893894195557 0.07455082237720489502 -0.0019405210623517632484 -0.065111443400382995605 -0.12727029621601104736 -0.119763202965259552 -0.026436656713485717773 0.030484279617667198181 0.10417611896991729736 -0.042667314410209655762 0.079190321266651153564 0.2890816032886505127 0.056544691324234008789 -0.0047923694364726543427 0.10458884388208389282 0.056393425911664962769 -0.084603890776634216309 0.015659406781196594238 0.029990693554282188416 -0.075158230960369110107 0.015645604580640792847 0.043662223964929580688 -0.029858849942684173584 -0.039945803582668304443 0.029180310666561126709 -0.020616656169295310974 0.029475754126906394958 0.014464423060417175293 0.015753326937556266785 -0.073084495961666107178 -0.0072372150607407093048 0.052034988999366760254 0.0050984118133783340454 -0.017829500138759613037 -0.11347636580467224121 0.055341660976409912109 -0.069663234055042266846 -0.089750923216342926025 0.013264504261314868927 -0.037768412381410598755 -0.16215467453002929688 -0.085563980042934417725 -0.17694234848022460938 -0.02210978977382183075 -0.086222693324089050293 -0.086199991405010223389 -0.090392321348190307617 -0.091589711606502532959 -0.066209383308887481689 -0.037897527217864990234 -0.034804176539182662964 -0.08026062697172164917 0.068905614316463470459 0.068777494132518768311 0.1784388422966003418 0.065814509987831115723 0.04905761033296585083 0.15106646716594696045 0.0472126789391040802 0.1098793521523475647 0.1300274282693862915 0.066195458173751831055 0.028446599841117858887 0.058370217680931091309 0.028816940262913703918 0.00043681156239472329617 0.056546185165643692017 0.023608297109603881836 -0.030077226459980010986 0.039070930331945419312 0.028267337009310722351 -0.066509529948234558105 -0.025530798360705375671 0.0075876000337302684784 0.038836561143398284912 -0.046263858675956726074 0.0037222118116915225983 0.024492349475622177124 0.0037196204066276550293 0.080868303775787353516 -0.0017566941678524017334 0.049600090831518173218 0.042006496340036392212 -0.052092384546995162964 0.017210720106959342957 0.061244759708642959595 0.067074649035930633545 0.036308344453573226929 -0.015901517122983932495 -0.00024339753144886344671 0.1144490167498588562 0.02999120764434337616 -0.042562332004308700562 -0.13407368957996368408 0.012626878917217254639 -0.13938152790069580078 0.12803535163402557373 -0.046498399227857589722 -0.017681185156106948853 -0.0014506477164104580879 0.029403747990727424622 0.075826637446880340576 -0.074838280677795410156 -0.039945386350154876709 0.056296277791261672974 0.026460768654942512512 -0.017095280811190605164 0.1115579754114151001 0.035708326846361160278 0.02049479261040687561 0.15834949910640716553 0.13992185890674591064 -0.035803053528070449829 0.13639564812183380127 0.085425943136215209961 0.032760202884674072266 0.059753071516752243042 -0.047390207648277282715 0.033895310014486312866 -0.018996264785528182983 0.023562604561448097229 -0.095793247222900390625 0.038078811019659042358 -0.0086476523429155349731 -0.031951185315847396851 0.0040068873204290866852 -0.0049177249893546104431 -0.021437026560306549072 -0.0037646535784006118774 0.014184881933033466339 0.021624796092510223389 0.009241820313036441803 0.023389715701341629028 -0.34747833013534545898 -0.29143476486206054688 -0.39912384748458862305 -0.22790038585662841797 0.02228579297661781311 -0.23707816004753112793 -0.36911863088607788086 0.011952901259064674377 -0.29410764575004577637 0.007559442427009344101 -0.0020304531790316104889 0.066163927316665649414 -0.042406927794218063354 0.050849847495555877686 0.12519446015357971191 0.028444448485970497131 0.10495636612176895142 -0.043016232550144195557 0.046409662812948226929 -0.039012253284454345703 -0.029584469273686408997 0.018128626048564910889 0.029888240620493888855 -0.016889419406652450562 0.024086756631731987 -0.018509004265069961548 -0.026786215603351593018 0.11530570685863494873 -0.035613775253295898438 0.067950911819934844971 -0.0010571326129138469696 -0.12399889528751373291 0.018754163756966590881 0.012565482407808303833 0.04935576021671295166 0.015236076898872852325 -0.027005704119801521301 -0.047013193368911743164 -0.062517143785953521729 -0.0195399504154920578 -0.020595081150531768799 -0.046654384583234786987 -0.038482777774333953857 0.047372285276651382446 -0.037264540791511535645 -0.088716268539428710938 0.040831957012414932251 -0.12498908489942550659 -0.22643768787384033203 0.072109624743461608887 0.012423417530953884125 -0.3621203005313873291 -0.14403942227363586426 -0.13797774910926818848 -0.00095758622046560049057 0.036938518285751342773 -0.022543709725141525269 0.052981380373239517212 -0.0094684204086661338806 0.016977140679955482483 0.079170234501361846924 0.078326545655727386475 0.092970214784145355225 -0.057557094842195510864 -0.011561337858438491821 -0.0079276626929640769958 -0.021890161558985710144 -0.11695111542940139771 0.01515803113579750061 -0.11138551682233810425 -0.051313530653715133667 -0.034999553114175796509 0.025158405303955078125 0.077256441116333007812 0.06168410181999206543 0.00048793436144478619099 0.0054878699593245983124 0.039843004196882247925 0.13112336397171020508 0.018119363114237785339 0.016377650201320648193 0.13093458116054534912 0.020411228761076927185 0.07303247600793838501 0.016030376777052879333 0.020278297364711761475 0.026421895250678062439 0.052395652979612350464 -0.0034943339414894580841 0.11115775257349014282 -0.19928915798664093018 -0.14935837686061859131 -0.12440378963947296143 -0.02090576663613319397 -0.03888928145170211792 0.089258313179016113281 -0.069797553122043609619 -0.012421661056578159332 0.1425221562385559082 -0.075169526040554046631 -0.064743421971797943115 -0.0050027985125780105591 -0.019991403445601463318 0.034800827503204345703 0.042998444288969039917 -0.054126020520925521851 -0.11597127467393875122 -0.093177467584609985352 -0.0025711823254823684692 -0.025839235633611679077 0.072661466896533966064 -0.027573913335800170898 0.0989324226975440979 -0.0027308820281177759171 -0.027581961825489997864 0.021420046687126159668 -0.079171165823936462402 -0.034004159271717071533 0.078916691243648529053 -0.02392132394015789032 0.092225044965744018555 0.21348904073238372803 0.090595006942749023438 0.022638354450464248657 0.086947664618492126465 -0.030244428664445877075 -0.074462689459323883057 -0.061264142394065856934 -0.05597330629825592041 -0.089802168309688568115 0.06469310075044631958 -0.030160646885633468628 -0.066101096570491790771 -0.049481924623250961304 -0.081190221011638641357 -0.1989689171314239502 -0.11316457390785217285 -0.088169232010841369629 -0.089429132640361785889 -0.010142469778656959534 -0.045458741486072540283 -0.096712298691272735596 -0.098503693938255310059 -0.074270144104957580566 -0.059004858136177062988 -0.013695701956748962402 -0.1474818885326385498 -0.10192641615867614746 -0.080224014818668365479 -0.07803335040807723999 -0.10550615936517715454 -0.058796443045139312744 -0.063690833747386932373 -0.10808036476373672485 -0.055812593549489974976 0.063646756112575531006 0.053473155945539474487 -0.094063282012939453125 0.072176434099674224854 -0.11753958463668823242 0.041177269071340560913 -0.01105177123099565506 0.041423864662647247314 0.077648207545280456543 -0.023794794455170631409 0.046155065298080444336 0.17454032599925994873 0.026273911818861961365 0.010100505314767360687 0.034343931823968887329 -0.064325980842113494873 -0.014020542614161968231 0.052235390990972518921 -0.029176125302910804749 -0.11977354437112808228 0.021146381273865699768 0.020657429471611976624 0.0052413656376302242279 -0.064633511006832122803 0.078507497906684875488 -0.042883079499006271362 0.05261785164475440979 -0.019206551834940910339 -0.034283258020877838135 0.046725884079933166504 0.024218857288360595703 -0.064546369016170501709 -0.02437116578221321106 -0.085538446903228759766 0.061891369521617889404 0.018281737342476844788 -0.019400894641876220703 0.0076803443953394889832 -0.037200894206762313843 -0.0083816032856702804565 0.053020648658275604248 0.013201885856688022614 -0.035976018756628036499 -0.2434978783130645752 0.051357984542846679688 -0.14214430749416351318 0.0066238334402441978455 0.12942744791507720947 0.045499298721551895142 -0.09027907252311706543 0.062391132116317749023 -0.053358301520347595215 0.076180778443813323975 0.036279007792472839355 0.10070468485355377197 0.010037232190370559692 0.019712045788764953613 -0.036368828266859054565 0.025148022919893264771 -0.059122003614902496338 0.034807041287422180176 -0.085600286722183227539 -0.051309540867805480957 -0.0011708467500284314156 -0.069414719939231872559 -0.041333094239234924316 0.0085226083174347877502 -0.12796410918235778809 -0.025346715003252029419 -0.008179814554750919342 -0.035745158791542053223 0.060756754130125045776 0.036435686051845550537 0.048689778894186019897 -0.1932468712329864502 -0.02292111515998840332 -0.00080143974628299474716 -0.041673220694065093994 0.073124200105667114258 -0.065415166318416595459 -0.065705187618732452393 -0.051993731409311294556 -0.085818357765674591064 0.032198023051023483276 0.056921191513538360596 -0.039531119167804718018 0.030537441372871398926 0.099562786519527435303 0.053159035742282867432 -0.077660396695137023926 0.14649826288223266602 -0.020250340923666954041 0.019971275702118873596 -0.019430877640843391418 -0.040428351610898971558 -0.039397735148668289185 0.0074254819191992282867 0.044715758413076400757 0.018164852634072303772 0.0019346597837284207344 -0.13242590427398681641 -0.086067751049995422363 -0.085377857089042663574 0.0077033014968037605286 -0.094484671950340270996 -0.031363442540168762207 -0.035002566874027252197 -0.052420683205127716064 -0.037107005715370178223 0.055717408657073974609 -0.085545495152473449707 0.004051642492413520813 0.1149312928318977356 0.030469104647636413574 -0.0064156525768339633942 0.088196516036987304688 -0.14857414364814758301 -0.037881813943386077881 -0.15355026721954345703 -0.082901462912559509277 -0.10310021787881851196 0.0048089232295751571655 -0.0015856521204113960266 -0.037228737026453018188 -0.10185239464044570923 0.024152703583240509033 -0.012310920283198356628 -0.044652104377746582031 0.080735586583614349365 0.073750004172325134277 0.0054798191413283348083 -0.03740320354700088501 0.038287155330181121826 -0.039371661841869354248 0.061378519982099533081 -0.038431219756603240967 -0.056482873857021331787 -0.0261019878089427948 0.025372464209794998169 0.038105037063360214233 0.033831879496574401855 -0.069918148219585418701 0.0084496065974235534668 0.048343982547521591187 -0.03317866101861000061 -0.013145294040441513062 -0.028117196634411811829 0.024657659232616424561 0.026142019778490066528 -0.020421976223587989807 0.054119236767292022705 0.045290876179933547974 0.063814483582973480225 -0.08344354480504989624 0.03636136278510093689 0.035519417375326156616 0.016660226508975028992 0.02439465746283531189 -0.030974186956882476807 0.041782747954130172729 0.13358713686466217041 0.063856407999992370605 0.13636234402656555176 0.11375747621059417725 -0.0016655491199344396591 0.057597536593675613403 -0.00066813320154324173927 0.089201860129833221436 -0.0067278174683451652527 0.073678605258464813232 -0.093533687293529510498 0.026721123605966567993 -0.016271973028779029846 0.04880593717098236084 0.15228855609893798828 0.015875365585088729858 0.079463690519332885742 0.042431659996509552002 -0.05737962573766708374 0.0032949463929980993271 0.032432962208986282349 -0.088888682425022125244 -0.002714457223191857338 0.010953300632536411285 -0.0055548120290040969849 0.012433851137757301331 0.14897812902927398682 -0.11993548274040222168 0.038176544010639190674 -0.068020038306713104248 0.089958071708679199219 0.02255315147340297699 0.039176575839519500732 -0.11230053752660751343 -0.046801641583442687988 -0.089939735829830169678 -0.066170975565910339355 -0.040854252874851226807 -0.10336527228355407715 0.11399238556623458862 0.057929884642362594604 0.034821208566427230835 -0.025833392515778541565 0.025879021733999252319 -0.062695845961570739746 -0.07796217501163482666 -0.0413568839430809021 -0.038120329380035400391 -0.032843101769685745239 -0.080998793244361877441 -0.068684108555316925049 -0.054161828011274337769 -0.02268078923225402832 0.097787201404571533203 -0.25487375259399414062 -0.11730901151895523071 -0.19567289948463439941 -0.13022145628929138184 0.063356526196002960205 -0.23188959062099456787 -0.24845634400844573975 -0.10622461885213851929 -0.20428046584129333496 0.0090125463902950286865 0.12443466484546661377 0.067979447543621063232 0.053439013659954071045 0.0880487784743309021 0.042969200760126113892 -0.02830493636429309845 0.010917126201093196869 0.10096372663974761963 -0.036690428853034973145 -0.070964813232421875 -0.12428659945726394653 -0.032801009714603424072 0.077122762799263000488 -0.041112236678600311279 -0.056045953184366226196 0.04092327505350112915 -0.069755464792251586914 -0.022898899391293525696 -0.059615094214677810669 0.041665390133857727051 -0.00017109449254348874092 0.087930694222450256348 0.02717802487313747406 -0.039843264967203140259 -0.082544036209583282471 -0.093086965382099151611 0.036950819194316864014 -0.022420803084969520569 -0.14592003822326660156 0.050719503313302993774 0.029611637815833091736 -0.052133586257696151733 0.0078229103237390518188 -0.01901895180344581604 -0.13511162996292114258 0.08670882880687713623 0.020516989752650260925 0.13594022393226623535 0.018277630209922790527 0.23793260753154754639 0.046222820878028869629 0.12703378498554229736 0.076409853994846343994 0.084775157272815704346 0.044942509382963180542 0.11430052667856216431 0.1528282463550567627 0.14413310587406158447 -0.084888286888599395752 -0.069185912609100341797 0.045066442340612411499 0.094851359724998474121 0.13983072340488433838 -0.079925037920475006104 0.030533133074641227722 -0.035970430821180343628 0.001978268846869468689 0.12799912691116333008 -0.013653404079377651215 -0.065940082073211669922 0.048754096031188964844 0.010274270549416542053 0.10094805806875228882 0.030016176402568817139 0.18097488582134246826 0.14473088085651397705 -0.14660657942295074463 -0.050881996750831604004 0.13539816439151763916 0.10187604278326034546 0.084898211061954498291 0.17654526233673095703 0.034054584801197052002 0.07161121070384979248 0.092326276004314422607 0.051824249327182769775 0.0019242955604568123817 0.068070277571678161621 0.076526395976543426514 0.074839182198047637939 0.0057491776533424854279 -0.033986475318670272827 0.016966233029961585999 -0.005304943770170211792 0.044237080961465835571 0.048039227724075317383 0.060846474021673202515 -0.017265383154153823853 -0.037623193114995956421 -0.16043902933597564697 0.028476124629378318787 -0.096750721335411071777 -0.056633412837982177734 -0.057742744684219360352 -0.15718908607959747314 0.045021414756774902344 -0.17822347581386566162 -0.14825353026390075684 -0.26803952455520629883 0.054229706525802612305 -0.07874383777379989624 -0.19171498715877532959 -0.1958586573600769043 -0.29311159253120422363 -0.49923563003540039062 -0.73909139633178710938 -0.69107419252395629883 0.016431100666522979736 0.019707148894667625427 0.043493673205375671387 0.0024945607874542474747 0.0010979224462062120438 -0.029168795794248580933 0.10221187025308609009 -0.042820092290639877319 0.1191900596022605896 

-0.020872987806797027588 0.0063445894047617912292 -0.010030555538833141327 0.071678616106510162354 0.0068976222537457942963 -0.071569472551345825195 0.028464600443840026855 -0.00091264519141986966133 -0.053197409957647323608 -0.0077843875624239444733 -0.0069066276773810386658 0.0054189725778996944427 -0.024566458538174629211 -0.0050049000419676303864 0.050940889865159988403 -0.013783091679215431213 -0.0041067493148148059845 0.021149454638361930847 0.0091407792642712593079 -0.0040466147474944591522 -0.018158311024308204651 -0.0065834466367959976196 -0.025099514052271842957 0.016786355525255203247 0.016874350607395172119 0.0078554591163992881775 -0.0037503344938158988953 -0.042958952486515045166 -0.0047818557359278202057 0.013939931988716125488 -0.00029793006251566112041 0.024733116850256919861 0.0018761510727927088737 -0.026456279680132865906 -0.044048566371202468872 0.024558072909712791443 -0.0031280610710382461548 0.01689256913959980011 -0.011752242222428321838 -0.0050599751994013786316 0.016242699697613716125 0.0084207840263843536377 0.013267818838357925415 0.0029068430885672569275 -0.024609642103314399719 0.10808642953634262085 -0.026164429262280464172 -0.06724201887845993042 0.043050780892372131348 0.046273916959762573242 -0.18007066845893859863 0.063040681183338165283 0.0051715956069529056549 -0.052177563309669494629 0.015110855922102928162 0.014349409379065036774 0.019480941817164421082 0.0047471793368458747864 0.0033031054772436618805 0.035214841365814208984 -0.0078952433541417121887 -0.0025411101523786783218 0.019084887579083442688 -0.00029370447737164795399 -0.00073979794979095458984 5.7030847528949379921e-05 -0.023083701729774475098 -0.05824635922908782959 0.021339140832424163818 0.037899039685726165771 0.050444982945919036865 0.002403450431302189827 -0.008295557461678981781 -0.0086542898789048194885 0.03505846858024597168 0.02187211252748966217 -0.037018056958913803101 -0.038777284324169158936 0.01403889339417219162 -0.00080530898412689566612 0.034652326256036758423 -0.043189890682697296143 -0.1034564971923828125 0.068026848137378692627 -0.095093406736850738525 -0.019097276031970977783 0.21468111872673034668 -0.028006192296743392944 -0.10216591507196426392 0.12800839543342590332 0.046598255634307861328 -0.0042687808163464069366 0.0234660319983959198 4.7629819164285436273e-05 0.011131248436868190765 0.017241483554244041443 0.023482201620936393738 -0.0013911880087107419968 0.0030430767219513654709 0.039045494049787521362 -0.016582600772380828857 -0.015895456075668334961 0.014478394761681556702 -0.0092953899875283241272 0.026848996058106422424 0.0038943032268434762955 -0.018780937418341636658 0.011875111609697341919 0.0040944549255073070526 -0.0032162431161850690842 -0.057298734784126281738 -0.012990430928766727448 -0.005587958265095949173 0.027948586270213127136 0.016180533915758132935 0.017833257094025611877 -0.023537723347544670105 -0.00018185605586040765047 -0.015012067742645740509 -0.0010146948043256998062 0.0032207409385591745377 -0.0040528746321797370911 -0.018984420225024223328 0.0032353177666664123535 0.014370894990861415863 0.00027616234729066491127 -0.0097684506326913833618 -0.023733656853437423706 0.022346623241901397705 0.057149399071931838989 -0.0073950928635895252228 -0.052518174052238464355 0.018486939370632171631 -0.014400604180991649628 0.039250500500202178955 0.013448541983962059021 0.011148464865982532501 0.0056488942354917526245 0.0075713112019002437592 0.0014778572367504239082 -0.01202306058257818222 0.0056326449848711490631 0.0044297035783529281616 -0.011423692107200622559 0.01119700353592634201 -0.012831277213990688324 0.01231571100652217865 0.04053958505392074585 0.016239954158663749695 0.0086450101807713508606 0.012069148942828178406 -0.050754062831401824951 0.018771030008792877197 0.029449984431266784668 0.0051426272839307785034 -0.02333679981529712677 0.045308254659175872803 0.0038483489770442247391 -0.020773878321051597595 0.037844058126211166382 0.011484651826322078705 -0.026453593745827674866 -0.0017065092688426375389 -0.0061778347007930278778 -0.0057702767662703990936 -0.051378667354583740234 0.0039939153939485549927 0.0280304737389087677 -0.020916424691677093506 0.010760936886072158813 0.028882900252938270569 0.042789626866579055786 0.019753441214561462402 -0.04260713234543800354 0.016124563291668891907 -0.03756046295166015625 0.025189682841300964355 0.010665946640074253082 0.037655796855688095093 -0.019070919603109359741 0.0031584203243255615234 -0.0084467232227325439453 0.0029539172537624835968 -0.016903640702366828918 -0.016263471916317939758 0.065004073083400726318 -0.019517624750733375549 -0.014650781638920307159 0.017618000507354736328 0.021805873140692710876 -0.012770966626703739166 -0.0066147898323833942413 0.08316847681999206543 -0.022376354783773422241 -0.037527672946453094482 0.016245698556303977966 -0.0033755442127585411072 -0.0046595111489295959473 -0.064399667084217071533 -0.20872193574905395508 0.10060235112905502319 -0.015003748238086700439 -0.10446362942457199097 0.01280654221773147583 -0.028648929670453071594 -0.093122154474258422852 0.022851562127470970154 -0.0046468083746731281281 -0.010870859026908874512 0.014599923975765705109 0.015821879729628562927 0.016441836953163146973 0.018000196665525436401 -0.010615598410367965698 -0.01650695502758026123 -0.012461441569030284882 0.036842029541730880737 -0.018518023192882537842 -0.079025708138942718506 0.037989210337400436401 -0.043942585587501525879 -0.14343710243701934814 0.069851242005825042725 -0.0056486274115741252899 -0.031535610556602478027 -0.0024319207295775413513 -0.017051944509148597717 0.021981835365295410156 -0.036971021443605422974 0.026614457368850708008 0.090624250471591949463 -0.043339893221855163574 0.010988926514983177185 0.027708875015377998352 0.0028316802345216274261 0.012767778709530830383 -0.001989271724596619606 -0.012528063729405403137 -0.029401658102869987488 0.0056987679563462734222 -0.0042112516239285469055 -0.0071505354717373847961 -0.015441404655575752258 -0.013062215410172939301 -0.002220814581960439682 0.01128567475825548172 0.045089256018400192261 -0.0025408891960978507996 -0.066283233463764190674 0.029585476964712142944 0.011831045150756835938 -0.0094523997977375984192 0.014600166119635105133 0.028804382309317588806 -0.010278345085680484772 0.016283819451928138733 -0.055858176201581954956 -0.036662761121988296509 0.015079582110047340393 0.010421260260045528412 -0.01919964328408241272 -0.0011833116877824068069 0.0016202632104977965355 0.03224018588662147522 0.010269867256283760071 0.021822977811098098755 0.018739806488156318665 -0.010466719046235084534 -0.047233946621417999268 0.030078923329710960388 -0.0041857305914163589478 0.026934999972581863403 -0.0072668441571295261383 -0.027382662519812583923 -0.031881291419267654419 0.058903820812702178955 0.025115840137004852295 0.065833657979965209961 0.042612444609403610229 -0.017922341823577880859 -0.0061531467363238334656 0.010993251577019691467 -0.020384861156344413757 0.0050246324390172958374 0.012781993485987186432 -0.0076934415847063064575 -0.01721242070198059082 0.021430002525448799133 0.010330940596759319305 -0.016882384195923805237 -0.025556465610861778259 0.078810013830661773682 -0.0051612812094390392303 -0.0031712194904685020447 -0.0083544654771685600281 0.00660767359659075737 0.012052759528160095215 0.0033216867595911026001 0.021797206252813339233 -0.014043609611690044403 0.07886962592601776123 0.00076483387965708971024 -0.042923089116811752319 -0.01253549475222826004 0.0006919748266227543354 -0.042923878878355026245 0.022296499460935592651 -0.015694383531808853149 0.0027240398339927196503 0.013304578140377998352 -0.012150759808719158173 0.013334048911929130554 0.016782948747277259827 -0.0067942799068987369537 0.024293817579746246338 -0.12850050628185272217 0.024023104459047317505 0.037633240222930908203 0.088114090263843536377 0.011491568759083747864 0.028193568810820579529 -0.012464697472751140594 -0.02915041707456111908 0.015102978795766830444 -0.038161583244800567627 -0.030092947185039520264 0.01276494935154914856 0.074327126145362854004 0.041708573698997497559 -0.044739138334989547729 -0.022337803617119789124 -0.011805979534983634949 0.012758396565914154053 -0.01053279731422662735 -0.0011010224698111414909 -0.010616649873554706573 0.015577893704175949097 0.010274230502545833588 0.0039026341401040554047 0.01686246134340763092 -0.020713297650218009949 -0.0084609882906079292297 -0.010865875519812107086 -0.0072398646734654903412 0.018678806722164154053 0.14727446436882019043 0.023830557242035865784 -0.16424515843391418457 0.028797535225749015808 0.036504231393337249756 -0.002405048813670873642 0.0028525129891932010651 -0.0096288453787565231323 0.021270588040351867676 0.037370577454566955566 -0.0020278862211853265762 -0.033776741474866867065 0.0055773542262613773346 -0.015286986716091632843 0.012042280286550521851 -0.020947810262441635132 0.00417771143838763237 0.028066137805581092834 -0.04362201690673828125 -0.048915117979049682617 0.027397494763135910034 -0.015001510269939899445 0.0040857130661606788635 0.036476876586675643921 0.0059579061344265937805 -0.022085838019847869873 0.034570042043924331665 -0.038913369178771972656 -0.017887039110064506531 0.056908711791038513184 -0.052664879709482192993 -0.029334619641304016113 0.04562922939658164978 0.0011752807768061757088 0.010478032752871513367 -0.0083936657756567001343 0.0013422826305031776428 0.01304518524557352066 -0.0055228080600500106812 0.0046165809035301208496 -0.013732604682445526123 -0.0051052519120275974274 -0.0014297160087153315544 0.0053292107768356800079 0.0018013304797932505608 -0.034983001649379730225 -0.023994011804461479187 0.030957197770476341248 0.014487867243587970734 0.005830243229866027832 -0.0070493752136826515198 0.030666552484035491943 0.016968840733170509338 -0.0039628492668271064758 -0.013687518425285816193 -0.03895162045955657959 -0.028464371338486671448 0.027068801224231719971 -0.0020678599830716848373 -0.013910715468227863312 -0.010873953811824321747 -0.0090107033029198646545 -0.0013573080068454146385 -0.0096227396279573440552 0.0093729803338646888733 0.013928461819887161255 0.0047678542323410511017 -0.0025360260624438524246 0.014451295137405395508 0.0084671629592776298523 -0.0021012485958635807037 -0.007405886426568031311 -0.0062425611540675163269 0.0022049350664019584656 -0.018400292843580245972 0.019640373066067695618 0.02820429578423500061 -0.015466655604541301727 0.16939026117324829102 -0.097056373953819274902 -0.10646433383226394653 0.43400797247886657715 -0.16978907585144042969 -0.29264742136001586914 0.37585166096687316895 -0.12313151359558105469 -0.20661914348602294922 -0.0015071574598550796509 0.013257804326713085175 -0.017813678830862045288 -0.025718040764331817627 0.021660860627889633179 -0.012102881446480751038 0.016327532008290290833 0.034438852220773696899 -0.079846151173114776611 -0.0086924787610769271851 0.019307171925902366638 0.045194312930107116699 0.0042552184313535690308 -0.058179333806037902832 0.069502457976341247559 -0.038354858756065368652 0.00092886638594791293144 0.023453276604413986206 -0.031164094805717468262 -0.0013894634321331977844 0.0061263991519808769226 0.024697707965970039368 -0.026357704773545265198 -0.016712488606572151184 0.044267546385526657104 0.029709769412875175476 -0.03775312379002571106 0.036055400967597961426 -0.045911163091659545898 -0.020294377580285072327 -0.04811606183648109436 -0.00035200690035708248615 0.09498742222785949707 -0.0049509527161717414856 -0.025498747825622558594 0.025090895593166351318 0.00076381373219192028046 0.00050926720723509788513 0.0010266787139698863029 -0.010751441121101379395 -0.025192314758896827698 0.0061554037965834140778 0.00042752089211717247963 0.0047382740303874015808 0.020337250083684921265 0.012321272864937782288 0.012865337543189525604 -0.046776399016380310059 -0.051313482224941253662 -0.026934633031487464905 0.0056146723218262195587 0.031764972954988479614 0.033777929842472076416 -0.031679939478635787964 0.015055605210363864899 -0.011324147693812847137 0.0058697876520454883575 -0.0013589480658993124962 0.0059641189873218536377 -0.026927661150693893433 -0.0028380842413753271103 0.023916592821478843689 0.013546221889555454254 0.02636457979679107666 -6.3726212829351425171e-05 -0.011502357199788093567 -0.056110065430402755737 -0.0089109046384692192078 -0.0068084392696619033813 0.0055985795333981513977 0.030878026038408279419 0.01477411855012178421 0.0092163914814591407776 -0.011613057926297187805 -0.00064807804301381111145 -0.018501898273825645447 -0.0096612554043531417847 0.03997154533863067627 0.0081660719588398933411 -0.0061812116764485836029 0.0082690287381410598755 -0.0098322248086333274841 0.015212461352348327637 -0.00064813613425940275192 -0.05563500523567199707 -0.018250282853841781616 0.026063118129968643188 0.013718541711568832397 0.0064937979914247989655 -0.015277339145541191101 -0.0020224719773977994919 -0.011350424960255622864 -0.016680041328072547913 -0.020252818241715431213 -0.024465028196573257446 -0.0056100026704370975494 0.020856423303484916687 0.0064788176678121089935 0.00082242034841328859329 -0.01608811505138874054 0.040831379592418670654 0.016319718211889266968 0.072646632790565490723 0.009638546966016292572 -0.090563699603080749512 -0.024249676614999771118 -0.012939153239130973816 0.027604097500443458557 0.010102898813784122467 0.0039461795240640640259 -0.0051012225449085235596 0.0053949626162648200989 -0.0012248470447957515717 -0.0049448241479694843292 0.014266638085246086121 -0.0079716304317116737366 -0.0070299040526151657104 0.0027438357938081026077 0.022834008559584617615 -0.033676330000162124634 0.013651299290359020233 -0.0032015896867960691452 -0.0046443589963018894196 -0.021882260218262672424 -0.020294861868023872375 0.020395463332533836365 0.025992566719651222229 0.0062594320625066757202 -0.0018856978276744484901 0.010715370066463947296 0.0140396924689412117 -0.0054420256055891513824 -0.0063513033092021942139 -0.0049573392607271671295 -0.0099633559584617614746 0.0026106408331543207169 -0.0044643771834671497345 -0.0071069449186325073242 -0.040121145546436309814 -0.039865344762802124023 0.068199850618839263916 -0.00080871256068348884583 -0.00044726722990162670612 0.043152626603841781616 -0.0049083232879638671875 0.0032332660630345344543 -0.0033796005882322788239 -0.040727827697992324829 -0.027483731508255004883 0.0066958554089069366455 -0.0058287875726819038391 -0.0052535128779709339142 0.0067010228522121906281 0.0046579199843108654022 0.0034625630360096693039 -0.025283649563789367676 0.018215946853160858154 -0.01699352264404296875 0.0055474340915679931641 0.006649949587881565094 -0.023781437426805496216 -0.00097305217059329152107 0.005754556506872177124 -0.021707411855459213257 0.024503797292709350586 -0.060981389135122299194 -0.011643148958683013916 0.056261774152517318726 -0.031498391181230545044 -0.015861343592405319214 0.046985164284706115723 0.018182178959250450134 0.0029829756822437047958 0.0010159451048821210861 -0.028483463451266288757 -0.0016472800634801387787 0.03847207874059677124 0.023322092369198799133 -0.0037187067791819572449 -0.014738685451447963715 -0.0047093546018004417419 -0.0065002664923667907715 0.00076845299918204545975 -0.024768630042672157288 -0.015028920955955982208 0.014967044815421104431 0.022273518145084381104 -0.018187459558248519897 -0.0083481976762413978577 -0.0039713834412395954132 0.0099006919190287590027 -0.023957731202244758606 -0.021601362153887748718 0.032163746654987335205 0.013064854778349399567 -0.011150970123708248138 0.010132108815014362335 -0.015724169090390205383 -0.0046790540218353271484 -0.012328414246439933777 0.032587386667728424072 0.024329336360096931458 -0.034085832536220550537 -0.0074098152108490467072 0.00045805252739228308201 -0.0070450585335493087769 0.011813702061772346497 0.0056774569675326347351 -0.0090611921623349189758 0.0062563209794461727142 -0.0065013878047466278076 -0.0020679403096437454224 0.025180354714393615723 -0.0017292476259171962738 -0.0045152097009122371674 0.0015506965573877096176 -0.0074077071622014045715 -0.004236533772200345993 -0.0047861570492386817932 0.0056841219775378704071 0.024297779425978660583 -0.019900999963283538818 0.012895075604319572449 0.0089154150336980819702 0.0083237746730446815491 -0.21928262710571289062 -0.11559998989105224609 0.3121204376220703125 -0.45675617456436157227 -0.026214517652988433838 0.66646623611450195312 -0.376598358154296875 -0.12320433557033538818 0.46349132061004638672 0.0095577239990234375 -0.011181709356606006622 -0.016705891117453575134 0.017813982442021369934 0.02666874416172504425 -0.0086532868444919586182 0.0043523474596440792084 0.010821812786161899567 -0.021563718095421791077 -0.0047789150848984718323 0.0087495008483529090881 0.010351723991334438324 0.0043402533046901226044 -0.012564699165523052216 -0.00074502459028735756874 0.011381365358829498291 0.001183218788355588913 0.02423574402928352356 0.0040370407514274120331 -0.0099245170131325721741 0.03279730677604675293 -0.033954299986362457275 0.033315245062112808228 0.016811739653348922729 0.031717002391815185547 -0.022872785106301307678 -0.019853919744491577148 -0.0035190978087484836578 -0.035895116627216339111 0.020113706588745117188 0.033987600356340408325 -0.021511884406208992004 -0.013031424954533576965 -0.013251561671495437622 -0.0018280340591445565224 0.010416709817945957184 0.03429475054144859314 -0.0032424449454993009567 -0.024164862930774688721 0.060979373753070831299 0.040524613112211227417 -0.041070308536291122437 0.041565679013729095459 -0.010431584902107715607 -0.048408553004264831543 0.016486696898937225342 -0.0055892989039421081543 -0.0048122550360858440399 0.015060310252010822296 0.0020959638059139251709 -0.016965489834547042847 0.029604781419038772583 0.012964946217834949493 -0.020281203091144561768 

0.053403709083795547485 0.050355341285467147827 0.027217714115977287292 -0.009717419743537902832 0.19333162903785705566 -0.014246514067053794861 0.010762080550193786621 0.054989505559206008911 0.043318055570125579834 0.013878250494599342346 -0.0068077021278440952301 -0.050939068198204040527 0.025477340444922447205 -0.029164491221308708191 -0.025431334972381591797 0.00098347000312060117722 0.040100593119859695435 0.025363018736243247986 -0.0060205631889402866364 0.011836363933980464935 -0.0041308971121907234192 0.014288914389908313751 0.044273093342781066895 0.0040706931613385677338 0.050217203795909881592 -0.00036284219822846353054 0.0051138736307621002197 -0.11494442075490951538 -0.0096725374460220336914 -0.10593283921480178833 -0.043052818626165390015 -0.066338337957859039307 -0.050664316862821578979 -0.15742060542106628418 -0.11120325326919555664 -0.065600723028182983398 0.0042702765204012393951 -0.056579995900392532349 -0.0058699161745607852936 -0.025751447305083274841 -0.0149835171177983284 -0.068048439919948577881 0.022713955491781234741 0.012228529900312423706 0.044982597231864929199 0.038917589932680130005 0.076701477169990539551 0.038219317793846130371 0.041989583522081375122 0.045146580785512924194 0.064632661640644073486 0.0030157826840877532959 -0.034585122019052505493 0.0032845588866621255875 -0.027290761470794677734 -0.030411878600716590881 -0.052785687148571014404 -0.01188542880117893219 0.03593185916543006897 0.025535970926284790039 -0.043739467859268188477 -0.018124703317880630493 -0.0089801112189888954163 -0.012314562685787677765 0.0012120917672291398048 -0.094128556549549102783 -0.014437997713685035706 0.00099913612939417362213 -0.056514505296945571899 0.099868297576904296875 -0.01628412492573261261 -0.036962632089853286743 0.050615333020687103271 0.0097930729389190673828 0.057256266474723815918 -0.022254571318626403809 -0.0036193875130265951157 0.078214332461357116699 0.016854340210556983948 -0.0053051374852657318115 0.062201298773288726807 -0.038080863654613494873 0.038013167679309844971 0.076023086905479431152 -0.10929191857576370239 -0.096866756677627563477 0.0716039314866065979 0.0021021990105509757996 -0.012310547754168510437 -0.032470434904098510742 -0.025200245901942253113 0.053407561033964157104 0.0033589990343898534775 -0.0025702035054564476013 0.051676042377948760986 0.0060370373539626598358 -0.031552430242300033569 0.04620871320366859436 -0.030133800581097602844 0.14966261386871337891 -0.17318958044052124023 0.139466896653175354 0.036728832870721817017 -0.1683374941349029541 0.040771171450614929199 0.084482118487358093262 -0.02148373238742351532 0.13617934286594390869 -0.035299275070428848267 -0.087559990584850311279 0.015822751447558403015 0.065841428935527801514 -0.054534010589122772217 0.038346726447343826294 -0.011861291714012622833 -0.053565654903650283813 0.065283440053462982178 0.0052242917008697986603 0.019542949274182319641 0.0017839086940512061119 0.064175963401794433594 0.012775463052093982697 0.031870327889919281006 0.019852977246046066284 0.039785169064998626709 0.017612639814615249634 -0.11748078465461730957 -0.010292728431522846222 -0.084505617618560791016 -0.049613676965236663818 0.053915850818157196045 -0.05426510050892829895 -0.1734892427921295166 -0.066885374486446380615 -0.16611228883266448975 -0.021166941151022911072 -0.062204666435718536377 -0.022624082863330841064 0.036119371652603149414 -0.04956074059009552002 0.0040240618400275707245 -0.028223741799592971802 -0.068756997585296630859 -0.041265841573476791382 0.019454171881079673767 0.045029491186141967773 -0.0011792439036071300507 0.028770681470632553101 0.047695707529783248901 -0.015784939751029014587 -0.038752794265747070312 0.015902254730463027954 -0.07781826704740524292 0.080122679471969604492 0.03478857874870300293 0.086822390556335449219 0.090246878564357757568 0.058674115687608718872 0.028423627838492393494 0.081526413559913635254 0.034661807119846343994 0.037250563502311706543 -0.010279675945639610291 -0.020830411463975906372 -0.0089927036315202713013 -0.023056255653500556946 -0.039468050003051757812 0.011304413899779319763 -0.010735641233623027802 -0.0020091270562261343002 0.0058071203529834747314 0.022066457197070121765 0.013485671952366828918 0.033996827900409698486 -0.011346938088536262512 0.067304641008377075195 -0.069402679800987243652 0.055536143481731414795 0.064965941011905670166 -0.031598739326000213623 -0.099395371973514556885 -0.030955357477068901062 0.0081311091780662536621 -0.030541189014911651611 0.018657833337783813477 -0.0068768914788961410522 -0.048463854938745498657 -0.010568811558187007904 -0.047033164650201797485 -0.010707152076065540314 0.010679432190954685211 0.0162876080721616745 0.029635231941938400269 0.089843966066837310791 0.023835083469748497009 -0.017982520163059234619 -0.024017253890633583069 0.012057438492774963379 0.016496665775775909424 0.0082049276679754257202 -0.037080839276313781738 0.10383497178554534912 0.060240965336561203003 0.048151422291994094849 0.08643331378698348999 -0.048119142651557922363 -0.056078270077705383301 0.068961061537265777588 -0.021713798865675926208 0.053787760436534881592 0.0036143567413091659546 -0.089655362069606781006 -0.031346678733825683594 -0.0069028977304697036743 -0.024241104722023010254 0.049988735467195510864 0.053603798151016235352 0.025396652519702911377 0.007387975696474313736 0.040183227509260177612 0.038440033793449401855 0.059513978660106658936 0.076755113899707794189 -0.003708789357915520668 0.032560478895902633667 -0.06541779637336730957 -0.10474616289138793945 0.086506024003028869629 -0.11228703707456588745 -0.0066023292019963264465 -0.039611633867025375366 -0.017332617193460464478 -0.11259057372808456421 -0.084278643131256103516 -0.0089046312496066093445 0.017865560948848724365 0.0078740203753113746643 0.014929100871086120605 0.042454820126295089722 -0.023875156417489051819 0.032321322709321975708 -0.023832309991121292114 -0.049448303878307342529 0.069203399121761322021 0.033700585365295410156 0.10484649240970611572 0.0446757487952709198 0.03880395740270614624 0.038489814847707748413 0.043970681726932525635 -0.023789068683981895447 0.060892213135957717896 0.059491913765668869019 0.067842155694961547852 -0.010990672744810581207 0.016356855630874633789 0.048114378005266189575 0.058648325502872467041 0.02434481494128704071 0.0040503880009055137634 -0.0016401977045461535454 -0.047977231442928314209 -0.12487632036209106445 -0.061543434858322143555 -0.095876932144165039062 -0.059007532894611358643 0.058783058077096939087 -0.10946160554885864258 -0.046556904911994934082 -0.013044120743870735168 -0.064926862716674804688 -0.026280086487531661987 -0.10597909986972808838 -0.049454167485237121582 0.01953745819628238678 -0.059879068285226821899 -0.081487782299518585205 -0.14540587365627288818 -0.090275548398494720459 -0.047287173569202423096 -0.0051419520750641822815 -0.021462872624397277832 -0.05870184674859046936 -0.047028582543134689331 -0.030446613207459449768 -0.034966211766004562378 -0.043497852981090545654 -0.019837506115436553955 0.020568702369928359985 0.034989248961210250854 0.069661356508731842041 0.057786252349615097046 -0.068244099617004394531 0.056263610720634460449 0.06667076796293258667 -0.0082806348800659179688 0.04212770611047744751 -0.066327199339866638184 -0.040839251130819320679 -0.051988814026117324829 -0.068236924707889556885 0.089278355240821838379 -0.04291014745831489563 0.034883391112089157104 -0.051639273762702941895 -0.069552779197692871094 0.090726442635059356689 0.094011791050434112549 0.11891314387321472168 0.04330923035740852356 0.10921891778707504272 0.040161069482564926147 0.054427858442068099976 0.084770821034908294678 0.076451621949672698975 -0.078634835779666900635 -0.16576014459133148193 -0.069858364760875701904 -0.12785710394382476807 -0.069459207355976104736 -0.14933077991008758545 -0.053940732032060623169 -0.17309153079986572266 -0.21992768347263336182 0.009499528445303440094 -0.025280654430389404297 0.043655354529619216919 -0.017401548102498054504 -0.055337958037853240967 0.052055411040782928467 -0.037638746201992034912 -0.0014698548475280404091 0.058918382972478866577 -0.013372458517551422119 -0.017151052132248878479 0.025572545826435089111 0.019094781950116157532 -0.047724608331918716431 0.0028178214561194181442 -0.043571732938289642334 0.034614283591508865356 -0.005424315575510263443 -0.050709400326013565063 0.041078452020883560181 -0.074681118130683898926 -0.026334367692470550537 0.11157990992069244385 -0.046746283769607543945 -0.04749895632266998291 0.013871818780899047852 -0.031782399863004684448 0.012186135165393352509 0.010412203148007392883 -0.022926490753889083862 -0.010597565211355686188 0.087547250092029571533 0.0095861153677105903625 -0.0056568360887467861176 -0.00022266260930337011814 -0.025768795982003211975 -0.030788362026214599609 -0.015976119786500930786 0.034708991646766662598 -0.012435314245522022247 -0.034109968692064285278 -0.0054613752290606498718 0.028260780498385429382 0.057568412274122238159 0.038206581026315689087 0.017837287858128547668 0.010383334942162036896 -0.039918605238199234009 0.010039458982646465302 0.027131795883178710938 -0.020539747551083564758 -0.0073477188125252723694 0.0091304676607251167297 -0.067871749401092529297 0.011482401750981807709 -0.017012067139148712158 0.05225084349513053894 -0.029352048411965370178 -0.0049771089106798171997 0.038782380521297454834 -0.041109137237071990967 0.012951887212693691254 0.016065848991274833679 0.035405129194259643555 -0.032822061330080032349 -0.0013140900991857051849 0.011017388664186000824 -0.037687078118324279785 0.0062084984965622425079 -0.0059974170289933681488 0.0063216276466846466064 -0.0086298976093530654907 0.03142113611102104187 0.084211036562919616699 -0.04274126887321472168 0.017951292917132377625 0.064444482326507568359 0.062214042991399765015 0.039694428443908691406 -0.031052781268954277039 0.025761794298887252808 0.0013978214701637625694 -0.029775932431221008301 -0.0033136715646833181381 0.00321337883360683918 -0.047576468437910079956 0.0090874284505844116211 0.021451693028211593628 -0.029875027015805244446 0.030703835189342498779 0.0056759575381875038147 0.013966862112283706665 0.030188033357262611389 0.025718815624713897705 0.041858281940221786499 -0.0049714352935552597046 0.059388015419244766235 -0.01881677284836769104 0.009192898869514465332 0.086987018585205078125 0.020874580368399620056 0.0038605148438364267349 0.019973220303654670715 0.065184429287910461426 -0.049020342528820037842 0.01789305172860622406 -0.030258463695645332336 -0.031149566173553466797 0.022526923567056655884 0.017870683223009109497 0.057108640670776367188 0.031498495489358901978 0.017218779772520065308 0.071580626070499420166 0.076843000948429107666 0.061758611351251602173 0.073871389031410217285 -0.099342040717601776123 0.00018699078646022826433 -0.043868098407983779907 -0.022103790193796157837 -0.049099382013082504272 -0.067463479936122894287 -0.083531461656093597412 -0.036128103733062744141 -0.064843870699405670166 0.20025655627250671387 0.065801829099655151367 0.22059625387191772461 0.12372982501983642578 0.06484975665807723999 0.10759900510311126709 0.15489271283149719238 0.061607800424098968506 0.1254726797342300415 -0.063957601785659790039 -0.094732321798801422119 -0.0088435988873243331909 -0.007831335999071598053 -0.056739568710327148438 -0.00092233705800026655197 -0.027164783328771591187 -0.0070789866149425506592 -0.0013291047653183341026 0.059703052043914794922 0.073181942105293273926 -0.046987555921077728271 -0.033101562410593032837 0.025075975805521011353 -0.011221596971154212952 0.011150119826197624207 0.034766439348459243774 0.040253262966871261597 -0.011956378817558288574 -0.090946190059185028076 0.0073818457312881946564 0.044250130653381347656 -0.11658165603876113892 -0.021472059190273284912 0.033431611955165863037 -0.077621541917324066162 0.0097612990066409111023 0.014726252295076847076 -0.017499102279543876648 -0.043457113206386566162 0.0085980156436562538147 0.031805783510208129883 -0.0050369831733405590057 -0.024412568658590316772 -0.020816009491682052612 -0.013920835219323635101 0.16192497313022613525 0.15577057003974914551 0.026282915845513343811 -0.033554162830114364624 0.16359043121337890625 -0.035792041569948196411 0.097100444138050079346 0.1082968786358833313 0.026620000600814819336 -0.0057327360846102237701 -0.025268655270338058472 0.0098273875191807746887 -0.011216818355023860931 -0.067609250545501708984 -0.0022826611530035734177 -0.012479905970394611359 -0.015201948583126068115 -0.028361793607473373413 -0.13563610613346099854 -0.021534699946641921997 -0.084198988974094390869 -0.044595111161470413208 -0.00080454238923266530037 -0.023394007235765457153 -0.10666208714246749878 0.015942856669425964355 -0.069830559194087982178 0.010895295068621635437 0.041848417371511459351 0.061992619186639785767 -0.0063422140665352344513 0.030710021033883094788 -0.014301906339824199677 0.0026424385141581296921 0.023334592580795288086 0.017831545323133468628 0.049471989274024963379 0.044199317693710327148 0.061898458749055862427 0.10771615058183670044 0.02574305608868598938 0.0030582863837480545044 0.045024450868368148804 -0.023318510502576828003 0.017361288890242576599 -0.034625668078660964966 -0.019458793103694915771 -0.052347932010889053345 -0.089959584176540374756 0.053938180208206176758 -0.026973988860845565796 -0.04046146199107170105 -0.065562941133975982666 0.00064361200202256441116 0.042562160640954971313 0.058164913207292556763 0.061973951756954193115 0.04204973950982093811 0.012958217412233352661 0.040242668241262435913 0.047805815935134887695 -0.080204553902149200439 0.077548608183860778809 -0.13093368709087371826 -0.01290836092084646225 -0.071163713932037353516 -0.037537656724452972412 -0.027174573391675949097 -0.022287772968411445618 -0.083525091409683227539 0.026036094874143600464 -0.048459466546773910522 -0.015147155150771141052 0.014667280018329620361 -0.022024841979146003723 -0.03090305812656879425 -0.014563581906259059906 -0.01378340553492307663 0.0095272688195109367371 0.0078121181577444076538 -0.015343172475695610046 -0.026817526668310165405 -0.0401879921555519104 0.024886241182684898376 0.0095264483243227005005 -0.028545401990413665771 -0.016549473628401756287 -0.028362222015857696533 -0.008800744079053401947 0.038238305598497390747 0.01655430719256401062 0.14327901601791381836 0.083826772868633270264 -0.032207660377025604248 0.11089801043272018433 0.015256115235388278961 0.0067293937318027019501 0.13263620436191558838 0.063281439244747161865 -0.02081388421356678009 0.024457570165395736694 -0.019329866394400596619 -0.0087943607941269874573 0.035535939037799835205 -0.025536933913826942444 0.013588892295956611633 0.0066445250995457172394 0.003098211018368601799 -0.05578726157546043396 -0.046650294214487075806 -0.061582319438457489014 -0.018767625093460083008 -0.086945794522762298584 -0.048518523573875427246 -0.1245881989598274231 -0.068592704832553863525 -0.089193977415561676025 0.047720760107040405273 -0.075235150754451751709 0.058687757700681686401 0.018305694684386253357 0.046820878982543945312 0.06713625788688659668 0.042193241417407989502 0.0079186530783772468567 -0.006547008175402879715 -0.0033667166717350482941 0.04931407049298286438 -0.017820678651332855225 0.0042041707783937454224 -0.0088867144659161567688 0.024384787306189537048 -0.0068259532563388347626 0.017961304634809494019 0.0094973230734467506409 0.038178313523530960083 0.070449516177177429199 0.057269472628831863403 0.011563123203814029694 0.033207304775714874268 0.05870558321475982666 0.011747633107006549835 0.052947457879781723022 0.010077178478240966797 0.0086036194115877151489 -0.061188496649265289307 0.013974846340715885162 0.029046444222331047058 -0.049073293805122375488 -0.015261319465935230255 -0.0059299929998815059662 -0.013883585110306739807 0.019396603107452392578 0.11515961587429046631 0.13316714763641357422 0.093635983765125274658 0.04878215491771697998 0.15851324796676635742 0.077718265354633331299 0.09841050952672958374 0.13640828430652618408 0.10569879412651062012 -0.028108419850468635559 -0.041079461574554443359 -0.038345366716384887695 0.025762131437659263611 -0.037003729492425918579 0.013225961476564407349 -0.046131029725074768066 -0.052020844072103500366 -0.020166750997304916382 0.031357116997241973877 0.038802910596132278442 0.038132183253765106201 -0.0093310363590717315674 0.042720437049865722656 -0.00097430084133520722389 0.05030330270528793335 0.025371942669153213501 0.057146180421113967896 0.069981582462787628174 0.054095204919576644897 0.061740458011627197266 0.0060113179497420787811 0.087735772132873535156 0.037331610918045043945 0.048615992069244384766 0.086938135325908660889 -0.0078932233154773712158 -0.05960411950945854187 0.058864049613475799561 -0.073152646422386169434 0.015855610370635986328 -0.047408897429704666138 0.035954732447862625122 -0.032126318663358688354 -0.020133066922426223755 -0.0012408758047968149185 0.0091250883415341377258 0.072517186403274536133 0.053699653595685958862 -0.023233164101839065552 0.01802720874547958374 -0.030117955058813095093 0.042928230017423629761 0.055467382073402404785 0.045674651861190795898 -0.048340063542127609253 -0.019885230809450149536 -0.010878004133701324463 -0.03546444326639175415 0.051049351692199707031 -0.065252289175987243652 -0.046315722167491912842 -0.03375606238842010498 -0.078856073319911956787 0.032222963869571685791 0.14682321250438690186 0.048778899013996124268 0.027892816811800003052 0.11738854646682739258 0.021368861198425292969 0.096443921327590942383 0.027642291039228439331 0.052495077252388000488 

