0.11051063239574432373 0.025622863322496414185 0.027416799217462539673 -0.047753788530826568604 -0.08083855360746383667 -0.065892048180103302002 -0.056835740804672241211 0.010930605232715606689 0.063192918896675109863 -0.31433159112930297852 -0.14210134744644165039 0.15900842845439910889 -0.013465042226016521454 -0.061516020447015762329 -0.0068845772184431552887 0.27923339605331420898 -0.096983164548873901367 -0.12613844871520996094 -0.0074015459977090358734 0.0018568749073892831802 0.0062216650694608688354 -0.0025535211898386478424 -0.017072753980755805969 -0.0069864629767835140228 0.040551751852035522461 0.01130373682826757431 0.00043979400652460753918 -0.026873240247368812561 -0.081609860062599182129 -0.10491322726011276245 0.0043330034241080284119 0.018075324594974517822 0.010348353534936904907 0.0040979608893394470215 0.00035619491245597600937 0.042838212102651596069 -0.0038771729450672864914 0.0028863491024821996689 0.0037071122787892818451 -0.033754579722881317139 -0.025451701134443283081 -0.040795739740133285522 -0.0015027577755972743034 -0.030728299170732498169 -0.0053092637099325656891 -0.049056455492973327637 -0.046738903969526290894 -0.028483996167778968811 0.0033847785089164972305 0.0068178232759237289429 0.0054880799725651741028 0.049816068261861801147 0.023848051205277442932 0.038470845669507980347 6.8622524850070476532e-05 0.0091960486024618148804 0.014147986657917499542 0.0062101236544549465179 0.0079380525276064872742 -0.00010289331839885562658 0.0031196787022054195404 -0.0078840563073754310608 -0.0090063335373997688293 -0.0055709667503833770752 0.0065054800361394882202 0.010185033082962036133 0.01069276127964258194 0.01386792398989200592 0.012721227481961250305 0.010734087787568569183 -0.01139162946492433548 0.016508098691701889038 0.031344212591648101807 0.0042407303117215633392 -0.0069790664128959178925 0.02876332402229309082 0.0088548725470900535583 0.024790735915303230286 -0.033987659960985183716 0.0031510272528976202011 0.0024446989409625530243 -0.0027835273649543523788 0.071550190448760986328 0.022791586816310882568 0.010973314754664897919 -0.45188871026039123535 -0.10350834578275680542 0.081433944404125213623 0.13670493662357330322 0.04964472353458404541 0.013641851022839546204 -0.0080922245979309082031 0.011093270033597946167 -0.0063895657658576965332 -0.019257696345448493958 -0.031620189547538757324 0.0020641814917325973511 -0.0073248338885605335236 -0.0072009935975074768066 -0.007838399149477481842 0.00540049700066447258 -0.012555898167192935944 -0.00048293481813743710518 -0.0066136922687292098999 -0.0025138009805232286453 0.00032841897336766123772 0.0017197376582771539688 0.0099687278270721435547 0.0016428885282948613167 0.002979673212394118309 0.017455557361245155334 -0.011414073407649993896 -0.0024822240229696035385 -0.014678626321256160736 0.0015115763526409864426 -0.010762021876871585846 -0.011550595052540302277 0.0023701174650341272354 0.0039923633448779582977 0.0017734090797603130341 0.0052766078151762485504 0.0078868307173252105713 0.0049048671498894691467 -0.013600593432784080505 -0.0079692732542753219604 0.004249170888215303421 0.075375154614448547363 0.081451684236526489258 0.099506117403507232666 0.023377927020192146301 0.047239787876605987549 0.020008385181427001953 -0.065681412816047668457 -0.082856267690658569336 -0.080315634608268737793 0.073340944945812225342 0.15507501363754272461 0.12172375619411468506 -0.012643555179238319397 -0.0076980916783213615417 0.0029453546740114688873 -0.10611611604690551758 -0.16766270995140075684 -0.17217195034027099609 0.32953214645385742188 0.26178765296936035156 0.32058191299438476562 0.0050187543965876102448 -0.00014392661978490650654 -0.010221338830888271332 -0.27775096893310546875 -0.30897164344787597656 -0.30705946683883666992 0.016567042097449302673 0.014793065376579761505 0.010435583069920539856 0.0020394811872392892838 -0.0072125173173844814301 -0.010266836732625961304 0.00060272397240623831749 0.022674690932035446167 0.029320364817976951599 0.045765709131956100464 0.028152042999863624573 0.038471978157758712769 -0.0022335650864988565445 -0.0021887752227485179901 -0.0075635700486600399017 -0.01630177721381187439 -0.010383479297161102295 -0.021127188578248023987 0.22516386210918426514 0.18522885441780090332 0.23183909058570861816 -0.019828584045171737671 -0.0073820515535771846771 -0.052903011441230773926 -0.181142464280128479 -0.19022250175476074219 -0.1916812211275100708 0.0011047826847061514854 -0.029128294438123703003 -0.024666277691721916199 -0.007417698390781879425 -0.0020161457359790802002 -0.0035931104794144630432 -0.018812531605362892151 -0.026603760197758674622 -0.014978132210671901703 0.025749567896127700806 -0.017403442412614822388 0.0041079530492424964905 0.01637153327465057373 0.010226525366306304932 -0.0010325566399842500687 -0.047927640378475189209 -0.028582781553268432617 -0.029154656454920768738 -0.011550598777830600739 -0.014454128220677375793 -0.0026576607488095760345 -0.019726356491446495056 -0.0154894217848777771 -0.019975207746028900146 0.025760967284440994263 0.016308199614286422729 0.018892548978328704834 0.0052302451804280281067 -0.046461161226034164429 -0.060607083141803741455 0.020027192309498786926 0.049546912312507629395 0.025898255407810211182 -0.050496455281972885132 -0.0053668245673179626465 -0.0042281453497707843781 0.015133191831409931183 0.0066111460328102111816 -0.0081732142716646194458 0.00067663466325029730797 -0.0058621494099497795105 -0.00054211379028856754303 -0.0045174807310104370117 0.0067154881544411182404 0.0039227595552802085876 0.0037958743050694465637 -0.0082452744245529174805 -0.025943676009774208069 -0.0058969315141439437866 -0.015300154685974121094 0.0083645423874258995056 -0.0029692619573324918747 -0.001650047721341252327 0.015966540202498435974 0.14908531308174133301 0.14758880436420440674 0.2041524052619934082 -0.015751942992210388184 -0.049433920532464981079 -0.027545750141143798828 -0.12815774977207183838 -0.14224502444267272949 -0.1182157173752784729 0.023239819332957267761 0.028027605265378952026 0.027486145496368408203 -0.00042676279554143548012 0.0038778900634497404099 0.0054343477822840213776 -0.011928378604352474213 -0.024231744930148124695 -0.018253834918141365051 -0.012630285695195198059 -0.0096495328471064567566 -0.014592439867556095123 0.0027754919137805700302 0.0044993953779339790344 0.0013801944442093372345 0.020951293408870697021 0.022899551317095756531 0.019041499122977256775 -0.048969238996505737305 -0.038580313324928283691 -0.0030125384218990802765 -0.011912169866263866425 0.0052541648037731647491 -0.012308376841247081757 0.031080011278390884399 0.035489406436681747437 0.014909209683537483215 -0.039619360119104385376 -0.0085802869871258735657 0.0012004673480987548828 0.017419759184122085571 0.022549301385879516602 0.0090377693995833396912 0.044932823628187179565 0.028707612305879592896 0.021969674155116081238 -0.0096854045987129211426 -0.024411255493760108948 -0.010150055401027202606 -0.001663363305851817131 -0.013641640543937683105 -0.0064080487936735153198 -0.036823086440563201904 -0.026501845568418502808 -0.032417662441730499268 -0.2978630363941192627 -0.28472751379013061523 -0.25671637058258056641 -0.074926659464836120605 -0.018069200217723846436 -0.011619004420936107635 0.34119775891304016113 0.31156525015830993652 0.31549638509750366211 -0.02287506498396396637 -0.020776599645614624023 -0.021634731441736221313 -0.003259907010942697525 -0.0027556007262319326401 0.00059341668384149670601 0.009244765155017375946 0.010677495971322059631 0.010659869760274887085 0.031299047172069549561 0.022012345492839813232 0.035987082868814468384 0.01390758901834487915 0.026180986315011978149 0.0074735460802912712097 0.0036896488163620233536 0.0032568785827606916428 -0.00136285414919257164 0.017280945554375648499 0.03385137021541595459 0.029421607032418251038 -0.022297935560345649719 -0.027831636369228363037 -0.011684647761285305023 -0.015600978396832942963 -0.016496377065777778625 -0.027844294905662536621 0.038592442870140075684 0.047734878957271575928 0.028697287663817405701 0.0070801521651446819305 0.024297965690493583679 0.0061484752222895622253 -0.017912367358803749084 -0.041882675141096115112 -0.0073509356006979942322 0.037735935300588607788 0.044107649475336074829 0.012757760472595691681 -0.0079778581857681274414 0.0055134934373199939728 -0.00679554743692278862 -0.029280256479978561401 -0.023080298677086830139 0.018013674765825271606 -0.012876771390438079834 -0.038196157664060592651 0.023032240569591522217 -0.024486431851983070374 0.0027034692466259002686 -0.0030144315678626298904 -0.0027241935022175312042 -0.0016250904882326722145 -0.024114279076457023621 0.036856051534414291382 0.043118163943290710449 0.041455626487731933594 0.0040221950039267539978 0.0077637373469769954681 -0.010402165353298187256 -0.056618291884660720825 -0.081562891602516174316 -0.041162747889757156372 -0.0012867455370724201202 -0.0085035534575581550598 -0.046840209513902664185 -0.0071551846340298652649 -0.015420866198837757111 0.0018539458978921175003 -0.046293493360280990601 -0.011642199009656906128 0.048415567725896835327 -0.091023035347461700439 -0.06475499272346496582 -0.049683980643749237061 -7.4421755016373936087e-06 2.9533578072005184367e-06 -0.0074493684805929660797 0.10649112612009048462 0.04115626215934753418 0.087957262992858886719 0.016912056133151054382 0.020286325365304946899 0.010802040807902812958 0.0052819401025772094727 0.0042618471197783946991 0.001060330541804432869 -0.011094893328845500946 -0.0075083049014210700989 -0.0031404448673129081726 0.0021725483238697052002 0.011922805570065975189 -0.0065375715494155883789 -0.017616981640458106995 -0.031770359724760055542 -0.037642467767000198364 0.0088449651375412940979 -0.0015744266565889120102 0.019041176885366439819 -0.0024044807069003582001 -0.02688380703330039978 0.013620489276945590973 0.0068043936043977737427 0.00092830136418342590332 0.006072465796023607254 0.026676792651414871216 0.039802461862564086914 -0.031847901642322540283 0.092738799750804901123 0.047101825475692749023 0.063100151717662811279 -0.011100662872195243835 -0.0014024004340171813965 -0.0046781757846474647522 -0.03688934817910194397 -0.0039799502119421958923 -0.0064707049168646335602 -0.044752839952707290649 -0.038103144615888595581 -0.02860336005687713623 -0.00096948415739461779594 -0.0084908753633499145508 -0.011518139392137527466 0.020067216828465461731 -0.012756830081343650818 -0.021193059161305427551 -0.022182146087288856506 -0.017453201115131378174 -0.022905787453055381775 -0.0012618405744433403015 -0.0046251052990555763245 0.0046900389716029167175 -0.0033766289707273244858 -0.0019134042086079716682 0.0072107231244444847107 

0.0063218264840543270111 0.010349733754992485046 -0.0042696380987763404846 -0.0041621662676334381104 0.00047363349585793912411 -0.026134099811315536499 -0.014954032376408576965 -0.030554486438632011414 0.0021895118989050388336 0.031416237354278564453 -0.045452747493982315063 0.01122476533055305481 -0.0089603895321488380432 -0.00056078104535117745399 0.011798733845353126526 0.020310910418629646301 -0.035201527178287506104 -0.02767442166805267334 -0.00059530697762966156006 0.0078840842470526695251 0.0081386240199208259583 -0.0013067869003862142563 -0.0065213651396334171295 0.013646651990711688995 0.0039843712002038955688 -3.4045035135932266712e-05 0.0091397194191813468933 0.0063580563291907310486 -0.026728944852948188782 -0.0041929306462407112122 -0.031687084585428237915 0.0059706442989408969879 0.017873805016279220581 -0.0017770011909306049347 -0.0035472246818244457245 0.0099761653691530227661 -0.016510065644979476929 -0.030008178204298019409 -0.011678094975650310516 -0.0030777279753237962723 0.0012842384167015552521 -0.01170132029801607132 -0.0059615354984998703003 -0.033895768225193023682 -0.04610912129282951355 0.012374311685562133789 0.015403997153043746948 -0.0047145020216703414917 0.024768603965640068054 0.0068206386640667915344 0.0038883429951965808868 0.0021797288209199905396 -0.013617219403386116028 0.0094932178035378456116 0.086898818612098693848 0.10948344320058822632 0.088393792510032653809 0.12551844120025634766 0.075758971273899078369 0.1394246518611907959 0.068222291767597198486 0.14850917458534240723 0.068863429129123687744 0.011735428124666213989 0.039704538881778717041 0.023580070585012435913 0.015693895518779754639 0.016905607655644416809 0.010019268840551376343 0.022853394970297813416 0.0061691375449299812317 0.035915974527597427368 0.07174707949161529541 0.11011168360710144043 0.096613653004169464111 0.10459556430578231812 0.1459853053092956543 0.080516785383224487305 0.05985546112060546875 0.094885349273681640625 0.11701361089944839478 -0.0029580320697277784348 0.020542150363326072693 -0.018217252567410469055 -0.020045220851898193359 -0.0047206734307110309601 -0.025305524468421936035 0.0042957346886396408081 -0.0002889163442887365818 0.022191014140844345093 -0.016791746020317077637 -0.005790026392787694931 -0.0065116076730191707611 -0.025934055447578430176 -0.017981775104999542236 -0.0045075677335262298584 -0.0030750469304621219635 0.01738046109676361084 0.010021015070378780365 -0.0053030182607471942902 -0.0066755125299096107483 -0.0056012580171227455139 -0.007310367189347743988 -0.006599911954253911972 0.0035473448224365711212 0.006993022281676530838 0.0055109863169491291046 -0.0084620146080851554871 0.0067833298817276954651 0.0081290220841765403748 0.012240587733685970306 -0.0009861597791314125061 0.0065008965320885181427 0.0058725127018988132477 0.0085936821997165679932 0.0021245409734547138214 0.011698299087584018707 0.014438753016293048859 0.016284074634313583374 0.01857631094753742218 0.01780151762068271637 0.034362487494945526123 -0.0010314900428056716919 0.019992491230368614197 0.024139897897839546204 0.027466595172882080078 -0.083074018359184265137 -0.060146193951368331909 -0.053441520780324935913 -0.079130344092845916748 -0.083970628678798675537 -0.054450459778308868408 -0.040806189179420471191 -0.043465655297040939331 -0.041015751659870147705 -0.039995227009057998657 -0.074826873838901519775 0.022453695535659790039 -0.09426803886890411377 -0.093407362699508666992 0.083937600255012512207 0.0080987699329853057861 -0.074839584529399871826 0.014656636863946914673 0.011133930645883083344 0.067509971559047698975 0.033146597445011138916 0.071840547025203704834 0.038303289562463760376 0.069906868040561676025 0.027640616521239280701 0.057880852371454238892 0.047677226364612579346 -0.010284853167831897736 -0.0088821174576878547668 -0.019031273201107978821 0.014718959107995033264 0.0032400432974100112915 0.011538117192685604095 -0.013100917451083660126 0.0086610624566674232483 0.0092650465667247772217 0.0089395632967352867126 -0.00096209620824083685875 -0.010904868133366107941 -0.0044012204743921756744 -0.0056545920670032501221 0.018981201574206352234 0.0037404827307909727097 0.001920030335895717144 -0.0051052588969469070435 -0.10240877419710159302 -0.11201625317335128784 -0.076740242540836334229 -0.097692899405956268311 -0.11829678714275360107 -0.089938245713710784912 -0.067668706178665161133 -0.081385239958763122559 -0.041631292551755905151 0.012371585704386234283 0.0016198968514800071716 -0.017218139022588729858 0.00017788853438105434179 0.00072007783455774188042 -0.017802292481064796448 -0.0047854054719209671021 -0.0074884528294205665588 0.01665442250669002533 -0.055407844483852386475 -0.016490444540977478027 -0.030556695535778999329 -0.070072196424007415771 -0.051264297217130661011 -0.041900403797626495361 -0.044925116002559661865 -0.013061111792922019958 -0.012589785270392894745 0.0087559176608920097351 0.039566017687320709229 0.045295704156160354614 0.0065767872147262096405 0.01889349520206451416 0.01958588138222694397 -0.022113941609859466553 0.040612939745187759399 -0.0040664998814463615417 0.0069583300501108169556 0.0024727084673941135406 0.0050740279257297515869 -0.002229994162917137146 0.023368470370769500732 -0.019939957186579704285 0.012840873561799526215 0.0020700846798717975616 0.0056474073790013790131 0.0033300919458270072937 0.011769479140639305115 -0.0043699140660464763641 0.0023978261742740869522 0.0057225544005632400513 -0.0002530854253564029932 -0.0034170139115303754807 0.0022716873791068792343 0.0030679241754114627838 -0.022297699004411697388 -0.002349537331610918045 0.017923910170793533325 0.0023197703994810581207 -0.014997999183833599091 0.012379964813590049744 0.01110688038170337677 -0.0059570292942225933075 -0.012118371203541755676 0.002925288863480091095 -0.029159246012568473816 -0.0357702597975730896 0.018701985478401184082 -0.00012401411368045955896 0.026684030890464782715 -0.025898301973938941956 0.040997449308633804321 -0.012934967875480651855 -0.011958790011703968048 -0.02372800000011920929 0.0031270680483430624008 -0.014025811105966567993 0.013701255433261394501 -0.012965419329702854156 -0.00016787386266514658928 -0.009821761399507522583 0.0037125921808183193207 -0.012442446313798427582 -0.0074791666120290756226 -0.0081483069807291030884 -0.0041008507832884788513 -0.010259354487061500549 -0.007616528775542974472 -0.010141802951693534851 -0.019138729199767112732 -0.012364122085273265839 -0.03107781335711479187 0.0085421409457921981812 -0.05272345617413520813 0.0022486273664981126785 -0.0028750253841280937195 0.064082719385623931885 -0.0082359537482261657715 0.013282585889101028442 -0.0051911333575844764709 0.00028460135217756032944 0.00081464019604027271271 0.0036262325011193752289 0.0014530341140925884247 -0.018175492063164710999 0.010819402523338794708 0.0015362580306828022003 0.027253076434135437012 -0.010139090009033679962 -0.004042312968522310257 -0.012250347994267940521 -0.0042434963397681713104 -0.0020213879179209470749 0.0020035584457218647003 0.0046102786436676979065 0.0044118501245975494385 0.001096470048651099205 -0.0047018611803650856018 0.0242176055908203125 -0.04528524354100227356 0.011453827843070030212 -0.046161178499460220337 -0.010701306164264678955 -0.0005570483044721186161 0.047654476016759872437 0.033970855176448822021 0.028188996016979217529 -0.0035448069684207439423 -0.0099084665998816490173 -0.01236783154308795929 -0.0038660729769617319107 -0.0036315009929239749908 -0.016214417293667793274 -0.0018156294245272874832 -0.006296516861766576767 -0.0079445224255323410034 -0.093302577733993530273 -0.10041994601488113403 -0.069996282458305358887 -0.10243217647075653076 -0.047591444104909896851 -0.069275341928005218506 -0.064225532114505767822 -0.095355801284313201904 -0.053237855434417724609 0.0096567850559949874878 0.024264579638838768005 0.017187239602208137512 -0.011436847969889640808 0.018545607104897499084 0.024625867605209350586 0.0042616510763764381409 -0.015755698084831237793 0.019481839612126350403 0.099256135523319244385 0.13872332870960235596 0.11044088751077651978 0.18039301037788391113 0.11251597851514816284 0.19042734801769256592 0.098926395177841186523 0.24330890178680419922 0.082929939031600952148 -0.019917203113436698914 -0.0092608807608485221863 -0.033871043473482131958 0.00014104784349910914898 -0.008002691902220249176 -0.0095900855958461761475 -0.015830416232347488403 -0.014137260615825653076 -0.012194906361401081085 0.01617972739040851593 -0.0011504001449793577194 0.0058506289497017860413 -0.010201887227594852448 -0.0074617322534322738647 -0.0067808595485985279083 0.0058280844241380691528 0.0021852650679647922516 -0.0068768840283155441284 -0.0010584436822682619095 -0.009347960352897644043 0.0062715564854443073273 0.0014824459794908761978 -0.019194101914763450623 0.0043417676351964473724 4.1701146983541548252e-05 -0.0055545121431350708008 -0.0036581691820174455643 -0.0034592528827488422394 0.0065913633443415164948 -0.0046035856939852237701 0.0031072793062776327133 -0.00117110484279692173 -0.0087355468422174453735 0.0015308833681046962738 0.002836806001141667366 -0.0055266432464122772217 0.028630616143345832825 0.017236128449440002441 0.039278943091630935669 0.046710435301065444946 0.055470801889896392822 0.016379756852984428406 -0.010575544089078903198 0.0058180899359285831451 -0.0097518386319279670715 -0.040252007544040679932 -0.0018683425150811672211 -0.011797712184488773346 -0.0042065652087330818176 -0.025786891579627990723 -0.013739372603595256805 -0.027231909334659576416 -0.010988959111273288727 -0.013248422183096408844 -0.015403957106173038483 0.023778080940246582031 -0.026915544643998146057 -0.005797071848064661026 0.014569192193448543549 -0.015239696018397808075 -0.020764190703630447388 0.021332347765564918518 -0.013740804046392440796 -0.025910755619406700134 -0.066392719745635986328 -0.011259658262133598328 -0.029717208817601203918 -0.038963425904512405396 -0.056021276861429214478 -0.072039574384689331055 -0.098126776516437530518 -0.018662817776203155518 0.048236317932605743408 0.082624442875385284424 0.089851558208465576172 0.091825447976589202881 0.082596860826015472412 0.11372967064380645752 0.073373742401599884033 0.11892763525247573853 0.10035415738821029663 -0.0070668668486177921295 0.0027163389604538679123 0.0067569031380116939545 -0.012483024969696998596 -0.002438427414745092392 0.0065048034302890300751 -0.0010990243172273039818 0.00078256306005641818047 0.011020679958164691925 -0.02856451086699962616 -0.010515092872083187103 -0.020936487242579460144 -0.014295473694801330566 -0.027455881237983703613 -0.0064670974388718605042 -0.013232700526714324951 -0.020240295678377151489 -0.028245372697710990906 

0.082487724721431732178 -0.0048581622540950775146 -0.046725690364837646484 -0.030069446191191673279 0.013251532800495624542 0.037551537156105041504 0.075188979506492614746 0.20098786056041717529 -0.081763654947280883789 -0.090302057564258575439 -0.032826196402311325073 -0.0063244542106986045837 -0.0008975886157713830471 0.13340994715690612793 0.061299953609704971313 0.004955539945513010025 0.069376319646835327148 0.047975338995456695557 0.05274173244833946228 0.14170953631401062012 0.027584725990891456604 0.094616912305355072021 0.21291692554950714111 0.080403700470924377441 -0.14619374275207519531 -0.078703284263610839844 -0.10331164300441741943 -0.025738723576068878174 -0.054749261587858200073 -0.078568235039710998535 0.011638753116130828857 0.067581743001937866211 0.013352113775908946991 -0.017264764755964279175 0.07166405022144317627 -0.021872971206903457642 0.044001128524541854858 -0.10324489325284957886 -0.14439409971237182617 -0.015219797380268573761 -0.20668584108352661133 -0.29724857211112976074 0.15329346060752868652 0.12440233677625656128 0.14504291117191314697 -0.012252112850546836853 -0.022126406431198120117 -0.039460889995098114014 0.028003197163343429565 0.028793562203645706177 -0.077288754284381866455 -0.089574076235294342041 -0.11617621779441833496 -0.10309928655624389648 0.016696022823452949524 0.041593946516513824463 0.044853117316961288452 0.016242267563939094543 -0.036526400595903396606 -0.029809512197971343994 -0.013153041712939739227 -0.040403045713901519775 0.064985737204551696777 -0.24062375724315643311 -0.35537627339363098145 -0.13701574504375457764 -0.20478802919387817383 -0.30491217970848083496 -0.14735014736652374268 0.43102115392684936523 0.10192059725522994995 0.21480046212673187256 -0.0062887170352041721344 0.049693662673234939575 0.05786366388201713562 -0.062465034425258636475 0.052764769643545150757 0.092058561742305755615 -0.062583468854427337646 -0.013134278357028961182 -0.050506554543972015381 0.11392512917518615723 -0.0060575823299586772919 0.087574690580368041992 0.27550220489501953125 -0.13374508917331695557 -0.15848849713802337646 -0.14314784109592437744 -0.12108851969242095947 -0.18903243541717529297 -0.035040192306041717529 -0.20229203999042510986 0.053146872669458389282 -0.029880683869123458862 -0.34208893775939941406 -0.016415461897850036621 0.056069809943437576294 -0.059596739709377288818 0.1117315143346786499 -0.0052166068926453590393 -0.0083737447857856750488 0.016546128317713737488 -0.038389783352613449097 -0.018956135958433151245 0.052593044936656951904 -0.026297902688384056091 -0.080023966729640960693 0.040593426674604415894 -0.034269273281097412109 -0.0094702998176217079163 0.014022082090377807617 -0.023573074489831924438 -0.012174461036920547485 0.099123723804950714111 0.062212608754634857178 0.034725088626146316528 0.090432085096836090088 0.0087882969528436660767 0.024227224290370941162 -0.026013659313321113586 -0.056923337280750274658 0.0083182863891124725342 -0.05314089357852935791 -0.0045423018746078014374 -0.011548992246389389038 -0.060249552130699157715 0.038880091160535812378 0.07681515812873840332 0.059877574443817138672 -0.019944097846746444702 0.014192429371178150177 -0.029249059036374092102 -0.04719778895378112793 -0.17385280132293701172 -0.027264971286058425903 -0.24785912036895751953 -0.33087074756622314453 0.20768880844116210938 -0.51293534040451049805 -0.41978546977043151855 0.18073382973670959473 0.094635471701622009277 0.10239125043153762817 0.44430491328239440918 0.12844964861869812012 -0.022662164643406867981 0.094645567238330841064 -0.074567787349224090576 -0.13199657201766967773 0.026790589094161987305 0.035593848675489425659 -0.079831533133983612061 0.0050295297987759113312 0.0066041396930813789368 0.052842848002910614014 -0.031440705060958862305 0.048543956130743026733 0.062487807124853134155 0.043448232114315032959 -0.021165916696190834045 -0.032015729695558547974 -0.11229070276021957397 0.10960789024829864502 -0.012609940953552722931 -0.14580328762531280518 0.20730823278427124023 0.15255306661128997803 -0.074463613331317901611 0.15615184605121612549 0.16844604909420013428 -0.14368094503879547119 0.088216967880725860596 0.023771584033966064453 0.012670124880969524384 0.015084819868206977844 -0.059885580092668533325 -0.0089266486465930938721 -0.057901591062545776367 -0.0086841061711311340332 -0.01115784328430891037 -0.0098764710128307342529 0.036846157163381576538 0.027909655123949050903 -0.025948785245418548584 -0.041505835950374603271 -0.010680875740945339203 0.052877511829137802124 0.046986006200313568115 0.057527966797351837158 0.033262383192777633667 -0.026972720399498939514 0.020342297852039337158 -0.011400654911994934082 -0.059872612357139587402 0.063736073672771453857 0.054212521761655807495 0.031651642173528671265 0.081498429179191589355 -0.071197554469108581543 -0.01489850413054227829 0.011780606582760810852 -0.055584263056516647339 -0.031246382743120193481 -0.025560090318322181702 0.038678370416164398193 0.021677896380424499512 0.047691386193037033081 -0.11234642565250396729 -0.0064742751419544219971 -0.12626802921295166016 -0.061233893036842346191 -0.043241236358880996704 -0.039307996630668640137 0.13132724165916442871 0.054238218814134597778 0.17647123336791992188 0.0098759699612855911255 -0.0096717728301882743835 0.021716708317399024963 0.067167460918426513672 0.0037524015642702579498 0.0084218904376029968262 0.04642235487699508667 0.044168036431074142456 0.0075922701507806777954 0.020472578704357147217 -0.13143226504325866699 -0.070741787552833557129 0.025806229561567306519 -0.18003727495670318604 -0.058831252157688140869 0.0090476004406809806824 0.039611715823411941528 -0.0093483962118625640869 0.020031586289405822754 -0.057248067110776901245 0.11358045786619186401 -0.12239680439233779907 -0.10782457143068313599 0.026292622089385986328 -0.048708140850067138672 -0.01571524888277053833 0.10359013080596923828 -0.079840436577796936035 -0.045628380030393600464 -0.0020735184662044048309 -0.011817309074103832245 0.0088276583701372146606 -0.04257799685001373291 0.024564947932958602905 -0.0096762645989656448364 -0.00076847983291372656822 -0.014943734742701053619 -0.04954431578516960144 0.020523300394415855408 0.029137566685676574707 -0.03416843712329864502 0.0083512002602219581604 0.0054339170455932617188 -0.063953548669815063477 0.011913333088159561157 -0.020421303808689117432 -0.040590234100818634033 0.068917408585548400879 -0.09398565441370010376 -0.080864891409873962402 0.012530801817774772644 -0.025505714118480682373 0.012142308056354522705 0.092140503227710723877 0.081946551799774169922 0.06941232830286026001 -0.024822928011417388916 0.089058913290500640869 0.02693771757185459137 0.030670806765556335449 0.027945891022682189941 0.022388072684407234192 0.0017660956364125013351 0.045781318098306655884 0.095279924571514129639 -0.0471266135573387146 0.063961602747440338135 0.068040505051612854004 0.015567540191113948822 0.082431934773921966553 0.078522592782974243164 0.0067361062392592430115 -0.069525688886642456055 0.0082709211856126785278 -0.11319300532341003418 0.047846764326095581055 0.051071677356958389282 0.0022176853381097316742 0.12314997613430023193 0.093050554394721984863 -0.042761027812957763672 -0.040733139961957931519 -0.030419176444411277771 -0.038144573569297790527 -0.018631845712661743164 0.0057771177962422370911 -0.024097371846437454224 -0.014221903868019580841 -0.014121286571025848389 -0.044577036052942276001 -0.039544004946947097778 -0.021790623664855957031 0.049438249319791793823 -0.068193078041076660156 -0.035769592970609664917 0.030847059562802314758 0.010168950073421001434 0.0044070128351449966431 0.086720302700996398926 0.003093074774369597435 -0.020756704732775688171 -0.0027959935832768678665 -0.057640749961137771606 -0.14671945571899414062 -0.048331081867218017578 0.064470171928405761719 0.018039725720882415771 0.10712943226099014282 -0.0085126981139183044434 0.048615209758281707764 0.084290981292724609375 0.016917219385504722595 0.031415585428476333618 0.07337840646505355835 -0.088484376668930053711 -0.10799115896224975586 -0.12341597676277160645 0.02284842170774936676 -0.092496663331985473633 -0.015304928645491600037 -0.06253162771463394165 -0.18086838722229003906 -0.077945940196514129639 -0.024058291688561439514 -0.18401750922203063965 -0.1334727853536605835 -0.021841211244463920593 0.034362543374300003052 0.089449055492877960205 0.099780194461345672607 0.095479391515254974365 0.059276960790157318115 -0.27943491935729980469 -0.057902831584215164185 0.015858951956033706665 0.040425039827823638916 -0.017385873943567276001 0.12909600138664245605 -0.05254527553915977478 -0.059647932648658752441 0.10167439281940460205 -0.035181526094675064087 -0.023726576939225196838 0.14995937049388885498 0.052255164831876754761 0.076689481735229492188 -0.15483804047107696533 0.10538622736930847168 0.21912667155265808105 -0.036835640668869018555 -0.023928755894303321838 0.14898042380809783936 -0.055641055107116699219 -0.06555125117301940918 -0.041952047497034072876 -0.072851866483688354492 -0.03285260125994682312 0.00726519804447889328 0.062481217086315155029 0.080449514091014862061 0.081487827003002166748 0.085331737995147705078 0.01212996896356344223 -0.049538753926753997803 -0.048742204904556274414 -0.068077921867370605469 -0.19066351652145385742 -0.14607825875282287598 0.040502369403839111328 0.0066187223419547080994 0.052476927638053894043 0.031553324311971664429 -0.034057263284921646118 -0.052288822829723358154 -0.012206484563648700714 0.0011723949573934078217 -0.10052461177110671997 0.049361534416675567627 0.011802763678133487701 -0.0058047454804182052612 -0.035254251211881637573 -0.034036066383123397827 0.10177503526210784912 0.024666044861078262329 -0.045301146805286407471 0.026195945218205451965 -0.070979908108711242676 0.0063956486992537975311 0.0053921448998153209686 -0.020255489274859428406 -0.065638914704322814941 0.029882196336984634399 -0.078964777290821075439 -0.063278630375862121582 -0.02350671030580997467 0.04811962321400642395 0.011323770508170127869 0.05946332588791847229 -0.11236632615327835083 -0.091560736298561096191 0.047364383935928344727 -0.11580053716897964478 -0.11712529510259628296 0.0093935858458280563354 -0.0080592250451445579529 -0.045552745461463928223 0.10891764611005783081 -0.020044587552547454834 -0.063560612499713897705 -0.0073239011690020561218 -0.052954554557800292969 -0.064465321600437164307 -0.0043844291940331459045 0.036472350358963012695 0.0054105389863252639771 0.045560654252767562866 

-0.035014849156141281128 -0.048703730106353759766 -0.035777106881141662598 -0.053220275789499282837 0.045134685933589935303 -0.0068023377098143100739 -0.048608023673295974731 0.036020360887050628662 -0.025425985455513000488 0.1098105013370513916 -0.10587739944458007812 0.018997782841324806213 -0.0022318796254694461823 -0.045179285109043121338 -0.088836230337619781494 -0.087418518960475921631 -0.22056831419467926025 -0.036161638796329498291 -0.096499137580394744873 -0.15374000370502471924 -0.079372480511665344238 0.099372506141662597656 -0.083314917981624603271 0.064871013164520263672 0.14141219854354858398 0.13216404616832733154 0.16910184919834136963 0.017215766012668609619 -0.050351627171039581299 -0.0021161821205168962479 0.06426334381103515625 0.049838077276945114136 0.051926665008068084717 0.036910142749547958374 0.0010783225297927856445 -0.021395230665802955627 -0.011110789142549037933 -0.028195632621645927429 -0.053571753203868865967 -0.044747199863195419312 0.065101243555545806885 -0.064554445445537567139 -0.075779005885124206543 -0.041204240173101425171 0.029272446408867835999 -0.0043612699955701828003 -0.01989934965968132019 -0.037543959915637969971 -0.035903386771678924561 0.052122477442026138306 0.01395868789404630661 0.040924649685621261597 -0.0064125997014343738556 -0.11622060835361480713 -0.076393894851207733154 0.0080054020509123802185 -0.018540060147643089294 0.029121773317456245422 0.038214929401874542236 0.025815799832344055176 -0.055305171757936477661 0.057689506560564041138 -0.05376963689923286438 -0.10791812092065811157 -0.010144081898033618927 0.13941785693168640137 -0.10455314815044403076 -0.0089452713727951049805 -0.03569542616605758667 -0.10942810773849487305 0.010419888421893119812 0.029762160032987594604 -0.19576749205589294434 -0.072547703981399536133 0.036775000393390655518 -0.36718168854713439941 -0.60084539651870727539 -0.51978445053100585938 -0.36687016487121582031 -0.48857235908508300781 -0.14544819295406341553 -0.10952281951904296875 -0.24338303506374359131 -0.014450899325311183929 -0.086699783802032470703 -0.07028499990701675415 -0.034746333956718444824 -0.068894006311893463135 -0.036540202796459197998 -0.023010488599538803101 -0.070107474923133850098 -0.000505358097143471241 -0.06026353687047958374 -0.022414034232497215271 -0.093986809253692626953 0.008766954764723777771 -0.018869109451770782471 -0.10862497240304946899 -0.034028314054012298584 -0.075578749179840087891 0.023354269564151763916 -0.0031761156860738992691 -0.073664166033267974854 -0.024018608033657073975 -0.04939155280590057373 -0.038100488483905792236 -0.047437328845262527466 -0.012576218694448471069 -0.0089672356843948364258 0.0058195232413709163666 -0.048472847789525985718 -0.028034180402755737305 -0.03925619274377822876 -0.030667612329125404358 -0.025350781157612800598 -0.067605085670948028564 0.052302289754152297974 -0.061490453779697418213 -0.059884544461965560913 -0.069312170147895812988 -0.053567670285701751709 0.045236699283123016357 -0.015291987918317317963 -0.095619060099124908447 -0.039181347936391830444 -0.05465135723352432251 -0.13261622190475463867 -0.080120623111724853516 -0.21801386773586273193 -0.085592746734619140625 0.026969974860548973083 -0.17405480146408081055 -0.20943677425384521484 -0.03165636211633682251 -0.16826853156089782715 -0.0088494820520281791687 -0.33558046817779541016 -0.89514678716659545898 -0.27748271822929382324 -0.57249838113784790039 -1.2265135049819946289 -0.85504633188247680664 -0.99612981081008911133 -0.98749303817749023438 0.029177308082580566406 -0.091954790055751800537 0.002628603251650929451 -0.071538202464580535889 -0.24167326092720031738 -0.10373289883136749268 -0.071767389774322509766 -0.067417912185192108154 0.0021244476083666086197 0.01088544260710477829 0.00079012155765667557716 -0.039206355810165405273 -0.021145235747098922729 -0.020015876740217208862 -0.011787221767008304596 -0.027918132022023200989 -0.084432788193225860596 -0.04446185380220413208 -0.055293470621109008789 -0.074088536202907562256 -0.01648860052227973938 -0.07184149324893951416 0.067250184714794158936 -0.0044896923936903476715 -0.082672402262687683105 -0.052387446165084838867 -0.01499906834214925766 0.045791454613208770752 -0.099194504320621490479 -0.0039742598310112953186 -0.07767973095178604126 -0.18872807919979095459 -0.010741909034550189972 -0.026226053014397621155 -0.077679812908172607422 0.071481429040431976318 -0.023822462186217308044 0.028256405144929885864 0.030160065740346908569 -0.013173811137676239014 -0.0851152762770652771 0.013896937482059001923 -0.036852829158306121826 0.036653146147727966309 -0.013226944021880626678 0.064980611205101013184 -0.010919572785496711731 -0.080008432269096374512 0.02094728127121925354 -0.041908126324415206909 -0.17887227237224578857 0.015437666326761245728 -0.03378965333104133606 -0.10786984115839004517 -0.0084819234907627105713 -0.0056966398842632770538 0.05114277079701423645 -0.03703006356954574585 -0.032449185848236083984 -0.042419206351041793823 -0.062631458044052124023 -0.014512282796204090118 -0.068030871450901031494 0.052535746246576309204 -0.19872710108757019043 -0.24886094033718109131 0.084647320210933685303 0.036842666566371917725 -0.11035420745611190796 0.12568908929824829102 0.065682344138622283936 -0.026742339134216308594 0.042871948331594467163 0.0011194397229701280594 -0.0062049003317952156067 0.11013370752334594727 0.050882812589406967163 0.014142024330794811249 0.068100638687610626221 0.041736677289009094238 0.056178953498601913452 0.028737980872392654419 -0.0077337981201708316803 -0.081368744373321533203 0.0064002452418208122253 -0.003560203826054930687 -0.0032526073046028614044 0.013834056444466114044 0.055313151329755783081 0.0045067803002893924713 -0.018901856616139411926 0.035619627684354782104 -0.067157976329326629639 0.070384964346885681152 0.090483009815216064453 0.025601280853152275085 0.054147403687238693237 0.091359376907348632812 -0.052157610654830932617 -0.086683288216590881348 0.037499472498893737793 -0.10206079483032226562 -0.068021513521671295166 0.030569164082407951355 0.050193130970001220703 0.02274772152304649353 0.022052463144063949585 -0.049563702195882797241 -0.0760614052414894104 0.033986158668994903564 -0.087205328047275543213 -0.0021309989970177412033 0.052377756685018539429 0.061110045760869979858 -0.10732559114694595337 0.017611607909202575684 -0.041913855820894241333 -0.019472056999802589417 -0.047198731452226638794 -0.0079333847388625144958 -0.040463376790285110474 0.0071670287288725376129 0.032544218003749847412 -0.050108686089515686035 -0.039951741695404052734 0.00075791357085108757019 -0.087822273373603820801 -0.093165077269077301025 0.0028454253915697336197 -0.0058802785351872444153 -0.091776818037033081055 -0.0087911467999219894409 -0.032808747142553329468 0.067172296345233917236 0.049549944698810577393 0.1016953885555267334 0.096800521016120910645 0.056795336306095123291 0.07975327223539352417 0.095480546355247497559 0.060195490717887878418 0.039488378912210464478 -0.0028965289238840341568 0.026229243725538253784 -0.029549889266490936279 0.029154233634471893311 0.033777523785829544067 -0.032526805996894836426 0.0021762831602245569229 0.040324788540601730347 -0.042815644294023513794 -0.042492523789405822754 0.054637525230646133423 -0.0058081531897187232971 0.025276098400354385376 -0.022925056517124176025 -0.094847194850444793701 -0.12198050320148468018 0.011251568794250488281 0.00032743901829235255718 -0.040815204381942749023 -0.0042494712397456169128 0.012441215105354785919 0.0094849700108170509338 0.04438277706503868103 -0.074742309749126434326 -0.059093762189149856567 0.028510300442576408386 -0.045047126710414886475 -0.026896273717284202576 0.10709312558174133301 -0.07495533674955368042 -0.37685945630073547363 -0.23464722931385040283 -0.094297870993614196777 -0.41732349991798400879 -0.15439239144325256348 0.035642378032207489014 -0.41036483645439147949 -0.096636541187763214111 -0.3051885068416595459 -0.26729303598403930664 -0.19807076454162597656 -0.39766454696655273438 -0.64255034923553466797 -0.18541650474071502686 -0.22012190520763397217 -0.45958492159843444824 -0.23125350475311279297 0.062315091490745544434 0.045086849480867385864 0.068897552788257598877 -0.029858775436878204346 -0.0045315986499190330505 0.10591807961463928223 0.022907283157110214233 0.062970474362373352051 0.073152378201484680176 -0.1000989079475402832 -0.043473985046148300171 0.056371409446001052856 0.052907157689332962036 0.0052868896164000034332 0.0056138490326702594757 0.070245534181594848633 0.045719988644123077393 -0.0099381124600768089294 -0.018814966082572937012 -0.10237107425928115845 -0.07766879349946975708 0.099659375846385955811 0.042893998324871063232 -0.063106328248977661133 0.1245942041277885437 0.033626295626163482666 0.04022901877760887146 0.10115379840135574341 -0.030125079676508903503 -0.095294930040836334229 0.050972014665603637695 -0.022835064679384231567 -0.11796883493661880493 0.02425036206841468811 -0.13474805653095245361 -0.11565160006284713745 0.013441240414977073669 0.10952632129192352295 -0.05288653448224067688 0.073313169181346893311 0.091119803488254547119 0.031779896467924118042 0.012065028771758079529 0.037923250347375869751 0.016192968934774398804 -0.068140320479869842529 0.048319004476070404053 -0.074694111943244934082 -0.015802472829818725586 0.10071553289890289307 -0.090532690286636352539 -0.19898211956024169922 0.010261895135045051575 -0.015070304274559020996 -0.039000008255243301392 -0.015603174455463886261 0.0072272666729986667633 0.008972709067165851593 0.095869407057762145996 0.058809667825698852539 0.016915436834096908569 -0.011719659902155399323 0.018044928088784217834 5.7146120525430887938e-05 0.071586921811103820801 -0.055430565029382705688 0.10965380072593688965 0.056415643543004989624 0.0072285542264580726624 0.073388181626796722412 0.048604037612676620483 -0.11718850582838058472 -0.040490746498107910156 -0.024379007518291473389 -0.036309130489826202393 0.033107999712228775024 -0.01646573282778263092 0.078313000500202178955 -0.043085757642984390259 -0.060598600655794143677 0.064419098198413848877 0.12137190252542495728 0.016105042770504951477 -0.087851293385028839111 0.07812671363353729248 -0.086658068001270294189 -0.12096861749887466431 0.058964785188436508179 -0.11848476529121398926 -0.17375415563583374023 -0.029318761080503463745 -0.01116384752094745636 -0.02239297330379486084 0.061887230724096298218 0.049572370946407318115 0.039017047733068466187 -0.0052391304634511470795 0.042206186801195144653 -0.0090946229174733161926 

-0.001402736990712583065 -0.024438720196485519409 0.012288967147469520569 -0.029533406719565391541 0.014327552169561386108 -0.011719754897058010101 0.021845480427145957947 -0.00072868430288508534431 0.004067181609570980072 -0.0014244721969589591026 -0.026835381984710693359 -0.00028557123732753098011 0.020102895796298980713 -0.01965404115617275238 -0.0077130510471761226654 0.005976709071546792984 0.012653561308979988098 0.0245589427649974823 -0.0034700245596468448639 -0.0014746130909770727158 0.0044189901091158390045 0.012950670905411243439 0.019710909575223922729 -0.0017191410297527909279 0.029443765059113502502 -0.004579220898449420929 0.0046071475371718406677 -0.02943089604377746582 -0.037493616342544555664 0.0091398712247610092163 -0.025226544588804244995 -0.021646078675985336304 -0.010238351300358772278 -0.020935945212841033936 0.0052800043486058712006 0.011990250088274478912 -0.019223853945732116699 -0.017400139942765235901 -0.035907581448554992676 -0.044984500855207443237 -0.06002505868673324585 -0.0169113893061876297 -0.0041380119509994983673 -0.0019406086066737771034 -0.02904851175844669342 -0.0079635027796030044556 -0.034034524112939834595 -0.00084492057794705033302 -0.032568119466304779053 -0.0054330346174538135529 -0.034957759082317352295 -0.029909629374742507935 -0.023923974484205245972 -0.010024296119809150696 0.03942670673131942749 0.078177675604820251465 0.03667969629168510437 0.066320054233074188232 0.07319329679012298584 0.075716234743595123291 0.055088683962821960449 0.057318020612001419067 0.047371391206979751587 0.0096537768840789794922 0.023945329710841178894 0.025870421901345252991 -0.0037700845859944820404 0.027078093960881233215 0.056168440729379653931 0.020531026646494865417 -0.019821017980575561523 0.036508098244667053223 0.1258131563663482666 0.18179242312908172607 0.17552338540554046631 0.2002907097339630127 0.1747039109468460083 0.17714451253414154053 0.14035277068614959717 0.19344165921211242676 0.13674771785736083984 0.012128431349992752075 -0.000658554083202034235 0.0030517159029841423035 -0.018166564404964447021 -0.023498591035604476929 -0.043248768895864486694 0.0047800876200199127197 0.0057168705388903617859 0.011000685393810272217 -0.0055419909767806529999 -0.013317056000232696533 -0.02004384063184261322 0.00042878795647993683815 0.011761843226850032806 -0.031048702076077461243 0.0068672979250550270081 0.002525356365367770195 -0.035503119230270385742 0.0044111246243119239807 0.0055255643092095851898 -0.014546455815434455872 0.013095681555569171906 -0.030072774738073348999 0.011692400090396404266 -0.012086078524589538574 0.0068001146428287029266 0.0018295750487595796585 0.012150184251368045807 0.0070347385480999946594 0.0051239887252449989319 0.018616877496242523193 0.012944848276674747467 0.011981064453721046448 -0.008146546781063079834 0.015378588810563087463 0.0028182181995362043381 -0.007219468243420124054 -0.041022427380084991455 0.0034638466313481330872 -0.019176471978425979614 0.0070196050219237804413 -0.011680858209729194641 -0.013193064369261264801 -0.040675248950719833374 -0.010845893062651157379 0.030290985479950904846 0.035769723355770111084 0.0040212268941104412079 0.046634629368782043457 0.036178145557641983032 0.038338176906108856201 0.012089630588889122009 0.035031713545322418213 -0.00091756676556542515755 -0.10894480347633361816 -0.054288152605295181274 -0.055044967681169509888 -0.015995340421795845032 -0.063976913690567016602 0.092541612684726715088 -0.11800054460763931274 0.0029982069972902536392 -0.051958020776510238647 0.028646007180213928223 0.027844887226819992065 -0.00029478294891305267811 0.00055329588940367102623 0.032216560095548629761 -0.055502142757177352905 -0.031957048922777175903 -0.015895197167992591858 -0.031543027609586715698 -0.011273850686848163605 -0.006362006068229675293 0.0070233624428510665894 0.012617052532732486725 -0.0089496700093150138855 0.016586173325777053833 -0.011548834852874279022 -0.013766585849225521088 -0.022824991494417190552 0.016724836081266403198 -0.006146030966192483902 -0.0017317469464614987373 -0.011752777732908725739 0.020364891737699508667 -0.0049772374331951141357 0.010791365988552570343 -0.015685552731156349182 -0.0055054021067917346954 0.036063101142644882202 0.037617091089487075806 -0.00014006686978973448277 0.042027257382869720459 0.0307511109858751297 0.033575598150491714478 0.056765630841255187988 -0.0093000214546918869019 0.00078529235906898975372 0.017273081466555595398 -0.0010549483122304081917 -0.028199439868330955505 -0.0033797046635299921036 0.0024152430705726146698 -0.015043596737086772919 0.0011530324118211865425 -0.0085040517151355743408 0.014495368115603923798 -0.00070420402335003018379 -0.018419846892356872559 -0.017257560044527053833 -0.0064021805301308631897 -0.029658513143658638 0.0134034743532538414 -0.010139493271708488464 -0.014583025127649307251 -0.033564317971467971802 0.0021274837199598550797 0.047150779515504837036 -0.054368216544389724731 0.03449025377631187439 0.047796670347452163696 0.10201997309923171997 0.0059773954562842845917 0.032635327428579330444 0.076487220823764801025 0.018890967592597007751 0.000358586898073554039 0.019504714757204055786 0.029044544324278831482 0.036189250648021697998 0.046248868107795715332 0.020334597676992416382 -0.001915267319418489933 0.013107540085911750793 0.005269484594464302063 -0.003457703394815325737 -0.0070542236790060997009 -0.0051080691628158092499 0.0054329512640833854675 0.0047061266377568244934 -0.0013047574320808053017 0.0030541745945811271667 0.0047674351371824741364 -0.030835691839456558228 0.0036223731003701686859 0.014322024770081043243 -0.0048414166085422039032 0.012141857296228408813 -0.010293169878423213959 0.0086724692955613136292 -0.022110931575298309326 0.0008948322501964867115 -0.022354589775204658508 -0.030564630404114723206 -0.039713609963655471802 -0.0079522700980305671692 0.025142531841993331909 -0.0058644441887736320496 0.0032084998674690723419 0.0079661328345537185669 0.018647734075784683228 0.018736604601144790649 0.020819243043661117554 0.027888951823115348816 0.007627788931131362915 0.027205323800444602966 0.013410230167210102081 0.018726857379078865051 -0.0015823575668036937714 0.014259545132517814636 0.012194107286632061005 0.032474599778652191162 0.0070349727757275104523 0.013796883635222911835 0.005206997506320476532 0.023888008669018745422 0.011297657154500484467 0.021332100033760070801 0.0084259761497378349304 -0.0849323272705078125 -0.04204092174768447876 -0.087456613779067993164 -0.075388699769973754883 -0.10248439759016036987 -0.11661822348833084106 -0.069783799350261688232 -0.048643708229064941406 -0.014243432320654392242 -0.0037021834868937730789 0.011435363441705703735 -0.0071933744475245475769 0.013306105509400367737 -0.0057236570864915847778 -0.003447863040491938591 0.0018207308603450655937 -0.0089083286002278327942 0.0051334649324417114258 0.0096841491758823394775 -0.0049124909564852714539 -0.0010994812473654747009 0.0019047445384785532951 0.00097168824868276715279 -0.015097275376319885254 0.0054179746657609939575 0.0073411781340837478638 -0.0084367021918296813965 -0.02500109747052192688 0.020191175863146781921 -0.018465209752321243286 0.021539106965065002441 -0.046215247362852096558 0.026740089058876037598 0.0018569696694612503052 -0.029938325285911560059 0.032210722565650939941 -0.022617509588599205017 -0.022443609312176704407 -0.017341872677206993103 -0.01505738869309425354 -0.020026721060276031494 -0.015778291970491409302 -0.01747288927435874939 -0.014141627587378025055 -0.013769518584012985229 0.14645028114318847656 0.10023070871829986572 0.10071743279695510864 0.11508622020483016968 0.091709189116954803467 0.096692197024822235107 0.10405442863702774048 0.10776599496603012085 0.073036156594753265381 0.017073119059205055237 0.056468676775693893433 0.049835190176963806152 0.068455554544925689697 0.061393551528453826904 0.058947760611772537231 0.0099451644346117973328 0.06131709367036819458 0.041821803897619247437 -0.26457637548446655273 -0.38805317878723144531 -0.30940127372741699219 -0.39082875847816467285 -0.32404819130897521973 -0.35194158554077148438 -0.27700963616371154785 -0.38332766294479370117 -0.25710746645927429199 0.034699574112892150879 0.0056225624866783618927 0.0084273349493741989136 0.0094441855326294898987 0.015045817941427230835 0.004461308009922504425 0.010794540867209434509 0.0088927298784255981445 0.00023044460976962000132 -0.0051112561486661434174 0.0040114414878189563751 -0.015824809670448303223 0.011506951414048671722 -0.0067762434482574462891 0.014011852443218231201 0.0083900168538093566895 0.01715551130473613739 -0.015271957032382488251 -0.0020375915337353944778 0.0028021703474223613739 0.01235609687864780426 -0.046085122972726821899 -0.033563122153282165527 -0.022902064025402069092 -0.036215409636497497559 -0.0012382378336042165756 -0.015245421789586544037 -0.013335505500435829163 0.021282849833369255066 0.0027502332814037799835 0.0074273347854614257812 -0.011203790083527565002 0.0040990049019455909729 -0.0089532965794205665588 0.011469176970422267914 -0.0065289484336972236633 0.02220731787383556366 0.061679400503635406494 -0.015247145667672157288 0.040952146053314208984 0.023162463679909706116 0.05119039490818977356 0.04569695889949798584 0.047406241297721862793 0.042665574699640274048 -0.0021665561944246292114 -0.003292430192232131958 -0.018920086324214935303 -0.020296638831496238708 -0.011935068294405937195 -0.00096518750069662928581 0.0053688981570303440094 -0.010619049891829490662 -0.0076332935132086277008 -0.012061633169651031494 0.0048764357343316078186 -0.013591079972684383392 0.0059895860031247138977 -0.047220684587955474854 0.00043520668987184762955 -0.012152469716966152191 0.03787768632173538208 -0.0076425634324550628662 0.042580906301736831665 0.021361941471695899963 0.025637941434979438782 0.0037529524415731430054 0.081509381532669067383 0.022724311798810958862 0.05523969605565071106 0.042900204658508300781 0.036343831568956375122 -0.085625655949115753174 -0.12833574414253234863 -0.1094794347882270813 -0.14127735793590545654 -0.14943599700927734375 -0.13739323616027832031 -0.12600947916507720947 -0.15658935904502868652 -0.17297059297561645508 0.0036158626899123191833 -0.0069586248137056827545 -0.0079187536612153053284 -0.010367942973971366882 0.0057815858162939548492 -0.0080592688173055648804 0.007120036054402589798 0.00068366900086402893066 0.0097693344578146934509 -0.0019061593338847160339 -0.028090821579098701477 0.035550504922866821289 0.021349243819713592529 -0.0015537043800577521324 -0.032071378082036972046 -0.0038794190622866153717 -0.0065332041122019290924 0.018966039642691612244 

0.0083772642537951469421 0.0059757004491984844208 0.009732291102409362793 -0.0077216094359755516052 0.019912231713533401489 0.0015124635538086295128 -0.046978041529655456543 -0.016123894602060317993 -0.00035334896529093384743 0.018093438819050788879 0.03014698810875415802 0.067485250532627105713 0.055232834070920944214 -0.41091492772102355957 -0.062601737678050994873 -0.057092174887657165527 -0.16881662607192993164 -0.0011798173654824495316 -0.069578602910041809082 -0.14625044167041778564 -0.10597018897533416748 0.077848799526691436768 0.087522141635417938232 0.041484441608190536499 0.043184842914342880249 0.1669416576623916626 0.062718950212001800537 0.0067555997520685195923 0.0036589694209396839142 0.031161995604634284973 -0.0318986549973487854 -0.014234702102839946747 -0.0033089295029640197754 0.0060199541039764881134 -0.058218967169523239136 -0.1222788393497467041 0.0074926116503775119781 -0.0066820182837545871735 -0.024119451642036437988 0.012413658201694488525 0.0021410402841866016388 -0.018763570114970207214 -0.012707865796983242035 -0.0075011979788541793823 -0.0047272788360714912415 -0.0046897712163627147675 -0.0024142884649336338043 -0.0089423628523945808411 0.0014579157577827572823 -0.035039357841014862061 0.0058016730472445487976 -0.016710070893168449402 -0.051378048956394195557 0.00072275550337508320808 -0.0073917424306273460388 0.0023586638271808624268 -0.0024733345489948987961 0.0022174352779984474182 -0.0026474795304238796234 -0.0061302995309233665466 -0.0033313825260847806931 0.016840634867548942566 -0.012057049199938774109 0.06676664203405380249 0.051075186580419540405 0.024226529523730278015 0.009154343046247959137 0.032387923449277877808 0.011526769958436489105 -0.048842974007129669189 -0.10616509616374969482 -0.059285502880811691284 0.0040349187329411506653 -0.013888556510210037231 0.004665449727326631546 0.0040632775053381919861 -0.017613001167774200439 0.018999842926859855652 -0.029732340946793556213 -0.01317322906106710434 -0.0063360845670104026794 0.0098276082426309585571 0.018923496827483177185 0.040557384490966796875 -1.2875118255615234375 -1.2682888507843017578 -0.69908964633941650391 -0.04295226559042930603 -0.074718952178955078125 -0.10112944245338439941 0.013587685301899909973 -0.036101549863815307617 -0.036203149706125259399 -0.0076051210053265094757 0.0086061991751194000244 -0.01021136157214641571 -0.042888246476650238037 0.040113206952810287476 0.087271623313426971436 0.00244185631163418293 -0.004556970205157995224 -0.013184749521315097809 0.0022966524120420217514 -0.0078206174075603485107 -0.00053613982163369655609 0.00071925378870218992233 0.013090715743601322174 0.015936385840177536011 -0.00077827763743698596954 0.0075362646020948886871 -0.0080485688522458076477 -0.0067322258837521076202 -0.01990909874439239502 0.0054929815232753753662 -0.016338305547833442688 -0.028345197439193725586 -0.0063419304788112640381 0.025327218696475028992 0.024463100358843803406 0.021570522338151931763 0.014822323806583881378 0.008475780487060546875 0.010784148238599300385 0.010300822556018829346 0.0063867284916341304779 -0.00073672039434313774109 -0.0066975532099604606628 0.0036746782716363668442 0.017207810655236244202 -0.038673508912324905396 -0.044557511806488037109 -0.014685170724987983704 -0.0067581329494714736938 0.013804564252495765686 0.011368003673851490021 -0.068726941943168640137 -0.065857924520969390869 0.032091382890939712524 -0.085027329623699188232 -0.011000960133969783783 -0.024583831429481506348 0.043964438140392303467 0.077934786677360534668 -0.0080461325123906135559 -0.087035819888114929199 -0.11112149804830551147 -0.04026344791054725647 -0.052030067890882492065 0.0044170934706926345825 -0.00018227539840154349804 0.10643476992845535278 0.077333658933639526367 0.12806157767772674561 0.025247018784284591675 0.011783700436353683472 0.030460774898529052734 0.024623060598969459534 -0.015894848853349685669 -0.0033426331356167793274 -0.047082912176847457886 -0.059888865798711776733 -0.045418288558721542358 -0.02278133295476436615 -0.0065102027729153633118 0.014249182306230068207 -0.051893841475248336792 -0.068063601851463317871 0.039330314844846725464 0.037249088287353515625 0.019111221656203269958 0.030965130776166915894 -0.16633303463459014893 -0.19977967441082000732 -0.092617526650428771973 -0.0005978854023851454258 -0.036338467150926589966 0.026782326400279998779 0.10543052107095718384 0.20190121233463287354 0.1688998490571975708 -0.024164037778973579407 0.020228104665875434875 0.0044841608032584190369 -0.053063526749610900879 -0.036169156432151794434 0.011759236454963684082 0.026584032922983169556 0.045106895267963409424 -0.01239880640059709549 0.018089182674884796143 -0.0072926273569464683533 0.0057867928408086299896 -0.01942938193678855896 -0.055865567177534103394 -0.0031606575939804315567 0.0056751896627247333527 0.012381984852254390717 0.033414319157600402832 0.026315674185752868652 -0.046607002615928649902 -0.034626148641109466553 -0.013139598071575164795 -0.014605100266635417938 0.013556329533457756042 0.008461625315248966217 0.016893859952688217163 0.027471596375107765198 -0.021684331819415092468 -0.015385212376713752747 -0.042253583669662475586 0.02207018435001373291 0.08833719789981842041 -0.0021836208179593086243 -0.004117813892662525177 0.022497603669762611389 0.04985861852765083313 0.0029199472628533840179 -0.031650844961404800415 -0.014314184896647930145 0.025225687772035598755 -0.059024281799793243408 -0.014807015657424926758 -0.084014296531677246094 -0.0090657435357570648193 0.027823768556118011475 -0.0053511993028223514557 0.016919692978262901306 -0.027965063229203224182 0.0072025065310299396515 0.061204433441162109375 -0.042471978813409805298 0.0026452718302607536316 -0.0026101502589881420135 0.05008827894926071167 0.41567501425743103027 0.41423740983009338379 0.25168904662132263184 0.098012603819370269775 0.099930241703987121582 -0.092891760170459747314 -0.18220652639865875244 -0.53104263544082641602 -0.4320290684700012207 0.0033913434017449617386 0.015819344669580459595 0.00076506327604874968529 -0.0062647089362144470215 -0.019911913201212882996 -0.0080844191834330558777 -0.0041678939014673233032 -0.0096745993942022323608 -0.012640987522900104523 -0.014396064914762973785 -0.01485939323902130127 -0.0089314943179488182068 -0.014148412272334098816 -0.024180522188544273376 -0.0029429225251078605652 -0.0061272606253623962402 -0.0078065306879580020905 -0.010959931649267673492 0.040742039680480957031 0.020886747166514396667 -0.010686561465263366699 0.011078942567110061646 0.034198887646198272705 0.005533132702112197876 0.022173512727022171021 -0.041179224848747253418 -0.09302008897066116333 0.056033462285995483398 0.025941120460629463196 0.041939362883567810059 0.0067890519276261329651 -0.00044136604992672801018 -0.00054927088785916566849 -0.017151534557342529297 -0.0019914119038730859756 -3.2143576390808448195e-05 -0.16102138161659240723 -0.10957194864749908447 -0.021515123546123504639 0.016409998759627342224 -0.22207628190517425537 0.014730240218341350555 0.063079975545406341553 -0.047095935791730880737 -0.052088793367147445679 -0.33253553509712219238 -0.44930136203765869141 -0.20119500160217285156 -0.15246589481830596924 -0.15760605037212371826 -0.026312647387385368347 0.40172034502029418945 0.50407147407531738281 0.43614840507507324219 -0.00044876243919134140015 -0.0021405739244073629379 -0.0017258875304833054543 0.011155413463711738586 0.01604259200394153595 0.0087025212123990058899 -0.0045987018384039402008 0.0077301682904362678528 0.003177221398800611496 0.0026074412744492292404 0.0037751540075987577438 0.018526265397667884827 -0.036543935537338256836 -0.027611952275037765503 0.013934363611042499542 0.021191377192735671997 0.014334356412291526794 0.015945661813020706177 0.0066009513102471828461 -0.019022898748517036438 -0.00040727338637225329876 -0.011378256604075431824 -0.026160100474953651428 -0.0028687056619673967361 0.019717551767826080322 0.038693163543939590454 0.021584501489996910095 -0.0075569907203316688538 -0.017848394811153411865 -0.024008113890886306763 0.0055511994287371635437 -0.0082493927329778671265 -0.023535273969173431396 0.01303052995353937149 0.022304104641079902649 -0.013313519768416881561 -0.10736694931983947754 -0.089311748743057250977 0.032313380390405654907 -0.078622810542583465576 -0.0054837716743350028992 0.029115088284015655518 0.077536225318908691406 0.09410848468542098999 -0.048097282648086547852 0.022345010191202163696 -0.019852386787533760071 -0.0033835924696177244186 -0.0018455502577126026154 0.011389535851776599884 -0.022214939817786216736 -0.031100921332836151123 -0.00070695648901164531708 0.027604280039668083191 0.081896707415580749512 0.044604547321796417236 0.0054978607222437858582 0.0089811068028211593628 0.0088889189064502716064 0.015613962896168231964 -0.039724484086036682129 -0.06078745424747467041 -0.026565613225102424622 0.040434926748275756836 0.034876771271228790283 0.0080412467941641807556 -0.030179718509316444397 -0.12753804028034210205 -0.10683135688304901123 -0.010134289972484111786 -0.063813954591751098633 -0.015744086354970932007 0.018381576985120773315 -0.059965051710605621338 0.025748819112777709961 0.0024713315069675445557 -0.02218067459762096405 -0.0083343451842665672302 0.025901617482304573059 0.062527574598789215088 0.032616782933473587036 -0.010047481395304203033 -0.0064422274008393287659 -0.01533832307904958725 -0.0071590477600693702698 0.0060796062462031841278 -0.0042752670124173164368 -0.0081038111820816993713 -0.0025080554187297821045 -0.00047045669634826481342 -0.032781340181827545166 0.035527065396308898926 -0.025879319757223129272 0.00217314157634973526 0.070618852972984313965 -0.020781988278031349182 -0.013015954755246639252 -0.015222429297864437103 -0.039697792381048202515 0.012219988740980625153 -0.00030940197757445275784 0.0054455064237117767334 -0.008187772706151008606 -0.013225975446403026581 -0.0034950452391058206558 -0.00066248531220480799675 -0.015766633674502372742 -0.031576950103044509888 -0.023410623893141746521 -0.022686259821057319641 0.0074880984611809253693 -0.036784198135137557983 -0.048184767365455627441 0.015591504983603954315 0.0032242482993751764297 0.024390719830989837646 0.058954481035470962524 0.20055148005485534668 0.16696839034557342529 -0.059741310775279998779 0.10627162456512451172 -0.022175656631588935852 -0.057813823223114013672 -0.097950696945190429688 -0.37552788853645324707 0.079798780381679534912 0.0058256816118955612183 0.0050186202861368656158 0.0097782351076602935791 -0.0012713695177808403969 -0.0061688907444477081299 -0.014887737110257148743 0.0039487211033701896667 -0.0088880350813269615173 -0.020572664216160774231 

0.031469251960515975952 -0.0081163300201296806335 -0.00028515214216895401478 -0.013562976382672786713 -0.027053570374846458435 -0.08866962045431137085 0.017796099185943603516 -0.032579910010099411011 -0.062056552618741989136 -0.0010996439959853887558 -0.01534128095954656601 0.080338075757026672363 -0.050392679870128631592 -0.0080436915159225463867 0.014781059697270393372 -0.053037542849779129028 -0.024106252938508987427 -0.018279332667589187622 -0.039385087788105010986 -0.018287200480699539185 -0.032811880111694335938 0.010485651902854442596 0.015356921590864658356 -0.010005421936511993408 -0.003445550333708524704 0.038514886051416397095 -0.014592120423913002014 0.051974482834339141846 -0.0026164369191974401474 0.00053106277482584118843 0.030924705788493156433 -0.013087203726172447205 0.012282057665288448334 -0.0058891405351459980011 0.018820822238922119141 0.047323882579803466797 -0.017933312803506851196 -0.064670458436012268066 -0.03990504145622253418 0.003206549445167183876 -0.0075375321321189403534 -0.015441095456480979919 -0.03542251884937286377 -0.020822472870349884033 0.01642737165093421936 0.0032735189888626337051 0.033983480185270309448 0.0099657513201236724854 -0.005865584593266248703 -0.011495163664221763611 -0.01237817760556936264 -0.041978798806667327881 -0.016995733603835105896 -0.038898520171642303467 -0.040007818490266799927 -0.038097433745861053467 0.012825363315641880035 0.0016813895199447870255 -0.033663984388113021851 -0.059978593140840530396 -0.03660182654857635498 0.014097680337727069855 -0.059779059141874313354 -0.027156606316566467285 -0.012407678179442882538 -0.035288952291011810303 0.019543088972568511963 0.061244595795869827271 -0.013924602419137954712 0.020401120185852050781 0.022788442671298980713 -0.016553174704313278198 -0.0038063437677919864655 -0.0087613472715020179749 -0.010147287510335445404 0.019277481362223625183 0.031823460012674331665 0.0098381936550140380859 0.010203187353909015656 0.0010785078629851341248 -0.012921291403472423553 0.0020161173306405544281 -0.010754729621112346649 -0.03163709491491317749 -0.0046689114533364772797 -0.01858915574848651886 -0.0029672340024262666702 -0.0011868465226143598557 0.034853909164667129517 0.0057028550654649734497 -0.076896429061889648438 -0.022207517176866531372 -0.035658612847328186035 -0.054327592253684997559 -0.0268611125648021698 -0.060735147446393966675 -0.017610132694244384766 -0.01734293811023235321 -0.015856709331274032593 -0.041953057050704956055 -0.036262366920709609985 -0.085370883345603942871 0.0074282619170844554901 -0.023951966315507888794 -0.01824186369776725769 -0.038995098322629928589 -0.036014102399349212646 -0.056607980281114578247 0.0021845221053808927536 -0.020196935161948204041 -0.023111242800951004028 -0.031042989343404769897 -0.007136789616197347641 0.018690668046474456787 -0.041351027786731719971 -0.015698265284299850464 0.017444059252738952637 -0.0016019431641325354576 -0.027603793889284133911 -0.02548811398446559906 -0.026388769969344139099 -0.012766614556312561035 -0.0023681425955146551132 -0.0071648424491286277771 0.0072535229846835136414 -0.012752043083310127258 -0.03042911924421787262 -0.019528299570083618164 -0.035905379801988601685 0.016767922788858413696 0.019139615818858146667 -0.0023041823878884315491 0.0041624121367931365967 -0.0086750369518995285034 0.042319361120462417603 0.0076419902034103870392 0.079711444675922393799 0.029123600572347640991 0.041121542453765869141 0.084042556583881378174 0.087151519954204559326 0.0048523051664233207703 0.023199565708637237549 0.054328542202711105347 -0.041864089667797088623 0.00252230791375041008 -0.07263278961181640625 0.061869632452726364136 -0.00041220258572138845921 -0.053625434637069702148 0.0065478770993649959564 -0.041889499872922897339 -0.028382834047079086304 -0.018040418624877929688 -0.035092230886220932007 -0.0037025942001491785049 -0.020371614024043083191 -0.035425662994384765625 0.001474316231906414032 -0.052860613912343978882 -0.018401645123958587646 -0.032956000417470932007 0.018958017230033874512 0.0078951483592391014099 -0.0018262119265273213387 0.017093388363718986511 -0.0017182305455207824707 0.014687843620777130127 0.00019775543478317558765 -0.010829687118530273438 0.018494531512260437012 -0.030342904850840568542 -0.035421960055828094482 -0.024032073095440864563 0.013532826676964759827 -0.021608132869005203247 -0.026616308838129043579 -0.037197470664978027344 0.0015241343062371015549 -0.036223642528057098389 -0.0067489286884665489197 0.030057232826948165894 -0.055612344294786453247 0.01317647937685251236 -0.032503537833690643311 -0.00099611131008714437485 0.0025365180335938930511 -0.026496259495615959167 -0.0010788107756525278091 0.027899526059627532959 0.01914900168776512146 -0.0077206101268529891968 0.048969570547342300415 0.041860993951559066772 -0.0037556590978056192398 -0.02806233428418636322 0.0019282478606328368187 -0.067389450967311859131 -0.006410002242773771286 -0.019325297325849533081 0.012122539803385734558 0.053263325244188308716 0.0020367868710309267044 -0.0024496733676642179489 -0.03027954883873462677 -0.027243604883551597595 -0.047519620507955551147 -0.044432587921619415283 -0.072273425757884979248 -0.061604429036378860474 -0.029735306277871131897 -0.055643327534198760986 -0.025035457685589790344 0.011671312153339385986 -0.029900487512350082397 -0.033988747745752334595 -0.032655782997608184814 -0.027360716834664344788 -0.022631250321865081787 -0.074670612812042236328 -0.0630838051438331604 -0.039767000824213027954 0.008982354775071144104 -0.037031423300504684448 -0.057182710617780685425 -0.022020570933818817139 0.040192939341068267822 0.0039788689464330673218 -0.0068178754299879074097 0.056785732507705688477 -0.0018399530090391635895 -0.028008604422211647034 0.031776566058397293091 0.025204783305525779724 -0.069646224379539489746 -0.022456279024481773376 -0.054377276450395584106 0.01097503025084733963 -0.030203923583030700684 -0.033433701843023300171 -0.043657712638378143311 -0.014731022529304027557 -0.095577381551265716553 0.047349154949188232422 0.0086314873769879341125 -0.022047532722353935242 -0.02529934421181678772 -0.028939224779605865479 -0.0023920801468193531036 0.0047742505557835102081 -0.0018612485146149992943 -0.017584176734089851379 -0.021149819716811180115 0.020155651494860649109 0.0023681977763772010803 0.021830758079886436462 0.0079158395528793334961 -0.0039116377010941505432 0.003162967972457408905 0.0030750012956559658051 -0.011807766743004322052 -0.036703061312437057495 -0.0091570001095533370972 -0.070459425449371337891 -0.011941597796976566315 0.01167999953031539917 -0.02386114560067653656 0.0038015230093151330948 -0.041489135473966598511 -0.08707141876220703125 -0.035491291433572769165 -0.011763853020966053009 -0.0042366334237158298492 0.0077178417704999446869 -0.015245812013745307922 -0.030845755711197853088 0.029885133728384971619 -0.0011326628737151622772 -0.0079416418448090553284 -0.025534024462103843689 -0.0013363016769289970398 -0.0023579271510243415833 -0.025090189650654792786 -0.013968173414468765259 -0.023125061765313148499 -0.011069341562688350677 -0.016884312033653259277 -0.059263411909341812134 -0.033899169415235519409 -0.084766283631324768066 -0.046852748841047286987 -0.042972095310688018799 -0.087716855108737945557 -0.063263468444347381592 -0.075422167778015136719 -0.038895953446626663208 -0.046797264367341995239 0.0047236368991434574127 -0.036427725106477737427 -0.0091630695387721061707 0.032994594424962997437 0.011627971194684505463 0.0099812587723135948181 -0.012274871580302715302 -0.0067897420376539230347 -0.026151880621910095215 -0.020599778741598129272 -0.0005990331992506980896 -0.025171561166644096375 -0.041890919208526611328 -0.036073006689548492432 0.013010823167860507965 -0.01036815159022808075 -0.0087111778557300567627 -0.0028678835369646549225 -0.012190899811685085297 -0.024362945929169654846 -0.011944022029638290405 0.0041022365912795066833 0.0057368627749383449554 -0.012905250303447246552 -0.028854096308350563049 0.0062209260649979114532 -0.024808976799249649048 -0.014107206836342811584 0.015530680306255817413 0.00099359056912362575531 0.045251902192831039429 0.0093991262838244438171 0.020502170547842979431 -0.015686847269535064697 0.036148916929960250854 -0.022144448012113571167 -0.035247460007667541504 -0.0066664181649684906006 0.0059404894709587097168 -0.0092592369765043258667 0.013910549692809581757 -0.0044298539869487285614 -0.04995484277606010437 0.018435824662446975708 -0.0018284997204318642616 -0.0094183608889579772949 -0.05010093003511428833 -0.022301677614450454712 0.0070132715627551078796 0.01384373195469379425 0.0049706893041729927063 -0.028783202171325683594 -0.016290010884404182434 -0.012421926483511924744 -0.010021382011473178864 0.021543689072132110596 -0.074489392340183258057 0.056713886559009552002 0.058036345988512039185 0.019272683188319206238 0.0097688063979148864746 0.045094504952430725098 -0.031045926734805107117 -0.010432300157845020294 -0.02392149902880191803 -0.017609452828764915466 0.00097830826416611671448 -0.031653873622417449951 -0.028549635782837867737 -0.0013933673035353422165 -0.0054439669474959373474 0.012989262118935585022 0.023767994716763496399 0.047891337424516677856 0.012765265069901943207 -0.020284384489059448242 0.050137333571910858154 0.045562703162431716919 0.082725159823894500732 0.0029641941655427217484 0.012632935307919979095 0.042795222252607345581 -0.025398369878530502319 -0.062271889299154281616 0.0062899887561798095703 -0.016841720789670944214 -0.0094900475814938545227 -0.021352915093302726746 -0.0064520188607275485992 -0.080488868057727813721 -0.038635056465864181519 -0.034612189978361129761 -0.018462080508470535278 0.013049653731286525726 0.01898911595344543457 -0.017739793285727500916 -0.023640459403395652771 -0.023260705173015594482 0.0043672723695635795593 -0.044631831347942352295 -0.039554197341203689575 -0.0018170558614656329155 0.048539206385612487793 -0.021654447540640830994 0.017690507695078849792 0.0008153286762535572052 0.0025236431974917650223 0.0096163926646113395691 -0.019988808780908584595 -0.03630906715989112854 -0.028568524867296218872 0.02304991893470287323 0.011528804898262023926 -0.018273208290338516235 -0.013303549028933048248 -0.012565935961902141571 -0.029238704591989517212 -0.03365783393383026123 -0.013999355025589466095 -0.065698802471160888672 0.018293023109436035156 -0.0375804118812084198 -0.043681588023900985718 -0.02132505364716053009 0.0074753365479409694672 0.010043691843748092651 -0.011057534255087375641 0.028740705922245979309 0.0047216713428497314453 -0.00098109326791018247604 -0.0403730049729347229 0.014304485172033309937 0.022196708247065544128 -0.017862692475318908691 -0.019614804536104202271 

0.03494393080472946167 0.019435806199908256531 0.06694965064525604248 0.15196298062801361084 0.21420618891716003418 0.26108515262603759766 0.0020268431399017572403 0.11732627451419830322 -0.00018800722318701446056 -0.17458994686603546143 -0.18162415921688079834 0.25328221917152404785 0.044416632503271102905 0.057328704744577407837 -0.11552300304174423218 0.10658061504364013672 0.020533148199319839478 -0.11191777884960174561 0.033781819045543670654 0.081830620765686035156 0.013658480718731880188 -0.019713707268238067627 -0.076151467859745025635 -0.071908846497535705566 -0.023081358522176742554 0.046446036547422409058 -0.049951720982789993286 0.12461807578802108765 0.084136813879013061523 -0.21825674176216125488 -0.073550090193748474121 0.02953891269862651825 -0.017274318262934684753 -0.018723614513874053955 -0.10139898210763931274 0.13462176918983459473 0.032552521675825119019 0.14481785893440246582 0.11329547315835952759 0.0079932054504752159119 -0.58403867483139038086 -0.20002007484436035156 0.18171934783458709717 0.23058699071407318115 0.18388009071350097656 -0.023274872452020645142 0.052295338362455368042 0.073472924530506134033 0.10237553715705871582 0.070016436278820037842 0.12207873165607452393 0.07208709418773651123 -0.094869889318943023682 -0.019354652613401412964 -0.0050227851606905460358 -0.043816048651933670044 -0.03772165253758430481 0.033226221799850463867 0.032966915518045425415 -0.042447846382856369019 -9.5702904218342155218e-05 0.052017774432897567749 -0.030265785753726959229 0.03419337049126625061 -0.041331481188535690308 -0.001123137190006673336 -0.017650008201599121094 0.042314738035202026367 0.051549300551414489746 -0.04121381416916847229 -0.0072658807039260864258 -0.026307901367545127869 0.011899104341864585876 0.052289579063653945923 -0.033685930073261260986 -0.054787822067737579346 0.10941542685031890869 0.051486626267433166504 -0.058391675353050231934 0.041103657335042953491 0.10584859549999237061 -0.14192502200603485107 0.28663501143455505371 -0.048986561596393585205 -0.0078718047589063644409 -0.44083315134048461914 0.094167016446590423584 -0.20937326550483703613 0.067202158272266387939 -0.10492796450853347778 -0.00061786820879206061363 0.035842489451169967651 -0.0080304928123950958252 -0.064141981303691864014 0.0020046825520694255829 -0.040391575545072555542 -0.0084191914647817611694 -0.034014042466878890991 -0.016989780589938163757 -0.07066650688648223877 0.093196727335453033447 -0.039427261799573898315 0.0022729733027517795563 -0.10401918739080429077 -0.036829650402069091797 -0.017085861414670944214 -0.079655930399894714355 -0.01102542877197265625 -0.058747995644807815552 0.0078860176727175712585 -0.029091769829392433167 -0.054288595914840698242 -0.14991459250450134277 -0.033424258232116699219 0.015379241667687892914 0.030685761943459510803 0.011172660626471042633 -0.03116850927472114563 -0.060702696442604064941 0.0058514447882771492004 -0.037078548222780227661 -0.013167328201234340668 -0.060617584735155105591 -0.032279603183269500732 0.0022978808265179395676 -0.045238155871629714966 -0.063270337879657745361 -0.018980704247951507568 -0.00063351582502946257591 -0.01642102561891078949 0.057729065418243408203 -0.085216127336025238037 -0.034838233143091201782 -0.023585548624396324158 -0.10738217085599899292 0.05912416800856590271 0.083801470696926116943 -0.035421032458543777466 -0.34961035847663879395 -0.35768279433250427246 -0.44872325658798217773 -0.19966636598110198975 -0.083721391856670379639 -0.30805361270904541016 0.17435303330421447754 0.12285979092121124268 0.1573063284158706665 -0.092587225139141082764 -0.061529900878667831421 -0.05227626115083694458 -0.091469123959541320801 -0.1199240460991859436 -0.069342821836471557617 0.0080086849629878997803 -0.035028889775276184082 -0.023210501298308372498 -0.011451817117631435394 -0.02474072575569152832 -0.022485723719000816345 -0.0059466557577252388 0.024853758513927459717 0.029121810570359230042 0.027987238019704818726 0.025782382115721702576 0.026925493031740188599 -0.072976082563400268555 -0.12831960618495941162 -0.045319035649299621582 0.044638659805059432983 0.095203153789043426514 -0.011369924992322921753 0.14525561034679412842 0.16068103909492492676 0.16577589511871337891 -0.089224532246589660645 -0.01402164064347743988 -0.031066205352544784546 -0.12243816256523132324 -0.11612817645072937012 -0.077216602861881256104 0.047783829271793365479 0.00064306659623980522156 0.0017172641819342970848 0.02036014944314956665 0.07801055908203125 0.023164674639701843262 0.033786132931709289551 -0.022115716710686683655 0.040969349443912506104 0.07502816617488861084 0.075754649937152862549 0.10330640524625778198 -0.084842011332511901855 -0.051018815487623214722 -0.040367037057876586914 -0.010764785110950469971 -0.0098579572513699531555 -0.042385060340166091919 0.012689742259681224823 0.05481494218111038208 0.0654905661940574646 -0.051894862204790115356 0.019465746358036994934 -4.8003539632190950215e-06 -0.062141094356775283813 -0.042336311191320419312 0.0099330795928835868835 -0.12357842922210693359 -0.25878000259399414062 -0.11996283382177352905 -0.084307342767715454102 -0.15770541131496429443 -0.19335259497165679932 0.11972282081842422485 0.039527129381895065308 0.054713044315576553345 0.01608936116099357605 0.010096624493598937988 -0.0080560455098748207092 -0.021731728687882423401 -0.018895478919148445129 -0.00072793255094438791275 0.01709369756281375885 0.031612198799848556519 0.01750188879668712616 -0.00094186031492426991463 -0.009253241121768951416 0.015009302645921707153 0.01613361947238445282 0.075782641768455505371 0.018124524503946304321 0.048249889165163040161 -0.011860236525535583496 -0.061018273234367370605 0.070908941328525543213 0.08524974435567855835 0.085341684520244598389 -0.071502968668937683105 -0.03649676591157913208 -0.07624209672212600708 0.0079031093046069145203 -0.035984758287668228149 -0.03322400897741317749 0.078914247453212738037 -0.055155076086521148682 -0.020867077633738517761 0.12251662462949752808 0.046230688691139221191 0.13842606544494628906 0.042099535465240478516 -0.0093157850205898284912 0.095437459647655487061 0.035282980650663375854 0.085344493389129638672 -0.017232941463589668274 -0.044051978737115859985 -0.014851516112685203552 -0.0050552100874483585358 0.027130646631121635437 -0.060660026967525482178 0.028286254033446311951 0.0018741820240393280983 -0.098687224090099334717 -0.044997379183769226074 -0.042957842350006103516 0.035662841051816940308 0.036064412444829940796 -0.0039923726581037044525 0.024287151172757148743 0.099490135908126831055 0.0081667387858033180237 -0.035253632813692092896 0.0026978019159287214279 -0.032580714672803878784 -0.011689173057675361633 -0.03638987615704536438 -0.00088416581274941563606 -0.013294889591634273529 -0.032663848251104354858 -0.016975436359643936157 -0.12098807096481323242 -0.031311649829149246216 0.0053093517199158668518 -0.017683221027255058289 0.0083482451736927032471 -0.030944559723138809204 0.050145518034696578979 0.039808608591556549072 -0.1417954564094543457 -0.11899163573980331421 -0.12939767539501190186 0.039253368973731994629 0.048780199140310287476 -0.011689038015902042389 0.096233509480953216553 0.12602512538433074951 0.068497285246849060059 -0.028174571692943572998 -0.089937835931777954102 -0.059640802443027496338 0.0085517959669232368469 -0.010424229316413402557 -0.0030613448470830917358 0.020246285945177078247 -0.011267047375440597534 0.031945515424013137817 -0.048653345555067062378 -0.034530587494373321533 -0.0531503334641456604 -0.026513487100601196289 0.012690021656453609467 -0.027539694681763648987 -0.088319376111030578613 -0.056533884257078170776 -0.056753341108560562134 -0.011418464593589305878 0.04334387555718421936 0.038551133126020431519 -0.042765025049448013306 -0.0969255790114402771 -0.05962076038122177124 0.060150336474180221558 0.0052764052525162696838 -0.013874024152755737305 0.0071540172211825847626 0.08255310356616973877 -0.043477687984704971313 0.059742264449596405029 0.10633582621812820435 0.048064064234495162964 -0.075412064790725708008 -0.058286365121603012085 0.049073003232479095459 -0.1138638034462928772 -0.074683725833892822266 0.050580497831106185913 0.12441442906856536865 0.061724845319986343384 0.075686335563659667969 0.039982229471206665039 0.003927275538444519043 -0.054055996239185333252 0.23919372260570526123 0.12518462538719177246 0.019202560186386108398 0.11196156591176986694 0.22180056571960449219 0.18630741536617279053 -0.2167863696813583374 -0.19522640109062194824 0.081371143460273742676 0.10740981251001358032 0.15103398263454437256 0.14456075429916381836 -0.0026870856527239084244 -0.035086046904325485229 -0.0070653106085956096649 -0.049907367676496505737 -0.19992345571517944336 -0.081605218350887298584 0.031944867223501205444 -0.10431451350450515747 -0.033907491713762283325 -0.023293685168027877808 0.15574766695499420166 0.06969738006591796875 0.020406266674399375916 0.0095718288794159889221 -0.0068081170320510864258 -0.1842152029275894165 -0.37054955959320068359 -0.30709770321846008301 0.066474340856075286865 0.090698450803756713867 0.0072111096233129501343 0.088873051106929779053 0.090660966932773590088 0.18173798918724060059 -0.024757826700806617737 0.061925273388624191284 0.096206255257129669189 0.042525969445705413818 0.042295362800359725952 0.016688479110598564148 -0.021599089726805686951 0.032052710652351379395 0.059011705219745635986 0.016401039436459541321 0.21092441678047180176 0.10254051536321640015 -0.090871743857860565186 -0.070174001157283782959 0.03128310665488243103 -0.071010552346706390381 0.05851198732852935791 -0.02701148204505443573 -0.010048846714198589325 -0.17248797416687011719 -0.065391279757022857666 0.0029804292134940624237 0.15250454843044281006 -0.025716759264469146729 -0.015236524865031242371 0.049879737198352813721 0.04098859056830406189 0.032260704785585403442 0.017806883901357650757 0.011470544151961803436 -0.065955720841884613037 0.025461848825216293335 -0.027081780135631561279 -0.04684779047966003418 -0.074383497238159179688 0.0066910032182931900024 0.041989866644144058228 0.064890451729297637939 -0.047925069928169250488 -0.018728163093328475952 -0.030005501583218574524 -0.019829962402582168579 -0.0047498885542154312134 -0.038069147616624832153 0.034659679979085922241 0.029669718816876411438 0.034201722592115402222 -0.12736222147941589355 -0.085964441299438476562 0.033076409250497817993 0.064683414995670318604 0.07675857841968536377 -0.032504182308912277222 0.01838035881519317627 

-0.090812385082244873047 0.015164490789175033569 -0.022240404039621353149 -0.01227924693375825882 -0.026202125474810600281 -0.024456331506371498108 -0.026594428345561027527 -0.024369042366743087769 0.012368896976113319397 0.0043020606972277164459 -0.046900585293769836426 -0.0072544976137578487396 -0.032119996845722198486 0.072303719818592071533 -0.016613911837339401245 -0.0044284486211836338043 -0.020448021590709686279 0.0085124140605330467224 -0.097257047891616821289 -0.068971097469329833984 -0.053418535739183425903 -0.044241033494472503662 0.021455651149153709412 -0.034909281879663467407 0.045835252851247787476 0.033215362578630447388 -0.027583986520767211914 0.067912414669990539551 -0.016225829720497131348 0.040540512651205062866 0.024662643671035766602 -0.068105556070804595947 -0.018315970897674560547 0.010613514110445976257 -0.0060136443935334682465 -0.007809715811163187027 0.0040797661058604717255 -0.0065272715874016284943 0.050902437418699264526 -0.039011690765619277954 0.042405940592288970947 0.037630394101142883301 -0.13771146535873413086 -0.080837815999984741211 -0.024754216894507408142 0.0081944772973656654358 0.010403901338577270508 0.014117974787950515747 0.031002830713987350464 0.013622038997709751129 0.018595872446894645691 0.023968242108821868896 -0.0030241920612752437592 0.036141924560070037842 -0.01689616963267326355 0.016763448715209960938 -0.013825408183038234711 0.024900035932660102844 0.044082723557949066162 0.037368927150964736938 0.027560032904148101807 0.024800201877951622009 0.025536570698022842407 0.14540049433708190918 0.15960760414600372314 0.030858129262924194336 0.18717204034328460693 -0.071298114955425262451 0.03851803019642829895 0.10005318373441696167 0.15041589736938476562 0.035143382847309112549 -0.017671016976237297058 -0.02611874602735042572 -0.026637492701411247253 -0.011096564121544361115 -0.0030157295987010002136 -0.007084194570779800415 -0.0058004888705909252167 -0.034021675586700439453 -0.044854216277599334717 0.0031026741489768028259 -0.14830507338047027588 0.016730830073356628418 -0.024812923744320869446 -0.035822477191686630249 0.020656349137425422668 0.062779836356639862061 0.0034625183325260877609 0.015467822551727294922 -0.035753156989812850952 0.019293196499347686768 0.0049038967117667198181 -0.069939307868480682373 0.03234370797872543335 -0.0031166234984993934631 -0.004573975689709186554 -0.026731589809060096741 0.016140881925821304321 0.026083854958415031433 0.0034645271953195333481 0.0051690144464373588562 0.0090786581858992576599 0.014783874154090881348 -0.0067691681906580924988 0.014819775708019733429 0.013473186641931533813 0.0061164996586740016937 -0.016660649329423904419 -0.025302646681666374207 -0.021718924865126609802 -0.0072328341193497180939 -0.014875264838337898254 0.0055811158381402492523 -0.046784300357103347778 -0.011049572378396987915 -0.030578361824154853821 -0.015115560963749885559 -0.0041188984178006649017 -0.0066812611185014247894 -0.022338369861245155334 -0.012467002496123313904 -0.017334356904029846191 -0.01021204143762588501 0.0021987624932080507278 -0.0050431932322680950165 -0.029171394184231758118 0.034696798771619796753 -0.018454518169164657593 0.065955951809883117676 0.062845855951309204102 0.046108670532703399658 0.012835952453315258026 0.06228203698992729187 0.0047236699610948562622 -0.054872110486030578613 0.041462656110525131226 -0.056971009820699691772 0.031883526593446731567 0.052612777799367904663 0.0040987092070281505585 -0.10690578073263168335 -0.037451967597007751465 0.020278261974453926086 0.01880795694887638092 -0.0097471978515386581421 0.01671386323869228363 0.057228825986385345459 0.098130010068416595459 0.039877254515886306763 -0.0020275202114135026932 0.0062745870091021060944 -0.053934741765260696411 0.010831204243004322052 0.0031096918974071741104 -0.005398412700742483139 -0.023853003978729248047 -0.010699387639760971069 -0.029138356447219848633 0.007863173261284828186 -0.0025273058563470840454 -0.022595046088099479675 -0.029727902263402938843 0.031176326796412467957 0.0095940930768847465515 -0.038435555994510650635 0.037826046347618103027 0.063782967627048492432 -0.067340277135372161865 -0.0066523258574306964874 -0.0046938685700297355652 0.00086032273247838020325 0.019993707537651062012 -0.014340720139443874359 0.051322150975465774536 0.035578094422817230225 0.059538614004850387573 0.012945014983415603638 -0.010161676444113254547 -0.022763486951589584351 -0.047246921807527542114 -0.0056026512756943702698 0.018810931593179702759 -0.0034437282010912895203 -0.0059008374810218811035 0.0051105688326060771942 -0.0014868824509903788567 -0.02034586295485496521 -0.0042022974230349063873 0.0091392491012811660767 0.01271388959139585495 0.012584801763296127319 0.056315496563911437988 0.064370460808277130127 0.070874594151973724365 0.0041361660696566104889 0.0286914091557264328 0.011702888645231723785 0.04398217424750328064 -0.032326813787221908569 0.00072154082590714097023 0.019968515262007713318 0.026844862848520278931 -0.038649488240480422974 0.062193430960178375244 0.045568842440843582153 0.016971096396446228027 0.0012796083465218544006 -0.086494594812393188477 -0.025652896612882614136 -0.0011057541705667972565 -0.028660254552960395813 -0.018696058541536331177 0.0036556590348482131958 0.051866516470909118652 0.020708771422505378723 0.0014475296484306454659 0.0084018306806683540344 -0.007359538692981004715 -0.03391189873218536377 0.024638637900352478027 0.0023630983196198940277 -0.01281130034476518631 -0.0049612075090408325195 -0.017053361982107162476 -0.0092125609517097473145 0.0083136195316910743713 -0.024607053026556968689 -0.012437103316187858582 0.033396396785974502563 0.0080768605694174766541 0.026315284892916679382 -0.016903493553400039673 0.014768607914447784424 -0.016213182359933853149 0.12700173258781433105 -0.020206600427627563477 0.096872694790363311768 0.13895899057388305664 0.052941150963306427002 -0.072738811373710632324 0.0011035217903554439545 -0.084400355815887451172 -0.00039819211815483868122 0.0051914686337113380432 -0.012866238132119178772 0.0038033851888030767441 -0.0061142938211560249329 0.0019088072003796696663 -0.01702160760760307312 -0.0071821268647909164429 -0.015845205634832382202 0.0089331148192286491394 0.01732403971254825592 0.010536228306591510773 -0.0039496351964771747589 0.016901360824704170227 0.0038265548646450042725 -0.0082255974411964416504 0.0018088432261720299721 0.010779196396470069885 -0.018379693850874900818 -0.014064706861972808838 -0.005892667919397354126 0.026978537440299987793 0.010547264479100704193 0.01224879734218120575 0.080312058329582214355 0.062676519155502319336 0.050461713224649429321 0.059991527348756790161 0.0690460205078125 0.052382592111825942993 0.073039323091506958008 0.082670614123344421387 0.054883167147636413574 0.054005682468414306641 0.044437982141971588135 0.048931416124105453491 -0.041404444724321365356 0.0046461522579193115234 -0.017126480117440223694 -0.024954041466116905212 -0.051685620099306106567 0.013717143796384334564 -0.0497800484299659729 -0.020579596981406211853 -0.020526569336652755737 -0.02725605107843875885 -0.12826421856880187988 -0.011901357211172580719 -0.081754378974437713623 -0.086135379970073699951 -0.021751565858721733093 -0.022391788661479949951 0.027323342859745025635 0.067322611808776855469 -0.0098562641069293022156 -0.0016816589049994945526 0.0037194353062659502029 -0.022093970328569412231 -0.014071683399379253387 -0.0087780514732003211975 -0.016581695526838302612 -0.0031328657642006874084 -0.014129605144262313843 -0.023205012083053588867 -0.0038530244491994380951 -0.045221466571092605591 0.0050596878863871097565 0.0071910880506038665771 0.0032360434997826814651 -0.0093814237043261528015 0.0084026027470827102661 -0.025655204430222511292 0.058894027024507522583 0.058035049587488174438 0.037241946905851364136 0.043949764221906661987 0.035212367773056030273 0.021628174930810928345 0.048292454332113265991 0.02860328182578086853 0.045341815799474716187 -0.012393781915307044983 0.048287160694599151611 0.01877432502806186676 0.042735278606414794922 0.072700351476669311523 0.072345405817031860352 0.043502960354089736938 0.014573490247130393982 0.00067465845495462417603 -0.17353843152523040771 -0.0059450571425259113312 -0.027030743658542633057 -0.071540452539920806885 -0.049846582114696502686 -0.017133388668298721313 -0.12958991527557373047 -0.07036148756742477417 -0.04191579669713973999 0.0092799765989184379578 0.0085579659789800643921 -0.13471651077270507812 0.023599144071340560913 0.012375932186841964722 -0.006528531201183795929 0.03537014499306678772 0.015376008115708827972 -0.034409467130899429321 0.093301951885223388672 0.045102786272764205933 0.03633479773998260498 0.05997188761830329895 -0.012874110601842403412 0.012693052180111408234 0.062530465424060821533 0.0074949357658624649048 0.035519849509000778198 -0.0030468788463622331619 -0.015783727169036865234 -0.016622047871351242065 -0.0084316479042172431946 -0.031471110880374908447 -0.020945016294717788696 -0.029592270031571388245 -0.04187375679612159729 0.0069430726580321788788 0.05569191277027130127 -0.060168877243995666504 -0.032141674309968948364 -0.075500555336475372314 0.083597987890243530273 -0.060879606753587722778 -0.038796104490756988525 -0.038187909871339797974 -0.027501562610268592834 0.010377310216426849365 0.011775401420891284943 0.0052967341616749763489 0.034290064126253128052 0.061953861266374588013 0.02275089360773563385 0.032835207879543304443 0.015522172674536705017 0.027733834460377693176 0.0098696174100041389465 0.010912659578025341034 0.032841540873050689697 0.019739065319299697876 -0.003620424540713429451 0.044036112725734710693 0.0005122066941112279892 -0.027856960892677307129 0.016274446621537208557 -0.0089676808565855026245 0.004578188527375459671 0.0076624210923910140991 -0.032361853867769241333 -0.023468630388379096985 0.020136661827564239502 0.0035121757537126541138 0.01226118672639131546 0.010151787661015987396 -0.018417812883853912354 0.016540534794330596924 -0.048254072666168212891 -0.0033292409498244524002 -0.00014361787179950624704 -0.021016154438257217407 -0.032321631908416748047 -0.022710954770445823669 -0.045479785650968551636 0.062243413180112838745 0.014577281661331653595 0.01153024379163980484 0.021379107609391212463 -0.029929690062999725342 0.0032154778018593788147 0.031464952975511550903 0.0052201081998646259308 -0.037281624972820281982 0.026523197069764137268 0.055189274251461029053 0.029086636379361152649 0.012960392050445079803 0.014831101521849632263 0.011010088026523590088 -0.035310205072164535522 -0.052577726542949676514 -0.023534376174211502075 

