4.189478699117898941e-03 3.467318415641784668e-02 8.011034689843654633e-03 -6.140534300357103348e-03 2.706219907850027084e-03 -1.485661696642637253e-02 -8.253103122115135193e-03 -1.507388148456811905e-02 3.240300342440605164e-02 6.663856562227010727e-03 2.504080906510353088e-02 -2.550103515386581421e-02 -1.479903049767017365e-02 2.197274938225746155e-03 2.336646802723407745e-02 -2.110724709928035736e-02 2.224851213395595551e-02 -7.496568374335765839e-03 -4.243439761921763420e-04 -2.076600492000579834e-02 -4.662020655814558268e-04 2.373671904206275940e-02 -1.205526944249868393e-02 -1.660189591348171234e-02 -2.661363407969474792e-02 -1.941201090812683105e-02 3.033337555825710297e-02 -2.220651134848594666e-02 2.467386238276958466e-02 -4.315858334302902222e-02 3.795246407389640808e-02 5.617604125291109085e-03 -5.800977349281311035e-03 5.884070321917533875e-02 1.209209300577640533e-02 7.363419048488140106e-03 -1.381520647555589676e-02 -4.404911026358604431e-02 -4.275822546333074570e-03 5.231691151857376099e-02 2.257406711578369141e-02 1.689163967967033386e-02 -5.879197269678115845e-03 1.342919468879699707e-02 -2.232969552278518677e-02 5.247794091701507568e-03 -3.329830989241600037e-02 4.038647934794425964e-02 3.519437741488218307e-03 -6.797654088586568832e-03 3.863323107361793518e-02 -1.005284488201141357e-02 2.576205180957913399e-03 -6.462853401899337769e-02 -3.966278955340385437e-02 2.953143231570720673e-02 -2.149555645883083344e-02 -3.247007355093955994e-02 -9.007507935166358948e-03 2.782722748816013336e-02 -3.265972062945365906e-02 -1.906501315534114838e-02 7.164606824517250061e-03 -1.191978901624679565e-02
