2.169347740709781647e-02 3.796994686126708984e-02 -3.351524844765663147e-02 -3.052880428731441498e-02 -6.952120456844568253e-03 8.436543866991996765e-03 2.462057769298553467e-02 -1.171827409416437149e-02 2.592493407428264618e-02 9.732118807733058929e-03 1.517770253121852875e-02 -3.943190351128578186e-02 -7.466091308742761612e-03 4.988885950297117233e-03 -4.293699562549591064e-02 -2.592064812779426575e-02 2.174574136734008789e-02 -5.292179808020591736e-02 -1.100979745388031006e-02 -1.281653996556997299e-02 4.543563816696405411e-03 -4.416381567716598511e-02 2.163144759833812714e-02 -1.796617917716503143e-02 3.558406606316566467e-02 2.534961514174938202e-02 2.437833882868289948e-02 -4.019223526120185852e-02 -2.526071853935718536e-02 -1.015140302479267120e-02 -1.166411209851503372e-02 9.646568447351455688e-03 -1.217190548777580261e-02 1.956437714397907257e-02 -3.611477091908454895e-02 3.196101635694503784e-02 2.660939656198024750e-02 1.666500233113765717e-02 6.850683130323886871e-03 1.357439253479242325e-02 -7.488813251256942749e-03 -1.187814772129058838e-02 -1.853475347161293030e-02 -3.447767347097396851e-02 -1.468217186629772186e-02 4.999293480068445206e-03 -1.248975098133087158e-02 -1.208657119423151016e-02 -1.379324309527873993e-02 -7.125388365238904953e-03 8.036185055971145630e-03 -3.712373226881027222e-02 -1.490522269159555435e-02 -2.366381511092185974e-02 4.001529887318611145e-02 -8.198312483727931976e-03 -2.070078440010547638e-02 -3.320568427443504333e-02 -1.715933531522750854e-02 4.185567377135157585e-04 -4.165996238589286804e-02 -3.402085229754447937e-02 9.272886440157890320e-03 1.401526667177677155e-02
