-1.248806156218051910e-02 5.789346527308225632e-03 1.399319805204868317e-02 -1.193407457321882248e-02 1.386000029742717743e-02 -2.007855288684368134e-02 2.881805226206779480e-02 -1.140198670327663422e-02 2.803380787372589111e-02 -4.340705461800098419e-03 1.130169909447431564e-02 1.398019585758447647e-02 7.256509736180305481e-03 -3.547127125784754753e-03 1.623146794736385345e-02 5.367210600525140762e-03 1.538436114788055420e-02 4.504944197833538055e-03 -1.572390273213386536e-02 1.466856338083744049e-02 -1.791019365191459656e-02 -1.170178968459367752e-02 -3.871310735121369362e-03 1.833712682127952576e-02 -1.614874787628650665e-02 -2.552584186196327209e-02 -1.341483183205127716e-02 -2.824794314801692963e-02 -2.390098571777343750e-02 -8.717775344848632812e-03 -3.103093244135379791e-02 7.055904250591993332e-03 3.398763714358210564e-03 1.495226658880710602e-02 1.675968803465366364e-02 -2.785731852054595947e-02 -1.054123509675264359e-02 -1.605964964255690575e-03 -5.578730255365371704e-03 -4.352384060621261597e-02 -1.405484043061733246e-02 -8.390264585614204407e-03 -2.517554536461830139e-02 -1.226105820387601852e-02 2.259789733216166496e-03 -7.209508679807186127e-03 7.804644410498440266e-04 7.164801470935344696e-03 1.638566888868808746e-02 -3.112837858498096466e-02 -1.522339601069688797e-02 -1.514467759989202023e-03 -1.419142354279756546e-02 -3.159288689494132996e-02 1.166425552219152451e-02 3.520614700391888618e-03 -2.094760537147521973e-02 8.690299466252326965e-03 1.411159895360469818e-02 7.460413966327905655e-03 -3.453316539525985718e-02 1.436366885900497437e-02 -2.643841132521629333e-02 -1.719643734395503998e-02 -4.978937562555074692e-03 1.490297727286815643e-02 -1.917386054992675781e-02 -7.417952176183462143e-03 -1.512045785784721375e-02 3.417870961129665375e-03
