-2.632381394505500793e-02 3.341338015161454678e-04 2.466294728219509125e-02 -6.951434537768363953e-03 -2.974918112158775330e-02 -1.933997124433517456e-02 1.920876838266849518e-02 -2.173045463860034943e-02 -1.549544371664524078e-02 1.803305372595787048e-02 -3.094040416181087494e-02 -1.099993661046028137e-02 6.871469318866729736e-03 -3.151949029415845871e-03 -2.948419004678726196e-02 -1.489743823185563087e-03 2.579582622274756432e-03 -1.346708741039037704e-02 -3.166166692972183228e-02 -3.439929708838462830e-02 -2.359369024634361267e-02 -2.524869889020919800e-02 2.189858630299568176e-02 -4.666110966354608536e-03 1.902784779667854309e-02 -3.146452084183692932e-02 -3.417666628956794739e-02 4.688648914452642202e-04 -3.367554396390914917e-02 2.015176042914390564e-02 -6.313639227300882339e-03 -2.195324189960956573e-02 -6.167326122522354126e-03 3.937104716897010803e-03 3.247294574975967407e-02 -3.401365131139755249e-02 -2.474465640261769295e-03 -9.889422915875911713e-03 -1.963486894965171814e-02 1.176848169416189194e-02 6.205138750374317169e-03 -3.331907838582992554e-02 7.814061245881021023e-04 -2.090827189385890961e-02 -3.274815157055854797e-02 3.413663804531097412e-02 1.222866005264222622e-03 -1.042843889445066452e-02 -6.824181415140628815e-03 -2.666601911187171936e-02 -1.703054457902908325e-02 1.319910050369799137e-03 -3.260471299290657043e-02 -1.106917206197977066e-02 -2.694142609834671021e-02 1.778007484972476959e-02 1.658109715208411217e-03 -2.283788658678531647e-02 -2.303519845008850098e-02 -8.374323137104511261e-03 -3.182602301239967346e-02 -2.814339008182287216e-03 -1.474630273878574371e-02 -2.086241543292999268e-02 -1.648515649139881134e-02 -1.050475984811782837e-02 1.111676637083292007e-02 2.839277684688568115e-02 2.354964800179004669e-02 -9.108441881835460663e-03 -1.835483126342296600e-02 1.979887485504150391e-02 -1.668379455804824829e-02 6.097985431551933289e-03 -1.363768824376165867e-03 4.211405292153358459e-02 1.620737835764884949e-02 -1.144757587462663651e-02 1.354581583291292191e-02 5.890698172152042389e-03 2.433204092085361481e-02 -3.621430834755301476e-03 -1.727087423205375671e-02 -2.912945300340652466e-02 -2.411226555705070496e-02 -2.678595855832099915e-02 1.447176281362771988e-02 -1.802381500601768494e-02 1.267250254750251770e-02 -2.995944581925868988e-02 -2.825499884784221649e-02 -3.756920248270034790e-02
