-2.609956450760364532e-02 1.333793741650879383e-03 3.067974559962749481e-02 -1.638404442928731441e-03 -8.761287666857242584e-03 -1.475026831030845642e-02 -1.384090865030884743e-04 1.625241711735725403e-02 -2.310072816908359528e-02 -1.277078595012426376e-02 -1.794105768203735352e-02 -1.549353729933500290e-02 1.819212175905704498e-02 2.895752154290676117e-02 -2.936919219791889191e-02 -2.511827275156974792e-02 -3.394371271133422852e-02 -1.868160441517829895e-02 -1.373725011944770813e-02 2.813159488141536713e-02 -2.937579900026321411e-02 -4.265882074832916260e-03 2.835932187736034393e-02 -1.645299233496189117e-02 5.751362536102533340e-03 -2.987614274024963379e-02 -1.565708220005035400e-02 -2.585746906697750092e-02 1.719148270785808563e-02 9.213860146701335907e-03 3.175886347889900208e-02 1.234389375895261765e-03 9.271853603422641754e-03 1.295850519090890884e-02 1.494602207094430923e-02 -6.364369299262762070e-03 2.091991715133190155e-02 4.143565893173217773e-03 -1.071471720933914185e-02 -1.856386289000511169e-02 -1.123683713376522064e-02 -5.748512223362922668e-03 -4.021584987640380859e-03 -3.314717486500740051e-02 1.160370837897062302e-02 -1.497157290577888489e-02 5.448610521852970123e-03 -1.967234537005424500e-02 1.451453007757663727e-02 -1.860678603406995535e-04 3.456194885075092316e-03 -2.887427993118762970e-02 -2.262776345014572144e-02 -3.147882968187332153e-02 -2.350776456296443939e-02 -2.917742170393466949e-02 -2.939298283308744431e-03 1.823551394045352936e-02 2.224758081138134003e-02 2.955857291817665100e-02 1.568192616105079651e-02 2.083511650562286377e-02 1.345052104443311691e-02 -2.593390643596649170e-02 5.780967883765697479e-03 1.261977013200521469e-03 7.003993727266788483e-03 5.906123551540076733e-04 -1.897783018648624420e-02 -3.917421400547027588e-02 -1.340733282268047333e-02 -3.281435370445251465e-02 1.073479931801557541e-02 -4.291202872991561890e-03 1.569144614040851593e-02 -2.034550765529274940e-03 1.691503077745437622e-02 1.018882356584072113e-02 -2.463707141578197479e-02 -9.247931884601712227e-04 -2.292832732200622559e-02 -3.723345324397087097e-02 -4.904850851744413376e-03 2.243094332516193390e-02 -3.423462389037013054e-03 2.354167588055133820e-02 -2.031403221189975739e-02 -3.785936534404754639e-02 -5.676451604813337326e-03 -2.093530073761940002e-02 -1.482418645173311234e-02 2.524647396057844162e-03
