-3.164765192195773125e-03 1.273427857086062431e-03 3.129306435585021973e-02 2.360962517559528351e-02 -1.277582603506743908e-03 9.422625415027141571e-03 1.600031927227973938e-02 -4.820037167519330978e-03 -6.525906734168529510e-03 1.694414764642715454e-02 -1.081866398453712463e-02 8.798290044069290161e-03 -6.901573389768600464e-03 -2.273789420723915100e-02 -4.890258237719535828e-02 -3.201093524694442749e-02 9.868300519883632660e-03 2.333747968077659607e-02 -3.818311961367726326e-03 -1.855007000267505646e-02 -3.449021652340888977e-02 3.737127035856246948e-02 1.753380987793207169e-03 5.154218059033155441e-03 -2.445530891418457031e-02 -5.286629311740398407e-03 1.823223382234573364e-02 -2.954541705548763275e-02 -3.205530229024589062e-04 -1.810215972363948822e-02 1.875503733754158020e-02 -3.383942693471908569e-02 1.750129461288452148e-02 -1.586677134037017822e-02 3.780912235379219055e-02 1.782588101923465729e-02 -3.974187001585960388e-02 -6.523234769701957703e-03 -3.903932496905326843e-02 2.982915565371513367e-02 -2.223622240126132965e-02 1.916589401662349701e-02 -1.214998774230480194e-03 2.339521981775760651e-02 -1.629761047661304474e-02 -4.440091922879219055e-02 2.973458170890808105e-02 1.944654807448387146e-02 1.185353938490152359e-02 -2.203855849802494049e-02 5.289700813591480255e-03 1.433627773076295853e-02 3.620971366763114929e-02 -1.914155296981334686e-02 2.575426176190376282e-02 -2.735177986323833466e-02 -3.989826887845993042e-02 3.521638689562678337e-03 1.525309775024652481e-02 -2.549831010401248932e-02 -4.483920522034168243e-03 2.468004450201988220e-02 -2.381780184805393219e-02 -3.833891823887825012e-02 -2.785587683320045471e-02 -1.424202881753444672e-02 7.814143784344196320e-03 2.401969768106937408e-02 1.580235920846462250e-02 -3.127746284008026123e-02
