-2.858081087470054626e-02 -4.655736498534679413e-03 4.383826255798339844e-02 1.232035364955663681e-02 -1.476572453975677490e-02 4.496126621961593628e-02 -2.897388301789760590e-02 -2.611382864415645599e-03 9.301964193582534790e-03 3.186253458261489868e-02 3.847659751772880554e-02 4.572011902928352356e-02 4.200688004493713379e-02 -5.066847801208496094e-02 -6.528916209936141968e-02 -5.960513651371002197e-02 -4.752151295542716980e-02 3.472164645791053772e-02 2.727771177887916565e-02 3.989156708121299744e-02 -6.956045981496572495e-04 -5.410373955965042114e-02 4.518344067037105560e-03 4.192532598972320557e-02 4.730109497904777527e-02 -6.022758036851882935e-02 2.086262218654155731e-03 -1.523939054459333420e-02 4.600093513727188110e-02 -5.552402511239051819e-02 9.110523387789726257e-03 -2.313236705958843231e-02 7.727755233645439148e-03 2.067030593752861023e-02 1.368295215070247650e-02 -7.839472033083438873e-03 2.005268819630146027e-03 5.390102509409189224e-03 5.188801884651184082e-02 -6.080351397395133972e-02 -1.310395821928977966e-02 -1.707078516483306885e-02 -1.271440926939249039e-02 2.189363352954387665e-02 4.651336744427680969e-02 2.139935083687305450e-02 -2.929049544036388397e-02 -4.674855619668960571e-02 1.532286126166582108e-02 -5.454274639487266541e-02 2.092301286756992340e-02 -3.162565827369689941e-02 -5.498399958014488220e-02 -6.140452623367309570e-02 1.909400685690343380e-03 1.382608059793710709e-02 -5.984314251691102982e-03 -6.256204843521118164e-02 -1.623880118131637573e-02 -1.128512900322675705e-02 1.489996630698442459e-02 -1.392326783388853073e-02 8.079176768660545349e-03 -2.146465145051479340e-02
