2.324670320376753807e-03 -2.166186831891536713e-02 -2.920721657574176788e-02 2.682464756071567535e-02 -2.005508355796337128e-02 3.210876137018203735e-02 1.228444394655525684e-03 -4.498268011957406998e-03 1.871074922382831573e-02 -1.915000262670218945e-03 5.941452691331505775e-04 2.226020954549312592e-02 3.183819726109504700e-02 -4.374068230390548706e-03 -4.124057479202747345e-03 -1.540360413491725922e-02 4.280373454093933105e-03 -3.752109408378601074e-02 1.287647429853677750e-02 -1.424711942672729492e-02 -1.202681940048933029e-02 4.188060760498046875e-02 -2.030503703281283379e-03 -2.368843881413340569e-03 2.357542142271995544e-02 -6.879167165607213974e-03 -2.041096054017543793e-02 -9.625891689211130142e-04 1.881153509020805359e-02 5.051405169069766998e-03 2.013835869729518890e-02 -3.319123014807701111e-02 9.965742006897926331e-03 -2.763444744050502777e-02 -1.717708446085453033e-02 -5.892664776183664799e-04 1.563255675137042999e-02 3.972536325454711914e-02 -1.999162323772907257e-02 -2.658699080348014832e-02 2.424924448132514954e-02 -3.164781257510185242e-02 -4.180837795138359070e-02 -2.449973113834857941e-02 -2.637724019587039948e-02 -2.179040946066379547e-02 2.958731725811958313e-02 1.608443260192871094e-02 -4.879249259829521179e-03 5.355912260711193085e-03 2.312863990664482117e-02 2.016607299447059631e-02 2.873856760561466217e-02 -2.179233357310295105e-02 -2.962142974138259888e-02 -2.571925148367881775e-02 -7.589750457555055618e-03 3.818200528621673584e-02 -1.990630291402339935e-02 3.688596934080123901e-02 -3.571341186761856079e-02 -2.136799693107604980e-02 -4.180686175823211670e-02 -2.917387150228023529e-02 -1.411930564790964127e-02 -1.811991631984710693e-02 -3.960801288485527039e-02 2.933090925216674805e-02 5.659815389662981033e-03 1.670509204268455505e-02
