2.914531901478767395e-02 -2.613890543580055237e-02 -8.326140232384204865e-03 -2.538675814867019653e-02 -4.272928833961486816e-02 -2.609136141836643219e-02 5.363753996789455414e-03 -1.125403959304094315e-02 1.758904196321964264e-02 -2.254884690046310425e-02 1.237035170197486877e-02 -8.369852788746356964e-03 1.569756073877215385e-03 2.547197276726365089e-03 8.671451359987258911e-03 -9.700041264295578003e-03 -2.053279615938663483e-02 7.120464928448200226e-03 3.247126564383506775e-02 2.149221254512667656e-03 -2.690296852961182594e-03 -1.626942493021488190e-02 2.043522708117961884e-02 -1.139071490615606308e-02 -5.401948001235723495e-04 -5.095508531667292118e-04 1.291239634156227112e-02 -3.931243717670440674e-02 1.918816193938255310e-02 -1.934863068163394928e-02 -4.529590532183647156e-02 1.096767187118530273e-02 -6.285021081566810608e-03 6.349693983793258667e-03 -1.347651332616806030e-02 1.915697590447962284e-03 2.684907056391239166e-02 -1.042270087054930627e-04 -2.008519601076841354e-03 2.442650310695171356e-02 -4.144715517759323120e-02 -2.474302053451538086e-02 -1.195983402431011200e-02 -2.149786055088043213e-02 -1.432668976485729218e-02 5.533144343644380569e-03 -1.126667833887040615e-03 7.853446528315544128e-03 -1.647774502635002136e-02 -1.078365184366703033e-02 -1.475088205188512802e-02 -1.708111166954040527e-02 3.882203716784715652e-03 -2.039324864745140076e-02 9.637573733925819397e-03 -8.829202502965927124e-03 -2.540598250925540924e-02 -3.518370911478996277e-02 -8.880438283085823059e-03 -3.406270965933799744e-02 -3.464547451585531235e-03 6.957214325666427612e-03 2.521525882184505463e-02 -4.203186836093664169e-03 -4.722116515040397644e-02 6.690566893666982651e-03 2.005847916007041931e-02 1.269391085952520370e-02 -1.817738264799118042e-02 -1.740426383912563324e-02
